{"actor.network.0.weight": [[-0.4367613196372986, 0.4310915768146515, -0.31859079003334045, 0.2207927703857422], [-0.025402721017599106, -0.09721828997135162, 0.12375839054584503, 0.5919078588485718], [-0.02331288903951645, 0.038310837000608444, 0.01754777319729328, -0.13060615956783295], [0.2857089936733246, -0.0007879005279392004, -0.1609792709350586, -0.46688559651374817], [-0.049541350454092026, -0.2656894028186798, 0.3822404444217682, 0.6859074234962463], [0.515146791934967, 0.3793933391571045, -0.32569587230682373, -0.046338003128767014], [0.21706661581993103, -0.15844829380512238, -0.026193341240286827, -0.03574654832482338], [0.41778430342674255, 0.10158184915781021, -0.1475689560174942, 0.556366503238678], [-0.16258910298347473, 0.16375233232975006, -0.4540243148803711, -0.46727079153060913], [-0.13231654465198517, -0.4383859932422638, -0.3141751289367676, -0.309172660112381], [0.3357639014720917, -0.5450344681739807, 0.20069462060928345, 0.2676781117916107], [-0.31030595302581787, -0.318347305059433, -0.0034444783814251423, 0.4376054108142853], [-0.09943529963493347, 0.017736993730068207, 0.28002190589904785, 0.7984865307807922], [-0.14817698299884796, -0.16758038103580475, -0.3457696735858917, 0.6624619960784912], [0.11126911640167236, 0.5435173511505127, -0.17740333080291748, 0.40719345211982727], [-0.03505295142531395, -0.33085620403289795, 0.4615318477153778, 0.205427885055542], [-0.1067115068435669, 0.15905196964740753, -0.2559086084365845, 0.5081563591957092], [-0.1275288462638855, -0.4072302281856537, 0.0696173906326294, 0.6899749040603638], [-0.34953948855400085, -0.28497812151908875, 0.05428701639175415, -0.234538272023201], [0.23744399845600128, -0.04663519933819771, -0.598675012588501, -0.3475629985332489], [-0.0031385982874780893, 0.3866322934627533, 0.25108209252357483, 0.28968381881713867], [-0.09917095303535461, 0.36000967025756836, -0.19011157751083374, 0.08298546075820923], [-0.0014236323768272996, 0.08603668212890625, 0.18799763917922974, -0.3430277109146118], [0.17878630757331848, -0.43049198389053345, 0.19242547452449799, -0.47844865918159485], [0.2970828413963318, 0.6137406229972839, -0.17738127708435059, -0.14879871904850006], [0.14201518893241882, -0.21064351499080658, 0.3430253863334656, -0.28099769353866577], [0.25673505663871765, 0.13286294043064117, 0.5317726731300354, 0.20055276155471802], [-0.0984729453921318, -0.0024965035263448954, 0.46419408917427063, -0.2712889015674591]], "actor.network.0.bias": [0.5202159881591797, 0.0880642756819725, -0.46742409467697144, -0.22620148956775665, 0.055941320955753326, 0.03966905176639557, -0.12631353735923767, 0.17427542805671692, 0.1601254791021347, -0.25372615456581116, 0.1512083113193512, -0.48319292068481445, 0.15947645902633667, -0.009556843899190426, 0.06704999506473541, -0.08077628910541534, 0.13452252745628357, -0.04452178254723549, -0.4017733037471771, 0.1785639077425003, 0.03978296369314194, 0.17628233134746552, 0.20245246589183807, 0.29117870330810547, -0.1928626149892807, -0.36675968766212463, 0.08245241641998291, -0.32143497467041016], "actor.network.2.weight": [[0.2250959873199463, -0.15559585392475128, 0.04410136863589287, 0.052195608615875244, -0.03617328405380249, 0.022238140925765038, 0.05601631477475166, -0.024041004478931427, 0.182313933968544, -0.09824346750974655, -0.07960934191942215, 0.08975663781166077, -0.038451772183179855, -0.1169436052441597, 0.07656153291463852, 0.18399366736412048, -0.09313800185918808, -0.22646577656269073, 0.22648388147354126, 0.2080851048231125, -0.17855527997016907, 0.00280689331702888, 0.2030196189880371, 0.0720430538058281, 0.12255553901195526, -0.16802574694156647, -0.055192023515701294, 0.17628493905067444], [0.10948970913887024, 0.18304647505283356, 0.1253349483013153, 0.08304129540920258, 0.029788710176944733, 0.0037563578225672245, -0.12575067579746246, 0.18260392546653748, -0.18226268887519836, -0.20157262682914734, -0.0993557870388031, -0.03153732419013977, 0.059303153306245804, 0.1367400735616684, 0.16788074374198914, -0.10674477368593216, 0.25543418526649475, -0.1177004873752594, -0.12506014108657837, 0.07790816575288773, 0.29810771346092224, -0.011262698099017143, -0.16448558866977692, -0.281113862991333, 0.13051922619342804, -0.11734125018119812, -0.04757893085479736, 0.1913662850856781], [-0.09470079839229584, 0.03396793082356453, 0.14539168775081635, 0.0982295423746109, 0.1494562029838562, 0.08952989429235458, -0.12324520200490952, -0.16637848317623138, 0.05483932048082352, -0.04568372294306755, 0.08659007400274277, 0.10609302669763565, 0.0801304504275322, -0.07558871060609818, 0.010047090239822865, -0.08273376524448395, 0.005233882460743189, -0.03620585799217224, 0.039558008313179016, -0.05973410978913307, -0.000830130826216191, 0.07740944623947144, 0.029357315972447395, 0.08804202079772949, -0.15908803045749664, 0.0397208034992218, -0.14608171582221985, -0.18605221807956696], [0.1631152331829071, -0.1780472993850708, -0.005720987915992737, -0.17748180031776428, -0.004801745992153883, -0.04905848205089569, -0.01077502965927124, -0.09478204697370529, -0.005561565048992634, -0.04735960066318512, -0.004886463284492493, 0.16722063720226288, 0.10627929121255875, -0.1647258996963501, -0.1628475785255432, -0.16122739017009735, 0.053540125489234924, -0.07431081682443619, -0.1691603809595108, -0.010400816798210144, -0.12786942720413208, 0.08974890410900116, -0.13336816430091858, -0.08203937858343124, -0.13818959891796112, 0.0021874159574508667, -0.05722327530384064, -0.1870114654302597], [0.1128334105014801, -0.02704429440200329, 0.016040697693824768, -0.06356827169656754, -0.09701153635978699, 0.014114509336650372, -0.16035492718219757, -0.18417194485664368, 0.0886768251657486, 0.1362040936946869, 0.11742135882377625, 0.052873678505420685, 0.01152233500033617, -0.09558530151844025, -0.038585908710956573, 0.004450145643204451, -0.0748445987701416, 0.22299498319625854, 0.1503751575946808, -0.024878690019249916, 0.03738414868712425, 0.21737754344940186, 0.0009616666357032955, 0.051051098853349686, -0.03793669864535332, -0.013416364789009094, -0.05820058286190033, 0.02208707667887211], [-0.007190681528300047, -0.04812542721629143, 0.0297686904668808, 0.032507434487342834, 0.0881134420633316, -0.013442886993288994, 0.027747416868805885, 0.10634032636880875, -0.1667906939983368, -0.09103263914585114, 0.02804226242005825, 0.04626831039786339, -0.13599935173988342, -0.07518121600151062, 0.16366997361183167, -0.19238702952861786, 0.0759340226650238, -0.11826799064874649, -0.07430841028690338, -0.031038014218211174, -0.11666907370090485, 0.030540749430656433, -0.15629276633262634, -0.0003291107714176178, 0.09828818589448929, -0.06547347456216812, -0.08202528953552246, 0.11304663121700287], [0.03110853023827076, 0.2250799685716629, -0.08885014057159424, -0.01957649178802967, 0.15471220016479492, 0.02462606318295002, 0.00564791401848197, 0.027766432613134384, 0.07806642353534698, 0.014116602018475533, 0.17277082800865173, -0.02994784526526928, 0.13980774581432343, 0.33806708455085754, 0.18505346775054932, 0.04820786789059639, 0.2086765617132187, 0.2755979001522064, -0.07836463302373886, -0.15262986719608307, 0.3150239586830139, 0.005885484628379345, -0.04694283753633499, -0.18119384348392487, 0.13675503432750702, 0.17456889152526855, 0.13130304217338562, -0.0008022860274650156], [0.0686560794711113, 0.1397881656885147, -0.04239019379019737, -0.09685442596673965, -0.08629010617733002, 0.1665075123310089, 0.18245768547058105, -0.15305806696414948, -0.14896872639656067, 0.064377561211586, -0.19349762797355652, -0.06492491811513901, 0.08893164992332458, -0.13392634689807892, -0.0041595022194087505, 0.06334660202264786, 0.1280147284269333, 0.1318228542804718, 0.0705275759100914, 0.14123427867889404, -0.06106202304363251, 0.013059690594673157, -0.10366493463516235, -0.11009950935840607, -0.02629633992910385, 0.034529805183410645, -0.02251962013542652, 0.1840810328722], [-0.03657105192542076, 0.01132655143737793, -0.0739673525094986, 0.10290037095546722, -0.015024177730083466, -0.047070011496543884, -0.059675559401512146, -0.030780941247940063, 0.030640920624136925, 0.15300409495830536, 0.029580814763903618, -0.09331544488668442, -0.06662492454051971, -0.10387757420539856, -0.0656728520989418, -0.02727007493376732, 0.1663542240858078, 0.017342159524559975, 0.14400233328342438, -0.15112723410129547, 0.007345825433731079, -0.10696884989738464, 0.05119761824607849, -0.13435505330562592, 0.0697779506444931, -0.022297009825706482, 0.0823255330324173, -0.06314105540513992], [0.08102308213710785, -0.006673723459243774, -0.12310411781072617, 0.15416035056114197, -0.04972027614712715, -0.10015188157558441, -0.03821949288249016, 0.14698095619678497, -0.003809945657849312, 0.1947512924671173, 0.11258193850517273, 0.004023738671094179, -0.1909860521554947, -0.017845401540398598, -0.05905725806951523, 0.05672278255224228, 0.07906123995780945, 0.031838878989219666, -0.01958298869431019, 0.14123080670833588, -0.07695435732603073, 0.16977639496326447, 0.10302606970071793, -0.052694253623485565, -0.06442233175039291, -0.04421313479542732, -0.10402833670377731, -0.1644618958234787], [0.0021878781262785196, 0.08845755457878113, 0.06333073228597641, 0.21398469805717468, -0.19025471806526184, 0.17737190425395966, 0.028421984985470772, 0.07630596309900284, 0.08764743059873581, -0.04100669175386429, -0.2145860195159912, 0.11359294503927231, -0.07636082917451859, -0.003169080475345254, 0.1709025651216507, 0.1733294576406479, 0.10707037895917892, -0.09857179969549179, -0.09868862479925156, 0.02104130946099758, 0.08527001738548279, -0.11149823665618896, -0.12501834332942963, 0.14044801890850067, -0.11119735985994339, 0.13605397939682007, -0.06761663407087326, -0.051113247871398926], [0.050183527171611786, 0.054725296795368195, -0.013222306966781616, -0.1715889722108841, 0.08994372934103012, -0.18615955114364624, -0.021985061466693878, 0.251922070980072, -0.14536382257938385, 0.04438646882772446, 0.07524879276752472, 0.15789537131786346, 0.35572636127471924, 0.03226394206285477, 0.12267051637172699, -0.04630259424448013, 0.3027345836162567, 0.15941664576530457, 0.04530943185091019, -0.052972953766584396, 0.03592501953244209, 0.02923469990491867, -0.3175029456615448, -0.24267421662807465, 0.03729449212551117, -0.162835955619812, 0.12139549851417542, -0.1012759655714035], [0.14032742381095886, 0.006865260656923056, -0.03853904455900192, -0.04266337305307388, -0.1437012255191803, 0.008389383554458618, 0.15289205312728882, 0.01758512482047081, 0.1612391173839569, 0.11891639977693558, 0.07286179810762405, 0.13025546073913574, 0.026377471163868904, -0.07874809205532074, 0.07517779618501663, -0.10710490494966507, 0.026787908747792244, 0.14442278444766998, 0.11939719319343567, 0.19387945532798767, 0.11728371679782867, 0.026037313044071198, 0.2395610511302948, -0.03385959938168526, 0.22550375759601593, 0.09956739097833633, 0.09207887202501297, -0.01924746111035347], [0.20330949127674103, 0.24712856113910675, 0.08227518945932388, 0.1215081512928009, 0.026282301172614098, 0.06907548755407333, 0.03031797893345356, 0.1081741601228714, -0.13651472330093384, -0.2368452399969101, 0.04883209615945816, 0.04216602444648743, 0.2823474109172821, 0.20380949974060059, 0.2624107301235199, 0.2127773016691208, 0.3164079785346985, 0.07346497476100922, -0.09981676936149597, -0.3552507162094116, 0.21331080794334412, 0.1556515395641327, -0.02459464594721794, -0.11610951274633408, 0.2472616285085678, 0.15435843169689178, 0.3258265554904938, -0.14685246348381042], [-0.005556338466703892, -0.23235821723937988, 0.10183720290660858, -0.1720338761806488, -0.13750013709068298, -0.04618780314922333, -0.008734676986932755, -0.06417585164308548, 0.1447288691997528, -0.08854750543832779, 0.007922273129224777, -0.08298056572675705, -0.11695195734500885, -0.10888329148292542, -0.11514215916395187, 0.061719052493572235, 0.06619147211313248, -0.24632278084754944, 0.029690034687519073, 0.14885973930358887, -0.29009586572647095, -0.0754619687795639, 0.25183364748954773, 0.12962672114372253, -0.13181139528751373, 0.117680124938488, -0.10458319634199142, 0.16844522953033447], [0.058505043387413025, -0.18183653056621552, -0.13228116929531097, 0.08890695124864578, -0.19627083837985992, 0.11027440428733826, 0.13518673181533813, -0.05248738080263138, 0.19091568887233734, -0.04098955914378166, 0.1215912327170372, 0.1727921962738037, -0.10200055688619614, -0.02346550114452839, -0.028524762019515038, -0.026980558410286903, -0.3062005937099457, -0.07867582142353058, 0.1579333394765854, 0.028476646170020103, 0.004884940572082996, -0.22406144440174103, 0.10186436772346497, 0.2972078323364258, 0.04672813415527344, 0.003964949864894152, -0.09275582432746887, 0.17289893329143524], [-0.0845537781715393, 0.11225831508636475, -0.10961885750293732, 0.18146361410617828, 0.24147643148899078, 0.16012653708457947, -0.14652764797210693, 0.1962260603904724, -0.13441671431064606, 0.034771405160427094, 0.24896375834941864, -0.04968572407960892, 0.2129785716533661, 0.19855158030986786, 0.28000637888908386, 0.2558760941028595, 0.3479945659637451, 0.006603450048714876, 0.08228123188018799, -0.011323492974042892, 0.0328950434923172, 0.023874886333942413, -0.21284717321395874, -0.2099504917860031, 0.09064164757728577, -0.13752010464668274, 0.24279968440532684, 0.03759434074163437], [-0.14962832629680634, -0.14494575560092926, 0.0180677380412817, -0.009314678609371185, 0.004842683207243681, 0.15566721558570862, 0.176034614443779, 0.07579199969768524, -0.05394728481769562, -0.15865527093410492, 0.19138166308403015, -0.020459316670894623, -0.1850629299879074, -0.10514891892671585, -0.13737846910953522, -0.17694427073001862, -0.23269760608673096, 0.11531315743923187, 0.07590233534574509, 0.16643738746643066, -0.179132342338562, 0.0516279973089695, 0.21362128853797913, 0.20839428901672363, -0.1242743507027626, -0.03095051646232605, -0.230137899518013, 0.168311208486557], [-0.06791791319847107, 0.06386326998472214, -0.1278359293937683, 0.161173477768898, -0.04084746912121773, 0.08494476974010468, -0.11809275299310684, -0.25508931279182434, -0.014976821839809418, 0.14479626715183258, 0.11139556765556335, 0.12761081755161285, -0.28144749999046326, 0.1067638024687767, 0.07310639321804047, 0.07675939053297043, -0.22847063839435577, -0.15573418140411377, 0.05385011434555054, -0.03097662515938282, 0.007510729134082794, 0.1647314429283142, 0.16734087467193604, 0.10218589752912521, 0.0018380816327407956, 0.15976226329803467, 0.03577947989106178, 0.011863461695611477], [0.2596779465675354, -0.22415605187416077, -0.12357383966445923, 0.13663850724697113, -0.10311834514141083, -0.006217417307198048, 0.04458152502775192, -0.21129891276359558, 0.12932828068733215, -0.011345596984028816, 0.07502449303865433, 0.07781074941158295, -0.12829984724521637, -0.29005780816078186, -0.12596817314624786, 0.048179224133491516, 0.003993765451014042, 0.008088168688118458, -0.08731558918952942, 0.248807892203331, -0.010409962385892868, -0.0756300687789917, 0.16095663607120514, 0.27822476625442505, -0.12431132793426514, -0.17348678410053253, -0.19433844089508057, -0.12403058260679245], [0.019875014200806618, 0.10500887036323547, -0.017562294378876686, -0.16230903565883636, -0.229737788438797, -0.1324986219406128, -0.1904633492231369, -0.2222011685371399, 0.023039458319544792, 0.12263811379671097, 0.10109568387269974, 0.06756357848644257, -0.030032595619559288, -0.07314690947532654, -0.034512441605329514, 0.18583989143371582, -0.24753035604953766, -0.16652697324752808, -0.12013242393732071, 0.201114222407341, -0.032708752900362015, 0.08269307762384415, 0.10542397201061249, 0.03440002351999283, 0.08046066761016846, 0.17703692615032196, 0.04875591769814491, 0.03688734024763107], [0.18688930571079254, -0.05666707456111908, 0.02800380438566208, -0.22867637872695923, -0.11334366351366043, 0.04536334052681923, 0.022852960973978043, -0.13099552690982819, 0.17250172793865204, 0.19865038990974426, 0.052546024322509766, 0.14599071443080902, -0.01251612976193428, 0.09320241212844849, -0.14354869723320007, 0.067866250872612, -0.10594009608030319, -0.08974192291498184, 0.1371871381998062, 0.08680042624473572, -0.19061756134033203, 0.144786074757576, 0.09550357609987259, 0.19176261126995087, -0.09638318419456482, -0.011912882328033447, -0.20169512927532196, 0.12921284139156342], [0.2713344395160675, 0.004627153277397156, 0.06391297280788422, 0.041484102606773376, 0.15307122468948364, 0.2738986015319824, -0.14613932371139526, 0.0549846775829792, 0.10254814475774765, -0.05494127795100212, 0.18731552362442017, -0.04861212149262428, 0.016229672357439995, -0.11252210289239883, 0.13708238303661346, 0.05174996703863144, 0.02714567631483078, 0.18929307162761688, -0.002313756849616766, 0.08090679347515106, 0.027576114982366562, 0.11862307041883469, 0.2825499176979065, -0.0331905372440815, 0.04798853397369385, 0.09870674461126328, -0.019217122346162796, 0.15236851572990417], [-0.032534416764974594, -0.09429601579904556, -0.1598600596189499, 0.04346233978867531, -0.05440620705485344, 0.19878792762756348, -0.09536401927471161, -0.046793773770332336, -0.1301860809326172, -0.19400937855243683, 0.16082683205604553, 0.16109693050384521, 0.27635499835014343, 0.02992224134504795, 0.009058071300387383, 0.008771339431405067, 0.14458920061588287, 0.23322147130966187, -0.07060003280639648, 0.059552449733018875, 0.17057909071445465, 0.19516274333000183, -0.010055501945316792, -0.23274016380310059, 0.027772320434451103, 0.018941298127174377, 0.11257286369800568, 0.15075445175170898], [0.08017156273126602, 0.10282985866069794, -0.03300701081752777, 0.09337052702903748, -0.23341915011405945, 0.10769257694482803, -0.077151358127594, -0.23840713500976562, -0.09491093456745148, -0.029076913371682167, 0.036670368164777756, -0.017175551503896713, -0.12897638976573944, -0.2052740603685379, 7.083527452778071e-05, -0.09597469121217728, -0.14526665210723877, 0.05059075355529785, 0.11401655524969101, 0.2631325423717499, -0.24144288897514343, 0.04584897309541702, 0.05658426508307457, 0.30245253443717957, -0.23433253169059753, 0.09342655539512634, -0.2392909675836563, 0.10125160962343216], [0.023326728492975235, -0.14991620182991028, 0.14102771878242493, 0.06335358321666718, -0.03596464917063713, 0.15826159715652466, -0.07138752937316895, 0.16864822804927826, 0.01648881286382675, -0.02527451515197754, -0.23021823167800903, 0.10560119152069092, -0.17372357845306396, 0.09838387370109558, 0.2256278693675995, -0.0616726353764534, -0.06566961854696274, -0.10156591981649399, 0.034544020891189575, 0.0463591106235981, 0.2445300817489624, 0.03341236338019371, 0.007221180479973555, 0.027649622410535812, 0.24231943488121033, -0.03736612945795059, 0.014115683734416962, 0.06019635125994682], [0.04215944558382034, -0.08795968443155289, 0.10468153655529022, 0.11958128958940506, -0.12749025225639343, 0.013473390601575375, -0.11026851832866669, -0.07056356966495514, 0.07299754023551941, 0.12179706990718842, 0.25292909145355225, 0.07645929604768753, -0.17686377465724945, -0.09735949337482452, -0.1356973648071289, -0.1327674835920334, -0.042186103761196136, -0.30121180415153503, -0.047595031559467316, 0.22982732951641083, -0.3222179114818573, 0.09442412853240967, -0.08687484264373779, 0.32399284839630127, 0.051478248089551926, -0.11276016384363174, -0.14585067331790924, 0.06330320984125137], [-0.11685077100992203, 0.009192734025418758, -0.03636658936738968, -0.11295841634273529, 0.18267761170864105, -0.09773599356412888, -0.004562326706945896, 0.11683981865644455, 0.16944538056850433, 0.06347941607236862, 0.23741497099399567, 0.1411076933145523, -0.08967361599206924, -0.12096469849348068, -0.19394366443157196, 0.212345153093338, 0.015321686863899231, -0.06730516254901886, 0.22323687374591827, 0.24646751582622528, -0.10676251351833344, -0.054271284490823746, 0.05826222896575928, 0.06465505808591843, 0.019418109208345413, -0.09286760538816452, 0.010429572314023972, -0.17168781161308289]], "actor.network.2.bias": [-0.00753058074042201, 0.1297755241394043, -0.10539358854293823, -0.0658494308590889, 0.03417598456144333, -0.14399224519729614, 0.07151489704847336, -0.13735999166965485, -0.11390397697687149, 0.11718123406171799, -0.05821849778294563, 0.05582956597208977, 0.05018315464258194, -0.07915369421243668, 0.324176162481308, 0.16239961981773376, 0.1612071692943573, 0.18918998539447784, -0.02206168882548809, 0.1009216159582138, 0.1971418559551239, 0.024945156648755074, 0.1707342267036438, 0.04977560043334961, 0.21899300813674927, -0.005556666757911444, 0.21881501376628876, 0.09631510078907013], "actor.network.4.weight": [[0.14607836306095123, 0.11102432757616043, 0.1069883480668068, -0.08675815910100937, 0.20163923501968384, -0.025758126750588417, 0.01483399048447609, 0.17247289419174194, -0.056627046316862106, -0.05081899091601372, -0.10373393446207047, -0.07794618606567383, 0.019501611590385437, -0.3627953827381134, 0.28571149706840515, 0.028020229190587997, -0.22949455678462982, 0.128970667719841, 0.08693087846040726, 0.3187906742095947, 0.2862097918987274, -0.00524270161986351, 0.17562325298786163, -0.25187262892723083, 0.04955824837088585, 0.045104239135980606, 0.2735839784145355, 0.17799977958202362], [0.08257544785737991, 0.06843262165784836, -0.05563153326511383, -0.16672106087207794, -0.021447855979204178, 0.12198962271213531, -0.17558354139328003, 0.07136671245098114, 0.0958005040884018, 0.09996534138917923, 0.07909031212329865, -0.18810977041721344, 0.19050142168998718, 0.17337264120578766, -0.20765814185142517, 0.21183834969997406, -0.009063362143933773, 0.07475242018699646, 0.16736161708831787, 0.04688778892159462, 0.14918695390224457, -0.12235720455646515, 0.06224330887198448, -0.13803960382938385, -0.15755459666252136, 0.016735397279262543, -0.10675749182701111, 0.07949639856815338], [-0.10539742559194565, -0.00799115002155304, 0.09437219798564911, -0.0922539085149765, 0.007954567670822144, 0.07638080418109894, -0.13722260296344757, -0.051328957080841064, -0.1737496703863144, -0.17850443720817566, 0.10835619270801544, 0.08191077411174774, 0.009286671876907349, 0.0008091479539871216, -0.15663248300552368, -0.026308506727218628, -0.08352573961019516, -0.1662028729915619, 0.09517945349216461, 0.017910510301589966, -0.13227608799934387, -0.09956934303045273, 0.0867512971162796, 0.0107184499502182, 0.1792553812265396, -0.008939221501350403, -0.1743026077747345, 0.024210795760154724], [0.2283637672662735, -0.12393764406442642, 0.16784553229808807, 0.007730384822934866, -0.0761479064822197, -0.03487994894385338, -0.17206402122974396, -0.015369558706879616, 0.08379150182008743, 0.20803730189800262, 0.04252389445900917, -0.08401915431022644, 0.14891941845417023, -0.0768902450799942, 0.24959032237529755, 0.04607318714261055, -0.2048860639333725, 0.10184713453054428, -0.11499982327222824, -0.04657856002449989, 0.1443409025669098, 0.18924829363822937, 0.14675793051719666, -0.23238499462604523, 0.2842006981372833, -0.23927447199821472, 0.24950382113456726, 0.12632358074188232], [-0.0244698878377676, 0.22699853777885437, 0.178583562374115, -0.024622131139039993, 0.018158627673983574, 0.10523721575737, 0.21981990337371826, -0.07384735345840454, 0.03150041401386261, 0.19577810168266296, -0.10088054835796356, 0.18490156531333923, -0.08933033049106598, 0.06778223067522049, -0.16331173479557037, -0.06493758410215378, 0.27072566747665405, 0.07839173078536987, -0.04037204012274742, 0.04869174584746361, 0.0367627777159214, -0.09104293584823608, 0.03102923184633255, -0.033776212483644485, -0.037827834486961365, 0.11748190224170685, -0.07635802030563354, -0.02433016523718834], [-0.07275883108377457, -0.1782035082578659, -0.1733899861574173, 0.12544898688793182, 0.11822756379842758, 0.030682727694511414, -0.08975216746330261, -0.00733532477170229, 0.1016634851694107, 0.12951283156871796, 0.05235401913523674, 0.1593019813299179, -0.11837002635002136, 0.13668155670166016, -0.1436578333377838, -0.10407397150993347, 0.0028674863278865814, 0.1300591677427292, -0.11571823805570602, 0.13209323585033417, 0.20275668799877167, 0.16061924397945404, 0.06865211576223373, 0.14860309660434723, -0.00011162708688061684, 0.1210014820098877, -0.1041615903377533, 0.155770942568779], [0.0782458558678627, -0.12139242142438889, 0.1650979071855545, 0.17461909353733063, -0.14729854464530945, 0.1672283560037613, -0.08398623019456863, -0.040569406002759933, -0.02732609212398529, -0.13489921391010284, 0.10894134640693665, -0.13493479788303375, -0.030363181605935097, 0.035773489624261856, 0.06495057791471481, 0.030534932389855385, -0.054368238896131516, 0.06696475297212601, -0.08277086168527603, -0.09264981746673584, -0.07379379868507385, 0.0064747449941933155, -0.006953676231205463, 0.07491020858287811, -0.025316299870610237, 0.0444067157804966, -0.16522839665412903, -0.0034236584324389696], [0.0015051746740937233, -0.22648181021213531, -0.14178918302059174, -0.10138198733329773, 0.04800759255886078, -0.11164924502372742, -0.18849729001522064, -0.12414582818746567, -0.025743458420038223, 0.13350893557071686, -0.09118286520242691, -0.12359391897916794, -0.031139297410845757, -0.10852410644292831, 0.16279636323451996, 0.05203455686569214, -0.13642939925193787, 0.1955615133047104, 0.08473669737577438, 0.2848834693431854, 0.0006005906034260988, 0.19210240244865417, 0.14372923970222473, -0.19150936603546143, 0.16920512914657593, -0.29048049449920654, 0.3232507109642029, 0.16335216164588928], [0.15618038177490234, 0.12983593344688416, 0.19558201730251312, -0.05729212611913681, -0.18347224593162537, -0.12878258526325226, 0.17980612814426422, 0.013528024777770042, -0.12771481275558472, -0.07280594855546951, -0.005627392791211605, 0.11983589082956314, -0.014126918278634548, 0.2312430590391159, -0.25137534737586975, 0.03816385939717293, 0.2967129051685333, 0.07277804613113403, -0.05846083164215088, 0.03136632591485977, -0.012781393714249134, -0.2900770604610443, 0.1806219518184662, 0.0945381298661232, -0.10706306993961334, 0.13327492773532867, -0.17480407655239105, 0.14856570959091187], [-0.11461856961250305, 0.10097654908895493, 0.16621793806552887, 0.09593482315540314, 0.05198972672224045, -0.17011111974716187, 0.3879181742668152, -0.10260876268148422, -0.04061149060726166, 0.24169693887233734, 0.14833387732505798, 0.18610072135925293, 0.29271411895751953, 0.4691668152809143, -0.36480382084846497, -0.18805988132953644, 0.23647743463516235, 0.07652156800031662, -0.04644268378615379, -0.15848514437675476, -0.0015278460923582315, -0.12683777511119843, 0.098516546189785, 0.35173848271369934, -0.17500680685043335, 0.2561417818069458, -0.21088193356990814, 0.010263020172715187], [-0.15704688429832458, -0.117635577917099, 0.04573248326778412, -0.04024481773376465, 0.12943297624588013, -0.13480500876903534, 0.0913921669125557, 0.06857592612504959, -0.007689118385314941, -0.0437910333275795, 0.06057988107204437, 0.14051145315170288, -0.18637514114379883, -0.043640099465847015, 0.048007670789957047, -0.07924879342317581, -0.0859491378068924, -0.06121869757771492, 0.05284372344613075, -0.19133660197257996, 0.058937009423971176, 0.17451724410057068, 0.04220962896943092, -0.0586078055202961, 0.09541788697242737, -0.07592752575874329, 0.013795704580843449, 0.09491703659296036], [0.08592996001243591, -0.08066321164369583, -0.0059416890144348145, -0.08129296451807022, -0.04874777793884277, -0.07120067626237869, -0.03896983712911606, 0.008088618516921997, -0.12891650199890137, -0.08151393383741379, -0.18095912039279938, -0.01381528377532959, -0.05742023140192032, -0.1336168795824051, -0.16465622186660767, -0.03070591390132904, -0.18095237016677856, -0.14122454822063446, -0.05678418278694153, 0.08267892152070999, 0.004496527835726738, -0.0496993251144886, 0.09969372302293777, 0.14700372517108917, 0.004752511624246836, 0.1113964095711708, 0.06577551364898682, -0.10031663626432419], [0.07907672226428986, 0.07703797519207001, 0.005320953205227852, -0.18177877366542816, -0.059290312230587006, -0.17800410091876984, 0.08680155873298645, 0.00312154833227396, -0.07089737802743912, 0.21868254244327545, 0.18821553885936737, 0.2324436753988266, -0.03539930656552315, 0.2642343044281006, -0.23416131734848022, -0.052212368696928024, 0.37292730808258057, 0.09016432613134384, 0.11748115718364716, -0.2339901626110077, -0.1661752462387085, -0.27069488167762756, 0.10803992301225662, 0.2841465175151825, -0.012837421149015427, 0.26785701513290405, -0.08026527613401413, -0.10230346024036407], [-0.1614903211593628, 0.10120858997106552, 0.08392975479364395, -0.10590004175901413, 0.05711046978831291, -0.09145691990852356, 0.21689558029174805, -0.026810890063643456, 0.11477921903133392, 0.03011498786509037, 0.20052526891231537, 0.26916056871414185, 0.14083343744277954, 0.29162415862083435, -0.12240634113550186, -0.0780193954706192, 0.35029128193855286, -0.18682579696178436, 0.09613899886608124, 0.03665608540177345, -0.2166648954153061, -0.1069716140627861, 0.23216645419597626, 0.21328748762607574, -0.2608850300312042, 0.07005731761455536, 0.0008183714817278087, 0.0018166254740208387], [0.03151628002524376, -0.0821872428059578, -0.06240963190793991, -0.10922104120254517, 0.11124475300312042, 0.010028913617134094, 0.015878690406680107, -0.11705657839775085, -0.16967198252677917, -0.005366839934140444, 0.09829453378915787, -0.1838945895433426, -0.01857752911746502, 0.12967580556869507, 0.1096728965640068, -0.1981968879699707, 0.11264006048440933, 0.0035654855892062187, -0.06902424246072769, 0.05969139561057091, 0.06890580803155899, -0.0023746294900774956, 0.061346445232629776, -0.15546932816505432, -0.08562285453081131, -0.19422553479671478, 0.15960751473903656, 0.01681714691221714], [-0.02451198175549507, 0.08196189999580383, -0.007186919450759888, 0.1068304032087326, 0.1510261744260788, 0.05503104254603386, -0.20262011885643005, 0.08540143817663193, -0.04462137818336487, 0.07389500737190247, 0.00581783801317215, -0.05683128908276558, 0.11619754135608673, 0.10476215928792953, 0.08574733883142471, 0.09701058268547058, -0.08657673001289368, 0.06743878871202469, -0.21796223521232605, -0.12689897418022156, -0.22307129204273224, -0.17099353671073914, 0.08305316418409348, 0.16553062200546265, -0.20495517551898956, 0.12323634326457977, -0.009693635627627373, -0.20559342205524445], [-0.1661633998155594, -0.06281308829784393, -0.10146896541118622, -0.15662984549999237, 0.0087900310754776, -0.07051865011453629, -0.10639669001102448, -0.16631531715393066, -0.14218932390213013, -0.08202525973320007, 0.009151846170425415, -0.16406281292438507, -0.1249285489320755, 0.10969050228595734, 0.0059934500604867935, -0.04537826403975487, -0.020864348858594894, -0.006393859162926674, 0.02227132022380829, 0.01737504079937935, 0.05145983397960663, 0.03484110161662102, 0.1663445681333542, -0.09403368830680847, 0.04630288854241371, -0.06099832057952881, 0.1508282870054245, -0.07297548651695251], [0.18464283645153046, 0.0009378221584483981, -0.10201375931501389, -0.012664726004004478, 0.0379985086619854, 0.12047029286623001, -0.19635847210884094, -0.019325081259012222, 0.13541164994239807, -0.08249402791261673, 0.042653657495975494, 0.04100767895579338, 0.0012625318486243486, -0.09037686139345169, 0.3272923231124878, -0.0361645445227623, -0.11876045912504196, 0.1329667717218399, 0.14042779803276062, 0.13078667223453522, 0.2822776138782501, 0.1273604929447174, 0.12023402005434036, -0.2554433345794678, 0.2420538365840912, -0.14132672548294067, 0.23996154963970184, 0.2664838433265686], [0.09077251702547073, 0.1679864376783371, -0.06396177411079407, -0.07937797904014587, -0.04173406958580017, 0.06333111226558685, -0.12789320945739746, -0.09998670220375061, -0.10753769427537918, -0.04515300691127777, -0.14269739389419556, -0.052896276116371155, -0.03066425584256649, -0.01466098427772522, 0.07507574558258057, -0.028936855494976044, -0.18142437934875488, -0.19435621798038483, -0.11628399789333344, 0.03899676725268364, 0.16141662001609802, -0.1633097529411316, -0.10876696556806564, 0.16418367624282837, 0.0036266057286411524, 0.13259707391262054, 0.1383431851863861, 0.04537196457386017], [0.13292554020881653, -0.26960837841033936, 0.07959362864494324, 0.1350991576910019, 0.1744128167629242, 0.16590741276741028, -0.1413728892803192, -0.05942751467227936, 0.04127493500709534, 0.02542167715728283, 0.1340637058019638, 0.06065661460161209, -0.13732092082500458, -0.1462727040052414, 0.12038558721542358, 0.031339097768068314, -0.22754578292369843, 0.07208336889743805, 0.17317399382591248, 0.1366139054298401, 0.09461714327335358, 0.3138393759727478, 0.06403202563524246, -0.10698241740465164, -0.030993662774562836, -0.09985511749982834, 0.2822226881980896, 0.2194853276014328], [0.01578507572412491, -0.28327813744544983, 0.061122335493564606, -0.019995778799057007, 0.20618271827697754, 0.007136218715459108, -0.0006357867387123406, -0.11436803638935089, 0.021980058401823044, -0.20855526626110077, 0.10561084747314453, -0.034417055547237396, 0.11228206008672714, -0.12949658930301666, 0.17720136046409607, -0.018987512215971947, -0.3025672137737274, 0.02716238982975483, 0.0697982981801033, 0.06308992207050323, 0.1682952344417572, 0.274370014667511, 0.1238020807504654, -0.22443538904190063, 0.19585247337818146, 0.013736329972743988, 0.1887567937374115, 0.21274656057357788], [0.0813182070851326, 0.007890547625720501, -0.13542237877845764, -0.1668878197669983, 0.14817486703395844, 0.1182430312037468, -0.05713542178273201, 0.04148497059941292, 0.07166490703821182, 0.055294401943683624, -0.18752577900886536, -0.13913661241531372, 0.2031373679637909, -0.1985708624124527, 0.29550209641456604, 0.11295831203460693, -0.17897552251815796, 0.00554638309404254, 0.015127203427255154, 0.337307870388031, 0.09437189251184464, 0.33854910731315613, 0.1058250442147255, 0.0481247752904892, 0.10472206026315689, -0.0846288874745369, 0.30242234468460083, -0.03532654047012329], [0.08351617306470871, 0.22799474000930786, -0.09044226258993149, -0.070265032351017, -0.15185460448265076, 0.10741393268108368, 0.1845564991235733, -0.16740001738071442, 0.009066164493560791, -0.14652229845523834, -0.03812854737043381, 0.2894149124622345, 0.11676768958568573, 0.09815317392349243, -0.18082396686077118, -0.24496875703334808, 0.291639506816864, -0.18659503757953644, -0.13261380791664124, -0.07962226867675781, -0.047279469668865204, 0.024098990485072136, 0.10964181274175644, 0.25592368841171265, -0.21386101841926575, -0.07669992744922638, 0.05375536531209946, 0.08019549399614334], [0.21362949907779694, 0.10550476610660553, 0.009952716529369354, 0.07241365313529968, -0.08558990806341171, -0.019220195710659027, -0.010497920215129852, -0.16198046505451202, -0.11365529894828796, 0.2291591912508011, -0.15203474462032318, -0.25575578212738037, 0.052411094307899475, -0.3119611144065857, 0.3408306837081909, 0.16114462912082672, 0.06054730340838432, 0.09176021814346313, 0.11723106354475021, 0.28552886843681335, 0.08094129711389542, 0.06721451133489609, -0.11602082848548889, -0.20787814259529114, 0.26516228914260864, -0.1055183932185173, 0.2900997996330261, -0.004201163072139025], [-0.031088968738913536, 0.3253602683544159, 0.03670405223965645, -0.17928460240364075, -0.14392849802970886, 0.05423324182629585, 0.37767231464385986, -0.17417621612548828, 0.17916028201580048, -0.015312251634895802, -0.04690482094883919, 0.10991636663675308, 0.16492104530334473, 0.2985808551311493, -0.20926490426063538, 0.10194872319698334, 0.3794116973876953, -0.12100715935230255, 0.1548713594675064, -0.2566740810871124, 0.01207520067691803, -0.09982208162546158, 0.31011709570884705, 0.3714854121208191, -0.08389070630073547, 0.2862696945667267, -0.2643536329269409, 0.04191398248076439], [-0.012626131065189838, -0.05047186091542244, 0.12505747377872467, -0.04199005290865898, -0.017854472622275352, 0.11436683684587479, -0.00036102108424529433, -0.09043821692466736, 0.11028333753347397, -0.12814216315746307, 0.18767869472503662, 0.09055336564779282, -0.04176870360970497, -0.007273933384567499, 0.2983275353908539, 0.1794140785932541, -0.17669406533241272, 0.22762396931648254, -0.04021551460027695, 0.09187579154968262, 0.1962120234966278, 0.24353104829788208, -0.14073151350021362, 0.08196868002414703, 0.03183852136135101, -0.14159312844276428, 0.18495546281337738, -0.07680894434452057], [-0.031692855060100555, 0.1826094388961792, -0.03509414196014404, -0.1253884881734848, -0.1360715925693512, -0.15511000156402588, 0.2169894129037857, -0.17241892218589783, -0.1343212127685547, 0.007390069309622049, 0.13302086293697357, 0.17747364938259125, 0.20096388459205627, 0.0941653773188591, -0.273333877325058, 0.11438298225402832, 0.25165536999702454, 0.04970838502049446, 0.19371742010116577, -0.046290379017591476, 0.08259384334087372, -0.210887610912323, -0.0946451872587204, 0.13096944987773895, -0.22058293223381042, 0.17774929106235504, 0.02127905562520027, 0.06067824736237526], [-0.09136346727609634, -0.010964745655655861, 0.16900615394115448, -0.09766674041748047, 0.17429746687412262, -0.02278118021786213, -0.09793518483638763, -0.15390644967556, 0.13489118218421936, 0.0575147345662117, 0.023387880995869637, -0.26872000098228455, 0.1531704068183899, -0.08363942056894302, 0.18202492594718933, 0.1627524048089981, -0.25465866923332214, -0.0715193897485733, -0.13707835972309113, 0.19920432567596436, -0.015642398968338966, 0.30396443605422974, -0.03523022681474686, -0.02626715414226055, 0.1752406358718872, -0.013942566700279713, 0.18834052979946136, -0.07375403493642807]], "actor.network.4.bias": [0.062137313187122345, -0.0890096127986908, -0.14781886339187622, 0.022318001836538315, 0.011921175755560398, -0.1402008980512619, -0.08706346154212952, 0.12562470138072968, 0.02814602106809616, 0.1231956034898758, -0.04653351008892059, -0.19019019603729248, 0.11598944664001465, 0.0570308081805706, -0.20172804594039917, -0.2152368128299713, -0.07962385565042496, -0.012875567190349102, -0.06813941895961761, 0.19804483652114868, 0.16987937688827515, 0.016804257407784462, 0.16520175337791443, 0.011674224399030209, -0.007954331114888191, 0.0659375861287117, 0.06721273064613342, 0.21653428673744202], "actor.network.6.weight": [[0.27570924162864685, -0.23942148685455322, 0.04656890034675598, 0.231816366314888, -0.12693533301353455, 0.13816049695014954, 0.10730458050966263, 0.31547966599464417, -0.3045186996459961, -0.19472752511501312, -0.024852994829416275, -0.05579959601163864, -0.361756294965744, -0.3458891212940216, 0.06096808239817619, 0.03531181812286377, -0.061554599553346634, 0.01528007723391056, -0.05074692517518997, 0.30695676803588867, 0.016714371740818024, 0.33573535084724426, -0.20471662282943726, 0.13410526514053345, -0.38335567712783813, 0.10096597671508789, -0.01629638858139515, 0.27228862047195435], [-0.266843318939209, 0.20236743986606598, 0.15626372396945953, -0.26613855361938477, 0.05939868092536926, -0.058912236243486404, -0.08909738063812256, -0.3359520733356476, 0.11137189716100693, 0.2822265625, -0.0763578861951828, -0.09114861488342285, 0.09595233201980591, 0.34524425864219666, 0.03363168612122536, -0.08269855380058289, -0.0584670715034008, -0.21482419967651367, 0.03777838498353958, -0.284751832485199, -0.16829174757003784, -0.24481001496315002, 0.18659211695194244, -0.30122214555740356, 0.17761322855949402, -0.2151314914226532, 0.1386297047138214, -0.23462407290935516]], "actor.network.6.bias": [-0.17250972986221313, -0.08413579314947128], "critic.network.0.weight": [[-0.28545671701431274, 0.09048018604516983, -0.4387037456035614, 0.13018663227558136], [0.3162756860256195, -0.12960119545459747, 0.1742493063211441, -0.07338502258062363], [0.5238546133041382, -0.3453695774078369, -0.282734751701355, -0.13797102868556976], [0.38647907972335815, -0.14499151706695557, 0.602897047996521, -0.38968613743782043], [-0.039109863340854645, -0.3064364194869995, -0.17235851287841797, 0.4485483765602112], [-0.44524291157722473, -0.32289859652519226, -0.5474916696548462, 0.2222891002893448], [-0.4330218434333801, -0.47912442684173584, 0.24333110451698303, -0.4615419805049896], [0.5213736295700073, 0.3484552204608917, -0.03320789709687233, -0.3067549765110016], [0.08942752331495285, -0.17085790634155273, -0.09319652616977692, 0.0840107649564743], [0.23255854845046997, -0.30442845821380615, -0.18005318939685822, -0.23182973265647888], [0.21844825148582458, -0.22393402457237244, 0.29071277379989624, -0.03682474419474602], [0.265223890542984, -0.44613975286483765, 0.21547122299671173, -0.25010988116264343], [0.435356467962265, 0.4448045492172241, 0.014897019602358341, 0.5506556630134583], [0.2781848609447479, 0.22364670038223267, 0.0484623908996582, 0.19029663503170013], [-0.019167838618159294, -0.44808870553970337, 0.5858321189880371, 0.25810956954956055], [-0.2033904641866684, 0.15364575386047363, 0.07317852973937988, -0.04966462403535843], [0.036476463079452515, 0.03544630855321884, 0.23099689185619354, 0.44194653630256653], [0.32902422547340393, 0.0028684530407190323, 0.25236472487449646, 0.3815343379974365], [-0.46147653460502625, -0.24116890132427216, 0.4528927803039551, 0.43156716227531433], [-0.3621996343135834, 0.3822522759437561, 0.48235440254211426, 0.13052788376808167], [0.48051196336746216, 0.3594682514667511, -0.5177276730537415, 0.34686508774757385], [-0.11316636949777603, 0.03314938023686409, 0.2117360532283783, 0.28716740012168884], [-0.04179302230477333, -0.29686862230300903, 0.5183066129684448, 0.3466528058052063], [-0.04788611829280853, 0.33926156163215637, 0.2772180140018463, 0.14894115924835205], [-0.030820298939943314, -0.3209789991378784, -0.25632327795028687, -0.3166087865829468], [-0.20443111658096313, 0.12147864699363708, 0.08991044759750366, -0.27689099311828613], [0.33519646525382996, 0.211835116147995, -0.27263593673706055, -0.2672802805900574], [-0.2741343080997467, -0.4081779420375824, 0.33399587869644165, -0.4316660165786743]], "critic.network.0.bias": [-0.3176329731941223, 0.42217105627059937, 0.2762435972690582, 0.15876665711402893, 0.05753614008426666, -0.045096296817064285, -0.3736899495124817, -0.11411404609680176, 0.3316730856895447, 0.4273242652416229, 0.4240668714046478, 0.18404795229434967, -0.2672976553440094, 0.3275059163570404, -0.37284713983535767, 0.210445836186409, -0.14542753994464874, -0.22356200218200684, -0.08474896848201752, 0.44092610478401184, -0.2537763714790344, 0.34185394644737244, -0.2314632683992386, 0.5369632840156555, 0.6333397030830383, -0.4435805082321167, -0.29970985651016235, 0.3778262734413147], "critic.network.2.weight": [[-0.030781706795096397, 0.11063672602176666, 0.038439929485321045, -0.03143763169646263, -0.050137389451265335, -0.06478482484817505, -0.06778872758150101, 0.091185562312603, 0.15519040822982788, 0.02925698086619377, 0.20334728062152863, -0.07919783890247345, -0.27271798253059387, 0.12411055713891983, -0.18578554689884186, 0.0692894384264946, 0.10437318682670593, -0.11683005094528198, -0.09374682605266571, 0.015135906636714935, 0.07348436862230301, 0.15217626094818115, -0.1961529552936554, -0.11315485835075378, -0.1348220258951187, -0.16997161507606506, -0.20851711928844452, 0.10864267498254776], [-0.12489369511604309, 0.11995100229978561, -0.6301954388618469, -0.4646605849266052, 0.03485859930515289, -0.38282543420791626, -0.07454802095890045, -0.0836837962269783, 0.04634684696793556, 0.030747367069125175, -0.1843685358762741, -0.4485296607017517, 0.22132308781147003, -0.08617039769887924, -0.05662533640861511, 0.1369856297969818, 0.08813391625881195, -0.08466961234807968, -0.07185187935829163, 0.09549446403980255, 0.15758830308914185, 0.13235904276371002, 0.035805732011795044, 0.07781071960926056, -0.3307453393936157, -0.025634126737713814, -0.06778684258460999, -0.30713921785354614], [0.0607638955116272, -0.16527654230594635, -0.3279321491718292, -0.1524050086736679, 0.059360139071941376, 0.15856978297233582, -0.11642561107873917, -0.10634146630764008, 0.014244232326745987, -0.03344499692320824, 0.015313825570046902, -0.160027414560318, 0.14433759450912476, -0.01696436107158661, 0.0580400712788105, 0.02630513347685337, 0.17964935302734375, -0.00044501532102003694, 0.2013140171766281, -0.10281998664140701, -0.09020348638296127, -0.14162978529930115, 0.06788019835948944, -0.2148534208536148, 0.04128972068428993, -0.10874292254447937, -0.050001755356788635, -0.14936135709285736], [0.010777214542031288, 0.09478818625211716, 0.044768091291189194, 0.06625892221927643, 0.039004381746053696, -0.1716039925813675, -0.19723594188690186, -0.04035434499382973, 0.15001676976680756, 0.15583764016628265, 0.252301424741745, 0.1949380487203598, 0.0009159527835436165, 0.22657668590545654, -0.012701316736638546, 0.0007556189666502178, -0.1409773826599121, -0.2816705107688904, -0.12700216472148895, 0.33013734221458435, -0.08001604676246643, -0.03168868273496628, -0.18136413395404816, 0.1788157820701599, 0.10646241903305054, 0.12431731075048447, -0.15687665343284607, -0.0032190578058362007], [-0.11881354451179504, 0.26027509570121765, 0.056263454258441925, 0.03129718080163002, 0.015084048733115196, -0.010280788876116276, -0.11895809322595596, -0.15465757250785828, -0.016765786334872246, 0.09287001937627792, 0.25024086236953735, -0.010715198703110218, -0.3006393313407898, 0.21901646256446838, -0.008448967710137367, 0.15265950560569763, -0.09542913734912872, -0.23801791667938232, -0.16171947121620178, 0.03816569969058037, 0.03674134239554405, 0.16063261032104492, -0.12560930848121643, 0.16118156909942627, 0.2378220558166504, 0.043315667659044266, 0.060939714312553406, 0.13050547242164612], [0.13366059958934784, -0.07085219025611877, 0.09317541867494583, -0.005809115245938301, 0.06320394575595856, 0.13163329660892487, -0.1873115450143814, 0.07809347659349442, 0.016496360301971436, -0.006950960494577885, -0.06857094913721085, 0.12821702659130096, 0.06722140312194824, -0.13305814564228058, -0.11511337757110596, 0.028356270864605904, -0.0474955290555954, -0.16608530282974243, -0.17464342713356018, 0.0804876983165741, -0.10784357041120529, -0.10478027909994125, -0.1515822559595108, -0.1597522646188736, -0.086350217461586, 0.08738104999065399, 0.06618104130029678, -0.17409244179725647], [0.03695782274007797, -0.02691178023815155, -0.07175971567630768, 0.11805259436368942, 0.016321027651429176, 0.08317414671182632, -0.09103365242481232, 0.05456533655524254, -0.09244608134031296, 0.21485427021980286, 0.2805784344673157, 0.10432090610265732, -0.03473935276269913, 0.17037416994571686, -0.19522084295749664, 0.00431804871186614, 0.13584057986736298, -0.24488110840320587, -0.1541135460138321, 0.14795945584774017, -0.17857591807842255, -0.02835477888584137, -0.17738385498523712, -0.009234294295310974, 0.12698237597942352, -0.22238624095916748, 0.012658887542784214, -0.05244149640202522], [0.07571591436862946, -0.14580658078193665, 0.09415901452302933, -0.20390941202640533, 0.018671492114663124, 0.17168594896793365, -0.03622664511203766, 5.862549733137712e-05, -0.004139394965022802, -0.09886986017227173, -0.18713800609111786, 0.08876959979534149, 0.13801909983158112, 0.07562747597694397, -0.053670674562454224, -0.06464014947414398, -0.12457209825515747, -0.009302560240030289, 0.0370599627494812, -0.07626267522573471, -0.09479539096355438, 0.04003840684890747, -0.15053752064704895, -0.10790082067251205, -0.16087789833545685, -0.0013810992240905762, -0.051915492862463, -0.16079625487327576], [-0.004318453837186098, 0.06681548058986664, -0.08789103478193283, 0.06163253262639046, -0.1014554351568222, 0.1436137557029724, -0.24778112769126892, -0.0339786671102047, -0.04666806757450104, 0.23630812764167786, 0.23654602468013763, 0.03693417087197304, -0.09031924605369568, 0.3311266005039215, -0.21392220258712769, -0.0016534064197912812, 0.03255220502614975, -0.06135643273591995, 0.16605602204799652, 0.3274715840816498, -0.2237965613603592, 0.18185465037822723, 0.010241270996630192, 0.2124899923801422, 0.2965214252471924, -0.08616653829813004, -0.13324089348316193, -0.06914759427309036], [0.11449199914932251, -0.07020078599452972, -0.011854962445795536, -0.09922058880329132, -0.2158890962600708, 0.2723329961299896, 0.31252017617225647, -0.31438297033309937, 0.18797238171100616, -0.0014443014515563846, 0.04137921333312988, 0.16631872951984406, 0.11426662653684616, -0.5815529227256775, -0.1014723926782608, 0.061641544103622437, -0.513422966003418, 0.15497136116027832, -0.12535524368286133, -0.13496364653110504, -0.02858724072575569, -0.18596471846103668, -0.34542185068130493, -0.33335819840431213, 0.14178740978240967, 0.16596969962120056, -0.054543234407901764, 0.18293216824531555], [0.006435933522880077, 0.266803503036499, -0.028222572058439255, 0.002415208611637354, 0.11027281731367111, 0.03968922793865204, -0.3158760368824005, 0.12706896662712097, 0.22074131667613983, 0.26367467641830444, -0.040322452783584595, 0.079803466796875, -0.29788821935653687, 0.29191577434539795, 0.10462870448827744, 0.23555803298950195, 0.10433006286621094, -0.20182926952838898, -0.06337983161211014, 0.05652264133095741, -0.09536134451627731, 0.2033255249261856, -0.016896305605769157, 0.06491456925868988, 0.2812778055667877, -0.09199919551610947, -0.16860340535640717, 0.11118772625923157], [0.12381450831890106, 0.09166025370359421, -0.016362203285098076, -0.18261300027370453, 0.01575356535613537, 0.11131802201271057, -0.09889991581439972, -0.13937199115753174, 0.22262528538703918, -0.08304917812347412, 0.1940794289112091, 0.14197269082069397, -0.2189180999994278, 0.20802780985832214, -0.19367824494838715, 0.09888049960136414, -0.04267112538218498, -0.21480228006839752, 0.12478745728731155, 0.3710648715496063, -0.0619533434510231, -0.0629967525601387, -0.031162958592176437, 0.14753326773643494, 0.22850178182125092, -0.11877815425395966, -0.03670975938439369, 0.20772233605384827], [0.11749972403049469, -0.14719800651073456, -0.05216486006975174, 0.0946350172162056, 0.050949662923812866, -0.01348439883440733, -0.13282406330108643, 0.11484738439321518, -0.23436088860034943, 0.031830184161663055, -0.10408516973257065, 0.028564577922225, -0.10357135534286499, 0.0986100360751152, 0.06537659466266632, 0.08752723783254623, -0.039795245975255966, -0.08136540651321411, -0.07528755813837051, -0.05258339270949364, 0.059658635407686234, -0.14843855798244476, 0.016922101378440857, -0.004337373189628124, -0.0261697918176651, 0.1597059816122055, -0.14835840463638306, -0.12245376408100128], [0.001319081406109035, -0.18247787654399872, -1.0638543367385864, -0.21730771660804749, 0.07870318740606308, -0.10998425632715225, -0.1400391012430191, -0.293968141078949, 0.14670895040035248, -0.33957532048225403, -0.09951180219650269, -0.27088484168052673, 0.1740225851535797, 0.012854717671871185, 0.08867820352315903, 0.13816185295581818, 0.1822654902935028, -0.04705829918384552, 0.11188024282455444, 0.1410321742296219, 0.21816101670265198, 0.09657521545886993, 0.064264677464962, -0.01602970063686371, -0.1334422081708908, -0.08268091827630997, -0.16777721047401428, 0.0645628273487091], [-0.015040501952171326, 0.07713581621646881, -0.1536240577697754, 0.16134564578533173, -0.07909656316041946, -0.027468129992485046, 0.07598723471164703, -0.12421567738056183, 0.09672404825687408, -0.04833516851067543, -0.10262060910463333, 0.1081022173166275, -0.017777279019355774, 0.019640056416392326, -0.04762467369437218, -0.03578576445579529, 0.01922704093158245, -0.12765149772167206, 0.13050583004951477, -0.07511609047651291, -0.11357378214597702, -0.014205794781446457, -0.029034363105893135, 0.10570987313985825, 0.1528381109237671, 0.11319692432880402, 0.025319010019302368, -0.17383137345314026], [-0.13349561393260956, 0.09828001260757446, 0.19842104613780975, -0.1422022581100464, 0.18625134229660034, 0.01995202526450157, 0.03099203109741211, 0.14237834513187408, -0.2929593324661255, -0.0692330077290535, -0.09237789362668991, -0.1440473049879074, -0.18845871090888977, 0.1345715969800949, -0.02935999631881714, -0.03611230477690697, 0.15331965684890747, -0.11418768018484116, -0.0942995697259903, 0.08685321360826492, -0.11336744576692581, -0.2251928150653839, 0.008840670809149742, -0.06349779665470123, -0.18363264203071594, 0.09453313797712326, 0.17925971746444702, -0.043999698013067245], [0.018160058185458183, 0.22347517311573029, 0.03221012279391289, -0.07005288451910019, -0.06033876910805702, -0.19068779051303864, -0.05577392503619194, 0.007065996527671814, -0.1260511726140976, 0.08180343359708786, -0.09274512529373169, -0.1506086140871048, -0.20160844922065735, 0.16258752346038818, 0.12880654633045197, 0.2463446408510208, -0.12381477653980255, 0.020883386954665184, -0.12148136645555496, 0.3391602039337158, 0.03311722353100777, 0.047337424010038376, 0.02071981504559517, 0.1221776008605957, -0.00370784685947001, -0.008006262592971325, -0.23315012454986572, 0.11829672753810883], [-0.09780402481555939, 0.07286784797906876, 0.041885875165462494, 0.10060156881809235, 0.039087798446416855, -0.1047707349061966, -0.19930319488048553, 0.17098453640937805, 0.036415085196495056, 0.09546112269163132, 0.08515047281980515, -0.10681335628032684, -0.14932967722415924, 0.07818058133125305, -0.1372615247964859, 0.03266732767224312, 0.04325335472822189, -0.233568474650383, 0.030176373198628426, 0.003083988791331649, -0.18334254622459412, 0.0006016133120283484, -0.13059134781360626, 0.025980109348893166, 0.20365573465824127, -0.11121261119842529, -0.08205750584602356, 0.10185419023036957], [-0.20599789917469025, 0.09663769602775574, 0.09570799022912979, -0.16722314059734344, 0.1376274973154068, 0.02657443843781948, -0.0031570992432534695, -0.004282149951905012, -0.05762159824371338, -0.161737859249115, 0.16854484379291534, -0.005397836212068796, -0.0325116328895092, -0.038634203374385834, 0.017497995868325233, 0.0921398177742958, 0.11972450464963913, -0.19699321687221527, -0.10401873290538788, -0.009304089471697807, -0.04714072495698929, -0.14533981680870056, -0.2046903818845749, -0.07000906020402908, -0.053804848343133926, 0.16694331169128418, -0.18545493483543396, 0.11260806769132614], [-0.21372729539871216, 0.22566066682338715, -0.1310064196586609, -0.15840496122837067, 0.16416992247104645, 0.0063731917180120945, -0.0066116019152104855, 0.05080011487007141, -0.11563000082969666, 0.022087175399065018, 0.14156292378902435, 0.02224457636475563, -0.017863355576992035, 0.1736575961112976, 0.06751277297735214, 0.28572946786880493, -0.1652051955461502, 0.027679812163114548, -0.008617370389401913, 0.17015427350997925, -0.02415739744901657, 0.07498852908611298, 0.15691593289375305, 0.14914341270923615, 0.20879951119422913, -0.07429584860801697, -0.24386397004127502, 0.10217072814702988], [-0.08660855144262314, 0.2960044741630554, -0.23506928980350494, -0.0745120719075203, -0.10496459901332855, 0.11931853741407394, -0.3368391692638397, -0.1349489390850067, 0.2793865501880646, 0.17649619281291962, 0.02785990573465824, 0.0189884752035141, -0.148220494389534, 0.07701707631349564, -0.15345369279384613, 0.08071596920490265, -0.043108124285936356, -0.2765129804611206, -0.1287749707698822, 0.03861174359917641, 0.013802211731672287, 0.2187872976064682, 0.16032058000564575, 0.2939944565296173, -0.037913113832473755, 0.11326175928115845, -0.05835192650556564, -0.04526565223932266], [0.05104939639568329, 0.03257787600159645, -0.020282313227653503, 0.03522094339132309, -0.1599549502134323, 0.017153210937976837, -0.0011916779913008213, 0.196101576089859, -0.0436038114130497, -0.05467808619141579, -0.09580018371343613, 0.13297921419143677, 0.05562710389494896, -0.11811722815036774, 0.1769818216562271, 0.05172189325094223, 0.023989422246813774, -0.010113936848938465, 0.007574034389108419, -0.2412952035665512, 0.22475801408290863, -0.09013119339942932, 0.1739729642868042, -0.04633888974785805, -0.20417356491088867, 0.2009643316268921, 0.12892942130565643, 0.02327715791761875], [0.09794895350933075, 0.07047782838344574, -0.1073056161403656, -0.036818280816078186, -0.1220635250210762, 0.12548762559890747, -0.08063121885061264, -0.15148498117923737, -0.09005086869001389, -0.0829249694943428, 0.048224110156297684, 0.12377555668354034, 0.15078315138816833, 0.018334848806262016, -0.18148575723171234, 0.0184209905564785, -0.03360842540860176, -0.1260644644498825, -0.1266273707151413, -0.06689558923244476, -0.14325477182865143, -0.08703619241714478, 0.16891132295131683, -0.0009305105777457356, 0.08685117959976196, 0.1834089308977127, -0.18315832316875458, -0.19120511412620544], [0.11403120309114456, 0.16432957351207733, -0.11460456252098083, -0.17092692852020264, 0.22755074501037598, -0.02881464920938015, -0.26083117723464966, -0.11400172859430313, 0.052450455725193024, -0.09439791738986969, 0.2802210748195648, 0.013926523737609386, -0.19429384171962738, 0.3292860686779022, 0.08871550858020782, 0.0337895005941391, -0.023089464753866196, -0.02659163437783718, -0.09503072500228882, 0.17654207348823547, -0.06152363121509552, 0.17719285190105438, -0.14591774344444275, 0.2644121050834656, 0.21421439945697784, -0.0596645213663578, 0.03839157894253731, 0.038697466254234314], [0.12731976807117462, -0.11484383791685104, -0.07961180061101913, -0.108070507645607, -0.1825263500213623, 0.13724710047245026, 0.0015993565320968628, -0.08885610103607178, -0.16887196898460388, -0.011655583046376705, -0.23040838539600372, 0.013703592121601105, -0.10372266918420792, 0.15151508152484894, -0.03046843409538269, 0.04274125397205353, 0.044160276651382446, -0.13618451356887817, -0.11092881113290787, -0.20141083002090454, 0.06324432045221329, -0.13117656111717224, 0.18604113161563873, 0.1156645193696022, -0.1397559493780136, -0.058041762560606, 0.14674580097198486, 0.12562528252601624], [0.0026788741815835238, -0.12012531608343124, 0.17841680347919464, 0.14210838079452515, -0.20029285550117493, 0.13915321230888367, -0.001340551651082933, -0.005672812927514315, -0.03501802682876587, 0.020647315308451653, 0.09230776876211166, 0.28820928931236267, -0.1267310082912445, -0.47849804162979126, 0.011126615107059479, 0.08227577805519104, -0.22902409732341766, -0.07633478194475174, -0.017257528379559517, -0.446108877658844, -0.011987189762294292, -0.3882797062397003, -0.01450397353619337, -0.42106372117996216, 0.06070437282323837, 0.17914432287216187, 0.1946636140346527, 0.09668973833322525], [0.05223556607961655, 0.05247975513339043, 0.034478116780519485, -0.04973078519105911, 0.08627639710903168, -0.0051711867563426495, -0.19826534390449524, -0.09565657377243042, -0.0981282889842987, -0.008959591388702393, 0.19608108699321747, 0.04854486510157585, -0.22596028447151184, 0.13728849589824677, -0.16179949045181274, 0.11381495743989944, -0.11389008909463882, -0.18742012977600098, -0.11434854567050934, 0.2090638428926468, 0.029920823872089386, 0.17242874205112457, -0.16583946347236633, 0.346425324678421, 0.2220415621995926, -0.13747258484363556, -0.25111261010169983, 0.05198649317026138], [0.006717890501022339, 0.06946387887001038, -0.8746044635772705, -0.5644010901451111, -0.034541357308626175, -0.2785257399082184, 0.14696605503559113, -0.23189662396907806, 0.057875558733940125, -0.3160373866558075, -0.0731089636683464, -0.4379044771194458, 0.28883278369903564, 0.14702348411083221, -0.10170329362154007, 0.08959812670946121, -0.06777969002723694, 0.15380381047725677, 0.17153145372867584, -0.1148652508854866, -0.05582422390580177, 0.1379774510860443, 0.12789463996887207, 0.13914024829864502, -0.029321279376745224, 0.08487443625926971, -0.14703038334846497, -0.2963380515575409]], "critic.network.2.bias": [0.12689308822155, -0.020527156069874763, 0.09989172965288162, 0.23468871414661407, 0.0941457450389862, -0.06980568170547485, 0.07249756902456284, 0.0024674017913639545, 0.061778128147125244, -0.17070414125919342, 0.2472219169139862, 0.07027154415845871, -0.0911417156457901, 0.06067098677158356, -0.09943986684083939, -0.21070507168769836, 0.17904171347618103, -0.06239267438650131, -0.06536272913217545, 0.19425123929977417, 0.2292587161064148, -0.0285256989300251, 0.03587506338953972, 0.1428372859954834, 0.0008199269650503993, -0.11195407062768936, 0.3445461392402649, -0.054131075739860535], "critic.network.4.weight": [[0.22377288341522217, -0.07485885918140411, -0.0988660380244255, 0.18064454197883606, 0.17282696068286896, -0.1648864597082138, -0.05842245742678642, -0.09876670688390732, 0.10135824233293533, -0.12273409217596054, 0.2367725372314453, 0.10334467142820358, 0.02690756507217884, -0.3455408215522766, 0.08491073548793793, -0.24104861915111542, 0.2047705054283142, 0.07936066389083862, -0.15483006834983826, 0.01964063197374344, 0.19660791754722595, -0.12068691104650497, 0.19750481843948364, 0.15310636162757874, 0.02613590471446514, -0.34637588262557983, 0.24150627851486206, -0.07672275602817535], [0.104491226375103, -0.08539300411939621, 0.15897874534130096, 0.2789175510406494, 0.08508656173944473, -0.049657486379146576, 0.03653625026345253, 0.07832228392362595, -0.005810939706861973, -0.09775131940841675, -0.06821546703577042, 0.24229927361011505, -0.07089544087648392, -0.05824502930045128, 0.11429250985383987, 0.05912050977349281, -0.05201025679707527, 0.16354615986347198, 0.02481045387685299, 0.2655653655529022, 0.042132019996643066, -0.0035101533867418766, 0.015284163877367973, 0.12952910363674164, -0.08403872698545456, -0.1814553141593933, 0.0885918140411377, -0.23470203578472137], [0.032127827405929565, -0.12116356939077377, -0.10856737941503525, -0.1715838611125946, -0.18566295504570007, 0.1866428703069687, 0.1708279401063919, 0.1854303926229477, 0.03870426118373871, 0.07200391590595245, -0.06312166154384613, 0.1274654120206833, -0.0738721415400505, 0.05885957181453705, 0.12693102657794952, -0.18432067334651947, -0.1801798939704895, 0.12152273952960968, -0.07396060973405838, -0.07292840629816055, -0.09332137554883957, 0.10405300557613373, 0.10854695737361908, 0.14633627235889435, -0.07180525362491608, -0.15378868579864502, -0.1016717180609703, -0.13717404007911682], [-0.056242648512125015, -0.01679600216448307, -0.13434946537017822, -0.148564875125885, -0.016810353845357895, -0.07290133833885193, 0.16317057609558105, 0.03161002695560455, 0.05088813975453377, -0.08365530520677567, -0.018615923821926117, -0.0017330878181383014, 0.050256114453077316, -0.11161743849515915, -0.13412907719612122, 0.04547975957393646, 0.047055866569280624, -0.023770082741975784, -0.09418545663356781, -0.05163460597395897, -0.08292181044816971, 0.02698519453406334, 0.13295899331569672, 0.1120641678571701, 0.0670638382434845, -0.08500103652477264, -0.07008221000432968, 0.0686853677034378], [0.1069575771689415, -0.19713826477527618, -0.20441655814647675, 0.13473692536354065, 0.2902531623840332, 0.15034791827201843, 0.17936477065086365, -0.011387423612177372, 0.04480121284723282, -0.016069112345576286, -0.0010834960266947746, 0.30454230308532715, -0.19250720739364624, -0.2963811457157135, -0.0003817230463027954, -0.08236872404813766, -0.06335417181253433, 0.09179235994815826, 0.03816945478320122, 0.21117019653320312, -0.004493717569857836, -0.16291853785514832, -0.11484125256538391, 0.23092399537563324, 0.08496928960084915, -0.38611218333244324, 0.08125964552164078, -0.21217834949493408], [0.02411802113056183, -0.01777730882167816, 0.027811922132968903, -0.11959879100322723, 0.13095524907112122, 0.16924889385700226, -0.04418271407485008, -0.054706186056137085, 0.16805559396743774, 0.008904460817575455, 0.024529946967959404, 0.11204013973474503, -0.0068165212869644165, -0.13183006644248962, -0.05679042637348175, 0.13000346720218658, -0.13724011182785034, -0.027932872995734215, -0.006907413247972727, -0.09104331582784653, -0.06222620606422424, 0.12041331827640533, 0.14576537907123566, -0.2025001496076584, -0.0893530324101448, -0.1384742558002472, -0.0769553929567337, 0.0796108990907669], [-0.07492902874946594, 0.023671910166740417, -0.046563856303691864, 0.0562426894903183, 0.011456616222858429, -0.09468492120504379, -0.08875931054353714, 0.10638244450092316, 0.1679079383611679, 0.0225810706615448, 0.06614071130752563, -0.19652540981769562, -0.06853310763835907, -0.15186946094036102, -0.03127455711364746, 0.17109334468841553, -0.18000099062919617, -0.030258476734161377, 0.18453741073608398, 0.0595552884042263, -0.06750920414924622, -0.16890037059783936, 0.03634607791900635, -0.06805188953876495, 0.09865818917751312, -0.18129441142082214, 0.1498882919549942, 0.007103057112544775], [0.15834413468837738, -0.2112727016210556, 0.018827766180038452, -0.08928428590297699, 0.1450110524892807, 0.07864335179328918, -0.0013242493150755763, 0.0564701147377491, 0.05987699329853058, -0.23490789532661438, -0.02178911119699478, 0.045158881694078445, -0.0032670411746948957, -0.11984505504369736, 0.022100254893302917, -0.004078058525919914, 0.023150114342570305, -0.025936773046851158, 0.14178894460201263, -0.12759645283222198, 0.14072547852993011, -0.17351722717285156, 0.10677266865968704, 0.010202155448496342, -0.06444995850324631, -0.22607296705245972, 0.16479413211345673, -0.10608134418725967], [0.12462496757507324, 0.03448409587144852, -0.09937844425439835, -0.008655652403831482, 0.2201838344335556, -0.01421287190169096, 0.1451120376586914, -0.04738648980855942, 0.16926316916942596, -0.08842247724533081, 0.09364958852529526, 0.10933297872543335, 0.0226453710347414, -0.10937950760126114, -0.1722550243139267, -0.1432081013917923, 0.2740049362182617, 0.12629365921020508, -0.07047012448310852, 0.024660617113113403, 0.24775266647338867, -0.01992146670818329, -0.09940163046121597, 0.04869832471013069, 0.06958810240030289, -0.08804148435592651, 0.2928833067417145, 0.05817524716258049], [0.028678283095359802, -0.07279136776924133, 0.041271548718214035, 0.18672028183937073, 0.16189628839492798, -0.20121319591999054, 0.1868302822113037, -0.06926931440830231, -0.08224751055240631, -0.14140793681144714, 0.08955046534538269, 0.13209284842014313, -0.1676238626241684, -0.3198930025100708, 0.028632214292883873, -0.13316252827644348, -0.11623214930295944, 0.14242854714393616, -0.15907609462738037, 0.12758243083953857, 0.018198974430561066, -0.0824323371052742, 0.11370666325092316, 0.009185646660625935, 0.0012041728477925062, -0.08727067708969116, 0.13559073209762573, -0.28807777166366577], [-0.0037422929890453815, -0.04352077841758728, -0.1489206701517105, 0.06747356057167053, 0.1414840966463089, 0.034598201513290405, 0.008004875853657722, 0.10415259748697281, 0.18826186656951904, -0.2291271686553955, 0.26012107729911804, -0.0322955884039402, -0.18302972614765167, 0.021331286057829857, -0.12520860135555267, -0.05173216760158539, 0.13206833600997925, 0.08925472944974899, -0.12511107325553894, 0.033671680837869644, 0.3213009536266327, -0.11270124465227127, 0.12252368777990341, 0.1450263261795044, -0.11226152628660202, -0.15708641707897186, 0.32403531670570374, -0.2965482175350189], [0.10957904160022736, -0.18226055800914764, 0.08738254010677338, 0.1319418102502823, 0.16447590291500092, 0.10652746260166168, -0.02948230877518654, -0.22077207267284393, 0.16592124104499817, -0.16320857405662537, -0.18053413927555084, 0.16440929472446442, 0.06787901371717453, -0.3018646240234375, 0.051112040877342224, 0.0010085578542202711, -0.11562079191207886, -0.14886100590229034, 0.09086783975362778, 0.050766684114933014, -0.08639880269765854, -0.009026975370943546, 0.04437171667814255, 0.10999953001737595, 0.14012207090854645, -0.2873815894126892, -0.07935112714767456, -0.17390543222427368], [0.11582128703594208, -0.2310790866613388, -0.16536130011081696, 0.3124958872795105, 0.01771550066769123, -0.12640529870986938, 0.23696863651275635, 0.03740037605166435, 0.00960082933306694, -0.09479334205389023, 0.15523561835289001, -0.03758277744054794, -0.15962117910385132, -0.2762688100337982, 0.18734650313854218, 0.12434591352939606, 0.16599443554878235, 0.045685820281505585, 0.11445087194442749, 0.26300114393234253, 0.04178571328520775, 0.12571166455745697, -0.011343528516590595, 0.2886337637901306, -0.060058970004320145, -0.1021798625588417, 0.24337370693683624, -0.07428356260061264], [0.0788576677441597, 0.027504511177539825, -0.06848683953285217, 0.056163985282182693, 0.13357125222682953, -0.007197880651801825, -0.012359684333205223, -0.02304099127650261, -0.06521999835968018, -0.2958933711051941, -0.008735144510865211, -0.08130431920289993, 0.1605517864227295, -0.2981009781360626, -0.12443213164806366, -0.21427954733371735, 0.08330539613962173, 0.06852332502603531, 0.09782610833644867, 0.047156885266304016, 0.1195153221487999, 0.02855486236512661, -0.12046384066343307, -0.09938936680555344, 0.2166103571653366, -0.07471457123756409, 0.09289608895778656, -0.27828648686408997], [-0.08900400251150131, -0.15878920257091522, -0.07854114472866058, 0.2197292596101761, -0.04690934717655182, -0.0009593359427526593, 0.0025304120499640703, 0.0426546148955822, 0.28464311361312866, -0.04122426360845566, 0.2015732228755951, 0.3310607969760895, 0.061523955315351486, -0.0022191274911165237, 0.06983146071434021, -0.09381983429193497, 0.06506389379501343, 0.1784839630126953, 0.1377791315317154, 0.10478130728006363, 0.20599794387817383, -0.09438226372003555, 0.19278204441070557, 0.23570403456687927, -0.07222294807434082, -0.16942252218723297, 0.356423556804657, -0.14987733960151672], [-0.023863745853304863, -0.0026513412594795227, 0.12235645949840546, -0.13201747834682465, -0.10492194443941116, 0.1463388204574585, 0.038680631667375565, 0.05512550473213196, -0.09070898592472076, -0.12714475393295288, 0.13996052742004395, 0.015387413091957569, -0.07291877269744873, -0.07249804586172104, -0.14107483625411987, 0.0006473906105384231, 0.001785155152902007, 0.17861831188201904, -0.16978351771831512, -0.052045583724975586, 0.0912332683801651, -0.12075478583574295, 0.052412912249565125, -0.039848536252975464, -0.043291255831718445, -0.06725101917982101, 0.039348624646663666, -0.0713936910033226], [0.1747831255197525, 0.05893588066101074, -0.0007683970034122467, -0.12417443841695786, -0.09262017160654068, -0.10417969524860382, 0.18352310359477997, 0.09121347963809967, -0.13612164556980133, -0.1826133131980896, -0.10032190382480621, -0.19255657494068146, -0.03320702910423279, -0.07707742601633072, -0.048150599002838135, 0.11227770149707794, -0.18176132440567017, 0.04689754545688629, -0.0701555609703064, 0.16154922544956207, -0.17319785058498383, -0.05385088920593262, -0.18185006082057953, -0.0853591114282608, -0.06352311372756958, 0.06651870906352997, 0.1471087783575058, -0.015461575239896774], [-0.06523556262254715, -0.16587711870670319, 0.1703338623046875, -0.15199685096740723, 0.1788651943206787, -0.15011779963970184, 0.04849196970462799, 0.03401893377304077, -0.06275674700737, -0.15745039284229279, -0.11578454822301865, -0.0721810981631279, -0.023263990879058838, 0.14126674830913544, 0.17655251920223236, -0.18402951955795288, -0.09623834490776062, 0.009743824601173401, -0.1410910189151764, -0.1508997231721878, 0.17588700354099274, 0.1360100954771042, -0.17019495368003845, -0.04941880702972412, -0.11494335532188416, -0.11611177772283554, 0.12898248434066772, -0.1074228435754776], [-0.1212804988026619, -0.07052315771579742, 0.09058921039104462, -0.10144788771867752, -0.01282608974725008, 0.10476504266262054, 0.07959388196468353, -0.0621057003736496, 0.1687641441822052, -0.08785557001829147, 0.18062430620193481, 0.012949424795806408, 0.07564930617809296, 0.04660244286060333, -0.021253377199172974, 0.06553153693675995, -0.19847111403942108, 0.12833575904369354, 0.07264092564582825, -0.14034448564052582, 0.0002331230789422989, -0.14442014694213867, 0.0951918214559555, -0.1302744299173355, 0.09757636487483978, -0.012738283723592758, -0.1806458830833435, 0.09835238754749298], [0.04085293784737587, -0.052759118378162384, 0.03716782480478287, -0.08810205012559891, -0.18055476248264313, 0.15879113972187042, 0.09139402210712433, 0.04420892894268036, -0.21287381649017334, -0.11583106964826584, -0.19230499863624573, -0.11764480173587799, -0.06355434656143188, 0.11464082449674606, -0.010940909385681152, 0.028223663568496704, 0.09919482469558716, -0.18046174943447113, -0.0427573025226593, -0.16601932048797607, -0.038432758301496506, 0.11985470354557037, 0.025410059839487076, -0.14911088347434998, 0.007259160280227661, -0.03453461825847626, -0.009153279475867748, -0.044085413217544556], [0.1342201828956604, -0.2130039930343628, -0.07802969962358475, -0.07735185325145721, 0.16028471291065216, 0.05906849354505539, 0.05221646651625633, -0.005727875046432018, -0.004528390243649483, 0.23719583451747894, 0.10785617679357529, -0.09528055787086487, 0.11747769266366959, 0.1192464604973793, 0.0932919830083847, 0.1608426421880722, 0.15543636679649353, 0.2568490505218506, 0.20899638533592224, -0.1847858875989914, -0.20713308453559875, -0.09538592398166656, 0.13199399411678314, 0.05336947739124298, 0.12447422742843628, 0.1760384887456894, 0.1085624173283577, -0.2268143892288208], [-0.10905028134584427, 0.13316647708415985, 0.1007092222571373, -0.09135382622480392, 0.018627390265464783, -0.11463338136672974, -0.02231253683567047, 0.1131613701581955, -0.15296779572963715, 0.06948240101337433, -0.09049368649721146, -0.016845418140292168, 0.13615478575229645, 0.07350291311740875, 0.09371984750032425, -0.02184911258518696, -0.19061043858528137, -0.019091391935944557, -0.15426115691661835, 0.11605846136808395, -0.2000940591096878, -0.1795855313539505, -0.12979356944561005, -0.17354746162891388, -0.09415003657341003, -0.07344621419906616, -0.03283555433154106, -0.19146834313869476], [-0.11061159521341324, -0.0015901046572253108, -0.19234798848628998, 0.14942115545272827, 0.10765889286994934, 0.09055963903665543, 0.007607324980199337, 0.03704042732715607, 0.12312455475330353, -0.3281534016132355, 0.10420019924640656, -0.010822415351867676, 0.06457119435071945, -0.21702605485916138, -0.17087195813655853, -0.18982422351837158, 0.3041398823261261, -0.1381082832813263, 0.05757452920079231, 0.10445889830589294, 0.21427509188652039, -0.05261372774839401, -0.10031995177268982, 0.250152051448822, 0.033824097365140915, -0.22703644633293152, 0.20800773799419403, -0.1283293217420578], [-0.09654095768928528, -0.03993406891822815, 0.022731482982635498, 0.03035828471183777, -0.18397580087184906, 0.17861197888851166, -0.17609277367591858, -0.17431144416332245, -0.159512460231781, -0.13912202417850494, -0.14045491814613342, 0.0527123361825943, -0.1425151824951172, 0.005898803472518921, 0.1303708404302597, 0.01134750247001648, 0.08124102652072906, 0.0639171153306961, -0.09882635623216629, -0.17078596353530884, 0.07450918853282928, -0.04592619836330414, -0.1275033950805664, -0.05000761151313782, 0.17272032797336578, 0.1719973236322403, -0.02542048692703247, -0.01518191397190094], [-0.11652584373950958, 0.15711885690689087, -0.06493937224149704, -0.13685543835163116, -0.065786212682724, 0.09460411965847015, 0.11199287325143814, -0.16292676329612732, -0.1271117776632309, -0.14175280928611755, 0.18200838565826416, 0.09232701361179352, 0.18723545968532562, -0.12723344564437866, 0.07741542160511017, 0.08651211112737656, 0.16623298823833466, 0.05069008842110634, 0.1830703765153885, -0.1779411882162094, -0.1714288890361786, 0.10727931559085846, -0.17397482693195343, -0.1818997710943222, -0.18640092015266418, -0.1612342745065689, -0.10838098078966141, -0.18682800233364105], [-0.033037830144166946, -0.20043030381202698, -0.1499711126089096, 0.03237958252429962, 0.08727983385324478, -0.14040057361125946, -0.03977330029010773, -0.007264369633048773, 0.005164823494851589, -0.2458658367395401, 0.21774303913116455, 0.15065807104110718, -0.17719171941280365, -0.27790021896362305, -0.1628609299659729, 0.12327371537685394, -0.05755890533328056, -0.09260187298059464, 0.016340145841240883, -0.011751660145819187, 0.09029741585254669, -0.19796067476272583, -0.12379982322454453, 0.13643315434455872, -0.02950185537338257, -0.367566853761673, 0.0978088453412056, -0.3053881525993347], [-0.1436317265033722, -0.05110463127493858, 0.13863889873027802, 0.08987181633710861, -0.10658831149339676, -0.08364048600196838, -0.037984784692525864, 0.14377836883068085, -0.21083617210388184, -0.09754568338394165, -0.05630560964345932, -0.008793439716100693, 0.01822446472942829, 0.13797588646411896, 0.10085271298885345, 0.04204660654067993, 0.0459689162671566, 0.09908163547515869, -0.1481640636920929, -0.016102612018585205, 0.0037795454263687134, 0.12020827829837799, 0.038387641310691833, 0.054453909397125244, -0.18250000476837158, 0.06278315931558609, 0.04622809216380119, -0.16026334464550018], [0.011106923222541809, 0.18348611891269684, 0.11494626849889755, -0.1943713277578354, 0.023516222834587097, -0.016391441226005554, -0.32654309272766113, 0.16436494886875153, 0.10546392947435379, -0.007061293814331293, -0.10158776491880417, 0.1480168104171753, -0.17868643999099731, 0.26095202565193176, 0.09080753475427628, 0.03320610895752907, 0.13305459916591644, -0.3828485310077667, -0.21140938997268677, 0.13803470134735107, -0.06262204796075821, -0.16061784327030182, 0.1463983654975891, 0.10986711084842682, -0.1173316016793251, 0.07163706421852112, 0.07494732737541199, 0.2065812349319458]], "critic.network.4.bias": [0.004914334509521723, 0.32362455129623413, -0.166311115026474, -0.10134663432836533, 0.2607889175415039, -0.05976758152246475, -0.1639818251132965, -0.0036759350914508104, 0.30233117938041687, 0.19694538414478302, 0.2858555316925049, 0.0025515900924801826, 0.15625295042991638, -0.026396239176392555, 0.1262780874967575, -0.08919427543878555, 0.006218623369932175, 0.005635647103190422, -0.1477775126695633, 0.08191512525081635, -0.09579179435968399, 0.08791613578796387, 0.1974087804555893, -0.16741031408309937, -0.03965384513139725, 0.31397098302841187, -0.11848397552967072, -0.03874621167778969], "critic.network.6.weight": [[0.15520186722278595, 0.1366957724094391, 0.15217740833759308, -0.08719248324632645, 0.2914949357509613, 0.15704166889190674, 0.003251886460930109, 0.16115261614322662, 0.19898360967636108, 0.08265624940395355, 0.22609266638755798, 0.048281364142894745, 0.22749529778957367, 0.00822663214057684, 0.25647661089897156, -0.07342037558555603, -0.05090758949518204, -0.1727466732263565, -0.11761873960494995, -0.05039781704545021, -0.16828545928001404, -0.04950590804219246, 0.3092076778411865, 0.026814818382263184, 0.16568975150585175, 0.32182592153549194, 0.09989587217569351, -0.2203042209148407]], "critic.network.6.bias": [0.10112453252077103]}