{"actor.network.0.weight": [[0.20283253490924835, 0.018619948998093605, -0.2691968083381653, -0.612307608127594], [-0.1969451755285263, 0.3953400254249573, 0.5375139117240906, -0.06735880672931671], [-0.4140470623970032, 0.0887724831700325, 0.08172814548015594, -0.16583968698978424], [0.1855342835187912, -0.0364508219063282, -0.7368549108505249, -0.3171125054359436], [0.49434414505958557, 0.35890480875968933, -0.674340009689331, -0.23492659628391266], [0.03322909399867058, -0.19029834866523743, 0.26878318190574646, 0.6301367282867432], [-0.30229005217552185, -0.3928036391735077, -0.29785072803497314, -0.4910448491573334], [0.16975636780261993, -0.3610089123249054, 0.670027494430542, 0.36144983768463135], [0.21681392192840576, -0.024193299934267998, 0.3060234487056732, 0.12638533115386963], [-0.056123677641153336, 0.2738149166107178, -0.011490538716316223, -0.45221370458602905], [-0.38618311285972595, 0.4189859926700592, 0.2756789028644562, -0.06940431147813797], [0.2128804326057434, 0.44593170285224915, 0.3330528140068054, 0.03705731779336929], [-0.09681946784257889, -0.02646893449127674, 0.22757701575756073, 0.3149321377277374], [0.4932311773300171, 0.1839871108531952, -0.2589459717273712, -0.1535181701183319], [-0.008529158309102058, -0.18432758748531342, -0.29231685400009155, 0.5558619499206543], [0.21423986554145813, 0.4807823896408081, 0.267755389213562, 0.23128770291805267], [-0.17245137691497803, -0.29163041710853577, 0.27927565574645996, -0.4327474534511566], [0.08105874061584473, -0.2329050898551941, 0.06908883154392242, 0.2812712490558624], [0.03972643241286278, 0.29477283358573914, -0.054365236312150955, 0.42373594641685486], [-0.44950300455093384, -0.32208919525146484, 0.3996167778968811, -0.11183539777994156], [0.29797452688217163, -0.580244779586792, -0.14209631085395813, -0.3524112105369568], [0.013449164107441902, -0.2357683777809143, -0.5164758563041687, -0.55732262134552], [0.4279673993587494, -0.2417873740196228, -0.02626422978937626, 0.5425851941108704], [0.3789507746696472, -0.44878894090652466, -0.05494512990117073, 0.3161930441856384], [0.033356182277202606, -0.35314419865608215, -0.46299606561660767, -0.4810216426849365], [-0.21932008862495422, -0.4315246045589447, -0.3782544434070587, -0.4205273687839508], [0.3185921311378479, -0.10641470551490784, 0.0920552983880043, 0.23270179331302643], [0.06655731797218323, -0.2961726784706116, -0.17443053424358368, 0.6205245852470398]], "actor.network.0.bias": [0.1405055671930313, 0.18697689473628998, -0.29307296872138977, 0.15776698291301727, -0.1317300796508789, 0.3453095257282257, 0.20190443098545074, 0.3505931496620178, 0.1794392615556717, -0.23679086565971375, -0.004582985769957304, 0.17912089824676514, 0.5645273327827454, 0.2991863787174225, -0.1057390421628952, 0.28791698813438416, -0.0818551629781723, 0.3102054297924042, 0.34513917565345764, 0.10062132775783539, -0.0007891679415479302, 0.2606688141822815, 0.4257185459136963, -0.31392428278923035, -0.2710806131362915, 0.44105249643325806, -0.44767019152641296, 0.39913851022720337], "actor.network.2.weight": [[0.20662923157215118, -0.010957249440252781, -0.02652158960700035, 0.4308043420314789, -0.00153925025369972, -0.16537578403949738, 0.17117725312709808, -0.12156715244054794, -0.12495245039463043, -0.048646196722984314, -0.1356346756219864, -0.18884342908859253, 0.1027848944067955, -0.06034949794411659, -0.03247421607375145, -0.05571392551064491, 0.2820008397102356, 0.05698350816965103, -0.005774259567260742, 0.23213574290275574, 0.18855799734592438, 0.18488720059394836, -0.12602129578590393, -0.09838534891605377, 0.1739160120487213, 0.20683033764362335, 0.05580920726060867, 0.038318514823913574], [-0.032217349857091904, -0.026350203901529312, 0.08889715373516083, 0.11549346148967743, 0.22011801600456238, 0.07866636663675308, -0.03398747369647026, -0.1792648434638977, 0.06794770061969757, 0.18141919374465942, 0.04146675020456314, -0.040486883372068405, -0.05727364122867584, -0.008532246574759483, 0.14278025925159454, -0.09864221513271332, -0.014144527725875378, -0.023324977606534958, -0.23633919656276703, 0.16789492964744568, 0.22716528177261353, 0.31601351499557495, -0.15376202762126923, 0.15353189408779144, -0.14103446900844574, 0.004406102932989597, -0.1188683956861496, 0.061480578035116196], [0.25311291217803955, -0.15382550656795502, -0.028255220502614975, 0.048477791249752045, -0.06396790593862534, -0.11525680124759674, 0.24089710414409637, -0.15090875327587128, -0.17835836112499237, -0.048791129142045975, 0.033598028123378754, -0.20094966888427734, 0.031439147889614105, -0.040307480841875076, -0.046795349568128586, -0.03588108718395233, 0.09405750781297684, -0.06137260049581528, 0.06869448721408844, 0.08962444961071014, 0.02805292047560215, 0.3312496840953827, -0.08718118816614151, -0.1623091697692871, 0.08845221996307373, 0.015108895488083363, -0.15989750623703003, 0.1100875735282898], [-0.017220882698893547, 0.053714096546173096, 0.16313536465168, -0.14616259932518005, 0.08052860200405121, 0.09965647011995316, 0.016512349247932434, 0.05466562137007713, 0.13650402426719666, 0.06248622387647629, 0.07748591154813766, -0.05273217335343361, -0.10054466873407364, 0.1384546309709549, 0.10834682732820511, -0.18320007622241974, -0.1503390669822693, -0.1018504798412323, -0.08565684407949448, -0.013248475268483162, -0.1265159249305725, 0.060918956995010376, -0.1703934669494629, -0.18305444717407227, -0.12276172637939453, -0.031874701380729675, 0.1587519347667694, 0.02338666468858719], [-0.2852144241333008, 0.09807690232992172, -0.13083012402057648, -0.17599859833717346, -0.1826821267604828, 0.123294897377491, -0.09072843939065933, 0.2676418721675873, 0.20105023682117462, -0.07619553059339523, 0.23165076971054077, 0.2499152570962906, 0.24866165220737457, 0.007647207472473383, 0.007253508549183607, 0.06678003817796707, -0.11420636624097824, 0.25443965196609497, 0.3145154118537903, -0.046696919947862625, -0.03694458678364754, -0.375506728887558, 0.02276965230703354, -0.04036993160843849, -0.023927463218569756, -0.11176937818527222, -0.002356919925659895, 0.182799831032753], [-0.1320202797651291, 0.13412098586559296, -0.006915814243257046, -0.07890946418046951, -0.05733570456504822, 0.08788545429706573, 0.0352882444858551, -0.15681812167167664, -0.01900384947657585, 0.14991046488285065, 0.03839660435914993, -0.09931650012731552, -0.14798030257225037, -0.12510047852993011, 0.18085981905460358, -0.06231418251991272, 0.06337203085422516, -0.10036452859640121, 0.14016397297382355, -0.13503748178482056, 0.12890128791332245, 0.06212712824344635, -0.0026115626096725464, -0.10972065478563309, 0.04721735417842865, -0.1217755377292633, 0.004747286438941956, 0.0273425430059433], [0.05737520754337311, 0.01935690827667713, 0.1454405039548874, 0.01506351213902235, 0.06789668649435043, -0.053644876927137375, 0.14363442361354828, -0.02900799550116062, 0.07699758559465408, 0.058786701411008835, -0.1284904181957245, -0.05707791447639465, -0.0894341841340065, 0.1491525024175644, -0.09400375187397003, 0.07917520403862, -0.026083670556545258, 0.10031392425298691, -0.28931108117103577, -0.17100892961025238, 0.14127051830291748, 0.18616962432861328, -0.08395058661699295, -0.008607441559433937, 0.21725697815418243, 0.15071654319763184, -0.07871496677398682, 0.11029502749443054], [-0.27567633986473083, 0.036496132612228394, -0.04835471138358116, 0.02621378004550934, 0.07667289674282074, 0.1920236349105835, -0.04666442424058914, 0.27802151441574097, 0.27950945496559143, -0.22364521026611328, 0.2400892674922943, 0.1557975858449936, 0.06714264303445816, 0.11303433775901794, -0.10364417731761932, 0.03157055750489235, -0.12412624806165695, 0.17858846485614777, 0.24431747198104858, 0.20957769453525543, -0.12042489647865295, -0.05760378763079643, -0.060061633586883545, 0.1218310222029686, 0.037432558834552765, -0.18062275648117065, -0.10175197571516037, 0.20411697030067444], [-0.014456902630627155, -0.025758055970072746, 0.1098896935582161, -0.10148727893829346, -0.1647891104221344, 0.192576065659523, -0.09702060371637344, -0.06585419923067093, 0.009492715820670128, 0.13482794165611267, 0.2652830481529236, -0.011566618457436562, 0.10660655796527863, 0.24184392392635345, -0.004416372627019882, -0.06032676622271538, -0.12145441025495529, 0.28309693932533264, 0.04863948002457619, -0.0012490559602156281, 0.05007490888237953, -0.176834374666214, 0.24245944619178772, 0.1612989902496338, 0.04079100489616394, -0.15863239765167236, 0.22937297821044922, 0.17446312308311462], [0.0558723546564579, -0.20362398028373718, 0.1255204975605011, 0.31249892711639404, 0.09471022337675095, -0.09831097722053528, 0.17079034447669983, 0.22518688440322876, 0.0695391595363617, 0.10387759655714035, -0.14260046184062958, -0.008645901456475258, -0.030711840838193893, 0.15571269392967224, -0.1296938806772232, -0.18484660983085632, -0.0654289573431015, -0.09847713261842728, -0.14026769995689392, 0.13225583732128143, 0.15976941585540771, 0.06937804818153381, 0.06055787578225136, -0.12179754674434662, 0.2220916599035263, 0.24091766774654388, -0.13439345359802246, 0.13451224565505981], [-0.05137419328093529, 0.07167842984199524, 0.0825052261352539, -0.012258925475180149, 0.11473763734102249, 0.22755470871925354, -0.1855195015668869, 0.21438482403755188, 0.27111920714378357, -0.0039902739226818085, 0.11773616820573807, 0.016702400520443916, 0.23961326479911804, -0.07800236344337463, 0.23780322074890137, 0.04909312725067139, -0.07825544476509094, 0.05461295321583748, 0.020696399733424187, 0.20366093516349792, 0.02462409995496273, -0.25890079140663147, 0.03832581639289856, 0.014871080406010151, 0.05938231945037842, -0.14205998182296753, -0.10515192896127701, 0.043163806200027466], [0.026495862752199173, 0.05606061965227127, 0.1788218915462494, -0.006803634576499462, 0.08655624091625214, -0.01929980143904686, 0.0014664371265098453, -0.04440759867429733, -0.1682852804660797, -0.15973041951656342, -0.14582335948944092, -0.021067852154374123, -0.18664348125457764, -0.026564912870526314, 0.05009967088699341, 0.06659190356731415, 0.17008593678474426, -0.04074028134346008, 0.09041022509336472, 0.09004335105419159, 0.1752391755580902, -0.04612217843532562, 0.03692381829023361, -0.13872641324996948, -0.08448043465614319, 0.112856425344944, 0.051901623606681824, -0.11542636156082153], [-0.15251533687114716, -0.04748213663697243, -0.1761970818042755, 0.13774940371513367, 0.03570440784096718, -0.023576097562909126, 0.05619422718882561, -0.08758741617202759, -0.15338197350502014, 0.17416150867938995, -0.1667516976594925, -0.16541409492492676, -0.06662748754024506, 0.1785292625427246, 0.16843950748443604, -0.1844860017299652, 0.045319247990846634, 0.11989771574735641, -0.06435798108577728, 0.12207889556884766, -0.08262941986322403, 0.11123427748680115, 0.022775113582611084, -0.18847867846488953, -0.18282592296600342, -0.06564341485500336, 0.00322037935256958, -0.005285016261041164], [0.018587404862046242, -0.005005355458706617, 0.037939418107271194, 0.24816583096981049, 0.1826867014169693, 0.00039228363311849535, 0.22788801789283752, -0.1914694607257843, 0.14680717885494232, 0.02120385132730007, -0.011805170215666294, -0.10829639434814453, 0.18115170300006866, 0.025626540184020996, -0.09283316880464554, -0.027322376146912575, -0.03530997782945633, 0.14240427315235138, 0.013997966423630714, 0.006495541427284479, 0.16311438381671906, -0.058688536286354065, -0.023125065490603447, 0.06957543641328812, 0.020060189068317413, 0.19795633852481842, 0.06978102028369904, 0.1205802783370018], [0.16351786255836487, 0.018120134249329567, 0.04649294912815094, 0.11169308423995972, 0.21702159941196442, -0.10674646496772766, 0.2828572988510132, -0.11617125570774078, 0.07856190204620361, 0.03204772621393204, -0.0014585484750568867, -0.13355864584445953, -0.045873839408159256, 0.08911862969398499, -0.16615277528762817, -0.12311267852783203, 0.11609550565481186, 0.23453760147094727, -0.17079389095306396, 0.19906257092952728, -0.005909263622015715, 0.33570045232772827, -0.05488638952374458, 0.16393835842609406, -0.12915289402008057, 0.19701062142848969, 0.03338530287146568, -0.08057024329900742], [-0.05060339719057083, -0.01463506929576397, -0.13797414302825928, 0.11017000675201416, 0.1283077597618103, 0.03471336141228676, 0.10450238734483719, 0.21255798637866974, 0.14854641258716583, 0.12972049415111542, 0.1371779441833496, -0.059054989367723465, 0.27026209235191345, 0.07793478667736053, 0.04466972127556801, 0.1349543035030365, 0.0061587076634168625, 0.18018081784248352, 0.11155134439468384, 0.11559586226940155, -0.22444823384284973, 0.02370401658117771, 0.04944289103150368, 0.016524765640497208, 0.15121084451675415, -0.10558774322271347, 0.16455158591270447, 0.2494148313999176], [0.2043215036392212, -0.19791068136692047, -0.03872024640440941, 0.3158533573150635, 0.10660412162542343, -0.05414137989282608, 0.2121187001466751, 0.028127260506153107, -0.1568809598684311, -0.01753276400268078, -0.2233840525150299, 0.09980155527591705, 0.07164353877305984, -0.028660446405410767, -0.19212396442890167, 0.0185666773468256, 0.15972799062728882, 0.0445198118686676, 0.06911678612232208, 0.1732138842344284, -0.019001493230462074, 0.17481818795204163, -0.22018928825855255, 0.052553728222846985, 0.04665084928274155, 0.10887003690004349, -0.10956687480211258, 0.028651412576436996], [-0.0031297188252210617, -0.10140793770551682, -0.15247343480587006, 0.10940750688314438, 0.07389102876186371, 0.14588865637779236, 0.17937566339969635, -0.11886396259069443, -0.0022871484979987144, -0.08057617396116257, -0.16693325340747833, 0.1642298400402069, 0.20347507297992706, -0.10114379972219467, 0.15665532648563385, 0.018745139241218567, 0.14828382432460785, -0.08942956477403641, -0.11942502111196518, -0.0891532450914383, -0.005193473305553198, 0.12310776859521866, 0.14152224361896515, 0.11834730952978134, -0.07826758921146393, 0.11910702288150787, -0.08767203241586685, 0.022626783698797226], [-0.16132019460201263, -0.004113316535949707, 0.1062452644109726, -0.18526066839694977, 0.09145091474056244, -0.021061137318611145, -0.07142934203147888, 0.1498071402311325, 0.179923877120018, -0.17801491916179657, -0.018257945775985718, -0.12280692905187607, -0.13276247680187225, 0.13108979165554047, 0.09516136348247528, 0.014129966497421265, 0.03322283923625946, 0.15821205079555511, -0.1543780118227005, 0.0792861133813858, -0.13078615069389343, 0.09271343052387238, -0.06387220323085785, -0.07889220118522644, 0.045326605439186096, -0.14466995000839233, 0.025346070528030396, -0.017047330737113953], [0.10694799572229385, -0.10154436528682709, -0.039383430033922195, 0.0465204119682312, 0.2456362247467041, -0.250380277633667, 0.3198103904724121, 0.016292443498969078, -0.07672591507434845, -0.014337773434817791, 0.06691243499517441, -0.02612324059009552, -0.14614902436733246, 0.157241091132164, -0.27948832511901855, -0.0804457813501358, 0.040945716202259064, 0.025465406477451324, -0.05245261639356613, -0.0699530765414238, 0.25943470001220703, 0.27497294545173645, 0.0023283937480300665, -0.1367025375366211, 0.16092386841773987, 0.10572004318237305, -0.04320921748876572, -0.1683865785598755], [0.24792927503585815, -0.12264283001422882, 0.02011684887111187, 0.18572606146335602, -0.07599006593227386, 0.11310524493455887, 0.2609941363334656, 0.07106851786375046, -0.09984716773033142, 0.08626260608434677, -0.09581826627254486, 0.08180486410856247, -0.19566869735717773, -0.024933893233537674, -0.06569276750087738, 0.06188889592885971, 0.1778774857521057, -0.11695339530706406, -0.07693983614444733, -0.005811174865812063, 0.031812917441129684, 0.336151123046875, -0.1578073352575302, -0.1212114617228508, 0.10634192824363708, 0.08441162109375, -0.033738479018211365, 0.044140420854091644], [-0.11046714335680008, 0.18016944825649261, 0.14829126000404358, -0.027266625314950943, -0.013682962395250797, 0.2035912722349167, 0.2176494002342224, 0.02135075256228447, -0.09836584329605103, -0.09211009740829468, 0.10328037291765213, 0.044491417706012726, 0.1620534211397171, 0.08728090673685074, 0.18242903053760529, 0.24313737452030182, -0.03823662921786308, -0.08614986389875412, 0.29261142015457153, -0.07021746039390564, -0.08320562541484833, 0.14052018523216248, -0.12653058767318726, -0.033877771347761154, 0.14154112339019775, 0.14585340023040771, 0.01892813667654991, 0.06098445504903793], [-0.16647019982337952, 0.13749553263187408, 0.08793611824512482, 0.05700390413403511, -0.05183125659823418, 0.16983145475387573, -0.06955929845571518, 0.12205533683300018, -0.15320900082588196, -0.0003779215912800282, 0.09779343008995056, 0.00022867234656587243, -0.00840762723237276, 0.08513149619102478, -0.028955994173884392, 0.008302208967506886, 0.08016334474086761, 0.11271907389163971, 0.025683041661977768, -0.1185869351029396, 0.0583067312836647, 0.1258791834115982, 0.11684683710336685, 0.03643360361456871, 0.07302813977003098, 0.09164963662624359, -0.12261970341205597, -0.05184873938560486], [0.012699464336037636, 0.08675789833068848, -0.16779416799545288, 0.2578107714653015, 0.0765872374176979, -0.18391704559326172, 0.060835011303424835, 0.06111530587077141, -0.2176523506641388, 0.11979544162750244, -0.18294090032577515, 0.051432833075523376, -0.07823841273784637, 0.002473453525453806, 0.02705025114119053, -0.06233096495270729, 0.09378155320882797, -0.02126886695623398, -0.055863216519355774, 0.1555158495903015, 0.29460832476615906, 0.11162158101797104, 0.06946460157632828, -0.04433780536055565, -0.08901067823171616, 0.09612235426902771, 0.078095942735672, 0.04579846188426018], [0.20737873017787933, -0.18006160855293274, -0.1713060885667801, 0.20735982060432434, 0.08058466762304306, -0.10254587233066559, 0.24873051047325134, -0.03774287551641464, 0.11383522301912308, 0.027999533340334892, -0.22945375740528107, 0.0021990370005369186, -0.1616319715976715, 0.2469782680273056, 0.0680844709277153, -0.1970139890909195, 0.0535675548017025, 0.021388400346040726, -0.23499976098537445, 0.0913509875535965, 0.1504748910665512, 0.3931904733181, -0.1879785656929016, -0.1149481013417244, -0.013273453339934349, 0.2952426075935364, -0.18616758286952972, -0.045194778591394424], [0.3144235610961914, -0.10566869378089905, 0.1345076858997345, 0.002688711741939187, 0.07838157564401627, 0.046905554831027985, 0.27057167887687683, 0.09788013994693756, -0.15027636289596558, 0.06162840127944946, -0.24428746104240417, 0.007136901840567589, -0.20153677463531494, 0.16674202680587769, -0.21385683119297028, 0.10429668426513672, -0.05283978953957558, -0.15492461621761322, -0.05957772210240364, -0.18863283097743988, 0.2805561423301697, 0.4221014976501465, -0.033786702901124954, -0.012954342179000378, -0.008939139544963837, 0.06559822708368301, 0.06371477246284485, -0.04437704011797905], [-0.18186348676681519, -0.18088217079639435, 0.06396020948886871, -0.15383769571781158, 0.10949386656284332, -0.1414620280265808, -0.016907019540667534, 0.025366544723510742, -0.02293568290770054, 0.12109658122062683, -0.011876681819558144, 0.0009755046339705586, -0.10764586925506592, 0.03712381422519684, 0.07536156475543976, 0.03618217259645462, -0.08811055123806, -0.07163375616073608, -0.16081486642360687, -0.042466066777706146, -0.14323098957538605, 0.13523998856544495, -0.05300740525126457, -0.1574483960866928, -0.1671987622976303, -0.16570153832435608, -0.041431695222854614, 0.10289377719163895], [0.25165003538131714, 0.040232881903648376, 0.09932896494865417, 0.13267625868320465, 0.17870798707008362, -0.17165766656398773, 0.07040862739086151, -0.1913028210401535, -0.04868720471858978, -0.013918370939791203, -0.042997509241104126, 0.17087918519973755, -0.04012095555663109, 0.10701000690460205, 0.13062536716461182, 0.12031496316194534, -0.07545752823352814, 0.09172569215297699, -0.08343452960252762, 0.0962887555360794, 0.03274049609899521, -0.06971403956413269, 0.061399418860673904, 0.00313928397372365, -0.08496880531311035, -0.0027506379410624504, 0.05215081200003624, -0.22441242635250092]], "actor.network.2.bias": [0.05108192190527916, 0.15254642069339752, 0.14381682872772217, -0.10213135927915573, 0.10235122591257095, -0.11971767991781235, 0.021636905148625374, -0.014743821695446968, 0.08399919420480728, -0.10326741635799408, 0.12931090593338013, -0.10768051445484161, -0.16989083588123322, 0.22115331888198853, 0.0034237527288496494, 0.11961790174245834, -0.09422797709703445, 0.08893971890211105, -0.18241742253303528, 0.2253497987985611, 0.07140281796455383, 0.08731654286384583, 0.06351353228092194, -0.040272798389196396, 0.19864283502101898, 0.07958855479955673, 0.1263197958469391, -0.09952021390199661], "actor.network.4.weight": [[0.04032755270600319, -0.021270466968417168, 0.15898482501506805, -0.10867643356323242, -0.22491973638534546, -0.007535943761467934, -0.1161864623427391, -0.23209922015666962, 0.03353874385356903, 0.2090846747159958, 0.08115081489086151, -0.05466415733098984, -0.05596977472305298, 0.10896752029657364, 0.26111912727355957, 0.015705594792962074, 0.07327985018491745, 0.11662006378173828, 0.058512791991233826, 0.29490768909454346, 0.18324904143810272, 0.05632687732577324, -0.1285206824541092, 0.06912324577569962, 0.08405940234661102, 0.29015469551086426, 0.027749154716730118, 0.1502489298582077], [0.3414429724216461, 0.08347762376070023, 0.29918763041496277, -0.09695006906986237, -0.16007164120674133, 0.1722729206085205, 0.15744996070861816, -0.0469806008040905, -0.19492840766906738, 0.2791951894760132, -0.25299257040023804, 0.07590112090110779, -0.018823783844709396, 0.12642346322536469, 0.16327409446239471, 0.007848046720027924, 0.2058417946100235, -0.10300185531377792, 0.08205319941043854, 0.18597520887851715, 0.009444916620850563, -0.12609779834747314, 0.1290549337863922, 0.22868454456329346, 0.3592967092990875, 0.2595442235469818, -0.006182229612022638, 0.20324166119098663], [-0.0027855392545461655, 0.01847950555384159, 0.17492389678955078, 0.16728420555591583, -0.03726833313703537, 0.014363452792167664, 0.12088547646999359, -0.01392495445907116, -0.0663505494594574, -0.1655261516571045, -0.05060458928346634, 0.08241821825504303, 0.0014129416085779667, 0.038557734340429306, -0.09681423008441925, 0.129835844039917, 0.09527409076690674, -0.10267959535121918, -0.12130482494831085, -0.20827716588974, 0.1876668483018875, -0.011824136599898338, -0.06087319552898407, 0.134302020072937, 0.009213418699800968, 0.07464069128036499, -0.02955377846956253, 0.05925261229276657], [-0.18382927775382996, 0.15614472329616547, -0.10494199395179749, -0.16720549762248993, 0.009557709097862244, -0.13797354698181152, -0.03826861083507538, -0.04767961800098419, -0.15783831477165222, -0.10613196343183517, 0.05946500599384308, 0.014571458101272583, 0.09095288813114166, -0.12125124782323837, 0.040521785616874695, 0.0648474246263504, 0.09951288998126984, -0.05369371175765991, 0.13812123239040375, 0.062090858817100525, -0.006615087389945984, -0.003127872943878174, -0.026734694838523865, 0.0964052826166153, -0.08398603647947311, -0.07075310498476028, 0.00989764928817749, -0.014127284288406372], [-0.15169455111026764, -0.0851830318570137, -0.11159428209066391, -0.18313336372375488, 0.048909351229667664, -0.15572819113731384, -0.12806928157806396, 0.08834630995988846, 0.04295170307159424, 0.09403665363788605, 0.2341240644454956, 0.13719123601913452, 0.14218872785568237, 0.17878660559654236, -0.15644583106040955, 0.1571895033121109, -0.06206347793340683, 0.13569402694702148, 0.06632648408412933, -0.2223271280527115, -0.1684449166059494, 0.20257903635501862, -0.051945190876722336, 0.012298294343054295, -0.22636154294013977, -0.15679386258125305, 0.06273520737886429, -0.07323914021253586], [0.054971396923065186, -0.030861958861351013, 0.15822939574718475, -0.0009996294975280762, 0.044661879539489746, -0.1708216369152069, 0.09960900247097015, 0.06596313416957855, -0.033265337347984314, -0.025283098220825195, -0.11434229463338852, -0.048315539956092834, -0.03249150514602661, -0.1273459792137146, -0.020523130893707275, -0.10675183683633804, -0.004982545971870422, 0.17324428260326385, -0.07439969480037689, -0.14380832016468048, 0.014450371265411377, 0.053855836391448975, 0.026823580265045166, 0.16691316664218903, -0.02940729260444641, 0.13949351012706757, -0.11727547645568848, -0.0704692006111145], [-0.27267956733703613, -0.16309788823127747, 0.059863410890102386, 0.08095907419919968, -0.02239588461816311, -0.009756870567798615, 0.1477508544921875, 0.08649815618991852, 0.22064562141895294, 0.03678370267152786, -0.029729465022683144, -0.063950315117836, 0.026932092383503914, 0.14962238073349, 0.04639805853366852, 0.2077089250087738, 0.04215693473815918, -0.12293025851249695, -0.02914346754550934, -0.1831715703010559, -0.20936520397663116, 0.07816123962402344, 0.09048017114400864, -0.17836180329322815, -0.29653847217559814, -0.0019898933824151754, 0.12548907101154327, -0.18547247350215912], [-0.20369493961334229, -0.16069920361042023, -0.028358271345496178, -0.231586754322052, 0.21981634199619293, 0.15458877384662628, -0.03221511095762253, 0.17346549034118652, 0.007807295769453049, 0.0824817344546318, 0.22539983689785004, 0.062340330332517624, 0.09584803879261017, 0.14879059791564941, -0.3457818925380707, 0.11805840581655502, -0.23650194704532623, -0.09212837368249893, -0.18256054818630219, 0.23312236368656158, -0.23826462030410767, 0.19701315462589264, 0.08568616956472397, -0.01286154892295599, -0.2332889586687088, -0.10002627223730087, 0.10834188759326935, 0.12157657742500305], [0.036855436861515045, -0.02843865379691124, -0.02433241903781891, -0.14592880010604858, -0.02843289263546467, -0.16375327110290527, 0.08372549712657928, -0.10660102963447571, 0.0017820404609665275, -0.14139673113822937, 0.045554716140031815, 0.06351679563522339, 0.14156022667884827, 0.12340334802865982, -0.036437712609767914, 0.11867646872997284, 0.10093070566654205, -0.012292120605707169, 0.07899872958660126, -0.056973956525325775, -0.16821140050888062, -0.060196682810783386, -0.1400807946920395, -0.02768455445766449, 0.14235031604766846, -0.17090657353401184, -0.14934870600700378, -0.17648956179618835], [0.07445456832647324, -0.17017491161823273, -0.18881550431251526, 0.14170433580875397, 0.23589883744716644, 0.0025193849578499794, 0.10353724658489227, 0.18713125586509705, 0.03959135338664055, -0.050022657960653305, 0.11880437284708023, 0.10720840096473694, 0.10038486123085022, 0.020929673686623573, -0.23181243240833282, 0.05637408792972565, -0.25187399983406067, 0.001445657922886312, -0.17763081192970276, -0.07833833992481232, -0.016916820779442787, 0.19146959483623505, -0.08061324059963226, -0.10372985899448395, 0.022179391235113144, 0.03729763254523277, 0.09829369932413101, -0.10751185566186905], [-0.06460778415203094, 0.18625450134277344, 0.10481011122465134, -0.002319140825420618, -0.15217110514640808, -0.10891560465097427, -0.09616556018590927, 0.06899052858352661, 0.17566600441932678, -0.008172368630766869, -0.13541364669799805, 0.1505827009677887, -0.09337763488292694, 0.05480735003948212, 0.0652875155210495, -0.025850148871541023, -0.012867036275565624, -0.007538065314292908, -0.13248515129089355, -0.01168033853173256, -0.18828321993350983, 0.07683032006025314, 0.05826975405216217, 0.14006102085113525, -0.17949119210243225, 0.06157161295413971, 0.004108539782464504, 0.028384368866682053], [0.04699496924877167, -0.10731794685125351, -0.2490081489086151, 0.18552735447883606, -0.04335729032754898, -0.14906004071235657, 0.1143982782959938, 0.2029629349708557, 0.28501570224761963, -0.12219841033220291, 0.1691732555627823, 0.12831467390060425, -0.004463591612875462, -0.057442422956228256, -0.19837886095046997, 0.2306172251701355, -0.21617062389850616, 0.06788737326860428, -0.049366503953933716, -0.10610030591487885, -0.21657587587833405, 0.2277369648218155, 0.0653277114033699, -0.041493114084005356, -0.12710916996002197, -0.13684459030628204, -0.043739043176174164, 0.11087160557508469], [-0.25306960940361023, 0.07111295312643051, -0.17036719620227814, -0.02401437610387802, 0.2121606320142746, 0.01096173096448183, -0.11888276040554047, 0.2341473549604416, 0.12369073182344437, -0.17892342805862427, 0.03299104794859886, -0.029716264456510544, 0.07803313434123993, -0.14323364198207855, 0.08256637305021286, 0.15894410014152527, -0.1898694634437561, 0.14242279529571533, -0.15449732542037964, -0.1478423774242401, 0.007259842939674854, 0.20073549449443817, 0.02870340459048748, -0.19416503608226776, -0.03976569324731827, -0.12712867558002472, 0.0961441844701767, -0.18453805148601532], [-0.02096174657344818, 0.06108523905277252, -0.13993661105632782, 0.07980550825595856, -0.13658475875854492, -0.13406169414520264, 0.0346071720123291, -0.035561949014663696, -0.10322343558073044, -0.08338428288698196, 0.07461024820804596, 0.08850602805614471, 0.10024739801883698, -0.17528535425662994, -0.01828405261039734, -0.014096692204475403, 0.059917062520980835, 0.1029052883386612, 0.18028433620929718, 0.055029332637786865, 0.06277088820934296, -0.18091508746147156, 0.0942879468202591, -0.17298370599746704, -0.02740897238254547, 0.023555085062980652, 0.01096312701702118, -0.07025157660245895], [-0.15846645832061768, 0.05074349418282509, -0.1218281164765358, -0.10265828669071198, 0.20911163091659546, -0.00287139811553061, -0.10736530274152756, 0.11750317364931107, 0.1463940143585205, -0.09338653087615967, 0.2852995693683624, 0.0299017746001482, 0.10544919967651367, 0.18542252480983734, -0.23173807561397552, 0.08371542394161224, -0.1803530901670456, 0.19707658886909485, -0.15290282666683197, -0.06532493978738785, -0.18521197140216827, -0.022237518802285194, 0.008709236979484558, 0.07043341547250748, -0.1387302130460739, -0.0843568742275238, -0.0295339934527874, -0.010975020006299019], [0.10370317101478577, 0.1159430593252182, 0.25708186626434326, -0.015020038932561874, -0.13078278303146362, -0.09192658960819244, 0.2256058007478714, 0.11142131686210632, 0.04129425808787346, -0.05380606651306152, -0.1854420304298401, -0.12697355449199677, -0.10323361307382584, 0.1629830151796341, 0.15424548089504242, -0.06728987395763397, 0.20691262185573578, 0.18890266120433807, -0.1196746900677681, 0.22594457864761353, 0.12501251697540283, -0.2284444272518158, 0.07830668240785599, -0.02388159930706024, 0.44131723046302795, 0.36497563123703003, 0.0010544054675847292, 0.13955239951610565], [0.02448970638215542, 0.10884273052215576, -0.03709116205573082, 0.1370297372341156, 0.2676785886287689, 0.1438574343919754, -0.1223963052034378, -0.045668020844459534, 0.3093118369579315, -0.2417725920677185, -0.03960545361042023, -0.0668247640132904, 0.09470481425523758, 0.2102464884519577, 0.0009206538670696318, -0.08537895977497101, 0.0844840407371521, 0.10586409270763397, 0.11568717658519745, -0.16724103689193726, -0.22582043707370758, 0.06136743724346161, 0.03481867164373398, -0.1304842233657837, -0.22508016228675842, -0.15513776242733002, 0.10780808329582214, 0.0852506011724472], [-0.12040665000677109, -0.15172003209590912, -0.24183398485183716, 0.08227802813053131, 0.31092819571495056, -0.02520369179546833, 0.13483376801013947, -0.018906857818365097, 0.3091556131839752, -0.2012922465801239, 0.23814788460731506, -0.17737197875976562, -0.1500074714422226, -0.12045811861753464, -0.23213686048984528, 0.23472227156162262, 0.04262927547097206, 0.051379166543483734, 0.15967871248722076, -0.18586194515228271, -0.11117410659790039, -0.0925385132431984, 0.09818347543478012, 0.08474791795015335, -0.22490763664245605, -0.1730867326259613, -0.1234392374753952, -0.08858562260866165], [0.29900243878364563, 0.09735313802957535, 0.1489454060792923, 0.15919449925422668, -0.224599227309227, 0.12424494326114655, 0.03558914735913277, -0.05392501875758171, 0.062040891498327255, 0.1654980480670929, 0.050027526915073395, -0.0847272276878357, -0.1593298763036728, -0.05926736071705818, 0.21069827675819397, -0.005728583782911301, 0.27387750148773193, 0.12480584532022476, -0.1388004571199417, 0.23389148712158203, -0.03901657834649086, -0.046574871987104416, 0.1729668378829956, 0.10287176072597504, 0.166224867105484, 0.37808486819267273, 0.13000687956809998, 0.09144419431686401], [0.19772034883499146, -0.043647944927215576, 0.010760420933365822, 0.020534079521894455, -0.05254775658249855, 0.15083400905132294, 0.1043311357498169, -0.09355474263429642, -0.05260264873504639, -0.08800598233938217, 0.08972938358783722, -0.01874392107129097, 0.045849040150642395, 0.25548967719078064, 0.2877499461174011, -0.0491388663649559, 0.3186214864253998, 0.15867969393730164, -0.15977030992507935, 0.335666298866272, 0.3650912940502167, -0.15071514248847961, -0.08076511323451996, 0.10357195883989334, 0.3566896915435791, 0.1384410262107849, 0.09659171104431152, 0.08164400607347488], [0.05419844388961792, -0.06800508499145508, -0.15217900276184082, 0.1211247593164444, 0.054583027958869934, -0.05246350169181824, 0.03215564787387848, 0.06917454302310944, 0.016548290848731995, 0.13494156301021576, -0.08295511454343796, -0.047394827008247375, -0.15100832283496857, 0.06216646730899811, 0.03453296422958374, -0.17548532783985138, 0.07138969004154205, 0.015369400382041931, -0.08706576377153397, -0.08312984555959702, 0.017279669642448425, -0.07442625612020493, -0.0271187424659729, -0.14188721776008606, -0.13746699690818787, -0.056211069226264954, 0.054393380880355835, 0.0009824186563491821], [0.2835904359817505, 0.09979500621557236, 0.13784848153591156, -0.16262924671173096, 0.1092538833618164, -0.023560509085655212, 0.022780366241931915, 0.11619651317596436, -0.14497876167297363, 0.2098357379436493, 0.04760868474841118, -0.05095618590712547, -0.03835666552186012, -0.048482269048690796, -0.04608703404664993, -0.10414548963308334, 0.17371848225593567, 0.13331852853298187, 0.09656773507595062, 0.0744406208395958, 0.23590852320194244, -0.062369730323553085, -0.11784602701663971, 0.05533013120293617, 0.3139503002166748, 0.0049649630673229694, 0.1332639455795288, -0.04805006831884384], [-0.1741289347410202, 0.16701024770736694, -0.08569308370351791, -0.003944208845496178, -0.10862831026315689, 0.05111348628997803, -0.16170595586299896, -0.15582400560379028, 0.15336763858795166, -0.022519156336784363, 0.05190744623541832, -0.11859884113073349, -0.10468970239162445, -0.08300774544477463, -0.08184555172920227, 0.10473282635211945, -0.11549622565507889, 0.11664557456970215, -0.015146434307098389, 0.011131659150123596, -0.173477903008461, 0.08777652680873871, 0.027828577905893326, -0.17565450072288513, -0.03526722639799118, -0.0761743038892746, -0.09392350912094116, -0.09007223695516586], [0.12052145600318909, 0.0651734247803688, 0.13752923905849457, 0.07150064408779144, -0.24658890068531036, -0.09884713590145111, 0.12956616282463074, -0.19467762112617493, -0.15600939095020294, 0.14209285378456116, -0.0026483694091439247, 0.015153841115534306, 0.08215270936489105, 0.2501753568649292, 0.04154634103178978, 0.14182627201080322, 0.025490324944257736, -0.0387490913271904, -0.08563746511936188, 0.031242920085787773, 0.14276154339313507, -0.10157367587089539, 0.00942777656018734, 0.05365939438343048, 0.30376243591308594, 0.15724360942840576, 0.03253546357154846, 0.0024503455497324467], [0.023665156215429306, 0.23582760989665985, -0.020286088809370995, -0.1321980059146881, -0.16033051908016205, -0.10465973615646362, 0.15497595071792603, -0.09270071238279343, -0.06132521480321884, 0.10125169903039932, -0.19649185240268707, 0.09193900972604752, 0.09630273282527924, 0.11023524403572083, -0.02727523259818554, 0.12117074429988861, 0.024709243327379227, 0.11807729303836823, 0.06108595430850983, 0.1509823054075241, 0.09861795604228973, -0.18736432492733002, 0.0726005956530571, 0.1435176134109497, 0.210924431681633, 0.22101102769374847, 0.1933460235595703, 0.17171622812747955], [0.285147488117218, -0.05796855688095093, 0.23171691596508026, -0.06610747426748276, -0.17715595662593842, -0.19526484608650208, 0.2021319568157196, -0.03447234258055687, -0.23356333374977112, 0.21852801740169525, 0.005812329240143299, 0.17338284850120544, -0.04740060493350029, -0.032711490988731384, 0.2582129240036011, 0.11207110434770584, 0.1441163271665573, -0.1691906750202179, -0.16669507324695587, 0.1386609524488449, -0.037798162549734116, 0.025814685970544815, 0.08031516522169113, 0.05553583428263664, 0.3567844033241272, 0.1632225513458252, -0.11388303339481354, -0.04077889397740364], [0.08161277323961258, 0.04084605351090431, 0.033968377858400345, 0.07224822789430618, -0.04282912239432335, -0.1529286652803421, 0.18228012323379517, -0.022853093221783638, -0.04084670543670654, 0.026356138288974762, -0.01858258806169033, 0.15031075477600098, -0.046757280826568604, 0.125657856464386, -0.20355451107025146, 0.027844203636050224, 0.1600053310394287, -0.10820642113685608, -0.1452479064464569, 0.020799212157726288, 0.030366012826561928, 0.05622464418411255, -0.07659746706485748, 0.10868697613477707, 0.06354343146085739, -0.17287097871303558, -0.17343640327453613, -0.07191275805234909], [-0.08494797348976135, -0.2155628353357315, -0.19722488522529602, -0.08975563943386078, 0.10857731848955154, -0.13168716430664062, 0.014222164638340473, 0.2967926561832428, 0.1832355260848999, 0.09846097975969315, -0.005570071749389172, 0.14566971361637115, -0.18143999576568604, 0.18383446335792542, -0.0678122416138649, 0.10755891352891922, -0.24560005962848663, -0.017343202605843544, 0.043513670563697815, -0.22339311242103577, 0.06616674363613129, 0.1017528846859932, 0.10726293176412582, -0.17102329432964325, -0.20486150681972504, -0.14255066215991974, 0.11333249509334564, -0.16044016182422638]], "actor.network.4.bias": [0.10226479917764664, 0.1624111831188202, -0.17852556705474854, -0.1871424913406372, 0.2150958925485611, -0.1273525357246399, 0.14084041118621826, 0.03735281154513359, -0.14476725459098816, 0.07971316576004028, -0.08463282883167267, 0.11268968880176544, 0.166465163230896, -0.02746005356311798, 0.05158437415957451, -0.08137200027704239, 0.16938698291778564, 0.16656306385993958, -0.02442171983420849, -0.13444896042346954, -0.0667317807674408, -0.0615428201854229, -0.1645437479019165, 0.07854460179805756, 0.03923218324780464, 0.13795872032642365, -0.10866561532020569, 0.1615130603313446], "actor.network.6.weight": [[0.1900581419467926, 0.24587717652320862, -0.15286687016487122, 0.10304071009159088, -0.1870819479227066, -0.011454448103904724, -0.11826489865779877, -0.3251090943813324, 0.0335732027888298, -0.1841629296541214, 0.09156198799610138, -0.2972146272659302, -0.25871336460113525, -0.05099688470363617, -0.19027727842330933, 0.4013971984386444, -0.2520056962966919, -0.16278190910816193, 0.322555273771286, 0.39947840571403503, 0.08909334242343903, 0.20126576721668243, -0.013160079717636108, 0.07042241096496582, 0.2510053217411041, 0.13174723088741302, -0.06324854493141174, -0.25170662999153137], [-0.2543371915817261, -0.26738008856773376, -0.042867016047239304, -0.12530142068862915, 0.28149643540382385, -0.07692752033472061, 0.16635611653327942, 0.24525466561317444, 0.16643600165843964, -0.04258977621793747, 0.14437457919120789, 0.25821495056152344, 0.23681804537773132, -0.12891177833080292, 0.32515576481819153, -0.26427701115608215, 0.21549490094184875, 0.3107626140117645, -0.3390030562877655, -0.17064543068408966, -0.06103472411632538, -0.21817119419574738, 0.00046987133100628853, -0.2786543369293213, -0.2355814278125763, -0.260885626077652, -0.026409056037664413, 0.12959690392017365]], "actor.network.6.bias": [0.1568884551525116, -0.0050413403660058975], "critic.network.0.weight": [[-0.12469038367271423, 0.3071226477622986, -0.14210191369056702, 0.12174887210130692], [0.5343424081802368, 0.10473122447729111, 0.35685691237449646, 0.3323693871498108], [0.49006739258766174, -0.3558785915374756, 0.17745554447174072, -0.3160310387611389], [0.30136871337890625, 0.1123775839805603, 0.19553539156913757, 0.10295352339744568], [-0.25780755281448364, -0.5035457015037537, -0.30614128708839417, -0.3376104533672333], [-0.44934171438217163, -0.35479536652565, 0.38206398487091064, 0.4960460960865021], [-0.07628223299980164, -0.22672465443611145, 0.4277729392051697, 0.3352198600769043], [-0.02307216078042984, -0.034965239465236664, 0.29068779945373535, 0.2463245689868927], [0.24127337336540222, 0.21284589171409607, 0.3431727886199951, 0.2566133141517639], [0.15546058118343353, 0.11687587201595306, -0.18563568592071533, -0.06774887442588806], [-0.208027645945549, 0.037687625735998154, 0.08098175376653671, -0.4950617551803589], [-0.08718349039554596, -0.34240591526031494, 0.26380324363708496, -0.2900558114051819], [0.06455221027135849, -0.11383187025785446, -0.030281031504273415, -0.44892627000808716], [0.394569993019104, -0.19979310035705566, -0.41647085547447205, 0.07899249345064163], [-0.4565686583518982, 0.36560961604118347, 0.0013409631792455912, 0.46004775166511536], [0.24427464604377747, -0.1774817854166031, -0.37829139828681946, -0.4652777910232544], [0.3539920151233673, -0.3502216637134552, -0.23128747940063477, 0.3150361478328705], [-0.1776854395866394, -0.27249640226364136, -0.18381367623806, 0.24249990284442902], [-0.196292906999588, 0.0320008359849453, 0.0034289166796952486, 0.08578315377235413], [0.16703468561172485, 0.1878860592842102, 0.36309143900871277, 0.49921172857284546], [-0.12439269572496414, -0.21839256584644318, 0.15582217276096344, 0.30740588903427124], [0.20891770720481873, 0.08202071487903595, -0.1959356963634491, -0.0933821052312851], [0.3046371638774872, 0.1159900575876236, 0.23859895765781403, -0.2922140657901764], [0.29161566495895386, 0.2815472483634949, -0.2164483517408371, 0.210107684135437], [0.3467785716056824, 0.4744739830493927, 0.41643738746643066, 0.45057111978530884], [-0.06680957227945328, 0.47052812576293945, -0.19063621759414673, -0.08757272362709045], [0.5036926865577698, -0.0846809595823288, -0.14860670268535614, 0.02024356834590435], [-0.21062079071998596, -0.04824696108698845, 0.39262035489082336, -0.22947905957698822]], "critic.network.0.bias": [0.5559408068656921, -0.06974786520004272, -0.037417083978652954, 0.6073048710823059, 0.6179606914520264, -0.1792023628950119, -0.40476754307746887, -0.5247914791107178, 0.5964111089706421, 0.4276472330093384, -0.2539367079734802, -0.5260030627250671, -0.14377784729003906, 0.5349993109703064, -0.1132902204990387, -0.07016526907682419, 0.3829230070114136, -0.32441261410713196, 0.32419613003730774, -0.2667437195777893, -0.28869619965553284, -0.10372146964073181, 0.4292835593223572, -0.14111074805259705, -0.12749865651130676, -0.36526280641555786, -0.29318463802337646, 0.3974077105522156], "critic.network.2.weight": [[0.02180767059326172, 0.01925079897046089, 0.1026945561170578, 0.1415138840675354, -0.13474872708320618, -0.12428198754787445, -0.08862192183732986, 0.1407480686903, 0.16351209580898285, -0.08287033438682556, 0.008195588365197182, -0.038464561104774475, -0.03602262958884239, -0.038419000804424286, 0.16980375349521637, -0.03803548961877823, 0.08404609560966492, -0.1682530641555786, -0.14075323939323425, 0.13099974393844604, -0.15515446662902832, -0.067144475877285, 0.014594383537769318, 0.25689417123794556, 0.23016288876533508, 0.005051366984844208, -0.03544772416353226, -0.0197143591940403], [0.011790711432695389, 0.019913841038942337, -0.06800724565982819, -0.015184396877884865, -0.19086134433746338, -0.12483374774456024, 0.00025425851345062256, 0.0015073120594024658, -0.0894588828086853, 0.08152968436479568, -0.04670913144946098, 0.10704787075519562, -0.17546457052230835, 0.15432536602020264, 0.14575469493865967, -0.009385318495333195, 0.0302132498472929, 0.0977405458688736, 0.08253446221351624, -0.07931787520647049, 0.057939961552619934, -0.15893730521202087, -0.006275999825447798, 0.07280628383159637, 0.00529901310801506, -0.13543200492858887, -0.07473734021186829, -0.19931459426879883], [-0.1563272625207901, 0.16556213796138763, -0.12125429511070251, -0.03589974343776703, 0.033589765429496765, -0.18440411984920502, -0.034833624958992004, 0.008565962314605713, -0.12303933501243591, -0.16302956640720367, -0.15943388640880585, -0.017153307795524597, -0.051902562379837036, 0.05762733519077301, -0.12623175978660583, 0.16096119582653046, -0.06438958644866943, -0.10497505962848663, -0.060949668288230896, -0.046170368790626526, 0.00040702521800994873, -0.04452522099018097, -0.1153402179479599, -0.07868124544620514, 0.18852902948856354, 0.08414529263973236, -0.04495468735694885, 0.13532684743404388], [-0.05867653712630272, -0.24702812731266022, -0.08455339819192886, 0.14316311478614807, 0.10813784599304199, -0.12008331716060638, 0.02220502495765686, 0.022033214569091797, 0.12653005123138428, -0.06971129029989243, -0.24384532868862152, -0.049924928694963455, -0.09781467914581299, 0.0375174917280674, -0.32469412684440613, 0.05926995351910591, 0.1965581476688385, 0.07321050018072128, 0.014736820943653584, 0.061047010123729706, 0.13845108449459076, -0.11414659023284912, 0.04936009645462036, 0.10486510396003723, -0.07131187617778778, 0.07159753888845444, -0.2262391448020935, 0.20650111138820648], [0.20793908834457397, 0.0030571618117392063, -0.08860006183385849, 0.26310786604881287, 0.039201706647872925, 0.1180621013045311, 0.11655446887016296, 0.1474824994802475, 0.15254397690296173, 0.13378611207008362, 0.08748719841241837, 0.08272072672843933, -0.07607130706310272, -0.06919343024492264, -0.17804235219955444, 0.06790577620267868, 0.1445624828338623, -0.15692248940467834, 0.2608514428138733, -0.3003140389919281, -0.016162553802132607, -0.014808902516961098, 0.06853106617927551, -0.18073499202728271, 0.01522751897573471, -0.020208416506648064, -0.15219564735889435, 0.2823430597782135], [-0.16699005663394928, 0.08999328315258026, 0.14426247775554657, 0.033493101596832275, -0.17162303626537323, 0.05285388231277466, -0.1709630936384201, 0.18151389062404633, -0.04254806041717529, 0.06824316084384918, -0.1824033409357071, 0.0029441267251968384, -0.16471129655838013, 0.17857618629932404, -0.0024889707565307617, -0.08885364234447479, -0.14424999058246613, 0.014642134308815002, 0.042317286133766174, 0.053531333804130554, 0.09266583621501923, -0.188039168715477, -0.1592673361301422, 0.002591758966445923, 0.04481199383735657, 0.02938835322856903, -0.12138114869594574, 0.047937363386154175], [-0.10904065519571304, 0.004363970831036568, 0.18320232629776, 0.00212227925658226, 0.03988009691238403, 0.198207825422287, 0.052782148122787476, -0.07274602353572845, -0.10395549237728119, -0.0408003069460392, 0.005999569781124592, 0.034885261207818985, 0.036376744508743286, -0.13113200664520264, 0.057321738451719284, 0.25927555561065674, 0.12917716801166534, 0.047942936420440674, -0.08064116537570953, 0.14675244688987732, -0.10927318781614304, 0.10356033593416214, 0.22774343192577362, 0.149093359708786, 0.16792991757392883, 0.20278745889663696, 0.06671693921089172, 0.06168964132666588], [0.0015348779270425439, -0.006240691989660263, 0.0647449642419815, 0.14403323829174042, 0.21940450370311737, -0.14196330308914185, -0.15016698837280273, 0.12781479954719543, 0.12604857981204987, 0.19263622164726257, 0.05836306884884834, -0.1063501313328743, -0.17736968398094177, -0.01212327741086483, -0.1876165270805359, -0.010900490917265415, 0.03541586175560951, -0.0026670885272324085, 0.01811220496892929, -0.28639891743659973, -0.1416275054216385, -0.007331312634050846, 0.07764436304569244, -0.0650067925453186, -0.2995558977127075, -0.06039697676897049, -0.24687017500400543, 0.28127816319465637], [-0.19247087836265564, -0.151088684797287, 0.03259658068418503, 0.15403258800506592, -0.10133543610572815, 0.04469238966703415, -0.16720882058143616, -0.01079908013343811, -0.0426006056368351, -0.19521033763885498, 0.1849774569272995, 0.01138681173324585, 0.0015715807676315308, -0.009224820882081985, -0.054312750697135925, 0.08548881113529205, -0.13721582293510437, -0.015913888812065125, -0.010144883766770363, -0.08125894516706467, -0.16755954921245575, -0.06168648600578308, -0.0793130174279213, -0.18427777290344238, 0.12066171318292618, 0.0582953542470932, -0.03984987735748291, -0.15399616956710815], [-0.12865936756134033, -0.0004143714904785156, 0.05399363487958908, 0.12585410475730896, 0.06261105835437775, -0.18139415979385376, -0.1625494360923767, -0.1707654893398285, -0.15004178881645203, -0.14192697405815125, -0.1994723677635193, 0.04123372584581375, 0.08478079736232758, -0.1717844009399414, -0.16975899040699005, 0.01894410327076912, 0.021446943283081055, 0.12198766320943832, -0.05701012909412384, 0.14977629482746124, 0.13545535504817963, -0.11277073621749878, -0.20755234360694885, 0.1082954853773117, -0.1021234393119812, 0.025934219360351562, -0.0957309901714325, -0.029735561460256577], [0.21864937245845795, -0.1445055454969406, -0.19443902373313904, 0.2565273344516754, 0.05857904627919197, -0.06928454339504242, -0.039280928671360016, -0.0680159255862236, 0.14748729765415192, 0.27329978346824646, -0.12323960661888123, -0.022235043346881866, -0.03895416855812073, 0.030188312754034996, -0.13119283318519592, 0.08822459727525711, 0.011479898355901241, -0.043268170207738876, -0.014815699309110641, -0.11305596679449081, -0.07444163411855698, 0.0017564286245033145, 0.17122989892959595, -0.20173054933547974, -0.289002001285553, -0.128996342420578, -0.21081793308258057, 0.212633416056633], [-0.17206035554409027, -0.043379053473472595, -0.11620824038982391, 0.04962596297264099, -0.03324306011199951, 0.06364043056964874, -0.15826407074928284, -0.014486581087112427, 0.15976004302501678, 0.14969311654567719, -0.022681742906570435, 0.028359636664390564, -0.02410218119621277, -0.09040950238704681, 0.16682745516300201, 0.14514853060245514, -0.06663301587104797, 0.07572336494922638, -0.04609718918800354, -0.125273197889328, -0.09366968274116516, 0.10190235078334808, -0.14155058562755585, -0.1824796497821808, -0.12503135204315186, 0.004883676767349243, -0.18009045720100403, 0.01538790762424469], [0.275252103805542, -0.10434020310640335, -0.2170998901128769, 0.11655264347791672, 0.18140454590320587, 0.08391004055738449, -0.19883938133716583, -0.09566368162631989, 0.015981435775756836, 0.2523386776447296, -0.2194669246673584, -0.05908157676458359, -0.22609631717205048, 0.25968414545059204, -0.08967383950948715, 0.06459082663059235, 0.20598727464675903, -0.12137354165315628, 0.2850775420665741, -0.0634019672870636, -0.038842905312776566, 0.05619417503476143, -0.10729595273733139, -0.15536467730998993, 0.054214105010032654, -0.09960191696882248, -0.06925006210803986, 0.12035758048295975], [0.08064121752977371, 0.08940847963094711, -0.27264004945755005, 0.037095557898283005, 0.009110849350690842, -0.12347328662872314, 0.11914064735174179, 0.07660450041294098, 0.1902642697095871, 0.18850506842136383, -0.19193117320537567, -0.10328985750675201, -0.049814317375421524, 0.09679126739501953, -0.2612892687320709, -0.12226169556379318, 0.11304271221160889, 0.04755227640271187, 0.07350289821624756, -0.17291712760925293, 0.1045823022723198, -0.03435656428337097, -0.10549113899469376, -0.1422954946756363, 0.04678446054458618, -0.20780456066131592, -0.20765376091003418, -0.07749706506729126], [-0.14999431371688843, 0.047927260398864746, -0.10484947264194489, 0.12379218637943268, 0.003301236080005765, 0.009404335170984268, -0.14697375893592834, 0.17491500079631805, -0.14300525188446045, -0.14181211590766907, -0.06473084539175034, -0.09812358021736145, -0.04031725227832794, 0.055099643766880035, -0.12610089778900146, -0.022754371166229248, -0.16257056593894958, 0.0008380389772355556, -0.08252082765102386, -0.13351184129714966, -0.10255959630012512, -0.08709987252950668, -0.17575526237487793, 0.14737392961978912, -0.10326139628887177, -0.16356666386127472, 0.1338307410478592, -0.17501413822174072], [-0.15792635083198547, -0.20341695845127106, 0.17375153303146362, -0.004252461716532707, -0.0773901417851448, -0.09586445242166519, -0.026235245168209076, 0.0007690386846661568, -0.21528978645801544, 0.09084970504045486, 0.17443375289440155, -0.1958865374326706, 0.16617970168590546, 0.08584016561508179, -0.10125043988227844, 0.2191385179758072, 0.12213265150785446, -0.178145170211792, -0.1556851863861084, -0.060407303273677826, 0.10617582499980927, 0.12982803583145142, 0.05028485506772995, -0.13837657868862152, -0.043174877762794495, -0.12168684601783752, 0.1596737802028656, 0.17581257224082947], [0.23713360726833344, -0.20947183668613434, -0.06807196140289307, 0.1072540208697319, 0.28995203971862793, 0.05687782168388367, 0.046510983258485794, -0.03430682048201561, 0.18641000986099243, 0.19160498678684235, 0.09804527461528778, 0.0013073747977614403, 0.07563233375549316, 0.028084231540560722, -0.14949831366539001, -0.14268577098846436, 0.03258555382490158, 0.004457571543753147, 0.12415476143360138, 0.025283537805080414, 0.13161085546016693, -0.09088048338890076, 0.07324650138616562, 0.041030094027519226, -0.12063802778720856, -0.062460899353027344, -0.2677404284477234, -0.010365363210439682], [-0.011804725974798203, -0.17748188972473145, -0.22110503911972046, -0.19524098932743073, 0.09395435452461243, -0.03015195205807686, 0.04455253481864929, 0.06507305800914764, -0.06806930899620056, -0.050622399896383286, -0.13182300329208374, 0.0959068015217781, -0.06566327810287476, 0.14537844061851501, 0.0994669646024704, -0.1098184585571289, -0.10461306571960449, 0.029840819537639618, -0.17889949679374695, -0.09793413430452347, -0.19901424646377563, 0.09533724188804626, 0.11556367576122284, -0.15798650681972504, 0.041878387331962585, -0.04016581177711487, 0.06716503202915192, 0.020532021299004555], [0.22183220088481903, -0.2092389166355133, -0.11266082525253296, -0.006432536989450455, -0.014718248508870602, 0.005523208994418383, -0.23741066455841064, 0.010476364754140377, 0.22040018439292908, 0.22207170724868774, -0.16301169991493225, -0.10190169513225555, -0.2228614240884781, -0.08211860805749893, -0.07131119817495346, 0.04780212789773941, -0.05394364148378372, -0.12859360873699188, 0.22285667061805725, -0.04082033038139343, -0.19246096909046173, -0.14320430159568787, 0.091831274330616, 0.05176420509815216, -0.2969844341278076, -0.17365480959415436, -0.2026723027229309, 0.14592856168746948], [-0.06560291349887848, -0.11092755943536758, 0.14510567486286163, -0.005610429681837559, 0.10675698518753052, -0.010703029111027718, -0.03286069631576538, -0.17139944434165955, -0.1067107692360878, 0.08342531323432922, -0.1502840518951416, -0.1147129237651825, -0.16258469223976135, 0.12766078114509583, 0.05870647728443146, -0.04183446988463402, 0.07073348760604858, 0.019851449877023697, 0.011879594065248966, -0.039952680468559265, -0.06886305660009384, -0.10918888449668884, -0.10327553749084473, -0.18906088173389435, 0.018462300300598145, -0.1700163334608078, 0.10506928712129593, -0.18657498061656952], [-0.21287024021148682, 0.2525298297405243, -0.023548083379864693, 0.08693216741085052, -0.14559470117092133, -0.005077112000435591, 0.10066718608140945, -0.12456358969211578, -0.10821018368005753, -0.21446332335472107, 0.005097750574350357, -0.14816401898860931, 0.09683454781770706, 0.07168728113174438, 0.26548561453819275, 0.20676705241203308, 0.11752880364656448, -0.12638944387435913, 0.016625648364424706, 0.20860010385513306, 0.07527622580528259, -0.11351647973060608, 0.10674968361854553, -0.016345631331205368, 0.24167242646217346, 0.16884982585906982, -0.0010668868198990822, -0.011568657122552395], [0.20034919679164886, -0.1283402293920517, -0.24900202453136444, 0.059280071407556534, 0.12448175996541977, -0.11006097495555878, 0.049012694507837296, 0.12380975484848022, -0.02457551285624504, 0.12373118847608566, -0.26937270164489746, 0.21289347112178802, -0.05718725174665451, 0.06895957887172699, -0.17246884107589722, -0.015894167125225067, 0.23075251281261444, -0.049730002880096436, 0.01940464787185192, -0.2127423733472824, -0.047238271683454514, 0.05990378558635712, 0.1104712039232254, 0.07908713817596436, 0.06526733934879303, -0.2263796329498291, -0.16748476028442383, 0.2168969362974167], [0.0966290757060051, -0.12481316179037094, -0.028004514053463936, 0.24890780448913574, -0.02654523402452469, 0.18853940069675446, 0.008375988341867924, -0.19510897994041443, 0.28965798020362854, -0.0755508616566658, -0.2507454752922058, 0.04028612747788429, -0.241666778922081, 0.0005683175404556096, -0.2273765504360199, -0.01954478770494461, 0.1087128147482872, 0.15263515710830688, 0.14720307290554047, -0.26514098048210144, -0.05492051690816879, -0.2586411237716675, 0.12753939628601074, -0.08750747889280319, -0.0679507702589035, -0.24145472049713135, -0.08302953839302063, 0.19919262826442719], [0.22544744610786438, 0.023598860949277878, -0.27876749634742737, 0.1711663156747818, 0.23984335362911224, 0.10010859370231628, -0.0997098982334137, 0.1338203251361847, 0.04719020426273346, 0.06911598145961761, -0.198157399892807, 0.016275333240628242, 0.022351553663611412, -0.05135054886341095, -0.23503880202770233, 0.03604385629296303, 0.10044596344232559, -0.10711152106523514, 0.3038443922996521, -0.254614919424057, 0.03558138385415077, -0.005114074796438217, -0.07625563442707062, -0.1833430528640747, -0.17620691657066345, -0.06596873700618744, -0.18544802069664001, 0.14470042288303375], [0.03135573863983154, 0.1368146538734436, -0.26407843828201294, 0.2375023066997528, 0.11457725614309311, -0.1638326197862625, -0.10415453463792801, 0.12310522794723511, 0.06857665628194809, 0.1566087007522583, -0.0004926444380544126, 0.16170759499073029, -0.1655639410018921, 0.15449661016464233, -0.06350987404584885, -0.19831569492816925, 0.18775363266468048, -0.128503680229187, 0.04072355851531029, -0.005977392662316561, -0.16911493241786957, -0.1517762690782547, 0.2501191794872284, 0.06968797743320465, -0.26425665616989136, -0.04769916087388992, -0.21567238867282867, 0.03842094540596008], [0.22237572073936462, 0.08598329871892929, -0.24227111041545868, 0.23641537129878998, 0.21766264736652374, -0.09863320738077164, 0.10701508074998856, -0.20574608445167542, 0.10611697286367416, -0.03756098449230194, -0.09422638267278671, 0.16231614351272583, -0.23662929236888885, 0.17315299808979034, -0.030701354146003723, -0.04497181996703148, 0.06918857991695404, 0.13944189250469208, -0.033241771161556244, -0.035765670239925385, -0.14606551826000214, -0.2054884284734726, 0.14826034009456635, -0.23826202750205994, -0.28883594274520874, -0.11012035608291626, -0.10263288021087646, 0.10824137181043625], [0.01616825722157955, 0.07064270973205566, 0.213746577501297, -0.0758809894323349, -0.049915604293346405, -0.11731445044279099, -0.13131164014339447, 0.004774108529090881, -0.08855868130922318, 0.03987296298146248, -0.06664356589317322, 0.1015893965959549, 0.15760275721549988, -0.15177008509635925, 0.05552440881729126, 0.24069395661354065, -0.4463956356048584, -0.10412853211164474, -0.23948201537132263, 0.06578414142131805, -0.08220130950212479, 0.26016855239868164, 0.14542971551418304, 0.012934399768710136, 0.1303970068693161, -0.08542454242706299, 0.014308396726846695, 0.10127273201942444], [0.23199884593486786, 0.04206213355064392, -0.2709906995296478, 0.11711893230676651, -0.006254768464714289, 0.141376331448555, 0.05018282309174538, 0.007454697974026203, 0.06073009967803955, 0.11736854910850525, -0.19343139231204987, 0.016603589057922363, -0.02343892492353916, 0.09352315962314606, -0.2677760124206543, 0.14215625822544098, 0.2591437101364136, 0.17874284088611603, -0.011409193277359009, -0.16172917187213898, 0.08371534943580627, -0.29656240344047546, 0.11303048580884933, -0.2435339242219925, -0.2567113935947418, -0.01707889698445797, -0.2151617705821991, 0.11607345193624496]], "critic.network.2.bias": [-0.22100397944450378, -0.13680404424667358, -0.09264430403709412, 0.247694194316864, 0.18509821593761444, -0.11413305252790451, -0.02764739654958248, 0.1457299143075943, 0.16780267655849457, 0.01494301576167345, 0.08352533727884293, -0.14694015681743622, 0.23051971197128296, 0.1694943606853485, 0.14236418902873993, 0.02522849664092064, 0.04648809880018234, -0.01621238887310028, 0.06363511085510254, -0.114336758852005, 0.11142966151237488, 0.27013739943504333, 0.20152625441551208, 0.30062153935432434, 0.1503521353006363, 0.07282206416130066, -0.013380959630012512, 0.18807131052017212], "critic.network.4.weight": [[-0.21454422175884247, 0.0700829029083252, 0.11079840362071991, 0.019268780946731567, 0.25584474205970764, 0.013179183006286621, -0.29050570726394653, 0.10862302780151367, -0.03763279318809509, 0.1144629567861557, 0.09859078377485275, 0.15283431112766266, 0.22984257340431213, 0.2087208777666092, -0.1446302831172943, -0.10001541674137115, 0.25180646777153015, -0.1396472007036209, -0.040963780134916306, 0.04272356256842613, -0.2349393218755722, 0.17065203189849854, 0.169442817568779, 0.14463070034980774, 0.1917247623205185, 0.11209814250469208, 0.058600589632987976, 0.18421559035778046], [0.0007093385211192071, 0.16945068538188934, 0.018490344285964966, -0.008976590819656849, -0.15758925676345825, 0.11409448087215424, 0.18407027423381805, 0.15666495263576508, -0.1666562557220459, 0.012465953826904297, -0.19473829865455627, 0.16996429860591888, -0.022519350051879883, 0.08605687320232391, 0.16680017113685608, 0.06406300514936447, -0.053998515009880066, -0.08223723620176315, -0.17226293683052063, -0.012408284470438957, -0.14634259045124054, -0.15246999263763428, -0.027497345581650734, -0.15198415517807007, 0.09905019402503967, 0.07315318286418915, 0.09798114001750946, -0.13711002469062805], [-0.1221017837524414, -0.1299954503774643, -0.04931682348251343, 0.10785195976495743, -0.045123595744371414, 0.16267995536327362, -0.26269498467445374, 0.2943815290927887, -0.0400032103061676, -0.04108406603336334, 0.11639870703220367, -0.055048659443855286, 0.1924033761024475, 0.09762997925281525, 0.16834183037281036, 0.07466983795166016, 0.2555462718009949, -0.12388472259044647, 0.2025957554578781, -0.02276848629117012, -0.2182411551475525, -0.06253719329833984, 0.18171033263206482, -0.0024338699877262115, 0.2633347809314728, 0.14174923300743103, -0.054855041205883026, 0.16262686252593994], [-0.13543793559074402, -0.08484995365142822, 0.010716915130615234, 0.1504662185907364, 0.015471940860152245, -0.05033251643180847, 0.01897832565009594, 0.27860188484191895, 0.04590868949890137, 0.1481526792049408, 0.15991920232772827, -0.08382894843816757, -0.07716089487075806, -0.02016421966254711, -0.1780271828174591, -0.21851365268230438, 0.06733983755111694, 0.15104052424430847, 0.22533021867275238, 0.10490316152572632, -0.31989991664886475, -0.15114504098892212, 0.11586982756853104, 0.21455034613609314, 0.2265525758266449, -0.00583661301061511, -0.16491249203681946, -0.009234396740794182], [-0.20207950472831726, 0.056986063718795776, -0.1671377569437027, -0.04125715792179108, 0.10291516780853271, 0.18566642701625824, -0.03634709492325783, 0.13120049238204956, 0.0266881100833416, -0.031095415353775024, -0.15094205737113953, 0.1385425180196762, -0.14278224110603333, -0.07377998530864716, 0.06340020895004272, 0.18513506650924683, 0.12505269050598145, -0.11142785102128983, -0.08062699437141418, 0.16585740447044373, -0.03270183503627777, -0.13503839075565338, -0.20322471857070923, -0.052247099578380585, 0.11208423227071762, -0.19133466482162476, 0.007436960469931364, -0.10336944460868835], [-0.15681371092796326, -0.06023012101650238, -0.035606980323791504, -0.06468351185321808, -0.12950387597084045, -0.10473135113716125, -0.14362749457359314, 0.14636977016925812, -0.18708156049251556, 0.012494489550590515, -0.030504390597343445, -0.014628902077674866, -0.18672211468219757, 0.13891924917697906, -0.17427930235862732, 0.12654517590999603, -0.12341950088739395, 0.04763653874397278, 0.008515283465385437, -0.1430603563785553, 0.020984113216400146, -0.09739115834236145, 0.004495754837989807, -0.14811402559280396, 0.10973043739795685, -0.17778809368610382, -0.09565995633602142, -0.12197276949882507], [0.09705568104982376, -0.05840654671192169, -0.1549300253391266, -0.01806756481528282, -0.07663794606924057, -0.0805756151676178, 0.1698562502861023, 0.0048232427798211575, 0.07431968301534653, -0.0999879464507103, -0.19503086805343628, -0.18223845958709717, -0.10696865618228912, 0.12569761276245117, 0.16520610451698303, 0.1648673266172409, -0.21469621360301971, -0.037897806614637375, -0.024917032569646835, -0.17938588559627533, 0.12009444832801819, 0.11083400994539261, -0.16868169605731964, 0.008857214823365211, -0.07053256034851074, -0.17243808507919312, -0.04184207320213318, 0.04698600620031357], [-0.09651611745357513, 0.1614120900630951, 0.08042334020137787, 0.06368635594844818, 0.20761509239673615, 0.09649045765399933, -0.10540829598903656, -0.02503991685807705, -0.15092679858207703, 0.023304831236600876, 0.18974827229976654, -0.06900633871555328, 0.2607199549674988, 0.07600638270378113, -0.1484839767217636, 0.10120043158531189, -0.07824984937906265, -0.07227429747581482, 0.07803243398666382, 0.03712441772222519, -0.2957237660884857, 0.2669345438480377, 0.1652265340089798, -0.07876477390527725, 0.25773996114730835, -0.06880350410938263, -0.17821934819221497, -0.060350313782691956], [-0.12587153911590576, -0.009648109786212444, 0.15160702168941498, 0.2946014702320099, 0.2390642762184143, 0.10585863888263702, 0.02767704240977764, 0.24612386524677277, -0.027246195822954178, -0.15855196118354797, 0.11774393916130066, -0.13299967348575592, 0.07755284011363983, 0.28708723187446594, 0.1103769987821579, -0.1947435736656189, 0.25938794016838074, 0.08711506426334381, 0.23221461474895477, 0.1793714463710785, 0.05949468910694122, -0.004294343292713165, 0.27298980951309204, 0.2583489716053009, 0.25259652733802795, 0.12692266702651978, -0.16890928149223328, 0.12955917418003082], [-0.06843453645706177, 0.12170039117336273, -0.10402233898639679, -0.00672513572499156, -0.03971940651535988, 0.054490551352500916, 0.12079745531082153, 0.018126949667930603, -0.13060277700424194, -0.1547512710094452, -0.05718208849430084, 0.03654804825782776, 0.15649962425231934, 0.16891129314899445, -0.12760025262832642, -0.10097354650497437, -0.1145065575838089, 0.07146768271923065, -0.1571924388408661, -0.011076479218900204, -0.18636247515678406, -0.1250142753124237, 0.04941819608211517, -0.08698806166648865, -0.07028758525848389, -0.18748128414154053, -0.10243772715330124, 0.04876861721277237], [-0.12540291249752045, 0.06806042790412903, -0.11827734112739563, 0.2730754613876343, 0.18685363233089447, 0.08732388913631439, -0.2777400612831116, 0.29549530148506165, 0.02602488175034523, 0.06539607048034668, 0.23529745638370514, 0.15823964774608612, 0.2510449290275574, -0.05648963153362274, 0.1231590211391449, -0.21612536907196045, 0.04302845895290375, 0.1809033453464508, 0.05606066808104515, -0.1404080092906952, -0.08051414042711258, 0.02388112246990204, 0.18958780169487, 0.22824710607528687, -0.004252090118825436, -0.0034487878438085318, -0.04981784522533417, 0.27685272693634033], [0.04367917776107788, 0.07071422040462494, 0.08161978423595428, 0.1688116043806076, -0.03711819648742676, 0.002646416425704956, -0.16149836778640747, 0.09364773333072662, -0.12312811613082886, 0.05345018208026886, -0.055764928460121155, -0.015608713030815125, 0.017962351441383362, 0.04117207229137421, -0.10789943486452103, -0.06672734022140503, -0.05175541341304779, 0.04591897130012512, -0.18519531190395355, 0.14984841644763947, -0.03856003284454346, -3.4809112548828125e-05, -0.12348341196775436, -0.055586084723472595, -0.0555189847946167, -0.1618446558713913, 0.11602146923542023, -0.1683642715215683], [-0.17562615871429443, 0.11243556439876556, 0.13169924914836884, -0.045973241329193115, 0.15474185347557068, 0.17846272885799408, 0.1244485005736351, 0.014329270459711552, 0.03313376009464264, 0.15153826773166656, 0.04789008945226669, -0.1478216052055359, -0.10128648579120636, 0.13906720280647278, 0.15730811655521393, -0.0663970559835434, -0.19226133823394775, 0.1792488545179367, -0.033142343163490295, 0.10583363473415375, -0.09834259748458862, 0.09965355694293976, -0.08228285610675812, -0.15675774216651917, 0.09879562258720398, -0.1863316297531128, 0.052701957523822784, 0.018404442816972733], [-0.0898740217089653, 0.13331370055675507, -0.10605581849813461, -0.06206526607275009, -0.010552110150456429, -0.04389476776123047, -0.14548718929290771, 0.0014901371905580163, -0.05615364760160446, -0.1520349234342575, -0.06858579814434052, 0.12004955112934113, -0.09500440210103989, 0.05797314643859863, 0.018239539116621017, 0.02073582634329796, -0.1923728734254837, 0.15436139702796936, 0.1441124975681305, 0.009470639750361443, 0.1581992208957672, -0.021175280213356018, -0.02853219211101532, 0.027112029492855072, -0.004121544770896435, 0.13883695006370544, 0.13223306834697723, -0.1948305368423462], [-0.22844845056533813, 0.07632455229759216, 0.04930616915225983, -0.06940887123346329, 0.12710748612880707, -0.01581314206123352, -0.15454043447971344, 0.030772201716899872, 0.06573548167943954, 0.05412011593580246, 0.266315221786499, -0.09393840283155441, 0.138675719499588, -0.05676913261413574, 0.051911842077970505, -0.2218567579984665, 0.06424220651388168, -0.12904255092144012, 0.21269574761390686, 0.02239052951335907, -0.14326201379299164, 0.16615808010101318, 0.1741323173046112, 0.30029425024986267, 0.17343874275684357, 0.27580833435058594, -0.08362501859664917, 0.07503297924995422], [0.18661539256572723, 0.09570722281932831, 0.1860729604959488, 0.07762636244297028, -0.09972767531871796, 0.05818109214305878, 0.08557261526584625, -0.1386561542749405, -0.06264200806617737, 0.17468006908893585, -0.05908548831939697, 0.04661917686462402, -0.07662387937307358, -0.17542603611946106, 0.012534096837043762, 0.05435830354690552, -0.06044429540634155, -0.1404595673084259, 0.10305227339267731, -0.03402470052242279, 0.0741531103849411, -0.11980576068162918, -0.03543409705162048, -0.12518322467803955, 0.012430042028427124, 0.1506335288286209, -0.0658404603600502, 0.1291455179452896], [0.041856929659843445, 0.1480097770690918, -0.16369548439979553, 0.0021773066837340593, 0.22428463399410248, 0.14682503044605255, -0.05905519798398018, -0.004040033556520939, -0.05752667784690857, 0.11018195748329163, 0.2496659755706787, 0.0321214497089386, 0.06284675002098083, -0.0775129646062851, -0.09639034420251846, -0.19973941147327423, 0.18936198949813843, 0.19236984848976135, 0.330060750246048, 0.10947264730930328, -0.02556319162249565, 0.3033689856529236, -0.04579336568713188, -0.012995527125895023, 0.19771167635917664, 0.2747081220149994, 0.08013324439525604, 0.17926211655139923], [-0.03746109828352928, -0.030569056048989296, 0.12522773444652557, 0.2594645917415619, 0.09506258368492126, 0.0007268190383911133, -0.03956224024295807, 0.19362764060497284, 0.144699364900589, -0.04071491211652756, 0.01485980674624443, 0.15266193449497223, 0.1421048492193222, 0.21125559508800507, 0.04090955853462219, 0.10507487505674362, -0.07659444957971573, 0.1856389194726944, 0.17085008323192596, 0.03866514936089516, 0.11968767642974854, 0.1654444932937622, -0.052035458385944366, -0.047988440841436386, 0.30825427174568176, -0.03707097843289375, -0.25513672828674316, 0.17117272317409515], [-0.1082388311624527, -0.17384092509746552, 0.11550675332546234, 0.12120187282562256, -0.07772577553987503, 0.049569517374038696, -0.1611356884241104, 0.24162256717681885, -0.14440757036209106, 0.08391450345516205, 0.10145436227321625, 0.03520166873931885, -0.007907424122095108, 0.17055602371692657, -0.009258603677153587, -0.22647936642169952, 0.14913888275623322, 0.06294429302215576, 0.08794982731342316, -0.14925487339496613, -0.21337927877902985, 0.05933760479092598, 0.02274136058986187, 0.10188747197389603, 0.12694710493087769, 0.18877427279949188, -0.21421465277671814, 0.013132226653397083], [-0.15325522422790527, -0.16698747873306274, 0.11132298409938812, 0.06654635816812515, 0.044461410492658615, -0.09117653220891953, 0.05540154129266739, -0.01248176023364067, 0.14645375311374664, 0.0632023960351944, 0.08910512924194336, -0.11704462766647339, -0.12125861644744873, -0.07891127467155457, 0.16202212870121002, 0.07251526415348053, 0.12234470248222351, 0.13429708778858185, 0.05063636600971222, 0.06891423463821411, -0.03826276957988739, -0.1869531273841858, -0.1265679895877838, -0.12422310560941696, 0.1329578459262848, 0.09438426792621613, 0.0052209035493433475, -0.19074279069900513], [0.08804012835025787, 0.1546134203672409, 0.16251714527606964, -0.09787604212760925, -0.057557716965675354, 0.11080260574817657, -0.06665108352899551, 0.0610680878162384, 0.14378778636455536, -0.08857976645231247, 0.06809055805206299, 0.1672363430261612, 0.1348000466823578, 0.07792428135871887, -0.03970244526863098, -0.08559076488018036, 0.0009919032454490662, 0.18276993930339813, -0.15264739096164703, -0.027595415711402893, -0.13359811902046204, 0.08952994644641876, 0.007758353836834431, 0.04666974022984505, -0.05039723962545395, 0.006624182686209679, -0.04161791503429413, -0.10708874464035034], [0.06627923250198364, 0.12492367625236511, 0.09610836207866669, 0.05763275921344757, 0.11460933834314346, 0.08531655371189117, -0.06882160902023315, 0.174869105219841, 0.11760757863521576, -0.17424848675727844, 0.13121220469474792, -0.1004190668463707, 0.29335203766822815, -0.0006259389920160174, -0.12127766013145447, -0.18098948895931244, 0.05598440393805504, -0.09280619770288467, 0.1502850353717804, -0.14767467975616455, -0.09353267401456833, 0.13046133518218994, 0.20298603177070618, 0.25225523114204407, 0.2749652862548828, -0.07152221351861954, -0.21671608090400696, 0.22366458177566528], [-0.2377355992794037, -0.051749732345342636, -0.13672873377799988, 0.1302349716424942, 0.14296282827854156, -0.12463650852441788, -0.03275192528963089, 0.15198351442813873, -0.0772135853767395, -0.002593844896182418, 0.26606127619743347, 0.08014051616191864, 0.06665991991758347, 0.14746344089508057, -0.0049061900936067104, -0.1857169270515442, -0.0025178303476423025, -0.1830618977546692, 0.13508082926273346, -0.05853380635380745, -0.2692609429359436, 0.26411134004592896, 0.15431298315525055, 0.11551403254270554, 0.27595749497413635, 0.18040010333061218, 0.005086558870971203, 0.21139009296894073], [-0.1072540432214737, -0.11133074015378952, 0.14422790706157684, 0.06840530037879944, 0.04472599923610687, -0.17004987597465515, 0.18569853901863098, 0.02385811135172844, 0.06516838073730469, 0.010817589238286018, -0.10789347440004349, 0.09768079221248627, 0.0952959805727005, -0.16226544976234436, 0.14357221126556396, 0.21546946465969086, 0.16549141705036163, 0.07646174728870392, 0.06310700625181198, -0.21490460634231567, 0.2057265043258667, -0.18607188761234283, 0.04325634241104126, 0.04094120115041733, -0.030066348612308502, -0.1490831971168518, -0.02250855602324009, 0.01611284725368023], [-0.16816437244415283, -0.08168584108352661, 0.11848251521587372, -0.14576756954193115, -0.13551317155361176, 0.16421715915203094, -0.12068921327590942, 0.12489120662212372, 0.12691615521907806, -0.03158092498779297, -0.012788176536560059, 0.07241322100162506, -0.10593526810407639, -0.07933727651834488, 0.007154718041419983, -0.031121864914894104, -0.09063843637704849, 0.16039533913135529, -0.07204970717430115, -0.08522215485572815, 0.04172050952911377, 0.12554125487804413, -0.007936999201774597, 0.013270169496536255, -0.09689697623252869, -0.11024601757526398, -0.016307726502418518, -0.1197010949254036], [-0.10371211916208267, 0.017489299178123474, 0.07234083116054535, -0.07959482073783875, 0.06559358537197113, 0.10803605616092682, -0.12861807644367218, -0.09510979056358337, -0.09931152313947678, 0.04035390913486481, -0.1866151988506317, 0.15108294785022736, -0.07175924628973007, -0.09968694299459457, 0.09625424444675446, -0.14126428961753845, 0.03734910488128662, 0.016761407256126404, 0.10870857536792755, -0.052552491426467896, 0.1139993816614151, -0.11003267765045166, -0.15791437029838562, -0.03663182258605957, 0.1438203603029251, -0.11419489234685898, 0.14435790479183197, 0.14982976019382477], [0.020496398210525513, 0.14997218549251556, 0.15457315742969513, -0.10653437674045563, -0.15702243149280548, 0.14155013859272003, -0.11548647284507751, 0.06219061464071274, 0.11579988896846771, -0.10813558101654053, 0.1728055775165558, -0.18151594698429108, 0.15052416920661926, -0.12007728219032288, -0.07132654637098312, -0.0016312524676322937, -0.1421072781085968, 0.012560677714645863, 0.055839162319898605, -0.07028340548276901, -0.13280582427978516, 0.08454814553260803, -0.15460845828056335, -0.11496464908123016, -0.06376467645168304, -0.09320290386676788, 0.17530766129493713, 0.1776770055294037], [0.1510343700647354, -0.03738977015018463, 0.0880509465932846, -0.18078473210334778, 0.03282662481069565, -0.1390073597431183, 0.1753210723400116, 0.12126640975475311, -0.014573991298675537, 0.15298990905284882, -0.045991793274879456, -0.06838423758745193, 0.1224575862288475, -0.10083907842636108, -0.16471369564533234, 0.1851223111152649, 0.08529110252857208, 0.058636195957660675, -0.03831829875707626, 0.026128634810447693, -0.025697432458400726, -0.14728768169879913, -0.222655788064003, 0.04262145608663559, 0.0578891783952713, -0.09496445953845978, -0.11904538422822952, -0.11924941837787628]], "critic.network.4.bias": [0.11588405072689056, 0.16842421889305115, 0.08939846605062485, 0.07220377027988434, 0.1511930525302887, 0.023553520441055298, 0.0980372503399849, 0.0694272592663765, 0.10433907061815262, -0.017865385860204697, 0.2559835910797119, -0.08071231842041016, -0.03556797653436661, 0.03210093080997467, 0.22797982394695282, -0.0372835248708725, 0.2653367519378662, 0.23961317539215088, 0.25931936502456665, 0.04881677031517029, -0.13719944655895233, 0.18710727989673615, 0.19190971553325653, -0.1159864068031311, -0.07729488611221313, -0.17608848214149475, -0.065386101603508, -0.01658211648464203], "critic.network.6.weight": [[0.2615398168563843, 0.01226755976676941, 0.23872515559196472, 0.08126987516880035, -0.022389400750398636, 0.10933811962604523, -0.0662565678358078, 0.1051352396607399, 0.12367478013038635, -0.09640845656394958, 0.15247905254364014, 0.05194084346294403, 0.13639414310455322, -0.060286104679107666, 0.2785084545612335, -0.12869179248809814, 0.11160781979560852, 0.239572212100029, 0.28666120767593384, -0.09553499519824982, -0.14683806896209717, 0.22258368134498596, 0.10759973526000977, -0.07535053789615631, -0.05440574884414673, 0.0625775009393692, 0.08738472312688828, -0.018097935244441032]], "critic.network.6.bias": [0.0479729101061821]}