{"actor.network.0.weight": [[-0.09138071537017822, -0.35717737674713135, 0.4597610831260681, 0.1380366086959839], [-0.2916390299797058, 0.49036672711372375, -0.027927756309509277, -0.46727827191352844], [-0.4376559257507324, -0.21301157772541046, 0.1839553713798523, -0.2761595547199249], [-0.309827595949173, -0.24072551727294922, 0.40856873989105225, 0.2797921895980835], [0.4160839915275574, 0.15851199626922607, -0.22392243146896362, 0.26918864250183105], [0.23654805123806, -0.041572488844394684, -0.1362837255001068, -0.27822545170783997], [-0.2281600385904312, -0.2786864638328552, -0.04531688988208771, -0.3969525098800659], [0.3141622245311737, 0.13470366597175598, -0.3537830412387848, -0.2327333390712738], [-0.3155251443386078, -0.3552512526512146, 0.3615500330924988, -0.38355234265327454], [-0.3853903114795685, -0.13325707614421844, -0.18777266144752502, 0.2576553523540497], [-0.46222275495529175, 0.16775012016296387, 0.206015944480896, -0.06810212135314941], [-0.3492562174797058, -0.2866222858428955, 0.3020424246788025, -0.1304250955581665], [-0.2065299153327942, -0.09981924295425415, -0.42160117626190186, -0.16203981637954712], [-0.4464508891105652, 0.22736509144306183, 0.35555216670036316, 0.23765967786312103], [-0.40192314982414246, 0.2732864320278168, -0.2354346513748169, -0.3985806703567505], [-0.19391779601573944, 0.3724490702152252, 0.4607948660850525, 0.10096022486686707], [-0.22498559951782227, 0.3506470024585724, 0.06518399715423584, -0.29503563046455383], [-0.1706782579421997, -0.17808103561401367, 0.32168757915496826, -0.02485877275466919], [0.24343398213386536, -0.4934815466403961, 0.14458373188972473, 0.18885192275047302], [0.008776737377047539, -0.18439026176929474, 0.3845449686050415, 0.39913126826286316], [-0.024831021204590797, -0.3210372030735016, 0.013696244917809963, 0.44892463088035583], [0.4127963185310364, -0.11664784699678421, -0.20072950422763824, 0.2772301137447357], [0.38627830147743225, 0.44966384768486023, -0.05480888858437538, 0.3623260259628296], [-0.48386526107788086, 0.49955999851226807, 0.3028187155723572, -0.3184037208557129], [-0.0977742075920105, 0.3832927346229553, 0.22848087549209595, 0.24850749969482422], [-0.4791161119937897, 0.4794365167617798, 0.2102598249912262, -0.15452967584133148], [0.3795298933982849, 0.33666396141052246, 0.4196816086769104, 0.07217055559158325], [0.10601454973220825, -0.05679553747177124, -0.22456836700439453, 0.15124017000198364]], "actor.network.0.bias": [-0.4632839560508728, -0.14176805317401886, 0.34959784150123596, 0.43362075090408325, -0.38496625423431396, 0.24237561225891113, 0.2544209361076355, 0.3533119559288025, 0.12049563229084015, 0.08859072625637054, -0.45423823595046997, -0.48937082290649414, -0.10035014152526855, -0.19308112561702728, -0.35449978709220886, 0.4590752124786377, -0.21223552525043488, -0.19923239946365356, 0.3039837181568146, -0.5004724264144897, 0.08943426609039307, 0.3664325475692749, 0.20558492839336395, 0.32766488194465637, -0.4845592975616455, -0.19198869168758392, -0.007157688960433006, -0.37158167362213135], "actor.network.2.weight": [[0.10143928229808807, 0.016761979088187218, 0.09034592658281326, 0.10846956074237823, -0.0981951504945755, -0.013732808642089367, 0.12137991935014725, 0.020825045183300972, 0.00516474386677146, -0.17573244869709015, -0.16943156719207764, 0.13903842866420746, -0.1871824562549591, -0.15046009421348572, 0.11026837676763535, 0.10401774942874908, 0.12872332334518433, 0.09033136069774628, 0.053104281425476074, 0.019883565604686737, -0.18131595849990845, -0.027650605887174606, -0.04801096394658089, 0.05850987881422043, 0.11603288352489471, 0.18242435157299042, -0.02946622483432293, -0.14497387409210205], [0.13008569180965424, 0.17103958129882812, 0.09478650242090225, -0.08847934007644653, -0.06641126424074173, -0.07100443542003632, 0.17669585347175598, 0.14672589302062988, -0.10511717200279236, 0.0743422880768776, -0.15967297554016113, 0.11288173496723175, 0.10095842182636261, 0.0956212654709816, 0.11540728062391281, -0.1473800241947174, 0.1678430587053299, -0.09969817847013474, -0.18382802605628967, -0.021163463592529297, 0.15037323534488678, -0.07910604029893875, 0.051220353692770004, 0.09255710244178772, -0.09045293927192688, 0.1394999921321869, 0.1764184683561325, -0.1158924326300621], [0.09724213182926178, -0.09719092398881912, 0.10313237458467484, -0.12910078465938568, -0.03150971233844757, -0.013981858268380165, 0.15540729463100433, 0.18238653242588043, 0.01576736383140087, -0.13657429814338684, -0.182763010263443, -0.1805233508348465, 0.061270490288734436, 0.016972845420241356, 0.06607011705636978, 0.09996749460697174, 0.07798095047473907, 0.13395921885967255, 0.02354450523853302, -0.17860272526741028, 0.019015103578567505, 0.02144329994916916, 0.07128478586673737, -0.0026829903945326805, -0.11107727140188217, -0.1660882979631424, 0.11853521317243576, 0.07757152616977692], [-0.17412878572940826, 0.17101426422595978, 0.16742530465126038, 0.013298308476805687, 0.018604621291160583, -0.16721799969673157, -0.0018556128488853574, 0.048319365829229355, -0.1036318987607956, 0.03968082368373871, -0.09553229063749313, -0.16610214114189148, -0.01203829050064087, -0.04658771678805351, 0.08336599171161652, -0.1639811098575592, -0.023187533020973206, -0.17854250967502594, 0.11116953939199448, 0.13019898533821106, 0.1833694577217102, -0.016030486673116684, -0.163160502910614, 0.01031346246600151, -0.00046293437480926514, -0.03055497817695141, -0.14702123403549194, 0.17092637717723846], [-0.06370213627815247, -0.008117255754768848, -0.19108158349990845, -0.15888246893882751, 0.0804288238286972, 0.14831691980361938, 0.0723828598856926, -0.16958919167518616, -0.051329873502254486, 0.06636808812618256, -0.16837197542190552, -0.17267689108848572, -0.05412398278713226, 0.1682882010936737, 0.014712972566485405, 0.010723335668444633, 0.10798884928226471, 0.028753355145454407, -0.060475774109363556, 0.07376177608966827, 0.0362793505191803, 0.016791995614767075, 0.001829888904467225, 0.1324061006307602, 0.005131363868713379, 0.17244933545589447, 0.11393868178129196, -0.026577726006507874], [0.18208657205104828, 0.10458563268184662, -0.14113245904445648, -0.09467711299657822, -0.14336656033992767, -0.11203277111053467, 0.17738105356693268, -0.15927764773368835, 0.18516577780246735, -0.1584707796573639, 0.15727271139621735, -0.11869747191667557, -0.1343432515859604, 0.000522121787071228, 0.13242171704769135, -0.01580946147441864, -0.04428970813751221, 0.050808295607566833, -0.05811421573162079, -0.15152183175086975, 0.028598636388778687, -0.04763680696487427, -0.1319449096918106, 0.049153536558151245, 0.13271449506282806, 0.09283526241779327, 0.15132836997509003, 0.1715715378522873], [0.17566527426242828, -0.018715964630246162, 0.17560963332653046, 0.08672045171260834, -0.10939770936965942, -0.1450355350971222, -0.012571776285767555, -0.061563123017549515, -0.08175186067819595, 0.12844489514827728, -0.07290074229240417, 0.10463036596775055, -0.07627459615468979, 0.07498356699943542, -0.058004774153232574, -0.13929861783981323, 0.1429712325334549, -0.044791534543037415, 0.07141793519258499, 0.005432800855487585, 0.0073512764647603035, 0.16878505051136017, 0.1129511147737503, 0.06779869645833969, 0.1394055336713791, -0.17365913093090057, 0.01903715170919895, -0.06343404948711395], [0.0074081867933273315, 7.109911530278623e-05, 0.15284743905067444, 0.16441425681114197, 0.052329421043395996, 0.18212440609931946, 0.07199347764253616, -0.015345986001193523, -0.1132923811674118, -0.004936029203236103, -0.018760845065116882, 0.1689719706773758, 0.10316304862499237, 0.09248223900794983, -0.05929835885763168, 0.12269146740436554, 0.19226008653640747, -0.1839754730463028, -0.07821525633335114, 0.0818006619811058, 0.14079798758029938, -0.17376427352428436, -0.17273648083209991, 0.17380429804325104, -0.05509135127067566, 0.022172264754772186, 0.0556672178208828, 0.182114377617836], [0.1773197203874588, -0.02762313187122345, -0.07193875312805176, 0.09288309514522552, -0.04998578131198883, -0.05659329891204834, 0.04911269247531891, -0.003702118992805481, 0.12219400703907013, 0.0009099841117858887, -0.1637009084224701, 0.00023475289344787598, -0.12251554429531097, 0.0454229861497879, 0.020021900534629822, -0.13596399128437042, 0.07620756328105927, 0.10338796675205231, -0.09261623024940491, 0.0400349497795105, 0.06862525641918182, -0.05366738140583038, -0.09456165134906769, -0.1887328177690506, -0.10301851481199265, 0.01784275472164154, 0.1766442209482193, 0.020286202430725098], [0.0647735744714737, -0.004703653510659933, -0.11264466494321823, 0.1220104992389679, -0.08957237005233765, -0.2000001072883606, 0.16273042559623718, -0.1065075695514679, 0.08100878447294235, -0.1436915248632431, 0.15618468821048737, 0.12692855298519135, -0.045560747385025024, 0.19214309751987457, -0.111566461622715, 0.08898135274648666, -0.06314057856798172, 0.009605228900909424, -0.030199836939573288, -0.06103496998548508, 0.11391528695821762, -0.17638202011585236, -0.11291130632162094, -0.07757596671581268, -0.0684531107544899, 0.16071657836437225, 0.030252749100327492, 0.048379793763160706], [-0.05064329504966736, 0.0941547378897667, 0.010393817909061909, 0.005613743793219328, -0.16683568060398102, 0.04088379815220833, 0.0686851367354393, 0.1328243464231491, -0.1222318783402443, 0.04872188717126846, -0.05070619285106659, -0.004663452506065369, 0.18735705316066742, 0.13549645245075226, 0.04070865362882614, 0.048143450170755386, 0.12136312574148178, -0.10859130322933197, -0.13356083631515503, -0.03501272201538086, 0.03660896420478821, 0.019201509654521942, 0.14974546432495117, -0.029718998819589615, -0.03583483397960663, 0.07138215005397797, -0.1311536431312561, -0.14886155724525452], [0.056449323892593384, 0.02989637851715088, -0.16233433783054352, -0.07086645066738129, -0.13272824883460999, -0.07628501206636429, 0.11720846593379974, 0.044486481696367264, 0.161625936627388, -0.004663120489567518, -0.06754831969738007, -0.03300781548023224, 0.14936982095241547, -0.0715804472565651, 0.14980830252170563, 0.06035846844315529, -0.12527421116828918, -0.098383828997612, 0.03777241334319115, -0.11537035554647446, 0.16052652895450592, 0.0706341415643692, -7.494131568819284e-05, -0.18275319039821625, -0.18469642102718353, -0.12395811080932617, 0.12447112798690796, 0.15847985446453094], [0.06987570226192474, -0.010305944830179214, 0.033079590648412704, 0.12525659799575806, -0.06836464256048203, -0.15919341146945953, 0.06323830783367157, 0.10499735176563263, 0.09491489827632904, -0.16911250352859497, -0.05655680596828461, 0.08577008545398712, -0.12487538158893585, -0.07390733808279037, -0.10318195819854736, 0.10681496560573578, -0.08348872512578964, -0.13630354404449463, 0.06365856528282166, -0.10174642503261566, -0.19029894471168518, 0.03863883018493652, 0.1829424798488617, -0.16328369081020355, 0.03207319974899292, 0.1373097151517868, -0.10936961323022842, 0.08480478823184967], [-0.08093636482954025, 0.128432035446167, -0.12693877518177032, 0.12511275708675385, -0.16605409979820251, 0.14681003987789154, 0.14605794847011566, -0.06160372123122215, 0.012382476590573788, 0.132966086268425, 0.13898320496082306, 0.0949815958738327, 0.013222217559814453, -0.01624912954866886, -0.10601668804883957, -0.17915691435337067, 0.08015148341655731, 0.17221786081790924, 0.0055432552471756935, -0.14091046154499054, 0.024523450061678886, 0.18916553258895874, 0.04931286722421646, -0.026799891144037247, -0.09254621714353561, -0.1838732808828354, -0.01145806722342968, 0.033669158816337585], [-0.15301743149757385, -0.15484312176704407, -0.09183371812105179, -0.10403499007225037, -0.007301405072212219, 0.05659116059541702, 0.14842669665813446, -0.1850619912147522, 0.0943169891834259, 0.18586190044879913, 0.09896059334278107, 0.0007261186838150024, 0.0026424527168273926, -0.06832163035869598, 0.10076505690813065, 0.10909657925367355, 0.12464717775583267, 0.12695689499378204, -0.11849676817655563, 0.021476447582244873, 0.09699730575084686, 0.06909269839525223, -0.05065598338842392, 0.14537037909030914, 0.11440201103687286, 0.020107464864850044, 0.12070244550704956, -0.1566135585308075], [0.15691111981868744, -0.1608336865901947, -0.1142241582274437, 0.16235442459583282, 0.1474410444498062, -0.10960972309112549, 0.032148122787475586, 0.16730602085590363, 0.18413297832012177, 0.16275562345981598, -0.12352743744850159, 0.007899165153503418, -0.07932709157466888, 0.09540481865406036, -0.019397631287574768, -0.051134660840034485, 0.1643115133047104, 0.1833825558423996, -0.11839771270751953, 0.15599952638149261, 0.17155437171459198, -0.1827951818704605, -0.18331532180309296, 0.15364615619182587, 0.18706728518009186, 0.0667756050825119, 0.04372473061084747, -0.038691580295562744], [0.13354463875293732, -0.024433236569166183, -0.09939960390329361, -0.0916299894452095, 0.03348696231842041, 0.18383175134658813, -0.1731582134962082, 0.06675754487514496, 0.18549786508083344, -0.03200042247772217, -0.03710560500621796, 0.047811612486839294, 0.1614493578672409, -0.040080681443214417, 0.0913267433643341, -0.13056091964244843, 0.03088177554309368, -0.18847687542438507, -0.0851656049489975, 0.15227188169956207, 0.11363919079303741, 0.043596044182777405, 0.12187394499778748, -0.0383140966296196, 0.08711285889148712, 0.1567840725183487, -0.02517518401145935, -0.13761040568351746], [0.056858599185943604, 0.14238588511943817, -0.1320425271987915, 0.05958994850516319, -0.053647011518478394, 0.09349753707647324, 0.11693429946899414, 0.14076781272888184, -0.006547881755977869, 0.1397383064031601, 0.014717712998390198, 0.11552266776561737, 0.13235728442668915, 0.0859447568655014, 0.03671784698963165, 0.01262621395289898, 0.1861666589975357, -0.05321414768695831, 0.07645929604768753, -0.019999980926513672, -0.15861986577510834, 0.14209459722042084, 0.1085609570145607, -0.13515016436576843, 0.1636197417974472, -0.09528646618127823, 0.06999754160642624, -0.05584298074245453], [0.1470300406217575, -0.13500896096229553, -0.012547105550765991, -0.12008161842823029, 0.025428324937820435, 0.0356920063495636, -0.13695235550403595, -0.15738828480243683, 0.1861502081155777, -0.1257864534854889, -0.0582708865404129, -0.08014428615570068, 0.1377468854188919, -0.012265905737876892, -0.11754827201366425, -0.10165182501077652, -0.13538838922977448, -0.012493595480918884, 0.03625756502151489, 0.06073033809661865, -0.09780054539442062, -0.12661755084991455, 0.05656123161315918, -0.1877436637878418, 0.05840002000331879, 0.07061688601970673, 0.15951575338840485, -0.014841064810752869], [0.10858689248561859, 0.12473394721746445, 0.1105538159608841, 0.003764551365748048, -0.12784907221794128, 0.10773015767335892, 0.18002329766750336, 0.18037672340869904, 0.046481434255838394, 0.14360707998275757, 0.17979179322719574, -0.08610283583402634, 0.07478417456150055, -0.13279250264167786, -0.08301419019699097, 0.1243244931101799, -0.14155036211013794, 0.06750757992267609, 0.07952053844928741, -0.07522513717412949, -0.10181522369384766, -0.11149431020021439, -0.1299320012331009, -0.004727672785520554, -0.12508821487426758, -0.10461919009685516, -0.032120972871780396, 0.13627459108829498], [-0.059088438749313354, -0.14017191529273987, 0.16469602286815643, -0.1473693549633026, -0.01476714015007019, -0.15230891108512878, -0.09111865609884262, 0.18591634929180145, -0.06400863081216812, -0.042317941784858704, -0.030389487743377686, -0.008497923612594604, 0.011850863695144653, 0.12355969846248627, 0.07406638562679291, -0.05593779683113098, -0.015541687607765198, -0.05448700487613678, 0.07025252282619476, 0.14854253828525543, -0.027771398425102234, -0.1255587786436081, -0.1477556824684143, 0.16515715420246124, 0.11874799430370331, -0.05119138956069946, -0.1206214427947998, 0.05788080394268036], [0.16792480647563934, 0.062225259840488434, -0.12852279841899872, 0.0958925113081932, -0.023745834827423096, 0.06569162011146545, 0.08708222210407257, 0.10953895002603531, 0.19139915704727173, 0.15195274353027344, 0.16591443121433258, 0.024874165654182434, 0.10319726169109344, 0.12986339628696442, -0.12277095764875412, 0.17091666162014008, 0.11850474029779434, -0.1505012810230255, 0.029556967318058014, 0.09195557981729507, -0.08176515996456146, -0.04629235342144966, -0.06282657384872437, -0.11021265387535095, -0.03574758768081665, -0.18492195010185242, 0.037907008081674576, -0.12051822245121002], [-0.12169866263866425, 0.1051541343331337, 0.07736805826425552, -0.12100633233785629, 0.1309588998556137, 0.022666193544864655, -0.02561575174331665, 0.17772656679153442, 0.1252501904964447, -0.05214569345116615, -0.09686216711997986, -0.03164468705654144, -0.08877777308225632, 0.09385453164577484, -0.08471143990755081, 0.15192219614982605, -0.04233983904123306, -0.025977998971939087, -0.054451458156108856, 0.11363115906715393, 0.11239878833293915, 0.06490378826856613, 0.03879144787788391, -0.002342821564525366, 0.10277624428272247, 0.13706141710281372, 0.17475011944770813, 0.04005707800388336], [0.12901155650615692, -0.17576207220554352, 0.0029883235692977905, -0.15150029957294464, -0.10622336715459824, -0.16209213435649872, 0.18630428612232208, -0.030386358499526978, 0.14357413351535797, 0.09946174919605255, 0.13024510443210602, -0.12357564270496368, -0.032539576292037964, -0.1792670637369156, -0.029140621423721313, -0.13849562406539917, -0.04928307235240936, -0.06316293776035309, -0.09026095271110535, 0.028683453798294067, 0.05208413302898407, -0.18323250114917755, 0.052349984645843506, -0.11432571709156036, 0.05460600554943085, -0.08785931020975113, -0.021835893392562866, -0.05043463408946991], [0.03265109658241272, -0.12384048104286194, -0.09541197866201401, 0.18332356214523315, -0.1735357940196991, 0.031420931220054626, 0.08206472545862198, 0.1182461827993393, -0.11162861436605453, -0.07306696474552155, -0.09832658618688583, -0.13803081214427948, 0.11960853636264801, 0.11946529150009155, -0.11088410764932632, 0.13550066947937012, 0.16583400964736938, 0.07506062090396881, 0.05515730753540993, -0.09021063894033432, -0.006954485084861517, 0.1745137870311737, -0.07893438637256622, -0.048481687903404236, 0.05175502598285675, 0.1630232185125351, -0.07336687296628952, 0.002188563346862793], [0.15269352495670319, 0.16601060330867767, 0.001758769154548645, -0.16013096272945404, 0.10603199899196625, -0.18404150009155273, -0.028111502528190613, -0.17812296748161316, -0.01113922894001007, 0.10007230937480927, 0.12818853557109833, -0.09158425033092499, -0.18854330480098724, -0.14606377482414246, -0.032974421977996826, -0.14566734433174133, -0.11768745630979538, -0.03392946720123291, 0.10647322237491608, 0.18034856021404266, -0.01619364321231842, -0.04142299294471741, 0.09634234011173248, 0.030322104692459106, -0.10605359077453613, -0.1418134719133377, 0.1862287074327469, -0.14753547310829163], [0.11100228130817413, 0.08347175270318985, 0.10870330780744553, 0.14622029662132263, -0.1457926481962204, 0.08220565319061279, -0.10450446605682373, 0.04323173686861992, 0.06888547539710999, -0.013738435693085194, 0.07155252993106842, 0.10140593349933624, -0.05512140691280365, -0.0005418173386715353, 0.05458912253379822, 0.07179071009159088, 0.006595597602427006, -0.12963156402111053, -0.1594044417142868, 0.009608414955437183, -0.15972083806991577, 0.14939674735069275, 0.11143893748521805, 0.1298845410346985, -0.10787010192871094, -0.10537265986204147, 0.03222905844449997, 0.01751825213432312], [0.1570250242948532, 0.18790853023529053, 0.040432270616292953, 0.04809361696243286, 0.027217507362365723, 0.017294935882091522, 0.13367247581481934, 0.03184676170349121, 0.1068745106458664, 0.13618220388889313, -0.09921889007091522, 0.11889715492725372, -0.16282697021961212, 0.030608713626861572, -0.06642690300941467, 0.1369570791721344, -0.11335408687591553, 0.08692918717861176, -0.15429416298866272, 0.14597608149051666, -0.03518091142177582, 0.0004862374917138368, -0.026107074692845345, -0.10249127447605133, 0.1519079953432083, -0.11821693181991577, -0.10683098435401917, -0.11951068043708801]], "actor.network.2.bias": [0.14348401129245758, -0.04032397270202637, -0.18264645338058472, 0.12848512828350067, -0.0030604060739278793, -0.12613750994205475, 0.18177743256092072, -0.04940510541200638, 0.030596882104873657, 0.16981790959835052, -0.1269558072090149, -0.030667435377836227, -0.17747153341770172, 0.05765315145254135, -0.11970240622758865, -0.09589407593011856, -0.07213499397039413, 0.14791834354400635, 0.08488710224628448, -0.1021314337849617, -0.1557760089635849, -0.04744323343038559, 0.10163521021604538, 0.11985363066196442, 0.16810575127601624, 0.08371223509311676, 0.10330796986818314, -0.10693004727363586], "actor.network.4.weight": [[-0.11142882704734802, -0.05827457457780838, 0.12688247859477997, 0.15365107357501984, 0.17150774598121643, -0.08483903110027313, 0.14393562078475952, -0.12115935236215591, -0.024293139576911926, -0.08651838451623917, 0.1331532746553421, 0.037733547389507294, -0.11904497444629669, -0.085947185754776, -0.10518171638250351, 0.136856809258461, -0.06283712387084961, 0.0653897374868393, -0.09914328157901764, -0.004375055432319641, -0.0877707228064537, -0.034779127687215805, 0.019362077116966248, 0.13108296692371368, -0.12132778763771057, -0.034171879291534424, 0.03169820457696915, 0.021503429859876633], [0.18766313791275024, 0.08227646350860596, -0.005969204939901829, -0.15224836766719818, 0.14736095070838928, -0.12700869143009186, -0.0759173184633255, 0.002074169460684061, -0.16605384647846222, -0.057255350053310394, -0.09479233622550964, -0.05159808695316315, 0.025782374665141106, 0.059545375406742096, 0.07867158204317093, 0.14576907455921173, 0.007173373829573393, 0.138121098279953, 0.03132745623588562, -0.05826520174741745, -0.10043389350175858, 0.0807473286986351, 0.17771100997924805, -0.09140390902757645, 0.15801608562469482, 0.10298867523670197, -0.02508588135242462, 0.04367111995816231], [0.12017092108726501, 0.05842787027359009, -0.00592424813657999, -0.05730946362018585, 0.14952290058135986, -0.024695783853530884, 0.09427697211503983, -0.12595857679843903, -0.15366753935813904, 0.0541018545627594, 0.08381094038486481, -0.1865382343530655, -0.18491391837596893, -0.06393755972385406, -0.059659380465745926, 0.010971799492835999, 0.07108882069587708, -0.16901198029518127, 0.1280137151479721, -0.09891434013843536, -0.17208881676197052, -0.13306371867656708, 0.10400795936584473, 0.0557515025138855, 0.185298353433609, -0.11180363595485687, -0.06036752462387085, 0.039677172899246216], [-0.021610140800476074, 0.03462357819080353, -0.0037558525800704956, 0.006212502717971802, -0.1042436808347702, -0.12839731574058533, -0.08779642730951309, -0.025147005915641785, -0.14345145225524902, 0.14694200456142426, 0.18450023233890533, -0.08631014078855515, 0.09596185386180878, 0.021946147084236145, -0.07164295762777328, 0.17937661707401276, 0.128215029835701, -0.04545441269874573, -0.13440567255020142, 0.14606903493404388, -0.08888504654169083, -0.08414556086063385, -0.09017424285411835, -0.06888333708047867, 0.1211174875497818, -0.17255988717079163, -0.017712131142616272, -0.05829477310180664], [0.021212074905633926, 0.16640792787075043, 0.10016856342554092, -0.1343841254711151, 0.07148484140634537, 0.09181533753871918, 0.0583769753575325, 0.05892876908183098, -0.12994997203350067, -0.12420415133237839, 0.1287979632616043, -0.014394492842257023, -0.18277370929718018, -0.03945372626185417, -0.15531915426254272, -0.10319580882787704, -0.0881180688738823, 0.09116318821907043, -0.1049649715423584, 0.019636260345578194, 0.16478215157985687, 0.11745516210794449, 0.021765153855085373, -0.13874192535877228, -0.14438778162002563, -0.13122886419296265, 0.05204727128148079, -0.15402069687843323], [0.0578075647354126, 0.1791711300611496, 0.14767856895923615, -0.024294868111610413, -0.08478401601314545, -0.17537474632263184, -0.14685754477977753, 0.11737431585788727, 0.025311976671218872, 0.049255043268203735, -0.07091789692640305, 0.16722892224788666, -0.05756723880767822, -0.14703468978405, 0.17197291553020477, -0.019664734601974487, 0.1477603167295456, -0.07992170751094818, -0.12911996245384216, 0.1742786318063736, -0.005635574460029602, 0.17812611162662506, -0.07908937335014343, -0.08217020332813263, -0.04276323318481445, 0.1410154551267624, -0.09623941034078598, 0.1025284081697464], [-0.09807254374027252, -0.05610424280166626, -0.15811051428318024, 0.006883974652737379, -0.14626477658748627, 0.15970416367053986, -0.1134357750415802, 0.10520337522029877, 0.033606722950935364, 0.17314061522483826, 0.1793447881937027, -0.06577963382005692, 0.051885783672332764, -0.030267247930169106, -0.05190519616007805, -0.01827774941921234, 0.07638208568096161, -0.11933238059282303, -0.04854172468185425, 0.001209309441037476, -0.17236530780792236, -0.14859305322170258, 0.06045873835682869, 0.046781107783317566, -0.09052076935768127, -0.1833416074514389, -0.004261864814907312, 0.07096216082572937], [-0.028088970109820366, -0.009041786193847656, 0.030643627047538757, -0.17633023858070374, -0.02896459400653839, -0.00437028706073761, -0.06004796177148819, -0.12886008620262146, 0.1659322828054428, -0.12296324223279953, -0.07425668090581894, -0.12300188839435577, -0.11228924989700317, 0.1882879137992859, -0.13444919884204865, -0.006917968392372131, -0.18657758831977844, 0.10334362834692001, 0.009141504764556885, -0.0028708428144454956, -0.1738351434469223, 0.1696116030216217, -0.06992139667272568, -0.10756673663854599, -0.07305976748466492, -0.14760878682136536, 0.18925607204437256, -0.006577044725418091], [-0.0657968819141388, 0.10628510266542435, -0.002660779282450676, 0.12567269802093506, -0.04151146858930588, -0.12648138403892517, -0.0477306991815567, 0.16233523190021515, 0.020292803645133972, 0.03976556658744812, -0.18140096962451935, -0.16654834151268005, -0.09667591750621796, -0.04099595174193382, 0.17941884696483612, -0.16235947608947754, 0.1244334876537323, -0.14229828119277954, -0.004160642623901367, 0.13658419251441956, -0.09702752530574799, 0.11084426939487457, -0.0499083586037159, 0.18648694455623627, 0.1712740957736969, -0.1333177089691162, 0.16599416732788086, -0.11527172476053238], [0.1649976372718811, 0.057741761207580566, 0.1238294392824173, 0.0219353586435318, 0.11328312009572983, 0.1721019595861435, -0.15756772458553314, 0.10291006416082382, 0.17952965199947357, 0.005430485587567091, -0.08719047158956528, 0.011029541492462158, -0.11419011652469635, -0.13340289890766144, 0.09435465186834335, 0.1541275531053543, 0.0725141316652298, 0.06430783867835999, 0.11286301910877228, 0.053089387714862823, -0.0064372718334198, -0.09432806074619293, 0.1961812973022461, 0.18259353935718536, -0.11202289164066315, 0.1389966756105423, -0.10443893074989319, -0.1680164337158203], [0.0009182840585708618, -0.18249660730361938, -0.15338358283042908, 0.17282633483409882, 0.14766035974025726, -0.038008227944374084, 0.022726193070411682, -0.06814775615930557, 0.10458709299564362, 0.17610199749469757, -0.08391360938549042, -0.14599353075027466, -0.04483960568904877, -0.032955050468444824, 0.1541469246149063, -0.09810289740562439, 0.11079029738903046, -0.1818609982728958, -0.134494811296463, 0.03440500795841217, -0.11879502236843109, -0.08935122936964035, 0.1472686380147934, -0.12102624028921127, -0.03838217258453369, 0.09801484644412994, -0.10426514595746994, -0.13070476055145264], [0.03528484329581261, -0.15162241458892822, -0.060807183384895325, 0.1087779775261879, -0.11952780187129974, -0.032493919134140015, 0.0442018136382103, -0.03688712790608406, -0.15817148983478546, -0.15909896790981293, -0.1295013278722763, 0.1569872945547104, 0.09984929859638214, 0.17685802280902863, 0.06525994837284088, 0.028135493397712708, 0.10217036306858063, -0.15962915122509003, 0.08824221789836884, 0.10942952334880829, 0.14778248965740204, -0.021475031971931458, -0.13366277515888214, 0.08456490933895111, 0.0417478047311306, 0.18451540172100067, -0.11915016919374466, 0.07588396966457367], [-0.024644022807478905, 0.16482852399349213, -0.14731131494045258, -0.09427490085363388, 0.026777707040309906, -0.08373957872390747, -0.024769848212599754, 0.03994465991854668, -0.1504342257976532, -0.05781679227948189, -0.1654687225818634, 0.13838176429271698, -0.14018291234970093, 0.1406201422214508, -0.0185215026140213, -0.16574043035507202, -0.06266424059867859, 0.09463712573051453, -0.08494681119918823, 0.04767853394150734, -0.12159715592861176, -0.13928204774856567, 0.010252121835947037, 0.06326867640018463, -0.09777089208364487, -0.01847018301486969, 0.1597840040922165, -0.1838451325893402], [-0.11571013182401657, 0.11606685817241669, -0.17094554007053375, 0.044019803404808044, -0.08022516220808029, -0.024014204740524292, 0.05455872416496277, 0.031755730509757996, 0.027300432324409485, 0.02833661437034607, 0.14613588154315948, 0.10072790086269379, 0.13162584602832794, -0.13418257236480713, 0.06508059799671173, 0.08806781470775604, 0.02077038586139679, -0.11377622187137604, -0.07352414727210999, 0.15992258489131927, 0.1223113089799881, 0.11207734048366547, -0.030879393219947815, 0.07916931807994843, 0.049348726868629456, 0.13949932157993317, -0.17014794051647186, 0.09727318584918976], [0.0007563114631921053, -0.14764989912509918, 0.12933893501758575, -0.05550442263484001, 0.12245628982782364, 0.09280486404895782, 0.12247069180011749, -0.002734177280217409, -0.06951962411403656, 0.12181936204433441, -0.07008443772792816, 0.05479981377720833, 0.012547224760055542, -0.09096034616231918, 0.08234499394893646, -0.09783032536506653, 0.00010092556476593018, -0.02844087779521942, 0.13663797080516815, -0.08402018249034882, -0.05437691509723663, 0.12652501463890076, -0.15084470808506012, 0.07609091699123383, 0.011402366682887077, -0.15050122141838074, -0.13925953209400177, 0.10459615290164948], [-0.15157143771648407, 0.010257644578814507, 0.1771213412284851, 0.12071149051189423, -0.13170091807842255, 0.15566612780094147, 0.18621721863746643, -0.0015758678782731295, 0.1551608294248581, 0.07327710092067719, 0.14773614704608917, -0.09570162743330002, -0.04089857637882233, -0.16850976645946503, -0.06094703450798988, -0.07406097650527954, 0.14086954295635223, 0.11901145428419113, -0.12435474991798401, -0.03699282929301262, -0.001020476222038269, 0.06218539923429489, -0.14056526124477386, -0.13210828602313995, -0.1720021516084671, -0.08330405503511429, -0.11254705488681793, -0.10216574370861053], [-0.17089392244815826, 0.1779869645833969, 0.05697287246584892, -0.09759941697120667, -0.1748124361038208, -0.08277261257171631, 0.022382080554962158, 0.03711792454123497, -0.057991743087768555, -0.01578354462981224, -0.12804578244686127, -0.056910257786512375, 0.1667128950357437, -0.09786192327737808, 0.11967317014932632, 0.011069193482398987, 0.17609760165214539, -0.020605849102139473, -0.13332834839820862, -0.018188893795013428, 0.06457991898059845, 0.07350420206785202, 0.15061569213867188, 0.028450310230255127, 0.02069743536412716, -0.11428678780794144, 0.16049055755138397, 0.01675025373697281], [-0.12837956845760345, -0.001177591155283153, 0.15034663677215576, -0.09032782912254333, 0.15822286903858185, -0.06273987889289856, -0.12457633763551712, 0.03542226180434227, 0.160284623503685, -0.0291703213006258, 0.17013318836688995, 0.1571134626865387, -0.0881546288728714, 0.08763018995523453, 0.029630543664097786, -0.17562532424926758, -0.04013463854789734, -0.15786783397197723, 0.14269252121448517, -0.05177858844399452, 0.04612690210342407, 0.0770631805062294, 0.07720866054296494, -0.09212308377027512, 0.147054061293602, -0.04955260455608368, 0.02467208541929722, -0.11681812256574631], [0.06798958778381348, 0.04124004393815994, 0.006063941866159439, -0.02982284128665924, 0.12742027640342712, 0.04243740439414978, -0.03613840416073799, -0.1497901827096939, -0.07139676809310913, 0.15786302089691162, 0.09269990026950836, 0.07541665434837341, 0.061982136219739914, 0.01872706227004528, -0.1011066883802414, 0.032553791999816895, 0.001539075979962945, 0.05144345387816429, 0.10963691771030426, -0.19370156526565552, -0.14801178872585297, 0.15941010415554047, -0.05194131284952164, -0.13381849229335785, 0.11344634741544724, -0.10647439956665039, -0.006665995344519615, -0.09928039461374283], [0.07460735738277435, 0.19496886432170868, -0.04329761490225792, 0.184123694896698, -0.11297814548015594, 0.1106969565153122, 0.04071962833404541, 0.1673216074705124, 0.17760194838047028, 0.0005804511019960046, -0.025780869647860527, -0.1273805797100067, 0.10060613602399826, -0.16772045195102692, -0.06013248488306999, -0.07532912492752075, 0.14430612325668335, 0.04648442566394806, 0.18391959369182587, -0.08784191310405731, 0.0025046169757843018, -0.03556763380765915, -0.010614214465022087, -0.0029031485319137573, 0.1367318034172058, -0.14950193464756012, 0.0788654014468193, 0.10033287853002548], [0.17607200145721436, -0.1341959834098816, -0.13652881979942322, 0.1889248788356781, -0.16485954821109772, 0.12465329468250275, -0.10998634994029999, -0.12337101250886917, -0.10852669179439545, 0.1192917674779892, -0.03544357419013977, 0.11643024533987045, 0.15127511322498322, -0.01626339554786682, 0.0031367093324661255, -0.05066244304180145, -0.1610880345106125, 0.15988852083683014, -0.11183091998100281, -0.07565875351428986, -0.05933098495006561, -0.02831168845295906, -0.11277265101671219, 0.12499724328517914, -0.08751524239778519, -0.05700664222240448, -0.020534222945570946, 0.047893404960632324], [-0.004939069971442223, 0.06456807255744934, 0.15367980301380157, 0.17058461904525757, 0.019379980862140656, -0.11192839592695236, -0.15413212776184082, 0.09538327157497406, 0.17240183055400848, 0.1155620589852333, -0.08627129346132278, -0.052358973771333694, 0.1563279628753662, -0.010616486892104149, 0.1103748306632042, 0.07078532874584198, -0.18235623836517334, -0.04436037689447403, -0.1485709697008133, -0.10093896090984344, -0.14390099048614502, -0.16293169558048248, -0.15807434916496277, 0.14037053287029266, 0.0751473680138588, 0.01808030903339386, 0.13406133651733398, 0.05102796107530594], [0.12748679518699646, 0.02631641924381256, 0.04122599959373474, 0.0010592004982754588, 0.13777323067188263, 0.008154287934303284, -0.1198672205209732, -0.12494208663702011, 0.18708668649196625, 0.08610088378190994, 0.015485796146094799, 0.14880727231502533, -0.024592047557234764, 0.10899044573307037, 0.14056524634361267, -0.028397798538208008, -0.17087775468826294, -0.059933651238679886, 0.08752630650997162, -0.000835631915833801, -0.16234895586967468, 0.1469441056251526, 0.04320395737886429, -0.07256428152322769, 0.0123118432238698, -0.09648211300373077, 0.10120304673910141, -0.07576931267976761], [0.08143637329339981, -0.012517446652054787, -0.10658054798841476, 0.05194399878382683, 0.0684909075498581, 0.05288025736808777, 0.08947180956602097, -0.01623458042740822, -0.1845252811908722, -0.08434147387742996, -0.09708719700574875, -0.012533599510788918, 0.06864139437675476, -0.024955902248620987, -0.0578472763299942, 0.07734023034572601, -0.1303349733352661, -0.051091212779283524, -0.07953617721796036, 0.028073076158761978, -0.11430789530277252, 0.003032227512449026, -0.015619494952261448, -0.01676599681377411, 0.14441528916358948, -0.1389436423778534, -0.13600733876228333, 0.06518510729074478], [-0.15581579506397247, 0.04451824724674225, 0.08787454664707184, 0.18093423545360565, -0.16200187802314758, 0.1637951284646988, 0.13919927179813385, -0.1462469846010208, -0.01667390763759613, -0.012971580028533936, -0.07347404211759567, -0.07088133692741394, 0.10549147427082062, -0.028359949588775635, -0.15899206697940826, -0.008833825588226318, 0.16882355511188507, -0.11125941574573517, -0.1669977456331253, 0.047792479395866394, -0.10037624090909958, 0.16354335844516754, 0.054866597056388855, -0.17452020943164825, 0.12431789934635162, 0.03115096688270569, 0.031075090169906616, 0.013468891382217407], [0.06067238375544548, 0.17121437191963196, 0.09753373265266418, 0.09396658092737198, -0.030719980597496033, -0.139332577586174, 0.15122289955615997, 0.07100269943475723, -0.04930715262889862, 0.1865888386964798, 0.017904696986079216, -0.13244913518428802, -0.13926781713962555, 0.07068772614002228, 0.16370202600955963, 0.05852408707141876, 0.10351356863975525, 0.06359556317329407, -0.1722998321056366, -0.04157862812280655, 0.008104801177978516, 0.07731854170560837, 0.05870292708277702, -0.06528734415769577, -0.05683990195393562, -0.09395507723093033, 0.12321820855140686, 0.1259257197380066], [-0.16847486793994904, -0.06398053467273712, -0.01923137530684471, 0.15853126347064972, 0.11732646822929382, -0.1146291047334671, 0.03572675585746765, 0.014100251719355583, -0.11559820920228958, -0.016368217766284943, 0.1143968254327774, 0.11422016471624374, -0.12072969228029251, 0.14752930402755737, 0.06648385524749756, -0.14522840082645416, -0.056296397000551224, -0.16335709393024445, -0.16771507263183594, -0.08369545638561249, -0.18793204426765442, -0.11444751918315887, 0.10046504437923431, 0.10331712663173676, 0.01616518571972847, 0.11695162951946259, 0.014749379828572273, 0.011486269533634186], [0.04201382398605347, -0.1731957048177719, 0.046360164880752563, 0.052025482058525085, 0.13755621016025543, -0.0002052783966064453, -0.04029060900211334, 0.06274671852588654, 0.044813722372055054, -0.14769788086414337, 0.09941385686397552, -0.17603442072868347, -0.1373724639415741, -0.09477026760578156, 0.12826432287693024, -0.1857433170080185, -0.12450695037841797, -0.1149040013551712, -0.08635098487138748, 0.11206765472888947, 0.07184319198131561, 0.04729786515235901, -0.02302384376525879, -0.043377384543418884, 0.0916992574930191, -0.04380239546298981, -0.09651914983987808, 0.15212218463420868]], "actor.network.4.bias": [0.1540445238351822, 0.06957804411649704, -0.10378400981426239, -0.15960711240768433, 0.09855178743600845, -0.08370213210582733, 0.08055975288152695, -0.02796272002160549, 0.02766917087137699, -0.02963465079665184, -0.11643455922603607, 0.041030388325452805, 0.022679543122649193, -0.15196621417999268, 0.054512202739715576, 0.1639508455991745, -0.06109311059117317, 0.04912499338388443, 0.06004219874739647, 0.17308975756168365, 0.007875914685428143, 0.06870988756418228, 0.10283590108156204, -0.02018074505031109, -0.15413378179073334, 0.09534430503845215, 0.150421142578125, -0.02480320632457733], "actor.network.6.weight": [[-0.13859637081623077, 0.16555370390415192, -0.17711706459522247, -0.08553450554609299, 0.10042432695627213, -0.09225296229124069, -0.061482008546590805, -0.14439964294433594, 0.07988554984331131, -0.01757536642253399, 0.07465089857578278, -0.07909852266311646, -0.01088687963783741, 0.1789976805448532, 0.03662124276161194, 0.09779306501150131, 0.17988969385623932, -0.15622662007808685, -0.09865719079971313, 0.004735409282147884, -0.04500192403793335, -0.03903375193476677, -0.008373432792723179, 0.14980845153331757, 0.028765395283699036, -0.08453653007745743, 0.05391210690140724, 0.013775601983070374], [0.010029522702097893, 0.02677249349653721, -0.04229048267006874, -0.05980132520198822, 0.0401725135743618, -0.03171239793300629, -0.051749709993600845, 0.1718260943889618, 0.10270994156599045, -0.0745742991566658, -0.17781269550323486, 0.08368787914514542, -0.09674301743507385, -0.015977084636688232, -0.056384965777397156, -0.018940361216664314, 0.038177408277988434, -0.07032764703035355, 0.019478952512145042, -0.06934161484241486, 0.019757717847824097, 0.012828527949750423, 0.004124816041439772, -0.04746357351541519, 0.007047727704048157, -0.0690181627869606, 0.04356316849589348, 0.15170802175998688]], "actor.network.6.bias": [-0.12227265536785126, 0.08278067409992218], "critic.network.0.weight": [[-0.1127420961856842, -0.4423997700214386, -0.2449532002210617, 0.45718368887901306], [0.4162660539150238, -0.48278146982192993, -0.3019188642501831, 0.319545716047287], [0.21968990564346313, -0.44989922642707825, 0.4848490357398987, 0.007335744798183441], [0.35378971695899963, 0.008809325285255909, -0.38864341378211975, -0.408780962228775], [0.013749122619628906, -0.47092902660369873, -0.16732585430145264, -0.4124985337257385], [-0.014112472534179688, -0.25626397132873535, -0.07635343074798584, -0.27558034658432007], [-0.4046878516674042, -0.12898597121238708, -0.01463286578655243, 0.030444087460637093], [0.23996403813362122, -0.05336594581604004, -0.1169753149151802, 0.17483243346214294], [0.44723793864250183, 0.4526700973510742, -0.19507044553756714, -0.22808687388896942], [0.2511952221393585, -0.4106462895870209, 0.4517825245857239, 0.4152967631816864], [-0.09663385152816772, 0.2127181887626648, 3.708165604621172e-05, -0.42587989568710327], [0.3509649634361267, -0.3206312954425812, -0.07185084372758865, 0.46142613887786865], [-0.41408562660217285, 0.23642438650131226, -0.19496938586235046, -0.35761401057243347], [0.23874178528785706, 0.07136780023574829, -0.0525701530277729, 0.4623027741909027], [-0.4941924512386322, 0.47973954677581787, 0.5089392066001892, 0.26122692227363586], [-0.03585248440504074, 0.3374510407447815, -0.009657562710344791, -0.03551414608955383], [0.0495404377579689, 0.23360303044319153, -0.3794326186180115, 0.10880357027053833], [-0.4380776882171631, 0.37667644023895264, -0.040254831314086914, 0.09888511896133423], [-0.15492358803749084, -0.3926580846309662, -0.3722446858882904, -0.14869147539138794], [0.4912969470024109, -0.1756209135055542, -0.10218310356140137, -0.055769503116607666], [-0.1461087018251419, -0.4868300259113312, -0.48210763931274414, 0.36195051670074463], [-0.3184392750263214, -0.5014902949333191, 0.2260715365409851, 0.33747538924217224], [-0.04044234752655029, 0.12037485837936401, 0.47152483463287354, 0.13103437423706055], [-0.14696431159973145, -0.46594923734664917, -0.211806520819664, 0.28555819392204285], [0.4068758189678192, 0.010288124904036522, 0.27645206451416016, -0.059300076216459274], [0.42902490496635437, 0.39865726232528687, -0.304170161485672, -0.0952969640493393], [-0.07511895149946213, 0.527800440788269, 0.3165704905986786, 0.29360300302505493], [-0.22761613130569458, 0.3450343608856201, 0.022641003131866455, 0.030578970909118652]], "critic.network.0.bias": [-0.26936453580856323, 0.4589293897151947, 0.32050371170043945, -0.015225770883262157, -0.41851574182510376, -0.45091569423675537, 0.13707970082759857, -0.009558829478919506, -0.031110605224967003, -0.22487390041351318, -0.01903349906206131, 0.3191860020160675, 0.06289173662662506, -0.3923056721687317, 0.35162606835365295, -0.47907784581184387, 0.16480255126953125, -0.4888138175010681, 0.35100677609443665, -0.3280909061431885, -0.006233329884707928, -0.44785332679748535, -0.44997501373291016, 0.06921115517616272, 0.09921498596668243, -0.15558414161205292, 0.424435019493103, -0.4864177703857422], "critic.network.2.weight": [[-0.08607134222984314, 0.029706263914704323, 0.20470133423805237, -0.06947614997625351, -0.07816917449235916, 0.09804366528987885, 0.1039157584309578, 0.18111573159694672, -0.08582707494497299, -0.1522696614265442, -0.0797240361571312, 0.072428859770298, -0.16665714979171753, 0.12051722407341003, -0.11373299360275269, 0.13306652009487152, -0.00017895543714985251, 0.07537762820720673, 0.006905523594468832, -0.06189022958278656, 0.13702800869941711, -0.003943822346627712, -0.012113943696022034, 0.07296337187290192, -0.094523586332798, 0.044342078268527985, -0.10657044500112534, -0.11514904350042343], [0.0087019894272089, 0.025903796777129173, 0.007655698340386152, 0.1463218778371811, 0.17925874888896942, -0.0125054270029068, -0.06860094517469406, -0.019896401092410088, -0.10243549942970276, 0.18078982830047607, -0.12446984648704529, -0.0698714479804039, -0.07064235210418701, 0.13346557319164276, 0.10328207165002823, -0.06667773425579071, -0.13355427980422974, 0.05628417432308197, -0.027528055012226105, -0.055375710129737854, 0.1397722214460373, 0.13617637753486633, -0.08534770458936691, -0.036116767674684525, 0.13883067667484283, 0.16392962634563446, -0.14688394963741302, -0.13902810215950012], [0.14823032915592194, -0.005120664834976196, 0.025573253631591797, -0.1660950481891632, -0.02549968659877777, 0.18322928249835968, 0.12683917582035065, 0.0696672648191452, -0.05482664704322815, -0.16956336796283722, -0.12922918796539307, -0.1711394339799881, -0.07559527456760406, 0.11519201099872589, -0.17418569326400757, -0.12279586493968964, 0.17168106138706207, -0.1182977706193924, -0.07150132209062576, 0.025578871369361877, 0.15070052444934845, -0.044271618127822876, -0.0021232813596725464, -0.11000219732522964, 0.18756578862667084, 0.040921688079833984, 0.1263483315706253, -0.049200668931007385], [0.12633314728736877, 0.018186356872320175, -0.08669313043355942, -0.024997057393193245, -0.168509379029274, -0.04088868200778961, 0.18033215403556824, 0.08077666163444519, -0.07947536557912827, 0.13584968447685242, -0.049388207495212555, 0.1671837866306305, 0.14684903621673584, 0.1205405443906784, 0.1913338303565979, -0.1562006026506424, -0.08156584203243256, 0.017030060291290283, 0.08479450643062592, -0.1606154441833496, 0.06320924311876297, 0.18250297009944916, 0.09944821894168854, 0.03988196328282356, 0.1509791612625122, 0.040497008711099625, 0.06769823282957077, -0.08281917870044708], [-0.054245367646217346, -0.16046486794948578, -0.084308922290802, 0.09967957437038422, -0.164805069565773, -0.15393829345703125, -0.031991906464099884, 0.12321017682552338, -0.0696314200758934, 0.18191371858119965, 0.1447935700416565, -0.1729947328567505, 0.16220882534980774, -0.012847065925598145, -0.1403374820947647, 0.04427728056907654, -0.0033357832580804825, 0.06652615964412689, 0.12102208286523819, -0.07558619976043701, 0.03825569152832031, 0.01875436305999756, 0.03985714912414551, 0.08294551074504852, -0.04356233403086662, -0.04250957816839218, -0.011773630045354366, 0.1609700471162796], [0.09107483923435211, 0.12033353745937347, 0.02655668556690216, -0.09529833495616913, 0.0685262531042099, -0.1702699512243271, 0.06568761169910431, -0.13959214091300964, -0.1107877641916275, 0.10074175894260406, 0.059684544801712036, -0.06551911681890488, 0.09295855462551117, 0.0453578382730484, 0.07339812815189362, -0.04631870985031128, 0.15772376954555511, -0.02808721363544464, -0.1588067263364792, 0.16109581291675568, -0.10543230175971985, 0.1371360570192337, 0.13351218402385712, 0.05870230495929718, -0.01765945553779602, -0.08631908148527145, -0.12495262920856476, -0.15630066394805908], [-0.05520595610141754, -0.03013971634209156, 0.15227970480918884, -0.1454523801803589, -0.025501489639282227, -0.12233433127403259, -0.052489109337329865, -0.029101015999913216, -0.15058492124080658, -0.08574157953262329, -0.04655436798930168, -0.06777050346136093, 0.13029882311820984, -0.1828751415014267, -0.04441554844379425, 0.01463329792022705, -0.20899297297000885, 0.16045965254306793, 0.06930013000965118, -0.03399208188056946, -0.09867078810930252, -0.01902528665959835, -0.0633467435836792, 0.051118917763233185, 0.061251260340213776, 0.03229370713233948, 0.0453777089715004, -0.02613970637321472], [0.0011905133724212646, -0.16497860848903656, -0.13130269944667816, 0.13812236487865448, 0.14689765870571136, -0.0032616406679153442, -0.09851280599832535, 0.08452083170413971, -0.09276316314935684, 0.06819041073322296, 0.07707549631595612, -0.07352273166179657, -0.16919785737991333, 0.1578446477651596, 0.18879760801792145, 0.07729379832744598, -0.18052537739276886, -0.018906831741333008, -0.1369248330593109, 0.1759481579065323, -0.09255500137805939, 0.0819857269525528, -0.12600544095039368, 0.04405573010444641, -0.0984780415892601, 0.07107017934322357, -0.1068253219127655, -0.17851890623569489], [-0.09156656265258789, -0.012022435665130615, -0.18395985662937164, 0.13607077300548553, 0.17977045476436615, -0.1202545240521431, -0.16015160083770752, -0.05278114974498749, -0.009925991296768188, 0.1075536459684372, -0.14478148519992828, -0.11822320520877838, -0.16624139249324799, -0.024823233485221863, -0.14301370084285736, -0.10122714191675186, -0.1646147519350052, 0.05128662288188934, -0.054851382970809937, -0.030755534768104553, 0.09605328738689423, -0.041970908641815186, -0.08753474056720734, -0.02664855122566223, -0.1596357673406601, 0.06324438750743866, -0.05314819514751434, 0.08193375170230865], [0.18332919478416443, -0.1123027503490448, 0.1108652874827385, -0.16133855283260345, -0.08821140229701996, -0.007147103548049927, 0.15820279717445374, 0.09425502270460129, -0.10697328299283981, 0.06684241443872452, 0.10555528849363327, -0.06312178075313568, -0.01897421106696129, -0.17852026224136353, 0.17477881908416748, 0.057616427540779114, 0.12505511939525604, -0.12849338352680206, 0.2067296952009201, -0.049571529030799866, -0.11562857031822205, -0.10416433215141296, -0.07932526618242264, 0.20437681674957275, 0.22548721730709076, -0.007600679993629456, -0.037037815898656845, -0.18555694818496704], [-0.0595485121011734, -0.010312879458069801, -0.11935381591320038, 0.04163132607936859, 0.09671638906002045, -0.02078595757484436, -0.026558896526694298, 0.1254584640264511, 0.13986873626708984, 0.008570194244384766, 0.11122060567140579, 0.005511105060577393, -0.08468494564294815, 0.07215012609958649, -0.06903909146785736, -0.11388474702835083, -0.011888726614415646, 0.14217673242092133, -0.16324147582054138, 0.16904215514659882, -0.09186488389968872, -0.1603863537311554, 0.11259676516056061, -0.08414961397647858, 0.04591949284076691, 0.04152241721749306, -0.18949006497859955, -0.04391813278198242], [-0.16086018085479736, -0.13148115575313568, 0.00830569863319397, 0.14869403839111328, 0.11327885091304779, 0.14561684429645538, -0.1503017395734787, 0.011398885399103165, 0.07646600157022476, -0.05108805000782013, 0.07076983153820038, -0.0006007139454595745, -0.052022479474544525, -0.11002282798290253, -0.1548929214477539, 0.10391306132078171, -0.1104353740811348, 0.13557080924510956, -0.04912947490811348, -0.16316011548042297, -0.13205713033676147, 0.1406998187303543, -0.05526360869407654, -0.07098904252052307, -0.015511726029217243, 0.18358568847179413, 0.12859177589416504, -0.1367584466934204], [-0.1674463152885437, -0.1530606746673584, 0.09056948870420456, 0.188508540391922, 0.15709809958934784, -0.009667202830314636, 0.03390451520681381, -0.02744860202074051, 0.21050037443637848, 0.164788618683815, -0.1243906170129776, 0.166955828666687, -0.0748443752527237, -0.11149939894676208, 0.20404811203479767, -0.18053841590881348, 0.17639042437076569, 0.13140584528446198, 0.1274387091398239, 0.15219815075397491, 0.13638350367546082, -0.06481236964464188, 0.12937186658382416, 0.14252081513404846, -0.10428199917078018, 0.11195004731416702, -0.046704769134521484, -0.023106634616851807], [0.0118703693151474, -0.14806340634822845, 0.01477651298046112, -0.13026602566242218, -0.050109103322029114, -0.1646113246679306, 0.17673783004283905, -0.017512887716293335, -0.005714491009712219, -0.05992308259010315, 0.024719148874282837, -0.12272954732179642, -0.0498686283826828, -0.09957445412874222, -0.007028013467788696, 0.1072017103433609, -0.12905126810073853, 0.024263828992843628, -0.1297653615474701, -0.1750926375389099, -0.13522695004940033, 0.08162550628185272, -0.015535160899162292, 0.018496021628379822, -0.022094741463661194, 0.09525243937969208, -0.1325732320547104, -0.03916357457637787], [0.10473008453845978, -0.020824596285820007, 0.029751300811767578, 0.12709005177021027, -0.17493437230587006, 0.0006121844053268433, 0.09295131266117096, 0.12766839563846588, -0.1350708305835724, -0.09711171686649323, -0.16267850995063782, -0.09377234429121017, -0.06001076102256775, -0.04483388364315033, -0.14661139249801636, -0.043587520718574524, 0.022003725171089172, 0.026921331882476807, 0.12843261659145355, -0.054132863879203796, -0.030531957745552063, 0.11481209099292755, 0.07269228994846344, -0.016127392649650574, 0.1828354150056839, 0.1641073375940323, -0.039681583642959595, -0.05632203817367554], [0.12517638504505157, 0.15368732810020447, 0.08180166035890579, 0.018650731071829796, 0.10028834640979767, -0.10314827412366867, -0.2106579691171646, 0.007249690592288971, -0.14787627756595612, -0.1218070238828659, -0.039979975670576096, -0.14968864619731903, -0.028145859017968178, 0.14521345496177673, 0.06474212557077408, -0.1446923017501831, -0.14312346279621124, 0.13915513455867767, -0.11783809214830399, -0.055651575326919556, 0.04779752343893051, 0.08687802404165268, 0.09249527752399445, 0.013895727694034576, -0.1826592981815338, -0.12583835422992706, 0.03053200989961624, 0.01297488808631897], [0.09927602112293243, 0.06455224007368088, 0.049824051558971405, 0.07595603168010712, 0.14555267989635468, -0.00044994056224823, -0.1901009976863861, 0.10028577595949173, -0.1369439959526062, 0.11259468644857407, -0.08731772750616074, -0.1778518110513687, -0.07440280169248581, 0.1837865561246872, 0.15086215734481812, -0.1156965047121048, -0.12407771497964859, 0.02061435580253601, -0.060055047273635864, 0.1731460839509964, -0.1281832605600357, -0.10366659611463547, -0.17604446411132812, 0.1496061235666275, -0.15112903714179993, -0.10707000643014908, -0.20254327356815338, 0.04664202034473419], [-0.02837304212152958, 0.14350731670856476, 0.16211675107479095, 0.15800417959690094, 0.11520551145076752, 0.10788758099079132, -0.04639996588230133, 0.16031304001808167, -0.0011691460385918617, 0.14429011940956116, -0.03801094368100166, 0.11427189409732819, 0.015403899364173412, -0.08723010867834091, -0.012193141505122185, -0.1277308166027069, -0.14614327251911163, -0.03308884799480438, 0.1139858141541481, 0.14047865569591522, -0.07753017544746399, 0.09611102938652039, 0.16078831255435944, 0.12162194401025772, -0.07595358788967133, -0.14171913266181946, -0.10433726012706757, -0.1395910382270813], [-0.18873561918735504, -0.050977349281311035, 0.11491741240024567, -0.06757499277591705, 0.1521676629781723, 0.015351265668869019, 0.10461682826280594, -0.12650172412395477, 0.10452104359865189, 0.051691457629203796, 0.03604190796613693, -0.10715565830469131, 0.014838334172964096, -0.04933466017246246, 0.0004065415996592492, -0.09686243534088135, -0.11059440672397614, -0.17410443723201752, 0.040652401745319366, -0.09274135529994965, -0.06720586121082306, 0.1487969607114792, -0.11646362394094467, -0.13401995599269867, 0.14517611265182495, -0.0070587266236543655, -0.12193310260772705, 0.1874544769525528], [0.1442665457725525, -0.07199722528457642, 0.05629529431462288, -0.105354443192482, -0.1281525194644928, -0.029672250151634216, 0.05672042816877365, -0.08305883407592773, -0.04668040573596954, 0.07185080647468567, -0.17918264865875244, 0.031794432550668716, -0.03997592255473137, 0.06278283894062042, -0.1634337306022644, -0.14031828939914703, -0.030634496361017227, 0.05969427525997162, 0.09544987976551056, 0.10409365594387054, 0.08842281252145767, -0.05659676343202591, 0.0339277982711792, -0.06276234239339828, 0.07882329076528549, 0.07738886773586273, 0.11034756898880005, -0.12475485354661942], [0.02595915086567402, 0.22078388929367065, 0.22922563552856445, -0.05818266421556473, -0.05741885304450989, -0.17056673765182495, -0.01618482917547226, 0.15260903537273407, -0.005398761015385389, -0.07917627692222595, -0.12239581346511841, 0.056774117052555084, -0.13742533326148987, 0.15351030230522156, 0.14579960703849792, 0.1817411631345749, -0.03780191019177437, 0.17015285789966583, 0.20141935348510742, 0.18008176982402802, 0.0722409337759018, 0.15258026123046875, -0.11121778190135956, 0.00034841359592974186, -0.11995726078748703, -0.06159459054470062, 0.21680788695812225, 0.18331916630268097], [0.1434076875448227, 0.1562764197587967, 0.11673595011234283, 0.16718797385692596, 0.02919505536556244, 0.13923464715480804, 0.07222577929496765, -0.029204508289694786, -0.07654400914907455, 0.18075545132160187, 0.12947507202625275, -0.10195908695459366, 0.16898499429225922, 0.1171431913971901, -0.1268300712108612, 0.12990014255046844, 0.2136928290128708, -0.16465669870376587, 0.11763640493154526, -0.0341067761182785, -0.04843391850590706, 0.1587699055671692, 0.005216732621192932, 0.09565306454896927, -0.04806473106145859, -0.05582677945494652, 0.2479304075241089, -0.043327778577804565], [-0.18368427455425262, -0.049424413591623306, -0.09077505022287369, 0.10655887424945831, -0.16577550768852234, -0.004871159791946411, -0.09086163341999054, -0.053777359426021576, 0.04795650392770767, 0.022831391543149948, -0.031058991327881813, -0.0370606891810894, 0.18811282515525818, -0.010306224226951599, 0.10233557969331741, 0.1337682604789734, 0.015953069552779198, 0.024126023054122925, -0.007972737774252892, -0.14501602947711945, 0.033745504915714264, -0.03728365898132324, 0.033778056502342224, -0.012982177548110485, 0.06453967094421387, -0.10318335145711899, -0.16500969231128693, 0.05846665799617767], [0.12221281975507736, 0.06315939128398895, 0.016343621537089348, 0.1596670001745224, 0.16282014548778534, 0.0816141813993454, 0.07902098447084427, -0.10288312286138535, -0.19193610548973083, 0.10389628261327744, 0.16052262485027313, 0.004473893903195858, 0.041907619684934616, 0.11035872995853424, 0.11732345819473267, 0.11101619899272919, -0.012587088160216808, -0.026662737131118774, 0.08309608697891235, -0.05971768498420715, 0.179451584815979, 0.03444071114063263, -0.1867905706167221, 0.05999614670872688, -0.13688448071479797, -0.16586452722549438, -0.0722755640745163, 0.038294270634651184], [0.06211038678884506, 0.04647708311676979, 0.13803035020828247, 0.05640631914138794, 0.09190912544727325, -0.007554799318313599, 0.05815646052360535, -0.059619318693876266, 0.10025666654109955, -0.1460978388786316, 0.05250851809978485, 0.019491437822580338, 0.1609392911195755, 0.062497034668922424, -0.05599421262741089, -0.1211167573928833, -0.06808596104383469, 0.13298191130161285, 0.11700570583343506, -0.1758098602294922, 0.11216560006141663, 0.1047084853053093, -0.07118648290634155, 0.04919303208589554, -0.18864844739437103, 0.06451191008090973, -0.10889889299869537, 0.06499995291233063], [0.00038552284240722656, -0.17389847338199615, -0.18667708337306976, -0.18229646980762482, -0.15605328977108002, -0.14556530117988586, 0.06609131395816803, 0.049904122948646545, -0.14454932510852814, 0.1758253425359726, 0.15300007164478302, 0.09280867874622345, -0.15883909165859222, -0.10751036554574966, -0.14416897296905518, 0.0026796162128448486, -0.16192400455474854, 0.16276617348194122, 0.16163749992847443, -0.03504881262779236, -0.012666523456573486, 0.17492784559726715, 0.013073697686195374, 0.11996473371982574, -0.014826059341430664, -0.032356396317481995, -0.15789812803268433, -0.048478543758392334], [-0.10326434671878815, -0.08823320269584656, -0.055886026471853256, -0.020437045022845268, -0.16991880536079407, -0.1503051370382309, -0.012748281471431255, 0.17521415650844574, -0.16191242635250092, -0.1877363920211792, 0.15368251502513885, -0.029583638533949852, -0.09210511296987534, -0.17127695679664612, -0.014871137216687202, -0.09539739042520523, 0.11110285669565201, 0.15902455151081085, -0.14169272780418396, -0.17839862406253815, 0.05030001699924469, -0.1391691267490387, 0.08665339648723602, 0.03728250041604042, 0.037945035845041275, 0.05813612416386604, 0.018260113894939423, -0.1375819742679596], [0.16284288465976715, -0.1651192158460617, 0.06911115348339081, -0.11585044115781784, -0.13001704216003418, -0.12867766618728638, -0.11842014640569687, -0.15361347794532776, 0.104673370718956, 0.0854218453168869, 0.07420708239078522, -0.17446430027484894, -0.14633075892925262, -0.0997675210237503, 0.08194880187511444, 0.01249280571937561, -0.15040741860866547, 0.17959310114383698, 0.17150624096393585, -0.05237974226474762, 0.13423241674900055, -0.14647510647773743, 0.12137804925441742, 0.12355197966098785, 0.16702760756015778, -0.15944664180278778, -0.04112441837787628, -0.03282327950000763]], "critic.network.2.bias": [0.19911065697669983, -0.019688790664076805, -0.12931273877620697, 0.2154933661222458, 0.03589240461587906, -0.165233314037323, -0.03398025780916214, -0.152703657746315, 0.03386162221431732, 0.11132021248340607, 0.10981146991252899, 0.12328800559043884, 0.12058084458112717, -0.04296419024467468, -0.03242133557796478, 0.07792150229215622, 0.056966979056596756, 0.028520308434963226, 0.006852749269455671, -0.03416455537080765, 0.17339274287223816, 0.014700762927532196, 0.13744240999221802, -0.057068031281232834, -0.1923089474439621, -0.1332082599401474, -0.00012021421571262181, -0.1328408420085907], "critic.network.4.weight": [[0.18472716212272644, -0.13162390887737274, 0.14988701045513153, -0.024472754448652267, -0.16807866096496582, -0.11898835748434067, -0.035197820514440536, 0.11050395667552948, 0.18090544641017914, -0.03555767610669136, 0.07463058084249496, 0.2105129510164261, -0.08816152811050415, 0.031292542815208435, -0.17245440185070038, -0.028213299810886383, 0.1044459193944931, 0.06258859485387802, -0.09444469213485718, -0.07711831480264664, 0.16146856546401978, -0.1302274465560913, -0.009504646994173527, -0.07853753864765167, 0.14066654443740845, 0.14254526793956757, -0.1244778260588646, -0.18346568942070007], [0.14100421965122223, 0.11935918033123016, -0.051376551389694214, 0.06801645457744598, -0.03574147820472717, 0.16824950277805328, 0.15213151276111603, -0.18762147426605225, 0.10279087722301483, -0.15827058255672455, 0.09964664280414581, -0.18275794386863708, -0.03996589779853821, 0.09550730884075165, -0.17873181402683258, -0.03595057129859924, 0.12580506503582, -0.09176391363143921, 0.05511440336704254, 0.17705924808979034, 0.03599885106086731, 0.05381782352924347, 0.0714208334684372, -0.17257580161094666, -0.13913173973560333, 0.002431929111480713, -0.019724547863006592, 0.007069900631904602], [0.07255826145410538, -0.04763235151767731, -0.1370592564344406, 0.08992700278759003, 0.06798843294382095, 0.13427813351154327, -0.11106166243553162, -0.0478588342666626, -0.06786414980888367, 0.06879730522632599, 0.037800293415784836, 0.09733311086893082, 0.0451037660241127, 0.1736355572938919, 0.15997646749019623, -0.15332947671413422, 0.11082436144351959, -0.17213276028633118, -0.0004652501083910465, 3.2648444175720215e-05, 0.10799005627632141, 0.04436097666621208, 0.11125577986240387, 0.16086022555828094, -0.028172597289085388, -0.16454331576824188, 0.04212915897369385, 0.14628376066684723], [-0.039436545222997665, -0.06887969374656677, -0.02993662655353546, -0.1773502379655838, 0.09403084963560104, -0.1453399360179901, -0.059651926159858704, 0.020767316222190857, -0.01530352234840393, -0.06970374286174774, -0.05457174405455589, -0.12212817370891571, -0.0966663807630539, 0.01612691581249237, 0.1135086864233017, -0.08227616548538208, 0.11681482195854187, -0.004648164380341768, -0.03519029915332794, -0.03897523880004883, -0.01612457074224949, -0.03836940601468086, 0.06314431130886078, -0.10832095146179199, -0.08425293862819672, 0.008306846022605896, -0.08400854468345642, 0.16318820416927338], [0.07680878788232803, 0.055978357791900635, 0.11565668880939484, 0.16784781217575073, 0.02629452757537365, 0.09488318860530853, -0.049668923020362854, -0.08719997107982635, -0.013597756624221802, 0.238638237118721, 0.04243214428424835, 0.04237302392721176, 0.20551538467407227, 0.15740598738193512, -0.08158376067876816, -0.025428369641304016, 0.06696627289056778, -0.03875516355037689, -0.07495598495006561, -0.11052071303129196, 0.18761587142944336, -0.03003591112792492, 0.18173666298389435, 0.05211051553487778, -0.08748569339513779, -0.10211800783872604, -0.043828994035720825, 0.07170061767101288], [-0.02036665752530098, 0.18300890922546387, -0.0129910409450531, 0.16717052459716797, -0.13700702786445618, 0.016169577836990356, 0.064545176923275, 0.01454472541809082, 0.07346121966838837, 0.2406281977891922, -0.09297358244657516, -0.12559303641319275, 0.16822871565818787, 0.01557508111000061, 0.10521833598613739, 0.161635160446167, 0.07066124677658081, 0.08834164589643478, -0.02718045935034752, -0.14689940214157104, 0.029210660606622696, 0.1562303602695465, -0.10635273903608322, -0.11143780499696732, -0.1392974555492401, -0.06115713715553284, -0.11106894165277481, -0.1282006800174713], [-0.006577938795089722, 0.027806177735328674, -0.15041670203208923, -0.14669692516326904, 0.15670011937618256, 0.021625414490699768, 0.18239499628543854, -0.06247967481613159, 0.06119100749492645, -0.11677156388759613, 0.10402975976467133, 0.044709011912345886, -0.17548218369483948, -0.187241792678833, -0.1130511686205864, 0.06640581786632538, -0.06055779755115509, -0.11023027449846268, -0.11420615762472153, 0.060671061277389526, -0.08905684947967529, 0.1738031655550003, -0.12273947894573212, -0.13024502992630005, -0.11618460714817047, 0.11865969002246857, 0.016898497939109802, -0.0499594509601593], [0.07222890108823776, 0.09045589715242386, 0.1745785027742386, -0.03220805898308754, 0.08339802920818329, 0.14790870249271393, -0.19767877459526062, -0.1779966503381729, 0.15800584852695465, -0.07504388689994812, 0.10319647938013077, 0.13103584945201874, 0.020243195816874504, 0.001350685954093933, -0.18870650231838226, 0.10044865310192108, -0.1653698980808258, -0.13211965560913086, 0.08647460490465164, 0.09884722530841827, 0.05758827552199364, 0.02803492732346058, -0.036842286586761475, 0.1139911487698555, 0.012947953306138515, 0.1875045746564865, 0.054539505392313004, 0.10428182780742645], [0.10386941581964493, 0.017451852560043335, 0.043025627732276917, -0.06491868197917938, 0.08296237885951996, -0.040024444460868835, 0.08821908384561539, 0.011958226561546326, -0.032975420355796814, 0.028173791244626045, 0.18524397909641266, -0.10494549572467804, 0.11484050005674362, 0.03813731670379639, 0.06627510488033295, -0.18528668582439423, 0.11613011360168457, 0.1584167182445526, -0.13251173496246338, -0.018552007153630257, 0.13303901255130768, 0.09815862774848938, -0.06253797560930252, -0.1451697200536728, 0.09495070576667786, 0.0748780220746994, -0.11404845118522644, -0.06979848444461823], [0.07267501950263977, 0.049394913017749786, 0.012213483452796936, 0.06414145976305008, 0.07136823236942291, 0.047382280230522156, 0.010537340305745602, -0.053807333111763, -0.011020347476005554, 0.012959768064320087, 0.05927305668592453, 0.20803290605545044, 0.034906718879938126, -0.1780141294002533, -0.014250054955482483, 0.12392497807741165, -0.04030456021428108, 0.13051491975784302, 0.04004669561982155, -0.0030565576162189245, 0.0035461089573800564, 0.16276049613952637, -0.012155918404459953, -0.051664311438798904, 0.023945653811097145, 0.08013291656970978, -0.14134103059768677, -0.005928441882133484], [-0.11509596556425095, 0.1536022573709488, -0.17926599085330963, -0.0034628063440322876, -0.08537609130144119, 0.09108223021030426, -0.1644221991300583, 0.1637183576822281, -0.15776565670967102, 0.0826750248670578, -0.13750669360160828, -0.12393826246261597, -0.04199312627315521, 0.02120174467563629, -0.17427265644073486, -0.1789570152759552, 0.016727089881896973, 0.046786561608314514, -0.06979267299175262, 0.03212831914424896, -0.06040965020656586, 0.0720895379781723, -0.07765591144561768, -0.029228463768959045, -0.055509552359580994, 0.09034393727779388, -0.106504425406456, -0.18681636452674866], [0.16127638518810272, 0.12259228527545929, -0.04363164305686951, -0.10970580577850342, 0.04646322876214981, -0.09143450111150742, -0.13369879126548767, 0.049176037311553955, -0.010729596018791199, 0.05727425962686539, 0.08370641618967056, 0.1458822339773178, 0.16941583156585693, 0.08194555342197418, 0.08732785284519196, -0.10985320061445236, 0.10395394265651703, 0.03909352421760559, -0.002661291742697358, -0.08407950401306152, 0.18669623136520386, -0.03027939610183239, -0.14034152030944824, 0.06932683289051056, -0.06257416307926178, 0.09166468679904938, 0.011146651580929756, -0.07542841136455536], [0.06831273436546326, -0.0688822865486145, 0.06145228445529938, -0.12165945768356323, -0.019703490659594536, -0.17254936695098877, -0.06921717524528503, 0.17145095765590668, -0.17897990345954895, 0.057062651962041855, 0.13608869910240173, -0.02096511237323284, 0.16758392751216888, -0.001029685139656067, -0.0033505409955978394, -0.06729820370674133, -0.1447114199399948, 0.13177181780338287, -0.03871463984251022, 0.13657191395759583, 0.12384194135665894, 0.18961937725543976, 0.04430941864848137, -0.009465154260396957, -0.09960485994815826, -0.02819877862930298, 0.02369719184935093, -0.1666593700647354], [-0.10929430276155472, -0.0914706364274025, -0.04365432262420654, -0.11567496508359909, -0.0632309764623642, 0.005373209714889526, -0.02681584656238556, 0.008182376623153687, -0.11563549935817719, -0.12276750802993774, 0.05468854308128357, -0.035340115427970886, 0.09021298587322235, -0.14388039708137512, 0.07159008085727692, 0.15975169837474823, -0.12722766399383545, 0.18223921954631805, -0.1288229525089264, -0.17401720583438873, -0.118489108979702, 0.09022451937198639, -0.0999046340584755, 0.08509792387485504, -0.0502743273973465, 0.1521909385919571, 0.12062238156795502, -0.08839064091444016], [0.12737330794334412, -0.07635129988193512, -0.10755655169487, -0.01488836482167244, -0.002095623407512903, 0.07843999564647675, 0.1820661574602127, 0.17799590528011322, 0.1354830414056778, 0.1954260766506195, -0.08857208490371704, 0.19232480227947235, 0.21931473910808563, -0.11967714130878448, -0.09435597062110901, 0.1334402859210968, 0.11187302321195602, -0.005843076389282942, 0.08921580761671066, 0.007280441932380199, 0.1752033233642578, -0.0030324654653668404, 0.016215596348047256, -0.02899281494319439, 0.06897950172424316, 0.06271766126155853, -0.009292162954807281, -0.09185326099395752], [-0.04687276855111122, 0.02946336939930916, -0.13630267977714539, 0.06576619297266006, -0.10924730449914932, 0.08039765059947968, 0.017026569694280624, 0.004394039511680603, -0.15997101366519928, -0.10285309702157974, -0.1918637603521347, 0.033716317266225815, -0.18400214612483978, 0.1872430294752121, 0.12320573627948761, -0.10018093883991241, -0.1859814077615738, 0.022736819460988045, 0.02363424375653267, -0.08363982290029526, -0.05238122120499611, -0.1642453968524933, 0.1438855528831482, -0.190848708152771, 0.0764160305261612, -0.17609970271587372, -0.11773616820573807, 0.03331533074378967], [0.15439867973327637, -0.0014442133251577616, 0.1523357778787613, 0.24048903584480286, -0.04241061955690384, 0.1604866236448288, -0.06131688505411148, -0.12397752702236176, -0.0446024090051651, 0.10434316843748093, -0.08497361093759537, -0.06840580701828003, -0.06339243799448013, 0.147830531001091, -0.015475928783416748, 0.05154059827327728, -0.17191320657730103, -0.013327057473361492, 0.07516815513372421, -0.11443644016981125, -0.03448420390486717, -0.11411026120185852, 0.1348089724779129, -0.08077797293663025, -0.10481050610542297, 0.1709238737821579, -0.0580873042345047, 0.0884857326745987], [0.027473097667098045, 0.022808892652392387, 0.05244508385658264, -0.00352987227961421, 0.11262112110853195, -0.004425987601280212, 0.14587952196598053, -0.15838855504989624, -0.10792755335569382, 0.020390812307596207, 0.13103900849819183, 0.06231240928173065, -0.08744871616363525, -0.006562739610671997, 0.008444443345069885, -0.1054544597864151, -0.010694782249629498, 0.08398345857858658, -0.0317104272544384, 0.12324895709753036, -0.05568864941596985, -0.1659320890903473, -0.20251981914043427, -0.18109442293643951, -0.1624671369791031, 0.16951866447925568, 0.027824532240629196, -0.006274774670600891], [-0.018209308385849, 0.05928319692611694, -0.08981617540121078, -0.023575633764266968, -0.08868224918842316, 0.10804511606693268, -0.014989182353019714, 0.011934444308280945, 0.09163536131381989, -0.04500824213027954, -0.1840389370918274, 0.046521469950675964, 0.013528242707252502, 0.009115844964981079, 0.18519635498523712, 0.12783722579479218, 0.09752993285655975, -0.0898609384894371, -0.10236005485057831, 0.027469530701637268, 0.04236169159412384, 0.15136252343654633, -0.06039002537727356, 0.08931271731853485, -0.11793062835931778, -0.03955358266830444, 0.008145272731781006, 0.09066642820835114], [-0.03569016233086586, 0.07592389732599258, -0.012065291404724121, 0.11940906196832657, -0.13189545273780823, 0.10144476592540741, -0.01649593934416771, 0.021457135677337646, -0.1823595017194748, 0.12260719388723373, 0.08642969280481339, -0.08027998358011246, 0.10173805803060532, -0.025356799364089966, 0.08287937939167023, -0.011012832634150982, -0.17241378128528595, -0.036546722054481506, 0.13848984241485596, 0.13516221940517426, -0.08029726892709732, -0.0687304437160492, 0.07256117463111877, -0.1735323965549469, -0.08539869636297226, -0.050777703523635864, -0.01389306504279375, 0.11157383024692535], [-0.1440286487340927, 0.17515738308429718, 0.022710099816322327, 0.1329258680343628, -0.03146243467926979, -0.04831388592720032, -0.1407710760831833, 0.0913609117269516, 0.015356868505477905, 0.2153983861207962, 0.0374106764793396, 0.007917243055999279, 0.21324588358402252, 0.16127802431583405, -0.022232845425605774, 0.06460806727409363, 0.05439910292625427, 0.05650065839290619, -0.16021884977817535, 0.10724397003650665, -0.12673290073871613, 0.13796782493591309, 0.0319107286632061, -0.0072977012023329735, 0.19161097705364227, 0.0437006801366806, 0.19553792476654053, 0.09553427994251251], [-0.1264418661594391, 0.16115468740463257, -0.16801823675632477, -0.030502399429678917, 0.13276687264442444, 0.0110912024974823, 0.1392529457807541, -0.11447449773550034, -0.07833626866340637, -0.09497100859880447, -0.00962158665060997, -0.043317947536706924, 0.06722763180732727, -0.01689992845058441, 0.1311255246400833, -0.11143700033426285, 0.17076930403709412, 0.1221858337521553, -0.10757552087306976, -0.1526898294687271, -0.19088001549243927, -0.19794495403766632, 0.11838801950216293, -0.015176993794739246, -0.18409928679466248, 0.05348214507102966, -0.166957288980484, -0.14187179505825043], [0.12299500405788422, 0.17061327397823334, 0.12351299822330475, 0.0525016188621521, -0.12885628640651703, 0.05875051021575928, -0.09834194928407669, -0.033517614006996155, -0.03963617980480194, -0.12157800048589706, 0.07034514844417572, 0.007565677165985107, -0.17420265078544617, -0.03287684917449951, -0.0337882936000824, -0.06452633440494537, -0.15595103800296783, 0.18019632995128632, 0.12383757531642914, 0.16541101038455963, -0.17293637990951538, -0.11594057828187943, 0.11874373257160187, -0.1051347479224205, 0.1460992842912674, -0.08289847522974014, -0.05851581692695618, -0.0149870365858078], [-0.02503238618373871, 0.037993669509887695, 0.02370549738407135, 0.1369391828775406, 0.16018374264240265, 0.05998551845550537, 0.07111300528049469, -0.018403977155685425, 0.14220215380191803, 0.1650753766298294, 0.18531890213489532, 0.1727391928434372, -0.18107686936855316, 0.07704268395900726, 0.13834284245967865, -0.017985627055168152, 0.0252494215965271, 0.09437410533428192, -0.165640726685524, -0.09891169518232346, -0.17948029935359955, 0.16170699894428253, -0.10467737168073654, 0.15122534334659576, -0.09925000369548798, 0.07948552072048187, 0.05672144889831543, -0.1424420177936554], [-0.017506200820207596, 0.07406426221132278, 0.06550143659114838, 0.1758250743150711, 0.08135820925235748, -0.01139715313911438, 0.022484654560685158, -0.17096596956253052, 0.14971302449703217, -0.05133786424994469, -0.014465676620602608, -0.006373838055878878, 0.10912129282951355, -0.12346886098384857, 0.145887091755867, -0.01878528855741024, 0.08368686586618423, -0.14540988206863403, -0.09636951982975006, -0.04959689825773239, 0.1473197638988495, 0.2119600921869278, 0.14324688911437988, 0.1890450268983841, -0.15451742708683014, -0.16398006677627563, 0.03129815310239792, -0.1746588945388794], [-0.07776886224746704, -0.004433508962392807, 0.18496711552143097, 0.0302521251142025, -0.01849585399031639, -0.18617679178714752, 0.016099577769637108, -0.025390520691871643, 0.0027143657207489014, 0.013404306024312973, -0.15730927884578705, 0.02558731846511364, 0.0066005149856209755, 0.013159334659576416, -0.07482980191707611, -0.09611988812685013, -0.0036991278175264597, 0.05069645866751671, -0.11722629517316818, -0.03463286533951759, -0.04901231452822685, 0.1275671124458313, 0.16465900838375092, 0.13172447681427002, 0.14000646770000458, 0.044303327798843384, 0.09596492350101471, 0.00281660258769989], [0.12001573294401169, 0.015258239582180977, 0.042524680495262146, 0.034888047724962234, 0.012225472368299961, -0.11727923899888992, -0.020723016932606697, 0.1176133006811142, -0.05021548271179199, -0.05750619247555733, 0.03975396603345871, 0.012672213837504387, 0.012597627006471157, -0.07313884049654007, 0.15321339666843414, -0.05634765699505806, 0.15781138837337494, 0.026133399456739426, 0.14598102867603302, 0.02541649155318737, 0.040784139186143875, -0.0705360472202301, 0.14795199036598206, 0.13901253044605255, 0.1080588549375534, 0.0032186806201934814, -0.1143612414598465, -0.16353470087051392], [0.08821772038936615, -0.18831028044223785, 0.08553187549114227, 0.030418768525123596, -0.17907296121120453, 0.08401481807231903, 0.02714766561985016, 0.041686102747917175, 0.039235010743141174, -0.14688891172409058, -0.1337655931711197, -0.14738036692142487, -0.01658712327480316, 0.04801681637763977, 0.15361164510250092, 0.15546052157878876, 0.12258531153202057, 0.06602855026721954, -0.14761438965797424, 0.07448853552341461, -0.05689971148967743, 0.05283288657665253, 0.054058581590652466, 0.0635928362607956, -0.022190123796463013, 0.01998409628868103, -0.10281386226415634, -0.09558392316102982]], "critic.network.4.bias": [0.21696783602237701, -0.18681763112545013, -0.14516109228134155, 0.1478191465139389, 0.049124523997306824, 0.22354480624198914, -0.0858229398727417, 0.004442890174686909, -0.09763756394386292, 0.18486282229423523, -0.12713071703910828, 0.21805301308631897, 0.22101318836212158, -0.10713443905115128, 0.05782318115234375, 0.061939872801303864, 0.22530266642570496, 0.039861422032117844, -0.07498698681592941, 0.12495013326406479, 0.00813465565443039, 0.11208122223615646, -0.06353630125522614, -0.1177908405661583, 0.19834324717521667, 0.16560479998588562, 0.13316133618354797, -0.13202719390392303], "critic.network.6.weight": [[0.11671237647533417, 0.11025168001651764, -0.1549546867609024, -0.014923698268830776, 0.19503489136695862, 0.06741345673799515, 0.08831165730953217, -0.13749098777770996, -0.09133263677358627, 0.1926523894071579, 0.031247124075889587, 0.21776902675628662, 0.15107420086860657, -0.005212724208831787, 0.05234140530228615, -0.0103132463991642, 0.2411978393793106, -0.07878829538822174, 0.08777670562267303, -0.030857378616929054, 0.14222605526447296, -0.07031115889549255, 0.10825450718402863, -0.06574901938438416, 0.1914302408695221, 0.12533456087112427, -0.11417332291603088, 0.05664043128490448]], "critic.network.6.bias": [-0.033298611640930176]}