{"SEQL.0.weight": [[-0.3258693218231201, 0.3240776062011719, -0.3267897963523865, 0.152194082736969], [-0.227850079536438, -0.4392539858818054, -0.4289708137512207, 0.029218554496765137], [-0.21424680948257446, -0.45380324125289917, -0.24700093269348145, -0.21268844604492188], [0.4812387228012085, 0.27790892124176025, 0.48311150074005127, 0.32525211572647095], [-0.007068455219268799, 0.32782065868377686, 0.2802562117576599, 0.47412699460983276], [-0.4354711174964905, -0.34714430570602417, -0.4349064230918884, 0.33545583486557007], [0.3404551148414612, 0.16358989477157593, 0.06788772344589233, -0.2745298743247986], [-0.17422807216644287, 0.13990819454193115, 0.4581267833709717, 0.4009624719619751], [0.2051355242729187, -0.4114048480987549, 0.22534120082855225, 0.3453943729400635], [-0.2649950385093689, 0.07602846622467041, 0.33815997838974, -0.42639195919036865], [0.36086511611938477, 0.31774264574050903, 0.037287354469299316, -0.23401468992233276], [-0.22807329893112183, 0.45589667558670044, -0.03532445430755615, -0.339794397354126], [-0.4436075687408447, -0.02893376350402832, 0.13811349868774414, -0.4767417907714844], [-0.30092817544937134, 0.1181110143661499, -0.4045987129211426, 0.4272812008857727], [0.14366871118545532, 0.27504462003707886, -0.48519259691238403, -0.2691572904586792], [-0.478296160697937, 0.37464141845703125, 0.09703695774078369, -0.4605703353881836], [-0.07071423530578613, -0.09616321325302124, -0.2547762393951416, -0.4341328740119934], [-0.09752434492111206, 0.356670081615448, 0.2666693329811096, 0.44837576150894165], [0.28141599893569946, 0.4989393353462219, -0.45316410064697266, 0.03693974018096924], [0.33458471298217773, -0.30984872579574585, -0.10420942306518555, -0.23277246952056885], [-0.3799644708633423, 0.4410485625267029, 0.3348333239555359, 0.06956321001052856], [-0.22720158100128174, 0.13686829805374146, 0.34247887134552, 0.21551275253295898], [0.04619854688644409, 0.041532814502716064, 0.022118031978607178, -0.30011796951293945], [0.17172425985336304, 0.3753703832626343, -0.3621214032173157, 0.15442609786987305], [0.4762151837348938, -0.49093443155288696, 0.460025429725647, -0.0834614634513855], [-0.10375869274139404, -0.1752467155456543, -0.2340693473815918, 0.2875126600265503], [0.37988924980163574, 0.4753515124320984, -0.050944507122039795, -0.24922192096710205], [0.1799226999282837, -0.22993505001068115, 0.30706262588500977, -0.12449461221694946], [-0.11921125650405884, 0.37470418214797974, -0.408234179019928, 0.16255533695220947], [0.11104822158813477, 0.4155162572860718, 0.23624277114868164, -0.29024165868759155], [-0.08762556314468384, 0.38254082202911377, 0.2706643342971802, -0.48452359437942505], [-0.30873459577560425, -0.4768206477165222, -0.43067699670791626, 0.36945289373397827], [-0.2534536123275757, -0.33888477087020874, 0.08450150489807129, -0.20118045806884766], [0.2711021304130554, 0.24936234951019287, 0.1880468726158142, 0.3769466280937195], [-0.25452518463134766, 0.4647584557533264, 0.4360277056694031, 0.10527527332305908], [0.42084264755249023, 0.17628443241119385, 0.3238828182220459, -0.2535105347633362], [0.26788491010665894, 0.30391043424606323, -0.44796156883239746, -0.31769752502441406], [-0.216671884059906, 0.32652372121810913, -0.07629668712615967, 0.3855159282684326], [0.14796733856201172, -0.12676894664764404, 0.29025042057037354, 0.33221298456192017], [-0.22022390365600586, -0.2614171504974365, -0.13001352548599243, -0.3876832127571106], [0.0760466456413269, -0.30344271659851074, 0.3885088562965393, -0.3703196048736572], [-0.41956233978271484, 0.49697345495224, 0.3845645785331726, -0.38479578495025635], [-0.48331886529922485, -0.20516854524612427, 0.17280608415603638, 0.19496631622314453], [0.15897279977798462, 0.18807417154312134, 0.33920520544052124, 0.29002201557159424], [0.28504419326782227, -0.3531351089477539, -0.319122850894928, 0.07680517435073853], [-0.09749603271484375, -0.08910703659057617, -0.15835195779800415, 0.39027655124664307], [-0.22472983598709106, -0.480749249458313, -0.2782529592514038, 0.3857860565185547], [-0.3728155493736267, 0.15690934658050537, -0.1132059097290039, -0.04995828866958618], [0.47859954833984375, -0.23806124925613403, 0.4713769555091858, 0.438276469707489], [-0.19494330883026123, -0.39848196506500244, 0.23248600959777832, -0.011578917503356934], [-0.14523345232009888, -0.10028547048568726, -0.482208788394928, 0.477303683757782], [-0.32005780935287476, -0.05857241153717041, -0.3734205365180969, -0.1539468765258789], [-0.1882503628730774, 0.015570342540740967, 0.3818407654762268, 0.1519739031791687], [-0.4385365843772888, -0.4053453803062439, -0.09831738471984863, 0.23982560634613037], [-0.2623918652534485, -0.19786256551742554, 0.2784367799758911, 0.48898524045944214], [-0.2564895749092102, 0.29034292697906494, -0.2615821957588196, 0.19281959533691406], [-0.4327208399772644, 0.4003880023956299, 0.16024565696716309, 0.34251123666763306], [-0.3969345688819885, -0.31680989265441895, 0.4785214066505432, 0.08952909708023071], [-0.414387047290802, -0.3544127941131592, -0.2994190454483032, -0.16749823093414307], [0.3438793420791626, 0.21631121635437012, 0.48935532569885254, -0.04070526361465454], [-0.27179646492004395, -0.3333216905593872, 0.06665939092636108, -0.11334425210952759], [-0.4797058701515198, 0.41329169273376465, -0.0051822662353515625, 0.328525185585022], [-0.41519951820373535, 0.09282541275024414, -0.4573039412498474, 0.26735979318618774], [0.3981260061264038, -0.455880343914032, 0.14313489198684692, 0.3078117370605469], [0.2359633445739746, 0.04069161415100098, 0.4803624153137207, 0.36657434701919556], [-0.47817033529281616, -0.3804513216018677, 0.22625571489334106, -0.2171924114227295], [-0.27177923917770386, 0.3257562518119812, -0.45049017667770386, -0.4512471556663513], [-0.22244638204574585, 0.14211714267730713, 0.10519063472747803, 0.19138813018798828], [-0.2577292323112488, 0.04140639305114746, -0.04337966442108154, 0.011309325695037842], [-0.14897173643112183, -0.10617387294769287, 0.0028540492057800293, 0.14662444591522217], [0.06997263431549072, 0.20620256662368774, -0.24391627311706543, 0.21199947595596313], [0.19143754243850708, 0.2565210461616516, -0.4589592218399048, 0.14958375692367554], [0.3660391569137573, 0.023743629455566406, 0.15124821662902832, -0.1705925464630127], [-0.22499853372573853, -0.34680813550949097, 0.33238208293914795, 0.3246389627456665], [0.17555856704711914, 0.3688478469848633, 0.038519322872161865, 0.3730979561805725], [-0.28499048948287964, 0.19545382261276245, 0.27498728036880493, 0.45876890420913696], [0.36303436756134033, 0.09063440561294556, 0.3289688229560852, -0.10235637426376343], [0.328368604183197, 0.38948535919189453, -0.3266807198524475, 0.16459810733795166], [-0.1358705759048462, 0.10053592920303345, 0.2935100197792053, -0.0947691798210144], [0.18529999256134033, 0.457786500453949, 0.4822472333908081, -0.2944812774658203], [0.22157883644104004, 0.29109179973602295, -0.28257179260253906, 0.4030918478965759], [0.25637418031692505, -0.49190282821655273, 0.3547635078430176, 0.13617467880249023], [0.051998257637023926, -0.4445819854736328, 0.25671952962875366, -0.35643601417541504], [-0.21555644273757935, 0.2215312123298645, 0.05100184679031372, 0.0027785897254943848], [-0.4324381947517395, 0.23421555757522583, 0.07506078481674194, -0.37274736166000366], [0.2559601068496704, -0.014636814594268799, 0.12086260318756104, 0.14518707990646362], [0.25093019008636475, -0.04606896638870239, 0.0037568211555480957, 0.45824766159057617], [-0.4358448386192322, -0.34352588653564453, -0.14117926359176636, 0.062375009059906006], [0.28790849447250366, 0.2976253032684326, -0.4410333037376404, 0.19636958837509155], [-0.35360342264175415, -0.2131783366203308, -0.014661669731140137, -0.3181611895561218], [-0.2407318353652954, 0.2841572165489197, 0.21667146682739258, 0.49546682834625244], [0.03330719470977783, 0.4596126079559326, 0.36901170015335083, 0.19700849056243896], [0.2865663766860962, 0.28720229864120483, 0.06173449754714966, -0.3228631615638733], [0.23633700609207153, -0.15871477127075195, -0.44397419691085815, -0.2423386573791504], [0.48201680183410645, 0.29199814796447754, -0.19661587476730347, 0.12327784299850464], [0.2704034447669983, 0.20220690965652466, -0.37460511922836304, 0.08854246139526367], [-0.039337992668151855, -0.0077498555183410645, 0.3951186537742615, 0.26286059617996216], [-0.34580326080322266, 0.16926610469818115, 0.0988239049911499, 0.03666400909423828], [-0.22864437103271484, -0.39814597368240356, -0.2904866337776184, 0.04399937391281128], [0.023014724254608154, -0.12636291980743408, -0.2636430263519287, 0.47214221954345703], [-0.3438171148300171, -0.14902430772781372, 0.056942105293273926, 0.16095978021621704], [0.19855231046676636, 0.21200591325759888, -0.4352928400039673, 0.446780264377594], [0.42622506618499756, -0.3016121983528137, -0.18952226638793945, -0.28913766145706177], [0.11054891347885132, -0.4973563551902771, 0.4131322503089905, 0.1534503698348999], [0.2755303978919983, -0.208459734916687, -0.010496079921722412, -0.3150899410247803], [-0.24345117807388306, -0.2865450978279114, -0.4604078531265259, 0.15672892332077026], [0.32554131746292114, 0.25162434577941895, -0.12563341856002808, 0.4577525854110718], [0.37617093324661255, 0.20648860931396484, -0.16593611240386963, 0.030403316020965576], [-0.2717095613479614, 0.1347319483757019, 0.3022121787071228, 0.3808096647262573], [-0.3421064019203186, 0.1251986026763916, 0.45296525955200195, -0.2601052522659302], [0.31490087509155273, -0.47859710454940796, 0.1881694793701172, -0.4021261930465698], [0.01267862319946289, 0.053684234619140625, 0.1154974102973938, -0.4566143751144409], [-0.20945709943771362, -0.44347691535949707, -0.4192656874656677, -0.49636948108673096], [0.39533090591430664, -0.06734824180603027, -0.015399336814880371, -0.48623961210250854], [-0.3671782612800598, 0.4894742965698242, 0.2445177435874939, 0.25163066387176514], [-0.27956652641296387, -0.4011746048927307, 0.16512274742126465, 0.359844446182251], [-0.25853240489959717, 0.02066284418106079, -0.008268892765045166, 0.3533889651298523], [-0.3044849634170532, 0.28442299365997314, -0.33338671922683716, 0.47408974170684814], [-0.18466037511825562, -0.06390154361724854, -0.39915674924850464, 0.33091115951538086], [0.36921370029449463, 0.4305805563926697, 0.4366809129714966, -0.34646040201187134], [0.43937164545059204, 0.3976896405220032, 0.001576244831085205, -0.013897180557250977], [0.008591055870056152, 0.3721187114715576, 0.2557733654975891, -0.07732284069061279], [-0.22085243463516235, -0.30873215198516846, 0.026569843292236328, 0.23361098766326904], [0.06424808502197266, 0.35045820474624634, -0.03192615509033203, -0.2963829040527344], [0.003188192844390869, 0.295915424823761, -0.47333163022994995, -0.36172306537628174], [-0.3883770704269409, 0.4107193946838379, -0.2612890601158142, -0.0931972861289978], [0.05458587408065796, -0.4058794379234314, -0.21997565031051636, 0.09839510917663574], [-0.29956042766571045, 0.32861441373825073, 0.20282018184661865, 0.4508659839630127]], "SEQL.0.bias": [-0.3956489562988281, 0.12940877676010132, 0.15682220458984375, -0.03581058979034424, 0.05266451835632324, 0.1320834755897522, 0.0015850663185119629, -0.3999038338661194, 0.33199000358581543, 0.450084924697876, -0.01866459846496582, 0.10190373659133911, 0.15793323516845703, 0.33453696966171265, -0.4518529772758484, -0.010374844074249268, -0.3923593759536743, 0.48321735858917236, -0.14275211095809937, -0.3260294795036316, -0.425456166267395, 0.35284245014190674, -0.4613720178604126, 0.36889660358428955, -0.27965182065963745, 0.11661797761917114, -0.1448366641998291, 0.40079402923583984, -0.03655034303665161, 0.42252469062805176, 0.1879359483718872, 0.2608641982078552, 0.2958696484565735, -0.32571661472320557, 0.09814077615737915, 0.04583674669265747, 0.1866157054901123, 0.33595913648605347, -0.2329777479171753, 0.20500093698501587, -0.2925459146499634, -0.12364929914474487, -0.3802036643028259, -0.2976059913635254, -0.17692315578460693, -0.34532302618026733, -0.2604876160621643, 0.0032886862754821777, 0.07967144250869751, -0.16506898403167725, -0.18280857801437378, -0.04987072944641113, -0.12227672338485718, 0.03135102987289429, -0.1005181074142456, -0.3794281482696533, 0.44379472732543945, -0.2619097828865051, -0.16075634956359863, -0.19061440229415894, -0.44549089670181274, -0.052718520164489746, -0.17201411724090576, 0.12964200973510742, -0.03968536853790283, 0.20839649438858032, 0.09369033575057983, -0.3670806884765625, -0.3207281231880188, 0.04171103239059448, -0.45766812562942505, -0.39928746223449707, 0.09290409088134766, 0.13141155242919922, 0.10645586252212524, 0.26014477014541626, -0.2880988121032715, -0.2683139443397522, -0.37092578411102295, -0.3977811932563782, -0.11095225811004639, -0.06545060873031616, -0.3412306308746338, -0.26804935932159424, -0.25092822313308716, -0.18761807680130005, -0.45357340574264526, 0.3636760115623474, -0.395439088344574, -0.35022467374801636, -0.28247934579849243, -0.26967406272888184, -0.24414807558059692, -0.09430915117263794, -0.3539915680885315, -0.12677502632141113, -0.4533701539039612, -0.24241971969604492, -0.22955840826034546, 0.4712825417518616, -0.454431414604187, -0.3800114393234253, 0.14203041791915894, 0.4571504592895508, 0.20165669918060303, -0.08452188968658447, 0.3343873620033264, -0.07589465379714966, -0.004234790802001953, -0.4701824188232422, 0.32200103998184204, -0.10644173622131348, -0.26623648405075073, -0.16755187511444092, -0.4595140814781189, -0.19350773096084595, -0.36392050981521606, -0.45746058225631714, 0.21925896406173706, 0.10438477993011475, 0.30167514085769653, -0.2596033215522766, 0.17770230770111084, -0.47237199544906616, 0.06509155035018921, 0.0693402886390686, 0.25246816873550415, 0.04557877779006958], "SEQL.2.weight": [[-0.05715324357151985, 0.05422712117433548, 0.06944713741540909, -0.08095967769622803, -0.032811764627695084, 0.05127773433923721, 0.026437222957611084, -0.0655413269996643, 0.0765112116932869, -0.04504147171974182, -0.03156926482915878, 0.01630496233701706, 0.05699137598276138, -0.05193513631820679, 0.06194344907999039, -0.01568123698234558, -0.04991396516561508, 0.025676600635051727, -0.07765143364667892, -0.018605872988700867, -0.044930700212717056, -0.016719013452529907, -0.0738527849316597, 0.015557557344436646, 0.0792246088385582, -0.08637683838605881, -0.05655774101614952, 0.06856013089418411, -0.014242283999919891, -0.04018509015440941, 0.07113762944936752, -0.042117103934288025, 0.07578931003808975, 0.07994497567415237, -0.07619218528270721, -0.06991806626319885, 0.05733568221330643, 0.053623683750629425, 0.010052517056465149, -0.05750048905611038, 0.07018519192934036, 0.021836861968040466, -0.04933393746614456, -0.016093440353870392, -0.014854833483695984, 0.046934209764003754, 0.04090917855501175, 0.04725833982229233, -0.0865686908364296, -0.0022426247596740723, -0.07686193287372589, 0.0008992776274681091, 0.08012346178293228, 0.03851316124200821, 0.009858906269073486, -0.08674323558807373, 0.05012669414281845, 0.05446993559598923, 0.026120305061340332, 0.025365270674228668, 0.05611572414636612, -0.0681610181927681, 0.013854950666427612, -0.006743907928466797, 0.06469165533781052, 0.0826488509774208, -0.020561516284942627, 0.006897754967212677, -0.061197906732559204, -0.0659395232796669, -0.08631816506385803, -0.012625917792320251, 0.048693425953388214, 0.053310416638851166, -0.010579034686088562, 0.03695858269929886, -0.07750874757766724, 0.0766950324177742, -0.03621911630034447, -0.06393318623304367, -0.04949389770627022, -0.009814202785491943, -0.008025109767913818, -0.03857037052512169, -0.0422794409096241, -0.0571758896112442, 0.06670699268579483, 0.07103613764047623, 0.02278277277946472, -0.08304338902235031, 0.039463214576244354, -0.011728562414646149, 0.0738786980509758, 0.07653944939374924, 0.0757594183087349, 0.08334339410066605, 0.07053092867136002, 0.08410390466451645, 0.03419942408800125, 0.016433939337730408, -0.01893024891614914, -0.07799887657165527, 0.05061005800962448, -0.068346306681633, -0.07664404064416885, -0.07399337738752365, 0.07165183871984482, -0.008974835276603699, 0.05316842347383499, -0.06195077672600746, -0.01863090693950653, 0.03392598778009415, -0.06262142956256866, -0.030928336083889008, -0.05189161002635956, 0.02996736764907837, -0.06244763731956482, -0.024125143885612488, 0.026766978204250336, 0.047455795109272, 0.030548594892024994, 0.05362025648355484, -0.06871546059846878, 0.02053838223218918, -0.04354752600193024, 0.03178828954696655, 0.07806781679391861, 0.07410385459661484], [-0.08635620772838593, -0.016507089138031006, -0.0678456649184227, -0.05493054538965225, -0.0629727840423584, -0.08803892880678177, 0.07166115194559097, 0.067113496363163, 0.08481701463460922, -0.05604800581932068, -0.019585706293582916, -0.08465094119310379, 0.03399764001369476, 0.001665756106376648, -0.0505121648311615, 0.0827733501791954, -0.04464082419872284, 0.06848227232694626, 0.027117155492305756, -0.05202486738562584, -0.08014686405658722, -0.007046952843666077, -0.00029149651527404785, 0.01685289293527603, 0.022072069346904755, -0.028380677103996277, -0.008847035467624664, -0.00811903178691864, -0.005694389343261719, -0.019052058458328247, -0.06764070689678192, 0.02202431857585907, 0.07480745762586594, -0.0013625472784042358, 0.0856766626238823, -0.026082396507263184, 0.056848011910915375, 0.08530066162347794, 0.022013865411281586, 0.07974950224161148, -0.03856431320309639, 0.0206005796790123, 0.04654022306203842, -0.07768163084983826, 0.07769832760095596, 0.005121126770973206, 0.04070094972848892, 0.008204653859138489, 0.05427240580320358, 0.022203050553798676, 0.011650137603282928, -0.008855566382408142, 0.08304957300424576, 0.03781784325838089, 0.01716906577348709, 0.04118248075246811, 0.05845313519239426, -0.013201750814914703, 0.0210890993475914, 0.07074881345033646, -0.03491610288619995, -0.04249854385852814, 0.049624793231487274, -0.037949949502944946, -0.03182194381952286, 0.07208461314439774, -0.0022511333227157593, 0.0550997331738472, 0.03383980691432953, -0.039403658360242844, 0.027832776308059692, 0.03961586207151413, 0.05088665336370468, -0.07300146669149399, -0.06416063010692596, 0.002492271363735199, 0.02435978502035141, -0.034437503665685654, 0.03917045146226883, 0.06657692044973373, -0.026037227362394333, -0.041746728122234344, -0.04837160184979439, 0.016019374132156372, 0.023123234510421753, -0.08144315332174301, -0.06519688665866852, 0.044807709753513336, -0.06689204275608063, 0.06920748203992844, -0.031557485461235046, -0.0591224804520607, -0.009935937821865082, 0.025951087474822998, 0.060523711144924164, 0.06463275104761124, -0.08136916905641556, -0.023222923278808594, 0.06754913181066513, 0.0824485793709755, 0.058373577892780304, 0.03220749646425247, -0.06320031732320786, 0.06943497806787491, 0.029560916125774384, -0.011982433497905731, -0.014189422130584717, -0.025593914091587067, 0.06074614077806473, 0.02578594535589218, 0.01976088434457779, -0.0360410138964653, -0.07784149795770645, -0.015358798205852509, 0.05436929315328598, -0.08234699815511703, -0.06884582340717316, 0.03957437723875046, -0.07024811208248138, 0.07297835499048233, -0.010053001344203949, 0.07158859819173813, -0.026708487421274185, 0.07544436305761337, 0.03677342087030411, 0.08072052150964737, 0.0415407195687294, -0.054981183260679245], [-0.027740761637687683, -0.08394252508878708, 0.04959716647863388, -0.07502514868974686, -0.05674330145120621, -0.05828758329153061, 0.02672063559293747, -0.008947893977165222, 0.038155220448970795, 0.029566995799541473, -0.04040380194783211, -0.053212303668260574, -0.020878463983535767, -0.05609581992030144, 0.05067772418260574, 0.04187025874853134, 0.021214038133621216, -0.012945301830768585, -0.014922700822353363, -0.011477470397949219, -0.027569454163312912, 0.003914937376976013, 0.005586214363574982, -0.01137775182723999, 0.012326426804065704, 0.07301387935876846, -0.06000944972038269, 0.069792740046978, 0.04755469411611557, 0.07103367894887924, -0.008781716227531433, -0.08017633855342865, -0.030673831701278687, 0.08286421746015549, 0.06868389993906021, -0.001607462763786316, 0.008161865174770355, 0.04619143158197403, -0.027012798935174942, -0.08528535068035126, -0.06965113431215286, 0.011535599827766418, 0.08107107132673264, -0.06667620688676834, -0.016339100897312164, -0.06957082450389862, -0.08753930777311325, 0.031798556447029114, 0.01881953328847885, 0.06867187470197678, 0.03171879053115845, -0.015283659100532532, -0.018643036484718323, 0.08557944744825363, 0.039087437093257904, 0.028660140931606293, -0.03711322695016861, -0.010268792510032654, 0.05774059146642685, 0.010611504316329956, -0.06504108011722565, -0.0823226049542427, -0.08509742468595505, 0.0074125975370407104, -0.019883953034877777, -0.026326332241296768, -0.039137888699769974, 0.07808759063482285, 0.053315915167331696, -0.02642126753926277, -0.08748699724674225, -0.016418389976024628, 0.05280794948339462, -0.08713816851377487, -0.0175209641456604, 0.002581782639026642, 0.05624403804540634, 0.02624092996120453, -0.05907604843378067, 0.017422854900360107, -0.04776281118392944, 0.03551503270864487, -0.07716362923383713, -0.00041028112173080444, 0.0327354371547699, 0.016287051141262054, -0.006300128996372223, 0.08016353100538254, -0.07055307924747467, 0.056393541395664215, -0.057503841817379, 0.06196051090955734, 0.015652209520339966, 0.025796517729759216, 0.019804969429969788, 0.03296394646167755, 0.08540109544992447, -0.028738439083099365, -0.002010636031627655, 0.02558383345603943, -0.012943804264068604, -0.001459650695323944, -0.05886337161064148, -0.05745679512619972, -0.06977015733718872, 0.023818261921405792, -0.051227934658527374, -0.08573148399591446, -0.00640474259853363, 0.06322819739580154, -0.004673264920711517, -0.040474146604537964, -0.07049441337585449, -0.046213533729314804, -0.0627155750989914, 0.011727578938007355, -0.0677386224269867, -0.012128859758377075, 0.04003378003835678, -0.04634067043662071, 0.08456685394048691, 0.04311028867959976, -0.042805369943380356, 0.01596131920814514, -0.014625690877437592, 0.02569146454334259, 0.07949969917535782, -0.05502533167600632], [0.07575150579214096, 0.06861024349927902, -0.06417641043663025, 0.05491446703672409, 0.0421508327126503, -0.06878503412008286, -0.050039131194353104, 0.027845926582813263, 0.026272118091583252, -0.037136029452085495, 0.03244835138320923, -0.057764530181884766, 0.02751508355140686, 0.05792630463838577, -0.08648234605789185, -0.05118558555841446, -0.04527822136878967, -0.0340530090034008, 0.060415320098400116, 0.03643425554037094, -0.036208853125572205, -0.05037360638380051, -0.046134866774082184, 0.0057700276374816895, 0.07343264669179916, -0.04066110774874687, 0.03504571318626404, 0.03875622898340225, -0.07617572695016861, -0.006681174039840698, -0.038584668189287186, -0.00676552951335907, 0.0686245784163475, -0.05820445716381073, 0.06822631508111954, -0.018341630697250366, -0.07264935225248337, -0.06771757453680038, 0.0700114294886589, 0.04431336373090744, 0.08532486110925674, 0.046278215944767, 0.022877268493175507, -0.07322175055742264, -0.07938366383314133, -0.05272828787565231, -0.08700462430715561, 0.06967592984437943, 0.03346738964319229, -0.08403081446886063, -0.07974889874458313, -0.06548786908388138, 0.008348815143108368, -0.05168130621314049, 0.0016136467456817627, -0.01233632117509842, -0.07563658803701401, 0.0724441185593605, 0.0635761246085167, -0.022534795105457306, 0.07638811320066452, 0.06638029962778091, -0.0715785101056099, 0.07163204997777939, 0.0878390297293663, 0.05432622879743576, -0.08587352931499481, 0.06700921803712845, -0.07327613234519958, 0.06701699644327164, -0.05039709433913231, -0.02054523676633835, -0.04838484525680542, -0.033847447484731674, 0.009573690593242645, -0.02250196784734726, 0.039457641541957855, -0.07508962601423264, 0.013818696141242981, -0.05022558569908142, 0.046370990574359894, 0.04558097571134567, -0.060425154864788055, 0.03682217746973038, 0.07751303166151047, 0.014817669987678528, 0.006515219807624817, -0.013360604643821716, -0.014263957738876343, -0.017523102462291718, 0.008629798889160156, 0.030605673789978027, 0.08164434880018234, 0.05962448567152023, 0.06502927094697952, 0.05753716081380844, 0.06073332577943802, 0.03335457295179367, 0.06303193420171738, -0.04348145052790642, 0.022944673895835876, 0.011285364627838135, -0.03264337778091431, 0.04695083945989609, -0.015810959041118622, -0.05936525762081146, 0.048098452389240265, 0.053521864116191864, 0.015532881021499634, -0.004583209753036499, -0.04105226323008537, -0.07880416512489319, 0.02164008468389511, 0.07920994609594345, -0.029207292944192886, -0.05192654952406883, -0.07849586009979248, -0.07757264375686646, 0.07442741841077805, 0.008251331746578217, 0.04435581713914871, -0.03755134344100952, -0.025531411170959473, -0.07621833682060242, 0.05446486920118332, 0.04997503012418747, -0.003683045506477356, -0.018371060490608215], [0.009863890707492828, -0.0868462547659874, 0.05164460092782974, -0.06610846519470215, 0.03326251357793808, -0.02280709147453308, 0.03318021446466446, 0.04701083153486252, -0.007966175675392151, 0.042539484798908234, 0.057030148804187775, 0.08652444928884506, -0.05930599942803383, 0.05692621320486069, -0.05730149522423744, -0.03385543450713158, 0.03291068971157074, 0.007678426802158356, 0.014473892748355865, -0.04816678911447525, 0.05719130486249924, -0.03342530503869057, 0.001010008156299591, 0.03595196455717087, -0.0021534860134124756, 0.0491010919213295, 0.024075224995613098, -0.07977770268917084, 0.07794743031263351, -0.02966167777776718, 0.020799435675144196, -0.006240926682949066, 0.05178544670343399, 0.028961576521396637, -0.051573652774095535, 0.06862323731184006, 0.039299361407756805, -0.0691487118601799, -0.0818113312125206, 0.04220148175954819, -0.02936800941824913, -0.04692837595939636, 0.032688118517398834, -0.03009331226348877, -0.010738641023635864, -0.05520511046051979, -0.004925832152366638, 0.010718680918216705, 0.06336601823568344, 0.015100277960300446, -0.08255182951688766, -0.07448211312294006, -0.023681335151195526, -0.07668913155794144, -0.05415751785039902, 0.06522276252508163, -0.006336338818073273, -0.0025363266468048096, -0.07219896465539932, 0.030164256691932678, 0.048639871180057526, -0.03422290459275246, -0.02600441500544548, -0.029702559113502502, -0.024371415376663208, 0.060485370457172394, 0.0013013184070587158, 0.05037353187799454, 0.07213298231363297, 0.0069444626569747925, -0.03019026294350624, -0.054218169301748276, 0.07347375899553299, 0.06158686429262161, 0.06370089203119278, -0.01400764286518097, -0.0410897321999073, 0.061877526342868805, -0.0003406926989555359, -0.0055946484208106995, 0.05565059930086136, -0.03855046629905701, -0.03833072632551193, -0.07458916306495667, -0.07673737406730652, -0.05049008131027222, -0.012049980461597443, -0.057808056473731995, -0.019564621150493622, -0.030486710369586945, 0.007603287696838379, 0.008103340864181519, -0.07032930850982666, -0.04716932773590088, 0.03739967197179794, -0.05319012328982353, -0.013442568480968475, -0.05236342176795006, -0.05530489236116409, 0.03670612722635269, -0.05285032466053963, -0.026082701981067657, -0.0616527795791626, 0.011657163500785828, -0.07627727836370468, 0.05366487056016922, 0.0030846744775772095, -0.0770721584558487, -0.0595024973154068, 0.05889851599931717, 0.04216710478067398, 0.03591248393058777, 0.003810591995716095, -0.011581182479858398, -0.0517796166241169, 0.0646863654255867, -0.08024560660123825, 0.08570138365030289, -0.08491640537977219, -0.04763740301132202, -0.05733686685562134, 0.06098758429288864, 0.026870764791965485, 0.0738532766699791, 0.002197049558162689, 0.04402568191289902, 0.0572592094540596, 0.03165476769208908], [-0.02042301744222641, 0.02513088285923004, 0.03831254690885544, -0.043312620371580124, 0.014618605375289917, -0.04140518978238106, 0.04826349765062332, -0.009059488773345947, -0.08245471119880676, 0.033600933849811554, -0.029036566615104675, 0.05027005821466446, -0.06287787854671478, -0.0678790956735611, 0.04875204712152481, 0.006561554968357086, 0.006617613136768341, 0.00646885484457016, 0.039363615214824677, 0.003300383687019348, 0.03216245025396347, -0.024237893521785736, -0.07817788422107697, 0.005764633417129517, -0.015981502830982208, 0.07436671108007431, 0.03145771473646164, -0.044367965310811996, -0.026317976415157318, -0.007293298840522766, 0.014708377420902252, 0.06880862265825272, -0.049195170402526855, 0.0033485591411590576, -0.04242946207523346, 0.04531795531511307, -0.049282025545835495, -0.07221423089504242, -0.07886374741792679, 0.048628829419612885, 0.01676478236913681, -0.0033319219946861267, 0.07056806236505508, 0.04233751446008682, 0.013718359172344208, 0.026701100170612335, -0.029570501297712326, 0.07269641011953354, -0.05034102872014046, 0.04568351060152054, 0.018228575587272644, 0.044073186814785004, -0.08211549371480942, 0.005101926624774933, -0.015429191291332245, 0.02015455812215805, -0.07398465275764465, 0.08788471668958664, -0.074936144053936, 0.059728123247623444, -0.0830124020576477, 0.03751011937856674, -0.07556644082069397, -0.02320433408021927, -0.045746102929115295, 0.030274078249931335, -0.012445785105228424, -0.032366324216127396, 0.0018951520323753357, -0.04461235553026199, 0.07368586212396622, -0.03179218992590904, -0.002001836895942688, 0.01974380761384964, -0.007752962410449982, -0.005606353282928467, 0.05976700037717819, 0.029776982963085175, 0.026974625885486603, -0.07090206444263458, -0.012238092720508575, 0.023434266448020935, -0.019312813878059387, 0.0022998154163360596, -0.003486230969429016, 0.022612005472183228, 0.03525691479444504, -0.05799558013677597, 0.03061617910861969, 0.007206782698631287, 0.01853003352880478, -0.00028843432664871216, -0.05698275938630104, -0.05123274773359299, 0.0629839077591896, 0.03998508304357529, -0.05984049290418625, -0.003923080861568451, 0.030009955167770386, -0.07131406664848328, 0.06808691471815109, -0.0300559401512146, -0.0051460787653923035, 0.008736155927181244, 0.030331946909427643, -0.007490970194339752, 0.05560200661420822, 0.009701728820800781, 0.02500804513692856, -0.051050085574388504, 0.08651155978441238, -0.026499629020690918, 0.04613512009382248, -0.03317660838365555, 0.04295865446329117, 0.016314677894115448, 0.05626579374074936, 0.06609833985567093, 0.004987291991710663, 0.011652201414108276, 0.0072053223848342896, -0.02859499305486679, -0.029098227620124817, -0.04811808839440346, 0.06884964555501938, 0.04805812984704971, -0.00012686103582382202, -0.041604798287153244], [0.025159157812595367, 0.08344952017068863, -0.06509636342525482, -0.05616061016917229, 0.012419350445270538, -0.054417893290519714, 0.04893367737531662, 0.055293045938014984, -0.055397678166627884, -0.05488508939743042, -0.07398447394371033, 0.02959582954645157, -0.08699674159288406, 0.06021202355623245, 0.02072443813085556, -0.012324683368206024, 0.00740998238325119, 0.07495694607496262, -0.03297797963023186, 0.00690566748380661, -0.05453522875905037, 0.051190830767154694, 0.08768876641988754, -0.06726191937923431, 0.026121139526367188, -0.05073436349630356, -0.0005529448390007019, 0.07285501807928085, 0.04977279156446457, 0.06927401572465897, -0.048140257596969604, 0.01909354329109192, -0.05099618807435036, 0.06062547117471695, 0.01856376975774765, 0.06542376428842545, -0.036748941987752914, -0.07743428647518158, 0.07506982237100601, 0.04197435826063156, -0.07784605026245117, 0.0522528812289238, 0.028854764997959137, 0.06255557388067245, -0.07084241509437561, 0.013761796057224274, -0.056050609797239304, 0.007192716002464294, 0.05779726058244705, -0.08474902808666229, -0.06309397518634796, 0.0824008509516716, -0.057493336498737335, 0.06905490905046463, 0.014884516596794128, 0.05589478462934494, -0.0025932416319847107, -0.07683978974819183, 0.050263725221157074, 0.006853923201560974, 0.011937044560909271, -0.06602197140455246, -0.08525921404361725, 0.08128678053617477, 0.06957662850618362, -0.010886698961257935, 0.013665169477462769, -0.0627933219075203, -0.08130934089422226, 0.059227727353572845, 0.0802261009812355, -0.061682332307100296, -0.07858746498823166, -0.07293849438428879, 0.040375180542469025, -0.08449408411979675, -0.0768805518746376, 0.06948254257440567, 0.04376884549856186, 0.04857475310564041, 0.05673346668481827, 0.08209032565355301, -0.06090724468231201, -0.06296475231647491, 0.07919637113809586, 0.05952737480401993, -0.0407431460916996, -0.04809955134987831, -0.07693682610988617, 0.03998164087533951, -0.017562709748744965, 0.008638039231300354, -0.04499583691358566, -0.06906060129404068, -0.007343500852584839, -0.06532825529575348, -0.0727517157793045, 0.04394982010126114, -0.07704391330480576, 0.02906862646341324, 0.016246482729911804, -0.08721151202917099, 0.017385996878147125, 0.08364682644605637, 0.05747088044881821, 0.007569856941699982, -0.06972566246986389, -0.005726352334022522, -0.06735573709011078, -0.05484498664736748, 0.06950663775205612, -0.07367514818906784, 0.029557891190052032, -0.008929617702960968, 0.04921657592058182, -0.02661830559372902, -0.07328061759471893, -0.03824062645435333, 0.010052315890789032, -0.006919972598552704, 0.0681113675236702, 0.07839425653219223, 0.08712185174226761, -0.06029526889324188, 0.06450109928846359, 0.06990952044725418, 0.06614869087934494, -2.8058886528015137e-05], [-0.00978134572505951, -0.0686768963932991, 0.020152397453784943, -0.05433233454823494, -0.024984724819660187, 0.008570753037929535, -0.04593578726053238, -0.05411607772111893, 0.06059601157903671, -0.0651320070028305, 0.037836410105228424, -0.08197161555290222, 0.0037222951650619507, -0.023857973515987396, -0.060212019830942154, -0.0552237294614315, 0.02857055515050888, 0.03597630560398102, 0.058680810034275055, 0.01819606125354767, -0.0506056472659111, 0.047254420816898346, -0.01705777645111084, 0.03099542111158371, 0.05129881948232651, 0.01210714876651764, -0.08000903576612473, -0.012437447905540466, -0.04904225096106529, 0.04546446353197098, 0.021593928337097168, 0.010723978281021118, 0.033799611032009125, -0.05268660560250282, 0.005474857985973358, -0.008700564503669739, -0.039613571017980576, -0.07231922447681427, -0.05628721043467522, -0.0704038143157959, -0.013379991054534912, -0.06748754531145096, -0.08449412137269974, 0.024776138365268707, -0.005580686032772064, 0.06723444908857346, 0.02341393381357193, 0.07542895525693893, -0.051790982484817505, -0.07771619409322739, -0.05874013528227806, 0.005628772079944611, -0.03474731370806694, -0.03105778992176056, -0.004633709788322449, -0.031686726957559586, 0.05831105262041092, 0.06851712614297867, 0.022094018757343292, 0.05135834962129593, -0.04283316805958748, 0.0610332265496254, -0.06770232319831848, -0.04764203727245331, 0.014094136655330658, 0.057678140699863434, -0.06243700534105301, -0.03148522228002548, 0.05257105082273483, -0.03700194135308266, -0.07371122390031815, -0.0013083666563034058, 0.028077811002731323, 0.0341908261179924, -0.0640205591917038, -0.0009195506572723389, 0.05083451420068741, -0.012725494801998138, 0.015916623175144196, -0.028312459588050842, -0.04383843392133713, 0.07246356457471848, -0.026903532445430756, -0.06632208079099655, -0.03244326263666153, -0.03511860966682434, -0.0643610805273056, 0.08173859864473343, 0.0579388365149498, 0.02906576544046402, -0.0769183561205864, 0.050419799983501434, 0.048083506524562836, -0.041033148765563965, 0.04698392003774643, 0.04595344513654709, 0.05592850595712662, 0.0417996421456337, -0.06659961491823196, -0.011485561728477478, -0.0377953015267849, 0.008161976933479309, 0.078348807990551, -0.05350922793149948, 0.015528596937656403, 0.015831053256988525, 0.02314198762178421, -0.0700642466545105, 0.08809904009103775, -0.06491713225841522, 0.06315424293279648, -0.0818232074379921, 0.062410540878772736, 0.04250685125589371, 0.0063018798828125, 0.06003803759813309, -0.05844021588563919, -0.016858041286468506, 0.006660580635070801, -0.01972254365682602, -0.038820840418338776, -0.03621968254446983, -0.025248080492019653, 0.023803651332855225, 0.01822664588689804, -0.04993874579668045, 0.010511189699172974, 0.021062500774860382], [-0.08271649479866028, 0.06309971958398819, 0.03429010510444641, 0.08443712443113327, 0.07176432758569717, -0.01834966242313385, 0.05520830303430557, -0.0563313364982605, -0.0054560452699661255, 0.08191374689340591, 0.019376002252101898, -0.01134442538022995, -0.06387254595756531, -0.009347915649414062, -0.026266422122716904, -0.05505829304456711, 0.07629888504743576, -0.03735041990876198, 0.010228946805000305, 0.08576304465532303, 0.03946978598833084, -0.03949419781565666, -0.08785104751586914, 0.008614659309387207, 0.019912108778953552, 0.05922181159257889, 0.08830011636018753, 0.040612466633319855, -0.029034573584794998, 0.061540015041828156, -0.06465282291173935, -0.012727335095405579, 0.01793474704027176, -0.08638688921928406, -0.04818635433912277, -0.07915708422660828, -0.03149803727865219, 0.06390390545129776, -0.06703362613916397, -0.03414890542626381, 0.060956232249736786, -0.02086697518825531, 0.012655042111873627, -0.0010937601327896118, 0.04259341210126877, 0.03325655311346054, 0.019533053040504456, -0.041708044707775116, 0.019275963306427002, 0.027968302369117737, 0.06812212616205215, -0.02944815158843994, -0.0462791882455349, 0.01457032561302185, 0.03868827968835831, 0.05257687717676163, 0.03094395250082016, 0.03017539530992508, -0.07983262836933136, -0.03502470627427101, -0.05406160280108452, -0.04693654179573059, -0.07277737557888031, 0.008931264281272888, 0.05426061898469925, 0.07248691469430923, 0.033058397471904755, 0.08426568657159805, 0.03462667763233185, 0.048644714057445526, 0.030140072107315063, 0.06159374862909317, 0.015427298843860626, -0.030297547578811646, -0.05124533921480179, -0.0640605017542839, 0.05040503293275833, 0.014943636953830719, -0.06745793670415878, -0.02867034077644348, 0.010149814188480377, 0.08248408883810043, 0.07351004332304001, 0.0839412584900856, 0.024509012699127197, -0.05401044711470604, -0.06429579854011536, 0.04643631726503372, 0.022150099277496338, -0.04210418462753296, -0.017061613500118256, 0.03234544396400452, -0.055543698370456696, -0.048035878688097, -0.07497180998325348, -0.017314262688159943, 0.03826770931482315, 0.06293412297964096, 0.07710353285074234, -0.043184757232666016, -0.07765928655862808, 0.04391395300626755, 0.06334052234888077, 0.014207914471626282, -0.06069192290306091, -0.006219431757926941, 0.08812994509935379, 0.0009543001651763916, 0.023263171315193176, 0.07218968123197556, 0.06255383044481277, 0.0025187358260154724, -0.05002937093377113, 0.008838064968585968, -0.07255516946315765, 0.04476039856672287, 0.05646621435880661, -0.024708040058612823, 0.0007567554712295532, 0.02928880602121353, -0.022413723170757294, -0.03156004473567009, -0.07146850228309631, 0.029594838619232178, 0.02143937349319458, 0.07241111248731613, 0.06988073140382767, 0.06747835129499435], [-0.07026515156030655, -0.069540835916996, 0.007742173969745636, -0.025973837822675705, 0.07455778867006302, -0.021381273865699768, 0.062393806874752045, 0.041868798434734344, -0.0698324590921402, -0.06314418464899063, 0.07277000695466995, -0.04145935922861099, -0.08448047935962677, -0.06253085285425186, -0.07987106591463089, 0.008821375668048859, -0.06922926008701324, -0.05263089761137962, -0.06688177585601807, 0.006498619914054871, 0.04122783988714218, 0.08028227835893631, -0.06643544137477875, -0.017641551792621613, -0.0038110315799713135, 0.011810213327407837, 0.07020314782857895, -0.029174890369176865, 0.08409712463617325, 0.04724293202161789, -0.0824417769908905, 0.0669916495680809, 0.08518733829259872, -0.0871528759598732, 0.01565871387720108, -0.02981945499777794, -0.0076654404401779175, 0.004084348678588867, -0.03477441519498825, -0.04841179773211479, -0.017904624342918396, -0.013950534164905548, 0.04996181279420853, -0.024451754987239838, -0.021466389298439026, -0.05563585087656975, 0.04972871392965317, -0.06306181848049164, 0.039251916110515594, 0.01313822716474533, 0.05832336097955704, -0.0031923726201057434, -0.005663774907588959, -0.05390895903110504, -0.059777192771434784, -0.043916404247283936, -0.03558314964175224, 0.05329296737909317, -0.024544447660446167, 0.019788600504398346, 0.0032009780406951904, 0.03993340581655502, -0.02060885727405548, -0.023566775023937225, -0.0016197338700294495, -0.0032897740602493286, -0.018554024398326874, 0.007609106600284576, 0.0830235704779625, 0.07868317514657974, 0.0026014819741249084, -0.08803180605173111, 0.009462505578994751, -0.015820421278476715, 0.060218386352062225, 0.06591073423624039, -0.04877455532550812, 0.02419418841600418, 0.0385359451174736, 0.02100732922554016, -0.04292567819356918, -0.005153864622116089, -0.050858043134212494, -0.012354135513305664, -0.01881776750087738, -0.04482554271817207, -0.004038982093334198, -0.07246146351099014, -0.03430864214897156, -0.05515575781464577, 0.06516879051923752, 0.017467647790908813, -0.00044190138578414917, -0.07283900678157806, 0.06843646615743637, -0.030859794467687607, -0.0397215373814106, -0.01926330476999283, 0.03422602266073227, 0.08770789951086044, 0.03671332448720932, -0.07347991317510605, 0.032142527401447296, 0.004949413239955902, 0.06930417567491531, -0.04715447127819061, -0.03764836862683296, -0.00423295795917511, -0.02731916680932045, -0.05968821048736572, -0.007031239569187164, 0.008811980485916138, -0.029581040143966675, -0.07764570415019989, -0.04477524012327194, 0.0212901309132576, -0.011673063039779663, -0.03490668162703514, -0.07403190433979034, -0.0834416002035141, -0.02243059128522873, 0.01572442799806595, -0.008707791566848755, -0.034728001803159714, -0.08032995462417603, -0.040843665599823, -0.07139980792999268, -0.012098841369152069], [0.03388505429029465, -0.040755800902843475, 0.05135127156972885, -0.00791274756193161, 0.08280680328607559, 0.0870724692940712, 0.026451654732227325, 0.08656374365091324, -0.08242889493703842, 0.04782711714506149, -0.012239687144756317, -0.011124841868877411, 0.04597900062799454, 0.050350822508335114, 0.04117458313703537, 0.020598657429218292, -0.08625082671642303, -0.022786736488342285, -0.016803167760372162, 0.013397082686424255, 0.02474270761013031, 0.028835847973823547, 0.010244078934192657, 0.06357818096876144, 0.05052677541971207, 0.07002579420804977, 0.033705130219459534, -0.0614323616027832, 0.010840967297554016, 0.04477880150079727, 0.04689956456422806, -0.04798053950071335, 0.03551661968231201, -0.016430474817752838, 0.07516709715127945, -0.06402560323476791, 0.014978885650634766, -0.026718351989984512, -0.06379762291908264, -0.05878962576389313, 0.041035138070583344, 0.06828486174345016, -0.08307604491710663, -0.01819346845149994, 0.00253305584192276, 0.07269448786973953, -0.059811677783727646, -0.0753561481833458, -0.06519363075494766, -0.01341439038515091, 0.047143928706645966, 0.038154833018779755, -0.048135071992874146, 0.007753334939479828, 0.006882473826408386, -0.02240639179944992, 0.05701174587011337, 0.07709427922964096, -0.050851594656705856, 0.021689623594284058, 0.03875014930963516, 0.030572593212127686, -0.08820153027772903, 0.06412417441606522, 0.04347614198923111, -0.04983014613389969, 0.06708324700593948, 0.03586433082818985, 0.01651269942522049, 0.07177893072366714, 0.026690639555454254, -0.042880117893218994, 0.0390658900141716, 0.06185919791460037, 0.005428671836853027, 0.03226194530725479, -0.04495828598737717, -0.0036783367395401, -0.003636673092842102, 0.01889859139919281, 0.07084130495786667, -0.035575006157159805, 0.07099933177232742, -0.05845818296074867, 0.0778924897313118, 0.06259120255708694, -0.0234261155128479, 0.0545625314116478, -0.024154260754585266, 0.04418110102415085, -0.021120451390743256, 0.030831292271614075, -0.05079061910510063, -0.05157780647277832, 0.024018779397010803, -0.041164856404066086, 0.038455717265605927, 0.05643663555383682, 0.021970853209495544, -0.027897421270608902, -0.04034740850329399, 0.05090778321027756, 0.07816373556852341, 0.031862206757068634, 0.08150515705347061, 0.0681312307715416, 0.05225188285112381, 0.03695514053106308, 0.03015819936990738, -0.06481390446424484, -0.008780017495155334, 0.04288773983716965, 0.07052444666624069, -0.00034565478563308716, 0.0022543519735336304, -0.05264810472726822, -0.08688479661941528, -0.030574694275856018, -0.0030379146337509155, -0.011614374816417694, -0.038713205605745316, -0.0009619295597076416, 0.01907387375831604, -0.03790252283215523, 0.0057944655418396, 0.014486029744148254, 0.05538810044527054, -0.05807146430015564], [0.051987163722515106, 0.05452258139848709, -0.08186870068311691, -0.03661682456731796, -0.03396158292889595, -0.08145033568143845, -0.030481506139039993, 0.02662927657365799, 0.08482230454683304, 0.08490701764822006, 0.07614096254110336, -0.04461396485567093, -0.029296938329935074, 0.041067980229854584, 0.05360827594995499, -0.0650167390704155, 0.07068469375371933, -0.08127563446760178, -0.05689835920929909, -0.08644232898950577, -0.031182672828435898, 0.06390499323606491, 0.01841346174478531, 0.07452825456857681, -0.014544427394866943, 0.0882381722331047, -0.02561141550540924, -0.004147343337535858, -0.06081162393093109, -0.019185520708560944, -0.03739657253026962, 0.022059671580791473, 0.062494032084941864, -0.07465822994709015, -0.055047471076250076, -0.019360341131687164, -0.08508599549531937, -0.014633730053901672, -0.013131313025951385, 0.0030021965503692627, 0.04033032804727554, -0.03250180557370186, 0.033259712159633636, 0.04459904879331589, 0.0566120520234108, -0.0816410705447197, -0.07241255044937134, 0.0432383194565773, 0.026378482580184937, 0.0042906999588012695, 0.03963758796453476, -0.02999286726117134, 0.04881013184785843, -0.0321340411901474, -0.0336034819483757, -0.0875127986073494, -0.055989980697631836, -0.03889334201812744, 0.0880366787314415, -0.08795391768217087, -0.031445037573575974, -0.08357797563076019, -0.023420624434947968, -0.0064180269837379456, 0.001061365008354187, -0.0382804237306118, 0.0405648872256279, 0.029273852705955505, -0.07067819684743881, -0.06400354206562042, 0.04889548569917679, -0.04625138267874718, -0.054357293993234634, 0.006095364689826965, 0.030209504067897797, -0.06307864934206009, -0.022242240607738495, 0.07683826237916946, -0.05865110084414482, -0.07495379447937012, 0.025751881301403046, -0.0778995230793953, -0.023349806666374207, -0.07952646911144257, -0.060105156153440475, 0.03774460405111313, -0.07834124565124512, 0.07306855171918869, -0.06201614439487457, 0.008922263979911804, 0.03414472937583923, 0.06961477547883987, -0.04167664796113968, -0.05175429582595825, 0.010062463581562042, 0.03703177720308304, 0.01818278431892395, -0.0023941174149513245, 0.029470637440681458, -0.04334860295057297, -0.055363573133945465, 0.0871630385518074, -0.06025382876396179, -0.06505705416202545, 0.07285407930612564, -0.023760274052619934, 0.028594970703125, -0.03446141257882118, -0.07698798179626465, 0.02600109577178955, -0.0708538144826889, 0.05157477408647537, -0.04919814318418503, -0.07006093859672546, 0.02867768704891205, 0.05503354221582413, -0.08388960361480713, -0.006001181900501251, -0.04845082387328148, 0.04993457347154617, -0.059251461178064346, 0.05975987762212753, 0.029249019920825958, 0.03939671069383621, 0.0241679847240448, 0.01232641190290451, -0.026508335024118423, -0.04998738318681717], [-0.06936147809028625, -0.0823301374912262, -0.052964869886636734, 0.0687679573893547, 0.042430855333805084, 0.008127965033054352, -0.07579480111598969, 0.040140651166439056, 0.02241767942905426, 0.05767259746789932, -0.008237794041633606, -0.06449644267559052, 0.06424585729837418, -0.008613221347332, 0.06962154060602188, -0.07518979907035828, 0.01886162906885147, 0.03565968573093414, -0.018912091851234436, -0.07087963074445724, -0.022499270737171173, -0.04252101853489876, -0.04159333184361458, 0.03840810805559158, -0.003572136163711548, -0.025771260261535645, 0.049619562923908234, 0.02679668366909027, 0.05739925056695938, 0.06449771672487259, -0.07989072799682617, 0.0814194455742836, 0.025480329990386963, -0.014678232371807098, -0.08258312195539474, -0.07500496506690979, -0.049545180052518845, 0.03364754468202591, -0.009743161499500275, -0.00660359114408493, 0.013669058680534363, 0.014767289161682129, -0.02214989811182022, 0.00952225923538208, -0.023626066744327545, 0.075917087495327, -0.004075229167938232, -0.05568697676062584, 0.03197706490755081, -0.029208451509475708, 0.06884806603193283, 0.02684476226568222, -0.048035867512226105, 0.007011637091636658, 0.07426237314939499, 0.05025220662355423, -0.0563972145318985, 0.04863923043012619, -0.05197344720363617, -0.07204899191856384, -0.07447710633277893, 0.05933385342359543, -0.026943456381559372, -0.02778240293264389, 0.0772084966301918, 0.024569250643253326, -0.006256163120269775, -0.022283710539340973, -0.08236606419086456, -0.003463461995124817, 0.03191562741994858, 0.05677119642496109, -0.07229064404964447, 0.03518706560134888, -0.013242252171039581, -0.039339594542980194, -0.03796796500682831, -0.050098028033971786, -0.07702884078025818, -0.05405053868889809, -0.04602429270744324, 0.0640227273106575, -0.043528180569410324, -0.06344632804393768, 0.005712933838367462, 0.06440349668264389, 0.053200505673885345, -0.0003382265567779541, 0.06380028277635574, -0.0806569829583168, -0.06311976164579391, 0.04267660528421402, 0.06115930527448654, 0.06644854694604874, 0.016727760434150696, 0.08597960323095322, -0.030113384127616882, 0.07967425137758255, -0.06633754074573517, -0.0447092279791832, 0.020001113414764404, 0.05368330329656601, 0.030160538852214813, -0.05183831602334976, 0.07808273285627365, 0.08721936494112015, 0.058521516621112823, 0.0026551857590675354, 0.07546419650316238, -0.056504055857658386, -0.0034542158246040344, 0.07083307951688766, -0.033564064651727676, -0.024871885776519775, -0.08468540012836456, -0.06669235974550247, -0.016274087131023407, -0.006380908191204071, 0.011294133961200714, 0.05076930671930313, 0.021089419722557068, 0.02502249926328659, 0.05045732110738754, 0.04010453075170517, 0.08454027026891708, 0.0238441601395607, 0.00028096139430999756, 0.06589055806398392], [-0.028328854590654373, 0.0384741947054863, -0.010366186499595642, -0.08343316614627838, -0.08382575213909149, 0.02495834231376648, -0.013671204447746277, -0.08133663982152939, -0.0711468756198883, 0.015465788543224335, 0.02737990766763687, -0.07131423056125641, -0.013668552041053772, -0.028466548770666122, -0.08120494335889816, 0.06909937411546707, 0.049745433032512665, -0.017950698733329773, 0.06239444762468338, -0.01016072928905487, -0.04880805313587189, 0.08098983019590378, 0.08520100265741348, 0.07207968086004257, 0.08804448693990707, 0.07099782675504684, -0.0696738064289093, 0.07758188992738724, -0.030368342995643616, -0.0233742818236351, -0.08702927082777023, -0.06869999319314957, -0.012508951127529144, 0.02278853952884674, -0.07108629494905472, -0.07350078225135803, -0.007989801466464996, 0.043056048452854156, -0.030505310744047165, 0.06851362437009811, 0.08636859804391861, -0.02920399233698845, -0.04270292446017265, 0.06048426777124405, 0.05897098034620285, -0.00848940759897232, 0.031066209077835083, 0.0780852809548378, 0.015221752226352692, -0.05854935944080353, 0.0692911222577095, 0.08191370218992233, 0.06927093118429184, -0.0580369234085083, -0.06566713750362396, 0.011914074420928955, 0.015589147806167603, -0.07406604290008545, -0.027423951774835587, 0.03187709301710129, 0.07048825174570084, -0.04488520324230194, 0.08424534648656845, 0.06681927293539047, -0.0412321574985981, -0.04595577344298363, -0.044485703110694885, -0.08148442953824997, -0.04433516412973404, -0.02802557870745659, -0.014516502618789673, 0.02108009159564972, -0.007094189524650574, 0.045961685478687286, -0.05481228232383728, 0.05969437211751938, 0.08793530613183975, 0.008457019925117493, 0.052944205701351166, 0.03232238441705704, -0.03822366148233414, -0.053175728768110275, -0.027713626623153687, 0.015247136354446411, -0.024220004677772522, 0.019020788371562958, 0.003918878734111786, -0.005203045904636383, 0.05041157454252243, -0.0855713039636612, 0.039103589951992035, 0.05817846208810806, -0.03059687465429306, -0.043445002287626266, -0.026459526270627975, 0.05086135119199753, 0.02851160615682602, -0.022593267261981964, -0.04692518338561058, 0.006384365260601044, 0.05890917032957077, 0.08088240772485733, -0.06954574584960938, -0.012792892754077911, 0.07468808442354202, -0.06764310598373413, -0.07237371802330017, 0.07956718653440475, -0.018618665635585785, -0.015125840902328491, 0.030778303742408752, 0.0071208178997039795, 0.057254813611507416, -0.001040428876876831, -0.025234036147594452, -0.07232736051082611, 0.05683944374322891, 0.04043438285589218, -0.024817369878292084, -0.00017074495553970337, 0.08652200549840927, -0.08100153505802155, 0.04776123911142349, -0.03466373682022095, -0.07781732827425003, -0.011814363300800323, 0.018013477325439453, 0.03390435874462128], [0.018781088292598724, 0.04976729303598404, 0.07560575753450394, -0.07274757325649261, 0.04662209004163742, -0.010866530239582062, -0.013667032122612, -0.024332717061042786, -0.06877921521663666, -0.001438133418560028, -0.03898397833108902, -0.08428463339805603, -0.08360198140144348, -0.025638319551944733, -0.04572427272796631, 0.07423736900091171, 0.01938772201538086, 0.07239650934934616, 0.08153589814901352, -0.015525832772254944, 0.04846107214689255, 0.04640727490186691, 0.06843157857656479, 0.07247360795736313, -0.0754062756896019, 0.08114682883024216, 0.05024895817041397, 0.043026529252529144, -0.08162059634923935, -0.00014787167310714722, -0.016996003687381744, -0.05916218459606171, -0.07874004542827606, 0.027170799672603607, -0.05172064155340195, 0.06551774591207504, 0.057062871754169464, 0.08158304542303085, 0.03155072033405304, -0.008633174002170563, 0.05844566971063614, -0.08748109638690948, 0.04126227647066116, -0.004617124795913696, -0.034998953342437744, 0.03868059068918228, -0.06640534102916718, 0.03735695034265518, 0.06149638444185257, 0.07814215868711472, 0.04165051132440567, -0.08703645318746567, -0.009583435952663422, 0.027185626327991486, -0.03252841904759407, -0.02446148544549942, -0.002138763666152954, 0.05293663591146469, -0.08711747080087662, 0.02152741700410843, -0.027678318321704865, 0.03950095921754837, -0.037678975611925125, -0.001983068883419037, 0.08222600072622299, -0.052120573818683624, 0.04551687091588974, -0.0366903580725193, -0.004760138690471649, 0.016690976917743683, -0.06600729376077652, -0.07537485659122467, 0.08419717103242874, 0.04757087677717209, 0.003054402768611908, 0.04384399205446243, 0.03145696222782135, 0.07391374558210373, -0.07855088263750076, 0.08829524368047714, 0.003061346709728241, 0.002237841486930847, 0.06308852881193161, -0.06064741685986519, -0.012265779078006744, 0.08238442987203598, -0.0600261315703392, -0.05354730784893036, 0.0038255229592323303, 0.0207035094499588, -0.02101842314004898, -0.02772197499871254, 0.008093386888504028, 0.0407329723238945, -0.070389524102211, 0.03490111231803894, -0.021290428936481476, -0.02071976661682129, 0.030453532934188843, 0.0032108500599861145, -0.0075790658593177795, -0.029881514608860016, 0.023627735674381256, 0.08739648014307022, 0.03712256997823715, 0.0834992453455925, 0.01815357804298401, 0.06532358378171921, -0.049925122410058975, 0.015142485499382019, 0.05646385997533798, 0.005205102264881134, -0.06554257124662399, -0.06212565302848816, -0.06232953816652298, -0.05926340073347092, -0.06336773931980133, 0.009990058839321136, -0.06959550827741623, -0.012486711144447327, -0.07964532822370529, 0.027759097516536713, -0.042084187269210815, 0.010014019906520844, -0.0406070239841938, -0.03774349391460419, 0.02387811988592148, 0.05648764222860336], [-0.059536658227443695, 0.0776672437787056, -0.05396750941872597, -0.027211681008338928, 0.06672028452157974, -0.037575557827949524, 0.009037204086780548, 0.0830092653632164, -0.056916557252407074, -0.08720652014017105, 0.06485527008771896, -0.012262679636478424, -0.06150240823626518, -0.020125098526477814, -0.026320021599531174, -0.040669191628694534, -0.06986182928085327, -0.08428612351417542, 0.05861591547727585, 0.009218588471412659, 0.08390895277261734, 0.0034804418683052063, -0.06245668604969978, -0.037154994904994965, 0.0041749924421310425, 0.07812508195638657, 0.059992603957653046, 0.010154373943805695, -0.022078193724155426, 0.004656143486499786, 0.043649084866046906, -0.005207531154155731, -0.08368299901485443, -0.029567532241344452, -0.05844147503376007, 9.689480066299438e-05, 0.03141188621520996, -0.027779020369052887, 0.061842627823352814, 0.06298520416021347, 0.038154907524585724, 0.08651343733072281, -0.07597669214010239, -0.02157970517873764, 0.03274622559547424, 0.054671578109264374, 0.0034053102135658264, -0.06246665492653847, -0.01951645314693451, -0.06426752358675003, 0.04238974303007126, -0.04054858535528183, 0.043013401329517365, -0.0469287671148777, 0.040408022701740265, 0.04231066256761551, -0.00011306256055831909, 0.03804188221693039, 0.0673634484410286, 0.02998112142086029, -0.06162141263484955, 0.05173102766275406, 0.03392588347196579, 0.017844311892986298, 0.004418455064296722, -0.01571684330701828, 0.005736604332923889, -0.08243782073259354, 0.00038889795541763306, 0.013815544545650482, 0.05381005257368088, -0.062835693359375, -0.02465936541557312, 0.017742782831192017, 0.013323388993740082, -0.03926638513803482, 0.08528014272451401, 0.08351179212331772, -0.025015205144882202, -0.05258338898420334, 0.057030968368053436, -0.05897761136293411, -0.08753741532564163, 0.027565397322177887, 0.026716917753219604, 0.02656833827495575, 0.05275430530309677, 0.06534982472658157, -0.04009861499071121, -0.07373644411563873, 0.05639014393091202, -0.045004066079854965, -0.011023707687854767, -0.0136275514960289, 0.0044093504548072815, -0.012962497770786285, -0.022194363176822662, 0.05969732254743576, 0.007379598915576935, 0.01074056327342987, 0.020720116794109344, 0.0831480398774147, 0.03775521367788315, -0.07340981811285019, -0.03876902908086777, -0.04420836642384529, 0.004531554877758026, 0.05669916421175003, 0.08392182737588882, 0.05387600511312485, 0.0188901424407959, 0.061687715351581573, -0.05727144330739975, -0.08206415921449661, 0.06996787339448929, -0.03492341563105583, -0.05343383550643921, -0.08339253067970276, 0.0334395170211792, -0.009361132979393005, -0.011937081813812256, -0.08498776704072952, 0.08765620738267899, 0.004622310400009155, -0.01878940314054489, -0.0011937543749809265, -0.057414472103118896, -0.005611948668956757], [0.021729037165641785, -0.08764873445034027, 0.038314320147037506, -0.06471884250640869, 0.03323604166507721, -0.06289298832416534, -0.08710530400276184, 0.062361009418964386, 0.014757968485355377, 0.05284228175878525, 0.07165304571390152, 0.08668038994073868, -0.00860586017370224, -0.08830252289772034, 0.05690311640501022, 0.03253987431526184, -0.011644065380096436, 0.05987768620252609, 0.05743660777807236, -0.049664296209812164, -0.03690022975206375, 0.04741059988737106, -0.0670376867055893, 0.0869971290230751, 0.05283621698617935, 0.048541851341724396, 0.017347894608974457, 0.07327774912118912, -0.03227869048714638, -0.013184517621994019, -0.048154935240745544, 0.06429821997880936, 0.023019514977931976, 0.013762161135673523, -0.020954422652721405, -0.04406428709626198, -0.005206175148487091, 0.07032374292612076, 0.038263387978076935, 0.020648248493671417, -0.0016173198819160461, 0.0003773123025894165, 0.04554393142461777, -0.01455748826265335, -0.06563574075698853, 0.07952813059091568, -0.06404750049114227, 0.040981225669384, 0.010766223073005676, -0.03796352073550224, -0.011492393910884857, 0.06258346885442734, 0.0714765265583992, -0.0870312824845314, -0.06564125418663025, 0.044306717813014984, 0.06254997104406357, -0.023146145045757294, -0.055259205400943756, -0.03636200353503227, 0.0385904386639595, 0.0637940838932991, -0.056554242968559265, 0.033117830753326416, -0.049670472741127014, 0.08794143050909042, -0.021624460816383362, 0.0001732856035232544, -0.07888122648000717, -0.008119523525238037, -0.003609269857406616, -0.07375306636095047, 0.0008892267942428589, -0.010593988001346588, -0.005494751036167145, 0.03985060006380081, 0.047544948756694794, -0.015254512429237366, -0.08281459659337997, -0.05599535256624222, -0.06470146775245667, -0.039742402732372284, -0.005022071301937103, -0.059013836085796356, 0.0862717404961586, 0.03215400129556656, -0.036112189292907715, -0.08116292953491211, -0.03887226805090904, 0.04857899993658066, 0.04172904044389725, -0.0365152508020401, 0.030924111604690552, -0.05051720142364502, -0.05228233337402344, 0.01893363893032074, -0.025331519544124603, 0.02299494296312332, -0.02580416202545166, 0.07465758174657822, 0.001808762550354004, 0.06060462445020676, -0.027003906667232513, -0.07063919305801392, -0.02054545283317566, -0.03873619809746742, -0.04705294221639633, 0.04854422062635422, -0.06009519845247269, -0.0580863319337368, 0.07208605855703354, 0.048209019005298615, -0.03113364428281784, 0.0013286694884300232, -0.03987415134906769, -0.001949205994606018, 0.05542219430208206, 0.0001010596752166748, -0.00804533064365387, 0.049668289721012115, 0.03306762874126434, 0.052434079349040985, 0.028500236570835114, -0.010595172643661499, -0.05477753281593323, -0.06819464266300201, -0.08440560847520828, -0.07348475605249405], [0.04712972790002823, -0.06239641457796097, -0.011580675840377808, 0.025830864906311035, 0.07765815407037735, -0.0539497546851635, 0.0021276772022247314, 0.0038730204105377197, -0.029320478439331055, 0.06407127529382706, -0.08046717196702957, 0.04488509148359299, 0.013644449412822723, 0.05453439801931381, 0.07843438535928726, 0.029348231852054596, -0.05656982585787773, 0.07361198216676712, -0.005560107529163361, -0.05824967473745346, 0.03858453780412674, -0.05763667821884155, -0.0455014631152153, 0.037513770163059235, 0.05423770099878311, -0.01897420734167099, 0.08705117553472519, 0.057777367532253265, -0.03233363851904869, 0.06080996245145798, 0.08308301120996475, -0.08180698752403259, -0.05504239350557327, 0.08610393851995468, 0.06543829292058945, 0.011857867240905762, -0.02340839058160782, 0.025536268949508667, -0.047846756875514984, -0.07241137325763702, -0.017403706908226013, -0.048831213265657425, 0.0841578021645546, -0.02703174576163292, -0.06783057004213333, 0.07458142191171646, 0.06440911442041397, -0.06718485057353973, 0.019965186715126038, -0.049658700823783875, 0.060224734246730804, 0.003236711025238037, -0.025894559919834137, -0.053896304219961166, 0.04071503132581711, 0.03385363519191742, -0.03311430290341377, -0.011146210134029388, -0.05462101846933365, -0.03213673084974289, 0.05984523147344589, -0.029358018189668655, 0.03765518218278885, 0.07803801447153091, -0.053779810667037964, -0.04206186905503273, -0.04634246230125427, 0.04439031332731247, 0.055079467594623566, 0.06970087438821793, 0.07886768132448196, 0.0799223855137825, -0.03562219813466072, 0.08194378763437271, 0.035392142832279205, -0.02151063084602356, -0.005659528076648712, 0.005739979445934296, -0.08615835756063461, -0.0795041099190712, -0.018973849713802338, 0.06359434872865677, -0.014229260385036469, -0.036866720765829086, 0.06755296140909195, 0.07109495252370834, -0.07730354368686676, 0.07837841659784317, -0.08233585953712463, -0.07545151561498642, -0.021806761622428894, -0.03451092541217804, 0.013643786311149597, -0.06082266569137573, -0.07792200148105621, 0.03671645373106003, 0.06606388837099075, 0.017693236470222473, 0.027727708220481873, 0.01663583517074585, -0.04839590936899185, 0.07686353474855423, 0.02915424108505249, -0.014688700437545776, 0.046463243663311005, -0.044315893203020096, 0.07521641999483109, -0.05717012286186218, -0.07316209375858307, -0.062274590134620667, 0.03547214716672897, -0.05725669115781784, 0.021137073636054993, -0.032172586768865585, 0.04803348332643509, 0.04032864421606064, -0.024851299822330475, 0.035681016743183136, -0.05334720388054848, 0.0087050199508667, 0.0062013790011405945, 0.07194247096776962, 0.01889967918395996, 0.0018601715564727783, -0.05529799312353134, 0.040916092693805695, 0.02937590330839157, -0.033856891095638275], [-0.07219536602497101, -0.0706082284450531, 0.03669958561658859, 0.021080680191516876, -0.05809876322746277, 0.0855456218123436, 0.029705338180065155, 0.05791880935430527, 0.06946109980344772, -0.04889172315597534, 0.01648012548685074, 0.022277988493442535, -0.05586538463830948, 0.07129155844449997, -0.06314557790756226, 0.016981177031993866, 0.06307690590620041, -0.03679143637418747, -0.043173301964998245, 0.05516906827688217, 0.046362511813640594, 0.0007013976573944092, 0.012400932610034943, -0.03153025731444359, 0.06985429674386978, -0.07994654029607773, 0.010547176003456116, -0.011652067303657532, 0.004068195819854736, 0.04585046321153641, -0.006598375737667084, 0.07711591571569443, -0.034495994448661804, 0.023623205721378326, -0.031185917556285858, -0.01723485440015793, -0.07187791168689728, 0.06680109351873398, 0.0526084378361702, -0.004977293312549591, 0.08154178410768509, 0.08088558167219162, -0.06181137636303902, 0.0457923486828804, -0.05152246728539467, 0.04932808130979538, -0.027519594877958298, -0.07409707456827164, -0.06816773116588593, 0.08301912993192673, -0.006641492247581482, -0.047738250344991684, 0.045241065323352814, 0.030771203339099884, 0.04040560871362686, -0.04170777276158333, -0.02576041966676712, 0.021390169858932495, 0.01812712848186493, 0.08015672117471695, 0.04943063110113144, 0.009985074400901794, -0.004858054220676422, -0.06600137054920197, -0.010248489677906036, 0.0626353845000267, -0.01448078453540802, 0.0454186275601387, 0.009561941027641296, -0.03806845471262932, -0.027718443423509598, -0.005912192165851593, 0.030045606195926666, 0.07588747888803482, 0.08566766232252121, 0.05365646630525589, 0.07440798729658127, -0.024617433547973633, -0.03974880650639534, 0.06509428471326828, -0.0316048264503479, 0.07791002839803696, -0.03579355776309967, 0.026996247470378876, -0.020604826509952545, -0.07644175738096237, -0.028869841247797012, -0.0012215450406074524, 0.07524674385786057, 0.044610314071178436, 0.01728055626153946, 0.01508241891860962, -0.019673272967338562, 0.07713969796895981, -0.05694271996617317, -0.020325198769569397, -0.02575966715812683, 0.08701048046350479, 0.020122379064559937, -0.041470810770988464, 0.02168622612953186, 0.014685794711112976, -0.06520825624465942, -0.0070365965366363525, -0.07293183356523514, 0.06486012786626816, -0.04886867105960846, 0.013957284390926361, -0.02716793119907379, -0.04878200590610504, 0.029548101127147675, -0.035080160945653915, -0.034390248358249664, 0.07568875700235367, 0.08284852653741837, 0.07324124127626419, 0.013813987374305725, 0.012754417955875397, -0.0006980076432228088, -0.024964243173599243, 0.058684371411800385, 0.031662717461586, 0.004174046218395233, -0.03199800103902817, -0.04185988008975983, 0.034409210085868835, -0.06694690883159637, 0.06459111720323563], [-0.0733221024274826, -0.05206754058599472, -0.004092894494533539, 0.07742208987474442, 0.037404946982860565, 0.07801460474729538, -0.03567449375987053, -0.03482617065310478, 0.03182174265384674, 0.04124637693166733, -0.012311629951000214, 0.07546388357877731, 0.017059989273548126, -0.0009917467832565308, -0.0013637691736221313, -0.0370846726000309, 0.08773025125265121, -0.07246530055999756, -0.06341521441936493, -0.01617319881916046, -0.0686785951256752, -0.018095538020133972, 0.0706111267209053, -0.07262522727251053, 0.03930076211690903, 4.145503044128418e-05, -0.059692539274692535, -0.06882723420858383, 0.03847014158964157, -0.01015821099281311, 0.021320685744285583, -0.03913753107190132, -0.08805399388074875, 0.048747770488262177, -0.07771548628807068, -0.08007865399122238, 0.07021266967058182, 0.04247374087572098, -0.0731586366891861, -0.014634229242801666, -0.07771094143390656, -0.048493362963199615, 0.01928580552339554, 0.007497631013393402, 0.05458325892686844, 0.07825563102960587, -0.025791391730308533, -0.031158365309238434, 0.06190183013677597, 0.0823272243142128, 0.00048122555017471313, 0.009241774678230286, 0.04405368119478226, 0.023663334548473358, -0.06470832228660583, -0.06564521044492722, -0.020550057291984558, 0.019582591950893402, -0.04852670058608055, 0.06408817321062088, -0.05108720436692238, 0.026408374309539795, 0.08726417273283005, -0.009160034358501434, -0.00816730409860611, -0.04832691326737404, -0.02335415780544281, -0.07602594792842865, 0.035987310111522675, 0.048772744834423065, -0.056800853461027145, -0.058725930750370026, -0.03849336877465248, -0.04588625207543373, 0.02061479538679123, 0.07531166821718216, 0.08748652786016464, 0.020262978971004486, -0.08710971474647522, -0.06873533129692078, 0.006635501980781555, -0.026215456426143646, -0.045086875557899475, -0.003550514578819275, 0.05557713657617569, -0.07053816318511963, -0.04984859377145767, 0.0405353382229805, 0.05751767009496689, 0.0197746679186821, -0.06388846784830093, -0.06789355725049973, -0.08627106994390488, 0.001206129789352417, -0.03894233703613281, 0.05969914048910141, 0.04510899633169174, -0.07487225532531738, -0.05171531066298485, 0.010751642286777496, 0.046842269599437714, 0.033655911684036255, -0.03396383672952652, -0.058529116213321686, -0.026402924209833145, -0.01604831963777542, -0.010644957423210144, -0.07628187537193298, -0.06608522683382034, 0.005209185183048248, -0.04887374863028526, -0.08375243842601776, 0.006430499255657196, -0.06689925491809845, -0.017887361347675323, -0.0857347920536995, 0.038222573697566986, -0.08660640567541122, 0.02412652224302292, 0.07386261969804764, -0.04304838925600052, -0.07525581866502762, -0.03233100473880768, -0.0010282248258590698, -0.021570302546024323, 0.05156552046537399, -0.0626225620508194, -0.058278679847717285], [-0.05404521897435188, 0.05995560437440872, -0.05279521644115448, 0.03809642046689987, -0.04298801347613335, 0.06580176204442978, -0.0296974815428257, -0.024349011480808258, 0.007290370762348175, -0.03704497218132019, -0.044311076402664185, 0.06634119898080826, -0.053965918719768524, 0.024831749498844147, -0.04817391186952591, -0.031356412917375565, -0.03683633357286453, -0.01686546951532364, -0.011185236275196075, 0.028907164931297302, -0.0428125262260437, 0.05837877839803696, 0.05414646118879318, 0.02639666199684143, 0.07384715229272842, -0.08334258198738098, -0.07818274945020676, 0.036010921001434326, 0.002573572099208832, 0.05938727408647537, -0.06538958847522736, -0.07385426759719849, -0.0752868726849556, 0.08399298042058945, 0.04014500230550766, 0.021613821387290955, 0.06252897530794144, 0.01243387907743454, -0.071841761469841, -0.04570908844470978, 0.02296365797519684, 0.04703425616025925, -0.040349338203668594, -0.02230248600244522, -0.06923415511846542, -0.000328652560710907, -0.033055152744054794, -0.018435291945934296, -0.05390043556690216, 0.046843357384204865, 0.05847058445215225, -0.07494807243347168, 0.06677298992872238, 0.024583347141742706, -0.04170829802751541, -0.08466485142707825, -0.0853293389081955, -0.0643865168094635, -0.07972229272127151, -0.02281244844198227, 0.05650994926691055, -0.0128675177693367, 0.08484899252653122, 0.04222824424505234, 0.06077776104211807, 0.05003168433904648, -0.05593985691666603, -0.04252941533923149, -0.027530301362276077, -0.01756344735622406, 0.06393543630838394, -0.0433008074760437, -0.07838861644268036, 0.035837024450302124, 0.013863623142242432, 0.0429067388176918, -0.0874653309583664, -0.04987550526857376, -0.08790978044271469, 0.025191225111484528, -0.06532037258148193, -0.028864499181509018, 0.01441117376089096, 0.058509357273578644, 0.036962442100048065, 0.05182475596666336, -0.010179035365581512, 0.01927477866411209, -0.004317767918109894, 0.03010467439889908, 0.07460656017065048, 0.05417691916227341, -0.033521588891744614, 0.03779151290655136, 0.01842590421438217, -0.0873628631234169, 0.07997731119394302, 0.058883629739284515, -0.06760799884796143, -0.002496093511581421, -0.016569145023822784, 0.04287002235651016, 0.005276963114738464, 0.0696759894490242, -0.024497181177139282, 0.027412965893745422, 0.07860902696847916, 0.016380541026592255, 0.060619644820690155, 0.053492434322834015, 0.007756136357784271, -0.00378553569316864, -0.08272632956504822, 0.022139444947242737, 0.07247450202703476, 0.0051218196749687195, -0.04970908910036087, 0.041925422847270966, -0.07088744640350342, -0.014172427356243134, 0.07625412195920944, 0.052696384489536285, 0.0033387988805770874, 0.05556333810091019, -0.0857648029923439, 0.002209275960922241, 0.0880226269364357, 0.07565055042505264], [0.01204615831375122, -0.06988400220870972, -0.014105886220932007, -0.011642500758171082, -0.010370098054409027, 0.0219961479306221, 0.04051203280687332, 0.0636979267001152, 0.01925712823867798, -0.08131237328052521, 0.0009055361151695251, -0.02874770015478134, -0.07297792285680771, -0.084373340010643, 0.0022249817848205566, -0.05786021426320076, 0.07293077558279037, -0.07420726120471954, 0.0403108075261116, -0.07846734672784805, 0.03414067625999451, -0.05511872097849846, -0.060209933668375015, 0.013792335987091064, -0.032815586775541306, -0.004126995801925659, -0.06327398866415024, 0.047569639980793, 0.03736554831266403, -0.013956673443317413, 0.010452553629875183, 0.06717117875814438, 0.081924669444561, -0.05330673232674599, -0.044824909418821335, 0.06603019684553146, -0.033890943974256516, 0.027423664927482605, 0.08014071732759476, 0.024569697678089142, -0.015223316848278046, 0.0386747345328331, -0.08793676644563675, 0.0824524536728859, 0.07671543210744858, -0.014535889029502869, -0.047544192522764206, -0.06326089799404144, -0.06753827631473541, 0.050351016223430634, 0.006401263177394867, -0.001040719449520111, 0.01657060533761978, 0.033745378255844116, 0.06362061947584152, -0.06560710817575455, -0.08317085355520248, -0.061343275010585785, -0.0056728944182395935, -0.040880315005779266, 0.033001162111759186, 0.0739227756857872, -0.0670056939125061, -0.07715706527233124, -0.0702461525797844, -0.011198058724403381, -0.04618459939956665, 0.06893252581357956, -0.0711124837398529, 0.004386328160762787, -0.03822674974799156, -0.049728307873010635, -0.025670409202575684, -0.08444910496473312, -0.08775342255830765, -0.004508793354034424, 0.07535936683416367, -0.06391659379005432, -0.05191755294799805, -0.03379284590482712, -0.02214036136865616, 0.022207312285900116, 0.024434424936771393, 0.02689678966999054, -0.04461255297064781, -0.07545936107635498, -0.077213816344738, -0.07133950293064117, -0.07610727846622467, -0.011447124183177948, -0.004612095654010773, -0.07962965965270996, -0.06724593043327332, -0.0655551552772522, -0.012719422578811646, -0.04999822750687599, -0.009981080889701843, -0.05847425013780594, 0.07151604443788528, -0.052047859877347946, 0.04526803642511368, 0.008814193308353424, 0.04617258161306381, -0.006323516368865967, 0.03107348084449768, -0.04673456400632858, 0.04897434264421463, -0.05762507766485214, -0.05335425212979317, 0.08251335471868515, 0.07358052581548691, 0.04411567002534866, -0.07887528836727142, -0.025923747569322586, 0.0501970574259758, 0.024179287254810333, 0.021116189658641815, -0.012173973023891449, -0.06897085905075073, -0.06279604136943817, -0.05174565687775612, -0.07898341119289398, 0.08008008450269699, 0.03694847971200943, 0.03004416823387146, 0.03955609351396561, -0.005094960331916809, -0.011936262249946594], [-0.04577231779694557, 0.08101988583803177, -0.03306896612048149, -0.08414793014526367, 0.05583197623491287, -0.08267564326524734, -0.030545581132173538, -0.07425329089164734, 0.031012333929538727, -0.025280341506004333, 0.03547901660203934, -0.003965288400650024, -0.08412012457847595, 0.014308318495750427, 0.040102727711200714, -0.05970466881990433, 0.046694569289684296, -0.031703658401966095, -0.02853413298726082, -0.011786818504333496, -0.04705027490854263, 0.06454963237047195, -0.02364250272512436, 0.04213806241750717, -0.011643737554550171, 0.007264748215675354, 0.036483682692050934, 0.021126367151737213, 0.019103698432445526, 0.021826237440109253, -0.04652427136898041, -0.011100448668003082, -0.022846698760986328, -0.0605766624212265, -0.029912229627370834, -0.07517430186271667, 0.03520486503839493, -0.03566335514187813, 0.07565877586603165, 0.05677150934934616, -0.00907982885837555, 0.017937108874320984, -0.062176696956157684, -0.0003452003002166748, 0.014729343354701996, -0.033143796026706696, 0.08278406411409378, -0.008047349750995636, -0.04939158633351326, -0.048614755272865295, 0.02391646057367325, 0.06728138774633408, 0.06488338857889175, 0.06506440788507462, 0.07391425222158432, -0.07537155598402023, -0.039519887417554855, 0.03703410178422928, -0.02919163554906845, -0.0575268417596817, 0.041210971772670746, -0.025121472775936127, -0.005532808601856232, 0.02507001906633377, -0.019892171025276184, -0.06587015837430954, -0.03820458799600601, 0.08815204352140427, 0.02258240431547165, -0.08756863325834274, 0.05236787348985672, -0.010725006461143494, 0.04666442424058914, -0.03434471786022186, 0.03569062799215317, -0.04539988934993744, 0.02301071584224701, 0.05964208394289017, 0.0681133046746254, 0.06245558708906174, 0.029150307178497314, 0.037453435361385345, -0.021512068808078766, -0.006342433393001556, 0.05881687253713608, 0.05506356805562973, 0.03775406628847122, -0.0059710294008255005, -0.011201590299606323, -0.03705012425780296, 0.021610699594020844, -0.04844130203127861, -0.07990916818380356, 0.0784013494849205, 0.00822874903678894, -0.06517546623945236, -0.08586056530475616, -0.0007111877202987671, -0.005832552909851074, -0.02471904456615448, -0.037457749247550964, -0.02228464186191559, 0.07388561218976974, 0.003829061985015869, -0.0840093120932579, 0.07629211992025375, 0.07747501879930496, -0.08157692104578018, -0.005002453923225403, -0.08512430638074875, -0.06297586858272552, -3.375113010406494e-05, -0.03276314586400986, 0.08420083671808243, -0.06909570842981339, -0.012873336672782898, 0.030432581901550293, -0.010639972984790802, 0.026719078421592712, -0.036083463579416275, 0.05888877063989639, 0.027818001806735992, -0.0346926711499691, 0.04251758009195328, 0.020660795271396637, 0.037142910063266754, -0.03366442769765854, -0.011423230171203613], [0.05772823840379715, -0.03784443438053131, -0.08389836549758911, 0.019175395369529724, 0.01008637249469757, 0.0024569183588027954, 0.05612907558679581, -0.033483635634183884, 0.07396876066923141, 0.05265025049448013, -0.05558785796165466, 0.007585644721984863, -0.009144045412540436, 0.03878188878297806, 0.012410685420036316, 0.07067539542913437, 0.08481486886739731, 0.024710960686206818, -0.07573232054710388, 0.011845052242279053, -0.0009256824851036072, 0.07706258445978165, 0.004903450608253479, 0.030399195849895477, -0.03606704995036125, 0.0862824097275734, 0.07691056281328201, 0.059061966836452484, 0.07113980501890182, -0.02011057734489441, -0.05531277507543564, 0.022691048681735992, -0.011544622480869293, -0.08525291830301285, -0.026750732213258743, -0.04136063903570175, -0.015846021473407745, 0.05572723597288132, 0.043818362057209015, -0.08259239792823792, -0.04901872202754021, 0.029544562101364136, 0.020778752863407135, -0.05104488879442215, -0.040360864251852036, 0.05734514445066452, 0.08098343759775162, 0.030939482152462006, -0.037658557295799255, -0.07652697712182999, -0.08318307250738144, 0.07635914534330368, -0.00438302755355835, 0.07015863806009293, -0.05278816819190979, -0.060618944466114044, -0.0006502494215965271, -0.006604284048080444, -0.014161258935928345, 0.03439045697450638, 0.08403079956769943, 0.061132825911045074, 0.014448054134845734, 0.004670247435569763, 0.006110057234764099, -0.02947976067662239, 0.0468798503279686, 0.08223327249288559, -0.04294506832957268, 0.007497027516365051, -0.018288984894752502, -0.021655239164829254, -0.0455288365483284, -0.023953400552272797, 0.028423264622688293, -0.005022332072257996, -0.059630993753671646, 0.07736893743276596, -0.024874620139598846, 0.01547841727733612, -0.006541319191455841, -0.03184996172785759, 0.01271171122789383, -0.031689856201410294, -0.031156331300735474, -0.012772642076015472, 0.04721655696630478, -0.08615823835134506, -0.042843639850616455, -0.015321820974349976, -0.06246954947710037, -0.03326021507382393, 0.040161438286304474, 0.051379553973674774, 0.05305247753858566, -0.07345730811357498, -0.02461627870798111, 0.039534665644168854, 0.08065114170312881, 0.012836121022701263, 0.06989241391420364, -0.037495341151952744, -0.042179301381111145, 0.04566685110330582, 0.05957455188035965, -0.013976231217384338, -0.0639638602733612, 0.0451163724064827, -0.006384685635566711, -0.08361643552780151, 0.002213910222053528, 0.03452646732330322, 0.005509927868843079, 0.010151408612728119, 0.021229945123195648, -0.057017721235752106, 0.05480936914682388, 0.04795034974813461, -0.027925848960876465, 0.057242460548877716, -0.03141063451766968, -0.04662368446588516, 0.07154089957475662, 0.06273036450147629, -0.03728139400482178, 0.02553049474954605, 0.05419052392244339, -8.892267942428589e-05], [-0.07895126938819885, 0.05562213808298111, 0.07262597233057022, -0.031468428671360016, -0.04703797772526741, 0.0805274173617363, -0.0128321573138237, -0.04952922463417053, 0.07662231475114822, 0.032001793384552, -0.06947088986635208, 0.03748645633459091, 0.05005050450563431, 0.08583318442106247, 0.03347382694482803, -0.048152245581150055, 0.026570312678813934, 0.02098964899778366, 0.04964246600866318, -0.0569094642996788, -0.08433952927589417, -0.018745526671409607, 0.006858348846435547, 0.0015997439622879028, 0.04067309945821762, -0.010770820081233978, -0.05892101675271988, 0.004290983080863953, -0.08368971943855286, 0.060797832906246185, 0.0440465584397316, 0.028744496405124664, 0.06005873531103134, -0.04093983396887779, 0.04854593425989151, 0.023644283413887024, 0.005951642990112305, -0.07269597053527832, 0.0016247406601905823, -0.0008784681558609009, 0.060158781707286835, 0.03456452488899231, 0.05423707515001297, -0.016572080552577972, 0.02533017098903656, -0.04893002286553383, 0.04796982556581497, 0.013762228190898895, 0.03834908455610275, 0.0009167119860649109, -0.015791423618793488, 0.05772782117128372, -0.060966260731220245, -0.006995975971221924, -0.061455823481082916, 0.05310659855604172, 0.08586028963327408, 0.0382075235247612, 0.037980832159519196, 0.06537117809057236, 0.06297556310892105, -0.037921879440546036, 0.028523996472358704, -0.01491883397102356, -0.07631804794073105, -0.03945600241422653, -0.08817260712385178, 0.031132981181144714, 0.07014637440443039, 0.06672314554452896, -0.0196036696434021, 0.06977394968271255, 0.047183625400066376, -0.035301368683576584, -0.03129644691944122, -0.008673347532749176, -0.0611087903380394, -0.004082150757312775, 0.031366631388664246, -0.04370703920722008, 0.052319906651973724, 0.03462989628314972, -0.06301994621753693, -0.07089780271053314, -0.052374277263879776, -0.08660425245761871, 0.03443937003612518, 0.08112185448408127, 0.08769459277391434, 0.07651864737272263, -0.04369736835360527, -0.047704268246889114, -0.02375444769859314, 0.046387650072574615, -0.07273788750171661, 0.06938166171312332, -0.014630116522312164, -0.016759105026721954, -0.06201491504907608, -0.04212102293968201, -0.0006281062960624695, 0.016995832324028015, 0.0073256716132164, 0.070979543030262, -0.003064848482608795, 0.06941179186105728, -0.010272711515426636, 0.0380663201212883, 0.0060240402817726135, -0.009559370577335358, -0.009586051106452942, -0.0778302550315857, 0.0126141756772995, 0.08800240606069565, -0.07023586332798004, -0.00822528451681137, -0.05300132557749748, -0.042086757719516754, -0.07269090414047241, -0.08626605570316315, 0.03548926115036011, 0.08573103696107864, 0.02070971578359604, 0.0581953302025795, 0.007606059312820435, 0.053386859595775604, -0.027831364423036575, 0.04299890249967575], [0.061305783689022064, -0.0844457596540451, 0.07773644477128983, 0.03109615296125412, 0.04863298684358597, -0.07670780271291733, -0.08389640599489212, 0.003384992480278015, -0.08345657587051392, 0.02961573749780655, -0.08556026965379715, 0.07086000591516495, -0.021372869610786438, -0.03703366592526436, 0.0631127879023552, -0.012816458940505981, -0.00843886286020279, -0.019586555659770966, -0.014732524752616882, -0.047247692942619324, -0.0026584044098854065, -0.039985768496990204, 0.020015910267829895, 0.06838548928499222, -0.05560906603932381, -0.026993684470653534, 0.0032495111227035522, -0.0504666343331337, 0.019819103181362152, 0.03062918782234192, 0.07043754309415817, 0.01858358085155487, 0.0183030366897583, 0.04722326248884201, -0.01849326491355896, -0.061845630407333374, 0.05488274246454239, 0.06306115537881851, 0.002262130379676819, 0.010415084660053253, 0.017058104276657104, 0.05750919133424759, 0.00857284665107727, -0.0019031688570976257, -0.0608598068356514, 0.035972125828266144, 0.0800682082772255, -0.03838684409856796, -0.02732045203447342, -0.06620123982429504, 0.012656785547733307, 0.04453667253255844, 0.01948227733373642, 0.04497315734624863, -0.07774410396814346, -0.06418123096227646, -0.03177426755428314, -0.06574089825153351, 0.0828949436545372, -0.016953155398368835, 0.011071763932704926, 0.060752756893634796, -0.07377346605062485, -0.0025564730167388916, -0.08398018777370453, 0.07674629241228104, -0.022650770843029022, -0.07766396552324295, -0.04252725467085838, -0.08656949549913406, 0.016420990228652954, -0.06707560271024704, 0.023237809538841248, 0.0015861466526985168, -0.017334505915641785, -0.014588139951229095, -0.07828691601753235, 0.04561234265565872, 0.06579118221998215, -0.06316868215799332, 0.00479801744222641, 0.05856776982545853, -0.014575019478797913, -0.013014957308769226, -0.039692215621471405, -0.018681086599826813, -0.0405038483440876, -0.07902240753173828, -0.002679772675037384, 0.05538167804479599, 0.01392771303653717, 0.04132228344678879, -0.04306909441947937, -0.08458361029624939, -0.054488278925418854, 0.023788534104824066, 0.07463002949953079, -0.022516340017318726, -0.0810685008764267, -0.017365947365760803, -0.0039107948541641235, -0.04455491900444031, 0.025604061782360077, 0.076664038002491, 0.06852547079324722, 0.025817833840847015, -0.005757175385951996, 0.04039480537176132, -0.07351413369178772, -0.030094102025032043, 0.04703574627637863, 5.714595317840576e-06, 0.08167404681444168, 0.007461763918399811, 0.009144984185695648, 0.02736843377351761, 0.004090748727321625, -0.08790884166955948, 0.032003775238990784, -0.018138453364372253, -0.008205056190490723, -0.03980334475636482, -0.02006596326828003, -0.0008878037333488464, -0.0021348968148231506, -0.02078346163034439, 0.02009904384613037, -0.012772873044013977], [0.02142363041639328, -0.06415166705846786, 0.050759367644786835, 0.007984168827533722, -0.006743766367435455, -0.08516715466976166, 0.04334714263677597, 0.07313943654298782, 0.021189294755458832, -0.022465132176876068, -0.05019513517618179, -0.05288432538509369, -0.03595087304711342, 0.05932716280221939, 0.05952052026987076, -0.021964237093925476, -0.07797978818416595, -0.015269927680492401, 0.04675694555044174, -0.006178803741931915, -0.06648427248001099, -0.08714229613542557, 0.06785070151090622, -0.023460403084754944, 0.04228895157575607, -0.007253304123878479, -0.021111659705638885, 0.0776117816567421, 0.07140617817640305, -0.07916109263896942, 0.06589191406965256, -0.004501402378082275, 0.040937282145023346, -0.07753964513540268, -0.057542458176612854, 0.007353529334068298, 0.017728641629219055, 0.06724020093679428, 0.05581582337617874, -0.021582968533039093, -0.0712190493941307, 0.01951604336500168, -0.0763486698269844, 0.0843852087855339, -0.08302438259124756, -0.07896316051483154, 0.028012976050376892, 0.05353754013776779, 0.07019845396280289, 0.059998057782649994, -0.063929982483387, 0.01311880350112915, 0.019745640456676483, -0.052955955266952515, 0.0016120225191116333, 0.08098988980054855, 0.04944569617509842, -0.00310400128364563, 0.08008145540952682, 0.07928561419248581, 0.01560559868812561, -0.060870371758937836, -0.07742077112197876, -0.06785041838884354, 0.024708546698093414, -0.019089773297309875, -0.029545340687036514, 0.039264313876628876, 0.03703012317419052, -0.07208020240068436, 0.08820705860853195, 0.02242867648601532, 0.0581483468413353, 0.040976203978061676, -0.005332253873348236, 0.02168065309524536, 0.07689989358186722, -0.001754671335220337, -0.006471313536167145, 0.03283330798149109, -0.008173413574695587, 0.03746356815099716, -0.08217433094978333, 0.08412275463342667, -0.06002388894557953, -0.009333759546279907, 0.036185748875141144, 0.010004125535488129, 0.006257377564907074, -0.03492609038949013, 0.01303388923406601, -0.01152154803276062, -0.039446573704481125, -0.058347590267658234, 0.0414763018488884, -0.022057078778743744, 0.085127092897892, -0.0413675419986248, -0.08767551928758621, 0.034961603581905365, -0.06471852958202362, 0.03583041578531265, 0.08383361250162125, 0.06139729171991348, 0.003067910671234131, -0.05288037657737732, 0.028536081314086914, -0.04436620697379112, -0.07769378274679184, -0.04212913662195206, -0.01325671374797821, 0.03489040583372116, -0.03796106576919556, 0.08096527308225632, 0.013499855995178223, -0.0784054771065712, -0.034426987171173096, -0.03035333752632141, 0.022747471928596497, -0.03883082792162895, -0.05315219983458519, 0.057086311280727386, -0.0675855278968811, 0.017971225082874298, 0.017366938292980194, 0.03238506615161896, -0.017093800008296967, -0.05805717781186104], [0.028141595423221588, 0.04934292286634445, 0.07234596461057663, 0.0030818209052085876, 0.05343041568994522, 0.08794230967760086, 0.07105357199907303, 0.03680796176195145, 0.04107721894979477, -0.06776240468025208, -0.05987883731722832, 0.0003468543291091919, -0.05458826944231987, 0.040795259177684784, 0.08514831215143204, -0.030347026884555817, 0.03787878900766373, -0.046805042773485184, -0.04098097234964371, -0.005269311368465424, 0.05719812959432602, -0.06358560919761658, -0.061437346041202545, -0.014057733118534088, 0.05748444050550461, 0.0827891156077385, -0.0658453106880188, -0.04003755748271942, -0.025513648986816406, 0.08703168481588364, -0.027505557984113693, -0.034310631453990936, -0.03701930493116379, -0.06949597597122192, 0.04642099887132645, 0.03206609934568405, -0.02454066276550293, 0.03322912007570267, -0.013232111930847168, -0.08636503666639328, -0.03113759681582451, 0.05240688472986221, -0.059120193123817444, 0.08084913343191147, -0.06519132107496262, 0.02274481952190399, -0.017739661037921906, 0.006921462714672089, -0.0422934964299202, -0.07783201336860657, -0.06588052958250046, 0.06785457581281662, 0.050118811428546906, 0.006675221025943756, 0.013482250273227692, -0.0023501738905906677, 0.08775333315134048, -0.07575557380914688, -0.0705704614520073, -0.04536418989300728, 0.08076521009206772, -0.03450588881969452, 0.07599727064371109, -0.049325015395879745, 0.003364160656929016, 0.05333045870065689, -0.016926251351833344, -0.0026492327451705933, -0.0251481831073761, 0.0266311913728714, -0.020418211817741394, -0.008340619504451752, -0.04647554084658623, 0.07690683752298355, 0.035445794463157654, -0.018193677067756653, 0.01047562062740326, 0.05110699683427811, 0.021708741784095764, -0.03630580008029938, 0.03891553729772568, -0.07745355367660522, 0.07375252991914749, -0.07645545899868011, 0.04542187601327896, -0.03813651204109192, -0.06668399274349213, 0.06769365817308426, 0.03877528756856918, 0.08387546986341476, -0.022303752601146698, -0.07331683486700058, 0.027276650071144104, -0.04502665624022484, -0.07392426580190659, -0.029432598501443863, 0.009744204580783844, -0.01813916116952896, -0.06271079182624817, 0.08248917013406754, 0.016516536474227905, -0.04610622674226761, -0.005005635321140289, -0.07569822669029236, -0.015258319675922394, 0.06612131744623184, 0.04938601702451706, 0.08693533390760422, 0.0719606801867485, 0.015540920197963715, -0.000864177942276001, 0.033028848469257355, -0.001116819679737091, 0.0359795019030571, -0.028303854167461395, -0.08758476376533508, 0.03994279354810715, -0.06473122537136078, -0.07371491193771362, 0.0619635209441185, -0.00744030624628067, -0.05179924517869949, 0.053923629224300385, -0.060568034648895264, -0.00875149667263031, 0.03294648230075836, 0.05205050855875015, 0.018009908497333527], [0.0686630979180336, -0.013363458216190338, 0.060246728360652924, 0.04066524654626846, -0.004090361297130585, 0.08362918347120285, -0.03678774833679199, 0.013935893774032593, -0.052949536591768265, -0.08710886538028717, 0.04661256819963455, -0.055258847773075104, -0.048514507710933685, -0.08450660109519958, 0.08167960494756699, 0.008801937103271484, 0.04182133823633194, -0.02598915994167328, 0.06782082468271255, 0.006462112069129944, 0.04313162714242935, 0.02124077081680298, 0.051612116396427155, -0.043497178703546524, 0.022981271147727966, 0.046782203018665314, 0.0723835900425911, -0.020761147141456604, 0.07624747604131699, -0.06434798240661621, 0.037465475499629974, 0.04369407147169113, -0.026718128472566605, 0.010244496166706085, -0.0682547315955162, -0.047867871820926666, 0.08425331860780716, 0.08572671562433243, 0.0393800213932991, -0.07603039592504501, -0.04887648671865463, 0.0012922659516334534, -0.07648234814405441, -0.051177896559238434, -0.05490812286734581, -0.01343865692615509, -0.02706936001777649, 0.01983020454645157, 0.010434940457344055, -0.044165704399347305, -0.026180211454629898, -0.023536361753940582, -0.04374472051858902, -0.08787263929843903, 0.006322681903839111, 0.06215778738260269, 0.0003005713224411011, -0.021420933306217194, 0.05112069100141525, 0.04499500244855881, 0.028546035289764404, 0.010812923312187195, 0.06757216900587082, 0.0735078826546669, -0.006444938480854034, -0.0379057377576828, 0.031536929309368134, 0.06478478759527206, 0.020934350788593292, 0.007722347974777222, 0.05733624845743179, 0.0719083622097969, 0.04413373023271561, -0.023567065596580505, 0.020671501755714417, 0.027101024985313416, 0.05254875868558884, 0.016817711293697357, -0.07876080274581909, 0.059080369770526886, -0.02853740006685257, 0.07594672590494156, 0.04571022838354111, 0.006301566958427429, -0.06510452926158905, 0.0006570369005203247, -0.07316380739212036, 0.04502557963132858, -0.07192676514387131, -0.04551161080598831, 0.056272394955158234, 0.030264131724834442, 0.08736898750066757, -0.062198787927627563, -0.0744902640581131, -0.08530136197805405, 0.009787991642951965, -0.08838579803705215, 0.04940713196992874, -0.07790219038724899, 0.014665573835372925, 0.03555935621261597, 0.07537957280874252, 0.00974370539188385, 0.032081834971904755, -0.06261080503463745, 0.04236047714948654, 0.029139243066310883, -0.03912881761789322, 0.0434783473610878, -0.003999210894107819, -0.05598590150475502, -0.024705544114112854, -0.020023830235004425, -0.036979854106903076, 0.06881114095449448, 0.05225703865289688, 0.009308092296123505, 0.05793524533510208, -0.08153823018074036, 0.06670888513326645, -0.010815978050231934, 0.035101018846035004, -0.044776495546102524, -0.07780979573726654, 0.08655189722776413, -0.04258974641561508, -0.0743088573217392], [-0.036063846200704575, 0.03503488004207611, -0.031590644270181656, 0.017046131193637848, 0.030376821756362915, -0.0295197032392025, -0.04730842635035515, 0.04652196913957596, 0.06244505196809769, -0.009382650256156921, 0.07984990626573563, -0.015401586890220642, -0.04698970913887024, -0.042630650103092194, -0.030494287610054016, -0.06146549805998802, -0.0778355747461319, -0.05708460882306099, 0.04301279038190842, 0.06827657669782639, -0.08384185284376144, 0.028543755412101746, 0.015914730727672577, -0.0625552162528038, 0.011649422347545624, -0.03426658734679222, 0.049590595066547394, -0.06555257737636566, 0.0372408851981163, 0.07204901427030563, -0.05185467004776001, -0.05513336509466171, 0.08656472712755203, -0.031702637672424316, 0.06825218349695206, -0.08097608387470245, 0.03619934618473053, -0.007856078445911407, 0.048902980983257294, -0.04701763391494751, -0.02529139816761017, 0.0657133087515831, 0.010582834482192993, 0.053175754845142365, 0.019365057349205017, -0.020635046064853668, 0.005684293806552887, -0.02673390507698059, -0.0742173045873642, 0.068560890853405, 0.030287906527519226, 0.04222772270441055, 0.05842176824808121, 0.05892273038625717, 0.05122334510087967, 0.08496459573507309, -0.0010858327150344849, -0.013147152960300446, 0.08318015187978745, -0.08036394417285919, 0.07518836110830307, -0.06978791207075119, 0.007177852094173431, 0.07677242904901505, 0.03524450957775116, 0.04263187199831009, 0.0819929763674736, -0.0683479830622673, 0.0033073127269744873, -0.04089256748557091, -0.04964181035757065, 0.07820173352956772, 0.0456852987408638, 0.016666293144226074, -0.05299949273467064, 0.06191461533308029, 0.06848389655351639, -0.06709592044353485, 0.049917928874492645, 0.08559472113847733, -0.0613289400935173, 0.06452053040266037, -0.03602876886725426, 0.037063173949718475, 0.0626937672495842, -0.03489786386489868, 0.0725310668349266, 0.01623912900686264, 0.018799223005771637, 0.06247615069150925, 0.04150528460741043, -0.0720200389623642, 0.012576818466186523, -0.008183211088180542, -0.019757620990276337, -0.0845670998096466, 0.04127972573041916, -0.056974057108163834, 0.006110809743404388, -0.04424198716878891, -0.07161834836006165, -0.07079882174730301, 0.06702537089586258, -0.05437560752034187, 0.08349726349115372, -0.06813536584377289, 0.01773829013109207, 0.07585320621728897, 0.006890788674354553, 0.04864799231290817, 0.009671889245510101, -0.03896714374423027, 0.03665914386510849, 0.042498864233493805, -0.04457353800535202, -0.04500642791390419, 0.06064581125974655, 0.0765666589140892, 0.04499287158250809, 0.04288647323846817, 0.05981010943651199, 0.01557178795337677, 0.07607390731573105, -0.06125975772738457, -0.07401859015226364, 0.04089496284723282, -0.0362183041870594, -0.058369338512420654], [-0.05850286781787872, -0.0827406570315361, 0.04252450913190842, 0.007484793663024902, 0.021449625492095947, -0.008401572704315186, -0.01949276775121689, -0.007738910615444183, 0.07416989654302597, 0.022190839052200317, -0.08393236249685287, -0.05985718593001366, -0.0004788339138031006, 0.08786258846521378, 0.08804621547460556, 0.016407258808612823, -0.05210133269429207, 0.05969998985528946, -0.009149119257926941, 0.007209658622741699, 0.028281353414058685, -0.013596877455711365, -0.026170749217271805, -0.005854599177837372, 0.010132767260074615, 0.03635908663272858, -0.08813053369522095, -0.029694773256778717, 0.0395672544836998, 0.08015046268701553, -0.07675135135650635, -0.07507520914077759, -0.03809236362576485, -0.0662250816822052, 0.06780382245779037, -0.04748423025012016, 0.05688237398862839, -0.020137332379817963, -0.0836179256439209, 0.049118854105472565, -0.05736216530203819, -0.041158925741910934, -0.08780533820390701, -0.03760082647204399, 0.02944977581501007, 0.011662252247333527, 0.0023575276136398315, -0.05621906742453575, -0.07878074049949646, -0.016797497868537903, 0.052535779774188995, -0.04033700004220009, -0.014873094856739044, 0.08692143112421036, -0.003420203924179077, 0.00940702110528946, 0.03350415080785751, 0.04690495878458023, 0.06940159946680069, -0.004859939217567444, -0.028541889041662216, 0.03327034413814545, 0.03450194001197815, -0.03707122057676315, -0.021152205765247345, -0.07141579687595367, -0.0632951557636261, 0.008967995643615723, 0.025039978325366974, -0.04478814825415611, 0.043485648930072784, -0.028704490512609482, -0.02402617782354355, -0.030077602714300156, 0.052283696830272675, -0.08498607575893402, 0.022920042276382446, -0.05317467451095581, 0.0569857582449913, 0.0556759312748909, -0.04432319477200508, 0.08249340206384659, 0.045121051371097565, 0.015451543033123016, -0.010979190468788147, 0.04592061787843704, -0.019035704433918, 0.00446464866399765, 0.020579516887664795, -0.0037624165415763855, -0.08150580525398254, -0.03231220692396164, -0.014543771743774414, 0.02816501259803772, 0.03281363844871521, 0.020125456154346466, -0.011276252567768097, -0.022164545953273773, -0.022692613303661346, -0.032990001142024994, -0.06503225117921829, -0.06880983710289001, -0.029178369790315628, -0.06312891840934753, 0.0629463866353035, 