{"actor.network.0.weight": [[-0.47815990447998047, 0.3325178027153015, -0.49069979786872864, -0.32499775290489197], [-0.33224546909332275, 0.17707335948944092, -0.0054016876965761185, 0.23711061477661133], [0.3414975702762604, 0.4125886857509613, -0.16319823265075684, -0.33626165986061096], [-0.027507483959197998, 0.06633371114730835, 0.38174110651016235, 0.21703165769577026], [0.32893553376197815, -0.2285052090883255, 0.3138381838798523, -0.39270633459091187], [0.260639488697052, -0.29665622115135193, -0.10801691561937332, 0.398169606924057], [-0.22078768908977509, -0.22160746157169342, 0.41585075855255127, 0.178427055478096], [-0.41678673028945923, 0.17328526079654694, 0.10748056322336197, 0.015917886048555374], [-0.1538812667131424, 0.15257470309734344, 0.2823421061038971, -0.3932608366012573], [-0.19623009860515594, 0.21455663442611694, 0.07109104841947556, -0.2621830999851227], [0.4329233169555664, 0.25793373584747314, 0.40229547023773193, -0.11508744955062866], [-0.03486979007720947, 0.1389613151550293, -0.46370238065719604, 0.13120824098587036], [0.3394911587238312, -0.35546785593032837, 0.2771011292934418, -0.40881332755088806], [0.3161027431488037, 0.17468470335006714, 0.40556734800338745, 0.3764680027961731], [-0.014761030673980713, -0.36185353994369507, 0.23132175207138062, -0.08495068550109863], [-0.46805354952812195, -0.23129774630069733, -0.4616921544075012, -0.22417965531349182], [0.33440110087394714, 0.04014188051223755, 0.4396621882915497, -0.07262587547302246], [0.40921440720558167, 0.02488977089524269, 0.2987263798713684, 0.04042375460267067], [-0.3940809369087219, 0.0033715609461069107, -0.2766225337982178, 0.17862319946289062], [0.14875979721546173, -0.4443621039390564, -0.20685803890228271, -0.20865298807621002], [0.06675396859645844, -0.41193315386772156, -0.27898144721984863, 0.28633737564086914], [-0.49743854999542236, -0.12173306941986084, 0.011833906173706055, 0.3401806354522705], [-0.012671411037445068, -0.16108578443527222, 0.4446532726287842, 0.014937341213226318], [-0.21441388130187988, 0.42164725065231323, 0.3418083190917969, 0.32539427280426025], [0.06712254881858826, -0.32201525568962097, 0.2249802201986313, 0.28349077701568604], [0.24433398246765137, 0.48773911595344543, -0.2406117171049118, -0.4279881417751312], [-0.3126453161239624, 0.2559569478034973, 0.37768787145614624, -0.07648392021656036], [-0.00790335051715374, 0.18975882232189178, -0.08394522219896317, -0.3301488161087036]], "actor.network.0.bias": [0.24605275690555573, 0.12972021102905273, -0.5014550089836121, -0.2532469630241394, 0.36919865012168884, 0.14874619245529175, -0.059507373720407486, 0.19742625951766968, -0.3726315498352051, 0.021769609302282333, -0.3594509959220886, -0.07841545343399048, 0.11807012557983398, -0.4406474232673645, -0.253872275352478, -0.08132386207580566, 0.35678744316101074, 0.49742358922958374, 0.18908339738845825, 0.4246763288974762, 0.46243947744369507, -0.3987032175064087, -0.20951026678085327, -0.45818644762039185, 0.22638945281505585, 0.4187852740287781, 0.19746828079223633, -0.06778186559677124], "actor.network.2.weight": [[0.1020297259092331, -0.05151452496647835, -0.13323913514614105, 0.0963674932718277, -0.07615605741739273, -0.16305434703826904, 0.0709662139415741, 0.07116039097309113, 0.1253472864627838, 0.16618265211582184, 0.18393145501613617, 0.17933322489261627, 0.11948830634355545, -0.15291325747966766, 0.08316202461719513, -0.10425493866205215, -0.024340994656085968, 0.13513591885566711, 0.06558628380298615, -0.08099411427974701, 0.08081073313951492, -0.1841227412223816, 0.11925743520259857, -0.09978439658880234, 0.11196731775999069, -0.10543517768383026, -0.09134452044963837, 0.12466178834438324], [0.1110275387763977, 0.1592796891927719, -0.0870952308177948, -0.16747558116912842, -0.17898708581924438, 0.17062386870384216, -0.06465787440538406, -0.03740687295794487, -0.000376454641809687, -0.11106391996145248, -0.05796635150909424, -0.08873370289802551, 0.057221271097660065, 0.05890586972236633, -0.17381048202514648, -0.12932871282100677, -0.1505061537027359, -0.004750847816467285, 0.08700484037399292, -0.16417422890663147, 0.1046774610877037, 0.16582049429416656, 0.13254262506961823, -0.02663213014602661, 0.11717815697193146, 0.17962141335010529, 0.09008757770061493, -0.03575907275080681], [-0.015394475311040878, -0.11515205353498459, 0.03149997442960739, 0.023602217435836792, 0.13332940638065338, 0.07124706357717514, 0.1326608806848526, 0.08056605607271194, 0.08544638007879257, 0.15581074357032776, 0.04741427302360535, 0.12926684319972992, -0.16204985976219177, 0.1778305023908615, 0.14341150224208832, 0.07720764726400375, 0.03475207835435867, 0.08859549462795258, -0.14075204730033875, -0.07662441581487656, -0.0584787093102932, 0.08114929497241974, 0.13133074343204498, -0.007920980453491211, 0.13647805154323578, -0.13797610998153687, 0.08051007986068726, 0.11783181130886078], [0.1506369560956955, 0.1183803603053093, -0.0688590407371521, 0.1241154819726944, 0.12240583449602127, 0.08650905638933182, 0.16151851415634155, -0.11800158768892288, -0.04102696478366852, 0.16693376004695892, -0.13490042090415955, 0.08619879186153412, -0.11058273911476135, 0.012616842985153198, 0.18768034875392914, 0.09214869141578674, -0.10073353350162506, 0.0967380702495575, 0.07479845732450485, -0.16257110238075256, -0.14429058134555817, 0.07004784047603607, -0.04779370129108429, 0.07345996797084808, -0.18359878659248352, -0.005381335504353046, 0.17263242602348328, 0.018888801336288452], [0.05487122759222984, -0.04084519296884537, -0.1458362638950348, 0.15941576659679413, -0.07255759090185165, -0.10497907549142838, 0.04936760663986206, 0.18689174950122833, -0.05215035378932953, -0.06244741380214691, -0.13023152947425842, -0.12902024388313293, -0.0803598016500473, -0.12505680322647095, -0.08688934892416, 0.15904390811920166, 0.1766110062599182, -0.03610895201563835, -0.03543347120285034, 0.18535131216049194, -0.17715604603290558, 0.12745635211467743, -0.05396023392677307, -0.10471927374601364, 0.0069810450077056885, 0.02610655687749386, 0.050843529403209686, 0.13638950884342194], [0.029108300805091858, -0.10188848525285721, -0.05760505795478821, 0.028102293610572815, -0.0681348517537117, -0.11996075510978699, -0.08642814308404922, 0.1360536366701126, -0.04259365797042847, -0.00955536961555481, 0.11768223345279694, 0.1535053700208664, -0.137713223695755, -0.037502437829971313, -0.0065274834632873535, 0.0042432695627212524, -0.06993289291858673, -0.03836183249950409, 0.013676300644874573, -0.06736523658037186, 0.10634629428386688, 0.09773649275302887, 0.08249901235103607, 0.1349889487028122, -0.1831192523241043, 0.05066767334938049, -0.0628221184015274, -0.06106492877006531], [-0.03637858107686043, 0.06623993813991547, 0.15231908857822418, -0.15454362332820892, -0.004816843196749687, -0.14521466195583344, -0.14650212228298187, 0.0613175667822361, -0.1776096671819687, -0.06105135381221771, -0.17561762034893036, -0.0028982162475585938, 0.026188207790255547, 0.00932835042476654, -0.1725061982870102, -0.053684916347265244, -0.0943915918469429, -0.006424067076295614, -0.07867009192705154, 0.08593594282865524, -0.04295912757515907, 0.14680548012256622, -0.15233835577964783, -0.13098756968975067, 0.03127482533454895, 0.15034711360931396, -0.07321912795305252, 0.1872280240058899], [0.05665050446987152, -0.11532363295555115, 0.002659931778907776, 0.09546913206577301, -0.06920459121465683, -0.1873917430639267, 0.14136169850826263, -0.0070488303899765015, -0.1317014992237091, -0.017699718475341797, 0.16953285038471222, -0.1608526110649109, 0.09428267180919647, 0.06133757531642914, 0.10528697073459625, -0.0017471909523010254, 0.005324006080627441, 0.07806806266307831, -0.18422168493270874, -0.09750526398420334, -0.1748599410057068, 0.16341616213321686, -0.13962598145008087, 0.18805371224880219, 0.17792348563671112, -0.17320464551448822, 0.1881929486989975, 0.05170692503452301], [-0.023959022015333176, 0.17674927413463593, 0.09142909944057465, -0.16262677311897278, 0.1495283842086792, 0.05876271054148674, 0.17062915861606598, -0.06370726227760315, 0.1785796582698822, -0.10028388351202011, -0.14241930842399597, -0.16711795330047607, 0.05402751266956329, -0.0017171651124954224, -0.18191412091255188, -0.0457492396235466, -0.12427260726690292, -0.18487140536308289, 0.10485733300447464, -0.05170908197760582, 0.12126006931066513, 0.024415895342826843, -0.0055268555879592896, 0.0563187450170517, 0.19340620934963226, 0.16830092668533325, 0.1603931039571762, 0.0829857587814331], [-0.10584844648838043, 0.17745785415172577, -0.054810330271720886, 0.06340433657169342, -0.030270015820860863, -0.02046787738800049, -0.08289159834384918, -0.17661871016025543, 0.12778405845165253, -0.06255337595939636, -0.034984856843948364, 0.0014363229274749756, -0.17557942867279053, 0.0989341288805008, 0.13218851387500763, 0.07676835358142853, -0.05878741666674614, 0.05973784625530243, 0.07782416045665741, 0.1415673941373825, -0.05884656682610512, 0.02813468873500824, 0.005196720361709595, 0.04164627194404602, 0.08180782943964005, -0.18441499769687653, 0.06783279031515121, -0.17611470818519592], [-0.01387907937169075, -0.08390289545059204, 0.07776083797216415, -0.01878182590007782, -0.0719958171248436, 0.10933287441730499, 0.13934211432933807, 0.00430873641744256, 0.14919164776802063, 0.016930880025029182, -0.03609512746334076, 0.07485370337963104, -0.12634213268756866, -0.17397275567054749, 0.1581117957830429, 0.1023189127445221, 0.11701221764087677, -0.07171087712049484, -0.05425824597477913, 0.14410045742988586, -0.17351554334163666, 0.048323854804039, 0.16603507101535797, 0.1372525840997696, -0.006996527314186096, 0.13764634728431702, 0.10893978178501129, 0.18396128714084625], [0.008427217602729797, 0.09636132419109344, 0.049426451325416565, -0.03066350519657135, 0.10274301469326019, -0.11281734704971313, 0.055581867694854736, 0.016442984342575073, 0.055495455861091614, -0.1807902604341507, -0.15346890687942505, -0.02519206702709198, -0.12627941370010376, -0.07361991703510284, -0.16742576658725739, -0.021104440093040466, 0.06526167690753937, -0.03355027735233307, -0.005687892436981201, 0.0904308408498764, -0.019711777567863464, -0.14739415049552917, 0.015574067831039429, 0.0623524934053421, 0.06049706041812897, -0.17897580564022064, -0.03256118297576904, 0.15651045739650726], [-0.16118569672107697, 0.13424284756183624, -0.04679518938064575, -0.0465579479932785, 0.16523124277591705, -0.02449992299079895, 0.16098178923130035, -0.0072327107191085815, 0.17652539908885956, 0.14429135620594025, -0.11042656004428864, -0.0730530321598053, 0.1816449910402298, 0.18194128572940826, 0.11679069697856903, 0.02592223882675171, 0.041802018880844116, -0.12071926146745682, 0.10994194447994232, -0.012852609157562256, -0.16714373230934143, -0.15824583172798157, -0.18048644065856934, -0.11865627020597458, 0.17321793735027313, -0.08702174574136734, -0.11096082627773285, 0.1613398939371109], [0.017034249380230904, 0.0450037345290184, 0.11621683835983276, -0.00842718780040741, -0.03729896619915962, 0.018002601340413094, -0.0852007269859314, -0.18674568831920624, -0.18458771705627441, 0.05114565044641495, -0.1560944765806198, 0.029519617557525635, -0.002460002899169922, 0.1867043823003769, -0.0918266773223877, 0.047781966626644135, 0.16415414214134216, -0.07113514095544815, 0.0996083989739418, 0.08252286165952682, 0.15580862760543823, 0.04405359923839569, 0.004607498645782471, 0.05975461006164551, -0.1741171032190323, -0.1460735946893692, 0.034966107457876205, -0.0764637291431427], [-0.07581868767738342, -0.1251540184020996, -0.0486169308423996, 0.15660016238689423, -0.10213830322027206, -0.14649659395217896, 0.18122275173664093, -0.12726785242557526, 0.07175035774707794, 0.13612933456897736, 0.16008324921131134, 0.07247801125049591, -0.012998104095458984, -0.11334020644426346, 0.18873722851276398, 0.061820849776268005, 0.025857537984848022, 0.045132577419281006, 0.12437455356121063, -0.13828040659427643, 0.02113160490989685, 0.15367673337459564, 0.054993629455566406, 0.03908877074718475, -0.1007218062877655, -0.0027217119932174683, 0.13062308728694916, -0.15315696597099304], [-0.022208720445632935, 0.13001413643360138, -0.11646600812673569, 0.034991487860679626, 0.14942915737628937, -0.004178851842880249, 0.1607736200094223, 0.05400724709033966, 0.03386019170284271, 0.050334855914115906, 0.14863894879817963, -0.17893840372562408, -0.06320655345916748, 0.060032472014427185, 0.17314378917217255, 0.13924600183963776, -0.07078131288290024, -0.11736717075109482, -0.08140155673027039, -0.17445817589759827, -0.07656584680080414, 0.03449040651321411, 0.05924101173877716, -0.14361390471458435, -0.10233259201049805, -0.17196202278137207, -0.15910100936889648, 0.026088625192642212], [-0.176052987575531, 0.0617818646132946, 0.15868760645389557, 0.09402371942996979, -0.09094332158565521, 0.142933189868927, -0.06993384659290314, 0.055662281811237335, 0.04234524071216583, -0.10148140043020248, 0.18124867975711823, 0.1039046198129654, -0.14490698277950287, -0.16578656435012817, 0.062072381377220154, 0.09622634947299957, -0.14018027484416962, 0.020286202430725098, -0.023535853251814842, -0.08480380475521088, 0.0382794626057148, 0.0832882970571518, -0.006105527281761169, -0.07497037947177887, -0.07813818007707596, 0.13267846405506134, 0.05814613401889801, 0.0888020247220993], [-0.018211811780929565, -0.08941595256328583, 0.03620576858520508, -0.09377187490463257, -0.1804383397102356, 0.10492129623889923, -0.14978185296058655, 0.07705123722553253, 0.042903363704681396, 0.05001452565193176, 0.062429532408714294, 0.10166142880916595, 0.037404999136924744, 0.1888253539800644, -0.08109284937381744, -0.031436219811439514, -0.09155815839767456, 0.16914798319339752, -0.13486142456531525, -0.16071118414402008, 0.04408767819404602, 0.1544344574213028, -0.05163067579269409, -0.16558879613876343, -0.062393054366111755, 0.040170565247535706, -0.012834697961807251, -0.033305585384368896], [0.17388059198856354, 0.11046681553125381, 0.12874259054660797, -0.06872698664665222, 0.09248565137386322, -0.19133733212947845, -0.08190253376960754, 0.11271741986274719, 0.11861316859722137, 0.09251829236745834, -0.10992654412984848, 0.17173166573047638, -0.03574719652533531, 0.10532213747501373, -0.052847594022750854, 0.06311500072479248, -0.039817679673433304, 0.05702925845980644, 0.019361143931746483, 0.10430701076984406, -0.027357200160622597, -0.0363602489233017, 0.1682998389005661, 0.12268976867198944, -0.014896477572619915, 0.026979202404618263, 0.06331218779087067, -0.09063653647899628], [0.1832791417837143, -0.05736204981803894, -0.016387924551963806, -0.05969300866127014, -0.1645365059375763, -0.1842121034860611, 0.011410698294639587, -0.009434565901756287, 0.00553460419178009, -0.07020992040634155, 0.1435631960630417, 0.027646362781524658, 0.18457065522670746, -0.03432004153728485, 0.046203821897506714, 0.17628566920757294, -0.14871424436569214, -0.02268582582473755, -0.0565669983625412, -0.07723106443881989, 0.07116656005382538, 0.14165528118610382, -0.1796097308397293, 0.1073407381772995, -0.05004534125328064, 0.07949580252170563, 0.029655441641807556, -0.011845409870147705], [0.0007188456365838647, -0.1383989453315735, -0.07801426202058792, 0.013058722019195557, 0.005673490930348635, 0.13041238486766815, -0.004761368036270142, 0.05328720062971115, 0.08964163064956665, -0.16745533049106598, -0.1574847251176834, -0.18798278272151947, -0.03351151943206787, -0.08038121461868286, -0.08879096806049347, 0.03305627033114433, 0.06401991844177246, 0.013558014295995235, -0.15209230780601501, -0.002854763064533472, 0.014898614026606083, -0.08733613044023514, -0.1443912237882614, 0.09074772894382477, -0.007429265882819891, 0.15271848440170288, 0.028075912967324257, 0.173760324716568], [0.05670495331287384, -0.03539666533470154, -0.16391678154468536, -0.08916967362165451, -0.06670021265745163, -0.06536062806844711, 0.05990377068519592, 0.11152885854244232, -0.1625952571630478, -0.14749681949615479, -0.027856305241584778, 0.14831368625164032, -0.1665642261505127, -0.042571038007736206, -0.09797772765159607, -0.11496971547603607, 0.049096882343292236, -0.025524675846099854, -0.187309131026268, -0.11947344243526459, -0.003489941358566284, 0.17857976257801056, -0.08844204992055893, 0.024042412638664246, -0.1553928554058075, 0.10057519376277924, 0.03933422267436981, 0.06574232876300812], [-0.13513164222240448, 0.11884384602308273, 0.15587948262691498, 0.1438116878271103, 0.05649104714393616, -0.09950151294469833, 0.09651967883110046, -0.1754806637763977, 0.08897589147090912, 0.17728623747825623, -0.02537001669406891, 0.06681643426418304, 0.15488962829113007, 0.007442250847816467, -0.12743794918060303, 0.16482944786548615, 0.08962541073560715, -0.06443729996681213, -0.1737418919801712, 0.10901708155870438, -0.16370104253292084, 0.17896012961864471, 0.09942899644374847, -0.11414753645658493, 0.101292684674263, 0.038751937448978424, -0.1837642639875412, -0.1278212070465088], [0.1238790974020958, -0.09562110900878906, 0.1702246218919754, 0.0992981344461441, -0.13583391904830933, 0.14994803071022034, -0.05234692990779877, 0.10173632949590683, 0.005033120512962341, 0.011925095692276955, 0.1437494307756424, -0.04719047248363495, -0.07469093799591064, -0.12798941135406494, 0.16195325553417206, 0.15700186789035797, -0.03349924832582474, -0.01718088611960411, 0.044903792440891266, 0.09630659967660904, 0.07865428924560547, -0.10973525792360306, 0.07966630160808563, 0.1187514215707779, -0.008232655003666878, -0.04174168035387993, 0.07923725247383118, -0.0912977084517479], [-0.07467735558748245, 0.05605120211839676, 0.1735888123512268, 0.164536252617836, -0.07233397662639618, 0.1060672327876091, 0.1065305769443512, 0.11299870163202286, 0.06845028698444366, 0.025391336530447006, 0.18210642039775848, 0.1374218612909317, -0.0807073786854744, 0.16448159515857697, 0.03329800069332123, -0.10029236227273941, 0.03586301952600479, -0.08845112472772598, 0.043577369302511215, -0.0337037667632103, 0.06774242222309113, 0.11649654805660248, 0.043147340416908264, -0.14566922187805176, 0.04950067028403282, -0.027315426617860794, -0.05719495937228203, 0.07003704458475113], [-0.10198435932397842, 0.10846052318811417, -0.09765009582042694, 0.1273036152124405, 0.03191881254315376, -0.07443612068891525, 0.04755929112434387, 0.10301778465509415, -0.1751520037651062, -0.01025600079447031, -0.00964847207069397, -0.11556421965360641, -0.19390246272087097, -0.07338165491819382, 0.08098353445529938, -0.1387511044740677, -0.15767744183540344, 0.014984664507210255, -0.18581467866897583, 0.06748354434967041, -0.05243954807519913, 0.04831917583942413, -0.018659725785255432, -0.10411360114812851, 0.021200604736804962, 0.15372596681118011, -0.00467304140329361, 0.006832181941717863], [0.08261430263519287, 0.08266581594944, 0.14517556130886078, 0.10307429730892181, 0.12774309515953064, -0.06379702687263489, 0.17194384336471558, -0.1630987972021103, 0.11054159700870514, -0.0004834044957533479, 0.18346180021762848, 0.17236514389514923, 0.1743752360343933, -0.1840742975473404, 0.013904005289077759, 0.16884422302246094, -0.19192062318325043, 0.02760431170463562, 0.17320354282855988, -0.1787787675857544, 0.18015097081661224, -0.04527564346790314, 0.18467096984386444, -0.07597846537828445, -0.1731797605752945, -0.11435350775718689, -0.12678217887878418, -0.15881690382957458], [0.1678180694580078, 0.07000342756509781, -0.16478540003299713, -0.17928464710712433, 0.08812571316957474, 0.06573180109262466, 0.19123797118663788, 0.14315441250801086, -0.16040760278701782, -0.11165361851453781, 0.14455021917819977, -0.02875325083732605, -0.002684564096853137, 0.021612167358398438, -0.03204280138015747, -0.09543566405773163, 0.04495049640536308, -0.024395573884248734, 0.02798870950937271, 0.10303222388029099, 0.13403210043907166, -0.1781390905380249, 0.08669693768024445, -0.004957720637321472, -0.1708851158618927, -0.1806591898202896, 0.172879159450531, 0.13695800304412842]], "actor.network.2.bias": [0.1457938551902771, 0.0832584872841835, 0.16018782556056976, 0.11079706251621246, -0.17973844707012177, -0.1397969126701355, 0.07306257635354996, -0.18455182015895844, -0.07374248653650284, 0.1441376656293869, -0.16652674973011017, -0.09868825227022171, -0.11871040612459183, 0.16727085411548615, -0.027415916323661804, 0.17307807505130768, 0.11033293604850769, 0.03695319592952728, 0.11188163608312607, -0.12875646352767944, -0.12343993782997131, -0.02521248161792755, 0.11713401228189468, -0.039771340787410736, 0.09304653108119965, 0.11296908557415009, 0.048573389649391174, 0.09826420247554779], "actor.network.4.weight": [[0.0898669883608818, 0.1147301197052002, 0.011810320429503918, 0.014714651741087437, -0.1907828152179718, 0.01052062213420868, -0.033498235046863556, -0.03351970016956329, 0.05830211937427521, 0.06579295545816422, -0.10681774467229843, -0.03478023409843445, -0.07107717543840408, 0.10934135317802429, -0.04883800446987152, 0.004214942455291748, 0.09454793483018875, -0.12043988704681396, -0.0143210394307971, -0.10748507082462311, 0.17081119120121002, -0.1200510710477829, 0.1290539652109146, 0.03729821369051933, -0.1692490130662918, -0.023647477850317955, 0.039667338132858276, 0.1665538102388382], [-0.02014370821416378, -0.011379856616258621, 0.08940611779689789, 0.001705548376776278, -0.10057230293750763, 0.11508975923061371, -0.11981350928544998, 0.07042340934276581, -0.09627135097980499, 0.13218992948532104, 0.1288444697856903, -0.06725937128067017, -0.016673654317855835, 0.17046809196472168, -0.11464976519346237, -0.07888496667146683, 0.1420070230960846, -0.09850951284170151, -0.054011497646570206, -0.16808447241783142, 0.13081540167331696, -0.05493965744972229, -0.001820458797737956, 0.07252893596887589, 0.020926734432578087, -0.14448535442352295, -0.026850305497646332, -0.0391293503344059], [0.09921570122241974, -0.022688522934913635, -0.037590011954307556, -0.010021701455116272, -0.1445082128047943, 0.00706791877746582, -0.14126206934452057, 0.055002033710479736, 0.1420382708311081, 0.05012020468711853, 0.1067228764295578, -0.05005273222923279, 0.01818542182445526, 0.11670227348804474, -0.0452890545129776, -0.04740229249000549, -0.0567048043012619, -0.1777690351009369, -0.17929574847221375, -0.16470058262348175, 0.18028001487255096, -0.18185541033744812, 0.043402835726737976, -0.18503127992153168, 0.13748188316822052, 0.03728674352169037, 0.03656430542469025, -0.06302694976329803], [0.012353084050118923, -0.15908996760845184, -0.07330936938524246, -0.16517993807792664, 0.06328868120908737, 0.13252471387386322, -0.09657365828752518, -0.166891410946846, -0.08950477093458176, -0.00942818820476532, -0.0904194638133049, 0.0667971819639206, -0.13532355427742004, -0.04070720821619034, 0.11755253374576569, 0.040596023201942444, 0.07365649193525314, -0.12120727449655533, 0.12654942274093628, -0.07727416604757309, 0.1830112338066101, 0.08146597445011139, 0.17644543945789337, 0.17682594060897827, -0.025763100013136864, 0.14819583296775818, 0.03532049059867859, -0.07866601645946503], [0.0571122020483017, 0.14801867306232452, 0.14362673461437225, 0.08629854023456573, -0.13641957938671112, -0.04887053370475769, 0.06201668083667755, -0.17325429618358612, 0.06167779862880707, -0.10507962107658386, 0.18838073313236237, 0.1620863825082779, -0.05280204117298126, 0.17378486692905426, -0.17011013627052307, 0.019787251949310303, 0.17662037909030914, -0.15346387028694153, -0.10370220988988876, -0.0981706827878952, -0.1734355092048645, -0.02206552028656006, 0.05287730693817139, -0.061030372977256775, 0.0637844055891037, 0.019179567694664, -0.08653033524751663, -0.046532511711120605], [-0.0787433534860611, 0.18672029674053192, 0.05813582241535187, -0.10752645134925842, 0.03011287748813629, 0.10874246060848236, 0.13199587166309357, 0.07617826759815216, -0.18404677510261536, 0.038837745785713196, 0.1011117547750473, -0.0267055481672287, 0.14401309192180634, 0.05784919857978821, 0.008923336863517761, -0.051779136061668396, 0.025013327598571777, -0.18675656616687775, -0.10851741582155228, 0.014405816793441772, 0.01744401454925537, -0.16672681272029877, -0.07100149989128113, 0.013551920652389526, -0.11518608033657074, -0.07183568924665451, 0.093736931681633, -0.17923572659492493], [-0.08821798115968704, 0.17337457835674286, 0.16973476111888885, -0.14234694838523865, 0.05720484256744385, -0.11798615753650665, -0.06536004692316055, -0.137479767203331, -0.028749212622642517, 0.16701389849185944, -0.08471181243658066, 0.13407506048679352, 0.10798005759716034, -0.03423108160495758, 0.09177537262439728, 0.002596035599708557, -0.17207218706607819, 0.1443563848733902, -0.17892521619796753, 0.007171705365180969, -0.1541014313697815, 0.1614781767129898, -0.18053819239139557, 0.0539974719285965, 0.07874540984630585, -0.09831549972295761, 0.018867626786231995, -0.082961805164814], [-0.09292152523994446, -0.04029843583703041, 0.0993635281920433, 0.08395866304636002, 0.1281336396932602, -0.14066168665885925, 0.023632537573575974, -0.10055345296859741, -0.07973740994930267, 0.05756150558590889, 0.09147579222917557, -0.01445053517818451, 0.12183789908885956, -0.1886233538389206, -0.10511644929647446, 0.1544502228498459, -0.13309605419635773, 0.017620190978050232, -0.020804425701498985, 0.13630254566669464, 0.0978926345705986, 0.11070646345615387, -0.1726970374584198, -0.07528790831565857, 0.16757485270500183, 0.09260760992765427, -0.1736576408147812, 0.15285390615463257], [-0.1889125555753708, -0.03777788579463959, -0.1473875492811203, 0.005245596636086702, 0.07703478634357452, -0.057868823409080505, -0.04530371353030205, -0.1467343121767044, 0.041384611278772354, -0.16890232264995575, -0.037137821316719055, 0.18625019490718842, -0.03238403797149658, -0.006634826306253672, 0.0017279088497161865, 0.14555297791957855, 0.06530393660068512, 0.09214620292186737, 0.04125867038965225, -0.04000912606716156, -0.08464483916759491, -0.04098440706729889, 0.11834287643432617, 0.04996582865715027, -0.04694148525595665, -0.1434178650379181, 0.017514605075120926, -0.09603965282440186], [-0.14663030207157135, 0.1066969558596611, 0.08080440014600754, -0.034580476582050323, -0.06920566409826279, 0.09584595263004303, 0.09706183522939682, 0.12807650864124298, -0.1077965497970581, -0.16137737035751343, 0.08085563778877258, -0.03344210982322693, -0.13432112336158752, -0.07415397465229034, 0.10225199162960052, -0.17418555915355682, 0.054156962782144547, -0.17483818531036377, -0.024106085300445557, -0.09005076438188553, -0.006936974357813597, -0.12946845591068268, 0.07127611339092255, -0.06896688789129257, -0.16629059612751007, 0.06179092451930046, -0.11989156156778336, 0.05116913840174675], [0.10917194187641144, -0.028369978070259094, -0.13389092683792114, 0.1144743412733078, -0.1053638830780983, -0.06815431267023087, 0.09055964648723602, 0.006814137101173401, 0.10072846710681915, 0.18767111003398895, 0.139198437333107, -0.01030983030796051, 0.03799013793468475, 0.08558176457881927, -0.11995850503444672, -0.1617894172668457, 0.11403243243694305, 0.15955711901187897, -0.058108747005462646, -0.13010624051094055, -0.13240328431129456, 0.019531413912773132, -0.12718331813812256, -0.04424382746219635, -0.14798863232135773, -0.15293531119823456, 0.0028153061866760254, 0.069032683968544], [-0.11434139311313629, 0.14688082039356232, -0.14108116924762726, -0.0973125547170639, 0.08261062204837799, -0.05927848815917969, -0.010007426142692566, -0.06725554168224335, -0.017567068338394165, -0.06835132837295532, 0.13193602859973907, -0.18199510872364044, -0.10835611075162888, 0.08152486383914948, -0.13566619157791138, -0.122716024518013, -0.0701012909412384, -0.17273899912834167, -0.0485461950302124, -0.11551109701395035, -0.16865991055965424, 0.15230683982372284, 0.03161107003688812, 0.12200851738452911, -0.13045302033424377, 0.18184347450733185, -0.13588781654834747, -0.08562649041414261], [0.1850903034210205, 0.060930851846933365, -0.05678205192089081, -0.15294933319091797, 0.04524906352162361, 0.1364486664533615, -0.13178326189517975, 0.022285401821136475, 0.15180085599422455, -0.03635421767830849, 0.12684941291809082, 0.07273031771183014, -0.0546560138463974, -0.032904237508773804, 0.1350003033876419, -0.1774938404560089, 0.025511013343930244, -0.0012421458959579468, -0.09496600925922394, -0.01123984158039093, -0.18268665671348572, 0.18828140199184418, 0.13807745277881622, -0.06838459521532059, 0.09819159656763077, 0.10766566544771194, 0.08749593794345856, 0.061624523252248764], [-0.08027821779251099, -0.14638063311576843, -0.04938742518424988, 0.14095689356327057, -0.007304146885871887, 0.15729470551013947, -0.03903330862522125, 0.14384882152080536, 0.15787403285503387, -0.11228536069393158, -0.007249608635902405, 0.01963585615158081, -0.1510036289691925, -0.04293927550315857, -0.18621918559074402, -0.06850431859493256, -0.01591496169567108, -0.07124841213226318, 0.11746092140674591, -0.03729782998561859, -0.09645343571901321, 0.0543217808008194, -0.03237393498420715, 0.08407889306545258, 0.06376181542873383, 0.026308536529541016, -0.056538745760917664, -0.1092580109834671], [0.018174543976783752, -0.0043293386697769165, 0.012444823980331421, 0.17589019238948822, -0.007142543792724609, -0.1544644832611084, 0.039876848459243774, -0.13449731469154358, -0.0005359798669815063, -0.16269008815288544, 0.1721998006105423, 0.18711896240711212, -0.15787075459957123, -0.05917021632194519, -0.04456348717212677, 0.06715257465839386, -0.16962170600891113, 0.11021681129932404, -0.18233229219913483, 0.04804413020610809, -0.11719874292612076, 0.0903472751379013, -0.1502659022808075, 0.1457545906305313, -0.032335951924324036, 0.12542863190174103, 0.12166003882884979, -0.11219317466020584], [-0.07207518070936203, 0.08752559125423431, -0.037293124943971634, 0.10014030337333679, -0.08837025612592697, 0.16743604838848114, 0.03495180979371071, 0.006173461675643921, 0.14645515382289886, -0.1473013311624527, 0.006523490883409977, 0.1552235335111618, -0.14354190230369568, 0.09374227374792099, 0.11327226459980011, -0.15479372441768646, 0.08052818477153778, 0.08541662991046906, 0.06356226652860641, -0.13146992027759552, 0.17392168939113617, 0.0767659991979599, 0.18399874866008759, -0.02541002631187439, -0.11470863223075867, -0.11900730431079865, -0.1270121932029724, -0.03279938921332359], [-0.12493233382701874, 0.15445126593112946, -0.08980270475149155, 0.019373798742890358, -0.11974712461233139, -0.11454349756240845, 0.1104060485959053, -0.17086473107337952, -0.16564516723155975, 0.0323510617017746, 0.07239630073308945, -0.07297629863023758, 0.07260949909687042, 0.1380990743637085, 0.18368013203144073, 0.08110605180263519, 0.10215504467487335, 0.06655500829219818, 0.10033287107944489, -0.07510627806186676, 0.06539002060890198, 0.013788685202598572, 0.03930186480283737, 0.13622720539569855, -0.05283914506435394, 0.020439988002181053, -0.17890231311321259, 0.0011583662126213312], [-0.023668766021728516, 0.037036776542663574, -0.036762967705726624, -0.0458543598651886, -0.1061401218175888, 0.049023836851119995, -0.15922324359416962, -0.15687702596187592, -0.06951633840799332, -0.02058328688144684, 0.1596938520669937, 0.06878150999546051, 0.007312282919883728, 0.1392461508512497, -0.09333574771881104, -0.005432143807411194, -0.1405356377363205, -0.10318528860807419, 0.022923991084098816, -0.18568015098571777, 0.07964344322681427, -0.015060216188430786, 0.022238165140151978, -0.09092986583709717, -0.10216619819402695, -0.15626457333564758, -0.11308205872774124, 0.03290703892707825], [0.004609036259353161, 0.10383754223585129, -0.016595032066106796, 0.03477675840258598, 0.18341408669948578, 0.12873686850070953, -0.1417866200208664, -0.020663708448410034, -0.14401328563690186, -0.08330615609884262, -0.030369766056537628, -0.1511823982000351, 0.15583978593349457, -0.06484409421682358, 0.11742125451564789, -0.1315912902355194, 0.010044614784419537, 0.10240651667118073, 0.0813140794634819, 0.012247204780578613, -0.08226653188467026, -0.14693684875965118, 0.16316723823547363, -0.1491166353225708, 0.10039157420396805, 0.06903214752674103, -0.0265717264264822, 0.09573443233966827], [-0.05266492813825607, 0.10023176670074463, 0.022186139598488808, 0.1297425925731659, 0.07841314375400543, 0.020322293043136597, 0.014305840246379375, -0.04656596481800079, 0.09377225488424301, 0.1553216427564621, 0.03999565541744232, -0.1447950005531311, 0.07332034409046173, 0.16402670741081238, 0.10069961845874786, -0.06114871799945831, -0.18229582905769348, -0.1513201892375946, -0.12896831333637238, -0.13161228597164154, -0.012525409460067749, -0.015049442648887634, -0.039366357028484344, 0.14593914151191711, -0.07374049723148346, -0.15526042878627777, 0.04285106435418129, -0.09273150563240051], [-0.02796102873980999, -0.05688401684165001, 0.10432696342468262, -0.07507964968681335, -0.10088332742452621, 0.06412665545940399, 0.18893837928771973, 0.010499268770217896, -0.0947306826710701, -0.10968447476625443, 0.07402625679969788, 0.17155791819095612, -0.05762314796447754, 0.11567652225494385, -0.0004097670316696167, 0.17668496072292328, -0.16287745535373688, -0.14456266164779663, 0.03924853727221489, -0.01789999008178711, 0.16930486261844635, 0.01435232162475586, -0.13159605860710144, -0.10037907212972641, -0.1501380354166031, 0.08938897401094437, 0.15304332971572876, 0.0014644477050751448], [-0.05216580629348755, -0.1762988418340683, 0.02046314626932144, -0.12170784920454025, 0.033138372004032135, 0.015074476599693298, 0.08084142208099365, -0.038444578647613525, -0.05990270525217056, -0.1051095575094223, 0.1932963728904724, 0.03334328532218933, -0.021397843956947327, 0.05266878753900528, 0.1431572586297989, -0.0910559818148613, -0.14624793827533722, 0.17594708502292633, 0.018411459401249886, 0.15169860422611237, 0.08388424664735794, -0.17470760643482208, 0.07823799550533295, 0.05602536350488663, -0.024302346631884575, 0.10882440954446793, 0.02339954301714897, 0.0029030442237854004], [-0.06727221608161926, -0.05823035538196564, -0.057126760482788086, 0.007390156388282776, -0.10322412848472595, 0.08283813297748566, -0.0035875439643859863, 0.01171875, 0.07894887030124664, -0.0772247165441513, 0.1023407131433487, -0.1165383905172348, -0.08902634680271149, -0.11884242296218872, -0.18205761909484863, 0.050177574157714844, 0.025218665599822998, 0.18380306661128998, -0.1019112840294838, -0.09959682822227478, -0.003003329038619995, -0.09963210672140121, 0.030725926160812378, 0.16873587667942047, -0.041802749037742615, -0.07492455840110779, 0.0958842784166336, 0.03844250738620758], [0.009760722517967224, 0.13098521530628204, -0.18161188066005707, 0.03341226279735565, 0.08378581702709198, 0.14253811538219452, -0.16553974151611328, 0.15007524192333221, -0.14212673902511597, -0.0940258577466011, -0.07254749536514282, -0.1533631682395935, -0.11806174367666245, 0.1293281465768814, 0.039707884192466736, 0.044946447014808655, 0.07464931905269623, -0.02877931296825409, -0.14997361600399017, 0.0665351003408432, 0.1826583296060562, 0.10383953154087067, 0.06852580606937408, 0.08629412949085236, -0.1637270599603653, 0.18792270123958588, -0.15987826883792877, -0.09205327183008194], [-0.029902935028076172, -0.1542896032333374, -0.09857531636953354, -0.1737452745437622, 0.15957193076610565, 0.1075693815946579, -0.06945127993822098, -0.037981122732162476, -0.03538976609706879, -0.09526557475328445, -0.07310496270656586, 0.16736991703510284, -0.025318950414657593, -0.026478826999664307, 0.05252651870250702, -0.18783609569072723, -0.14033201336860657, -0.10067382454872131, 0.025560781359672546, -0.040942683815956116, -0.12097113579511642, 0.06558232009410858, 0.17430756986141205, -0.004170864820480347, 0.1327357143163681, -0.08614960312843323, 0.04363703727722168, 0.03489832580089569], [0.038659945130348206, -0.09990371018648148, 0.021557480096817017, -0.06566854566335678, -0.12865716218948364, 0.17623771727085114, 0.010946184396743774, 0.0444507896900177, 0.13661833107471466, -0.13263195753097534, 0.1233832985162735, 0.0416949987411499, -0.04728858172893524, 0.019427180290222168, -0.11368297785520554, 0.026586636900901794, 0.10925637185573578, -0.025106430053710938, -0.0658528059720993, -0.1503206193447113, -0.11418020725250244, 0.09740503132343292, -0.09127281606197357, -0.1658416986465454, -0.06402629613876343, -0.06461162865161896, -0.14704371988773346, -0.1074642539024353], [-0.18392561376094818, 0.1614288091659546, 0.10612586885690689, -0.0309358648955822, 0.07555875927209854, -0.184181809425354, 0.07573260366916656, 0.04628556966781616, 0.09803242236375809, 0.15161189436912537, -0.08791916072368622, -0.16557669639587402, 0.1301894634962082, 0.11222868412733078, -0.043106019496917725, 0.005278840661048889, -0.06587431579828262, -0.05590641498565674, -0.08401715755462646, -0.012208402156829834, -0.024957573041319847, -0.04329386353492737, 0.1270696520805359, 0.13743242621421814, 0.19092543423175812, 0.08871780335903168, -0.08655639737844467, 0.05048885568976402], [-0.17081332206726074, -0.11927714943885803, -0.11751508712768555, -0.027393773198127747, -0.05163441598415375, -0.00809718668460846, -0.13326939940452576, -0.029249906539916992, 0.007212743163108826, -0.06409766525030136, -0.1469537913799286, -0.05645619332790375, -0.15094639360904694, -0.032664954662323, 0.013572484254837036, -0.1017555445432663, 0.0063823312520980835, 0.14313383400440216, -0.14999298751354218, -0.13594968616962433, -0.1762935370206833, 0.13526414334774017, 0.04681907594203949, 0.06534944474697113, -0.18793806433677673, -0.039188235998153687, 0.024080753326416016, -0.14445455372333527]], "actor.network.4.bias": [0.18567891418933868, 0.09610781073570251, -0.044609054923057556, 0.16745492815971375, -0.12946172058582306, -0.16642245650291443, -0.17452920973300934, 0.18163403868675232, 0.07073958218097687, 0.038269635289907455, -0.16166812181472778, -0.03516368567943573, 0.18640555441379547, -0.15647903084754944, -0.09148122370243073, -0.07425812631845474, -0.07212851196527481, -0.15926355123519897, 0.11284355819225311, 0.03132285550236702, 0.0368267260491848, 0.08183494210243225, -0.040309593081474304, 0.05650798976421356, -0.079030342400074, -0.09066711366176605, 0.059277791529893875, -0.12990061938762665], "actor.network.6.weight": [[-0.14170493185520172, 0.11949796974658966, -0.14413583278656006, 0.12480137497186661, -0.09782300144433975, -0.05889737606048584, 0.1505790799856186, 0.12484554946422577, -0.04318421334028244, -0.03317020833492279, -0.017765119671821594, 0.003002256155014038, 0.005884699523448944, 0.002575606107711792, -0.17281891405582428, -0.09178344905376434, -0.06204928085207939, 0.08370290696620941, -0.028366927057504654, -0.1755485087633133, -0.00415108073502779, 0.06529662013053894, 0.164688840508461, -0.05236314237117767, -0.04408128559589386, -0.020147323608398438, -0.17195935547351837, -0.02891029417514801], [-0.013837464153766632, 0.1468856930732727, -0.13695639371871948, 0.02787284553050995, 0.14672301709651947, 0.05671142041683197, 0.1320965737104416, -0.01646280661225319, -0.11593353748321533, -0.1422785371541977, -0.08322396874427795, -0.1366899311542511, 0.1653151661157608, -0.10137082636356354, -0.1778430938720703, 0.11677902936935425, -0.17256039381027222, 0.09774936735630035, 0.014852598309516907, -0.14892859756946564, -0.09765283018350601, 0.002321288688108325, 0.18081103265285492, 0.10217373073101044, -0.15737050771713257, 0.10878463089466095, 0.18218903243541718, -0.07147687673568726]], "actor.network.6.bias": [-0.12345229089260101, -0.01334385760128498], "critic.network.0.weight": [[0.4152323007583618, -0.1335138976573944, 0.06898163259029388, -0.010011916048824787], [0.4511047601699829, 0.4405939280986786, 0.3791390359401703, -0.4717000126838684], [-0.17075645923614502, 0.08440852165222168, 0.47480010986328125, 0.18015772104263306], [0.5213019251823425, -0.28972211480140686, -0.10900837928056717, 0.2806205451488495], [0.4110082685947418, 0.17575891315937042, 0.14691612124443054, 0.256877601146698], [0.06526436656713486, 0.3141656816005707, 0.3735909163951874, -0.16989447176456451], [0.12314456701278687, 0.326315701007843, 0.10315395891666412, -0.15505480766296387], [0.44306543469429016, 0.4422951340675354, 0.17966365814208984, -0.04689400643110275], [0.08457416296005249, 0.20313481986522675, 0.0158290546387434, 0.2918144762516022], [-0.4422643780708313, -0.18351757526397705, -0.37116649746894836, 0.2668047249317169], [0.12198963016271591, -0.28238219022750854, -0.3074209690093994, 0.37870723009109497], [0.3839300870895386, 0.014522072859108448, -0.009746907278895378, 0.33520472049713135], [0.23553742468357086, -0.2855628430843353, -0.01904352754354477, 0.20050445199012756], [0.3329548239707947, -0.04892241954803467, -0.10623449087142944, 0.0739518404006958], [0.1444339156150818, -0.2007427215576172, -0.3830084204673767, 0.25631028413772583], [0.380584716796875, 0.4642219543457031, 0.4413638114929199, -0.14670220017433167], [0.46369820833206177, -0.3535829186439514, 0.23261886835098267, -0.32248103618621826], [0.22650356590747833, -0.05975121259689331, -0.4988524615764618, 0.44855496287345886], [-0.4809125065803528, 0.0728222131729126, 0.3775714039802551, 0.1171644926071167], [-0.13558755815029144, 0.2823093831539154, 0.4722527861595154, -0.3079046905040741], [0.3955850899219513, 0.16720105707645416, -0.05600541830062866, 0.4372204840183258], [0.382602334022522, 0.21500909328460693, -0.39813941717147827, 0.2030395269393921], [-0.1600438505411148, -0.4724012613296509, 0.1442662626504898, -0.11775869131088257], [0.06395202875137329, 0.17706185579299927, -0.06838011741638184, 0.025237560272216797], [-0.1929095983505249, -0.15499728918075562, -0.20407205820083618, -0.0024169087409973145], [-0.21880772709846497, 0.42470553517341614, -0.03454159200191498, -0.1835435926914215], [-0.3764726519584656, 0.12537452578544617, 0.219858318567276, 0.3537665903568268], [0.2678074836730957, -0.17431747913360596, -0.48341262340545654, 0.33120226860046387]], "critic.network.0.bias": [0.2794284224510193, 0.4480117857456207, -0.3335114121437073, 0.19431884586811066, 0.4442835748195648, 0.08713032305240631, -0.2599833905696869, -0.07832575589418411, 0.3148844242095947, 0.5155341625213623, -0.2992740571498871, 0.2435789704322815, -0.12390594184398651, -0.20018267631530762, -0.438770592212677, -0.1398288458585739, -0.4893665909767151, 0.15357032418251038, -0.492648720741272, -0.1585145741701126, 0.18524108827114105, -0.20236170291900635, -0.002228646306321025, -0.21737688779830933, -0.08387279510498047, 0.19089816510677338, 0.43871405720710754, -0.40806227922439575], "critic.network.2.weight": [[-0.17371682822704315, 0.007178580854088068, -0.10442178696393967, -0.05157139524817467, 0.029156168922781944, -0.050021685659885406, 0.0735895112156868, 0.016598965972661972, 0.16352522373199463, 0.021699480712413788, 0.07962541282176971, -0.01144332904368639, -0.04771280288696289, 0.051980406045913696, 0.1088443249464035, 0.07508640736341476, -0.07714032381772995, -0.15978068113327026, -0.034343019127845764, -0.12899979948997498, 0.0631861463189125, -0.03888511657714844, 0.03317388892173767, 0.04756174981594086, -0.13270121812820435, 0.06426671147346497, -0.060377903282642365, 0.021588623523712158], [0.04337412118911743, -0.037394821643829346, -0.13497722148895264, -0.148105189204216, -0.17922915518283844, 0.09951938688755035, -0.040456682443618774, -0.023944079875946045, 0.10086379945278168, -0.13929371535778046, 0.00506928563117981, 0.04472482204437256, 0.1379733830690384, 0.1622147411108017, -0.06068442761898041, -0.14326432347297668, 0.15934081375598907, 0.11633114516735077, 0.025657907128334045, -0.05106422305107117, 0.0869920402765274, 0.12196584045886993, 0.1463809460401535, -0.050219520926475525, 0.07154776155948639, -0.16812655329704285, -0.0932549387216568, 0.17762894928455353], [-0.11827471852302551, 0.030717389658093452, -0.08930671215057373, -0.008344942703843117, -0.1376786231994629, 0.01689336448907852, -0.07934244722127914, 0.16475270688533783, 0.1602257490158081, -0.13448625802993774, -0.06768058240413666, -0.12904836237430573, -0.10193493962287903, -0.03542572259902954, 0.13634906709194183, 0.07090763002634048, 0.0747959166765213, -0.10321874171495438, 0.12516625225543976, -0.2047177404165268, -0.18483906984329224, 0.11225663125514984, -0.07729554921388626, 0.17897047102451324, -0.05685146152973175, -0.1927242875099182, -0.02703213132917881, 0.1454402357339859], [0.22519026696681976, 0.16404877603054047, -0.16289427876472473, -0.05147693306207657, -0.08716411143541336, -0.11119075864553452, -0.027331415563821793, -0.11618470400571823, 0.11692848801612854, -0.11836186051368713, -0.03413265943527222, -0.015586874447762966, -0.07456222921609879, -0.1513286828994751, -0.11954107135534286, 0.1705506145954132, 0.09705303609371185, -0.03122638165950775, -0.03906947374343872, 0.040129680186510086, 0.14148837327957153, -0.1313323974609375, -0.13670262694358826, -0.027894437313079834, 0.15289191901683807, -0.03005710057914257, -0.08351405709981918, -0.03832174837589264], [-0.08405377715826035, -0.07990536093711853, -0.18244175612926483, -0.028700366616249084, -0.1839563399553299, 0.09255184978246689, 0.053317006677389145, 0.009990264661610126, -0.09131872653961182, -0.012314284220337868, 0.09761877357959747, 0.07241855561733246, -0.03573927283287048, 0.03135561943054199, 0.079352006316185, 0.17736618220806122, 0.024760574102401733, -0.10380511730909348, 0.1829448789358139, 0.12410859018564224, 0.16465021669864655, -0.13887813687324524, 0.164483442902565, -0.05820384621620178, 0.027284443378448486, 0.07220055162906647, -0.07758107781410217, 0.11020292341709137], [-0.01987842284142971, -0.0890946164727211, -0.1619967520236969, 0.04806860163807869, 0.23172527551651, 0.14961813390254974, -0.15436875820159912, 0.14880989491939545, -0.07148332893848419, 0.2044672966003418, -0.13649088144302368, 0.09151124209165573, -0.11818558722734451, 0.1473970264196396, -0.1292407214641571, -0.12199333310127258, 0.07849295437335968, -0.010192850604653358, -0.16659022867679596, -0.048330847173929214, 0.0008282603230327368, 0.10973908007144928, 0.21324528753757477, -0.17087078094482422, -0.1355079859495163, 0.1831970065832138, 0.11880206316709518, -0.050239816308021545], [-0.14874069392681122, 0.007846519351005554, 0.03442102670669556, -0.07297945767641068, -0.11108486354351044, -0.12660467624664307, 0.07986702024936676, 0.08007024228572845, -0.05218750238418579, -0.09709623456001282, 0.0070242732763290405, -0.025621891021728516, -0.06953246891498566, 0.07556279003620148, -0.12905782461166382, -0.05515463650226593, 0.03793887794017792, 0.05185145139694214, -0.18038098514080048, -0.11833566427230835, 0.1797877997159958, 0.13753117620944977, 0.15454159677028656, -0.184695303440094, -0.10933057963848114, -0.08395878225564957, -0.027641937136650085, -0.18807680904865265], [0.16610756516456604, 0.16050392389297485, 0.05064162611961365, 0.21432548761367798, -0.01862834207713604, -0.07359997928142548, 0.1792701929807663, 0.06032354384660721, -0.05017796903848648, 0.053924448788166046, 0.1786222606897354, 0.011243734508752823, 0.1334504932165146, 0.18078957498073578, -0.08229830116033554, -0.06390277296304703, -0.12425654381513596, 0.15982110798358917, -0.10152607411146164, 0.002925013890489936, -0.13236214220523834, 0.07259105145931244, -0.04162011295557022, 0.10363079607486725, -0.07260755449533463, 0.02871645614504814, 0.19691596925258636, 0.04020988941192627], [-0.02282867208123207, 0.17058151960372925, 0.04036082327365875, -0.03851320967078209, 0.05357150360941887, 0.14926862716674805, 0.000948758446611464, 0.16298478841781616, -0.11828597635030746, 0.10667377710342407, -0.1758657991886139, -0.02245425619184971, 0.17695097625255585, -0.18772992491722107, -0.15500259399414062, 0.1601104736328125, -0.03299422562122345, 0.17997629940509796, 0.03899523615837097, 0.12962695956230164, 0.009535865858197212, -0.18511153757572174, -0.021012812852859497, -0.036585792899131775, 0.013862475752830505, -0.07143871486186981, -0.07392971217632294, 0.021195948123931885], [-0.014274219051003456, 0.0508791022002697, -0.12120337784290314, 0.1446678191423416, 0.13940976560115814, 0.12373441457748413, 0.10166434943675995, -0.1456460803747177, -0.13997997343540192, -0.04676702246069908, 0.022356906905770302, 0.1768699288368225, -0.03930193930864334, -0.08200216293334961, -0.04227244853973389, -0.11198505759239197, 0.04433576762676239, 0.07847938686609268, -0.15963497757911682, -0.05851859599351883, -0.015749014914035797, -0.12649625539779663, 0.0709136426448822, -0.14283055067062378, -0.018590211868286133, -0.13878601789474487, 0.07083160430192947, 0.053782686591148376], [0.10454893112182617, 0.14931361377239227, 0.09443141520023346, 0.1806764453649521, 0.1542285829782486, 0.07998479157686234, 0.05148926004767418, -0.04029106721282005, -0.00875064730644226, 0.045588623732328415, 0.09931820631027222, -0.09957575798034668, 0.008765880949795246, -0.17863920331001282, 0.186858668923378, -0.08245843648910522, 0.08510489761829376, 0.09654716402292252, -0.06447242200374603, -0.0957292839884758, 0.03533725067973137, 0.06699399650096893, 0.13256880640983582, -0.14435988664627075, 0.014501810073852539, -0.16079489886760712, 0.14978832006454468, 0.051933303475379944], [0.13142162561416626, 0.188108429312706, 0.10537151992321014, 0.05653621256351471, 0.18857242166996002, -0.054040174931287766, -0.03982293978333473, 0.13354605436325073, -0.04724347963929176, 0.11240056902170181, -0.13303373754024506, 0.0039078230038285255, 0.13738566637039185, -0.03582429885864258, -0.17229418456554413, -0.07197901606559753, 0.024120226502418518, -0.11142342537641525, -0.019815385341644287, -0.0020738958846777678, 0.030378522351384163, 0.06497122347354889, 0.06292596459388733, -0.09281214326620102, 0.1169581264257431, -0.007133380509912968, 0.020281244069337845, -0.11595970392227173], [-0.15304358303546906, -0.06413200497627258, -0.10375230759382248, -0.09325318038463593, -0.007515260484069586, -0.0021367317531257868, -0.016839608550071716, 0.08186261355876923, 0.12034313380718231, -0.13914257287979126, 0.1403808742761612, -0.032810039818286896, 0.16735105216503143, 0.07177023589611053, 0.15367482602596283, -0.09526517242193222, 0.18547780811786652, 0.10721495002508163, -0.06782977283000946, -0.1443050056695938, -0.15697439014911652, -0.15451127290725708, -0.03638235479593277, -0.1181342825293541, 0.03920355439186096, -0.1257222294807434, -0.013352329842746258, 0.17297355830669403], [0.020707229152321815, 0.04611745849251747, 0.023437917232513428, 0.16120168566703796, -0.10430186241865158, -0.033422887325286865, -0.11628539860248566, 0.1873331516981125, 0.19408662617206573, 0.16219785809516907, -0.03507668897509575, 0.057013675570487976, -0.17052766680717468, 0.04510165750980377, 0.14848820865154266, 0.12845449149608612, -0.1726435124874115, 0.10003489255905151, -0.17017848789691925, 0.015975305810570717, 0.08639059960842133, 0.15710534155368805, -0.12764257192611694, 0.11550574004650116, -0.15077708661556244, 0.13880673050880432, -0.01837548241019249, 0.08334995806217194], [0.12152105569839478, 0.2220989614725113, 0.030038297176361084, -0.09148618578910828, -0.04142868518829346, 0.03669014945626259, -0.024877658113837242, -0.07998578995466232, 0.0729607567191124, 0.14882174134254456, 0.16719099879264832, -0.058953601866960526, 0.14380615949630737, -0.16536372900009155, 0.08351914584636688, 0.20820912718772888, 0.15839512646198273, 0.13748487830162048, -0.18217749893665314, 0.028729794546961784, 0.2075650990009308, -0.14669978618621826, -0.13996247947216034, 0.01626618206501007, 0.16004450619220734, 0.20404502749443054, 0.2201707363128662, -0.17829285562038422], [0.11696060746908188, 0.2324666976928711, 0.10527454316616058, 0.10356146097183228, 0.058241892606019974, -0.08284447342157364, 0.19728238880634308, -0.07301995903253555, 0.1127626970410347, -0.010268843732774258, -0.03900035843253136, 0.11072342842817307, -0.012987966649234295, -0.010383382439613342, 0.13291959464550018, 0.018797291442751884, -0.14753147959709167, 0.2011181116104126, -0.030153930187225342, -0.13833655416965485, 0.0877123698592186, -0.06058315932750702, -0.07679951190948486, -0.018224626779556274, -0.03779242932796478, 5.301431519910693e-05, -0.00420398311689496, -0.0960015133023262], [0.12641280889511108, 0.06759940832853317, -0.07826273143291473, -0.10228286683559418, 0.03904569521546364, -0.04185537248849869, 0.003060772083699703, 0.07352336496114731, 0.09852160513401031, -0.1390151083469391, 0.14481016993522644, 0.15855348110198975, 0.12237697094678879, -0.1437801569700241, -0.02057822048664093, -0.16528382897377014, 0.09230412542819977, 0.18751004338264465, -0.022437483072280884, 0.06469456851482391, 0.06803911924362183, -0.0004632323980331421, -0.13582581281661987, -0.1306866705417633, 0.055479273200035095, 0.11454035341739655, 0.16818982362747192, -0.1711159199476242], [0.22748473286628723, 0.09181375056505203, -0.17811034619808197, -0.09100093692541122, 0.06850048154592514, -0.045464158058166504, 0.08904174715280533, 0.18776759505271912, 0.14301982522010803, 0.07813489437103271, -0.15166398882865906, 0.21618176996707916, -0.1495988517999649, 0.15791158378124237, -0.16510453820228577, -0.1470535695552826, 0.055148035287857056, 0.2085719108581543, 0.03494606912136078, 0.11045673489570618, 0.054362598806619644, -0.16246432065963745, 0.04074415937066078, -0.09805283695459366, -0.18030783534049988, -0.08454173058271408, -0.002436393406242132, 0.15821649134159088], [0.17473001778125763, 0.09629146009683609, -0.07285602390766144, 0.20528335869312286, 0.19605791568756104, 0.07243180274963379, 0.031250860542058945, 0.14951741695404053, 0.1459881216287613, 0.19374805688858032, 0.028270592913031578, 0.21225608885288239, 0.07405993342399597, 0.11568139493465424, 0.13542793691158295, 0.10555674880743027, -0.06388290226459503, 0.025435572490096092, -0.07086250185966492, -0.05215692147612572, 0.1599702388048172, 0.16039933264255524, 0.032685086131095886, 0.09828878939151764, -0.07715591043233871, -0.03262172266840935, 0.030420057475566864, -0.1334872990846634], [0.12947578728199005, -0.06188485026359558, 0.12920381128787994, -0.1785377562046051, -0.13118088245391846, 0.13417057693004608, -0.1624366194009781, 0.10734929144382477, 0.052334100008010864, 0.005137026309967041, 0.0309162437915802, -0.12082722038030624, -0.11944611370563507, -0.006418764591217041, -0.11863213777542114, 0.07325445115566254, -0.10989747941493988, -0.10623354464769363, 0.05157417058944702, 0.045698389410972595, -0.17143000662326813, -0.035539284348487854, -0.019739195704460144, 0.061927929520606995, 0.012389451265335083, -0.04117511212825775, 0.061823293566703796, -0.1405322402715683], [-0.16254833340644836, -0.09018652141094208, 0.018294304609298706, -0.08640117943286896, 0.17845837771892548, 0.0770796686410904, -0.01478421688079834, -0.13493198156356812, 0.030919834971427917, 0.06318105757236481, -0.1347275674343109, 0.08404545485973358, -0.047407329082489014, 0.04924696683883667, -0.013326629996299744, 0.07415284216403961, 0.019309163093566895, -0.16228923201560974, -0.09381432086229324, -0.05805487930774689, -0.09716972708702087, 0.17290817201137543, -0.11952158808708191, 0.1756124049425125, 0.11411769688129425, 0.051617830991744995, -0.09049752354621887, -0.07791043072938919], [-0.12404671311378479, -0.18819597363471985, 0.15012909471988678, -0.16757506132125854, 0.0590207614004612, -0.04267909377813339, 0.018876105546951294, 0.0412503182888031, 0.17875833809375763, 0.041276637464761734, -0.1096247211098671, 0.15255840122699738, -0.12592853605747223, 0.18830861151218414, 0.18035472929477692, 0.1288759559392929, -0.09644661098718643, 0.04806695878505707, -0.16857759654521942, 0.1025254875421524, 0.16396984457969666, 0.0751429945230484, -0.1369844228029251, 0.15289263427257538, 0.15004681050777435, -0.0330866239964962, 0.08665429800748825, 0.10306547582149506], [0.0813780426979065, 0.16791699826717377, 0.12582392990589142, 0.12904657423496246, 0.11537162214517593, 0.10927140712738037, 0.13484664261341095, 0.14048951864242554, 0.15489357709884644, -0.09093467891216278, 0.17534427344799042, -0.12485875189304352, -0.15887250006198883, -0.09373553842306137, -0.13175955414772034, 0.11123725771903992, 0.052854493260383606, -0.05203026533126831, 0.0693272203207016, -0.11105360090732574, -0.1297159194946289, -0.058911681175231934, -0.18240028619766235, 0.07125867903232574, -0.09439807385206223, -0.18317215144634247, -0.08963093161582947, 0.04495173692703247], [-0.14984804391860962, -0.17334695160388947, 0.0690554827451706, -0.11077922582626343, 0.008611202239990234, -0.1378823220729828, -0.015356898307800293, 0.13908399641513824, 0.11970074474811554, 0.0973096638917923, -0.0710749477148056, -0.06026068329811096, 0.07009656727313995, 0.06480152904987335, -0.14465996623039246, 0.06989766657352448, 0.015687748789787292, 0.032358378171920776, -0.07448908686637878, 0.09711836278438568, -0.16659335792064667, 0.006893947720527649, -0.15002351999282837, 0.13146017491817474, 0.03893013298511505, -0.08521375060081482, -0.09457478672266006, -0.09167195111513138], [-0.002272431505843997, -0.06421039253473282, -0.16515779495239258, 0.08678938448429108, 0.1924566626548767, 0.007595151662826538, 0.14841590821743011, -0.006956462748348713, 0.09983118623495102, 0.08180729299783707, -0.08284170925617218, 0.20391784608364105, -0.15367822349071503, -0.16957968473434448, 0.007253080606460571, -0.11350362002849579, 0.05640050768852234, -0.09522667527198792, 0.02299310266971588, -0.026929128915071487, 0.1909734308719635, 0.18748687207698822, 0.04691258445382118, -0.135700985789299, -0.050293177366256714, -0.09084812551736832, -0.023869970813393593, -0.04161752760410309], [0.19847537577152252, -0.0433606319129467, 0.17766426503658295, -0.021305501461029053, 0.09318181872367859, -0.11853580176830292, -0.14309625327587128, -0.15421442687511444, -0.1510176956653595, 0.03242095559835434, 0.05384369567036629, -0.01549606304615736, -0.10307537019252777, -0.025270909070968628, 0.16435347497463226, 0.09370376169681549, -0.13105276226997375, 0.17687754333019257, 0.06096436083316803, 0.003018057905137539, 0.15588587522506714, 0.07946227490901947, 0.025928860530257225, -0.05700300633907318, -0.080069400370121, -0.02640874870121479, 0.04675452038645744, -0.04711730778217316], [-0.19055652618408203, 0.12453973293304443, -0.17051814496517181, 0.15481168031692505, -0.10365653038024902, 0.024801278486847878, 0.14309510588645935, 0.07923755049705505, 0.05810585990548134, 0.025814849883317947, -0.059130240231752396, 0.17453661561012268, 0.14806929230690002, 0.035500362515449524, -0.11403915286064148, 0.1475483477115631, -0.10256634652614594, 0.13091324269771576, -0.110723577439785, 0.12895718216896057, 0.15244993567466736, -0.17175962030887604, -0.0012837662361562252, 0.010898485779762268, 0.16170789301395416, 0.030328959226608276, 0.11820162087678909, -0.13198265433311462], [-0.1722203940153122, 0.09342284500598907, -0.06208907067775726, 0.1698734015226364, -0.16804160177707672, -0.0573694109916687, -0.12182135879993439, -0.1678164005279541, -0.18078386783599854, 0.08299703896045685, -0.14965826272964478, -0.04990170896053314, 0.1213582307100296, 0.14175139367580414, -0.015405237674713135, -0.05966813862323761, 0.16727770864963531, -0.15879099071025848, 0.14596055448055267, -0.003930985927581787, 0.058245837688446045, -0.17304232716560364, 0.09513835608959198, -0.010050073266029358, -0.1461828351020813, 0.09238438308238983, -0.17143157124519348, 0.09511099755764008]], "critic.network.2.bias": [-0.059310607612133026, -0.15973277390003204, 0.11787720769643784, 0.12034452706575394, -0.05908964201807976, 0.2475249171257019, 0.12908588349819183, 0.23431889712810516, -0.11771003156900406, 0.12085442245006561, 0.03253099322319031, 0.047975942492485046, 0.12165974825620651, 0.022892236709594727, 0.16465075314044952, 0.19021637737751007, 0.14783784747123718, 0.07012223452329636, 0.10883280634880066, -0.18827521800994873, -0.18719591200351715, -0.10977628082036972, -0.15843108296394348, -0.11021806299686432, 0.11487025022506714, 0.17022466659545898, 0.04023219272494316, -0.1111832708120346], "critic.network.4.weight": [[0.10209894180297852, 0.1678827852010727, -0.10890169441699982, 0.09900309890508652, -0.09301827102899551, -0.05613208934664726, -0.07941585034132004, 0.17147354781627655, -0.03226900100708008, 0.11693349480628967, 0.009738978929817677, 0.10669763386249542, -0.12729662656784058, -0.047288283705711365, 0.12709718942642212, 0.10996463149785995, 0.04447035863995552, 0.17773547768592834, 0.19855090975761414, -0.17075616121292114, 0.12683601677417755, -0.1425558179616928, -0.1349187195301056, 0.1765110045671463, 0.215449258685112, -0.07738689333200455, 0.1280750036239624, -0.03170385956764221], [0.018553107976913452, -0.09475217759609222, 0.17782093584537506, 0.011878207325935364, 0.045252084732055664, 0.08834640681743622, 0.03486351668834686, 0.05596435070037842, -0.10030460357666016, -0.13094519078731537, -0.07670241594314575, -0.17920108139514923, 0.07505004107952118, -0.03631022572517395, -0.11032876372337341, -0.10634792596101761, 0.07545049488544464, -0.03690248727798462, 0.006989896297454834, -0.08124390244483948, -0.04753074049949646, 0.0629131942987442, 0.05328640341758728, 0.16718171536922455, 0.17706044018268585, -0.05120272934436798, -0.10400960594415665, -0.04061633348464966], [-0.10805154591798782, -0.04336954653263092, 0.04754561558365822, -0.19630366563796997, -0.07869686931371689, 0.10359595715999603, -0.1011781170964241, 0.10265359282493591, -0.06265188753604889, -0.0863778367638588, 0.1122904121875763, -0.20206469297409058, -0.034471772611141205, -0.19636157155036926, 0.11348417401313782, -0.0428769551217556, -0.07217031717300415, -0.1503557711839676, -0.13383826613426208, 0.0927978903055191, 0.10232247412204742, -0.041159190237522125, -0.17848066985607147, 0.14745904505252838, -0.1297731250524521, 0.02572404034435749, -0.13038425147533417, 0.1748243123292923], [-0.10021842271089554, -0.12662222981452942, -0.10283030569553375, -0.13114072382450104, -0.05038272961974144, 0.08398107439279556, 0.09825433790683746, 0.12725003063678741, 0.19713439047336578, 0.05533866956830025, 0.23494896292686462, -0.1099846363067627, -0.13077034056186676, 0.14944811165332794, 0.12561677396297455, 0.11552992463111877, 0.15517176687717438, 0.06623797118663788, 0.09099378436803818, -0.14953255653381348, -0.03454877436161041, 0.18925923109054565, -0.028941582888364792, -0.07950141280889511, 0.04699330776929855, -0.057672690600156784, -0.10649823397397995, -0.12505438923835754], [0.023397251963615417, -0.007106393575668335, -0.1685042679309845, -0.1510123759508133, 0.04534384608268738, -0.08219581842422485, -0.09624804556369781, 0.11367388069629669, 0.12765087187290192, 0.036260247230529785, -0.1630617082118988, -0.0063908398151397705, 0.010026544332504272, -0.09261772036552429, 0.12076015770435333, 0.08313830196857452, 0.014203459024429321, -0.030721649527549744, -0.10130950808525085, 0.1649000197649002, 0.0718797892332077, -0.1257767379283905, 0.09816576540470123, -0.11488928645849228, -0.17019116878509521, 0.07301042973995209, 0.10890282690525055, 0.1794978529214859], [0.15165047347545624, 0.010765761137008667, 0.07975439727306366, -0.1072113960981369, 0.1814626008272171, 0.21950171887874603, 0.1326625496149063, 0.21319109201431274, -0.15387631952762604, 0.18742182850837708, -0.005448771640658379, -0.015097892843186855, -0.05420173704624176, -0.11550869047641754, 0.19868937134742737, -0.09167371690273285, 0.04999236389994621, 0.19933362305164337, -0.020037269219756126, -0.043853312730789185, 0.09957088530063629, 0.14036160707473755, 0.029191315174102783, -0.05663187801837921, 0.17120395600795746, -0.09501500427722931, -0.04881112650036812, -0.052184268832206726], [-0.15776897966861725, -0.17583008110523224, -0.08789117634296417, -0.08228982239961624, -0.08317755907773972, 0.08236920088529587, 0.0551023930311203, 0.04191235080361366, 0.02073046937584877, -0.03752284497022629, -0.040596853941679, 0.22943007946014404, 0.15139178931713104, 0.1640690267086029, -0.10120438784360886, -0.056965213268995285, -0.11056321859359741, 0.04735755920410156, 0.01731340028345585, 0.15174581110477448, -0.11130789667367935, -0.12472210824489594, -0.04625479504466057, -0.059815168380737305, 0.14527000486850739, 0.2284955382347107, -0.05790800601243973, -0.08541229367256165], [-0.14879551529884338, 0.1351088136434555, 0.18044482171535492, -0.015086397528648376, -0.037494391202926636, -0.16038979589939117, 0.1862850934267044, -0.12657970190048218, -0.1657988429069519, 0.09853525459766388, 0.0921521931886673, 0.16885636746883392, -0.1538155972957611, 0.145529106259346, -0.17870323359966278, -0.006317734718322754, -0.18588946759700775, -0.16499541699886322, -0.012239381670951843, -0.11450819671154022, 0.0646054595708847, 0.05888530611991882, 0.1747463196516037, -0.1674560010433197, 0.11171413958072662, -0.04344050586223602, 0.04579968750476837, -0.05309253931045532], [-0.12258712202310562, -0.07594268769025803, 0.08420752733945847, 0.13042360544204712, -0.18484905362129211, -0.0010999891674146056, 0.07416199147701263, -0.05238757282495499, 0.043092548847198486, 0.18308424949645996, 0.015341569669544697, 0.1528211086988449, 0.17063714563846588, -0.0856553390622139, 0.05680994689464569, 0.1447068750858307, -0.01514554861932993, -0.03943754360079765, -0.14372552931308746, -0.01144234836101532, -0.019731417298316956, -0.06970753520727158, -0.08442994952201843, -0.04280109703540802, -0.18364764750003815, -0.07635112851858139, -0.11245407164096832, 0.032277122139930725], [0.1304299384355545, 0.047470077872276306, -0.17770129442214966, -0.0157459806650877, -0.18821442127227783, -0.09846234321594238, -0.00984540581703186, 0.11209570616483688, -0.20686061680316925, -0.0035526291467249393, -0.18586838245391846, 0.03111374005675316, -0.11134260892868042, 0.0369831919670105, 0.11100807785987854, -0.025150872766971588, 0.08535289764404297, 0.06106802448630333, -0.08156714588403702, -0.00353279709815979, -0.14535757899284363, 0.12474989145994186, 0.02983454242348671, 0.04062071442604065, 0.02240321971476078, -0.16773556172847748, -0.07349888980388641, -0.10843507200479507], [-0.009993165731430054, -0.12182484567165375, 0.09183137118816376, 0.053914815187454224, 0.07385505735874176, 0.051966503262519836, -0.04565303027629852, -0.17945000529289246, -0.10223330557346344, 0.0454108864068985, 0.012870222330093384, 0.11102055013179779, 0.10461227595806122, 0.053795188665390015, -0.05339951813220978, 0.15044601261615753, 0.025776267051696777, 0.06002163887023926, -0.02375394105911255, -0.1288941204547882, 0.03806185722351074, -0.18822136521339417, 0.017680838704109192, -0.014681845903396606, -0.0510755330324173, 0.04276344180107117, 0.01289108395576477, -0.05366814136505127], [0.1538778841495514, -0.05485059320926666, -0.10323907434940338, 0.18308527767658234, -0.1651877909898758, 0.02992253191769123, -0.12830738723278046, 0.11380995064973831, -0.14957906305789948, 0.21887272596359253, 0.09844991564750671, 0.03856467455625534, 0.010075989179313183, -0.04429108649492264, 0.01921878382563591, 0.1297920048236847, 0.18897561728954315, -0.12781618535518646, 0.1377972662448883, 0.15921472012996674, -0.09560269117355347, -0.16570217907428741, 0.10953938215970993, 0.13645796477794647, -0.10248604416847229, 0.12300684303045273, -0.0028027365915477276, 0.10629229247570038], [0.06910364329814911, 0.1365065723657608, 0.09651722013950348, -0.020791813731193542, -0.1082276999950409, -0.08151460438966751, 0.033473044633865356, -0.16084809601306915, -0.17118138074874878, -0.11974763870239258, -0.04746580123901367, -0.18543323874473572, 0.06922625005245209, 0.07792128622531891, -0.08785806596279144, 0.1399395614862442, 0.002089202404022217, 0.05147750675678253, 0.17276008427143097, 0.15968282520771027, 0.17994751036167145, 0.17785392701625824, 0.040281638503074646, -0.1439206451177597, -0.004265934228897095, -0.09492411464452744, -0.0991043969988823, -0.15539352595806122], [-0.031313225626945496, -0.12131387740373611, -0.13228854537010193, 0.058277785778045654, 0.07330586016178131, 0.1120593473315239, 0.10428513586521149, 0.1703162044286728, -0.12975090742111206, 0.11192838847637177, -0.08669154345989227, -0.00016134430188685656, -0.036388784646987915, 0.17216996848583221, 0.209285706281662, 0.11511095613241196, 0.20064368844032288, -0.0584203265607357, -0.03244655206799507, -0.16311174631118774, -0.06499278545379639, -0.057891491800546646, 0.19856169819831848, -0.1551872193813324, 0.13082969188690186, 0.01036784052848816, 0.0689891055226326, -0.1025204285979271], [-0.1573106348514557, 0.12629060447216034, 0.1588454395532608, -0.04086633771657944, 0.006390133872628212, -0.140437513589859, 0.1869833618402481, -0.01755094900727272, 0.03415502607822418, 0.13326293230056763, -0.17688588798046112, 0.02904125489294529, 0.11955435574054718, 0.06012019142508507, 0.10264477878808975, -0.06679487973451614, -0.004861142951995134, 0.1623172014951706, 0.16444075107574463, 0.06992439925670624, 0.08967737853527069, -0.0874323919415474, 0.1696808785200119, -0.1239481270313263, -0.018698835745453835, 0.022538676857948303, 0.006948912050575018, -0.012421280145645142], [0.09407638013362885, 0.18710704147815704, -0.05893266201019287, 0.11756281554698944, -0.004765942692756653, -0.047600358724594116, 0.015642806887626648, -0.08113798499107361, -0.06378816068172455, 0.10141178965568542, 0.11010922491550446, -0.10640301555395126, 0.10691269487142563, -0.09593823552131653, -0.10778495669364929, 0.07138858735561371, -0.03647170960903168, -0.13414941728115082, 0.12646768987178802, 0.025451749563217163, 0.17442019283771515, -0.03738512098789215, -0.006901860237121582, 0.06267951428890228, 0.08003522455692291, 0.1594109833240509, -0.055905744433403015, 0.02557089924812317], [-0.13389933109283447, 0.17840425670146942, 0.15300942957401276, 0.1288759857416153, -0.1801973432302475, -0.024566521868109703, 0.18238390982151031, -0.12441644072532654, -0.01621776819229126, -0.061612989753484726, 0.07410579174757004, 0.12224701792001724, 0.1403922438621521, -0.20293979346752167, -0.023493966087698936, 0.11020216345787048, -0.09434233605861664, -0.031212421134114265, 0.1236552745103836, 0.04806387424468994, -0.012123018503189087, 0.1384362429380417, 0.020764485001564026, -0.012383177876472473, 0.09919686615467072, 0.04447763413190842, -0.039963483810424805, -0.07979743927717209], [0.17564819753170013, -0.044828712940216064, -0.041335225105285645, 0.15021918714046478, 0.18826831877231598, 0.04815581440925598, -0.057986870408058167, -0.11357155442237854, -0.03666171431541443, -0.13121110200881958, 0.07174982130527496, 0.14639846980571747, -0.17224374413490295, -0.05781331658363342, -0.03968174755573273, -0.037681758403778076, -0.06534630060195923, -0.1887211799621582, 0.05952773988246918, -0.006250590085983276, -0.00998939573764801, -0.14587417244911194, -0.09893546253442764, -0.015214309096336365, 0.14535726606845856, -0.002626359462738037, -0.1863812357187271, 0.1819322258234024], [-0.05468280613422394, 0.1395927220582962, -0.0756010189652443, 0.05453287065029144, -0.08954405039548874, -0.05859002470970154, 0.1544412225484848, -0.1408664733171463, -0.09519438445568085, -0.11609286814928055, -0.030858010053634644, -0.10090067982673645, -0.10481727123260498, -0.08363894373178482, -0.07309910655021667, 0.030377238988876343, -0.11578100919723511, -0.010253161191940308, 0.006268739700317383, -0.13780154287815094, 0.09430043399333954, -0.10630518943071365, 0.08303625881671906, -0.18593141436576843, -0.009374663233757019, -0.07530465722084045, 0.12778590619564056, 0.08190484344959259], [-0.13745342195034027, 0.14391367137432098, 0.20802167057991028, 0.13555723428726196, 0.044553279876708984, 0.1812146157026291, -0.06990420818328857, -0.0030663672368973494, -0.05880170688033104, -0.08263960480690002, 0.000340748461894691, 0.033868227154016495, 0.17602914571762085, -0.048908933997154236, 0.23196299374103546, -0.02074158377945423, 0.19188867509365082, -0.11099805682897568, -0.005084861535578966, 0.07919140160083771, 0.11892335116863251, 0.1263454556465149, -0.12355393171310425, -0.14966711401939392, -0.00022234919015318155, 0.12444601207971573, 0.10195759683847427, -0.10005742311477661], [0.005912537686526775, 0.05746893584728241, -0.05726521462202072, 0.07344841212034225, -0.16933615505695343, -0.010802743025124073, 0.16768710315227509, 0.01524130254983902, -0.04819149151444435, -0.17562472820281982, 0.0831831693649292, 0.17068374156951904, 0.08078870177268982, 0.061942700296640396, -0.05982508137822151, -0.10214842855930328, 0.09091176837682724, -0.05595908686518669, 0.12167584151029587, -0.09840890020132065, -0.003024846315383911, -0.18217913806438446, -0.1574113368988037, 0.049239352345466614, 0.040362898260354996, 0.047399502247571945, 0.026203561574220657, -0.11184082925319672], [-0.16027987003326416, -0.17867855727672577, 0.07374690473079681, -0.04534912109375, -0.1346917450428009, -0.0934850201010704, 0.007353469729423523, 0.07064403593540192, -0.051308974623680115, -0.05299118161201477, -0.09712743759155273, 0.06436438858509064, 0.09094630181789398, 0.15471719205379486, 0.013194024562835693, 0.16059868037700653, -0.12483084201812744, -0.11558239907026291, -0.1457231342792511, -0.08308368176221848, -0.0404495894908905, -0.08850589394569397, -0.15543045103549957, -0.12862388789653778, 0.16307432949543, -0.15599672496318817, 0.10070966184139252, -0.18138258159160614], [0.05903536081314087, 0.07507140934467316, -0.08370576053857803, -0.12297668308019638, -0.16608108580112457, 0.008244708180427551, -0.15296924114227295, 0.012636914849281311, 0.06716139614582062, -0.09705769270658493, -0.13392162322998047, -0.16299058496952057, -0.1612599790096283, -0.15412655472755432, -0.18684785068035126, -0.007421538233757019, -0.03087557852268219, -0.09075774997472763, 0.05184142291545868, -0.15838298201560974, 0.062229886651039124, -0.17243662476539612, 0.1260765641927719, 0.040467262268066406, -0.16254661977291107, -0.15197238326072693, 0.16466297209262848, 0.006932362914085388], [-0.03906472027301788, 0.17536242306232452, 0.09672631323337555, 0.0015208274126052856, -0.016299262642860413, 0.05470825731754303, -0.02419552206993103, -0.10696664452552795, -0.13202321529388428, 0.01529906690120697, 0.059562623500823975, 0.11988629400730133, 0.00012001395225524902, 0.1351054161787033, -0.01024840772151947, -0.15582630038261414, -0.09328307211399078, -0.1590457707643509, 0.04807420074939728, 0.1342536360025406, -0.10455519706010818, -0.07470633089542389, -0.1270756870508194, 0.12518422305583954, -0.009238332509994507, -0.06556221097707748, -0.14921127259731293, 0.11477766931056976], [0.14567287266254425, 0.17505262792110443, -0.171882763504982, 0.18957126140594482, -0.12381672114133835, 0.20020601153373718, -0.04089602828025818, 0.036111608147621155, -0.13969312608242035, 0.13473056256771088, -0.05629720166325569, 0.008757514879107475, -0.037725359201431274, -0.14044322073459625, -0.04917776957154274, 0.12970878183841705, -0.020703963935375214, -0.12189622968435287, 0.18905334174633026, 0.16115503013134003, -0.15984249114990234, -0.08040407299995422, -0.0008215010166168213, 0.05888541042804718, 0.12006957828998566, -0.10697533190250397, -0.0076073044911026955, -0.1737489104270935], [0.041257888078689575, -0.024940013885498047, -0.042241644114255905, 0.06066820025444031, -0.07047735899686813, 0.1294620931148529, -0.10055854171514511, -0.05135423690080643, 0.178805410861969, 0.053022950887680054, -0.009062898345291615, 0.21233364939689636, -0.02506926655769348, 0.06078293174505234, -0.04734649881720543, 0.08448547124862671, 0.10092630237340927, 0.028907079249620438, -0.05973375588655472, 0.10711444914340973, -0.16173844039440155, -0.0597907193005085, -0.0792655348777771, 0.18056906759738922, 0.21787509322166443, 0.22582939267158508, -0.02155281789600849, 0.006701380014419556], [0.09968236088752747, -0.05872181057929993, -0.17361438274383545, 0.11824621260166168, -0.10049057006835938, -0.15047864615917206, -0.18105825781822205, -0.10820381343364716, -0.0680771991610527, 0.1442071497440338, -0.14541293680667877, -0.10130346566438675, 0.1512269526720047, -0.037458572536706924, -0.066898413002491, -0.030599506571888924, -0.05827910825610161, -0.03432919457554817, -0.03902655094861984, -0.09725166112184525, 0.157387837767601, -0.17448708415031433, 0.03960998356342316, -0.1658545881509781, 0.11007284373044968, 0.0018135495483875275, 0.06971956044435501, 0.027870342135429382], [-0.044058218598365784, -0.16802756488323212, -0.03859643638134003, 0.16551391780376434, 0.0410747230052948, -0.08405817300081253, -0.12949495017528534, 0.1238684207201004, 0.18686310946941376, 0.1588638573884964, 0.04865241050720215, -0.050951018929481506, -0.06024765968322754, 0.033893883228302, -0.17803780734539032, -0.04241429269313812, 0.018403664231300354, -0.052793681621551514, -0.08491411805152893, -0.07555528730154037, 0.18046994507312775, 0.15107278525829315, 0.18311317265033722, 0.14774586260318756, 0.04795008897781372, 0.011630624532699585, -0.14454135298728943, 0.17887894809246063]], "critic.network.4.bias": [0.02207927592098713, 0.00994659960269928, 0.09929998964071274, 0.09520481526851654, -0.15295876562595367, -0.11703792214393616, 0.13762429356575012, 0.03647758066654205, -0.06072647124528885, -0.012278445065021515, -0.11294513195753098, 0.0944589152932167, -0.010161876678466797, 0.04002554342150688, -0.10143712908029556, -0.06084679439663887, -0.052912965416908264, -0.1406777948141098, -0.0013515651226043701, 0.23239536583423615, 0.027481546625494957, -0.11509350687265396, -0.14639496803283691, 0.00679442286491394, -0.0612759105861187, 0.13815465569496155, 0.13251133263111115, -0.053086280822753906], "critic.network.6.weight": [[0.17056801915168762, -0.021349593997001648, -0.1299860179424286, 0.23446714878082275, 0.017592057585716248, 0.029771508648991585, 0.07868121564388275, 0.010237187147140503, -0.002034734468907118, -0.020649056881666183, 0.016777217388153076, 0.08064481616020203, 0.07891245186328888, 0.16985024511814117, -0.029539452865719795, -0.06828880310058594, -0.10120918601751328, -0.02774776518344879, 0.10590802133083344, 0.09542883187532425, 0.01760871149599552, -0.14954182505607605, 0.17077909409999847, -0.12692689895629883, 0.04875187203288078, 0.17635752260684967, -0.04597547650337219, 0.1652151495218277]], "critic.network.6.bias": [-0.04118543863296509]}