{"actor.network.0.weight": [[-0.16873149573802948, 0.34170663356781006, -0.05786707252264023, 0.5550429821014404], [-0.30006349086761475, -0.4105265140533447, -0.3894219398498535, -0.098493292927742], [0.2980533838272095, 0.34768104553222656, 0.3081209361553192, -0.05723229795694351], [0.4873535633087158, 0.4560178220272064, -0.2352190911769867, 0.16390711069107056], [-0.10949958115816116, 0.22287189960479736, 0.37847089767456055, 0.6796738505363464], [-0.3090318739414215, -0.07602202147245407, -0.28031501173973083, -0.41467103362083435], [0.36979612708091736, -0.20991502702236176, 0.10300551354885101, 0.4231734871864319], [-0.3354407250881195, 0.3037663400173187, -0.5521574020385742, -0.39503204822540283], [-0.03391879051923752, 0.25204119086265564, -0.5837684869766235, -0.23094062507152557], [-0.15190955996513367, -0.0792941153049469, 0.37338894605636597, 0.07427269965410233], [-0.1202203780412674, -0.1522529572248459, -0.028224395588040352, -0.3062409460544586], [-0.369730144739151, 0.349817156791687, 0.24568122625350952, 0.2895641028881073], [0.004508634563535452, -0.1875540167093277, -0.0004819789610337466, 0.3766638934612274], [0.11535052210092545, 0.16844666004180908, -0.3522186875343323, -0.7125044465065002], [-0.05893036350607872, -0.4433121681213379, -0.43853065371513367, -0.24218325316905975], [0.1414022147655487, 0.4172603487968445, 0.2951957583427429, 0.3795429766178131], [-0.19479462504386902, -0.18532004952430725, 0.5798572301864624, 0.5601441860198975], [0.4273930788040161, 0.47988444566726685, -0.28371989727020264, 0.43833819031715393], [0.11354181915521622, 0.48776283860206604, 0.5480290055274963, 0.7005094885826111], [0.0811145082116127, -0.5241959095001221, 0.1295664757490158, 0.21033897995948792], [0.19352000951766968, 0.037133269011974335, -0.00180045363958925, 0.3448222875595093], [-0.06956431269645691, 0.17413845658302307, 0.4125185012817383, 0.40213826298713684], [-0.19424457848072052, 0.41947418451309204, -0.06428313255310059, -0.06954685598611832], [0.3358243405818939, 0.11259027570486069, -0.3774929344654083, -0.6789044141769409], [0.015143180266022682, -0.38342398405075073, 0.5353425741195679, 0.19091950356960297], [0.44395801424980164, 0.3441706895828247, -0.2710817754268646, -0.6136825680732727], [0.5578891634941101, -0.08824719488620758, 0.08846243470907211, -0.4429481625556946], [0.4299076199531555, -0.22493070363998413, -0.4362514615058899, -0.28195875883102417]], "actor.network.0.bias": [0.20408008992671967, -0.4776856601238251, -0.0038383211940526962, -0.41021600365638733, 0.3570241928100586, 0.04294252023100853, 0.11202268302440643, 0.14422476291656494, 0.4842861592769623, -0.3109969198703766, 0.4675857424736023, -0.09074318408966064, 0.5058480501174927, 0.36130067706108093, 0.1251862496137619, -0.4617024064064026, 0.20133866369724274, 0.27968454360961914, 0.33113232254981995, 0.4145583510398865, 0.26523205637931824, -0.48268240690231323, -0.45007985830307007, 0.4353075325489044, 0.16893242299556732, 0.13510195910930634, -0.1697874665260315, -0.007151022087782621], "actor.network.2.weight": [[-0.21084357798099518, 0.19152595102787018, -0.019865330308675766, -0.0037320153787732124, -0.24556878209114075, 0.16874486207962036, -0.005276575218886137, 0.20741131901741028, 0.25804975628852844, -0.0056832702830433846, 0.08284472674131393, -0.07643578946590424, 0.06356311589479446, 0.2240833044052124, 0.054868798702955246, -0.05269758403301239, -0.08172252029180527, -0.046752285212278366, -0.20617057383060455, 0.04931332543492317, -0.11341524869203568, 0.07118639349937439, -0.17108005285263062, 0.15173472464084625, 0.23278160393238068, 0.08774512261152267, -0.006658283527940512, 0.2554325461387634], [-0.07852861285209656, 0.09153132140636444, 0.0205598846077919, -0.07457733154296875, 0.013863697648048401, -0.1566130816936493, 0.03237883746623993, 0.006291690282523632, 0.07121597230434418, -0.10437177121639252, 0.08867745101451874, -0.12747541069984436, -0.13479766249656677, 0.10056500136852264, -0.1835080087184906, -0.12169235944747925, -0.055205490440130234, 0.1694856882095337, -0.09968878328800201, 0.17982962727546692, -0.18720005452632904, 0.18564100563526154, 0.08641000092029572, -0.06999460607767105, 0.013911381363868713, -0.08373908698558807, 0.03903048858046532, -0.07989305257797241], [0.23179346323013306, -0.22348235547542572, 0.17037846148014069, 0.06077643483877182, 0.3356550633907318, -0.19212386012077332, 0.12293639779090881, -0.08021200448274612, 0.16167409718036652, 0.09877067804336548, -0.04375683516263962, 0.15918263792991638, 0.11761768162250519, -0.12596683204174042, 0.045404788106679916, 0.02762370929121971, 0.2040657103061676, 0.13885852694511414, 0.16542382538318634, 0.13426397740840912, 0.011845522560179234, -0.16083034873008728, 0.19927260279655457, -0.08170749247074127, -0.011273352429270744, -0.1447605937719345, -0.07422946393489838, -0.29593998193740845], [-0.2333066463470459, 0.09161075949668884, 0.09699897468090057, 0.10350733250379562, -0.07701679319143295, 0.2449529469013214, -0.08530984818935394, 0.23298203945159912, 0.09981595724821091, 0.10972926020622253, 0.1915353536605835, -0.03901493176817894, 0.0645260363817215, 0.21542882919311523, 0.31724226474761963, -0.17240487039089203, -0.10766774415969849, -0.01170489750802517, -0.16058005392551422, 0.02279333956539631, -0.137374609708786, 0.08891783654689789, -0.17421957850456238, 0.2995620369911194, 0.13098227977752686, 0.1516657918691635, -0.08614247292280197, 0.26584115624427795], [0.3287256956100464, 0.03404718264937401, -0.0037607108242809772, 0.14173832535743713, 0.3159942328929901, 0.06444697827100754, 0.2921289801597595, 0.04664098471403122, -0.09494482725858688, -0.03645426034927368, 0.05961458384990692, 0.10168822854757309, 0.04615846276283264, -0.19168032705783844, -0.1083894819021225, -0.1622941642999649, -0.04384354501962662, -0.038009192794561386, 0.17511366307735443, 0.22377316653728485, 0.10788361728191376, 0.1285090148448944, -0.12277743220329285, -0.1972922831773758, 0.2570802867412567, -0.017767855897545815, -0.11185359954833984, -0.24936489760875702], [-0.08114193379878998, 0.027458295226097107, 0.061269551515579224, 0.05612849444150925, -0.14388632774353027, 0.07002753764390945, -0.07602022588253021, 0.011121081188321114, -0.17775268852710724, -0.14086000621318817, -0.07955388724803925, 0.04476769268512726, -0.17182748019695282, 0.15539243817329407, 0.12220291793346405, 0.07828576862812042, -0.022493109107017517, 0.10728916525840759, -0.142061248421669, -0.13488328456878662, 0.10393361747264862, -0.014643773436546326, -0.023305991664528847, 0.08892189711332321, 0.02511170506477356, -0.06565164029598236, -0.11854194104671478, 0.10684699565172195], [-0.10952410101890564, 0.023299112915992737, 0.12856724858283997, -0.0026349166873842478, -0.16237035393714905, -0.03578178584575653, -0.07234290987253189, -0.14563758671283722, -0.11348844319581985, -0.12403734028339386, -0.07239764928817749, -0.016281984746456146, 0.0006465563783422112, -0.0341675728559494, 0.06839434802532196, 0.12847593426704407, -0.07602576911449432, -0.08638640493154526, -0.08350899815559387, 0.1475115567445755, 0.048850417137145996, -0.1867726445198059, -0.019409624859690666, 0.13707855343818665, -0.1751103401184082, 0.14514750242233276, -0.19194567203521729, -0.05238772928714752], [0.21886420249938965, 0.11883257329463959, 0.02669651247560978, -0.06806875765323639, 0.266035795211792, -0.0216458048671484, 0.00761647243052721, -0.1612834930419922, 0.1626102477312088, 0.09888540953397751, -0.008202257566154003, -0.054281748831272125, 0.17802046239376068, -0.2190883904695511, -0.046337928622961044, -0.014773131348192692, 0.11706812679767609, 0.10691650956869125, 0.23103785514831543, 0.11461947858333588, -0.027873193845152855, -0.11907033622264862, -0.052370648831129074, 0.0320109948515892, 0.23160870373249054, -0.11194314807653427, -0.08505798131227493, -0.28826040029525757], [-0.1198442131280899, -0.08748670667409897, 0.08952556550502777, 0.15954621136188507, 0.11075152456760406, -0.017742648720741272, -0.15827135741710663, -0.13441096246242523, -0.12374379485845566, -0.12460426986217499, 0.04405190050601959, 0.17523424327373505, -0.0885336771607399, 0.046778470277786255, 0.10590626299381256, 0.18576066195964813, -0.08026627451181412, -0.06652393192052841, -0.04842190444469452, -0.18712913990020752, -0.10015782713890076, 0.06821723282337189, 0.14667479693889618, -0.10782597213983536, -0.03939297795295715, -0.04877190291881561, -0.17023181915283203, -0.18020352721214294], [-0.07326985150575638, 0.22692064940929413, -0.10179971158504486, -0.1467088907957077, -0.095848448574543, -0.19562624394893646, 0.11305563151836395, -0.259996235370636, 0.06991874426603317, 0.18412064015865326, -0.07682931423187256, -0.13587547838687897, 0.1842239946126938, 0.00480330316349864, -0.02001551352441311, 0.11739478260278702, -0.04992824047803879, 0.2184552699327469, -0.055748581886291504, 0.14907532930374146, 0.020434651523828506, -0.1243918389081955, -0.18059800565242767, -0.2006259560585022, -0.032457612454891205, -0.14342381060123444, -0.12541192770004272, -0.09866659343242645], [-0.33746081590652466, -0.09740894287824631, -0.0031669079326093197, 0.028021812438964844, -0.2806796729564667, 0.18844018876552582, -0.053788602352142334, 0.13657404482364655, 0.19080892205238342, -0.1016058400273323, 0.2051251083612442, 0.05421139672398567, 0.07326824963092804, 0.25319704413414, 0.21945048868656158, -0.09746349602937698, 0.042354147881269455, -0.016723264008760452, -0.28742581605911255, 0.18340638279914856, 0.019121728837490082, -0.01804107427597046, -0.13013280928134918, 0.28700897097587585, 0.12226270139217377, 0.1230933889746666, -0.004527744837105274, 0.06183355301618576], [0.2268541157245636, 0.04730141907930374, 0.1521073430776596, 0.030338488519191742, 0.012463214807212353, -0.13094329833984375, -0.026027880609035492, -0.16238658130168915, -0.09992454200983047, -0.0718798115849495, 0.15050853788852692, 0.030766842886805534, 0.040034472942352295, -0.08162837475538254, -0.27797970175743103, 0.15264278650283813, 0.1545497328042984, 0.07707501202821732, 0.2160637229681015, -0.14922462403774261, 0.1454923152923584, -0.005531337112188339, 0.1984509974718094, -0.22666272521018982, 0.06567324697971344, -0.1592365801334381, -0.1925334930419922, -0.13957776129245758], [0.14152313768863678, -0.013820476830005646, -0.07565376162528992, -0.165792316198349, 0.07329397648572922, -0.09814873337745667, -0.09837621450424194, -0.16520024836063385, 0.032850537449121475, -0.18602296710014343, 0.03349477797746658, -0.131337508559227, 0.05599365010857582, -0.10690207034349442, 0.17141708731651306, -0.1847471296787262, -0.1364133507013321, -0.11309392750263214, 0.011136665940284729, -0.06832167506217957, -0.06868015229701996, -0.030432268977165222, 0.024014070630073547, 0.17642977833747864, 0.14810296893119812, -0.038103364408016205, -0.16905130445957184, 0.11281569302082062], [-0.331096887588501, -0.02333301678299904, 0.0036598171573132277, -0.10778159648180008, -0.21487659215927124, -0.01025431789457798, -0.2234388142824173, 0.332233190536499, 0.18894293904304504, 0.11302628368139267, 0.23925119638442993, 0.05946619436144829, 0.005343240220099688, 0.40198829770088196, 0.33723005652427673, 0.07158565521240234, -0.01977672427892685, 0.0714479386806488, -0.032672081142663956, 0.004576538689434528, -0.11401385813951492, 0.12491405010223389, 0.10445617884397507, 0.25360357761383057, -0.08660487085580826, 0.174517422914505, 0.21174748241901398, 0.09784026443958282], [-0.2482183426618576, -0.13360781967639923, 0.033669158816337585, 0.2028922438621521, -0.13940255343914032, 0.27502480149269104, -0.2506314218044281, 0.13904087245464325, 0.2289915680885315, 0.14649148285388947, 0.2532701790332794, -0.17326891422271729, 0.13067889213562012, 0.14553436636924744, 0.20357617735862732, 0.13169236481189728, -0.22577336430549622, 0.00819750688970089, -0.01072192657738924, -0.016628175973892212, 0.17811447381973267, 0.08936357498168945, 0.13067464530467987, 0.36309969425201416, 0.010870471596717834, 0.07495826482772827, 0.0941946730017662, 0.13862712681293488], [-0.04845230281352997, 0.02940504625439644, 0.10786833614110947, 0.0004950800794176757, -0.054224852472543716, -0.19788208603858948, 0.154879629611969, -0.17702776193618774, 0.038429465144872665, 0.05105412006378174, 0.1623494178056717, 0.15002872049808502, 0.16138388216495514, -0.051210206001996994, 0.13945986330509186, 0.02741345949470997, 0.10949059575796127, -0.03801155835390091, -0.06321684271097183, 0.16681431233882904, -0.1164030209183693, 0.06058157980442047, 0.041142538189888, -0.0729190856218338, 0.1914200782775879, -0.06944961845874786, -0.08541850745677948, 0.1431969553232193], [0.11609716713428497, 0.017314523458480835, -0.1366802155971527, 0.05583168566226959, -0.17470936477184296, 0.12630246579647064, 0.1342020183801651, 0.07565946877002716, -0.1367032378911972, -0.14475120604038239, -0.08963517844676971, -0.06418076902627945, -0.16572117805480957, -0.09409484267234802, -0.1148567795753479, -0.059630751609802246, 0.0356534868478775, 0.09959067404270172, 0.11513547599315643, -0.16652438044548035, -0.02037021517753601, -0.1803382784128189, -0.05876101553440094, 0.10369648039340973, -0.013044804334640503, -0.14786580204963684, 0.13067780435085297, -0.05694001913070679], [-0.16343724727630615, 0.13031458854675293, -0.14651669561862946, -0.07296422868967056, 0.050805456936359406, 0.12304351478815079, -0.06124972179532051, 0.15756100416183472, -0.12202528119087219, -0.1342640519142151, 0.0410894900560379, -0.07757127285003662, 0.16381657123565674, -0.07270841300487518, -0.050574786961078644, -0.17187875509262085, 0.13727962970733643, -0.19449454545974731, 0.058563534170389175, -0.1910921335220337, -0.09021374583244324, -0.06452992558479309, 0.10881125181913376, 0.05138478800654411, -0.004774701315909624, 0.06406478583812714, -0.1652180254459381, -0.04290094971656799], [0.1853548288345337, 0.07668263465166092, 0.13567499816417694, 0.203464075922966, 0.26715701818466187, -0.011397862806916237, 0.2718948423862457, 0.17470267415046692, 0.25465908646583557, 0.04911012202501297, -0.05716044828295708, 0.016994094476103783, 0.1244635283946991, 0.0007860033074393868, -0.07595185935497284, -0.0728752613067627, -0.009179241955280304, 0.07845007628202438, 0.33798742294311523, 0.15406399965286255, 0.05260702967643738, 0.16940101981163025, -0.11920750886201859, 0.18356236815452576, 0.2551967203617096, -0.12324639409780502, 0.060534898191690445, 0.024681316688656807], [0.11211929470300674, -0.1011822447180748, -0.006843042094260454, 0.1019304096698761, 0.05629761517047882, -0.08961325138807297, -0.0414942242205143, 0.13108792901039124, -0.11146289855241776, 0.0045010242611169815, -0.15889513492584229, 0.06582238525152206, 0.15680450201034546, -0.08203502744436264, -0.09692487120628357, -0.08589876443147659, -0.09048954397439957, -0.1449190378189087, 0.17462214827537537, -0.14941440522670746, -0.16327886283397675, 0.14564794301986694, 0.030271638184785843, -0.17517441511154175, -0.1114535853266716, 0.07068394124507904, -0.04800642654299736, -0.15638673305511475], [0.2974875867366791, 0.07486181706190109, -0.11037682741880417, -0.002589513547718525, 0.3202694356441498, -0.16536524891853333, 0.01794419437646866, 0.07927455753087997, -0.012661442160606384, -0.18481799960136414, 0.08205559104681015, -0.07758300006389618, -0.015324898064136505, 0.0740995928645134, -0.336780309677124, -0.154579758644104, 0.09003277868032455, 0.16654208302497864, 0.38429874181747437, 0.12634143233299255, 0.16862431168556213, -0.04189667850732803, -0.13652727007865906, -0.16509422659873962, -0.02959793247282505, 0.10149671137332916, 0.030079614371061325, -0.0001464224624214694], [0.25437304377555847, 0.11700625717639923, 0.0901322066783905, -0.13835501670837402, 0.24960221350193024, -0.015726862475275993, 0.07361819595098495, -0.1229507252573967, -0.009035403840243816, -0.09053972363471985, 0.1435869187116623, -0.02683764509856701, 0.16636312007904053, -0.014140026643872261, -0.18931099772453308, 0.08098854869604111, 0.07992599904537201, 0.17510472238063812, 0.14505216479301453, 0.11652110517024994, -0.08627039194107056, 0.08238735795021057, -0.06449228525161743, -0.17989227175712585, -0.16923829913139343, 0.009711849503219128, 0.04405035823583603, -0.08760356903076172], [0.17861276865005493, -0.07726557552814484, 0.1309967041015625, -0.0533682256937027, -0.07607380300760269, 0.06741183996200562, -0.07140612602233887, -0.03463957458734512, 0.11584515124559402, 0.04735996574163437, -0.14604595303535461, 0.01495598629117012, 0.08664706349372864, -0.0007126801647245884, 0.028026562184095383, 0.10599693655967712, 0.11125131696462631, -0.051750779151916504, -0.14932048320770264, -0.12756985425949097, -0.03850758448243141, 0.05261528491973877, 0.13367170095443726, -0.0883253812789917, -0.14262886345386505, -0.2140299528837204, 0.09615182876586914, 0.01379972230643034], [0.016578031703829765, -0.16150881350040436, -0.11583548039197922, 0.16388146579265594, -0.18925048410892487, 0.08850733190774918, 0.042488858103752136, 0.038042206317186356, 0.07952675968408585, 0.182346373796463, -0.0233443733304739, 0.05631959065794945, -0.045743100345134735, 0.132552370429039, -0.06117203086614609, -0.018056660890579224, -0.00840169470757246, -0.037028804421424866, -0.04946503788232803, 0.12346404045820236, 0.17568616569042206, -0.10697635263204575, -0.08027835190296173, -0.168046236038208, 0.018052004277706146, 0.07289297878742218, -0.1868394911289215, -0.18628525733947754], [0.13840514421463013, 0.09214679896831512, -0.15917448699474335, 0.07841341197490692, -0.13888658583164215, 0.1666082739830017, 0.14170502126216888, -0.12880335748195648, -0.06228801980614662, 0.18242505192756653, 0.0490596666932106, -0.15014483034610748, -0.1833699643611908, 0.09494996070861816, 0.149128258228302, -0.02506619691848755, -0.014558766037225723, -0.04998055845499039, -0.1114950031042099, -0.04800974950194359, -0.17698357999324799, 0.10921360552310944, 0.07144707441329956, -0.1716834455728531, -0.1361110806465149, -0.12806493043899536, 0.02962651476264, 0.1445242464542389], [-0.12013424932956696, -0.0738256648182869, 0.16997234523296356, -0.011168569326400757, -0.0463908314704895, -0.18089082837104797, -0.14478057622909546, 0.06210087239742279, 0.09685198962688446, 0.008557289838790894, -0.16420556604862213, 0.08927838504314423, -0.05804550647735596, -0.11629544198513031, -0.07484893500804901, -0.1498536467552185, 0.14758868515491486, 0.16559423506259918, -0.12752535939216614, -0.12699638307094574, 0.05590003728866577, -0.13636347651481628, 0.16344307363033295, -0.18743108212947845, -0.1795910894870758, -0.10772628337144852, -0.08130846917629242, 0.09837619960308075], [-0.185510516166687, -0.06752563267946243, -0.1302046775817871, 0.07048855721950531, 0.0226668119430542, -0.07158539444208145, 0.03865739703178406, 0.10720978677272797, -0.04831543564796448, 0.00910252332687378, 0.020099669694900513, 0.039168938994407654, -0.0167790949344635, -0.07992569357156754, 0.01799963414669037, -0.07477299124002457, -0.0501406192779541, -0.03980085253715515, 0.1877077966928482, 0.04354240000247955, -0.160930335521698, -0.026448547840118408, -0.1133895218372345, 0.09207217395305634, -0.07755766063928604, 0.07382704317569733, -0.11189775913953781, 0.1031508594751358], [0.2849232256412506, 0.06980131566524506, -0.1805618405342102, -0.1310928463935852, 0.2873140275478363, -0.0486292690038681, 0.08836570382118225, 0.03142619505524635, 0.06678426265716553, -0.12186333537101746, 0.08090445399284363, 0.21793343126773834, 0.12531279027462006, -0.30231577157974243, -0.280563086271286, -0.030371462926268578, 0.03363883122801781, 0.1194467693567276, 0.3379473090171814, -0.05694657191634178, -0.09569231420755386, -0.15883100032806396, 0.06932830810546875, -0.061427488923072815, 0.07401129603385925, 0.03442762792110443, 0.06509391218423843, -0.048162806779146194]], "actor.network.2.bias": [0.22323310375213623, -0.12418492883443832, -0.07576318085193634, 0.08638385683298111, 0.149136021733284, -0.16262692213058472, -0.17430061101913452, 0.024943727999925613, -0.08892422914505005, 0.08215320110321045, 0.03691850230097771, 0.25519120693206787, -0.1808161437511444, 0.1846005618572235, 0.016475792974233627, 0.06419583410024643, -0.12599223852157593, -0.1458967924118042, 0.1672610342502594, 0.07504596561193466, 0.023624667897820473, -0.042752742767333984, 0.06805045157670975, -0.13312554359436035, 0.08547107875347137, -0.10543732345104218, -0.14724579453468323, 0.13816694915294647], "actor.network.4.weight": [[0.31124043464660645, -0.1340835839509964, -0.20999079942703247, 0.23043201863765717, -0.0036119071301072836, 0.10649137943983078, 0.04421297833323479, 0.10030519217252731, -0.1771596223115921, 0.06951943039894104, 0.15598268806934357, -0.3098396062850952, 0.12770916521549225, 0.34396275877952576, 0.3878002166748047, 0.011066761799156666, -0.05460503697395325, -0.08857604116201401, 0.1632392704486847, 0.11609462648630142, -0.28307607769966125, -0.05159616842865944, 0.03227374330163002, -0.10448318719863892, -0.14901557564735413, -0.026890039443969727, 0.07858149707317352, -0.14921997487545013], [-0.1273033171892166, -0.1826886534690857, 0.12775704264640808, 0.037693608552217484, -0.1577426940202713, 0.0660734474658966, 0.14201267063617706, -0.1227937713265419, 0.124447301030159, -0.15656110644340515, 0.16762898862361908, -0.11995059251785278, -0.1612032949924469, 0.12574823200702667, -0.12899614870548248, -0.07169247418642044, 0.04360713064670563, -0.017807045951485634, 0.07770943641662598, -0.01257700938731432, 0.15246187150478363, -0.12390559166669846, -0.08650346845388412, 0.13635042309761047, 0.00892559066414833, -0.11158713698387146, -0.010752484202384949, -0.053050048649311066], [-0.03800422325730324, 0.11897297948598862, 0.002771902596578002, -0.09574653208255768, -0.0701664537191391, 0.11323796212673187, 0.18351614475250244, -0.06377043575048447, 0.1546436995267868, 0.14645607769489288, -0.0005368329002521932, 0.15872184932231903, -0.004852622747421265, -0.19337478280067444, -0.12808384001255035, -0.10356571525335312, -0.0311288982629776, 0.17880487442016602, -0.08347520232200623, 0.07009481638669968, -0.09920063614845276, -0.1491987705230713, 0.07517736405134201, 0.03397931158542633, -0.10011308640241623, 0.1330934315919876, -0.011276930570602417, 0.0948704183101654], [-0.018690215423703194, -0.08913349360227585, 0.02442585490643978, -0.08663088083267212, -0.018251677975058556, -0.04728919267654419, -0.0440991073846817, -0.11332967877388, -0.0014637857675552368, -0.10468924790620804, -0.020884059369564056, 0.05847461521625519, 0.11599786579608917, 0.0373455286026001, 0.1780211180448532, 0.04310180991888046, 0.062152519822120667, 0.13924016058444977, -0.17627502977848053, 0.17755569517612457, 0.02012292668223381, 0.054033033549785614, -0.018102269619703293, 0.10964156687259674, 0.18773742020130157, -0.17326204478740692, -0.07121099531650543, 0.07691815495491028], [0.09209033846855164, 0.06688562035560608, 0.24027638137340546, 0.04584123566746712, 0.28800728917121887, 0.18257904052734375, 0.06589233875274658, 0.1672113984823227, -0.09910527616739273, -0.08469449728727341, -0.23061884939670563, 0.11933860927820206, 0.04151912033557892, 0.02304915338754654, -0.18272295594215393, 0.12941056489944458, 0.1364053338766098, 0.07869207859039307, 0.07170826196670532, -0.15637809038162231, 0.28090766072273254, 0.10009448975324631, 0.06546512991189957, -0.002327375113964081, 0.02874631993472576, 0.04764828085899353, 0.06608019769191742, -0.010989377275109291], [-0.05240505188703537, 0.13340230286121368, -0.09937231987714767, -0.21141822636127472, 0.009381381794810295, 0.0009024739265441895, -0.05191812664270401, 0.012363733723759651, 0.0013461858034133911, 0.028278181329369545, 0.09983359277248383, 0.0023964194115251303, -0.1408262848854065, 0.06888067722320557, 0.07046344876289368, 0.02970174141228199, 0.12743507325649261, 0.16792625188827515, -0.06731414794921875, 0.04503075033426285, 0.10850604623556137, -0.010169066488742828, -0.13648569583892822, 0.038371577858924866, 0.17040109634399414, 0.06705157458782196, 0.035071954131126404, 0.11930433660745621], [-0.03185069188475609, -0.05434785038232803, 0.081866055727005, -0.028270138427615166, 0.10960052907466888, 0.12418274581432343, 0.05602791905403137, 0.08291858434677124, 0.025326058268547058, -0.04207716882228851, -0.254459947347641, 0.1811135709285736, -0.005035044625401497, -0.18736760318279266, -0.12597663700580597, -0.032755061984062195, -0.062424346804618835, -0.03904208540916443, 0.1927611529827118, 0.12931151688098907, 0.087407685816288, 0.15498092770576477, 0.19389672577381134, -0.18875375390052795, -0.004534097854048014, -0.11775997281074524, -0.040068626403808594, 0.16882596909999847], [0.08888835459947586, 0.12614884972572327, 0.052385151386260986, -0.21742379665374756, 0.14576680958271027, 0.10977421700954437, 0.041185587644577026, -0.0469774529337883, -0.08473848551511765, 0.0819782018661499, -0.08845250308513641, 0.12333075702190399, 0.06155650317668915, 0.04880773648619652, -0.057004839181900024, -0.03465338051319122, -0.042186275124549866, 0.061785776168107986, -0.2139771580696106, 0.014923198148608208, -0.05067569017410278, -0.040234193205833435, 0.06551320105791092, -0.06460412591695786, -0.024070467799901962, 0.06878606975078583, 0.05888926982879639, 0.03349551931023598], [-0.010866750031709671, -0.06899936497211456, -0.19336853921413422, 0.267210990190506, -0.14551767706871033, -0.07529566437005997, 0.11917877197265625, -0.152478888630867, 0.0519770085811615, -0.03533877804875374, 0.3980873227119446, -0.06331616640090942, 0.058107730001211166, 0.30409613251686096, 0.3334411680698395, -0.0808403268456459, -0.17818818986415863, 0.048204440623521805, -0.008137889206409454, -0.1927541345357895, 0.0038638566620647907, 0.041554201394319534, -0.17016270756721497, 0.013018623925745487, -0.021255575120449066, 0.07864908874034882, -0.09005112200975418, 0.0101018650457263], [-0.006627080030739307, 0.13204286992549896, 0.16759681701660156, -0.16982340812683105, 0.19199077785015106, 0.13229699432849884, 0.00020151544595137239, 0.22209922969341278, -0.025551870465278625, -0.04702397435903549, -0.14038507640361786, 0.2670212686061859, 0.13878609240055084, -0.16525353491306305, 0.059710923582315445, -0.04340262711048126, -0.10551977902650833, -0.02115670219063759, 0.01123910490423441, 0.19087500870227814, 0.25898101925849915, 0.3406248092651367, -0.16282734274864197, 0.026360221207141876, -0.1398584246635437, -0.15297852456569672, -0.06529786437749863, 0.22347110509872437], [0.07156722247600555, 0.08550375699996948, 0.1997569054365158, -0.2773992419242859, 0.16109146177768707, 0.10756728798151016, -0.02524937130510807, 0.322367399930954, 0.16691924631595612, -0.019479308277368546, -0.11551931500434875, 0.39763060212135315, 0.00012312590843066573, -0.22330628335475922, -0.03704867884516716, 0.022918758913874626, -0.010154783725738525, -0.15100568532943726, 0.0343765988945961, 0.10536369681358337, 0.3166998326778412, 0.3160092532634735, -0.10255906730890274, -0.006155500654131174, 0.04671735689043999, 0.026911675930023193, -0.026763111352920532, 0.34823477268218994], [0.059765975922346115, -0.015542307868599892, 0.05089091509580612, -0.27113813161849976, -0.06333896517753601, 0.13242626190185547, -0.15978609025478363, 0.13500188291072845, 0.08087189495563507, 0.14096152782440186, 0.03735366463661194, 0.25191396474838257, 0.15501832962036133, 0.028500784188508987, -0.21153616905212402, -0.04533261060714722, -0.1292823851108551, 0.036579348146915436, 0.12260564416646957, -0.02109234780073166, 0.27773794531822205, 0.23768623173236847, -0.16244693100452423, -0.11175253987312317, -0.1373024582862854, -0.0331224650144577, 0.027361571788787842, 0.1113235354423523], [-0.02418418414890766, -0.13197097182273865, 0.1767999827861786, -0.18396271765232086, 0.24124900996685028, -0.17767877876758575, 0.013683876022696495, 0.12935076653957367, 0.09296919405460358, 0.0655847042798996, 0.004766521509736776, 0.18450315296649933, -0.07996422052383423, -0.1445571929216385, -0.17221076786518097, -0.08996826410293579, 0.05221407115459442, -0.06975965201854706, 0.2228717803955078, 0.06434628367424011, 0.3368486166000366, 0.20844408869743347, 0.07191506773233414, 0.039108756929636, 0.18522600829601288, -0.07586516439914703, 0.020843371748924255, 0.2536046504974365], [-0.007512209936976433, -0.06494583934545517, 0.18001632392406464, -0.22001390159130096, -0.04818184673786163, -0.027518682181835175, 0.028478719294071198, 0.17668408155441284, -0.16279087960720062, -0.13777978718280792, -0.09478828310966492, 0.2527620196342468, 0.0616796612739563, -0.018696511164307594, 0.06022820994257927, 0.012503777630627155, -0.003824383020401001, -0.0990685522556305, 0.14273032546043396, -0.05798238143324852, -0.004083817359060049, 0.12800993025302887, 0.09454355388879776, -0.14550809562206268, 0.0490320585668087, 0.030904576182365417, 0.07651613652706146, 0.14467009902000427], [-0.14921438694000244, 0.18881165981292725, 0.15652939677238464, 0.029726341366767883, -0.045219786465168, -0.03704848885536194, -0.02188468910753727, -0.0642695501446724, 0.1103084534406662, 0.19381557404994965, -0.09742660820484161, 0.21593336760997772, 0.01772010512650013, 0.07662130147218704, 0.057175010442733765, 0.09700233489274979, 0.004153028130531311, -0.14837607741355896, -0.11427819728851318, -0.1415202021598816, 0.04941099137067795, 0.21863505244255066, 0.07973402738571167, 0.16685710847377777, 0.1710028350353241, -0.01217643916606903, -0.013954028487205505, -0.01629113033413887], [0.07071610540151596, -0.08100241422653198, 0.053984299302101135, -0.09157296270132065, 0.01535531785339117, -0.14858876168727875, -0.07375936955213547, -0.14927354454994202, -0.15517164766788483, -0.03458642587065697, 0.12005002051591873, 0.12085191905498505, 0.031429558992385864, -0.19531625509262085, 0.11770470440387726, 0.09248094260692596, 0.1700924187898636, -0.16459253430366516, -0.1743401437997818, 0.14329805970191956, 0.13742701709270477, 0.17491339147090912, 0.05540375038981438, -0.06850920617580414, 0.0661637932062149, 0.16480861604213715, -0.03426255285739899, -0.003975837025791407], [-0.10271013528108597, -0.1395924687385559, -0.14248736202716827, -0.13273710012435913, 0.0930255725979805, 0.06938940286636353, -0.02863391488790512, -0.18355503678321838, 0.05849117040634155, -0.021670332178473473, 0.1549607366323471, 0.03959782421588898, 0.1344078928232193, 0.0437774620950222, 0.000641529040876776, 0.017254140228033066, 0.042536839842796326, 0.13946959376335144, 0.07116363942623138, -0.019591649994254112, 0.09095364809036255, -0.049359194934368134, 0.13007047772407532, -0.14448094367980957, -0.050237782299518585, 0.03135961294174194, -0.02821841835975647, 0.004233077634125948], [0.04193912073969841, 0.09378032386302948, -0.1417277753353119, 0.3392244875431061, 0.021581079810857773, 0.06713692843914032, 0.1669357270002365, -0.04984808713197708, 0.07251055538654327, 0.14072667062282562, 0.3988754451274872, -0.01648840494453907, -0.16231447458267212, 0.355935662984848, 0.07670005410909653, 0.2303972691297531, -0.04558825492858887, -0.12908907234668732, 0.03572125360369682, 0.0450391061604023, -0.23473010957241058, -0.030069177970290184, -0.019734948873519897, -0.043805163353681564, -0.0817442387342453, 0.013920292258262634, -0.1779288798570633, -0.2346750944852829], [-0.01297035813331604, 0.17094238102436066, -0.004795148968696594, -0.15668438374996185, -0.13906072080135345, 0.10893167555332184, -0.18480095267295837, -0.1551549732685089, -0.096546970307827, 0.10234133899211884, -0.07423095405101776, -0.08633314073085785, 0.17371486127376556, 0.07941092550754547, 0.005127519369125366, 0.02644750475883484, -0.16631101071834564, -0.11376719176769257, 0.04397799074649811, 0.03224898874759674, -0.09169502556324005, -0.17146776616573334, -0.03228667378425598, 0.11819164454936981, 0.1582331508398056, -0.019564896821975708, 0.08724994957447052, 0.05938991904258728], [-0.13684327900409698, -0.1568116694688797, 0.30789390206336975, -0.08622465282678604, 0.1382652074098587, -0.15442721545696259, 0.1411312371492386, 0.18191252648830414, -0.027182266116142273, 0.1745740920305252, -0.008020492270588875, 0.23248763382434845, -0.034285932779312134, -0.21180497109889984, 0.020922066643834114, -0.03994137421250343, -0.030426159501075745, 0.06539744138717651, 0.17101579904556274, -0.10474999248981476, 0.07988550513982773, 0.019728031009435654, 0.13369864225387573, -0.16084632277488708, -0.13909578323364258, -0.04037117958068848, -0.057881325483322144, 0.17657165229320526], [0.03640523552894592, -0.074177086353302, -0.08232095837593079, -0.08859310299158096, -0.07841061055660248, -0.06035053730010986, 0.10267530381679535, -0.18024568259716034, -0.1092994213104248, -0.019793957471847534, -0.03920482099056244, -0.07204270362854004, -0.017619475722312927, 0.10518328845500946, 0.010674983263015747, -0.03444206714630127, -0.15108302235603333, -0.05433599650859833, -0.12780964374542236, -0.102999746799469, -0.1389366090297699, -0.12612304091453552, -0.0945349782705307, -0.038238123059272766, 0.18278999626636505, 0.10515229403972626, -0.058056533336639404, 0.16873066127300262], [-0.12999461591243744, -0.026604726910591125, -0.17620259523391724, -0.12904614210128784, -0.14041490852832794, -0.06309494376182556, -0.1253703087568283, 0.06696245074272156, -0.03961709141731262, 0.13626542687416077, -0.018270015716552734, 0.15100078284740448, -0.1566968560218811, -0.1714087426662445, -0.07675900310277939, 0.011953447945415974, 0.028740063309669495, 0.07178711891174316, 0.04302264750003815, -0.21203479170799255, 0.008315149694681168, -0.015294278040528297, -0.06017672270536423, -0.028777584433555603, -0.07275396585464478, 0.12739308178424835, 0.0504927784204483, 0.1312798708677292], [-0.05581225827336311, 0.07532693445682526, 0.15107063949108124, 0.04517369717359543, -0.17980347573757172, 0.02632017433643341, 0.04158744215965271, 0.11405190825462341, 0.06278039515018463, -0.0019079233752563596, -0.10559353232383728, 0.0345064252614975, -0.1584845781326294, 0.05611695349216461, 0.06915747374296188, 0.02555437758564949, -0.019823268055915833, 0.12585601210594177, -0.19489452242851257, -0.10895052552223206, -0.15633229911327362, 0.007085150107741356, -0.1157073825597763, -0.16482314467430115, 0.07981942594051361, 0.16887961328029633, 0.16764472424983978, 0.12695622444152832], [0.12726247310638428, -0.1529044359922409, -0.13942556083202362, 0.03713121637701988, -0.13764896988868713, 0.04875090718269348, 0.07510754466056824, 0.13006970286369324, 0.0721634179353714, -0.04424023628234863, -0.11575900763273239, -0.059488896280527115, -0.14681848883628845, -0.11707605421543121, -0.0680132657289505, -0.12020742148160934, 0.06211061775684357, -0.1513397991657257, -0.1437583714723587, 0.033539313822984695, 0.02867680974304676, 0.11098994314670563, -0.14120185375213623, 0.11737428605556488, -0.06531471759080887, -0.11879110336303711, -0.16616514325141907, 0.07086852937936783], [0.27843427658081055, -0.11451762169599533, -0.17572243511676788, 0.249824658036232, 0.09583055973052979, -0.11387133598327637, 0.16510730981826782, 0.14252318441867828, 0.06634621322154999, -0.018053559586405754, 0.10136625915765762, -0.24451377987861633, 0.15057341754436493, 0.1877918690443039, 0.2573976516723633, -0.02837967313826084, 0.10867516696453094, -0.09088780730962753, 0.10509369522333145, -0.05681603029370308, -0.29477015137672424, -0.17450067400932312, 0.13309894502162933, -0.058796368539333344, 0.020980972796678543, 0.053488701581954956, 0.0028037577867507935, -0.08782994002103806], [0.31838712096214294, -0.17118331789970398, -0.2509327828884125, -0.05034272000193596, -0.20474165678024292, -0.1433093547821045, -0.16549555957317352, -0.1259227991104126, -0.1208806112408638, 0.11168604344129562, 0.34064069390296936, -0.31325048208236694, -0.10633827745914459, 0.18274526298046112, 0.3014051020145416, 0.1890389621257782, -0.10406684875488281, 0.027143999934196472, 0.14124582707881927, -0.05734829232096672, -0.032245103269815445, 0.0025391054805368185, 0.11584419012069702, -0.10561604797840118, -0.1702025979757309, 0.16699333488941193, -0.025077059864997864, 0.01725813001394272], [-0.08682306110858917, -0.01140183862298727, 0.09029107540845871, -0.16651472449302673, 0.18373596668243408, -0.015446499921381474, -0.049654364585876465, 0.06850612908601761, -0.06972294300794601, 0.12247390300035477, -0.3579016327857971, 0.06406191736459732, 0.16258984804153442, -0.11032360792160034, -0.1364777386188507, 0.15359555184841156, -0.013965487480163574, 0.006095133256167173, 0.1909012496471405, -0.0580931231379509, 0.10011278837919235, 0.1465313881635666, 0.14996053278446198, -0.14990028738975525, 0.04050201177597046, -0.1626218855381012, 0.07751981914043427, 0.0005976657848805189], [-0.19618108868598938, -0.06294834613800049, 0.2643881142139435, -0.16224358975887299, 0.08334137499332428, 0.04108342528343201, 0.07169552892446518, 0.21372443437576294, 0.10619764029979706, -0.0653662383556366, -0.16270071268081665, 0.20400461554527283, 0.10578962415456772, -0.0811195820569992, 0.0552964061498642, 0.10922681540250778, 0.016674920916557312, -0.10916082561016083, 0.2535261809825897, -0.11696017533540726, 0.26742303371429443, 0.12229373306035995, 0.1666964590549469, -0.051749907433986664, -0.06325173377990723, 0.026638418436050415, -0.18180228769779205, 0.12322980910539627]], "actor.network.4.bias": [0.04011056572198868, 0.03861191123723984, 0.08643080294132233, -0.11673012375831604, -0.0298886951059103, -0.05485367774963379, 0.14070381224155426, -0.003047409700229764, 0.17926153540611267, 0.03633219003677368, 0.09755585342645645, 0.027662737295031548, 0.017655933275818825, -0.015699632465839386, 0.08679816126823425, -0.042094141244888306, -0.033678118139505386, 0.09432090073823929, 0.008384674787521362, 0.0397849939763546, -0.09531453251838684, -0.06794679164886475, -0.0016319032292813063, 0.12363697588443756, 0.013703490607440472, 0.16272011399269104, 0.25987643003463745, -0.019842879846692085], "actor.network.6.weight": [[0.23061330616474152, 0.09334444254636765, 0.0017336730379611254, 0.10714875161647797, -0.052058927714824677, 0.042181167751550674, -0.3251339793205261, 0.05028480663895607, 0.3664127290248871, -0.15129786729812622, -0.3268401324748993, 0.08952298760414124, -0.291548490524292, 0.02532641775906086, -0.06257909536361694, 0.18881721794605255, -0.004681546241044998, 0.10849360376596451, 0.07586328685283661, -0.22100788354873657, -0.012483954429626465, 0.04888513684272766, -0.04912009462714195, -0.09805388003587723, 0.1503758579492569, 0.17018938064575195, -0.2738122344017029, -0.2550458312034607], [-0.387638121843338, -0.09506434202194214, -0.09431513398885727, 0.08444713056087494, 0.12314648181200027, -0.1637367606163025, 0.02233106456696987, 0.019042372703552246, -0.1636989563703537, 0.2662130892276764, 0.08078591525554657, 0.22376082837581635, 0.3312065601348877, 0.24959300458431244, -0.01633184403181076, -0.011521350592374802, 0.01889556273818016, -0.43061232566833496, 0.10710875689983368, 0.16748544573783875, -0.010626643896102905, -0.03496783971786499, -0.11259554326534271, -0.07606963068246841, -0.08629408478736877, -0.31282109022140503, 0.11158440262079239, 0.21640755236148834]], "actor.network.6.bias": [-0.0011342259822413325, -0.11586534231901169], "critic.network.0.weight": [[-0.0659625381231308, -0.38416588306427, -0.08470118790864944, -0.141113743185997], [-0.4370715916156769, 0.3932988941669464, -0.3216627240180969, 0.17952118813991547], [0.25584694743156433, 0.38230451941490173, 0.2937309443950653, -0.44500061869621277], [-0.3770550489425659, -0.14440375566482544, -0.3668406307697296, -0.010120347142219543], [0.5932103395462036, 0.03775972127914429, 0.42163360118865967, -0.08888132125139236], [-0.27734461426734924, 0.2610388994216919, -0.2691262662410736, 0.40264376997947693], [-0.5082772374153137, 0.3579951822757721, 0.405862957239151, 0.07581208646297455], [0.13876166939735413, 0.38048386573791504, 0.49970465898513794, 0.37995949387550354], [-0.12357266247272491, 0.01836588978767395, 0.37278974056243896, -0.48095062375068665], [0.09084610641002655, 0.22682666778564453, -0.46053531765937805, 0.13454954326152802], [-0.19135941565036774, -0.3052535057067871, 0.0722624659538269, -0.12949945032596588], [0.10207245498895645, -0.5206410884857178, -0.6627854108810425, -0.48208481073379517], [-0.2580687999725342, -0.15185938775539398, 0.11849114298820496, -0.1508438140153885], [-0.40290048718452454, 0.2651997208595276, -0.7009984254837036, -0.30324146151542664], [0.36275947093963623, 0.259273886680603, 0.22475965321063995, -0.4284359812736511], [0.2247239053249359, -0.40125367045402527, -0.4203333556652069, -0.3278924226760864], [0.11545153707265854, 0.3195764422416687, -0.3895016014575958, -0.15862984955310822], [0.17454524338245392, -0.14178967475891113, -0.4430173337459564, 0.33126258850097656], [-0.043772369623184204, 0.30080533027648926, 0.1141166239976883, 0.5499712228775024], [-0.17258530855178833, -0.4274583160877228, -0.014170690439641476, 0.2909480631351471], [-0.23462198674678802, 0.16262900829315186, -0.5124045014381409, 0.42099303007125854], [-0.15669742226600647, 0.23808419704437256, 0.09261856973171234, 0.24506917595863342], [0.3669171929359436, -0.1327633112668991, -0.42925316095352173, 0.37538206577301025], [-0.23675504326820374, 0.2847001254558563, 0.18246248364448547, 0.5463643670082092], [0.2930481433868408, -0.2198542207479477, -0.02666458487510681, -0.17332449555397034], [-0.2595392167568207, 0.08577097207307816, 0.2057832032442093, -0.22970254719257355], [-0.07621850818395615, 0.22021149098873138, -0.41012826561927795, -0.2823556363582611], [0.1791800707578659, 0.20934288203716278, 0.16409726440906525, 0.10315442085266113]], "critic.network.0.bias": [0.22537747025489807, 0.3503953814506531, 0.1437646597623825, 0.5752630233764648, -0.062452398240566254, 0.45700204372406006, 0.2963826656341553, -0.3456805646419525, -0.4335005581378937, 0.4893563389778137, 0.35566648840904236, -0.11797812581062317, 0.02398740127682686, -0.13333694636821747, -0.3041960299015045, 0.41715964674949646, 0.29983121156692505, 0.37997281551361084, -0.3487679660320282, 0.12735864520072937, 0.13914795219898224, 0.43709275126457214, 0.15657685697078705, -0.3421419560909271, 0.313491553068161, -0.24924582242965698, 0.45347869396209717, 0.569415807723999], "critic.network.2.weight": [[0.026752037927508354, 0.22598788142204285, 0.03406571224331856, -0.01813771016895771, 0.25631770491600037, 0.027566207572817802, 0.23138555884361267, 0.2239212989807129, -0.0045330459251999855, 0.12701132893562317, 0.15756486356258392, -0.08495911955833435, -0.1574006974697113, 0.1768575757741928, 0.114568792283535, -0.6337611675262451, -0.1565927118062973, 0.18353106081485748, 0.26129835844039917, -0.03916763514280319, 0.025588642805814743, -0.06902922689914703, 0.21927803754806519, 0.22867456078529358, -0.29006579518318176, -0.11038036644458771, 0.066698357462883, 0.2442558854818344], [0.05349114537239075, 0.00022334267850965261, 0.19077898561954498, 0.089543916285038, -0.11944180727005005, 0.1840803474187851, 0.13066522777080536, -0.25970619916915894, -0.11363024264574051, 0.18632972240447998, 0.2301241159439087, -0.10922020673751831, -0.03181660175323486, -0.11289548873901367, -0.09673595428466797, 0.2564195692539215, -0.13330179452896118, -0.08318907022476196, 0.05940151587128639, 0.1726587563753128, 0.13004951179027557, 0.13585124909877777, 0.08877518773078918, -0.20724625885486603, 0.22990745306015015, -0.01181346271187067, 0.1329595148563385, 0.10103514045476913], [-0.07324998825788498, -0.13771799206733704, -0.11722680926322937, -0.09327524900436401, 0.025513142347335815, -0.09446428716182709, 0.18214477598667145, 0.06762674450874329, 0.10739697515964508, -0.05739817023277283, 0.11017826199531555, -0.031224295496940613, -0.08802365511655807, -0.11847031861543655, -0.15242841839790344, 0.016632694751024246, 0.10197379440069199, 0.09348444640636444, -0.06976576149463654, -0.14420071244239807, -0.12845072150230408, -0.055352985858917236, -0.06423325836658478, 0.0018958747386932373, -0.09252133965492249, -0.1514718383550644, -0.11697366833686829, -0.006036242935806513], [0.15141713619232178, 0.18760868906974792, -0.11557557433843613, 0.27020135521888733, -0.07472794502973557, 0.03985375165939331, -0.11536898463964462, -0.035763733088970184, -0.2094583511352539, 0.2796419560909271, 0.1455065757036209, -0.2259778082370758, 0.06526485085487366, 0.12251783907413483, -0.10666270554065704, 0.030996408313512802, 0.1267058402299881, 0.066949762403965, -0.0009350404143333435, -0.03803274780511856, 0.024134568870067596, 0.17058981955051422, -0.027696600183844566, -0.2507695257663727, 0.23339684307575226, 0.07408691197633743, 0.10205801576375961, 0.13444232940673828], [0.13127166032791138, 0.012624222785234451, -0.15435443818569183, 0.2287481725215912, -0.18331432342529297, -0.061599183827638626, -0.024044204503297806, -0.16345354914665222, 0.11294016242027283, -0.055766403675079346, 0.06060045585036278, -0.1671106517314911, 0.01710071787238121, -0.2358037680387497, -0.01589415781199932, 0.19496050477027893, 0.19137386977672577, 0.17179054021835327, -0.13881555199623108, -0.07364427298307419, -0.18065699934959412, -0.006022512447088957, 0.18884903192520142, -0.08261799812316895, 0.07032015919685364, -0.07289818674325943, 0.09458939731121063, 0.21538566052913666], [0.0030493619851768017, 0.2816714346408844, 0.011782624758780003, 0.2836761772632599, -0.013224607333540916, -0.010100966319441795, 0.05929799750447273, -0.08334367722272873, 0.09776100516319275, 0.22829587757587433, 0.14996641874313354, 0.06894207000732422, -0.08333487808704376, -0.12070489674806595, 0.09866344928741455, 0.08010613173246384, -0.017569977790117264, 0.08552981168031693, -0.2576878070831299, 0.06275900453329086, -0.055273041129112244, 0.24703823029994965, -0.05973412096500397, -0.3030860424041748, 0.09036309272050858, -0.19683310389518738, 0.21203947067260742, 0.2542763948440552], [0.04107142612338066, 0.1139819398522377, -0.12366290390491486, -0.012113036587834358, -0.009821009822189808, 0.13928216695785522, -0.0650528222322464, -0.045046061277389526, 0.07391249388456345, -0.1157209575176239, 0.05590425431728363, -0.15017583966255188, -0.0764131024479866, -0.18238821625709534, 0.17120587825775146, -0.0731075331568718, 0.06885437667369843, -0.1524907797574997, -0.05664543807506561, -0.18122342228889465, 0.14053648710250854, -0.17609405517578125, 0.16732676327228546, -0.12297944724559784, 0.08213643729686737, 0.14905831217765808, 0.11956441402435303, -0.17783516645431519], [0.008525178767740726, -0.20989282429218292, -0.02828729711472988, 0.16578683257102966, -0.061934567987918854, -0.39970168471336365, -0.595194935798645, -0.0948352962732315, 0.20337453484535217, -0.07716981321573257, 0.03012775257229805, 0.2256913185119629, -0.16237591207027435, -0.06951567530632019, 0.21057260036468506, 0.07831063866615295, -0.011176246218383312, 0.06722121685743332, 0.06400920450687408, -0.19896124303340912, -0.32768329977989197, -0.2392282634973526, -0.10505499690771103, 0.18449456989765167, 0.013507666997611523, -0.07034698128700256, 0.2104235291481018, -0.02260703220963478], [0.0011169897625222802, -0.1544254720211029, 0.028977904468774796, -0.0868852436542511, -0.059817057102918625, 0.014941351488232613, 0.1516643762588501, 0.16852867603302002, -0.19458512961864471, -0.00945824384689331, 0.19596189260482788, -0.016652172431349754, -0.02295808494091034, -0.08362171798944473, -0.10424663126468658, -0.2887522876262665, -0.20254015922546387, -0.03632453829050064, 0.19671067595481873, 0.22919833660125732, -0.06605161726474762, 0.14003638923168182, 0.2045307755470276, 0.24563604593276978, -0.5095036625862122, -0.1576259434223175, -0.3491955101490021, -0.20182552933692932], [0.06279163807630539, 0.08508475124835968, 0.174321249127388, 0.12333459407091141, -0.07786350697278976, 0.024080324918031693, 0.019690724089741707, -0.1389126181602478, -0.1358693391084671, 0.24486005306243896, 0.04319855570793152, 0.03810395672917366, -0.15257491171360016, -0.08131147176027298, 0.057727426290512085, 0.282802939414978, 0.06820865720510483, -0.04794575273990631, -0.1427386999130249, -0.014786538667976856, 0.08806800842285156, -0.04479112848639488, 0.15904365479946136, -0.05871390551328659, -0.003586165141314268, -0.20891515910625458, -0.11284566670656204, -0.0861181765794754], [-0.20674222707748413, 0.07954369485378265, 0.08608993887901306, 0.08472231775522232, 0.13020697236061096, -0.35129714012145996, -0.35516828298568726, -0.18754197657108307, 0.005154821556061506, -0.05053827911615372, -0.2253250777721405, 0.13659057021141052, -0.0075669982470571995, -0.045572757720947266, 0.10385069251060486, -0.10621917247772217, 0.14485710859298706, -0.2492222934961319, -0.17701229453086853, 0.0039341626688838005, -0.08393490314483643, 0.09706113487482071, -0.12499946355819702, 0.06982441246509552, -0.15023894608020782, 0.1487393081188202, 0.15548118948936462, -0.17832736670970917], [0.08036678284406662, 0.14799095690250397, -0.058389611542224884, 0.034940119832754135, -0.03984285891056061, 0.0421726331114769, -0.05795532092452049, -0.2445303499698639, 0.034359537065029144, -0.11609242856502533, 0.05034657567739487, -0.09327530115842819, -0.061837878078222275, 0.09484301507472992, -0.07556740939617157, 0.13980448246002197, 0.11719003319740295, 0.13785237073898315, -0.1960858702659607, 0.14674489200115204, 0.08017899841070175, 0.014354849234223366, -0.10326152294874191, 0.018535155802965164, 0.08970975130796432, -0.00016427456284873188, 0.09089551120996475, 0.2134781777858734], [0.15870533883571625, -0.049612972885370255, -0.03368555009365082, 0.17525732517242432, -0.1074964702129364, -0.06626328080892563, 0.30528104305267334, 0.02509954757988453, -0.08539184182882309, -0.219807431101799, 0.159142404794693, 0.1654789298772812, 0.26541373133659363, -0.046062618494033813, -0.1045033410191536, -0.28078460693359375, -0.081572525203228, 0.012004130519926548, 0.3092036843299866, 0.11053808033466339, 0.14043642580509186, 0.1480908840894699, 0.018881037831306458, 0.28446340560913086, -0.43913349509239197, -0.10427959263324738, -0.18892651796340942, -0.20234087109565735], [0.04036499559879303, -0.15552064776420593, -0.13154955208301544, 0.026813548058271408, 0.03781105577945709, -0.07146269083023071, -0.06362813711166382, -0.062350038439035416, 0.04186151921749115, 0.008205585181713104, -0.15435077250003815, 0.0023917718790471554, 0.01724797487258911, 0.03884236514568329, -0.17660623788833618, 0.026852592825889587, 0.16139103472232819, -0.08260153234004974, -0.055677659809589386, -0.08290177583694458, -0.14594590663909912, -0.0041151572950184345, 0.018703807145357132, -0.18668383359909058, 0.06659181416034698, -0.033464133739471436, 0.005188261158764362, 0.028834490105509758], [0.1442766785621643, -0.22067256271839142, 0.09373350441455841, -0.028900250792503357, 0.07782139629125595, -0.14831295609474182, -0.8164244294166565, 0.05877832695841789, 0.05266406387090683, 0.028904996812343597, 0.00200972193852067, 0.31491491198539734, 0.07960326969623566, 0.15835809707641602, 0.26697587966918945, -0.022982241585850716, 0.11146442592144012, -0.027743903920054436, 0.06732239574193954, -0.028436720371246338, -0.2790261209011078, -0.23082689940929413, -0.07898849993944168, -0.13850609958171844, 0.01024642214179039, 0.21955887973308563, 0.129555344581604, 0.07554180920124054], [0.15594466030597687, 0.12484712153673172, 0.01748576946556568, -0.03601737320423126, 0.07612361758947372, 0.060965217649936676, 0.03228050470352173, -0.14308176934719086, -0.028966812416911125, -0.013001414947211742, 0.04301605746150017, -0.10733222961425781, 0.08360838145017624, -0.18779268860816956, 0.07213321328163147, 0.27118080854415894, -0.15915387868881226, -0.1558527797460556, -0.18094982206821442, -0.1603400558233261, 0.10813569277524948, -0.022661935538053513, -0.16207259893417358, 0.0086677810177207, 0.33630433678627014, -0.03257206454873085, -0.09505429118871689, 0.19345355033874512], [0.11885011941194534, 0.07790184766054153, -0.17056889832019806, 0.10448669642210007, 0.024038761854171753, 0.1439329832792282, -0.24074384570121765, -0.23626258969306946, -0.21905852854251862, 0.1520887017250061, -0.11357814073562622, -0.2156684696674347, -0.11117479205131531, 0.029256151989102364, -0.21647125482559204, 0.014857691712677479, 0.1753154695034027, -0.12010093778371811, -0.14038240909576416, 0.09218160063028336, -0.23487742245197296, 0.19455452263355255, -0.09164904803037643, -0.16373765468597412, 0.23727640509605408, -0.09310593456029892, 0.11917057633399963, -0.08309431374073029], [-0.013848308473825455, 0.1459621787071228, 0.12434589117765427, 0.136016383767128, -0.18243277072906494, 0.16547100245952606, -0.1911998987197876, -0.21145102381706238, -0.20483911037445068, -0.02727876603603363, 0.15300346910953522, -0.1202889159321785, -0.09382709860801697, 0.1074894592165947, -0.014122855849564075, -0.07025426626205444, -0.06787765771150589, -0.16437184810638428, -0.15184757113456726, -0.11856766790151596, 0.09908999502658844, 0.009547577239573002, 0.0012863455340266228, -0.0900946781039238, 0.2591196596622467, -0.03345927968621254, 0.2219914346933365, 0.018524233251810074], [0.09626572579145432, 0.10833930969238281, 0.07575394213199615, 0.03871748596429825, 0.14220336079597473, -0.2288723886013031, -0.8967547416687012, 0.2173033356666565, 0.2258388102054596, -0.1902044117450714, -0.07041832059621811, 0.2791879177093506, -0.03458695858716965, 0.05946248024702072, 0.22258713841438293, 0.1433873176574707, -0.035974711179733276, -0.034900203347206116, -0.10265688598155975, 0.004370418842881918, -0.2958114743232727, -0.22289171814918518, -0.15204566717147827, -0.10747481882572174, 0.1350046694278717, 0.07635819911956787, 0.03125873953104019, -0.08312679827213287], [-0.1373283714056015, 0.0819661021232605, -0.030557116493582726, 0.268617182970047, -0.022487513720989227, 0.1334180384874344, -0.19460773468017578, -0.13842332363128662, -0.1655212938785553, -0.033900801092386246, 0.14774586260318756, -0.19753658771514893, 0.023664463311433792, -0.15676459670066833, -0.02538108080625534, 0.17347194254398346, 0.11072250455617905, 0.14632286131381989, -0.2174607366323471, -0.17580124735832214, 0.1515807956457138, 0.11043649911880493, 0.16569095849990845, -0.24379512667655945, 0.10359042882919312, -0.0337132103741169, 0.08520469069480896, -0.08098331093788147], [-0.004392682109028101, 0.03529065102338791, 0.18730926513671875, 0.10064616799354553, -0.10158158838748932, 0.17608687281608582, 0.022120391950011253, -0.06892149150371552, -0.09823078662157059, 0.15604646503925323, 0.12826520204544067, -0.27582988142967224, 0.08797401189804077, -0.1668088138103485, -0.09651540219783783, -0.00187106232624501, 0.17595742642879486, 0.1966070532798767, -0.03698818013072014, -0.15267100930213928, -0.03896605595946312, 0.14290526509284973, 0.11131890118122101, -0.08246485888957977, 0.03439663350582123, -0.013918772339820862, 0.06967591494321823, 0.20022979378700256], [0.16247199475765228, -0.06182057410478592, 0.16713610291481018, 0.034729935228824615, 0.08618633449077606, -0.03731018304824829, -0.1499939262866974, 0.013448148965835571, -0.06618234515190125, 0.03763285651803017, 0.005135452374815941, 0.07868807017803192, -0.07636519521474838, -0.122878298163414, 0.1127060204744339, 0.25151896476745605, 0.09915652871131897, -0.06281477212905884, 0.014010831713676453, -0.08368825167417526, 0.16627360880374908, -0.007371016312390566, -0.06667353957891464, -0.22072233259677887, 0.18613635003566742, -0.20912471413612366, 0.21156831085681915, 0.016787832602858543], [0.13542906939983368, 0.0033086182083934546, 0.16552729904651642, 0.09031911939382553, -0.10700532048940659, 0.23627668619155884, 0.021849192678928375, 0.007356369402259588, 0.05893787741661072, 0.21601398289203644, 0.21408075094223022, -0.21767117083072662, -0.19523856043815613, 0.13617901504039764, 0.04181577265262604, 0.20823293924331665, 0.015685521066188812, 0.19431769847869873, 0.010166175663471222, -0.17690500617027283, -0.01757323369383812, -0.02050657942891121, -0.12928028404712677, -0.24641577899456024, 0.30347028374671936, -0.23376315832138062, 0.1717940717935562, 0.1843855381011963], [0.18360666930675507, 0.2732243537902832, -0.027261190116405487, 0.27463194727897644, -0.20860739052295685, -0.11466864496469498, 0.027360618114471436, -0.0617842860519886, -0.20566758513450623, 0.24199163913726807, 0.1693771332502365, -0.054319024085998535, -0.11295919120311737, -0.1426890641450882, -0.0726860836148262, 0.20562295615673065, 0.09617669135332108, 0.21205082535743713, 0.0002103415463352576, 0.02693016268312931, 0.01929544098675251, -0.006234976928681135, 0.0890565738081932, -0.25713106989860535, 0.041484493762254715, -0.008812041953206062, -0.02345386892557144, 0.026751255616545677], [0.20485690236091614, 0.08590229600667953, 0.07758237421512604, 0.25925305485725403, -0.08183416724205017, -0.009244730696082115, 0.1466883420944214, -0.11525317281484604, -0.1379096359014511, 0.12953433394432068, 0.016652479767799377, -0.22026757895946503, 0.09928495436906815, -0.15936334431171417, -0.0957259014248848, 0.2302807867527008, -0.10972433537244797, 0.16375349462032318, -0.19964425265789032, 0.1535864919424057, 0.05816440284252167, 0.23218895494937897, 0.16931776702404022, -0.009577841497957706, 0.2149970531463623, -0.06475461274385452, -0.10709647834300995, 0.02543027698993683], [-0.028384070843458176, 0.08121053874492645, -0.03899959474802017, 0.05131133645772934, -0.10734658688306808, 0.12258747965097427, 0.3222450911998749, 0.1590747833251953, -0.18063423037528992, -0.2864738404750824, 0.0846041664481163, -0.06836394220590591, 0.2185194194316864, 0.13971564173698425, 0.11326062679290771, -0.33131080865859985, -0.1834586262702942, 0.0758228600025177, 0.0058091143146157265, 0.14472167193889618, 0.12487263232469559, 0.12269993871450424, 0.06132856011390686, 0.028809787705540657, -0.6320905685424805, -0.08064188063144684, -0.09482096135616302, -0.058467041701078415], [-0.04753051698207855, -0.02864360623061657, 0.10867544263601303, 0.011826123110949993, -0.23036006093025208, 0.012471670284867287, 0.08895251154899597, -0.11497373878955841, -0.11216620355844498, 0.005469660274684429, -0.1370992213487625, -0.25381335616111755, 0.14821943640708923, -0.22340142726898193, 0.07118596136569977, 0.11950016021728516, 0.17461085319519043, -0.0017886065179482102, -0.0013780476292595267, 0.13326919078826904, 0.10944222658872604, 0.20924901962280273, 0.07709313929080963, -0.13281896710395813, 0.20346853137016296, -0.07394798845052719, -0.11786305159330368, 0.027531715109944344], [-0.07736501842737198, 5.564784078160301e-05, -0.1505500227212906, 0.16401994228363037, 0.011262773536145687, 0.020955970510840416, 0.06280530244112015, -0.01862126775085926, -0.06734593957662582, 0.2009388655424118, 0.20703329145908356, -0.16213779151439667, 0.03488621115684509, 0.0872526615858078, -0.14027172327041626, 0.054884910583496094, -0.09681015461683273, 0.08262553066015244, -0.07888025045394897, -0.06764499098062515, 0.001638258108869195, 0.1015947088599205, -0.06490156054496765, -0.34657585620880127, 0.32089078426361084, -0.032798610627651215, 0.25510844588279724, 0.25648459792137146]], "critic.network.2.bias": [-0.07964252680540085, 0.31356099247932434, 0.12362092733383179, 0.2273399978876114, 0.13279332220554352, 0.27582308650016785, -0.0901111513376236, 0.02902430295944214, -0.08115078508853912, 0.1835911124944687, 0.03376647084951401, -0.0968465805053711, -0.13413406908512115, -0.0872335359454155, 0.0021531039383262396, 0.24422374367713928, 0.21695472300052643, -0.07527812570333481, 0.019626200199127197, 0.20134681463241577, 0.19482043385505676, 0.05342762917280197, 0.13567297160625458, 0.13481669127941132, -0.005811187904328108, -0.11833494156599045, 0.2806369364261627, 0.09922511875629425], "critic.network.4.weight": [[-0.08311738818883896, 0.2007628083229065, -0.0054733906872570515, 0.1222749799489975, 0.17215967178344727, 0.2575753331184387, 0.09695595502853394, -0.03454229608178139, -0.26932623982429504, 0.22133250534534454, -0.1928153783082962, 0.032236628234386444, -0.29050713777542114, -0.1047629863023758, -0.29459547996520996, 0.09280814230442047, 0.14052177965641022, -0.13877731561660767, -0.038206104189157486, -0.0044013154692947865, 0.15849606692790985, 0.004205621313303709, 0.20954367518424988, 0.07004401832818985, 0.22225834429264069, -0.22863119840621948, 0.01025034673511982, 0.21095190942287445], [-0.05423443019390106, 0.10909029841423035, 0.007608932908624411, 0.1533534824848175, 0.12102413177490234, 0.23311357200145721, 0.019314264878630638, -0.03159812092781067, -0.02088339626789093, -0.08859118819236755, -0.20868271589279175, 0.1351889818906784, -0.2142958790063858, 0.19004157185554504, -0.12212296575307846, 0.1490265429019928, 0.0514148473739624, -0.16594572365283966, -0.256905198097229, -0.08183559030294418, -0.13326670229434967, 0.08634080737829208, 0.25601130723953247, 0.07119499891996384, 0.1547119915485382, -0.06251612305641174, 0.19963717460632324, 0.07454735785722733], [-0.2856636941432953, 0.0591927170753479, 0.20495563745498657, 0.03597930818796158, 0.003177881706506014, 0.21665549278259277, 0.016606517136096954, -0.24621661007404327, -0.12372271716594696, -0.03875140845775604, -0.22151587903499603, 0.0487615205347538, -0.21349534392356873, -0.05349855124950409, -0.05388012155890465, 0.24767161905765533, 0.08881473541259766, -0.08689405769109726, -0.21893025934696198, 0.17379996180534363, -0.07615778595209122, -0.06890393048524857, 0.08050961047410965, 0.17762160301208496, 0.14428749680519104, -0.18145786225795746, 0.21429990231990814, 0.24278134107589722], [0.0405685156583786, -0.14041560888290405, -0.0651860311627388, -0.19192132353782654, 0.07045857608318329, -0.14596891403198242, -0.07000484317541122, 0.06755286455154419, 0.0720442682504654, -0.03940543904900551, 0.16294747591018677, 0.07693260908126831, 0.06402803957462311, 0.17009876668453217, 0.10958333313465118, 0.1219550371170044, -0.15585094690322876, 0.03004533424973488, 0.021916184574365616, -0.143987238407135, 0.09798084199428558, 0.012961280532181263, 0.13377737998962402, -0.030848585069179535, -0.05491321533918381, -0.03546792268753052, -0.16706249117851257, 0.09169840812683105], [-0.203425332903862, 0.23646606504917145, -0.13353478908538818, -0.09652211517095566, 0.1338941603899002, 0.16269341111183167, -0.09684087336063385, 0.011054974049329758, 0.05138525366783142, -0.09824370592832565, -0.20868588984012604, 0.14065735042095184, -0.2445937991142273, -0.03126513957977295, 0.009964053519070148, 0.0783258005976677, 0.025570692494511604, -0.08971928060054779, 0.053443390876054764, 0.2572438418865204, -0.04034389927983284, -0.14272834360599518, -0.00121023110114038, 0.08785613626241684, 0.15123824775218964, -0.11186105757951736, 0.22912177443504333, -0.09181448072195053], [-0.014163807034492493, 0.17932745814323425, -0.10747745633125305, -0.050983279943466187, 0.09797327220439911, -0.11125798523426056, -0.18101701140403748, 0.005262851715087891, -0.1899297535419464, 0.02783326990902424, 0.08315734565258026, -0.025889890268445015, 0.07091964781284332, -0.09569895267486572, 0.054554834961891174, -0.0138482004404068, 0.027239801362156868, 0.006987360306084156, -0.07240612804889679, -0.08656689524650574, 0.17253804206848145, -0.01327313669025898, -0.10020746290683746, -0.05291660130023956, 0.019654808565974236, 0.14667746424674988, -0.09631846845149994, -0.006268802098929882], [-0.15433867275714874, -0.005047421902418137, 0.09181465953588486, 0.16637630760669708, 0.2372428923845291, -0.019358519464731216, -0.07634364813566208, -0.07934936136007309, -0.24901233613491058, 0.10571160167455673, -0.19296471774578094, 0.11172226071357727, -0.2733578681945801, -0.04162226617336273, -0.12724266946315765, 0.023442218080163002, 0.2836664319038391, 0.11878986656665802, -0.17775152623653412, -0.005856734234839678, 0.1422569304704666, 0.21233521401882172, 0.25922542810440063, -0.08209270983934402, -0.08084677159786224, 0.028070170432329178, 0.14462585747241974, 0.2651427686214447], [0.13217726349830627, -0.09263122081756592, 0.06783365458250046, 0.012032496742904186, 0.08248361200094223, -0.16717758774757385, -0.05840061604976654, 0.1662319302558899, 0.13359245657920837, -0.06538219749927521, 0.033738140016794205, 0.025606557726860046, 0.2043081820011139, 0.13132107257843018, 0.05930529534816742, -0.1844964623451233, -0.06489287316799164, 0.06718641519546509, 0.24886198341846466, 0.0792093425989151, 0.10453879833221436, 0.20753681659698486, 0.11336331069469452, 0.016811169683933258, -0.09418695420026779, -0.04210831597447395, 0.06926591694355011, -0.13187453150749207], [-0.041331782937049866, -0.16944701969623566, 0.16694475710391998, -0.1134723424911499, 0.07463894784450531, -0.0408010333776474, -0.18463779985904694, 0.16824765503406525, -0.07313086837530136, -0.08514397591352463, -0.009029194712638855, 0.10698987543582916, -0.15985627472400665, -0.15894171595573425, 0.04695643484592438, -0.12334813177585602, 0.0957341343164444, 0.06949155032634735, -0.12039902061223984, 0.15181048214435577, -0.1611369550228119, -0.16438186168670654, -0.06443183124065399, -0.0015087127685546875, -0.12395135313272476, -0.040772005915641785, -0.01119735836982727, -0.024018675088882446], [0.048886142671108246, -0.10091780126094818, -0.02843138575553894, 0.025560282170772552, -0.0575738325715065, 0.04746061563491821, 0.07520421594381332, 0.11205244064331055, 0.20981289446353912, -0.041656844317913055, 0.17991726100444794, 0.14488685131072998, 0.06643372029066086, 0.09680146723985672, 0.2667296826839447, -0.026598704978823662, -0.22011733055114746, 0.14934416115283966, -0.028555195778608322, -0.09957251697778702, 0.06995649635791779, -0.0569462776184082, 0.11383218318223953, -0.14677758514881134, -0.1471688151359558, 0.10021405667066574, 0.027148356661200523, 0.004249936901032925], [0.06745396554470062, -0.15441006422042847, -0.16255657374858856, -0.11209841817617416, 0.11947916448116302, 0.00037313997745513916, 0.021030277013778687, 0.12353028357028961, -0.1495741903781891, 0.14863146841526031, 0.13618294894695282, 0.15001936256885529, 0.15085051953792572, 0.15687872469425201, -0.09352140128612518, -0.04594683647155762, -0.08924104273319244, -0.01975482702255249, 0.018685564398765564, 0.02882474660873413, -0.023323222994804382, 0.04373270273208618, -0.12505656480789185, -0.05932547152042389, -0.00844663381576538, -0.1121855154633522, 0.08433027565479279, -0.07763252407312393], [-0.3312159478664398, -0.008027755655348301, -0.038023076951503754, 0.2783501446247101, 0.0012572261039167643, -0.010276109911501408, -0.09954742342233658, -0.11027282476425171, -0.24634018540382385, 0.2270498126745224, -0.14490437507629395, 0.06570233404636383, -0.029041308909654617, -0.08407200127840042, -0.18419872224330902, 0.11721228063106537, 0.15597952902317047, 0.06812531501054764, -0.18841351568698883, 0.24442100524902344, 0.20910361409187317, 0.03765783831477165, -0.006003037095069885, 0.254136323928833, 0.2196546345949173, -0.1715853214263916, 0.08144403994083405, 0.16841228306293488], [-0.2546979784965515, -0.05818586051464081, 0.045011796057224274, -0.05423693358898163, -0.004473238252103329, 0.16372309625148773, 0.05052034184336662, -0.22250190377235413, -0.26741576194763184, 0.06642524898052216, -0.08591187000274658, 0.03049812652170658, -0.06337697803974152, 0.0413050577044487, -0.2716760039329529, 0.0614703968167305, -0.048958152532577515, -0.1013299897313118, 0.006422125268727541, -0.10815156251192093, -0.09860040247440338, -0.06401577591896057, 0.07433109730482101, 0.1730404794216156, 0.08077982068061829, -0.007274596486240625, -0.004988277330994606, 0.1558634489774704], [-0.18254664540290833, 0.08941995352506638, -0.13899622857570648, -0.15621227025985718, -0.040025822818279266, 0.0016325769247487187, 0.1705773025751114, 0.13140743970870972, 0.0622452050447464, 0.10731879621744156, 0.13618841767311096, 0.16291823983192444, -0.027095556259155273, -0.09917144477367401, -0.12858471274375916, -0.14546126127243042, 0.039976269006729126, -0.19229739904403687, -0.005739105865359306, -0.16013425588607788, -0.11347164958715439, 0.09009770303964615, 0.08035970479249954, -0.01489650271832943, -0.15931852161884308, -0.09414422512054443, -0.14703038334846497, -0.15918844938278198], [-0.20171457529067993, 0.24781684577465057, -0.15766361355781555, 0.2089412361383438, 0.25807127356529236, 0.057655151933431625, 0.04545371234416962, -0.1788509488105774, -0.2844226360321045, -0.04932817444205284, 0.06610912084579468, -0.16849219799041748, -0.20306754112243652, 0.06296376883983612, -0.2801646292209625, -0.02398732863366604, 0.21774345636367798, 0.06949634850025177, -0.19900885224342346, -0.023526670411229134, 0.179554283618927, 0.04320148751139641, 0.07351235300302505, 0.03591535612940788, 0.23124054074287415, -0.21685095131397247, 0.04264269024133682, -0.03064187616109848], [0.12909604609012604, 0.07656919211149216, 0.05155316740274429, -0.20204780995845795, 0.14853544533252716, -0.21793803572654724, -0.11716339737176895, 0.048733796924352646, 0.20235544443130493, -0.1531820148229599, -0.10311651229858398, 0.16165296733379364, 0.3091915547847748, -0.1425776183605194, 0.0658283531665802, -0.10863390564918518, -0.14704474806785583, -0.06946644186973572, -0.012742023915052414, 0.15646222233772278, 0.07811126112937927, -0.2374364137649536, -0.15689414739608765, 0.13935592770576477, -0.12065435945987701, 0.0468154102563858, 0.0770857036113739, 0.09615877270698547], [0.07211187481880188, -0.04942699521780014, -0.027728401124477386, 0.1184852197766304, 0.08948644995689392, -0.15088777244091034, 0.01802794821560383, -0.01818307489156723, -0.04698587954044342, -0.17458827793598175, -0.032901518046855927, 0.17468143999576569, -0.17236655950546265, 0.053593218326568604, 0.27681764960289, 0.15417739748954773, 0.09363565593957901, -0.019537292420864105, 0.002244350966066122, 0.01013851072639227, 0.04230848327279091, 0.06447973847389221, 0.15600714087486267, -0.05945150926709175, -0.05884997546672821, -0.13536778092384338, -0.12568584084510803, -0.06621173024177551], [0.04922372102737427, 0.015932755544781685, -0.019425660371780396, -0.10197583585977554, 0.042421065270900726, -0.06872299313545227, -0.10594214498996735, -0.14332176744937897, 0.0181483943015337, -0.1246476024389267, -0.025800257921218872, -0.0009750276221893728, -0.16866230964660645, -0.08730853348970413, -0.10639951378107071, -0.14447224140167236, 0.14620479941368103, -0.1570083200931549, 0.045790895819664, -0.06011366844177246, 0.03561456501483917, -0.08201561123132706, 0.09076863527297974, 0.157957062125206, -0.10799511522054672, -0.06905589252710342, 0.06670697033405304, 0.10484926402568817], [-0.09961660951375961, 0.24506381154060364, -0.04553798958659172, 0.24026936292648315, 0.11472097039222717, -0.05394183471798897, 0.08444744348526001, -0.18369290232658386, -0.22922177612781525, 0.23087413609027863, -0.1410624235868454, -0.009859170764684677, 0.06475043296813965, -0.04349447786808014, -0.2371460199356079, -0.038050487637519836, -0.05855151638388634, -0.1291802078485489, 0.03555518016219139, 0.11071594059467316, 0.008019366301596165, -0.019154442474246025, 0.23800787329673767, 0.08890688419342041, 0.15323875844478607, -0.05238580331206322, 0.1942395567893982, 0.24486945569515228], [0.1387929916381836, 0.1072743833065033, 0.1729540377855301, 0.1297595351934433, 0.018513068556785583, -0.19701628386974335, -0.004196398891508579, 0.010796851478517056, 0.19995489716529846, -0.05753112956881523, -0.029500912874937057, 0.15018141269683838, 0.23168811202049255, -0.18531659245491028, -0.17114019393920898, -0.18550097942352295, 0.04007735475897789, -0.012510046362876892, -0.06753171235322952, -0.019345952197909355, -0.14877921342849731, -0.1778334230184555, -0.1441619098186493, 0.013534602709114552, 0.06225089356303215, -0.022643111646175385, -0.13984616100788116, -0.19122742116451263], [-0.22014430165290833, 0.10125956684350967, 0.05519399419426918, -0.0838383361697197, 0.17467480897903442, -0.026743844151496887, 0.05568315088748932, 0.0088236965239048, -0.10498046875, -0.13571012020111084, 0.10495547950267792, -0.07814691960811615, -0.1901482492685318, -0.1695915162563324, -0.006929296068847179, -0.05098621919751167, 0.00655007129535079, 0.026538563892245293, 0.033042117953300476, 0.2414403259754181, 0.2071094661951065, -0.05498369038105011, 0.15437355637550354, 0.242691770195961, -0.010347198694944382, 0.06853900104761124, 0.24426113069057465, 0.21599870920181274], [-0.05010209232568741, -0.13273271918296814, 0.15713278949260712, -0.06462551653385162, -0.0715937539935112, 0.09933607280254364, -0.10172313451766968, 0.18083305656909943, 0.12945005297660828, 0.15089577436447144, -0.15752311050891876, 0.051826104521751404, 0.04851885885000229, -0.008093535900115967, 0.01652223989367485, -0.033155374228954315, -0.2029053419828415, -0.022570466622710228, -0.005921633448451757, -0.2186792939901352, 0.01390940323472023, 0.047892648726701736, -0.05081221088767052, -0.10842116922140121, 0.12095774710178375, 0.0836392194032669, -0.1273583024740219, -0.188389390707016], [-0.016163237392902374, 0.1937728375196457, -0.1514398157596588, 0.026503248140215874, 0.20388014614582062, 0.10780586302280426, 0.15292909741401672, -0.16786408424377441, -0.11613179743289948, 0.025680983439087868, -0.03929919749498367, 0.1917475461959839, -0.0445636548101902, -0.05946173891425133, -0.018254943192005157, 0.24036285281181335, 0.03102034702897072, 0.14236880838871002, -0.2336156666278839, 0.17676839232444763, 0.2665507197380066, 0.024904141202569008, 0.06999921053647995, 0.004690646193921566, 0.2111164778470993, -0.004186652135103941, -0.11661162972450256, -0.03307562693953514], [-0.1476418823003769, 0.022914813831448555, 0.027572451159358025, 0.10611025243997574, 0.24420122802257538, 0.07448332756757736, -0.17193284630775452, -0.1597447544336319, -0.06764689087867737, 0.023442097008228302, -0.1778869777917862, -0.07672926038503647, 0.009518801234662533, 0.026684386655688286, -0.07341521233320236, 0.2762834429740906, 0.20180228352546692, -0.09116598963737488, -0.17198827862739563, -0.056771162897348404, 0.08155102282762527, 0.010481256991624832, 0.13597673177719116, 0.07510915398597717, 0.03505823761224747, -0.2107306271791458, 0.08285513520240784, 0.1433458775281906], [-0.1663188934326172, 0.15662895143032074, 0.0025721911806613207, 0.23361556231975555, 0.2148047387599945, -0.11987145245075226, 0.13886815309524536, -0.021192658692598343, -0.11208894103765488, 0.154419407248497, 0.06245626509189606, -0.1345706433057785, 0.048963431268930435, -0.14136917889118195, -0.20570313930511475, -0.06709412485361099, 0.18815858662128448, 0.032612450420856476, -0.24508222937583923, -0.07603026926517487, 0.13341237604618073, -0.13824677467346191, 0.10191681981086731, -0.09757275134325027, 0.1870339810848236, -0.1835896521806717, -0.09834130108356476, -0.10139612853527069], [-0.1353546679019928, 0.16737140715122223, -0.15824434161186218, 0.0562220998108387, 0.11803381890058517, 0.05852648615837097, 0.10662248730659485, -0.28284141421318054, -0.04575374722480774, -0.1212962418794632, -0.11367474496364594, 0.16967277228832245, -0.23403716087341309, 0.0003564539074432105, -0.09405326843261719, 0.012416736222803593, 0.0557735338807106, 0.0843261256814003, -0.14650745689868927, 0.10330560803413391, -0.12539713084697723, 0.11084038019180298, 0.002117220778018236, 0.15148183703422546, -0.03895938768982887, -0.11033406853675842, 0.2060367614030838, 0.16721147298812866], [-0.1858392208814621, 0.2518179416656494, -0.07204354554414749, 0.07890722900629044, 0.18290789425373077, 0.24027866125106812, 0.10867790877819061, -0.018247993662953377, -0.22984573245048523, 0.17873473465442657, -0.21515920758247375, 0.07472508400678635, -0.3081028461456299, 0.16255591809749603, -0.15219776332378387, 0.21040983498096466, 0.221671923995018, 0.11831605434417725, -0.2699486017227173, 0.16250261664390564, 0.1249249130487442, -0.023728448897600174, -0.016828425228595734, 0.20799443125724792, -0.060330938547849655, -0.20172393321990967, -0.015183175913989544, 0.015535387210547924], [-0.3377438187599182, 0.17192059755325317, -0.08390367776155472, -0.009493907913565636, -0.053090084344148636, 0.21304835379123688, -0.20624950528144836, -0.2861630916595459, -0.18045619130134583, 0.12401027977466583, -0.04056060314178467, 0.0883035957813263, -0.19873535633087158, 0.0866331085562706, -0.2784726917743683, -0.0007182853296399117, 0.03371740132570267, 0.11420344561338425, -0.19120308756828308, -0.095940962433815, 0.25306159257888794, 0.12199068814516068, 0.23827198147773743, 0.009325366467237473, -0.062041204422712326, -0.24479356408119202, -0.052177246659994125, 0.07103309035301208]], "critic.network.4.bias": [0.3161883056163788, -0.03061397559940815, 0.14310778677463531, -0.12780830264091492, 0.18665754795074463, -0.18677493929862976, 0.32253706455230713, 0.06304831057786942, 0.0004616975784301758, -0.0509503073990345, -0.03319866955280304, 0.27187007665634155, 0.10975968092679977, 0.042505573481321335, 0.20499880611896515, -0.10019703209400177, -0.20729121565818787, -0.05254332721233368, 0.3029964864253998, 0.02756546065211296, 0.10950789600610733, 0.06235422194004059, 0.18257920444011688, 0.03368840366601944, 0.01646331697702408, 0.11512802541255951, 0.2209419161081314, 0.19270458817481995], "critic.network.6.weight": [[0.15430736541748047, 0.16100722551345825, 0.2188420444726944, -0.06360121071338654, 0.10488870739936829, 0.12135204672813416, 0.16473771631717682, -0.12972697615623474, -0.0054806917905807495, -0.08417309820652008, -0.11539413034915924, 0.22105541825294495, 0.14217613637447357, -0.12035363912582397, 0.2318519800901413, -0.19364719092845917, -0.12421724200248718, -0.037856921553611755, 0.16228605806827545, -0.13922631740570068, 0.18169644474983215, 0.0002242523623863235, 0.23595097661018372, 0.18636992573738098, 0.1724877506494522, 0.11529242247343063, 0.1469895839691162, 0.2850884795188904]], "critic.network.6.bias": [-0.045931652188301086]}