{"actor.network.0.weight": [[-0.16933086514472961, 0.34449097514152527, -0.05691858008503914, 0.5511577129364014], [-0.3000572621822357, -0.41052600741386414, -0.3894225060939789, -0.09849181771278381], [0.2983884811401367, 0.3473716080188751, 0.3080821633338928, -0.05689123272895813], [0.4873535633087158, 0.4560178220272064, -0.2352190911769867, 0.16390711069107056], [-0.11004213243722916, 0.22539356350898743, 0.37932759523391724, 0.6764400005340576], [-0.3082302510738373, -0.07874748110771179, -0.2811543345451355, -0.4112023115158081], [0.37098050117492676, -0.20833997428417206, 0.10350315272808075, 0.4227195382118225], [-0.33455222845077515, 0.30164021253585815, -0.5527796149253845, -0.3931390345096588], [-0.033453453332185745, 0.24946525692939758, -0.5845848321914673, -0.22831177711486816], [-0.15192611515522003, -0.07930000871419907, 0.37339282035827637, 0.07427924871444702], [-0.11898493021726608, -0.15558220446109772, -0.029146630316972733, -0.30348581075668335], [-0.3724539279937744, 0.3523593842983246, 0.24662378430366516, 0.28695735335350037], [0.0042336974292993546, -0.18580815196037292, -4.690466448664665e-05, 0.37491917610168457], [0.11419273912906647, 0.1633254438638687, -0.3534962236881256, -0.7114436626434326], [-0.05808670073747635, -0.4460809528827667, -0.4393905997276306, -0.2390020787715912], [0.1414022147655487, 0.4172603487968445, 0.2951957583427429, 0.3795429766178131], [-0.19545461237430573, -0.18307840824127197, 0.5805692672729492, 0.5576273798942566], [0.4261341989040375, 0.48238304257392883, -0.28316229581832886, 0.4334293007850647], [0.11323326081037521, 0.49288618564605713, 0.5493277311325073, 0.6958835124969482], [0.08101829886436462, -0.5232758522033691, 0.1297587752342224, 0.20947401225566864], [0.19339191913604736, 0.04052997753024101, -0.0009341452387161553, 0.34163716435432434], [-0.06956431269645691, 0.17413845658302307, 0.4125185012817383, 0.40213826298713684], [-0.19424457848072052, 0.41947418451309204, -0.06428313255310059, -0.06954685598611832], [0.33280953764915466, 0.10455002635717392, -0.3789100646972656, -0.6746482253074646], [0.015113374218344688, -0.3830302655696869, 0.5353740453720093, 0.19032157957553864], [0.4455347955226898, 0.3428195118904114, -0.271708607673645, -0.6108891367912292], [0.5578891634941101, -0.08824719488620758, 0.08846243470907211, -0.44294825196266174], [0.42929282784461975, -0.22537952661514282, -0.4363977313041687, -0.28264859318733215]], "actor.network.0.bias": [0.20408645272254944, -0.47768890857696533, -0.004222629126161337, -0.41021600365638733, 0.3568387031555176, 0.04288328066468239, 0.10803408920764923, 0.14346186816692352, 0.4843377470970154, -0.3109782338142395, 0.4670901298522949, -0.08657629787921906, 0.5055946707725525, 0.364761084318161, 0.12513044476509094, -0.4617024064064026, 0.20123369991779327, 0.282818466424942, 0.3300166428089142, 0.414283812046051, 0.2644340693950653, -0.48268240690231323, -0.45007985830307007, 0.4409036636352539, 0.16889367997646332, 0.1313457190990448, -0.16978740692138672, -0.006011474411934614], "actor.network.2.weight": [[-0.2122744768857956, 0.1915300041437149, -0.01986987702548504, -0.0037320153787732124, -0.24634261429309845, 0.16810984909534454, -0.0022493938449770212, 0.20585867762565613, 0.2581784725189209, -0.005681191571056843, 0.0827384740114212, -0.07878583669662476, 0.0636664479970932, 0.22669430077075958, 0.056052301079034805, -0.05269758403301239, -0.08157342672348022, -0.047220803797245026, -0.2063593566417694, 0.05026186630129814, -0.11142472177743912, 0.07118639349937439, -0.17108005285263062, 0.15537244081497192, 0.2341202348470688, 0.08794594556093216, -0.006658212281763554, 0.255742609500885], [-0.07852861285209656, 0.09153132140636444, 0.0205598846077919, -0.07457733154296875, 0.013863697648048401, -0.1566130816936493, 0.03237883746623993, 0.006291690282523632, 0.07121597230434418, -0.10437177121639252, 0.08867745101451874, -0.12747541069984436, -0.13479766249656677, 0.10056500136852264, -0.1835080087184906, -0.12169235944747925, -0.055205490440130234, 0.1694856882095337, -0.09968878328800201, 0.17982962727546692, -0.18720005452632904, 0.18564100563526154, 0.08641000092029572, -0.06999460607767105, 0.013911381363868713, -0.08373908698558807, 0.03903048858046532, -0.07989305257797241], [0.23301322758197784, -0.2234865427017212, 0.17037846148014069, 0.06077643483877182, 0.336230993270874, -0.19161726534366608, 0.11999989300966263, -0.07868586480617523, 0.16160441935062408, 0.09876839816570282, -0.04383135586977005, 0.16137506067752838, 0.11731268465518951, -0.12710367143154144, 0.04417647048830986, 0.02762370929121971, 0.20377860963344574, 0.13931477069854736, 0.1656433343887329, 0.13317537307739258, 0.009888868778944016, -0.16083034873008728, 0.19927260279655457, -0.08361771702766418, -0.012685965746641159, -0.14438539743423462, -0.07422946393489838, -0.2960227131843567], [-0.2346617877483368, 0.09161464124917984, 0.09699562937021255, 0.10350733250379562, -0.07772795855998993, 0.244384765625, -0.08238214254379272, 0.23148880898952484, 0.09996618330478668, 0.10973133146762848, 0.19151471555233002, -0.04131961241364479, 0.06470204144716263, 0.21739447116851807, 0.31843459606170654, -0.17240487039089203, -0.10748793929815292, -0.012163338251411915, -0.16077899932861328, 0.023787083104252815, -0.13539305329322815, 0.08891783654689789, -0.17421957850456238, 0.3024028241634369, 0.1323242485523224, 0.15170200169086456, -0.08614244312047958, 0.26605695486068726], [0.32996195554733276, 0.03404327109456062, -0.003758426755666733, 0.14173832535743713, 0.3165659010410309, 0.06490202993154526, 0.2894953787326813, 0.04808172211050987, -0.09509707242250443, -0.0364563874900341, 0.059459585696458817, 0.10389113426208496, 0.045795030891895294, -0.19261491298675537, -0.1096542552113533, -0.1622941642999649, -0.04414301738142967, -0.03755592927336693, 0.17551235854625702, 0.22263041138648987, 0.10601787269115448, 0.1285090148448944, -0.12277743220329285, -0.1989433467388153, 0.2556559145450592, -0.017591770738363266, -0.11185359954833984, -0.24948222935199738], [-0.08114193379878998, 0.027458295226097107, 0.061269551515579224, 0.05612849444150925, -0.14388632774353027, 0.07002753764390945, -0.07602022588253021, 0.011121081188321114, -0.17775268852710724, -0.14086000621318817, -0.07955388724803925, 0.04476769268512726, -0.17182748019695282, 0.15539243817329407, 0.12220291793346405, 0.07828576862812042, -0.022493109107017517, 0.10728916525840759, -0.142061248421669, -0.13488328456878662, 0.10393361747264862, -0.014643773436546326, -0.023305991664528847, 0.08892189711332321, 0.02511170506477356, -0.06565164029598236, -0.11854194104671478, 0.10684699565172195], [-0.10952410101890564, 0.023299112915992737, 0.12856724858283997, -0.0026349166873842478, -0.16237035393714905, -0.03578178584575653, -0.07234290987253189, -0.14563758671283722, -0.11348844319581985, -0.12403734028339386, -0.07239764928817749, -0.016281984746456146, 0.0006465563783422112, -0.0341675728559494, 0.06839434802532196, 0.12847593426704407, -0.07602576911449432, -0.08638640493154526, -0.08350899815559387, 0.1475115567445755, 0.048850417137145996, -0.1867726445198059, -0.019409624859690666, 0.13707855343818665, -0.1751103401184082, 0.14514750242233276, -0.19194567203521729, -0.05238772928714752], [0.22006212174892426, 0.1188286542892456, 0.026697775349020958, -0.06806875765323639, 0.2665832042694092, -0.021211110055446625, 0.004940951708704233, -0.15984438359737396, 0.1624803990125656, 0.09888327866792679, -0.00837481115013361, -0.05210823938250542, 0.17763467133045197, -0.21987122297286987, -0.04760317504405975, -0.014773131348192692, 0.11674558371305466, 0.10737726837396622, 0.23144130408763885, 0.11346496641635895, -0.02975662238895893, -0.11907033622264862, -0.052370648831129074, 0.03051883541047573, 0.23017258942127228, -0.11167307943105698, -0.08505798131227493, -0.28835567831993103], [-0.1198442131280899, -0.08748670667409897, 0.08952556550502777, 0.15954621136188507, 0.11075152456760406, -0.017742648720741272, -0.15827135741710663, -0.13441096246242523, -0.12374379485845566, -0.12460426986217499, 0.04405190050601959, 0.17523424327373505, -0.0885336771607399, 0.046778470277786255, 0.10590626299381256, 0.18576066195964813, -0.08026627451181412, -0.06652393192052841, -0.04842190444469452, -0.18712913990020752, -0.10015782713890076, 0.06821723282337189, 0.14667479693889618, -0.10782597213983536, -0.03939297795295715, -0.04877190291881561, -0.17023181915283203, -0.18020352721214294], [-0.07274322211742401, 0.22692064940929413, -0.10179971158504486, -0.1467088907957077, -0.09484552592039108, -0.19484630227088928, 0.11424558609724045, -0.2593211829662323, 0.07141976803541183, 0.18412064015865326, -0.07534795999526978, -0.13615885376930237, 0.18552148342132568, 0.006245857570320368, -0.01888277754187584, 0.11739478260278702, -0.049025632441043854, 0.2183198779821396, -0.05540856346487999, 0.15039512515068054, 0.02173287235200405, -0.1243918389081955, -0.18059800565242767, -0.1991918832063675, -0.03128039836883545, -0.14341892302036285, -0.12541192770004272, -0.0986487939953804], [-0.3389098048210144, -0.0974048525094986, -0.003170719835907221, 0.028021812438964844, -0.28145095705986023, 0.18784649670124054, -0.05067843571305275, 0.13504882156848907, 0.1910327523946762, -0.101603664457798, 0.20510342717170715, 0.05178414285182953, 0.07343045622110367, 0.25552529096603394, 0.22070172429084778, -0.09746349602937698, 0.042511362582445145, -0.01716209575533867, -0.28742220997810364, 0.18442922830581665, 0.021238600835204124, -0.01804107427597046, -0.13013280928134918, 0.29033711552619934, 0.12365636974573135, 0.12335763871669769, -0.004527660086750984, 0.06210898235440254], [0.22813519835472107, 0.047297120094299316, 0.15210938453674316, 0.030338488519191742, 0.0131003987044096, -0.13035525381565094, -0.0290908832103014, -0.16077576577663422, -0.09997055679559708, -0.07188217341899872, 0.15051566064357758, 0.033050019294023514, 0.03980046883225441, -0.08287164568901062, -0.27921122312545776, 0.15264278650283813, 0.1542988121509552, 0.077519491314888, 0.21618276834487915, -0.15028683841228485, 0.1434442102909088, -0.005531337112188339, 0.1984509974718094, -0.22878392040729523, 0.06423422694206238, -0.15883642435073853, -0.1925334930419922, -0.1396663635969162], [0.14152313768863678, -0.013820476830005646, -0.07565376162528992, -0.165792316198349, 0.07329397648572922, -0.09814873337745667, -0.09837621450424194, -0.16520024836063385, 0.032850537449121475, -0.18602296710014343, 0.03349477797746658, -0.131337508559227, 0.05599365010857582, -0.10690207034349442, 0.17141708731651306, -0.1847471296787262, -0.1364133507013321, -0.11309392750263214, 0.011136665940284729, -0.06832167506217957, -0.06868015229701996, -0.030432268977165222, 0.024014070630073547, 0.17642977833747864, 0.14810296893119812, -0.038103364408016205, -0.16905130445957184, 0.11281569302082062], [-0.33247384428977966, -0.023329276591539383, 0.003655849490314722, -0.10778159648180008, -0.21560534834861755, -0.010801956057548523, -0.22061985731124878, 0.3307799696922302, 0.1891195923089981, 0.11302829533815384, 0.23924952745437622, 0.057148952037096024, 0.0055249580182135105, 0.4038856029510498, 0.3384176194667816, 0.07158565521240234, -0.019615866243839264, 0.07098011672496796, -0.03298474848270416, 0.005568352062255144, -0.11207562685012817, 0.12491405010223389, 0.10445617884397507, 0.256344199180603, -0.08529582619667053, 0.17465712130069733, 0.21174748241901398, 0.09807869791984558], [-0.24959610402584076, -0.13360415399074554, 0.03366388753056526, 0.2028922438621521, -0.14016886055469513, 0.27447590231895447, -0.24789586663246155, 0.13760250806808472, 0.22911551594734192, 0.14649342000484467, 0.2532288432121277, -0.17554426193237305, 0.1307915300130844, 0.14733856916427612, 0.20470383763313293, 0.13169236481189728, -0.22567710280418396, 0.007733440026640892, -0.01102440431714058, -0.01571636274456978, 0.17994727194309235, 0.08936357498168945, 0.13067464530467987, 0.3657667338848114, 0.012104625813663006, 0.07516054809093475, 0.09419473260641098, 0.13889561593532562], [-0.05040470138192177, 0.029409371316432953, 0.10786882042884827, 0.0004950800794176757, -0.055194463580846786, -0.1986648142337799, 0.1567862629890442, -0.17896391451358795, 0.03789979964494705, 0.05105585604906082, 0.16217821836471558, 0.147857204079628, 0.16156378388404846, -0.05076666548848152, 0.14068681001663208, 0.02741345949470997, 0.1097569391131401, -0.03993745520710945, -0.06614081561565399, 0.16782832145690918, -0.11569515615701675, 0.06058157980442047, 0.041142538189888, -0.07227269560098648, 0.19277790188789368, -0.06994394212961197, -0.08541850745677948, 0.14342261850833893], [0.11609716713428497, 0.017314523458480835, -0.1366802155971527, 0.05583168566226959, -0.17470936477184296, 0.12630246579647064, 0.1342020183801651, 0.07565946877002716, -0.1367032378911972, -0.14475120604038239, -0.08963517844676971, -0.06418076902627945, -0.16572117805480957, -0.09409484267234802, -0.1148567795753479, -0.059630751609802246, 0.0356534868478775, 0.09959067404270172, 0.11513547599315643, -0.16652438044548035, -0.02037021517753601, -0.1803382784128189, -0.05876101553440094, 0.10369648039340973, -0.013044804334640503, -0.14786580204963684, 0.13067780435085297, -0.05694001913070679], [-0.16342318058013916, 0.1303187608718872, -0.14651669561862946, -0.07296422868967056, 0.050816964358091354, 0.12305313348770142, -0.06124972179532051, 0.15757279098033905, -0.12201297283172607, -0.13426293432712555, 0.04110020026564598, -0.07755985110998154, 0.16382476687431335, -0.07270827144384384, -0.050567612051963806, -0.17187875509262085, 0.13728734850883484, -0.19449454545974731, 0.05856442451477051, -0.19108489155769348, -0.09021374583244324, -0.06452992558479309, 0.10881125181913376, 0.05138478800654411, -0.0047682845033705235, 0.06406478583812714, -0.1652180254459381, -0.04290094971656799], [0.18634113669395447, 0.076678067445755, 0.1356726586818695, 0.203464075922966, 0.2674647271633148, -0.01096494123339653, 0.26935604214668274, 0.17631185054779053, 0.25475603342056274, 0.04910767078399658, -0.0574110746383667, 0.018965251743793488, 0.12385807931423187, 0.0009669992723502219, -0.07728630304336548, -0.0728752613067627, -0.00977750401943922, 0.07893755286931992, 0.3386208415031433, 0.1527177393436432, 0.05088762566447258, 0.16940101981163025, -0.11920750886201859, 0.18305064737796783, 0.253550261259079, -0.12243107706308365, 0.060534942895174026, 0.024722274392843246], [0.11211935430765152, -0.1011822447180748, -0.006843042094260454, 0.1019304096698761, 0.056297704577445984, -0.08961325138807297, -0.04149418696761131, 0.13108792901039124, -0.11146289110183716, 0.0045010242611169815, -0.15889513492584229, 0.06582240760326385, 0.15680453181266785, -0.08203502744436264, -0.09692484140396118, -0.08589876443147659, -0.0904894545674324, -0.1449190378189087, 0.17462220788002014, -0.1494143307209015, -0.16327883303165436, 0.14564794301986694, 0.030271638184785843, -0.17517441511154175, -0.11145346611738205, 0.07068394124507904, -0.04800642654299736, -0.15638673305511475], [0.29875296354293823, 0.07485735416412354, -0.11037386953830719, -0.002589513547718525, 0.3209007680416107, -0.164789617061615, 0.014787988737225533, 0.08089400082826614, -0.012689812108874321, -0.18482042849063873, 0.08204914629459381, -0.07531055808067322, -0.01556435041129589, 0.07283298671245575, -0.3380255103111267, -0.154579758644104, 0.08976529538631439, 0.16699180006980896, 0.38435208797454834, 0.12527021765708923, 0.16657038033008575, -0.04189667850732803, -0.13652727007865906, -0.1672639548778534, -0.031062304973602295, 0.1019018366932869, 0.03007957898080349, -0.00024433963699266315], [0.25562915205955505, 0.11700175702571869, 0.09013372659683228, -0.13835501670837402, 0.2501666843891144, -0.015201474539935589, 0.07057347893714905, -0.12135759741067886, -0.009169480763375759, -0.09054218232631683, 0.1434621512889862, -0.02454613894224167, 0.16599313914775848, -0.01521262526512146, -0.19065605103969574, 0.08098854869604111, 0.07958006113767624, 0.17555604875087738, 0.14524519443511963, 0.11531082540750504, -0.08838213980197906, 0.08238735795021057, -0.06449228525161743, -0.1817980706691742, -0.17080751061439514, 0.01010365504771471, 0.04405035823583603, -0.08768463879823685], [0.18091519176959991, -0.07728205621242523, 0.1309967041015625, -0.0533682256937027, -0.07354693114757538, 0.06955116987228394, -0.07138903439044952, -0.032124683260917664, 0.1186203807592392, 0.047354165464639664, -0.14339827001094818, 0.01685003936290741, 0.08894123136997223, 0.0028089075349271297, 0.02915016934275627, 0.10599693655967712, 0.11297128349542618, -0.04913290590047836, -0.14592137932777405, -0.1257151961326599, -0.03609892353415489, 0.05261528491973877, 0.13367170095443726, -0.0847541019320488, -0.1416872888803482, -0.21069784462451935, 0.09615182876586914, 0.01379972230643034], [0.016578031703829765, -0.16150881350040436, -0.11583548039197922, 0.16388146579265594, -0.18925048410892487, 0.08850733190774918, 0.042488858103752136, 0.038042206317186356, 0.07952675968408585, 0.182346373796463, -0.0233443733304739, 0.05631959065794945, -0.045743100345134735, 0.132552370429039, -0.06117203086614609, -0.018056660890579224, -0.00840169470757246, -0.037028804421424866, -0.04946503788232803, 0.12346404045820236, 0.17568616569042206, -0.10697635263204575, -0.08027835190296173, -0.168046236038208, 0.018052004277706146, 0.07289297878742218, -0.1868394911289215, -0.18628525733947754], [0.13840506970882416, 0.09214679896831512, -0.15917448699474335, 0.07841341197490692, -0.13888658583164215, 0.1666082739830017, 0.14170502126216888, -0.12880337238311768, -0.06228804215788841, 0.18242505192756653, 0.04905964806675911, -0.15014493465423584, -0.1833699643611908, 0.09494996070861816, 0.149128258228302, -0.02506619691848755, -0.01455878559499979, -0.04998055845499039, -0.1114950031042099, -0.04800974950194359, -0.17698357999324799, 0.10921360552310944, 0.07144707441329956, -0.1716834455728531, -0.1361110806465149, -0.12806493043899536, 0.02962651476264, 0.1445242464542389], [-0.12013424932956696, -0.0738256648182869, 0.16997234523296356, -0.011168569326400757, -0.0463908314704895, -0.18089082837104797, -0.14478057622909546, 0.06210087239742279, 0.09685198962688446, 0.008557289838790894, -0.16420556604862213, 0.08927838504314423, -0.05804550647735596, -0.11629544198513031, -0.07484893500804901, -0.1498536467552185, 0.14758868515491486, 0.16559423506259918, -0.12752535939216614, -0.12699638307094574, 0.05590003728866577, -0.13636347651481628, 0.16344307363033295, -0.18743108212947845, -0.1795910894870758, -0.10772628337144852, -0.08130846917629242, 0.09837619960308075], [-0.185510516166687, -0.06752563267946243, -0.1302046775817871, 0.07048855721950531, 0.0226668119430542, -0.07158539444208145, 0.03865739703178406, 0.10720978677272797, -0.04831543564796448, 0.00910252332687378, 0.020099669694900513, 0.039168938994407654, -0.0167790949344635, -0.07992569357156754, 0.01799963414669037, -0.07477299124002457, -0.0501406192779541, -0.03980085253715515, 0.1877077966928482, 0.04354240000247955, -0.160930335521698, -0.026448547840118408, -0.1133895218372345, 0.09207217395305634, -0.07755766063928604, 0.07382704317569733, -0.11189775913953781, 0.1031508594751358], [0.28620263934135437, 0.06979690492153168, -0.1805594116449356, -0.1310928463935852, 0.2879284918308258, -0.04803736135363579, 0.08531144261360168, 0.03304705768823624, 0.06670714169740677, -0.12186573445796967, 0.08088245242834091, 0.22021272778511047, 0.1250419318675995, -0.3035793900489807, -0.2818322479724884, -0.030371462926268578, 0.033352337777614594, 0.11989022046327591, 0.33808213472366333, -0.05805573984980583, -0.0977303758263588, -0.15883100032806396, 0.06932830810546875, -0.0635639950633049, 0.07251802831888199, 0.03482004255056381, 0.06509391218423843, -0.04825524613261223]], "actor.network.2.bias": [0.22325485944747925, -0.12418492883443832, -0.07592540979385376, 0.08647727221250534, 0.14889630675315857, -0.16262692213058472, -0.17430061101913452, 0.024693001061677933, -0.08892422914505005, 0.08374340832233429, 0.03702615201473236, 0.2550901174545288, -0.1808161437511444, 0.18470892310142517, 0.01653187721967697, 0.06399665772914886, -0.12599223852157593, -0.1458846926689148, 0.16695725917816162, 0.07504601031541824, 0.02352110669016838, -0.0429835319519043, 0.07081600278615952, -0.13312554359436035, 0.08547107875347137, -0.10543732345104218, -0.14724579453468323, 0.1380312591791153], "actor.network.4.weight": [[0.3116145133972168, -0.1340835839509964, -0.21001477539539337, 0.2308007925748825, -0.003598438110202551, 0.10649137943983078, 0.04421297833323479, 0.10021430253982544, -0.1771596223115921, 0.07096962630748749, 0.1568451225757599, -0.31039294600486755, 0.12770916521549225, 0.344812273979187, 0.3895798325538635, 0.012470602057874203, -0.05460503697395325, -0.08857496082782745, 0.16335269808769226, 0.11609462648630142, -0.28381267189979553, -0.052232638001441956, 0.03187975287437439, -0.10448318719863892, -0.14901557564735413, -0.026890039443969727, 0.07858149707317352, -0.15033482015132904], [-0.12407393008470535, -0.1826886534690857, 0.1287928819656372, 0.041081495583057404, -0.1562739610671997, 0.0660734474658966, 0.14201267063617706, -0.12130630761384964, 0.124447301030159, -0.15437334775924683, 0.1716500222682953, -0.12054706364870071, -0.1612032949924469, 0.1288682520389557, -0.1252654790878296, -0.06834981590509415, 0.04360713064670563, -0.017807045951485634, 0.07995101809501648, -0.01257700938731432, 0.15173298120498657, -0.12441515922546387, -0.08696720749139786, 0.13635042309761047, 0.00892559066414833, -0.11158713698387146, -0.010752484202384949, -0.054211799055337906], [-0.03800422325730324, 0.11897297948598862, 0.002771902596578002, -0.09574653208255768, -0.0701664537191391, 0.11323796212673187, 0.18351614475250244, -0.06377043575048447, 0.1546436995267868, 0.14645607769489288, -0.0005368329002521932, 0.15872184932231903, -0.004852622747421265, -0.19337478280067444, -0.12808384001255035, -0.10356571525335312, -0.0311288982629776, 0.17880487442016602, -0.08347520232200623, 0.07009481638669968, -0.09920063614845276, -0.1491987705230713, 0.07517736405134201, 0.03397931158542633, -0.10011308640241623, 0.1330934315919876, -0.011276930570602417, 0.0948704183101654], [-0.018690215423703194, -0.08913349360227585, 0.02442585490643978, -0.08663088083267212, -0.018251677975058556, -0.04728919267654419, -0.0440991073846817, -0.11332967877388, -0.0014637857675552368, -0.10468924790620804, -0.020884059369564056, 0.05847461521625519, 0.11599786579608917, 0.0373455286026001, 0.1780211180448532, 0.04310180991888046, 0.062152519822120667, 0.13924016058444977, -0.17627502977848053, 0.17755569517612457, 0.02012292668223381, 0.054033033549785614, -0.018102269619703293, 0.10964156687259674, 0.18773742020130157, -0.17326204478740692, -0.07121099531650543, 0.07691815495491028], [0.09204486757516861, 0.06688562035560608, 0.24010251462459564, 0.04581810161471367, 0.2878156006336212, 0.18257904052734375, 0.06589233875274658, 0.16710041463375092, -0.09910527616739273, -0.08621161431074142, -0.2311640977859497, 0.1196766048669815, 0.04151912033557892, 0.022901177406311035, -0.1836235076189041, 0.12790970504283905, 0.1364053338766098, 0.07869121432304382, 0.07163456827402115, -0.15637809038162231, 0.2814851403236389, 0.1005256175994873, 0.06579941511154175, -0.002327375113964081, 0.02874631993472576, 0.04764828085899353, 0.06608019769191742, -0.010053099133074284], [-0.05240505188703537, 0.13340230286121368, -0.09936822205781937, -0.21141822636127472, 0.009384900331497192, 0.0009024739265441895, -0.05191812664270401, 0.012367955408990383, 0.0013461858034133911, 0.028279852122068405, 0.09983359277248383, 0.002401060191914439, -0.1408262848854065, 0.06888067722320557, 0.07046344876289368, 0.02970285341143608, 0.12743507325649261, 0.16792625188827515, -0.06731020659208298, 0.04503075033426285, 0.10851297527551651, -0.010165711864829063, -0.13648569583892822, 0.038371577858924866, 0.17040109634399414, 0.06705157458782196, 0.035071954131126404, 0.11930611729621887], [-0.03206765279173851, -0.05434785038232803, 0.08172483742237091, -0.028479676693677902, 0.10941696166992188, 0.12418274581432343, 0.05602791905403137, 0.08283945918083191, 0.025326058268547058, -0.043682586401700974, -0.255138635635376, 0.18147717416286469, -0.005035044625401497, -0.1878867894411087, -0.12734685838222504, -0.034274812787771225, -0.062424346804618835, -0.03904318809509277, 0.19259078800678253, 0.12931151688098907, 0.08791931718587875, 0.1554373800754547, 0.1942710280418396, -0.18875375390052795, -0.004534097854048014, -0.11775997281074524, -0.040068626403808594, 0.16973333060741425], [0.08888835459947586, 0.12614884972572327, 0.052385151386260986, -0.21742379665374756, 0.14576680958271027, 0.10977421700954437, 0.041185587644577026, -0.0469774529337883, -0.08473848551511765, 0.0819782018661499, -0.08845250308513641, 0.12333075702190399, 0.06155650317668915, 0.04880773648619652, -0.057004839181900024, -0.03465338051319122, -0.042186275124549866, 0.061785776168107986, -0.2139771580696106, 0.014923198148608208, -0.05067569017410278, -0.040234193205833435, 0.06551320105791092, -0.06460412591695786, -0.024070467799901962, 0.06878606975078583, 0.05888926982879639, 0.03349551931023598], [-0.0105248112231493, -0.06899936497211456, -0.1934577077627182, 0.2675536274909973, -0.14555925130844116, -0.07529566437005997, 0.11917877197265625, -0.15262004733085632, 0.0519770085811615, -0.03396110236644745, 0.39891713857650757, -0.0639372244477272, 0.058107730001211166, 0.30491581559181213, 0.3351899981498718, -0.07949528098106384, -0.17818818986415863, 0.048205502331256866, -0.008080405183136463, -0.1927541345357895, 0.0030606479849666357, 0.040870316326618195, -0.17055213451385498, 0.013018623925745487, -0.021255575120449066, 0.07864908874034882, -0.09005112200975418, 0.008938327431678772], [-0.0068288203328847885, 0.13204286992549896, 0.16746219992637634, -0.17001557350158691, 0.19181129336357117, 0.13229699432849884, 0.00020151544595137239, 0.22202546894550323, -0.025551870465278625, -0.0486210472881794, -0.14105002582073212, 0.26739364862442017, 0.13878609240055084, -0.16574861109256744, 0.0583687461912632, -0.04490669071674347, -0.10551977902650833, -0.02115781418979168, 0.01108676940202713, 0.19087500870227814, 0.259506493806839, 0.3410879075527191, -0.16244417428970337, 0.026360221207141876, -0.1398584246635437, -0.15297852456569672, -0.06529786437749863, 0.22438527643680573], [0.07136565446853638, 0.08550375699996948, 0.1996174454689026, -0.27758878469467163, 0.1609060913324356, 0.10756728798151016, -0.02524937130510807, 0.32228538393974304, 0.16691924631595612, -0.021056467667222023, -0.11618395149707794, 0.39799943566322327, 0.00012312590843066573, -0.22378374636173248, -0.038358937948942184, 0.021426428109407425, -0.010154783725738525, -0.15100671350955963, 0.03422905132174492, 0.10536369681358337, 0.3172282576560974, 0.3164667785167694, -0.10217832773923874, -0.006155500654131174, 0.04671735689043999, 0.026911675930023193, -0.026763111352920532, 0.3491400480270386], [0.05948323756456375, -0.015542307868599892, 0.05068989843130112, -0.2714103162288666, -0.06356285512447357, 0.13242626190185547, -0.15978609025478363, 0.13486719131469727, 0.08087189495563507, 0.13934704661369324, 0.03658746927976608, 0.25221145153045654, 0.15501832962036133, 0.027968883514404297, -0.2128753811120987, -0.04694400727748871, -0.1292823851108551, 0.03657839819788933, 0.12235169857740402, -0.021092336624860764, 0.2782055735588074, 0.23808890581130981, -0.162130206823349, -0.11175253987312317, -0.1373024582862854, -0.0331224650144577, 0.027361571788787842, 0.112205371260643], [-0.024275682866573334, -0.13197097182273865, 0.17666450142860413, -0.18403656780719757, 0.2410922795534134, -0.17767877876758575, 0.013683876022696495, 0.1292886734008789, 0.09296919405460358, 0.06402628868818283, 0.004191722720861435, 0.1848965883255005, -0.07996422052383423, -0.14489419758319855, -0.1733836680650711, -0.09142874926328659, 0.05221407115459442, -0.06976071745157242, 0.22281721234321594, 0.06434628367424011, 0.33746138215065, 0.20893032848834991, 0.07230658829212189, 0.039108756929636, 0.18522600829601288, -0.07586516439914703, 0.020843371748924255, 0.25456616282463074], [-0.007813109084963799, -0.06494583934545517, 0.1798625886440277, -0.22031164169311523, -0.048374321311712265, -0.027518682181835175, 0.028478719294071198, 0.1765952855348587, -0.16279087960720062, -0.1394323706626892, -0.09555327892303467, 0.25308459997177124, 0.0616796612739563, -0.019304528832435608, 0.05878511071205139, 0.01092872116714716, -0.003824383020401001, -0.09906971454620361, 0.14250145852565765, -0.057982370257377625, -0.0036098393611609936, 0.1284416913986206, 0.09489718824625015, -0.14550809562206268, 0.0490320585668087, 0.030904576182365417, 0.07651613652706146, 0.14556042850017548], [-0.149334117770195, 0.18881165981292725, 0.15617986023426056, 0.029662247747182846, -0.04563140124082565, -0.03704848885536194, -0.02188468910753727, -0.06465938687324524, 0.1103084534406662, 0.19249776005744934, -0.09817571192979813, 0.2160871922969818, 0.01772010512650013, 0.07658976316452026, 0.05640654265880585, 0.09560536593198776, 0.004153028130531311, -0.14837656915187836, -0.1145600751042366, -0.1415202021598816, 0.049862783402204514, 0.21888557076454163, 0.07993455231189728, 0.16685710847377777, 0.1710028350353241, -0.01217643916606903, -0.013954028487205505, -0.015536661259829998], [0.070718914270401, -0.08100241422653198, 0.054029177874326706, -0.0915716141462326, 0.015396159142255783, -0.14858876168727875, -0.07375936955213547, -0.14920245110988617, -0.15517164766788483, -0.03457808867096901, 0.12005110085010529, 0.12088388204574585, 0.031429558992385864, -0.19531570374965668, 0.11770470440387726, 0.09248723834753036, 0.1700924187898636, -0.16459253430366516, -0.1742825210094452, 0.14329805970191956, 0.13746461272239685, 0.17493273317813873, 0.05540375038981438, -0.06850920617580414, 0.0661637932062149, 0.16480861604213715, -0.03426255285739899, -0.003964850213378668], [-0.10246071964502335, -0.1395924687385559, -0.14248736202716827, -0.13253088295459747, 0.09310200810432434, 0.06938940286636353, -0.02863391488790512, -0.18349841237068176, 0.05849117040634155, -0.021670332178473473, 0.15520551800727844, 0.03961142897605896, 0.1344078928232193, 0.04400205612182617, 0.0008005093550309539, 0.017254140228033066, 0.042536839842796326, 0.13946959376335144, 0.07128795236349106, -0.019591649994254112, 0.09102506935596466, -0.049334749579429626, 0.13007047772407532, -0.14448094367980957, -0.050237782299518585, 0.03135961294174194, -0.02821841835975647, 0.004309593699872494], [0.04230169206857681, 0.09378032386302948, -0.1417575478553772, 0.3395894765853882, 0.021583985537290573, 0.06713692843914032, 0.1669357270002365, -0.04995499178767204, 0.07251055538654327, 0.14220476150512695, 0.39972633123397827, -0.01705332286655903, -0.16231447458267212, 0.3568298816680908, 0.07856432348489761, 0.23182150721549988, -0.04558825492858887, -0.12908799946308136, 0.03583579882979393, 0.0450391061604023, -0.23547017574310303, -0.03071749024093151, -0.0201286468654871, -0.043805163353681564, -0.0817442387342453, 0.013920292258262634, -0.1779288798570633, -0.23581793904304504], [-0.01297035813331604, 0.17094238102436066, -0.004795148968696594, -0.15668438374996185, -0.13906072080135345, 0.10893167555332184, -0.18480095267295837, -0.1551549732685089, -0.096546970307827, 0.10234133899211884, -0.07423095405101776, -0.08633314073085785, 0.17371486127376556, 0.07941092550754547, 0.005127519369125366, 0.02644750475883484, -0.16631101071834564, -0.11376719176769257, 0.04397799074649811, 0.03224898874759674, -0.09169502556324005, -0.17146776616573334, -0.03228667378425598, 0.11819164454936981, 0.1582331508398056, -0.019564896821975708, 0.08724994957447052, 0.05938991904258728], [-0.1370580792427063, -0.1568116694688797, 0.30775460600852966, -0.08641864359378815, 0.13807795941829681, -0.15442721545696259, 0.1411312371492386, 0.1818251609802246, -0.027182266116142273, 0.17301812767982483, -0.008707644417881966, 0.23285774886608124, -0.034285932779312134, -0.21225418150424957, 0.019674383103847504, -0.04141060635447502, -0.030426159501075745, 0.06539643555879593, 0.17088212072849274, -0.10474999248981476, 0.08042606711387634, 0.02018287591636181, 0.1340773105621338, -0.16084632277488708, -0.13909578323364258, -0.04037117958068848, -0.057881325483322144, 0.177474245429039], [0.03640523552894592, -0.074177086353302, -0.08232095837593079, -0.08859310299158096, -0.07841061055660248, -0.06035053730010986, 0.10267530381679535, -0.18024568259716034, -0.1092994213104248, -0.019793957471847534, -0.03920482099056244, -0.07204270362854004, -0.017619475722312927, 0.10518328845500946, 0.010674983263015747, -0.03444206714630127, -0.15108302235603333, -0.05433599650859833, -0.12780964374542236, -0.102999746799469, -0.1389366090297699, -0.12612304091453552, -0.0945349782705307, -0.038238123059272766, 0.18278999626636505, 0.10515229403972626, -0.058056533336639404, 0.16873066127300262], [-0.12999461591243744, -0.026604726910591125, -0.17620259523391724, -0.12904614210128784, -0.14041490852832794, -0.06309494376182556, -0.1253703087568283, 0.06696245074272156, -0.03961709141731262, 0.13626542687416077, -0.018270015716552734, 0.15100078284740448, -0.1566968560218811, -0.1714087426662445, -0.07675900310277939, 0.011953447945415974, 0.028740063309669495, 0.07178711891174316, 0.04302264750003815, -0.21203479170799255, 0.008315149694681168, -0.015294278040528297, -0.06017672270536423, -0.028777584433555603, -0.07275396585464478, 0.12739308178424835, 0.0504927784204483, 0.1312798708677292], [-0.05581225827336311, 0.07532693445682526, 0.15107063949108124, 0.04517369717359543, -0.17980347573757172, 0.02632017433643341, 0.04158744215965271, 0.11405190825462341, 0.06278039515018463, -0.0019079233752563596, -0.10559353232383728, 0.0345064252614975, -0.1584845781326294, 0.05611695349216461, 0.06915747374296188, 0.02555437758564949, -0.019823268055915833, 0.12585601210594177, -0.19489452242851257, -0.10895052552223206, -0.15633229911327362, 0.007085150107741356, -0.1157073825597763, -0.16482314467430115, 0.07981942594051361, 0.16887961328029633, 0.16764472424983978, 0.12695622444152832], [0.12726247310638428, -0.1529044359922409, -0.13942556083202362, 0.03713121637701988, -0.13764896988868713, 0.04875090718269348, 0.07510754466056824, 0.13006970286369324, 0.0721634179353714, -0.04424023628234863, -0.11575900763273239, -0.059488896280527115, -0.14681848883628845, -0.11707605421543121, -0.0680132657289505, -0.12020742148160934, 0.06211061775684357, -0.1513397991657257, -0.1437583714723587, 0.033539313822984695, 0.02867680974304676, 0.11098994314670563, -0.14120185375213623, 0.11737428605556488, -0.06531471759080887, -0.11879110336303711, -0.16616514325141907, 0.07086852937936783], [0.2787196636199951, -0.11451762169599533, -0.17572730779647827, 0.2501305043697357, 0.09580747038125992, -0.11387133598327637, 0.16510730981826782, 0.14238682389259338, 0.06634621322154999, -0.01658479869365692, 0.10213077068328857, -0.2450323849916458, 0.15057341754436493, 0.1887241154909134, 0.25939229130744934, -0.02694057673215866, 0.10867516696453094, -0.09088674187660217, 0.10521414130926132, -0.05681603029370308, -0.2954752445220947, -0.1751287579536438, 0.13274747133255005, -0.058796368539333344, 0.020980972796678543, 0.053488701581954956, 0.0028037577867507935, -0.08896242082118988], [0.3187248706817627, -0.17118331789970398, -0.25096917152404785, -0.050014108419418335, -0.20474115014076233, -0.1433093547821045, -0.16549555957317352, -0.12602613866329193, -0.1208806112408638, 0.11312210559844971, 0.3414829969406128, -0.3138144910335541, -0.10633827745914459, 0.18353836238384247, 0.30315572023391724, 0.19041556119918823, -0.10406684875488281, 0.027145063504576683, 0.14134077727794647, -0.05734829232096672, -0.03299075365066528, 0.0018979053711518645, 0.11546260863542557, -0.10561604797840118, -0.1702025979757309, 0.16699333488941193, -0.025077059864997864, 0.01614949107170105], [-0.08706601709127426, -0.01140183862298727, 0.09013845026493073, -0.1667429357767105, 0.18353044986724854, -0.015446499921381474, -0.049654364585876465, 0.0684012696146965, -0.06972294300794601, 0.12090310454368591, -0.35860711336135864, 0.06441499292850494, 0.16258984804153442, -0.11084061115980148, -0.13782061636447906, 0.152094304561615, -0.013965487480163574, 0.006094080395996571, 0.190728098154068, -0.058093104511499405, 0.10062103718519211, 0.14697109162807465, 0.15033939480781555, -0.14990028738975525, 0.04050201177597046, -0.1626218855381012, 0.07751981914043427, 0.0014797743642702699], [-0.1963832527399063, -0.06294834613800049, 0.26424896717071533, -0.16243186593055725, 0.08315473049879074, 0.04108342528343201, 0.07169552892446518, 0.21364246308803558, 0.10619764029979706, -0.06695464253425598, -0.1633698046207428, 0.2043790966272354, 0.10578962415456772, -0.08160001039505005, 0.05397811904549599, 0.10773252695798874, 0.016674920916557312, -0.10916190594434738, 0.2533835470676422, -0.11696017533540726, 0.2679619789123535, 0.12275736033916473, 0.16708426177501678, -0.051749907433986664, -0.06325173377990723, 0.026638418436050415, -0.18180228769779205, 0.12414196133613586]], "actor.network.4.bias": [0.04030643031001091, 0.04131440073251724, 0.08643080294132233, -0.11673012375831604, -0.02994675189256668, -0.05485253036022186, 0.1405225247144699, -0.003047409700229764, 0.17939744889736176, 0.03615928441286087, 0.09738419204950333, 0.027431458234786987, 0.017585735768079758, -0.01593082770705223, 0.08676993101835251, -0.04208570718765259, -0.03350992873311043, 0.09450247138738632, 0.008384674787521362, 0.03961848467588425, -0.09531453251838684, -0.06794679164886475, -0.0016319032292813063, 0.12363697588443756, 0.013843484222888947, 0.16286569833755493, 0.25967201590538025, -0.020014749839901924], "actor.network.6.weight": [[0.23173725605010986, 0.09507819265127182, 0.0017336730379611254, 0.10714875161647797, -0.0521540567278862, 0.04218124598264694, -0.3255595862865448, 0.05028480663895607, 0.3678402006626129, -0.15174676477909088, -0.32718443870544434, 0.08901002258062363, -0.2919228971004486, 0.02496686577796936, -0.06248978525400162, 0.18881747126579285, -0.0047751134261488914, 0.10947643220424652, 0.07586328685283661, -0.22105088829994202, -0.012483954429626465, 0.04888513684272766, -0.04912009462714195, -0.09805388003587723, 0.15125985443592072, 0.17132475972175598, -0.2737533450126648, -0.2552831470966339], [-0.38876208662986755, -0.09679809957742691, -0.09431513398885727, 0.08444713056087494, 0.12324162572622299, -0.16373679041862488, 0.022756610065698624, 0.019042372703552246, -0.16512632369995117, 0.2666618824005127, 0.08113022148609161, 0.224273681640625, 0.3315809667110443, 0.2499525398015976, -0.016421129927039146, -0.011521641165018082, 0.018989134579896927, -0.431595116853714, 0.10710875689983368, 0.1675284504890442, -0.010626643896102905, -0.03496783971786499, -0.11259554326534271, -0.07606963068246841, -0.08717801421880722, -0.31395643949508667, 0.11152543872594833, 0.2166450172662735]], "actor.network.6.bias": [-0.000946864252910018, -0.11605270206928253], "critic.network.0.weight": [[-0.0676271989941597, -0.38273411989212036, -0.08093037456274033, -0.14006248116493225], [-0.437149316072464, 0.39472639560699463, -0.31986862421035767, 0.17951564490795135], [0.25614306330680847, 0.3820338547229767, 0.2941364645957947, -0.4440470039844513], [-0.37836238741874695, -0.14328338205814362, -0.36377057433128357, -0.009005915373563766], [0.5932103395462036, 0.03775972127914429, 0.42163360118865967, -0.08888132125139236], [-0.2777433693408966, 0.2617701590061188, -0.2676728367805481, 0.4031084477901459], [-0.5064154267311096, 0.3591635227203369, 0.405009925365448, 0.07462844997644424], [0.13876166939735413, 0.38048386573791504, 0.49970465898513794, 0.37995949387550354], [-0.12357234209775925, 0.01836588978767395, 0.37278974056243896, -0.48095062375068665], [0.08975808322429657, 0.2277003824710846, -0.4581504464149475, 0.1353386640548706], [-0.19201470911502838, -0.30227628350257874, 0.07510565221309662, -0.12901121377944946], [0.10096593201160431, -0.5230642557144165, -0.6640287041664124, -0.48039084672927856], [-0.25688621401786804, -0.15198101103305817, 0.1167425885796547, -0.15020062029361725], [-0.40125584602355957, 0.26700660586357117, -0.7020208835601807, -0.30877575278282166], [0.36275947093963623, 0.25927290320396423, 0.22476273775100708, -0.4284287393093109], [0.22324778139591217, -0.4015207290649414, -0.4172431230545044, -0.32550472021102905], [0.11431287229061127, 0.3193743824958801, -0.3883240818977356, -0.1557326763868332], [0.17444787919521332, -0.13964027166366577, -0.4403836131095886, 0.3308289051055908], [-0.043772369623184204, 0.30080533027648926, 0.1141166239976883, 0.5499712228775024], [-0.17143768072128296, -0.427447110414505, -0.015597443096339703, 0.2908298373222351], [-0.23235222697257996, 0.16378892958164215, -0.512658417224884, 0.4205700159072876], [-0.157146617770195, 0.2391016036272049, 0.0945621207356453, 0.24601709842681885], [0.3686431646347046, -0.13050442934036255, -0.42872050404548645, 0.3736952543258667], [-0.23777440190315247, 0.28351646661758423, 0.1827273666858673, 0.5474581122398376], [0.2908851206302643, -0.21966394782066345, -0.023510314524173737, -0.1715877205133438], [-0.26114919781684875, 0.08774344623088837, 0.20612642168998718, -0.23287136852741241], [-0.07722803205251694, 0.2209002524614334, -0.40730753540992737, -0.28109318017959595], [0.17846710979938507, 0.21087534725666046, 0.16654565930366516, 0.10354587435722351]], "critic.network.0.bias": [0.22390101850032806, 0.3482603132724762, 0.143421471118927, 0.5742294192314148, -0.062452398240566254, 0.45604225993156433, 0.29323384165763855, -0.3456805646419525, -0.4335005581378937, 0.48937395215034485, 0.3526584506034851, -0.11420270055532455, 0.022586779668927193, -0.13597898185253143, -0.30420464277267456, 0.4189537763595581, 0.30155694484710693, 0.37711748480796814, -0.3487679660320282, 0.12543834745883942, 0.13698938488960266, 0.4360363185405731, 0.1528109908103943, -0.3405628800392151, 0.3149746358394623, -0.24559663236141205, 0.45352983474731445, 0.5683509111404419], "critic.network.2.weight": [[0.022223712876439095, 0.2221507579088211, 0.035195235162973404, -0.022546378895640373, 0.25631770491600037, 0.022596366703510284, 0.22759996354579926, 0.2239212989807129, -0.004533355589956045, 0.12382227927446365, 0.15308795869350433, -0.0849735289812088, -0.16011370718479156, 0.17887426912784576, 0.114568792283535, -0.6385098099708557, -0.15684856474399567, 0.17799146473407745, 0.26129835844039917, -0.04370041564106941, 0.020765487104654312, -0.07378712296485901, 0.21865232288837433, 0.2290242612361908, -0.2929883897304535, -0.10932516306638718, 0.06409992277622223, 0.241160586476326], [0.0527198426425457, 0.001450008130632341, 0.18966512382030487, 0.08959762006998062, -0.11944180727005005, 0.18495076894760132, 0.1325492560863495, -0.25970619916915894, -0.11363024264574051, 0.18518242239952087, 0.22993604838848114, -0.11039740592241287, -0.03144804388284683, -0.11462972313165665, -0.09673570096492767, 0.25407326221466064, -0.1338275671005249, -0.08471164107322693, 0.05940151587128639, 0.1725308746099472, 0.13151554763317108, 0.1364002227783203, 0.08502738922834396, -0.2075149416923523, 0.22694753110408783, -0.01269394438713789, 0.13229162991046906, 0.10004157572984695], [-0.07324998825788498, -0.13771799206733704, -0.11722680926322937, -0.09327524900436401, 0.025513142347335815, -0.09446428716182709, 0.18214477598667145, 0.06762674450874329, 0.10739697515964508, -0.05739817023277283, 0.11017826199531555, -0.031224295496940613, -0.08802365511655807, -0.11847031861543655, -0.15242841839790344, 0.016632694751024246, 0.10197379440069199, 0.09348444640636444, -0.06976576149463654, -0.14420071244239807, -0.12845072150230408, -0.055352985858917236, -0.06423325836658478, 0.0018958747386932373, -0.09252133965492249, -0.1514718383550644, -0.11697366833686829, -0.006036242935806513], [0.150702565908432, 0.18881076574325562, -0.11674566566944122, 0.27026015520095825, -0.07472794502973557, 0.040707170963287354, -0.11353318393230438, -0.035763733088970184, -0.2094583511352539, 0.2784184515476227, 0.1453375369310379, -0.22708448767662048, 0.06560488045215607, 0.12078576534986496, -0.10666242241859436, 0.028704693540930748, 0.1261214315891266, 0.06549307703971863, -0.0009350404143333435, -0.038159605115652084, 0.025546226650476456, 0.1711418181657791, -0.031395718455314636, -0.2510111629962921, 0.23032347857952118, 0.0732172280550003, 0.10134265571832657, 0.13336250185966492], [0.13049544394016266, 0.013864104636013508, -0.15555623173713684, 0.22880783677101135, -0.18331432342529297, -0.06070656329393387, -0.02214837074279785, -0.16345354914665222, 0.11294016242027283, -0.057037804275751114, 0.06041646748781204, -0.16831402480602264, 0.017472274601459503, -0.23760974407196045, -0.01589384861290455, 0.1925436109304428, 0.1907750517129898, 0.17019346356391907, -0.13881555199623108, -0.07375840097665787, -0.17913763225078583, -0.005456413608044386, 0.18472711741924286, -0.08291219174861908, 0.06713006645441055, -0.0738108679652214, 0.0938582718372345, 0.21425700187683105], [0.0023800323251634836, 0.2828748822212219, 0.010741653852164745, 0.28374382853507996, -0.013224607333540916, -0.009266623295843601, 0.061135146766901016, -0.08334367722272873, 0.09776100516319275, 0.22723087668418884, 0.14981253445148468, 0.06791351735591888, -0.08301148563623428, -0.12237129360437393, 0.09866367280483246, 0.07794157415628433, -0.018053585663437843, 0.08415622264146805, -0.2576878070831299, 0.06262371689081192, -0.05392146110534668, 0.24756461381912231, -0.06298714131116867, -0.30329006910324097, 0.08760558813810349, -0.19768264889717102, 0.21140927076339722, 0.25336572527885437], [0.04107142612338066, 0.1139819398522377, -0.12366290390491486, -0.012113036587834358, -0.009821009822189808, 0.13928216695785522, -0.0650528222322464, -0.045046061277389526, 0.07391249388456345, -0.1157209575176239, 0.05590425431728363, -0.15017583966255188, -0.0764131024479866, -0.18238821625709534, 0.17120587825775146, -0.0731075331568718, 0.06885437667369843, -0.1524907797574997, -0.05664543807506561, -0.18122342228889465, 0.14053648710250854, -0.17609405517578125, 0.16732676327228546, -0.12297944724559784, 0.08213643729686737, 0.14905831217765808, 0.11956441402435303, -0.17783516645431519], [0.008525178767740726, -0.20989282429218292, -0.02828729711472988, 0.16578683257102966, -0.061934567987918854, -0.39970168471336365, -0.595194935798645, -0.0948352962732315, 0.20337453484535217, -0.07716981321573257, 0.03012775257229805, 0.2256913185119629, -0.16237591207027435, -0.06951567530632019, 0.21057260036468506, 0.07831063866615295, -0.011176246218383312, 0.06722121685743332, 0.06400920450687408, -0.19896124303340912, -0.32768329977989197, -0.2392282634973526, -0.10505499690771103, 0.18449456989765167, 0.013507666997611523, -0.07034698128700256, 0.2104235291481018, -0.02260703220963478], [0.0011162915034219623, -0.1544276922941208, 0.028977904468774796, -0.08688633888959885, -0.059817057102918625, 0.014939683489501476, 0.15166249871253967, 0.16852867603302002, -0.19458512961864471, -0.00945968460291624, 0.1959610879421234, -0.016652172431349754, -0.022958895191550255, -0.08362355083227158, -0.10424663126468658, -0.28875258564949036, -0.20254015922546387, -0.036325279623270035, 0.19671067595481873, 0.22919762134552002, -0.06605300307273865, 0.14003466069698334, 0.2045307755470276, 0.24563473463058472, -0.5095036625862122, -0.15762610733509064, -0.3491984009742737, -0.20182619988918304], [0.06214426830410957, 0.08624093979597092, 0.17333374917507172, 0.1233883947134018, -0.07786350697278976, 0.024864954873919487, 0.021468929946422577, -0.1389126181602478, -0.1358693391084671, 0.2438916563987732, 0.043041080236434937, 0.03712839260697365, -0.15228073298931122, -0.08287711441516876, 0.0577276386320591, 0.2807188034057617, 0.06776951998472214, -0.049177706241607666, -0.1427386999130249, -0.014927640557289124, 0.08932972699403763, -0.044293373823165894, 0.1562017947435379, -0.058896347880363464, -0.006179516669362783, -0.20972250401973724, -0.11344607174396515, -0.08693201839923859], [-0.20674222707748413, 0.07954369485378265, 0.08608993887901306, 0.08472231775522232, 0.13020697236061096, -0.35129714012145996, -0.35516828298568726, -0.18754197657108307, 0.005154821556061506, -0.05053827911615372, -0.2253250777721405, 0.13659057021141052, -0.0075669982470571995, -0.045572757720947266, 0.10385069251060486, -0.10621917247772217, 0.14485710859298706, -0.2492222934961319, -0.17701229453086853, 0.0039341626688838005, -0.08393490314483643, 0.09706113487482071, -0.12499946355819702, 0.06982441246509552, -0.15023894608020782, 0.1487393081188202, 0.15548118948936462, -0.17832736670970917], [0.07943391799926758, 0.14909608662128448, -0.059587422758340836, 0.034838173538446426, -0.03984285891056061, 0.04293086752295494, -0.05620603263378143, -0.2445303499698639, 0.034359537065029144, -0.11741175502538681, 0.049981169402599335, -0.09440960735082626, -0.06158178299665451, 0.09331031143665314, -0.0755670890212059, 0.13749130070209503, 0.11655459553003311, 0.13658490777015686, -0.1960858702659607, 0.1464494913816452, 0.08143997192382812, 0.014860425144433975, -0.10645998269319534, 0.018234096467494965, 0.08656831830739975, -0.0009491858654655516, 0.09015332907438278, 0.2122572660446167], [0.15730281174182892, -0.05114582180976868, -0.03368555009365082, 0.17368558049201965, -0.1074964702129364, -0.06798560172319412, 0.30364641547203064, 0.02509954757988453, -0.08539199829101562, -0.22214825451374054, 0.15763574838638306, 0.16542930901050568, 0.26424476504325867, -0.04609202593564987, -0.1045033410191536, -0.2825266122817993, -0.08239275217056274, 0.010208722203969955, 0.3092036843299866, 0.1093660369515419, 0.1393735557794571, 0.14603804051876068, 0.019068552181124687, 0.28472378849983215, -0.44163456559181213, -0.10427455604076385, -0.19080151617527008, -0.2055344432592392], [0.04036499559879303, -0.15552064776420593, -0.13154955208301544, 0.026813548058271408, 0.03781105577945709, -0.07146269083023071, -0.06362813711166382, -0.062350038439035416, 0.04186151921749115, 0.008205585181713104, -0.15435077250003815, 0.0023917718790471554, 0.01724797487258911, 0.03884236514568329, -0.17660623788833618, 0.026852592825889587, 0.16139103472232819, -0.08260153234004974, -0.055677659809589386, -0.08290177583694458, -0.14594590663909912, -0.0041151572950184345, 0.018703807145357132, -0.18668383359909058, 0.06659181416034698, -0.033464133739471436, 0.005188261158764362, 0.028834490105509758], [0.1442766785621643, -0.22067256271839142, 0.09373350441455841, -0.028900250792503357, 0.07782139629125595, -0.14831295609474182, -0.8164244294166565, 0.05877832695841789, 0.05266406387090683, 0.028904996812343597, 0.00200972193852067, 0.31491491198539734, 0.07960326969623566, 0.15835809707641602, 0.26697587966918945, -0.022982241585850716, 0.11146442592144012, -0.027743903920054436, 0.06732239574193954, -0.028436720371246338, -0.2790261209011078, -0.23082689940929413, -0.07898849993944168, -0.13850609958171844, 0.01024642214179039, 0.21955887973308563, 0.129555344581604, 0.07554180920124054], [0.1552388221025467, 0.1260860115289688, 0.01642131432890892, -0.035951897501945496, 0.07612361758947372, 0.06183130294084549, 0.03415970131754875, -0.14308176934719086, -0.028966812416911125, -0.014256324619054794, 0.04284791275858879, -0.10839993506669998, 0.08393611013889313, -0.18955649435520172, 0.07213348150253296, 0.268923282623291, -0.1597195267677307, -0.15742433071136475, -0.18094982206821442, -0.16048432886600494, 0.10958757251501083, -0.02215563878417015, -0.1658204197883606, 0.008447341620922089, 0.33329421281814575, -0.033473506569862366, -0.0957615077495575, 0.19234226644039154], [0.11812973767518997, 0.0791114941239357, -0.17172417044639587, 0.10454124957323074, 0.024038761854171753, 0.14481425285339355, -0.23889969289302826, -0.23626258969306946, -0.21905852854251862, 0.15093035995960236, -0.11375074833631516, -0.21675840020179749, -0.1108415424823761, 0.02746463753283024, -0.21647101640701294, 0.012592197395861149, 0.17476722598075867, -0.12169412523508072, -0.14038240909576416, 0.09209650754928589, -0.23334653675556183, 0.1950988918542862, -0.09575793147087097, -0.16402052342891693, 0.23435397446155548, -0.09399872273206711, 0.11846349388360977, -0.0841091200709343], [-0.014353534206748009, 0.14678111672401428, 0.12319322675466537, 0.13586844503879547, -0.18243277072906494, 0.1659507304430008, -0.1898888498544693, -0.21145102381706238, -0.20483911037445068, -0.027858076617121696, 0.1527298390865326, -0.12075778841972351, -0.0937894880771637, 0.10647501796483994, -0.014122651889920235, -0.07144103944301605, -0.06828511506319046, -0.16511690616607666, -0.15184757113456726, -0.11881522834300995, 0.09982230514287949, 0.009968417696654797, -0.00035083250259049237, -0.09023194760084152, 0.2574593424797058, -0.03398381918668747, 0.2214585244655609, 0.01806887798011303], [0.09626572579145432, 0.10833930969238281, 0.07575394213199615, 0.03871748596429825, 0.14220336079597473, -0.2288723886013031, -0.8967547416687012, 0.2173033356666565, 0.2258388102054596, -0.1902044117450714, -0.07041832059621811, 0.2791879177093506, -0.03458695858716965, 0.05946248024702072, 0.22258713841438293, 0.1433873176574707, -0.035974711179733276, -0.034900203347206116, -0.10265688598155975, 0.004370418842881918, -0.2958114743232727, -0.22289171814918518, -0.15204566717147827, -0.10747481882572174, 0.1350046694278717, 0.07635819911956787, 0.03125873953104019, -0.08312679827213287], [-0.13811840116977692, 0.08312655240297318, -0.031759023666381836, 0.26862794160842896, -0.022487513720989227, 0.13426698744297028, -0.1928134262561798, -0.13842332363128662, -0.1655212938785553, -0.03508831560611725, 0.1475246250629425, -0.19868281483650208, 0.023985864594578743, -0.1584736853837967, -0.025380803272128105, 0.1711140125989914, 0.11015856266021729, 0.14473097026348114, -0.2174607366323471, -0.17590419948101044, 0.15308667719364166, 0.11097341775894165, 0.16152523458003998, -0.24411597847938538, 0.10055102407932281, -0.03456498682498932, 0.0844801664352417, -0.08202914148569107], [-0.005113127641379833, 0.03646377846598625, 0.18617485463619232, 0.10068607330322266, -0.10158158838748932, 0.17692407965660095, 0.02392852120101452, -0.06892149150371552, -0.09823078662157059, 0.15490877628326416, 0.1280805915594101, -0.27689695358276367, 0.08830633014440536, -0.1684912145137787, -0.09651514142751694, -0.00405194703489542, 0.17541462182998657, 0.19519850611686707, -0.03698818013072014, -0.1527940034866333, -0.03755711391568184, 0.14344628155231476, 0.1076551228761673, -0.08272530883550644, 0.031533483415842056, -0.014767461456358433, 0.06900542974472046, 0.1992281824350357], [0.16214382648468018, -0.06067253276705742, 0.16619537770748138, 0.034897468984127045, 0.08618633449077606, -0.03667505457997322, -0.14832879602909088, 0.013448148965835571, -0.06618234515190125, 0.036533378064632416, 0.005127571523189545, 0.0780687928199768, -0.07617540657520294, -0.12424436211585999, 0.11270629614591599, 0.24990682303905487, 0.09863770008087158, -0.06356603652238846, 0.014010831713676453, -0.08377144485712051, 0.16711419820785522, -0.006909283809363842, -0.06839999556541443, -0.2208174169063568, 0.18310879170894623, -0.20983056724071503, 0.21094004809856415, 0.01585833728313446], [0.13474041223526, 0.004515525419265032, 0.1643524169921875, 0.0903899222612381, -0.10700532048940659, 0.23713716864585876, 0.023689838126301765, 0.007356369402259588, 0.05893787741661072, 0.21478287875652313, 0.21392744779586792, -0.21875163912773132, -0.19489732384681702, 0.1344367265701294, 0.041816070675849915, 0.20599065721035004, 0.015095180831849575, 0.19289998710155487, 0.010166175663471222, -0.17701846361160278, -0.016158312559127808, -0.019947847351431847, -0.1329665184020996, -0.24666352570056915, 0.30041685700416565, -0.2346383035182953, 0.17108339071273804, 0.18329039216041565], [0.1828334629535675, 0.2744470238685608, -0.028425227850675583, 0.2746849060058594, -0.20860739052295685, -0.11379080265760422, 0.029236728325486183, -0.0617842860519886, -0.20566758513450623, 0.2408440113067627, 0.1691896915435791, -0.055503811687231064, -0.11259648948907852, -0.14442318677902222, -0.07268583029508591, 0.20323394238948822, 0.09564311057329178, 0.21050629019737244, 0.0002103415463352576, 0.02680886536836624, 0.02078169770538807, -0.005667012184858322, 0.08521010726690292, -0.2574019432067871, 0.03845538571476936, -0.009690490551292896, -0.02413252741098404, 0.025762049481272697], [0.20414455235004425, 0.08711481839418411, 0.07647258043289185, 0.25932395458221436, -0.08183416724205017, -0.008392611518502235, 0.14854542911052704, -0.11525317281484604, -0.1379096359014511, 0.1284249871969223, 0.016495347023010254, -0.2214002162218094, 0.09964083880186081, -0.16106167435646057, -0.0957256555557251, 0.22796694934368134, -0.11023922264575958, 0.16234444081783295, -0.19964425265789032, 0.1534632444381714, 0.05955716595053673, 0.23274293541908264, 0.16589348018169403, -0.009797973558306694, 0.21205243468284607, -0.06561475992202759, -0.10776083916425705, 0.02448473870754242], [-0.03181309252977371, 0.07637454569339752, -0.03996104374527931, 0.04676581174135208, -0.10734658688306808, 0.11712028831243515, 0.31733664870262146, 0.1590747833251953, -0.18063442409038544, -0.2940654456615448, 0.08047700673341751, -0.06838425248861313, 0.21586990356445312, 0.13930104672908783, 0.11326062679290771, -0.33637017011642456, -0.18958178162574768, 0.07044539600610733, 0.0058091143146157265, 0.14199240505695343, 0.12076597660779953, 0.1164621114730835, 0.06065746769309044, 0.02913704328238964, -0.6434388756752014, -0.08067651838064194, -0.10048364847898483, -0.06791707873344421], [-0.048286594450473785, -0.02747407555580139, 0.107550710439682, 0.011848773807287216, -0.23036006093025208, 0.013308309949934483, 0.09076067060232162, -0.11497373878955841, -0.11216620355844498, 0.004298390354961157, -0.137302964925766, -0.2549257278442383, 0.1485418677330017, -0.22509028017520905, 0.07118620723485947, 0.11719942837953568, 0.17407290637493134, -0.0032935200724750757, -0.0013780476292595267, 0.13315895199775696, 0.11089468747377396, 0.20976366102695465, 0.07329406589269638, -0.13310052454471588, 0.20051614940166473, -0.07480049133300781, -0.11856386065483093, 0.026499474421143532], [-0.07810558378696442, 0.0012524346821010113, -0.15162335336208344, 0.16405656933784485, 0.011262773536145687, 0.021805284544825554, 0.06464430689811707, -0.01862126775085926, -0.06734593957662582, 0.19985005259513855, 0.20683635771274567, -0.16321007907390594, 0.035214006900787354, 0.08556284755468369, -0.14027151465415955, 0.05268529802560806, -0.09731164574623108, 0.08113647997379303, -0.07888025045394897, -0.06779000908136368, 0.0030762841925024986, 0.10212275385856628, -0.06853322684764862, -0.34682491421699524, 0.31811606884002686, -0.033659759908914566, 0.25446271896362305, 0.25554171204566956]], "critic.network.2.bias": [-0.08458070456981659, 0.3129126727581024, 0.12362092733383179, 0.22670172154903412, 0.13212300837039948, 0.2752155065536499, -0.0901111513376236, 0.02902430295944214, -0.08115202933549881, 0.1829969584941864, 0.03376647084951401, -0.09754855930805206, -0.13633859157562256, -0.0872335359454155, 0.0021531039383262396, 0.24356217682361603, 0.21630296111106873, -0.07576774805784225, 0.019626200199127197, 0.20066088438034058, 0.19420436024665833, 0.05301590636372566, 0.13505160808563232, 0.13416141271591187, -0.006436788942664862, -0.1248052790760994, 0.2799612283706665, 0.09859451651573181], "critic.network.4.weight": [[-0.0813744068145752, 0.20021429657936096, -0.0054733906872570515, 0.12180109322071075, 0.17088299989700317, 0.25727856159210205, 0.09695595502853394, -0.03454229608178139, -0.26932623982429504, 0.22005298733711243, -0.1928153783082962, 0.031830377876758575, -0.29005032777786255, -0.1047629863023758, -0.29459547996520996, 0.0922190472483635, 0.13946464657783508, -0.1393265277147293, -0.038206104189157486, -0.005113777704536915, 0.15778641402721405, 0.0024546089116483927, 0.20834538340568542, 0.0695052370429039, 0.22193056344985962, -0.228134885430336, 0.009681620635092258, 0.21037718653678894], [-0.05250932276248932, 0.10855615884065628, 0.007608932908624411, 0.15289407968521118, 0.11978694796562195, 0.23282936215400696, 0.019314264878630638, -0.03159812092781067, -0.020883290097117424, -0.08983197808265686, -0.20868271589279175, 0.13479360938072205, -0.2138437181711197, 0.19004157185554504, -0.12212296575307846, 0.14845781028270721, 0.0503920242190361, -0.16647644340991974, -0.256905198097229, -0.08252345025539398, -0.13394546508789062, 0.08464835584163666, 0.2548500597476959, 0.07066895812749863, 0.15438957512378693, -0.062026627361774445, 0.19909799098968506, 0.07399116456508636], [-0.2839161455631256, 0.05865557864308357, 0.20495563745498657, 0.03551745042204857, 0.0019191609462723136, 0.2163720577955246, 0.016606517136096954, -0.24621661007404327, -0.1237226277589798, -0.040016040205955505, -0.22151587903499603, 0.04836224392056465, -0.21303145587444305, -0.05349855124950409, -0.05388012155890465, 0.24710102379322052, 0.08777593821287155, -0.0874360203742981, -0.21893025934696198, 0.17310117185115814, -0.07684951275587082, -0.07063839584589005, 0.07932990789413452, 0.17709273099899292, 0.1439673751592636, -0.18095757067203522, 0.21374812722206116, 0.24222102761268616], [0.0405685156583786, -0.14041560888290405, -0.0651860311627388, -0.19192132353782654, 0.07045857608318329, -0.14596891403198242, -0.07000484317541122, 0.06755286455154419, 0.0720442682504654, -0.03940543904900551, 0.16294747591018677, 0.07693260908126831, 0.06402803957462311, 0.17009876668453217, 0.10958333313465118, 0.1219550371170044, -0.15585094690322876, 0.03004533424973488, 0.021916184574365616, -0.143987238407135, 0.09798084199428558, 0.012961280532181263, 0.13377737998962402, -0.030848585069179535, -0.05491321533918381, -0.03546792268753052, -0.16706249117851257, 0.09169840812683105], [-0.20167511701583862, 0.23590996861457825, -0.13353478908538818, -0.09700381010770798, 0.13261300325393677, 0.16238728165626526, -0.09684087336063385, 0.011054974049329758, 0.05138535797595978, -0.09952394664287567, -0.20868588984012604, 0.14024707674980164, -0.24415044486522675, -0.03126513957977295, 0.009964053519070148, 0.07772371172904968, 0.024502567946910858, -0.09026966243982315, 0.053443390876054764, 0.2565271258354187, -0.041059352457523346, -0.14448270201683044, -0.0024177315644919872, 0.08731018751859665, 0.15090373158454895, -0.11137257516384125, 0.228550523519516, -0.09239865094423294], [-0.014163807034492493, 0.17932745814323425, -0.10747745633125305, -0.050983279943466187, 0.09797327220439911, -0.11125798523426056, -0.18101701140403748, 0.005262851715087891, -0.1899297535419464, 0.02783326990902424, 0.08315734565258026, -0.025889890268445015, 0.07091964781284332, -0.09569895267486572, 0.054554834961891174, -0.0138482004404068, 0.027239801362156868, 0.006987360306084156, -0.07240612804889679, -0.08656689524650574, 0.17253804206848145, -0.01327313669025898, -0.10020746290683746, -0.05291660130023956, 0.019654808565974236, 0.14667746424674988, -0.09631846845149994, -0.006268802098929882], [-0.1526072919368744, -0.005588940344750881, 0.09181465953588486, 0.1659097522497177, 0.2359890192747116, -0.019648917019367218, -0.07634364813566208, -0.07934936136007309, -0.24901226162910461, 0.10445218533277512, -0.19296471774578094, 0.11132099479436874, -0.27290216088294983, -0.04162226617336273, -0.12724266946315765, 0.022865401580929756, 0.28262925148010254, 0.11824756115674973, -0.17775152623653412, -0.006557526998221874, 0.14156097173690796, 0.21062004566192627, 0.2580479383468628, -0.08262491971254349, -0.08117250353097916, 0.028564363718032837, 0.1440684050321579, 0.26457804441452026], [0.13217726349830627, -0.09263122081756592, 0.06783365458250046, 0.012032496742904186, 0.08248361200094223, -0.16717758774757385, -0.05840061604976654, 0.1662319302558899, 0.13359245657920837, -0.06538219749927521, 0.033738140016794205, 0.025606557726860046, 0.2043081820011139, 0.13132107257843018, 0.05930529534816742, -0.1844964623451233, -0.06489287316799164, 0.06718641519546509, 0.24886198341846466, 0.0792093425989151, 0.10453879833221436, 0.20753681659698486, 0.11336331069469452, 0.016811169683933258, -0.09418695420026779, -0.04210831597447395, 0.06926591694355011, -0.13187453150749207], [-0.041331782937049866, -0.16944701969623566, 0.16694475710391998, -0.1134723424911499, 0.07463894784450531, -0.0408010333776474, -0.18463779985904694, 0.16824765503406525, -0.07313086837530136, -0.08514397591352463, -0.009029194712638855, 0.10698987543582916, -0.15985627472400665, -0.15894171595573425, 0.04695643484592438, -0.12334813177585602, 0.0957341343164444, 0.06949155032634735, -0.12039902061223984, 0.15181048214435577, -0.1611369550228119, -0.16438186168670654, -0.06443183124065399, -0.0015087127685546875, -0.12395135313272476, -0.040772005915641785, -0.01119735836982727, -0.024018675088882446], [0.048886142671108246, -0.10091780126094818, -0.02843138575553894, 0.025560282170772552, -0.0575738325715065, 0.04746061563491821, 0.07520421594381332, 0.11205244064331055, 0.20981289446353912, -0.041656844317913055, 0.17991726100444794, 0.14488685131072998, 0.06643372029066086, 0.09680146723985672, 0.2667296826839447, -0.026598704978823662, -0.22011733055114746, 0.14934416115283966, -0.028555195778608322, -0.09957251697778702, 0.06995649635791779, -0.0569462776184082, 0.11383218318223953, -0.14677758514881134, -0.1471688151359558, 0.10021405667066574, 0.027148356661200523, 0.004249936901032925], [0.06745396554470062, -0.15441006422042847, -0.16255657374858856, -0.11209841817617416, 0.11947916448116302, 0.00037313997745513916, 0.021030277013778687, 0.12353028357028961, -0.1495741903781891, 0.14863146841526031, 0.13618294894695282, 0.15001936256885529, 0.15085051953792572, 0.15687872469425201, -0.09352140128612518, -0.04594683647155762, -0.08924104273319244, -0.01975482702255249, 0.018685564398765564, 0.02882474660873413, -0.023323222994804382, 0.04373270273208618, -0.12505656480789185, -0.05932547152042389, -0.00844663381576538, -0.1121855154633522, 0.08433027565479279, -0.07763252407312393], [-0.3294694423675537, -0.008561861701309681, -0.038023076951503754, 0.27789148688316345, 3.1939998734742403e-06, -0.010556623339653015, -0.09954742342233658, -0.11027282476425171, -0.24634011089801788, 0.22578996419906616, -0.14490437507629395, 0.06530530750751495, -0.028575781732797623, -0.08407200127840042, -0.18419872224330902, 0.11664510518312454, 0.15494653582572937, 0.06758753210306168, -0.18841351568698883, 0.24372677505016327, 0.20841720700263977, 0.03592976555228233, -0.007177660241723061, 0.2536102533340454, 0.21933646500110626, -0.17108486592769623, 0.08089768141508102, 0.16785554587841034], [-0.2529478371143341, -0.05872349068522453, 0.045011796057224274, -0.05469846725463867, -0.005724155809730291, 0.16343705356121063, 0.05052034184336662, -0.22250190377235413, -0.26741576194763184, 0.0651676282286644, -0.08591187000274658, 0.030095890164375305, -0.06293253600597382, 0.0413050577044487, -0.2716760039329529, 0.06089869141578674, -0.049997903406620026, -0.10187467187643051, 0.006422125268727541, -0.10884860157966614, -0.09928774833679199, -0.065765880048275, 0.07314692437648773, 0.17251074314117432, 0.08045851439237595, -0.006786176469177008, -0.0055333939380943775, 0.15530334413051605], [-0.18254664540290833, 0.08941995352506638, -0.13899622857570648, -0.15621227025985718, -0.040025822818279266, 0.0016325769247487187, 0.1705773025751114, 0.13140743970870972, 0.0622452050447464, 0.10731879621744156, 0.13618841767311096, 0.16291823983192444, -0.027095556259155273, -0.09917144477367401, -0.12858471274375916, -0.14546126127243042, 0.039976269006729126, -0.19229739904403687, -0.005739105865359306, -0.16013425588607788, -0.11347164958715439, 0.09009770303964615, 0.08035970479249954, -0.01489650271832943, -0.15931852161884308, -0.09414422512054443, -0.14703038334846497, -0.15918844938278198], [-0.19996459782123566, 0.2472773641347885, -0.15766361355781555, 0.2084769308567047, 0.2568061351776123, 0.057369645684957504, 0.04545371234416962, -0.1788509488105774, -0.2844226360321045, -0.050599515438079834, 0.06610912084579468, -0.1688934713602066, -0.202601820230484, 0.06296376883983612, -0.2801646292209625, -0.024561138823628426, 0.21669921278953552, 0.06895026564598083, -0.19900885224342346, -0.024229569360613823, 0.17885740101337433, 0.04145747795701027, 0.07232687622308731, 0.03538445755839348, 0.23091982305049896, -0.21634888648986816, 0.04208577796816826, -0.03120521828532219], [0.12909604609012604, 0.07656919211149216, 0.05155316740274429, -0.20204780995845795, 0.14853544533252716, -0.21793803572654724, -0.11716339737176895, 0.048733796924352646, 0.20235544443130493, -0.1531820148229599, -0.10311651229858398, 0.16165296733379364, 0.3091915547847748, -0.1425776183605194, 0.0658283531665802, -0.10863390564918518, -0.14704474806785583, -0.06946644186973572, -0.012742023915052414, 0.15646222233772278, 0.07811126112937927, -0.2374364137649536, -0.15689414739608765, 0.13935592770576477, -0.12065435945987701, 0.0468154102563858, 0.0770857036113739, 0.09615877270698547], [0.07211187481880188, -0.04942699521780014, -0.027728401124477386, 0.1184852197766304, 0.08948644995689392, -0.15088777244091034, 0.01802794821560383, -0.01818307489156723, -0.04698587954044342, -0.17458827793598175, -0.032901518046855927, 0.17468143999576569, -0.17236655950546265, 0.053593218326568604, 0.27681764960289, 0.15417739748954773, 0.09363565593957901, -0.019537292420864105, 0.002244350966066122, 0.01013851072639227, 0.04230848327279091, 0.06447973847389221, 0.15600714087486267, -0.05945150926709175, -0.05884997546672821, -0.13536778092384338, -0.12568584084510803, -0.06621173024177551], [0.04922372102737427, 0.015932755544781685, -0.019425660371780396, -0.10197583585977554, 0.042421065270900726, -0.06872299313545227, -0.10594214498996735, -0.14332176744937897, 0.0181483943015337, -0.1246476024389267, -0.025800257921218872, -0.0009750276221893728, -0.16866230964660645, -0.08730853348970413, -0.10639951378107071, -0.14447224140167236, 0.14620479941368103, -0.1570083200931549, 0.045790895819664, -0.06011366844177246, 0.03561456501483917, -0.08201561123132706, 0.09076863527297974, 0.157957062125206, -0.10799511522054672, -0.06905589252710342, 0.06670697033405304, 0.10484926402568817], [-0.09787221252918243, 0.24452213943004608, -0.04553798958659172, 0.23980234563350677, 0.11345332115888596, -0.05423205345869064, 0.08444744348526001, -0.18369290232658386, -0.22922170162200928, 0.22960364818572998, -0.1410624235868454, -0.010260289534926414, 0.06521037220954895, -0.04349447786808014, -0.2371460199356079, -0.03863257169723511, -0.059598129242658615, -0.12972132861614227, 0.03555518016219139, 0.11001314967870712, 0.0073205893859267235, -0.02089781127870083, 0.23681844770908356, 0.08837433159351349, 0.1529160887002945, -0.05188886448740959, 0.1936829388141632, 0.24430227279663086], [0.1387929916381836, 0.1072743833065033, 0.1729540377855301, 0.1297595351934433, 0.018513068556785583, -0.19701628386974335, -0.004196398891508579, 0.010796851478517056, 0.19995489716529846, -0.05753112956881523, -0.029500912874937057, 0.15018141269683838, 0.23168811202049255, -0.18531659245491028, -0.17114019393920898, -0.18550097942352295, 0.04007735475897789, -0.012510046362876892, -0.06753171235322952, -0.019345952197909355, -0.14877921342849731, -0.1778334230184555, -0.1441619098186493, 0.013534602709114552, 0.06225089356303215, -0.022643111646175385, -0.13984616100788116, -0.19122742116451263], [-0.21841482818126678, 0.10072974115610123, 0.05519399419426918, -0.08429308980703354, 0.17344576120376587, -0.027022670954465866, 0.05568315088748932, 0.0088236965239048, -0.10498037934303284, -0.13694530725479126, 0.10495547950267792, -0.07854004949331284, -0.18969227373600006, -0.1695915162563324, -0.006929296068847179, -0.05154697969555855, 0.005535753909498453, 0.026009133085608482, 0.033042117953300476, 0.24075764417648315, 0.20643652975559235, -0.056668177247047424, 0.15321986377239227, 0.24216964840888977, -0.010666797868907452, 0.06903094798326492, 0.24372707307338715, 0.21544833481311798], [-0.05010209232568741, -0.13273271918296814, 0.15713278949260712, -0.06462551653385162, -0.0715937539935112, 0.09933607280254364, -0.10172313451766968, 0.18083305656909943, 0.12945005297660828, 0.15089577436447144, -0.15752311050891876, 0.051826104521751404, 0.04851885885000229, -0.008093535900115967, 0.01652223989367485, -0.033155374228954315, -0.2029053419828415, -0.022570466622710228, -0.005921633448451757, -0.2186792939901352, 0.01390940323472023, 0.047892648726701736, -0.05081221088767052, -0.10842116922140121, 0.12095774710178375, 0.0836392194032669, -0.1273583024740219, -0.188389390707016], [-0.014428731985390186, 0.19324669241905212, -0.1514398157596588, 0.026052387431263924, 0.2026461660861969, 0.10753201693296432, 0.15292909741401672, -0.16786408424377441, -0.11613170802593231, 0.024440784007310867, -0.03929919749498367, 0.19135673344135284, -0.044098369777202606, -0.05946173891425133, -0.018254943192005157, 0.2398059070110321, 0.03000681847333908, 0.14184190332889557, -0.2336156666278839, 0.1760873794555664, 0.26587989926338196, 0.023207303136587143, 0.06884387135505676, 0.004171842709183693, 0.21080151200294495, -0.003689018078148365, -0.11714322865009308, -0.033622484654188156], [-0.14591042697429657, 0.022379761561751366, 0.027572451159358025, 0.10565068572759628, 0.24295805394649506, 0.07419952005147934, -0.17193284630775452, -0.1597447544336319, -0.0676468014717102, 0.022193431854248047, -0.1778869777917862, -0.07712522149085999, 0.009974876418709755, 0.026684386655688286, -0.07341521233320236, 0.2757147550582886, 0.20077544450759888, -0.09169930219650269, -0.17198827862739563, -0.057463034987449646, 0.08086630702018738, 0.008775779977440834, 0.13480941951274872, 0.07458283752202988, 0.0347365066409111, -0.21023714542388916, 0.08230938017368317, 0.14278927445411682], [-0.16457994282245636, 0.1560935378074646, 0.0025721911806613207, 0.23315462470054626, 0.21356706321239471, -0.12015677243471146, 0.13886815309524536, -0.021192658692598343, -0.11208885163068771, 0.15317191183567047, 0.06245626509189606, -0.1349737048149109, 0.04941239580512047, -0.14136917889118195, -0.20570313930511475, -0.06766068935394287, 0.1871289759874344, 0.03206322342157364, -0.24508222937583923, -0.07672155648469925, 0.1327325701713562, -0.13997451961040497, 0.1007443368434906, -0.09810008108615875, 0.18671302497386932, -0.18310044705867767, -0.09888020902872086, -0.10195387899875641], [-0.13361921906471252, 0.16682302951812744, -0.15824434161186218, 0.05574842542409897, 0.11677457392215729, 0.058228157460689545, 0.10662248730659485, -0.28284141421318054, -0.04575364664196968, -0.1225569024682045, -0.11367474496364594, 0.16926689445972443, -0.23359622061252594, 0.0003564539074432105, -0.09405326843261719, 0.011829648166894913, 0.05472434312105179, 0.08378008008003235, -0.14650745689868927, 0.10259933769702911, -0.1260971873998642, 0.10911957174539566, 0.0009318700758740306, 0.15094253420829773, -0.039290860295295715, -0.109848752617836, 0.20547769963741302, 0.16663838922977448], [-0.18409167230129242, 0.2512677311897278, -0.07204354554414749, 0.0784321203827858, 0.1816292554140091, 0.23998095095157623, 0.10867790877819061, -0.018247993662953377, -0.22984565794467926, 0.17745321989059448, -0.21515920758247375, 0.07431712001562119, -0.3076476752758026, 0.16255591809749603, -0.15219776332378387, 0.20982015132904053, 0.220611572265625, 0.11776452511548996, -0.2699486017227173, 0.16178783774375916, 0.12421330064535141, -0.02548285759985447, -0.018028922379016876, 0.207453653216362, -0.06066025793552399, -0.20122797787189484, -0.015754137188196182, 0.014959441497921944], [-0.3360055983066559, 0.17139118909835815, -0.08390367776155472, -0.009948006831109524, -0.05433029308915138, 0.21277233958244324, -0.20624950528144836, -0.2861630916595459, -0.18045611679553986, 0.12276197969913483, -0.04056060314178467, 0.08791010081768036, -0.19826920330524445, 0.0866331085562706, -0.2784726917743683, -0.0012767550069838762, 0.032696086913347244, 0.11366815119981766, -0.19120308756828308, -0.09662876278162003, 0.2523830831050873, 0.12028555572032928, 0.237110897898674, 0.0088038993999362, -0.062357183545827866, -0.24429278075695038, -0.05271780118346214, 0.07048283517360687]], "critic.network.4.bias": [0.3155936598777771, -0.031189274042844772, 0.14252923429012299, -0.12780830264091492, 0.1860506385564804, -0.18677493929862976, 0.32195332646369934, 0.06304831057786942, 0.0004616975784301758, -0.0509503073990345, -0.03319866955280304, 0.2712958753108978, 0.10917496681213379, 0.042505573481321335, 0.20441754162311554, -0.10019703209400177, -0.20729121565818787, -0.05254332721233368, 0.30241039395332336, 0.02756546065211296, 0.10894007980823517, 0.06235422194004059, 0.1820163130760193, 0.03311135992407799, 0.0158840399235487, 0.1145331859588623, 0.22034482657909393, 0.19213716685771942], "critic.network.6.weight": [[0.15339651703834534, 0.1600780040025711, 0.2179436981678009, -0.06360121071338654, 0.10409027338027954, 0.12135204672813416, 0.1635430008172989, -0.12972697615623474, -0.0054806917905807495, -0.08417309820652008, -0.11539413034915924, 0.22020936012268066, 0.1411973536014557, -0.12035363912582397, 0.23075230419635773, -0.19364719092845917, -0.12421724200248718, -0.037856921553611755, 0.16154876351356506, -0.13922631740570068, 0.18074482679367065, 0.0002242523623863235, 0.2352469265460968, 0.18527089059352875, 0.17113304138183594, 0.11420348286628723, 0.1460237056016922, 0.28370052576065063]], "critic.network.6.bias": [-0.04646524414420128]}