{"actor.network.0.weight": [[-0.08450890332460403, -0.23442810773849487, -0.015627475455403328, -0.46378445625305176], [0.14987468719482422, 0.26758453249931335, -0.5960643887519836, -0.30117684602737427], [0.04071933031082153, -0.011947114020586014, -0.38987717032432556, 0.46426501870155334], [0.443540096282959, -0.03611500561237335, 0.3388567864894867, 0.32105913758277893], [-0.390624463558197, 0.2030654400587082, 0.6530829668045044, 0.6461966037750244], [0.3345290422439575, -0.326092004776001, 0.01689036376774311, -0.5648293495178223], [-0.1247527003288269, 0.1900399625301361, -0.22526635229587555, -0.24246971309185028], [-0.1417381912469864, 0.047521088272333145, -0.38463279604911804, -0.22686748206615448], [-0.4073949158191681, -0.30304357409477234, -0.18879017233848572, 0.22642911970615387], [0.431113600730896, 0.49845221638679504, 0.0010056024184450507, -0.17037998139858246], [0.4037013351917267, -0.06332582980394363, 0.23603062331676483, -0.511873185634613], [0.06319897621870041, 0.16120745241641998, 0.30986201763153076, 0.6535573601722717], [-0.4761272668838501, -0.0553094744682312, -0.004578073509037495, -0.004115250892937183], [-0.17271079123020172, 0.09080102294683456, -0.08251624554395676, -0.41922247409820557], [0.09196172654628754, -0.3441691994667053, 0.6070168018341064, 0.07492136210203171], [-0.19215132296085358, 0.28231215476989746, 0.32086867094039917, 0.6318840980529785], [-0.08196257799863815, -0.10745071619749069, -0.27618408203125, -0.45640072226524353], [0.4510221481323242, -0.03438049554824829, -0.38620641827583313, -0.4070446193218231], [-0.4305221140384674, -0.43068525195121765, 0.3762649893760681, -0.48280683159828186], [0.15987056493759155, 0.07218923419713974, -0.3014189600944519, -0.26816225051879883], [-0.354939341545105, -0.35143035650253296, -0.3525240421295166, 0.20839104056358337], [0.058166418224573135, 0.2846681773662567, 0.4862804412841797, 0.567422091960907], [0.38934797048568726, -0.2597132921218872, -0.320984423160553, -0.5597820281982422], [-0.002412462141364813, 0.0801524817943573, -0.2881174385547638, -0.43402156233787537], [0.13568967580795288, 0.2529214024543762, -0.20963963866233826, 0.36378008127212524], [0.3696635067462921, 0.21454347670078278, -0.11505749076604843, -0.27372023463249207], [0.019672313705086708, -0.04760783910751343, -0.002900654450058937, 0.6187177300453186], [0.042858753353357315, -0.18997158110141754, -0.3868218958377838, -0.4402952194213867]], "actor.network.0.bias": [0.20524951815605164, 0.05753292143344879, -0.20657488703727722, -0.5108023881912231, 0.41110947728157043, 0.14820948243141174, 0.34512558579444885, 0.10325166583061218, -0.39679986238479614, 0.5362416505813599, 0.17237773537635803, 0.4967160224914551, -0.3864663541316986, 0.169671431183815, 0.5560003519058228, 0.13001106679439545, 0.10223408043384552, -0.4373684525489807, 0.27640625834465027, 0.35604962706565857, 0.10326682031154633, 0.1504819393157959, 0.3264541029930115, -0.2806911766529083, -0.4680849611759186, -0.11354031413793564, 0.153990238904953, 0.1739165186882019], "actor.network.2.weight": [[-0.03190804272890091, 0.13594506680965424, -0.021451251581311226, 0.10719818621873856, 0.1966128796339035, -0.24566060304641724, -0.030282218009233475, -0.24974319338798523, 0.14202801883220673, 0.08984728902578354, -0.19123709201812744, 0.25271138548851013, -0.028787657618522644, -0.1761179119348526, 0.23408243060112, 0.16860456764698029, 0.10245015472173691, 0.1301465779542923, 0.00478739757090807, 0.034283943474292755, 0.03562476858496666, 0.10190539807081223, 0.11249940097332001, -0.19216234982013702, -0.15095195174217224, -0.15528610348701477, 0.12635430693626404, -0.07262158393859863], [-0.08140864968299866, -0.17376573383808136, -0.1462186574935913, 0.036160752177238464, -0.09725190699100494, 0.007959723472595215, 0.15232975780963898, 0.17214266955852509, 0.009508058428764343, 0.08939076960086823, -0.02560882270336151, -0.09984146058559418, -0.1739288717508316, 0.12060700356960297, -0.015930920839309692, 0.1044863611459732, -0.14841005206108093, 0.0836130827665329, -0.0997498631477356, -0.17905667424201965, -0.04960040748119354, 0.11209897696971893, 0.10224021971225739, 0.06586818397045135, 0.14256568253040314, -0.13136032223701477, 0.0017535388469696045, -0.08015900105237961], [0.028484389185905457, -0.12163657695055008, 0.03300219774246216, -0.12028858810663223, -0.07567509263753891, -0.05882558226585388, -0.014164194464683533, -0.03734143078327179, 0.040946558117866516, -0.10609857738018036, -0.16984876990318298, -0.0357951819896698, -0.1762000471353531, -0.13486477732658386, -0.13826504349708557, 0.18286611139774323, 0.08339907228946686, 0.05979806184768677, -0.12145999819040298, -0.0022489726543426514, -0.15324106812477112, -0.05366981029510498, -0.08359282463788986, -0.0985298827290535, 0.018916726112365723, -0.043349042534828186, -0.10192257165908813, -0.04160664975643158], [0.1095770075917244, 0.09830432385206223, -0.13257484138011932, 0.07888656854629517, -0.2586314082145691, -0.007360653020441532, -0.09545710682868958, 0.17011690139770508, -0.12158263474702835, -0.06612773984670639, 0.19078247249126434, -0.07461706548929214, 0.2042936086654663, 0.2186199128627777, -0.04023594781756401, -0.2866988778114319, 0.153648242354393, 0.13510365784168243, 0.11553385108709335, 0.041087619960308075, -0.05998775362968445, -0.17169791460037231, 0.0934004858136177, 0.11907334625720978, 0.1554827094078064, 0.040055036544799805, 0.013043762184679508, 0.19711899757385254], [-0.055297985672950745, -0.06272804737091064, 0.06590168178081512, 0.047113701701164246, 0.05597145855426788, -0.15783625841140747, -0.024716168642044067, -0.030218809843063354, 0.0251905620098114, -0.05798250436782837, -0.050846368074417114, 0.1719207912683487, 0.08122338354587555, 0.12857948243618011, -0.07007310539484024, -0.09577014297246933, 0.0034753233194351196, 0.07777921855449677, -0.0005702674388885498, 0.10136239230632782, 0.03323769569396973, 0.03288199007511139, 0.05054923892021179, -0.07076903432607651, -0.11159849166870117, -0.11678160727024078, -0.1541958749294281, -0.07269329577684402], [-0.08966457843780518, 0.1331792175769806, -0.04495047405362129, 0.002583704423159361, 0.018238866701722145, -0.1333443522453308, 0.17601925134658813, 0.2096581757068634, -0.17967228591442108, 0.031063880771398544, 0.1176738515496254, -0.1727542281150818, -0.11261310428380966, 0.08339698612689972, -0.02286584861576557, 0.021282842382788658, -0.040147971361875534, -0.14234256744384766, 0.045832179486751556, -0.15655195713043213, -0.194175586104393, -0.21988297998905182, 0.091703861951828, 0.017619002610445023, -0.009138130582869053, 0.1061953753232956, -0.03780338168144226, 0.022968845441937447], [-0.1545936018228531, -0.009374633431434631, 0.012830398976802826, -0.08213554322719574, 0.1029147356748581, 0.0840456411242485, 0.08109168708324432, -0.19129134714603424, 0.1361577808856964, 0.02808673493564129, 0.016620934009552002, -0.04522954672574997, -0.11697956919670105, 0.03743138164281845, 0.024541908875107765, -0.11567530035972595, 0.004424582235515118, -0.04743994399905205, 0.06088017672300339, 0.13834595680236816, -0.07433511316776276, 0.16689181327819824, -0.04806274175643921, 0.025071874260902405, -0.08940286934375763, -0.13864657282829285, -0.042577069252729416, 0.0463697612285614], [0.09324219077825546, 0.08722403645515442, -0.04273565113544464, 0.01645204983651638, -0.1451224684715271, 0.17624500393867493, 0.030599894002079964, 0.294055312871933, 0.06160714849829674, 0.07946549355983734, 0.19344472885131836, -0.03685319423675537, -0.01615905947983265, 0.19723668694496155, 0.07084981352090836, -0.2709547281265259, 0.02850871905684471, -0.006712272297590971, -0.026400761678814888, -0.13197635114192963, 0.030035963281989098, -0.016594206914305687, 0.26157233119010925, -0.03253191336989403, 0.1678454577922821, -0.1539599597454071, -0.18654072284698486, 0.25763139128685], [0.10055089741945267, 0.020261257886886597, -0.024431580677628517, -0.04530496522784233, -0.22007249295711517, 0.07496462762355804, -0.09456486254930496, -0.027686122804880142, -0.03328404948115349, -0.056855328381061554, 0.1589561551809311, 0.04422904923558235, -0.07057486474514008, 0.08874259889125824, 0.2003224790096283, -0.1452515423297882, 0.11563770473003387, 0.1657567322254181, 0.14752767980098724, 0.1340750753879547, 0.12891885638237, -0.12226890027523041, 0.2046494334936142, -0.14628519117832184, -0.10054996609687805, -0.09880320727825165, 0.08583081513643265, 0.2400168478488922], [-0.11534176766872406, -0.04494283348321915, -0.1319197416305542, -0.04933095723390579, 0.029205307364463806, -0.11541485041379929, -0.013088051229715347, -0.1505732536315918, -0.15093454718589783, 0.17365773022174835, 0.027895595878362656, 0.30488041043281555, -0.08737801760435104, -0.05294797569513321, 0.2546936869621277, 0.18822625279426575, 0.08779650181531906, -0.11111689358949661, 0.06546860188245773, 0.14051204919815063, 0.23449893295764923, 0.28932303190231323, -0.04268205910921097, -0.02508758008480072, 0.024142049252986908, -0.039941564202308655, 0.032035354524850845, 0.031034350395202637], [0.07987548410892487, -0.194894477725029, 0.035787537693977356, -0.07880928367376328, 0.13680122792720795, -0.2124997228384018, -0.17489340901374817, -0.0720914900302887, -0.016784438863396645, 0.0838964506983757, -0.06405625492334366, -0.02724597416818142, -0.1969892829656601, 0.06992097944021225, -0.047411199659109116, 0.03612387180328369, -0.10681002587080002, -0.05972006916999817, 0.16641376912593842, 0.04071848839521408, 0.08844729512929916, 0.0618283748626709, -0.1406581848859787, -0.07132674753665924, 0.013272596523165703, -0.10373896360397339, 0.04215891286730766, -0.09613588452339172], [-0.024355273693799973, 0.002412487054243684, -0.14275968074798584, 0.12025899440050125, -0.20850566029548645, 0.32320526242256165, 0.04038674756884575, 0.2078269124031067, -0.07165733724832535, 0.24385669827461243, 0.12800486385822296, -0.23285149037837982, -0.16543631255626678, -0.017757423222064972, 0.054836027324199677, -0.3262970447540283, 0.0828576385974884, 0.20281599462032318, 0.25102588534355164, 0.09424610435962677, 0.041476476937532425, -0.13910157978534698, -0.04546665772795677, 0.13936109840869904, -0.1314382404088974, 0.16478122770786285, 0.0074007813818752766, 0.0938277319073677], [-0.10794509947299957, -0.1843588948249817, 0.009548112750053406, 0.14387907087802887, -0.17995664477348328, -0.10402107238769531, 0.10233666002750397, 0.04500648379325867, 0.07411931455135345, -0.09304364025592804, 0.056934431195259094, -0.06225058436393738, -0.03588663041591644, -0.0652511864900589, 0.09570114314556122, -0.17412588000297546, -0.15811312198638916, 0.14033405482769012, 0.022920727729797363, 0.039618462324142456, -0.07656127214431763, 0.0895681232213974, -0.09283903986215591, 0.15395726263523102, -0.026334956288337708, 0.07744942605495453, -0.0972752720117569, 0.042373284697532654], [0.0546632781624794, 0.1346895396709442, 0.057691290974617004, -0.031143879517912865, -0.028711216524243355, -0.005762955639511347, 0.2880358099937439, 0.14781777560710907, -0.017018916085362434, -0.0810369998216629, 0.057264067232608795, -0.029614625498652458, 0.06250067055225372, 0.13391320407390594, 0.2774260640144348, 0.022045986726880074, -0.09457314759492874, 0.12276436388492584, 0.05935103818774223, 0.02188415639102459, 0.17304298281669617, 0.06325893104076385, 0.212190642952919, -0.09601794928312302, 0.15662875771522522, 0.1360802948474884, 0.12017244845628738, -0.06464923173189163], [-0.1674460470676422, -0.15690501034259796, 0.14204737544059753, 0.010741209611296654, 0.13175976276397705, 0.10901319980621338, 0.10392923653125763, 0.033446453511714935, 0.07514018565416336, -0.07672534137964249, -0.15588170289993286, -0.16957852244377136, -0.06519397348165512, 0.024310074746608734, -0.0434596873819828, -0.1646893322467804, 0.031236305832862854, 0.18013359606266022, 0.04084278270602226, 0.038929153233766556, 0.07976828515529633, -0.042464323341846466, 0.09546349942684174, 0.1324068009853363, 0.057752206921577454, 0.03724254295229912, 0.09071768820285797, -0.10809732973575592], [-0.04966553673148155, 0.1861119270324707, -0.0010832418920472264, -0.07551608979701996, 0.211798757314682, -0.2666909396648407, -0.02588370069861412, 0.04584342613816261, 0.11909063905477524, 0.06663945317268372, 0.2126396894454956, 0.11352947354316711, -0.034861668944358826, -0.21231265366077423, -0.07867736369371414, 0.003888910636305809, 0.0660121813416481, -0.14054803550243378, 0.07675834745168686, 0.00031637141364626586, 0.10758087784051895, 0.16877858340740204, -0.036260489374399185, -0.038519565016031265, -0.04256431758403778, 0.2081698179244995, 0.2074929177761078, -0.16314080357551575], [0.03158362954854965, 0.16282740235328674, 0.04391809180378914, 0.14852000772953033, -0.08604861050844193, 0.34339189529418945, 0.2745707333087921, 0.12651695311069489, 0.08412650227546692, -0.06602858752012253, 0.20933392643928528, 0.061789385974407196, 0.10685810446739197, 0.21882502734661102, -0.15357078611850739, -0.03976542502641678, 0.0652579590678215, -0.052993305027484894, 0.26750221848487854, 0.06422097235918045, 0.11488556861877441, -0.2021225541830063, 0.25504636764526367, -0.08105660229921341, -0.09195086359977722, 0.1916189342737198, -0.1458686739206314, 0.24461592733860016], [0.03784025460481644, 0.0019150720909237862, 0.07124465703964233, 0.1106332391500473, -0.0017224005423486233, -0.035084035247564316, 0.009854115545749664, 0.08218933641910553, 0.08675247430801392, 0.09012386947870255, -0.07427704334259033, -0.1896592080593109, -0.014821011573076248, -0.012147247791290283, 0.05753985047340393, -0.1613328456878662, -0.00733585050329566, -0.10170925408601761, 0.2381991297006607, 0.10576789826154709, 0.13937562704086304, 0.019597455859184265, 0.24919913709163666, 0.1315927654504776, -0.04316810891032219, 0.07263491302728653, -0.1573367863893509, 0.20127925276756287], [-0.18922358751296997, -0.16640928387641907, -0.1001981794834137, -0.10009506344795227, -0.13788217306137085, 0.11194541305303574, 0.016075892373919487, 0.08862447738647461, -0.09271032363176346, -0.1734956055879593, 0.14243048429489136, 0.1394043117761612, 0.06039724126458168, 0.10002359002828598, 0.05469942092895508, -0.18253093957901, 0.11568505316972733, 0.17620202898979187, 0.1641729176044464, -0.13865888118743896, -0.1460021585226059, 0.15590418875217438, 0.06586173921823502, 0.11765790730714798, -0.04218187928199768, -0.06888981908559799, -0.12846095860004425, -0.14639997482299805], [0.22076570987701416, 0.037394676357507706, -0.17230825126171112, -0.08862819522619247, -0.2642471194267273, 0.2736520767211914, 0.1410328596830368, 0.2723201811313629, 0.03184925764799118, 0.04268389195203781, -0.16040177643299103, -0.07057356834411621, 0.17186474800109863, 0.054219264537096024, -0.09310548007488251, -0.28395509719848633, 0.1515320986509323, -0.007406176999211311, 0.09879716485738754, 0.10686831176280975, 0.040863584727048874, -0.15854527056217194, 0.24198144674301147, 0.06330159306526184, 0.13271762430667877, -0.11480841040611267, 0.006407599430531263, 0.02876558154821396], [0.15563426911830902, -0.01857241429388523, 0.1938418447971344, 0.15383610129356384, 0.0800611674785614, -0.026004889979958534, -0.14167280495166779, -0.02995210513472557, 0.06301464885473251, 0.18541428446769714, 0.0328826941549778, -0.008452021516859531, 0.15882788598537445, -0.03209222853183746, -0.0032132172491401434, 0.21151500940322876, 0.10576975345611572, -0.18850478529930115, -0.012302986346185207, -0.16637073457241058, 0.058412209153175354, 0.1527823954820633, 0.032785773277282715, 0.029908886179327965, 0.09307887405157089, 0.03654426336288452, 0.12557002902030945, 0.16302375495433807], [0.186415895819664, 0.003908946178853512, 0.1426818072795868, 0.1855996698141098, -0.19476771354675293, -0.0018927189521491528, 0.1379547417163849, -0.1438969224691391, -0.12350204586982727, -0.14440080523490906, 0.10915858298540115, -0.1419115513563156, -0.0012126315850764513, -0.12393338978290558, 0.0430971123278141, 0.014809003099799156, -0.15239299833774567, -0.12457254528999329, 0.05565394461154938, -0.1581503450870514, -0.009965747594833374, -0.10185734927654266, 0.11247427016496658, 0.07103343307971954, 0.10865069925785065, -0.054625704884529114, 0.011135379783809185, -0.06539256870746613], [0.2629029154777527, 0.07130113989114761, -0.1374773234128952, -0.10169068723917007, -0.1458788365125656, 0.0187026709318161, 0.02802707627415657, 0.019004877656698227, -0.04683849588036537, -0.10101587325334549, 0.1718241423368454, -0.01677529886364937, 0.07842282205820084, 0.13902728259563446, -0.05836053565144539, -0.05059508979320526, -0.023375310003757477, 0.15311473608016968, 0.17869840562343597, 0.056727297604084015, -0.15946438908576965, -0.16571952402591705, 0.19898760318756104, 0.14000281691551208, 0.04566311836242676, 0.17880047857761383, -0.27703335881233215, -0.008646628819406033], [-0.19593185186386108, -0.11543989926576614, -0.10241741687059402, 0.06967142224311829, 0.1167754977941513, -0.08197309076786041, 0.05525356903672218, -0.11619763821363449, 0.06745196133852005, 0.04404379427433014, 0.2207917422056198, 0.2770806550979614, 0.16205503046512604, 0.1349503993988037, 0.18282346427440643, 0.27973321080207825, -0.2935119569301605, -0.008870409801602364, -0.0045826430432498455, 0.08425909280776978, 0.20070099830627441, 0.2423834651708603, -0.1401374638080597, -0.1563778668642044, -0.06885120272636414, -0.003156238002702594, -0.029904764145612717, -0.3420432507991791], [-0.05322201922535896, 0.041704483330249786, 0.14889730513095856, -0.0973709374666214, 0.31299492716789246, -0.3420409560203552, -0.03680891916155815, 0.032347485423088074, 0.04791112244129181, 0.14798004925251007, 0.012738124467432499, 0.19959519803524017, 0.026516489684581757, -0.25622138381004333, 0.10247703641653061, 0.08713806420564651, -0.05228341743350029, 0.00986417941749096, -0.10722295194864273, 0.04253189638257027, 0.02196982130408287, 0.333746075630188, -0.2130621373653412, -0.13242873549461365, 0.17269758880138397, 0.026999538764357567, 0.25840964913368225, -0.19056309759616852], [-0.13939884305000305, -0.08813848346471786, -0.027589477598667145, -0.13516750931739807, 0.39216136932373047, -0.43001189827919006, -0.014335116371512413, -0.24387820065021515, 0.13678330183029175, 0.24730229377746582, -0.13112255930900574, 0.2684086561203003, 0.10891984403133392, -0.29255425930023193, 0.26507481932640076, 0.2648831307888031, -0.37506765127182007, -0.07215338200330734, 0.07761123776435852, -0.09534134715795517, -0.0395587794482708, 0.2789711654186249, -0.12490002810955048, -0.14386874437332153, -0.18130527436733246, -0.06796310842037201, 0.29096749424934387, -0.3330592215061188], [0.015953537076711655, 0.12279018759727478, -0.08554471284151077, 0.09962303936481476, -0.08620496839284897, 0.2526683807373047, 0.12797003984451294, 0.003046979894861579, -0.1495274007320404, 0.16430522501468658, 0.1564287692308426, -0.029033957049250603, -0.06964778900146484, 0.0033038719557225704, -0.05102873966097832, -0.25209057331085205, 0.0735483318567276, -0.15860699117183685, 0.13065071403980255, 0.0178318303078413, 0.1626809686422348, -0.09138669818639755, -0.10103534162044525, 0.18069912493228912, -0.0721694678068161, 0.015519822016358376, -0.22366352379322052, 0.24503232538700104], [-0.13708312809467316, 0.12582124769687653, 0.009082093834877014, 0.16172648966312408, 0.09480513632297516, -0.1478361338376999, -0.16717088222503662, 0.11711682379245758, 0.06305326521396637, -0.01728251576423645, 0.1872992366552353, -0.07651912420988083, 0.013953477144241333, -0.08491633087396622, -0.03002452850341797, -0.12229055911302567, -0.0023254305124282837, -0.09065418690443039, -0.0803392231464386, -0.17928871512413025, 0.09561513364315033, -0.14784154295921326, 0.17581935226917267, -0.02602207660675049, -0.1630949229001999, -0.12181738764047623, 0.09849272668361664, 0.08317972719669342]], "actor.network.2.bias": [0.05035734549164772, -0.039365917444229126, -0.14684434235095978, 0.1771702766418457, -0.1738024801015854, 0.07096213847398758, -0.16606369614601135, 0.062320590019226074, -0.09396470338106155, 0.08298291265964508, -0.03982609882950783, 0.19205817580223083, 0.006080508232116699, 0.31996241211891174, -0.1295863538980484, -0.031238004565238953, 0.002170187421143055, 0.17612722516059875, -0.051789697259664536, 0.09469016641378403, 0.07806015014648438, 0.03790488839149475, 0.13806097209453583, -0.06014573574066162, 0.10619471967220306, 0.17701658606529236, -0.02161504700779915, -0.18507863581180573], "actor.network.4.weight": [[-0.06914769113063812, -0.1302305907011032, 0.10861758887767792, 0.1648367941379547, -0.18748939037322998, -0.15579868853092194, -0.05808132514357567, -0.05716047063469887, -0.07933133840560913, -0.12376458942890167, -0.1301049292087555, 0.20194636285305023, -0.0406661331653595, 0.07983788847923279, 0.07586276531219482, -0.12321095913648605, 0.10558158159255981, 0.12543971836566925, 0.07732368260622025, 0.2256096452474594, 0.1662857085466385, 0.15305793285369873, 0.04065416008234024, -0.08955181390047073, -0.1289866417646408, -0.14741501212120056, 0.1800798922777176, 0.17261837422847748], [-0.1528584510087967, -0.13610276579856873, -0.11855261772871017, 0.03586721792817116, 0.012029007077217102, 0.24306021630764008, -0.050842128694057465, 0.1262367218732834, -0.03172577917575836, -0.003603714983910322, 0.02412084862589836, 0.32016521692276, 0.14309684932231903, 0.2211063951253891, 0.14643944799900055, -0.21699734032154083, 0.16116489470005035, 0.18509870767593384, -0.09818193316459656, 0.022937530651688576, 0.09650356322526932, 0.1443958580493927, 0.3011273741722107, -0.05405162274837494, -0.27397507429122925, -0.1659252643585205, -0.07272341847419739, 0.13538791239261627], [0.15241682529449463, 0.05554577708244324, 0.06598882377147675, -0.23521777987480164, -0.054203376173973083, -0.08223876357078552, 0.04228997975587845, 0.061832454055547714, -0.2283809781074524, 0.012748654931783676, 0.19203482568264008, 0.12718401849269867, 0.07184873521327972, 0.13368824124336243, 0.08219530433416367, -0.03607974201440811, -0.02900882251560688, -0.0316307358443737, 0.14040721952915192, -0.3364974856376648, -0.06417202204465866, -0.04366472736001015, 0.10464939475059509, 0.10859151929616928, 0.2801259458065033, 0.20944875478744507, -0.07981003820896149, -0.11245650798082352], [-0.009072409942746162, 0.005641281604766846, -0.12217183411121368, -0.023118972778320312, 0.1426795870065689, 0.1589251607656479, -0.15431369841098785, 0.10342348366975784, 0.051434699445962906, -0.15107393264770508, -0.06978467106819153, -0.0049687218852341175, 0.1648409217596054, -0.06979311257600784, 0.06918183714151382, -0.016303107142448425, 0.12282425165176392, 0.13786929845809937, -0.0556742399930954, -0.17028917372226715, 0.03435559570789337, 0.03613768517971039, -0.15623438358306885, 0.16232995688915253, -0.06947033852338791, -0.18739013373851776, -0.041216880083084106, -0.1463976800441742], [0.03620292991399765, 0.18157751858234406, 0.020421922206878662, 0.1567094326019287, -0.011620759963989258, 0.1116037517786026, -0.06949935108423233, -0.18351788818836212, -0.16635695099830627, 0.010605935007333755, 0.1287393718957901, 0.10905922949314117, 0.11425308883190155, 0.0896233394742012, 0.0589638352394104, -0.14650627970695496, -0.08256909996271133, -0.09420907497406006, 0.18691526353359222, -0.0775551125407219, -0.11344987899065018, -0.13116005063056946, 0.08144987374544144, -0.0363314151763916, 0.14395199716091156, -0.0516623891890049, 0.11659657955169678, 0.15180708467960358], [0.2819957733154297, 0.10485528409481049, -0.008284851908683777, -0.21963627636432648, -0.03401532769203186, 0.10869967937469482, -0.14316049218177795, -0.051307469606399536, -0.16114062070846558, 0.20876580476760864, -0.07940758019685745, 0.08507613092660904, -0.12912942469120026, 0.13618053495883942, -0.07491134852170944, 0.20051471889019012, -0.09843327105045319, 0.13414649665355682, 0.0025409164372831583, -0.2653845548629761, 0.07208359986543655, -0.14246349036693573, -0.10036107152700424, 0.2881469130516052, 0.2736903131008148, 0.31057849526405334, -0.1876375377178192, 0.030231863260269165], [0.09557479619979858, 0.07223056256771088, -0.14748463034629822, 0.11617173999547958, 0.11761541664600372, 0.1973859965801239, -0.049906253814697266, -0.08302415162324905, 0.15935258567333221, 0.022528881207108498, -0.06081175431609154, 0.19838540256023407, 0.08389206230640411, 0.16501377522945404, 0.09496267884969711, -0.22660763561725616, 0.30268195271492004, -0.08114881068468094, 0.015208334662020206, 0.2830031216144562, -0.0214703269302845, -0.08086077123880386, 0.276039719581604, -0.09288924932479858, -0.28929734230041504, -0.09927143156528473, 0.18745845556259155, 0.15517981350421906], [-0.1289001703262329, 0.11225952208042145, -0.11549591273069382, 0.23770609498023987, -0.17975959181785583, -0.07702524214982986, 0.050439588725566864, 0.06095018982887268, 0.10451623052358627, 0.0890030786395073, -0.16855598986148834, 0.25058236718177795, 0.11241693794727325, 0.26390668749809265, -0.17686733603477478, -0.016995806246995926, 0.16450320184230804, 0.08476217091083527, 0.04351859167218208, 0.06975202262401581, -0.062087640166282654, 0.06204685941338539, 0.20853063464164734, -0.07402722537517548, -0.2286740094423294, -0.3026268482208252, 0.23632663488388062, 0.17421717941761017], [-0.01407327875494957, -0.18802984058856964, 0.06749914586544037, -0.08391550183296204, -0.18276900053024292, -0.1831960678100586, 0.025792747735977173, -0.039204325526952744, 0.06575752049684525, -0.15613478422164917, 0.03234519436955452, 0.13022597134113312, 0.1310993880033493, -0.12756723165512085, -0.040345076471567154, 0.002784124808385968, 0.0466354601085186, 0.028927365317940712, 0.024104589596390724, 0.1772819459438324, -0.011323257349431515, -0.1645531803369522, 0.16059966385364532, -0.047921597957611084, -0.1452384740114212, 0.12954135239124298, -0.06673846393823624, 0.042769402265548706], [0.29959410429000854, 0.1305004507303238, 0.007148116827011108, -0.24587394297122955, 0.03292080760002136, -0.07860556244850159, 0.0421007014811039, -0.20639218389987946, -0.2065330296754837, 0.099299356341362, 0.18541741371154785, 0.007829634472727776, -0.09804700314998627, 0.2000485062599182, 0.17570383846759796, 0.21676070988178253, -0.17656327784061432, 0.12095322459936142, 0.06086461618542671, -0.07798418402671814, 0.07664203643798828, 0.13907621800899506, -0.2497207522392273, 0.3118211328983307, 0.12597431242465973, 0.13332237303256989, -0.19360682368278503, 0.07902459800243378], [-0.24760904908180237, 0.17808638513088226, -0.18445786833763123, 0.3127140402793884, -0.02815970778465271, -0.09784959256649017, -0.17482270300388336, 0.13552647829055786, 0.043882817029953, 0.01908823661506176, 0.04584427550435066, 0.12472813576459885, -0.17671529948711395, 0.1387077420949936, -0.16838783025741577, -0.00627526268362999, 0.18997210264205933, 0.11598481237888336, 0.04957393556833267, 0.1881958544254303, 0.023074353113770485, -0.04476623609662056, 0.11660973727703094, -0.11677152663469315, -0.13681194186210632, -0.16142405569553375, 0.017203593626618385, 0.05511893332004547], [-0.15415848791599274, -0.1482754945755005, -0.062368035316467285, 0.09957030415534973, 0.04800669848918915, 0.17659176886081696, 0.048421770334243774, -0.009675011970102787, 0.07628509402275085, -0.07639148086309433, 0.18273557722568512, -0.15161797404289246, 0.027327895164489746, 0.08404162526130676, -0.11631988734006882, -0.07857825607061386, 0.16699761152267456, -0.0019568479619920254, 0.03397573530673981, -0.03195657953619957, 0.06699445098638535, -0.10704148560762405, -0.05138440430164337, 0.05754298344254494, 0.1286722868680954, -0.16376927495002747, -0.13780546188354492, -0.01738765835762024], [0.004629373084753752, -0.007670462131500244, 0.03307978808879852, 0.012065435759723186, -0.06676219403743744, -0.07984379678964615, 0.10172616690397263, -0.036634933203458786, -0.10998386144638062, 0.09419813007116318, 0.07579963654279709, -0.07462473213672638, -0.11318111419677734, -0.10082890093326569, 0.06642615795135498, 0.044803306460380554, -0.1583663821220398, -0.07542801648378372, 0.13466458022594452, 0.1356038898229599, -0.1903645545244217, 0.12412931025028229, -0.1807742565870285, 0.15054894983768463, 0.08072420954704285, -0.10864806920289993, 0.1230604499578476, 0.03493352234363556], [-0.21830658614635468, -0.1188986524939537, -0.033873021602630615, 0.06671211123466492, -0.13422590494155884, -0.09978874027729034, 0.03411845490336418, 0.01114670280367136, 0.20415812730789185, 0.04455619677901268, 0.0809793472290039, 0.18232494592666626, -0.17444628477096558, 0.022739674896001816, 0.19143152236938477, -0.09520753473043442, 0.24669353663921356, 0.08134198188781738, -0.027729777619242668, 0.29204028844833374, 0.10090528428554535, 0.03328564390540123, 0.29406410455703735, 0.06550785899162292, -0.12963736057281494, -0.2528572678565979, -0.025620168074965477, 0.060503438115119934], [-0.14812065660953522, 0.13040052354335785, -0.06806960701942444, -0.1312941163778305, 0.1164531260728836, -0.1537795066833496, 0.06281834840774536, -0.1336948275566101, -0.13683223724365234, 0.058264411985874176, -0.11279518157243729, -0.15486125648021698, 0.16530413925647736, -0.12671472132205963, -0.1870134472846985, -0.11844611912965775, -0.09199642390012741, 0.08452223986387253, -0.16528378427028656, 0.052446506917476654, -0.13047602772712708, -0.1621742695569992, -0.05063174292445183, 0.10510092228651047, -0.1549079716205597, 0.12194880843162537, -0.1871732473373413, 0.14640991389751434], [0.10832665860652924, 0.08595825731754303, 0.04775203764438629, 0.03327566757798195, 0.020331650972366333, 0.0652327761054039, 0.174419105052948, 0.22863581776618958, 0.04276569187641144, 0.09373374283313751, 0.023516938090324402, 0.008002308197319508, -0.032358989119529724, 0.03785250335931778, -0.10189955681562424, -0.06415905058383942, 0.28178778290748596, 0.09955773502588272, -0.1158486008644104, 0.09857667237520218, 0.15146920084953308, 0.16602014005184174, -0.004756934009492397, 0.029534591361880302, -0.02386581525206566, -0.2660396099090576, -0.026765264570713043, -0.11674617230892181], [0.06711934506893158, 0.007147058844566345, -0.1322087198495865, -0.05852063000202179, -0.11119482666254044, 0.023181157186627388, 0.1546269953250885, -0.0711740031838417, -0.11312369257211685, 0.2879162132740021, -0.06758776307106018, -0.11923066526651382, 0.17054305970668793, 0.05282720550894737, -0.1565171778202057, 0.03706547990441322, 0.023859532549977303, 0.03959932178258896, 0.09423696994781494, -0.0839829072356224, -0.04653804004192352, 0.17282924056053162, -0.07724685966968536, 0.20837436616420746, 0.2636582851409912, 0.31354644894599915, -0.130140483379364, -0.02726346254348755], [0.15088440477848053, 0.08543600142002106, 0.13373719155788422, -0.03396143391728401, -0.15796521306037903, -0.09330610185861588, -0.07788558304309845, -0.17038774490356445, -0.09311781078577042, -0.17039667069911957, 0.1392902433872223, 0.0497484914958477, 0.15187601745128632, -0.0717754140496254, 0.17349383234977722, 0.06063396483659744, 0.2014734447002411, 0.13795912265777588, -0.11092007905244827, 0.08945906907320023, -0.0019853124395012856, 0.01957104355096817, -0.03964145481586456, 0.08906732499599457, 0.018729928880929947, 0.0714944526553154, -0.11082615703344345, 0.16540469229221344], [-0.09308423101902008, 0.03237201273441315, 0.012783780694007874, -0.05388602986931801, -0.17090043425559998, 0.00992808397859335, 0.07609321922063828, -0.10436677932739258, 0.15161173045635223, -0.023179182782769203, 0.10806291550397873, 0.16627395153045654, -0.11222009360790253, -0.12745124101638794, 0.009323573671281338, 0.19498524069786072, -0.05910107120871544, 0.013227773830294609, 0.09487178176641464, 0.020154427736997604, -0.08120974898338318, 0.02481892704963684, -0.04282892495393753, 0.17080649733543396, 0.0030359153170138597, 0.09636951237916946, 0.07365912944078445, -0.007881104946136475], [-0.023656239733099937, -0.05943262577056885, -0.039137616753578186, -0.21830977499485016, -0.01886308193206787, 0.15141534805297852, -0.1822524070739746, -0.1607864946126938, 0.029969949275255203, 0.12432242929935455, 0.09256210178136826, -0.14374907314777374, 0.13437260687351227, 0.24250741302967072, 0.08829605579376221, 0.18532127141952515, 0.15581713616847992, -0.11735989898443222, 0.08851084113121033, -0.148997962474823, 0.22306615114212036, 0.16778838634490967, -0.20468512177467346, 0.09276171773672104, 0.009344683960080147, 0.3727256953716278, 0.017017889767885208, 0.03845192492008209], [-0.07445061951875687, -0.11405453830957413, -0.13452568650245667, -0.18372265994548798, -0.05565774440765381, 0.045464348047971725, -0.08152089267969131, -0.13913486897945404, -0.10028167068958282, -0.07103173434734344, -0.11709930747747421, 0.03596724569797516, -0.09161565452814102, 0.003165861824527383, 0.1030295118689537, -0.08388470858335495, -0.16269934177398682, 0.16436414420604706, -0.11787360906600952, 0.009107640944421291, 0.16849742829799652, -0.1537426859140396, -0.14270591735839844, 0.05444882810115814, 0.04327432066202164, -0.10443546622991562, 0.013520362786948681, -0.10273661464452744], [0.3141138255596161, 0.17574773728847504, -0.15740907192230225, -0.21211457252502441, -0.05841274559497833, 0.12958618998527527, 0.09178326278924942, 0.0056577930226922035, -0.24685393273830414, 0.006807186175137758, -0.0023293239064514637, -0.11003009229898453, 0.05677454173564911, 0.19611656665802002, -0.07290393114089966, 0.1710546463727951, 0.06690674275159836, -0.006695315707474947, -0.07856889069080353, -0.3435169458389282, 0.0061310227029025555, 0.11823428422212601, -0.1412508338689804, 0.04234259948134422, 0.2727084755897522, 0.3697403073310852, -0.18639503419399261, 0.009002521634101868], [0.016470959410071373, 0.017213240265846252, -0.027782991528511047, 0.27338045835494995, -0.018823251128196716, 0.12497960776090622, -0.09404849261045456, 0.057995956391096115, 0.13116873800754547, -0.06668155640363693, 0.12355448305606842, 0.15504255890846252, 0.09847904741764069, 0.15187910199165344, -0.17695747315883636, -0.11554235219955444, 0.29914361238479614, 0.1279171109199524, 0.0941314548254013, 0.16057440638542175, 0.09834299236536026, 0.16056978702545166, -0.014715551398694515, -0.27526164054870605, -0.11374175548553467, -0.10967753082513809, 0.1674296110868454, 0.11017511785030365], [-0.1399868130683899, -0.03811933100223541, -0.022289201617240906, 0.08691690117120743, 0.14126913249492645, -0.02560102753341198, 0.0943707525730133, -0.11346101015806198, 0.1444888859987259, 0.08018352836370468, -0.029688000679016113, 0.11181215941905975, 0.047678038477897644, -0.10108450055122375, 0.08970099687576294, -0.14477446675300598, -0.18135948479175568, 0.053133126348257065, -0.06915115565061569, -0.19020876288414001, -0.05790620297193527, 0.07370041310787201, 0.009188740514218807, 0.12299329787492752, 0.07773438096046448, -0.03427107632160187, 0.15293490886688232, 0.02061198651790619], [0.13489669561386108, 0.14551801979541779, 0.06891204416751862, 0.10915794223546982, 0.05760832130908966, -0.0455893948674202, 0.08504943549633026, 0.0296892412006855, 0.0892057791352272, -0.07171669602394104, 0.03351407125592232, 0.08912725746631622, 0.1611318737268448, 0.14875860512256622, -0.17591728270053864, -0.15134690701961517, 0.24437279999256134, 0.20952153205871582, -0.041659172624349594, 0.023520268499851227, 0.06353998929262161, 0.037209752947092056, 0.027633974328637123, -0.1737372875213623, -0.1778627187013626, -0.2903081178665161, 0.19271473586559296, 0.0924757868051529], [0.12837722897529602, -0.07681775838136673, 0.014385223388671875, -0.06340960413217545, -0.027447789907455444, -0.1709916889667511, 0.05463883653283119, -0.09510919451713562, -0.13686040043830872, 0.24621018767356873, 0.008925278671085835, 0.03912397101521492, 0.036691442131996155, 0.09730362147092819, -0.15441249310970306, 0.24084098637104034, -0.07995259761810303, -0.1455148458480835, -0.1943022459745407, -0.04027971625328064, 0.19010426104068756, 0.07174418121576309, -0.2612585127353668, 0.12326080352067947, 0.14683187007904053, 0.12145853042602539, -0.19328878819942474, 0.08862410485744476], [0.07979018241167068, -0.04406028985977173, -0.10322915762662888, 0.09546718001365662, -0.08467502892017365, -0.0913071557879448, 0.18245795369148254, 0.13063840568065643, -0.09847013652324677, -0.0758652612566948, -0.03883622586727142, -0.07031507790088654, -0.07399850338697433, 0.05340337008237839, 0.04167644679546356, 0.14573891460895538, 0.05978547781705856, 0.04315895587205887, -0.17712347209453583, -0.045196086168289185, 0.05384131520986557, -0.09393516927957535, -0.09544651955366135, -0.05318208038806915, 0.10786652565002441, -0.16030064225196838, -0.07481911778450012, 0.0473308265209198], [-0.128785640001297, -0.0074485838413238525, 0.13534395396709442, 0.1986026167869568, 0.1469571441411972, 0.19169044494628906, -0.0240196380764246, 0.24487295746803284, 0.025652406737208366, 0.08637453615665436, 0.004315943922847509, 0.08110911399126053, -0.05126716196537018, 0.03941221907734871, 0.15198813378810883, 0.158029705286026, 0.07542401552200317, -0.10711266100406647, -0.16668008267879486, 0.27603957056999207, -0.12192539870738983, -0.05417391285300255, 0.2518649995326996, -0.024068839848041534, 0.0017020886298269033, -0.24936115741729736, 0.1663406640291214, 0.05167679488658905]], "actor.network.4.bias": [0.11558351665735245, 0.020628731697797775, 0.03720027580857277, -0.14735178649425507, -0.16949762403964996, 0.07425923645496368, -0.029389146715402603, 0.0482201911509037, -0.13507524132728577, 0.1992339789867401, 0.0803343802690506, -0.1555534452199936, 0.016534605994820595, 0.11706308275461197, 0.044627320021390915, -0.11032572388648987, -0.004633187782019377, -0.12758959829807281, 0.011339754797518253, -0.05138273164629936, -0.038820233196020126, 0.08511944115161896, -0.03456690162420273, -0.041161686182022095, 0.06457865238189697, 0.14960581064224243, -0.1241445243358612, 0.0940081924200058], "actor.network.6.weight": [[0.23875683546066284, 0.31972599029541016, -0.21396596729755402, -0.09715310484170914, -0.14909523725509644, -0.19301578402519226, 0.22103188931941986, 0.2917654514312744, 0.1602444052696228, -0.24086394906044006, 0.036915116012096405, 0.14105089008808136, 0.09660772979259491, 0.13734354078769684, 0.07195407897233963, 0.016154734417796135, -0.17723214626312256, 0.06551919877529144, 0.07524488866329193, -0.2706514894962311, 0.07713352143764496, -0.21337281167507172, 0.15138272941112518, 0.00470723444595933, 0.12959830462932587, -0.2374039888381958, 0.18280231952667236, 0.10897453874349594], [-0.1389283984899521, -0.25580066442489624, 0.35517311096191406, 0.019162358716130257, 0.0012006763136014342, 0.2930276393890381, -0.3233439028263092, -0.16755415499210358, -0.07706830650568008, 0.14874784648418427, -0.26997870206832886, 0.15479712188243866, -0.12429880350828171, -0.20696908235549927, -0.02118760719895363, -0.18004247546195984, 0.3043784201145172, 0.034523431211709976, 0.12657442688941956, 0.28609564900398254, -0.1431109607219696, 0.2576826214790344, -0.12872952222824097, -0.06008332595229149, -0.2814100384712219, 0.2613670527935028, 0.18361254036426544, -0.0712745264172554]], "actor.network.6.bias": [0.1256413459777832, -0.005607536528259516], "critic.network.0.weight": [[0.15283538401126862, 0.34011685848236084, -0.36416763067245483, 0.1732502579689026], [-0.6373114585876465, 0.0551825612783432, 0.45495614409446716, 0.5699845552444458], [-0.5130496621131897, 0.3347659707069397, 0.006913510151207447, -0.46041029691696167], [-0.34461918473243713, 0.08454926311969757, 0.116674043238163, -0.2621859312057495], [-0.2033708244562149, -0.002911666175350547, 0.030922217294573784, 0.08434928953647614], [-0.0817132517695427, 0.30434176325798035, -0.2872934341430664, 0.09323703497648239], [0.14808301627635956, -0.4129196107387543, -0.1877761036157608, -0.4303261935710907], [0.4594161808490753, -0.22663436830043793, -0.13763955235481262, -0.46992066502571106], [0.3690396547317505, 0.3300885260105133, -0.1439124047756195, -0.36463525891304016], [-0.162159726023674, 0.30888718366622925, 0.6404923796653748, 0.5263300538063049], [-0.330720454454422, 0.04210546240210533, 0.024982502683997154, -0.4277152121067047], [0.39523136615753174, 0.3354800343513489, 0.2280719131231308, -0.4836992621421814], [-0.01594570465385914, 0.35114797949790955, 0.13849644362926483, 0.0015102369943633676], [0.31501132249832153, -0.32048532366752625, -0.2733736038208008, 0.02009277604520321], [-0.32094892859458923, 0.3200215697288513, -0.21296381950378418, 0.36962246894836426], [-0.17115938663482666, 0.30024370551109314, -0.1293380856513977, 0.2561582028865814], [-0.3565822243690491, -0.2921428978443146, 0.3186890780925751, -0.4189390540122986], [-0.07663299888372421, 0.09880578517913818, -0.3672073185443878, -0.1937105506658554], [-0.5303463935852051, -0.11760178953409195, -0.5438256859779358, -0.07363446056842804], [0.4869578778743744, -0.49025973677635193, 0.3796937167644501, -0.1930607706308365], [-0.08446937054395676, 0.00907095242291689, -0.5153871178627014, -0.47078096866607666], [-0.010193168185651302, 0.17505979537963867, -0.15565776824951172, 0.35393041372299194], [0.10105479508638382, -0.33675453066825867, -0.3414406478404999, -0.32671234011650085], [0.4459904134273529, 0.06052227318286896, -0.4358944892883301, 0.04775181785225868], [0.37340614199638367, 0.3489151895046234, -0.35457324981689453, 0.5121413469314575], [-0.07567096501588821, -0.019662197679281235, 0.34831148386001587, -0.0232420451939106], [-0.11310900747776031, -0.3682904541492462, 0.5130367875099182, -0.34233561158180237], [-0.03675517812371254, 0.08984564989805222, -0.3205825090408325, 0.21657989919185638]], "critic.network.0.bias": [0.3183726370334625, -0.35416463017463684, -0.35863447189331055, 0.46011975407600403, 0.2977393865585327, -0.5042576789855957, 0.5901920199394226, -0.2278299480676651, -0.090552918612957, -0.09068842977285385, -0.1830078810453415, -0.3403993844985962, 0.2052689790725708, 0.47907754778862, 0.4750464856624603, 0.2181529402732849, -0.11422684788703918, 0.6073823571205139, -0.08266786485910416, 0.4203701913356781, -0.3809505105018616, 0.5795901417732239, 0.3699166774749756, 0.1779695302248001, -0.44034942984580994, 0.17609786987304688, 0.11517367511987686, 0.3983992636203766], "critic.network.2.weight": [[-0.13546620309352875, -0.013969779014587402, -0.14827632904052734, -0.1626776158809662, -0.03342078626155853, 0.09291686117649078, -0.16561616957187653, 0.034707874059677124, -0.0087909996509552, -0.15021978318691254, -0.08800889551639557, -0.04334592819213867, -0.08090917021036148, -0.07789374142885208, 0.05400896072387695, 0.14046980440616608, -0.055859267711639404, 0.03345899283885956, -0.051020488142967224, -0.12754780054092407, -0.14018629491329193, -0.18613281846046448, 0.07909341156482697, -0.18161359429359436, -0.11893489956855774, -0.015345543622970581, 0.02014864981174469, -0.15114817023277283], [0.0698389858007431, 0.0390051007270813, -0.15088412165641785, 6.020069122314453e-06, 0.03670990467071533, -0.04817672073841095, 0.015799015760421753, -0.14387665688991547, -0.003210499882698059, -0.15794773399829865, 0.02865515649318695, -0.021210864186286926, 0.05868092179298401, -0.17082247138023376, 0.06506212055683136, -0.09475976973772049, 0.07522417604923248, -0.01145586371421814, -0.008136257529258728, -0.11103933304548264, -0.05135807394981384, 0.021195590496063232, 0.05899904668331146, -0.17502063512802124, 0.16865186393260956, -0.06685902178287506, -0.1784670352935791, -0.0973866730928421], [0.16959337890148163, 0.016839653253555298, -0.17572832107543945, 0.05407609045505524, 0.062212809920310974, -0.07123244553804398, -0.03705441951751709, -0.1811818778514862, -0.1781083345413208, -0.16461554169654846, 0.11155997216701508, 0.0578383207321167, 0.05181364715099335, -0.13017122447490692, -0.14507971704006195, -0.18010595440864563, 0.1719052940607071, -0.1599016636610031, -0.17624832689762115, 0.17275463044643402, -0.08609557896852493, -0.10922946780920029, -0.0603625625371933, -0.029393106698989868, -0.08847919851541519, -0.13958187401294708, -0.12255767732858658, 0.17504198849201202], [0.0861043706536293, -0.30784717202186584, -0.17189526557922363, -0.09270703047513962, -0.038662735372781754, -0.03475746512413025, 0.05180182307958603, 0.007035176269710064, 0.10690339654684067, -0.19146084785461426, -0.09806057810783386, 0.04275355488061905, 0.07386468350887299, -0.04519263282418251, 0.17281270027160645, 0.09783537685871124, -0.022371437400579453, 0.23559735715389252, -0.10337932407855988, 0.059612009674310684, -0.10252400487661362, 0.2461737096309662, 0.21402016282081604, -0.05376913771033287, -0.16236364841461182, 0.31794095039367676, -0.056782983243465424, 0.12446171045303345], [-0.06792570650577545, -0.06980592012405396, 0.10546090453863144, -0.01812782883644104, 0.2856602668762207, 0.03887801617383957, 0.2618538439273834, -0.28439241647720337, 0.13083244860172272, -0.01901129260659218, -0.09000413864850998, -0.11316493898630142, -0.03802064061164856, 0.1810988187789917, 0.09050454944372177, 0.16813501715660095, -0.06054854765534401, -0.02802010253071785, 0.08527908474206924, 0.14434978365898132, -0.053708963096141815, 0.11331646889448166, 0.15881627798080444, 0.028666559606790543, -0.11350397020578384, 0.17000088095664978, 0.09124154597520828, 0.10532432049512863], [0.1680649220943451, -0.10687213391065598, 0.07176529616117477, 0.1850014328956604, -0.0600668340921402, -0.13194486498832703, 0.1731521338224411, -0.29004815220832825, -0.10760143399238586, -0.049655310809612274, -0.10568885505199432, 0.0011156225809827447, 0.18026259541511536, 0.08431102335453033, 0.11278849095106125, -0.06418830901384354, -0.0790696069598198, 0.026034031063318253, -0.21382218599319458, 0.031497225165367126, 0.06875452399253845, 0.12301016598939896, -0.06265965849161148, -0.18325985968112946, -0.183760866522789, 0.16888156533241272, 0.017922041937708855, 0.08203257620334625], [0.09447553008794785, -0.10010876506567001, 0.05904801934957504, -0.10897909104824066, 0.2518234848976135, 0.0008490018080919981, -0.1339292824268341, 0.02363019622862339, 0.06663607805967331, -0.047898080199956894, -0.1348808854818344, -0.08114958554506302, -0.10869722068309784, 0.024633832275867462, 0.24110954999923706, 0.10761034488677979, 0.009822851046919823, 0.1474037766456604, 0.08415507525205612, 0.12482873350381851, -0.08760543167591095, 0.15158453583717346, -0.12782572209835052, 0.1156647801399231, -0.05973881110548973, -0.04366797208786011, -0.13701340556144714, 0.20239681005477905], [0.0928148701786995, 0.10530730336904526, -0.07977697253227234, -0.34711143374443054, 0.1373283714056015, -0.1592375934123993, -0.2363763004541397, -0.042738378047943115, -0.13928377628326416, 0.2391408383846283, -0.008276600390672684, -0.23332302272319794, -0.021527353674173355, -0.04270778223872185, 0.007501888554543257, -0.05527747422456741, 0.1699979156255722, -0.06308265775442123, -0.12139923870563507, -0.02674732357263565, 0.08581115305423737, 0.05133751779794693, -0.43578585982322693, -0.27656424045562744, -0.1177763119339943, 0.022835660725831985, -0.18730732798576355, 0.11342446506023407], [0.040177859365940094, -0.1754664033651352, 0.0398075096309185, 0.22950074076652527, 0.104157455265522, 0.1267978399991989, 0.1170278787612915, -0.17054316401481628, -0.03895815834403038, -0.02958231419324875, 0.07379908859729767, 0.01948709599673748, -0.010570104233920574, 0.07495663315057755, 0.23733489215373993, 0.08001351356506348, 0.0619213841855526, 0.22281868755817413, -0.2785895764827728, 0.1741134524345398, 0.01174909807741642, 0.012188626453280449, 0.23012064397335052, 0.10357123613357544, 0.0015165056101977825, 0.23826447129249573, -0.07857457548379898, 0.08153824508190155], [-0.06918726861476898, -0.045990943908691406, -0.1444704532623291, -0.06965398788452148, 0.11454249918460846, 0.10885070264339447, -0.05253086984157562, -0.06952723860740662, 0.11613766849040985, -0.135959193110466, -0.10597298294305801, 0.010883942246437073, -0.1831803023815155, 0.18243150413036346, -0.1460043042898178, 0.06325472891330719, 0.061272457242012024, -0.15147490799427032, 0.017289534211158752, 0.06557793915271759, -0.13028503954410553, -0.04654139280319214, -0.12083179503679276, -0.06932072341442108, 0.12401629984378815, 0.10697667300701141, 0.12421561777591705, 0.04449091851711273], [-0.09052146971225739, 0.10288654267787933, 0.09257778525352478, 0.1567944437265396, 0.04785102605819702, -0.1685711294412613, 0.04693494737148285, 0.14936241507530212, -0.012950130738317966, 0.056011468172073364, 0.05149572342634201, -0.0753595381975174, -0.17279715836048126, 0.06891589611768723, -0.10039684176445007, 0.07428275048732758, -0.13641320168972015, 0.027703039348125458, -0.13656741380691528, -0.027077844366431236, 0.1446513831615448, -0.02647298388183117, -0.12028984725475311, -0.006072113756090403, 0.04516485333442688, 0.08851058781147003, -0.1734146773815155, -0.11008914560079575], [0.15862199664115906, -0.06050290912389755, -0.1152767464518547, 0.16230864822864532, 0.01468113623559475, -0.19082589447498322, 0.08838139474391937, -0.12048976123332977, 0.04285633936524391, -0.22611019015312195, -0.02313864417374134, -0.17830152809619904, -0.0632234662771225, 0.009944324381649494, 0.20151057839393616, 0.12407463043928146, -0.15544693171977997, 0.06148587912321091, -0.16321370005607605, 0.2559092342853546, -0.2742331922054291, 0.12727738916873932, 0.06554270535707474, 0.08936015516519547, -0.1527298390865326, -0.03712000325322151, -0.025546787306666374, 0.25988075137138367], [-0.16071516275405884, -0.10607436299324036, 0.07580346614122391, 0.10704004764556885, -0.15488936007022858, 0.12958644330501556, -0.20845593512058258, 0.06236980855464935, -0.010373838245868683, 0.011900648474693298, -0.04322001338005066, -0.11681535840034485, -0.15156994760036469, -0.06189604848623276, 0.07729402184486389, -0.043128691613674164, -0.002084182808175683, 0.148174449801445, 0.08047962188720703, -0.07823141664266586, 0.1532343178987503, -0.10165751725435257, 0.15981264412403107, 0.022312311455607414, 0.04621404409408569, -0.08425857126712799, -0.0389522910118103, -0.06703797727823257], [-0.060474708676338196, 0.10387793183326721, 0.09768246859312057, 0.09032884985208511, -0.16278952360153198, -0.10325920581817627, 0.1775795817375183, 0.03664184361696243, 0.1927398294210434, -0.19509735703468323, 0.1401570439338684, 0.08468672633171082, -0.08038657903671265, -0.12913993000984192, -0.08948908001184464, -0.4508754014968872, 0.1468840092420578, -0.02200947143137455, -0.03644618019461632, 0.17104566097259521, 0.112950399518013, -0.15556898713111877, 0.09400288760662079, 0.0016129524447023869, -0.07691920548677444, 0.05472888797521591, 0.23689581453800201, -0.09527960419654846], [-0.010006926953792572, 0.09483715891838074, 0.10713257640600204, -0.23447374999523163, 0.027769846841692924, 0.19370657205581665, -0.30229780077934265, -0.21311147511005402, 0.13144131004810333, 0.19400110840797424, -0.16068203747272491, -0.004843839909881353, 0.2074865996837616, 0.1489526480436325, -0.07689795643091202, -0.12285277992486954, 0.11541355401277542, -0.07343917340040207, -0.06981507688760757, -0.14416012167930603, 0.12642692029476166, 0.1301192194223404, -0.19515958428382874, 0.10525210946798325, 0.17449840903282166, -0.0555928610265255, 0.07344058901071548, 0.08070170134305954], [-0.1186918392777443, 0.22640329599380493, 0.1213923990726471, -0.08286163210868835, 0.11559449136257172, -0.02687140554189682, -0.0795949324965477, -0.007875454612076283, 0.1258486658334732, 0.2368275225162506, 0.14743921160697937, 0.1539771407842636, 0.10628653317689896, -0.1464107185602188, -0.01467472966760397, -0.06467477232217789, 0.13660922646522522, 0.07370254397392273, 0.1542365849018097, 0.028689391911029816, 0.2343863844871521, 0.1599656045436859, -0.16701506078243256, 0.17533889412879944, 0.20679886639118195, -0.08946031332015991, -0.019763635471463203, -0.15518060326576233], [0.08316484838724136, -0.127469003200531, -0.12322097271680832, 0.16924028098583221, 0.18642351031303406, 0.08070088177919388, 0.10636511445045471, 0.009596391580998898, -0.1388600617647171, 0.05645227059721947, -0.04402175545692444, 0.06517543643712997, 0.018374128267169, -0.03081738017499447, 0.19397497177124023, 0.0592787079513073, -0.23634368181228638, 0.009548378176987171, -0.19667518138885498, 0.13711413741111755, -0.019948013126850128, 0.09131431579589844, 0.045620862394571304, -0.0968044102191925, -0.10350299626588821, 0.11219364404678345, 0.12811194360256195, -0.07708368450403214], [0.18376301229000092, -0.2354011833667755, 0.05718626827001572, 0.23351453244686127, 0.07783721387386322, 0.11911702156066895, 0.26865527033805847, 0.005283367820084095, 0.06779836118221283, -0.1404869556427002, -0.20208971202373505, -0.02941903844475746, 0.22553466260433197, 0.07860711961984634, 0.12276919931173325, -0.019810965284705162, 0.06219639629125595, 0.15586307644844055, -0.25504931807518005, 0.1302141398191452, -0.1565367430448532, 0.09945139288902283, -0.06829630583524704, 0.11474486440420151, -0.0929853767156601, 0.03655261546373367, 0.047775622457265854, -0.027219852432608604], [-0.03978945314884186, -0.13404402136802673, 0.02748103439807892, 0.164026141166687, 0.032143376767635345, -0.03684980794787407, 0.19292527437210083, -0.3047454357147217, -0.1993505209684372, -0.0671006292104721, 0.04477265849709511, 0.040371235460042953, 0.2338382750749588, -0.04677113890647888, 0.03411068022251129, 0.18969351053237915, 0.07774896174669266, 0.05723979324102402, -0.038035936653614044, 0.2960802912712097, -0.09819332510232925, 0.265446275472641, 0.25227034091949463, 0.13765381276607513, -0.1488572657108307, -0.023935241624712944, -0.048205502331256866, 0.21584825217723846], [-0.1784369796514511, 0.08807725459337234, 0.17464008927345276, 0.09136097878217697, -0.09107481688261032, 0.12458784878253937, -0.18134631216526031, 0.06948600709438324, -0.08011429011821747, -0.06141006946563721, -0.02296335995197296, 0.10393662750720978, -0.021355975419282913, -0.1352522075176239, -0.014219897799193859, -0.17898593842983246, 0.11492796987295151, -0.08611693978309631, 0.009632712230086327, -0.1473659873008728, -0.08778300136327744, -0.06475766748189926, -0.07725309580564499, -0.15892136096954346, 0.0501285046339035, 0.13663390278816223, 0.03609119728207588, 0.010344292968511581], [-0.08430559933185577, -0.2832057476043701, -0.18695667386054993, 0.1878616064786911, -0.04370059818029404, 0.03563416376709938, -0.0329052098095417, -0.13890592753887177, -0.052820753306150436, -0.06150634214282036, 0.027919307351112366, -0.09549353271722794, -0.06825312972068787, 0.27555903792381287, 0.22801704704761505, -0.10556124150753021, -0.07211865484714508, 0.21432437002658844, -0.2213200479745865, 0.07613023370504379, 0.04937641695141792, 0.27203038334846497, 0.07919827103614807, -0.07017778605222702, -0.0797431468963623, 0.2234526127576828, -0.006559130270034075, 0.26105573773384094], [0.276221364736557, -0.01554220449179411, -0.09948771446943283, 0.024582115933299065, 0.28499355912208557, 0.13562949001789093, 0.0589364729821682, 0.036316901445388794, 0.11320376396179199, -0.12256409972906113, 0.04234074056148529, 0.04439175873994827, -0.05994993820786476, 0.25873154401779175, -0.03606925159692764, -0.052322495728731155, 0.04418475925922394, 0.2786720097064972, -0.20871584117412567, 0.2071765661239624, -0.15554645657539368, 0.0785980224609375, 0.0843358039855957, -0.08397126197814941, -0.22224211692810059, 0.2885781526565552, 0.0033940616995096207, 0.22930492460727692], [-0.02662837877869606, 0.0031302093993872404, -0.029282253235578537, 0.021197769790887833, 0.16620229184627533, 0.05997396633028984, 0.07218801975250244, -0.22280263900756836, 0.1432359516620636, -0.10272911190986633, -0.09634153544902802, -0.12904073297977448, -0.018372297286987305, 0.08726879209280014, 0.10405869781970978, 0.027346180751919746, -0.013664178550243378, 0.27824994921684265, 0.06415008008480072, -0.0269845649600029, -0.11003201454877853, 0.19426389038562775, 0.07987761497497559, 0.10374496132135391, -0.10858269035816193, -0.027342919260263443, 0.09992007911205292, 0.018228592351078987], [0.04772643372416496, -0.23169976472854614, -0.07510468363761902, 0.20809870958328247, -0.01716620847582817, -0.00796633493155241, 0.08705662935972214, 0.02067452482879162, -0.07826503366231918, -0.25703108310699463, -0.018781578168272972, 0.03602330759167671, 0.041609473526477814, -0.012008135206997395, -0.05681649595499039, 0.10997135937213898, -0.1429828703403473, 0.24223268032073975, -0.1662147492170334, 0.27582430839538574, -0.2781657874584198, 0.15924306213855743, -0.022080933675169945, 0.10043135285377502, -0.04398764297366142, 0.2470589280128479, -0.05928035452961922, 0.1673530489206314], [-0.06430331617593765, -0.1897231638431549, 0.14449217915534973, 0.27184757590293884, 0.06177164614200592, -0.015176160261034966, 0.21148256957530975, -0.29645344614982605, -0.006225838791579008, -0.2003173828125, -0.21423490345478058, 0.0797678753733635, 0.24609026312828064, -0.012761946767568588, 0.3055022060871124, -0.0652695745229721, -0.01550377905368805, 0.18103396892547607, -0.035180412232875824, -0.015107478946447372, -0.0812864601612091, 0.037045493721961975, 0.01765836775302887, 0.10555633902549744, -0.056393515318632126, -0.05652362108230591, 0.1017749086022377, 0.28648844361305237], [-0.06595554947853088, -0.10485994815826416, 0.1056903526186943, 0.19384726881980896, 0.20872601866722107, 0.02715500444173813, 0.09711404889822006, -0.20405423641204834, -0.17556551098823547, -0.2692389488220215, -0.0623769611120224, 0.10077464580535889, -0.02008914388716221, 0.20457933843135834, 0.1336294561624527, -0.13106149435043335, -0.23951438069343567, 0.21878190338611603, 0.06879115849733353, 0.09301401674747467, -0.05580907315015793, 0.1110348328948021, 0.040552955120801926, 0.18672357499599457, -0.14810699224472046, -0.024662015959620476, -0.07974298298358917, 0.20372924208641052], [-0.06792107969522476, 0.01571078598499298, -0.00273267924785614, -0.056242771446704865, 0.10202135890722275, 0.07776577770709991, 0.062122322618961334, -0.10612604022026062, -0.10098817199468613, 0.11086096614599228, 0.09758301079273224, -0.11057921499013901, -0.04156794399023056, 0.13497880101203918, -0.11616498976945877, -0.12055055052042007, -0.04124519228935242, 0.00911687407642603, -0.004524592310190201, -0.18110670149326324, -0.16182640194892883, 0.03360503911972046, -0.033335454761981964, -0.20199763774871826, -0.05365404486656189, 0.007277593947947025, -0.1933143138885498, -0.13477294147014618], [-0.15107110142707825, -0.19326640665531158, 0.0831531211733818, -0.12860576808452606, -0.006498552858829498, -0.007934940047562122, 0.09653257578611374, 0.01827705092728138, 0.036454372107982635, -0.11267807334661484, 0.06442523002624512, -0.23775003850460052, 0.1778595894575119, -0.04150036349892616, 0.09422315657138824, -0.05335554480552673, 0.03386694937944412, 0.17176425457000732, -0.11026224493980408, 0.19402404129505157, -0.25628915429115295, 0.15995119512081146, -0.0024549311492592096, 0.15525367856025696, -0.1522788256406784, 0.07371736317873001, -0.11346286535263062, 0.010010517202317715]], "critic.network.2.bias": [0.08463941514492035, 0.014533236622810364, -0.018532365560531616, 0.292624831199646, 0.26351282000541687, -0.022964421659708023, 0.13852210342884064, 0.12733840942382812, 0.11719870567321777, -0.18250404298305511, -0.1517428159713745, 0.14245496690273285, -0.07382850348949432, -0.02577752247452736, -0.05644545704126358, 0.015169749036431313, 0.26040154695510864, 0.09674441069364548, 0.28074973821640015, -0.10607156157493591, 0.11201594769954681, 0.2777818739414215, 0.29504692554473877, 0.3192424178123474, 0.11888809502124786, 0.07456415146589279, 0.019345251843333244, 0.169203519821167], "critic.network.4.weight": [[0.09368936717510223, -0.0016384422779083252, 0.13809101283550262, 0.04416640102863312, 0.14578668773174286, -0.030350476503372192, 0.027801528573036194, -0.18124812841415405, -0.14398780465126038, 0.18837331235408783, 0.10513032972812653, 0.1784530133008957, -0.1518823355436325, -0.12492921948432922, -0.02159544825553894, -0.11758904904127121, -0.12068092077970505, 0.011107578873634338, 0.07905988395214081, -0.1806510090827942, 0.014402121305465698, -0.1569063514471054, -0.023298457264900208, 0.13821308314800262, -0.09419723600149155, 0.0943908542394638, -0.04269981384277344, -0.07984957098960876], [-0.18401552736759186, -0.015770941972732544, -0.11698585003614426, 0.16378729045391083, -0.03321361541748047, 0.04892050474882126, -0.014890308491885662, -0.0824405625462532, 0.2541903853416443, 0.18100012838840485, -0.0153444092720747, 0.09662667661905289, 0.06044721230864525, -0.26355335116386414, 0.08846583217382431, -0.28586307168006897, 0.022788243368268013, 0.11877719312906265, 0.11288084089756012, 0.01646099053323269, 0.039588507264852524, 0.22327183187007904, -0.008054671809077263, 0.13729099929332733, 0.16617798805236816, 0.025374190881848335, -0.15772554278373718, 0.20902077853679657], [-0.011694595217704773, 0.14078842103481293, 0.029899388551712036, -0.05118675157427788, 0.03440657630562782, 0.22198839485645294, 0.11258503794670105, -0.28530317544937134, -0.013034461997449398, 0.02481214702129364, 0.08004702627658844, -0.03991498053073883, 0.15972408652305603, -0.015545825473964214, -0.19760845601558685, -0.3232329785823822, -0.018234029412269592, 0.1724054366350174, 0.05487890541553497, 0.08115854114294052, 0.2689574360847473, 0.1772182285785675, 0.20097044110298157, 0.07912556827068329, 0.21984843909740448, 0.19590488076210022, -0.13332918286323547, 0.07984434068202972], [-0.09019456058740616, -0.15797710418701172, -0.12481729686260223, -0.12464209645986557, -0.08395832777023315, 0.029221922159194946, -0.17990311980247498, -0.1451130360364914, -0.033517852425575256, -0.08715437352657318, -0.008100166916847229, 0.17269589006900787, -0.11853891611099243, -0.11108628660440445, -0.079269640147686, 0.11113958060741425, 0.10577298700809479, -0.06585098057985306, -0.154014453291893, -0.1416437178850174, 0.06834377348423004, 0.08026371896266937, -0.0008617192506790161, -0.12156327068805695, 0.021952301263809204, 0.09027449786663055, -0.011078208684921265, -0.05728626251220703], [0.1651763767004013, -0.06716285645961761, -0.013889700174331665, -0.15684130787849426, 0.08122862875461578, 0.021911680698394775, -0.030426815152168274, -0.01906360685825348, -0.17578111588954926, -0.08524689078330994, -0.15236710011959076, -0.1462862491607666, 0.14585499465465546, 0.027189046144485474, 0.03599913418292999, 0.020110532641410828, -0.14913788437843323, 0.15348388254642487, -0.12255260348320007, 0.18054081499576569, 0.13956381380558014, 0.02032698690891266, 0.14564566314220428, -0.16463415324687958, -0.16967153549194336, 0.18780745565891266, -0.1607927829027176, 0.11027257144451141], [0.10864387452602386, -0.008154571056365967, -0.03850632905960083, -0.1641361117362976, -0.08173774182796478, -0.08577252179384232, -0.18136300146579742, 0.10321182012557983, 0.1269557625055313, -0.09498370438814163, 0.07755716145038605, -0.059433046728372574, 0.06397362053394318, 0.13965961337089539, -0.05727127194404602, -0.1521797478199005, -0.1891568899154663, 0.08298461139202118, -0.12643137574195862, -0.18481749296188354, -0.035685550421476364, -0.10752817988395691, 0.08921724557876587, 0.0034388480708003044, -0.09943501651287079, 0.08989133685827255, 0.05798251926898956, -0.12445451319217682], [0.16579391062259674, -0.11240093410015106, -0.03023231029510498, 0.0428769588470459, -0.05993594229221344, -0.02331852912902832, -0.03236667811870575, 0.15040011703968048, 0.1339847296476364, -0.18351735174655914, -0.12740235030651093, 0.15850023925304413, -0.03485667705535889, 0.1507451981306076, -0.03355392813682556, 0.004121154546737671, -0.1614467203617096, 0.1481940597295761, 0.04368826746940613, 0.1612067073583603, -0.10037051886320114, -0.15617120265960693, 0.01681588590145111, -0.041195958852767944, -0.06922200322151184, -0.14993488788604736, 0.006610453128814697, -0.09544751793146133], [0.04678606986999512, 0.11396290361881256, 0.08641524612903595, 0.05381178483366966, -0.009852750226855278, 0.025637706741690636, 0.05830211564898491, -0.21695229411125183, -0.08494976907968521, 0.04844571650028229, 0.11417989432811737, 0.028702925890684128, 0.01664857193827629, -0.1957111656665802, -0.10925659537315369, -0.18828611075878143, 0.2765398919582367, 0.16222824156284332, -0.01637573353946209, 0.1280573308467865, 0.07899042963981628, 0.22555160522460938, 0.03404922038316727, 0.2957210838794708, 0.17251235246658325, 0.08605791628360748, -0.11564460396766663, 0.13430754840373993], [-0.14248204231262207, 0.09009356796741486, -0.07876437157392502, 0.28015804290771484, 0.09447922557592392, 0.0633428767323494, 0.23596696555614471, -0.16180962324142456, 0.25322261452674866, 0.17907173931598663, 0.17232926189899445, 0.24718861281871796, -0.16737915575504303, -0.28856441378593445, -0.015655264258384705, -0.2555176019668579, 0.1823335736989975, 0.2709982097148895, 0.011281071230769157, -0.07638626545667648, 0.2621576488018036, 0.22788912057876587, 0.02678009308874607, 0.1966264694929123, 0.15030573308467865, 0.2791011929512024, -0.058461301028728485, 0.04971768707036972], [-0.06688305735588074, 0.14706267416477203, -0.11880838125944138, -0.19194704294204712, -0.10375414788722992, 0.053647615015506744, 0.10217216610908508, 0.11289435625076294, -0.071883425116539, 0.054719775915145874, 0.1258249431848526, 0.10202286392450333, 0.07590126991271973, -0.17173878848552704, 0.13897930085659027, -0.1651824414730072, 0.11748777329921722, 0.1157735288143158, -0.06023116037249565, 0.13294367492198944, -0.08967207372188568, -0.02686009556055069, -0.20658081769943237, 0.07337319850921631, 0.07521918416023254, -0.16673554480075836, 0.04548101872205734, 0.08239811658859253], [0.11939023435115814, 0.07458119094371796, 0.07793013751506805, -0.1282239556312561, -0.006583019159734249, 0.08664515614509583, 0.16591906547546387, 0.04907459393143654, -0.08639205992221832, -0.08532490581274033, 0.17960168421268463, -0.12685289978981018, 0.04840498045086861, 0.15901772677898407, -0.1693999022245407, 0.09270255267620087, -0.06803534924983978, -0.040085211396217346, -0.08551094681024551, 0.06793640553951263, -0.13941195607185364, 0.1425323784351349, -0.16976624727249146, -0.00374044431373477, 0.07871727645397186, 0.0617135614156723, 0.11388334631919861, -0.16052532196044922], [-0.14069892466068268, -0.003975778818130493, 0.14843304455280304, 0.2770422697067261, 0.2605677843093872, 0.17016972601413727, 0.008889231830835342, -0.2279611974954605, 0.17690986394882202, 0.04085029661655426, 0.016524262726306915, 0.2549654543399811, -0.11095049977302551, -0.18265804648399353, 0.07278908044099808, -0.3098931610584259, 0.22723428905010223, 0.13628403842449188, 0.08495330065488815, 0.06421277672052383, 0.2370537370443344, 0.06334805488586426, 0.2669213116168976, 0.24122729897499084, 0.003437663661316037, 0.20106276869773865, 0.0331965796649456, 0.14390341937541962], [0.13694526255130768, 0.15294329822063446, -0.01070067286491394, -0.1886122226715088, 0.1573294848203659, -0.030620470643043518, -0.13135680556297302, -0.1266300082206726, -0.15244656801223755, -0.1193200945854187, -0.15860235691070557, 0.18190301954746246, -0.128146693110466, -0.08624566346406937, -0.0502566397190094, 0.14578019082546234, -0.13714724779129028, -0.1679525077342987, 0.052255839109420776, 0.09299071133136749, 0.06686590611934662, -0.12599313259124756, -0.1213604211807251, 0.04205822944641113, -0.07363469153642654, -0.15026727318763733, -0.08793869614601135, 0.12670601904392242], [0.1301908642053604, 0.12983690202236176, 0.061505213379859924, 0.04365551099181175, 0.056631673127412796, 0.09488131105899811, -0.17163684964179993, -0.01796640455722809, -0.13763673603534698, -0.15127819776535034, 0.14570194482803345, -0.09035118669271469, 0.15866048634052277, 0.06328845769166946, -0.12931250035762787, -0.00022900832118466496, 0.06650884449481964, 0.11090012639760971, -0.1982439011335373, -0.16885967552661896, -0.0409366711974144, 0.05030754953622818, 0.05550232529640198, -0.0752721056342125, 0.15203611552715302, -0.1701878309249878, 0.16260285675525665, 0.15675382316112518], [-0.027868956327438354, -0.06657399237155914, -0.14940163493156433, 0.13037322461605072, 0.2234019786119461, 0.1298932433128357, -0.0120446952059865, -0.03207864239811897, 0.047204989939928055, -0.019941136240959167, -0.1272711157798767, 0.19899414479732513, -0.1111067533493042, -0.2118150144815445, -0.23038846254348755, -0.2672404646873474, -0.056283265352249146, 0.23568914830684662, -0.0673355758190155, -0.04709140956401825, 0.16954205930233002, -0.04372924193739891, 0.281726598739624, 0.020277610048651695, 0.23513473570346832, 0.026611002162098885, 0.07260571420192719, -0.045049890875816345], [-0.06936003267765045, -0.02233615517616272, -0.16385924816131592, -0.14154930412769318, -0.08270953595638275, 0.0820019394159317, -0.010018736124038696, -0.008696556091308594, 0.0021369606256484985, -0.14856916666030884, 0.11118347942829132, -0.0294407457113266, 0.05130116641521454, 0.08362998068332672, -0.15662986040115356, -0.060228630900382996, -0.15915656089782715, -0.08983088284730911, -0.16588738560676575, -0.050739288330078125, 0.015008404850959778, 0.0458986759185791, 0.007671266794204712, 0.014204353094100952, -0.07784836739301682, -0.10761233419179916, -0.1126217320561409, 0.1709751933813095], [0.08915497362613678, 0.17160095274448395, -0.019756272435188293, 0.07614918053150177, -0.11561369150876999, -0.18559172749519348, -0.03522908687591553, 0.1351877599954605, -0.004004761576652527, -0.06967421621084213, -0.04341006278991699, -0.15258756279945374, 0.13915030658245087, 0.03005164861679077, -0.057591721415519714, 0.1335611194372177, -0.16756568849086761, -0.13950257003307343, 0.07572509348392487, -0.11178702861070633, -0.0647953674197197, -0.12122710049152374, -0.015992149710655212, 0.18036295473575592, 0.04546858370304108, 0.059010401368141174, 0.18520130217075348, 0.167471781373024], [0.0943085104227066, -0.07514052093029022, 0.14061881601810455, 0.16646818816661835, 0.12133027613162994, -0.08315809816122055, -0.07802952080965042, -0.32611531019210815, 0.03181738406419754, 0.04615813493728638, -0.10331420600414276, -0.026851462200284004, -0.1474645435810089, -0.018681956455111504, -0.09797090291976929, -0.25228920578956604, 0.21245639026165009, 0.16576698422431946, -0.03036680445075035, 0.15210065245628357, 0.13409312069416046, 0.16947874426841736, 0.06579529494047165, 0.009201041422784328, 0.07686202228069305, -0.0909482017159462, 0.0029017797205597162, 0.08748038858175278], [-0.03768320381641388, 0.17228101193904877, 0.04494835436344147, 0.14849884808063507, 0.1103617399930954, -0.11532627046108246, -0.13284540176391602, -0.18066370487213135, 0.0012552589178085327, -0.06611857563257217, -0.08316327631473541, -0.16852720081806183, -0.06768666952848434, -0.008849918842315674, 0.10617832839488983, -0.01062580943107605, -0.18430861830711365, -0.16611774265766144, -0.05618956685066223, 0.11904649436473846, -0.09337807446718216, 0.10839609801769257, 0.1057673841714859, -0.17923712730407715, -0.1824217289686203, -0.176573246717453, 0.094265416264534, -0.1418972611427307], [-0.05554868280887604, 0.17938406765460968, 0.1716463416814804, 0.01582750305533409, 0.10510079562664032, 0.02274698205292225, -0.19928310811519623, -0.0747702568769455, -0.22821101546287537, 0.04783204197883606, 0.10091002285480499, -0.05866235867142677, 0.023646458983421326, 0.06554944813251495, -0.12085508555173874, -0.1835593283176422, 0.09329485148191452, -0.017882585525512695, -0.010013059712946415, -0.03729729354381561, 0.13894686102867126, -0.14678388833999634, 0.020304227247834206, 0.11881251633167267, -0.07146159559488297, 0.12573111057281494, 0.10592509806156158, 0.1406191885471344], [0.08402650058269501, 0.11928419768810272, -0.09437324851751328, 0.1161024272441864, -0.07410063594579697, -0.08700080960988998, 0.026101520285010338, -0.1388222873210907, 0.10837958753108978, 0.03122556209564209, -0.07862825691699982, -0.2587464451789856, 0.07941454648971558, -0.02824016846716404, -0.0807625949382782, 0.20230551064014435, 0.12354627251625061, 0.10731246322393417, -0.05750758573412895, 0.10486277937889099, -0.01638428121805191, -0.07114177197217941, 0.05286446958780289, 0.14317971467971802, 0.08913908898830414, -0.21114686131477356, 0.11999966204166412, -0.21372471749782562], [-0.046616628766059875, 0.09297944605350494, 0.008053287863731384, 0.12473613023757935, 0.0951927974820137, 0.14830726385116577, 0.17453236877918243, 0.09838801622390747, 0.044342443346977234, -0.09059655666351318, -0.1456528604030609, 0.15836571156978607, 0.1835719794034958, 0.09102758765220642, 0.011648481711745262, 0.16297776997089386, 0.016375921666622162, -0.17986346781253815, -0.044265348464250565, -0.18788930773735046, 0.08328160643577576, 0.08356940746307373, -0.0403372161090374, -0.15957069396972656, -0.23556211590766907, -0.20282205939292908, 0.028649162501096725, 0.09851998090744019], [0.1368217021226883, -0.14097009599208832, 0.11487896740436554, 0.0643797293305397, 0.030949817970395088, 0.08577989041805267, 0.10932256281375885, -0.20683756470680237, 0.01700005680322647, -0.08238571137189865, 0.05121896043419838, -0.03360382840037346, 0.03784705698490143, -0.10535956174135208, -0.19512592256069183, -0.1471278965473175, 0.10056689381599426, 0.0498061329126358, 0.16806870698928833, 0.03254782408475876, 0.29456886649131775, 0.06497525423765182, 0.22619348764419556, 0.04327070713043213, -0.029027650132775307, 0.028593821451067924, -0.09015817195177078, -0.058538757264614105], [-0.024600714445114136, -0.1272733509540558, -0.10035339742898941, -0.07326006889343262, -0.13452810049057007, 0.13491123914718628, -0.3389531672000885, 0.08490544557571411, 0.1347569078207016, 0.16255857050418854, 0.03607761487364769, -0.16058386862277985, -0.0032589128240942955, 0.13350574672222137, -0.12144574522972107, 0.02140611968934536, 0.09480587393045425, 0.11412031203508377, -0.13586591184139252, 0.04200390353798866, -0.13309039175510406, 0.17085349559783936, 0.18542802333831787, 0.14086586236953735, -0.13186544179916382, -0.08174964785575867, -0.025295361876487732, 0.16026538610458374], [0.05264177918434143, -0.044812142848968506, 0.03021654486656189, -0.09655091166496277, 0.11518888175487518, 0.139094740152359, -0.04969451576471329, -0.10809054970741272, -0.20456193387508392, -0.1847950518131256, 0.08838774263858795, 0.04843641072511673, -0.17751239240169525, -0.10389140248298645, -0.0388195663690567, -0.17399482429027557, -0.11690382659435272, -0.07115785032510757, -0.02528417482972145, -0.1164943054318428, 0.14654651284217834, -0.12823694944381714, 0.1250455528497696, -0.19349484145641327, 0.022753728553652763, -0.008347488939762115, -0.1363973617553711, -0.00937127135694027], [-0.14470069110393524, -0.08913705497980118, 0.14048214256763458, -0.0038121582474559546, -0.06463196873664856, -0.20236416161060333, -0.042036641389131546, 0.056566428393125534, 0.09979141503572464, -0.1739041805267334, 0.15629012882709503, 0.1727052628993988, 0.1478116363286972, -0.12478423118591309, 0.08779474347829819, 0.07178497314453125, -0.05903386324644089, 0.15986000001430511, -0.06130228936672211, -0.052256762981414795, 0.16456232964992523, -0.11337558925151825, -0.19050967693328857, -0.19695518910884857, -0.07646754384040833, -0.02837904915213585, 0.010030239820480347, 0.1260046362876892], [0.10674001276493073, -0.12138932943344116, -0.05413283407688141, 0.15615998208522797, 0.17964425683021545, 0.01925327256321907, 0.22020025551319122, -0.2956697344779968, 0.1337805539369583, -0.08230609446763992, -0.06822196394205093, 0.31413114070892334, 0.018912438303232193, -0.022964518517255783, -0.11637585610151291, -0.30827051401138306, 0.041214969009160995, 0.15556536614894867, 0.1767139732837677, 0.06501657515764236, 0.1433941125869751, -0.009278878569602966, 0.08957670629024506, 0.17584890127182007, 0.20001749694347382, 0.201926589012146, -0.025247592478990555, 0.2931382656097412], [0.09233860671520233, 0.04840917885303497, -0.03721867501735687, 0.2964036166667938, 0.2743127942085266, -0.004283156245946884, -0.0852711871266365, -0.2502455413341522, 0.26158905029296875, 0.01531451940536499, -0.13371533155441284, 0.200515016913414, 0.19536840915679932, -0.046163465827703476, -0.2204577475786209, -0.03451685234904289, 0.16030950844287872, -0.053807202726602554, 0.28848588466644287, 0.02994525618851185, 0.03490196540951729, 0.005237259902060032, 0.13565517961978912, 0.24772770702838898, 0.09233759343624115, 0.0812569186091423, 0.08031726628541946, 0.044425979256629944]], "critic.network.4.bias": [-0.1779109090566635, 0.13075046241283417, -0.011373238638043404, -0.13378944993019104, -0.15839868783950806, 0.08621177077293396, -0.1159341111779213, 0.18364885449409485, 0.03530721366405487, 0.08633924275636673, 0.039164382964372635, 0.14004208147525787, 0.07145164906978607, -0.12193464487791061, 0.26636579632759094, -0.0528092235326767, -0.016955584287643433, 0.24865661561489105, -0.13272331655025482, -0.09260313212871552, -0.17523156106472015, -0.1338379830121994, 0.2764231562614441, -0.1070127859711647, 0.041943974792957306, -0.013045976869761944, 0.19578641653060913, 0.2431136518716812], "critic.network.6.weight": [[0.13690458238124847, 0.28141459822654724, 0.10275047272443771, -0.11736613512039185, 0.07927833497524261, -0.08516161143779755, -0.08838342875242233, 0.2690001130104065, 0.24891667068004608, -0.13623389601707458, -0.06428234279155731, 0.22603830695152283, -0.155521959066391, 0.15518857538700104, 0.23550741374492645, -0.12601861357688904, -0.145039364695549, 0.08681537210941315, 0.003457501530647278, -0.03343760222196579, -0.13114671409130096, -0.21074160933494568, 0.2699519395828247, -0.1688815951347351, -0.05775779113173485, 0.10467781871557236, 0.2321680784225464, 0.1790241301059723]], "critic.network.6.bias": [0.18818585574626923]}