{"SEQL.0.weight": [[-0.331775426864624, 0.1366024762392044, -0.769694447517395, -0.32138416171073914], [0.1384805142879486, -0.11019637435674667, 0.4601261019706726, 0.3251064121723175], [1.032152533531189, -0.8355356454849243, -3.4173264503479004, -1.757040023803711], [0.30721962451934814, 0.476843923330307, -0.09611912816762924, 0.07493408024311066], [0.11062190681695938, 0.37699374556541443, -0.1439790576696396, -0.2655779719352722], [-0.058582697063684464, -0.04114822670817375, -0.8993381857872009, -0.4492932856082916], [-0.5001499652862549, -0.17097465693950653, 0.6686704158782959, 0.1475750356912613], [0.6224697232246399, -1.0300687551498413, -1.584382176399231, 0.20943522453308105], [-0.6058173775672913, 0.11325828731060028, 0.8366740345954895, 0.572817862033844], [-0.13359127938747406, -0.33731529116630554, -0.24364037811756134, -0.4851084053516388], [-0.25712037086486816, 0.42742007970809937, 0.03623060882091522, 0.593882143497467], [-0.7949603796005249, 0.5848535895347595, 3.0829358100891113, 1.7462096214294434], [0.3284294009208679, -0.11111922562122345, -0.3278678059577942, 0.2088743895292282], [0.7614966034889221, -0.15473361313343048, -2.958526611328125, -1.6871027946472168], [-0.6344038248062134, 0.7526352405548096, 3.6176297664642334, 1.466789722442627], [-0.24706344306468964, -0.3876599669456482, 0.007528552319854498, -0.002540155313909054], [0.5109090805053711, -0.6824748516082764, -3.799044370651245, -1.3204503059387207], [0.32201826572418213, -0.22779430449008942, 0.2619200646877289, 0.2835703492164612], [0.3429665267467499, -0.41057926416397095, -3.836873769760132, -1.4402174949645996], [-0.9000593423843384, 0.5597891807556152, 3.7055258750915527, 1.754949927330017], [0.4323759377002716, -0.0701499655842781, -1.0010408163070679, -0.49743178486824036], [-0.27790385484695435, 0.17731694877147675, 3.286397695541382, 1.7099391222000122], [-0.12654481828212738, 0.33595791459083557, 0.3627534806728363, 0.6480364799499512], [0.44561201333999634, -0.3812912702560425, -0.44956862926483154, -0.4671114981174469], [0.02814653515815735, -0.19677171111106873, -0.04858918488025665, -0.5380872488021851], [0.10258716344833374, 0.11935747414827347, -0.8947487473487854, -0.32677459716796875], [-0.8990955352783203, 0.7093781232833862, 3.865205764770508, 2.378419876098633], [-0.03374399617314339, -0.022574130445718765, 0.6759190559387207, 0.27980032563209534]], "SEQL.0.bias": [1.3148704767227173, 1.7969714403152466, -0.5673244595527649, 1.6619651317596436, 1.7153215408325195, 1.3649821281433105, 1.6142913103103638, 0.4728648364543915, 1.750588059425354, 1.5513050556182861, 1.4143949747085571, -0.4246724247932434, 1.5483195781707764, -0.5095442533493042, 0.2635556161403656, 1.3206429481506348, -0.11849437654018402, 1.436608076095581, 0.05828781798481941, -0.7176639437675476, 1.3327786922454834, -0.042390115559101105, 1.5540454387664795, 1.7848860025405884, 1.3620579242706299, 1.242065668106079, 0.9987679719924927, 1.4569158554077148], "SEQL.2.weight": [[1.2321207523345947, 0.9798595309257507, -2.419672966003418, 1.2651050090789795, 1.208860158920288, 1.3210498094558716, 1.3610332012176514, 1.1916860342025757, 1.171241283416748, 1.3740483522415161, 0.8928678035736084, -1.9020243883132935, 1.1296666860580444, -1.4032930135726929, -1.5001963376998901, 1.0514954328536987, -1.9983609914779663, 1.0321884155273438, -1.3535405397415161, -2.654043436050415, 1.1377707719802856, -1.245032787322998, 0.999067485332489, 1.219538927078247, 0.979680061340332, 1.057615041732788, -0.7278232574462891, 1.1300312280654907], [0.9052651524543762, 1.3267790079116821, -2.575591564178467, 1.1287126541137695, 0.986669659614563, 1.2087078094482422, 1.4352529048919678, 1.3661292791366577, 1.3271359205245972, 1.046360969543457, 1.3226633071899414, -1.3115036487579346, 1.206024169921875, -1.884855031967163, -1.1080783605575562, 1.3666197061538696, -2.3519861698150635, 1.0520051717758179, -1.504828929901123, -2.782957077026367, 0.7795840501785278, -0.8030962944030762, 1.2237310409545898, 1.1445810794830322, 0.9475727081298828, 0.866187334060669, -0.3300352692604065, 1.4031227827072144], [0.00667144637554884, -0.14249639213085175, -0.10250937938690186, 0.12450909614562988, -0.15027417242527008, -0.04236633703112602, 0.07272982597351074, 0.04929010197520256, -0.09280793368816376, -0.013711169362068176, -0.17230141162872314, -0.08046330511569977, -0.0164994765073061, -0.18023699522018433, -0.18201881647109985, -0.005395666696131229, -0.17170432209968567, 0.10656502842903137, -0.11854562163352966, -0.2023530900478363, -0.10245487838983536, 0.0765274316072464, 0.15220847725868225, 0.11810935288667679, -0.07169168442487717, -0.041709836572408676, -0.23504123091697693, 0.10702087730169296], [1.21531081199646, 1.3403654098510742, -2.4777770042419434, 1.3214175701141357, 1.239870309829712, 1.1881707906723022, 1.427193284034729, 1.334957480430603, 1.0828648805618286, 1.2902803421020508, 1.083770751953125, -1.737998366355896, 1.252221941947937, -1.5939686298370361, -1.161039113998413, 1.1565454006195068, -1.8790501356124878, 1.0948070287704468, -1.2832763195037842, -2.6229171752929688, 0.8077681660652161, -1.200838565826416, 1.25361967086792, 1.1443344354629517, 1.0141180753707886, 0.8581651449203491, -0.3135332465171814, 1.2153844833374023], [1.1235785484313965, 1.178723931312561, -2.5813376903533936, 1.2757411003112793, 1.1945456266403198, 1.2604748010635376, 1.1887085437774658, 1.2761006355285645, 1.3386363983154297, 1.13889479637146, 1.1034762859344482, -1.6478404998779297, 1.3122906684875488, -1.4082436561584473, -1.3842649459838867, 1.2463730573654175, -1.8499094247817993, 1.1943424940109253, -1.2075306177139282, -2.6501803398132324, 1.069080114364624, -0.9274479746818542, 1.0802860260009766, 1.0880341529846191, 0.9859220385551453, 1.0129684209823608, -0.3582570552825928, 1.137739658355713], [0.8691582083702087, 1.267040491104126, -2.7926769256591797, 1.2286653518676758, 1.1028231382369995, 0.8216977119445801, 1.268201470375061, 1.377012848854065, 1.4181147813796997, 1.0514552593231201, 1.2780057191848755, -1.3339332342147827, 1.4367393255233765, -1.792935848236084, -0.9966087341308594, 1.0702779293060303, -2.365286111831665, 1.0432593822479248, -1.8119078874588013, -2.4922125339508057, 0.8258212208747864, -0.7245407104492188, 1.303333044052124, 1.2261446714401245, 0.8240894079208374, 0.8546656966209412, -0.1760760396718979, 1.1018879413604736], [-0.7483259439468384, 1.496769905090332, -5.171713829040527, 0.7097128033638, 0.2717973291873932, -1.2192823886871338, 1.560674786567688, -0.8407453298568726, 2.0994861125946045, -0.382750540971756, 2.045712471008301, 3.325145721435547, 1.214266061782837, -4.933651447296143, 3.816260576248169, 0.9104205965995789, -5.43940544128418, 1.4491022825241089, -5.456750869750977, 3.499222993850708, -1.1846857070922852, 3.291849136352539, 2.101491928100586, -0.13006138801574707, -0.587645411491394, -0.7975831627845764, 3.2933602333068848, 1.885136604309082], [0.004817178938537836, 0.058388885110616684, 0.01115518156439066, -0.197488933801651, -0.1524556577205658, -0.06938451528549194, 0.09429673105478287, -0.12829335033893585, -0.17081424593925476, -0.048374928534030914, 0.10220978409051895, -0.02759603224694729, 0.027262995019555092, 0.1237189918756485, -0.12374795973300934, -0.1096854954957962, 0.13186128437519073, 0.06682854145765305, -0.1521371752023697, -0.14469020068645477, 0.09772583842277527, 0.09698007255792618, -0.1561964899301529, -0.07808137685060501, -0.07658175379037857, -0.03036058507859707, -0.1292368322610855, -0.2064068764448166], [0.7686241865158081, 1.27190101146698, -2.371772050857544, 1.2004928588867188, 0.9755194783210754, 0.8827600479125977, 1.0888638496398926, 1.173226237297058, 0.9096431136131287, 1.2419402599334717, 1.1639386415481567, -1.7987151145935059, 1.2012745141983032, -1.8921782970428467, -1.1334114074707031, 0.9059321284294128, -1.9849492311477661, 0.9080832600593567, -1.6739736795425415, -2.7569587230682373, 0.8633245229721069, -1.1263244152069092, 1.0496488809585571, 0.9006493091583252, 0.8066016435623169, 0.8797085881233215, -0.34780216217041016, 1.0708085298538208], [0.8669288158416748, 1.0313776731491089, -2.3206183910369873, 1.211672067642212, 0.8355298638343811, 1.0905892848968506, 1.113661766052246, 1.5804637670516968, 1.1820875406265259, 1.0885635614395142, 1.1571046113967896, -1.6415308713912964, 1.0628252029418945, -1.8864216804504395, -1.4950189590454102, 1.166359543800354, -2.0386476516723633, 1.041942834854126, -1.3297293186187744, -2.957444429397583, 0.8141710758209229, -1.283653974533081, 1.0770821571350098, 1.1951045989990234, 0.8871186375617981, 0.6386452913284302, -0.44105401635169983, 1.1880096197128296], [1.2262228727340698, 1.1421328783035278, -2.1133151054382324, 1.4078036546707153, 1.2746944427490234, 1.3319830894470215, 1.1574296951293945, 1.3549327850341797, 0.9758049845695496, 1.4675029516220093, 0.9886861443519592, -1.8764657974243164, 1.226294755935669, -1.1949915885925293, -1.672603726387024, 1.0690646171569824, -1.533396601676941, 1.0560230016708374, -0.8224477171897888, -2.6576426029205322, 0.9448042511940002, -1.4563227891921997, 1.1789705753326416, 1.3325728178024292, 1.4312511682510376, 1.0217599868774414, -0.8387888669967651, 1.0333222150802612], [0.7956956028938293, 1.1583144664764404, -2.6240406036376953, 1.199310541152954, 0.9606736302375793, 0.9111749529838562, 1.1195073127746582, 1.432861089706421, 1.285286545753479, 1.0667617321014404, 1.0678328275680542, -1.4200791120529175, 1.3041749000549316, -1.777820110321045, -1.1136051416397095, 1.1505589485168457, -2.0553295612335205, 0.9238484501838684, -1.4690897464752197, -2.827197313308716, 0.6972602605819702, -0.8931564688682556, 1.2091702222824097, 1.0240888595581055, 1.0550668239593506, 0.6429072618484497, -0.4880443513393402, 1.2678401470184326], [1.0739692449569702, 1.019134283065796, -2.393188953399658, 0.9830360412597656, 1.085159420967102, 1.1496270895004272, 1.1272536516189575, 1.300961971282959, 1.0963218212127686, 0.922088086605072, 1.2101166248321533, -1.7290763854980469, 1.0845423936843872, -1.4979246854782104, -1.4720176458358765, 1.1156457662582397, -2.107788324356079, 0.8022854924201965, -1.4763591289520264, -2.4975109100341797, 0.8680944442749023, -1.3623312711715698, 0.9786936640739441, 1.0391230583190918, 1.0663683414459229, 0.6878400444984436, -0.5549895167350769, 0.8670945763587952], [1.1361292600631714, 1.2958420515060425, -2.5410654544830322, 1.222354769706726, 0.9131904244422913, 0.9195029735565186, 1.2132340669631958, 1.3847973346710205, 1.2809807062149048, 1.1957547664642334, 1.037277340888977, -1.609557032585144, 1.0906647443771362, -1.7878578901290894, -1.098685622215271, 0.9939015507698059, -2.0389699935913086, 1.0732083320617676, -1.5620417594909668, -2.7987453937530518, 0.6606677174568176, -0.802981972694397, 1.061511754989624, 1.0810211896896362, 1.1697825193405151, 0.897668182849884, -0.32445573806762695, 1.0564020872116089], [1.1202607154846191, 1.1206369400024414, -2.7372310161590576, 1.1154600381851196, 1.0845917463302612, 0.9943912029266357, 1.418534278869629, 1.417083978652954, 1.1500438451766968, 1.0735979080200195, 0.962387204170227, -1.710966944694519, 1.1925621032714844, -1.8847771883010864, -1.047934889793396, 1.161427617073059, -2.1359457969665527, 1.0319958925247192, -1.5684667825698853, -2.467801570892334, 0.7013566493988037, -0.9982219338417053, 1.3247100114822388, 0.9800333976745605, 1.1389660835266113, 0.7164614200592041, -0.22663260996341705, 1.0731470584869385], [1.1582915782928467, 1.2534608840942383, -2.4054603576660156, 1.3527276515960693, 1.3702272176742554, 1.2871054410934448, 1.2040339708328247, 1.4551870822906494, 1.1026300191879272, 1.3377461433410645, 1.2782762050628662, -1.7027372121810913, 1.2387456893920898, -1.3185456991195679, -1.4404022693634033, 1.2126543521881104, -1.7773278951644897, 0.9235855937004089, -0.9515978097915649, -2.8364102840423584, 1.2309335470199585, -1.269953727722168, 1.2737809419631958, 1.3210715055465698, 1.26664137840271, 1.1193610429763794, -0.5614061951637268, 1.1541461944580078], [0.868948221206665, 1.2490447759628296, -2.5934863090515137, 1.2168906927108765, 0.9481501579284668, 1.1914629936218262, 1.1314769983291626, 1.3141870498657227, 1.0264012813568115, 1.21290922164917, 0.997052013874054, -1.8123667240142822, 0.9629107713699341, -1.7120015621185303, -1.275190830230713, 1.158191204071045, -2.1692252159118652, 0.8195898532867432, -1.514167070388794, -2.703427791595459, 0.896950900554657, -1.1915706396102905, 1.1712234020233154, 0.9331383109092712, 1.1545368432998657, 0.8225505352020264, -0.4895239472389221, 1.1637479066848755], [1.2183947563171387, 0.9638596177101135, -2.548966407775879, 0.9847495555877686, 1.1930878162384033, 1.0876648426055908, 1.025049090385437, 1.3059048652648926, 0.9170589447021484, 1.1650797128677368, 1.0059064626693726, -1.900444746017456, 1.2598940134048462, -1.6536158323287964, -1.4698426723480225, 1.1414028406143188, -2.0401268005371094, 0.9419766068458557, -1.3894137144088745, -2.8514552116394043, 1.0629374980926514, -0.9871800541877747, 1.0282652378082275, 1.126677393913269, 1.2078289985656738, 0.95268315076828, -0.6566900014877319, 1.1260285377502441], [-0.36415186524391174, 1.2551381587982178, -2.6363348960876465, 0.4833349883556366, -0.12679226696491241, -0.8052648901939392, 1.1886833906173706, 0.6588445901870728, 1.7404124736785889, -0.3925209939479828, 1.6865928173065186, 2.1568782329559326, 0.6834988594055176, -3.205690860748291, 2.7855725288391113, 0.7572565674781799, -2.981316566467285, 1.3841912746429443, -3.3100011348724365, 1.6396254301071167, -0.6581018567085266, 2.5075206756591797, 1.7530148029327393, -0.2552991211414337, -0.4392302334308624, -0.515876054763794, 3.28857159614563, 1.5518308877944946], [1.2743005752563477, 1.052517294883728, -2.1574819087982178, 1.1115103960037231, 1.2231706380844116, 1.252817988395691, 1.0024406909942627, 1.5937288999557495, 0.9688307046890259, 1.2415729761123657, 0.8638057112693787, -1.8440982103347778, 1.3242896795272827, -1.3929328918457031, -1.5671651363372803, 1.0194956064224243, -1.611505389213562, 0.7677891850471497, -1.1067982912063599, -2.9130842685699463, 1.240094780921936, -1.339082956314087, 1.126561164855957, 1.3669029474258423, 1.1042811870574951, 0.9722604155540466, -0.5770629048347473, 1.038528561592102], [1.0756354331970215, 1.0451738834381104, -2.6147584915161133, 1.0061662197113037, 1.0085532665252686, 1.1409143209457397, 1.1949422359466553, 1.195793628692627, 1.2149654626846313, 1.1338037252426147, 0.9743236899375916, -1.5782464742660522, 1.126643180847168, -1.783230185508728, -1.4347501993179321, 1.210697054862976, -2.1049258708953857, 1.103805661201477, -1.188971757888794, -2.7625162601470947, 0.9208021759986877, -1.1280066967010498, 0.9731407761573792, 1.1719321012496948, 1.026253342628479, 0.8178617358207703, -0.6009401082992554, 1.272478461265564], [0.08178307861089706, -0.1536513864994049, -0.04026326537132263, -0.07953298836946487, 0.06725389510393143, -0.11255282908678055, 0.07563069462776184, -0.14383642375469208, 0.04215457662940025, 0.07017253339290619, 0.04194450378417969, 0.0812414363026619, 0.06758548319339752, 0.010826372541487217, -0.10108858346939087, 0.057600997388362885, 0.06626512855291367, 0.04856788367033005, 0.04282320290803909, 0.1383873075246811, -0.1915537565946579, 0.018205301836133003, -0.055500831454992294, -0.20307056605815887, -0.09029946476221085, 0.14696456491947174, -0.152269646525383, -0.08718304336071014], [2.6970789432525635, 0.22951114177703857, 3.9827513694763184, 1.6695868968963623, 2.262493133544922, 2.887110710144043, 0.2203471064567566, 0.5320977568626404, -1.1084400415420532, 2.1880481243133545, -0.3559909164905548, -5.052140235900879, 0.8596727848052979, 3.8267691135406494, -5.378589630126953, 0.5857154130935669, 4.176537990570068, -0.2243850827217102, 4.22129487991333, -4.001970291137695, 2.9684019088745117, -5.117512226104736, -0.9387078285217285, 2.1345555782318115, 2.399566173553467, 2.5762174129486084, -5.006582736968994, -0.2007715255022049], [0.9998120069503784, 1.0318481922149658, -2.2074456214904785, 1.3332242965698242, 0.939673125743866, 1.4018946886062622, 1.2616695165634155, 1.170049786567688, 0.9517141580581665, 1.217952847480774, 1.0451558828353882, -1.646559715270996, 1.1919182538986206, -1.5074704885482788, -1.252821445465088, 1.050890564918518, -1.7298451662063599, 0.9939794540405273, -1.1611047983169556, -2.8415088653564453, 1.081139326095581, -1.1606106758117676, 1.0153796672821045, 1.3728015422821045, 1.17162024974823, 1.0491942167282104, -0.6604622006416321, 1.3127872943878174], [1.3714827299118042, 1.1975783109664917, -2.279254198074341, 1.3851100206375122, 1.0602282285690308, 1.2961574792861938, 1.2954460382461548, 1.3303618431091309, 1.2983025312423706, 1.3405061960220337, 1.11785089969635, -1.6928023099899292, 1.1924103498458862, -1.3792351484298706, -1.4203792810440063, 1.0767898559570312, -1.8567614555358887, 0.9481388330459595, -1.3246551752090454, -2.61651349067688, 1.0175882577896118, -1.1857597827911377, 1.2004956007003784, 1.4445717334747314, 1.2458876371383667, 0.9224303364753723, -0.6236878037452698, 1.0461170673370361], [0.9734187126159668, 1.2443878650665283, -2.3834710121154785, 1.2074627876281738, 1.0040827989578247, 1.1336642503738403, 1.1327588558197021, 1.494701862335205, 1.1870683431625366, 1.3202553987503052, 0.9361488223075867, -1.8662539720535278, 1.0685198307037354, -1.6938499212265015, -1.3650131225585938, 1.32994544506073, -1.7851635217666626, 1.1178278923034668, -1.2487996816635132, -2.691239595413208, 1.109139084815979, -1.2995140552520752, 0.9570150375366211, 1.2616798877716064, 1.0546742677688599, 1.0366920232772827, -0.7281368374824524, 1.2374836206436157], [-0.45327630639076233, 1.2430853843688965, -4.382851600646973, 0.9515705704689026, 0.2501620352268219, -1.1941519975662231, 1.2873629331588745, -1.3159011602401733, 1.6052905321121216, -0.5265738368034363, 1.7434130907058716, 2.5624382495880127, 0.6240440011024475, -3.4254648685455322, 2.597914695739746, 0.4797406494617462, -4.890529155731201, 1.0029351711273193, -3.899887800216675, 3.3117685317993164, -1.4454057216644287, 2.391584634780884, 1.7429417371749878, -0.4118225872516632, -0.5770105719566345, -0.7043048739433289, 2.3105525970458984, 1.3052246570587158], [0.8686375021934509, 1.3426909446716309, -2.542717218399048, 1.1492668390274048, 1.1228128671646118, 1.2281306982040405, 1.2898683547973633, 1.3393027782440186, 1.1145328283309937, 1.123518943786621, 1.2870581150054932, -1.3935649394989014, 1.2175815105438232, -1.947192907333374, -1.2790533304214478, 1.34502375125885, -2.0443644523620605, 1.0777825117111206, -1.6434855461120605, -2.7255961894989014, 1.0489689111709595, -0.9806768298149109, 1.2341309785842896, 1.1803579330444336, 0.8686625361442566, 0.8082581162452698, -0.10616662353277206, 1.212243914604187]], "SEQL.2.bias": [1.22811758518219, 1.156587839126587, -0.2097032517194748, 1.1114450693130493, 1.2900129556655884, 1.0446031093597412, 0.7888872027397156, 0.09828005731105804, 1.030580759048462, 1.158857822418213, 1.4325398206710815, 1.0004565715789795, 1.223235845565796, 1.182633399963379, 1.3598662614822388, 1.1662298440933228, 0.9996306300163269, 1.1726802587509155, 0.43702444434165955, 1.1323182582855225, 1.3347339630126953, -0.17648983001708984, 1.3487027883529663, 1.3679263591766357, 1.299682378768921, 1.2520869970321655, 0.8957017064094543, 1.1934338808059692], "SEQL.4.weight": [[0.11433370411396027, -0.18746715784072876, -0.14508114755153656, 0.06785157322883606, 0.25075775384902954, -0.835607647895813, -2.1283881664276123, 0.010273170657455921, -0.42595911026000977, -0.4025513231754303, 0.5629695057868958, -0.6368905901908875, -0.319937139749527, -0.32152897119522095, -0.5397323369979858, 0.5946522951126099, -0.3766360878944397, 0.095670185983181, -2.39608097076416, 0.505676805973053, -0.17323167622089386, 0.025432633236050606, 1.9681625366210938, 0.4140690565109253, 0.25605061650276184, 0.17300768196582794, -1.2106090784072876, -0.06428463011980057], [2.8975112438201904, 2.697094440460205, -0.06359510123729706, 2.404143810272217, 2.4603850841522217, 2.6616103649139404, -0.9759597778320312, 0.02170630730688572, 3.239312171936035, 2.9560251235961914, 2.325833320617676, 2.922680139541626, 3.0598220825195312, 2.5422866344451904, 2.572803020477295, 2.566782236099243, 3.2568087577819824, 3.141221284866333, 0.06229385361075401, 2.7665936946868896, 2.6912059783935547, 0.12622226774692535, -0.47203996777534485, 2.612093687057495, 2.5984606742858887, 2.8016610145568848, -1.491025447845459, 2.6363046169281006], [2.7321579456329346, 2.4780023097991943, -0.1723977029323578, 2.417194128036499, 2.3260037899017334, 2.41335129737854, -1.5446059703826904, 0.08759572356939316, 3.016631841659546, 3.010254383087158, 2.46637225151062, 2.807293653488159, 3.0527548789978027, 2.4618709087371826, 2.5571160316467285, 2.4140779972076416, 2.987454652786255, 2.954381227493286, -0.4370455741882324, 2.6765146255493164, 2.7760701179504395, -0.041601065546274185, 0.016910424456000328, 2.5306928157806396, 2.2588155269622803, 2.5734219551086426, -1.584682822227478, 2.2539315223693848], [2.5926175117492676, 2.5608396530151367, 0.09347619116306305, 2.3054018020629883, 2.4126155376434326, 2.177150011062622, -1.201505184173584, -0.1328507661819458, 2.8151986598968506, 3.029416799545288, 2.3820457458496094, 2.5389797687530518, 3.290271282196045, 2.5926761627197266, 2.4016244411468506, 2.361436605453491, 3.0672812461853027, 2.8318536281585693, -0.4308984875679016, 2.4933719635009766, 2.6971628665924072, 0.016861556097865105, 0.11430280655622482, 2.5656332969665527, 2.3898444175720215, 2.5395829677581787, -1.6966722011566162, 2.563037872314453], [-0.11637278646230698, 0.013498242013156414, 0.10360120981931686, -0.1119767427444458, -0.03611990809440613, -0.10255011171102524, -0.14734479784965515, 0.0036910593044012785, -0.05280656740069389, -0.14144372940063477, 0.01746140979230404, 0.09491776674985886, 0.10361029207706451, 0.05888685584068298, -0.020131828263401985, -0.15020032227039337, 0.13665153086185455, 0.12159566581249237, 0.07586169987916946, -0.08236284554004669, 0.09867455065250397, 0.11008492112159729, -0.021974802017211914, -0.1578374058008194, -0.06110941246151924, -0.04476236179471016, 0.05755626782774925, -0.022079596295952797], [2.611400604248047, 2.478785753250122, -0.12423444539308548, 2.529212236404419, 2.2629430294036865, 2.684915542602539, -0.9003691077232361, -0.08623713999986649, 3.177000045776367, 3.1730709075927734, 2.64333438873291, 2.797408103942871, 3.3085227012634277, 2.7110729217529297, 2.855868101119995, 2.5649144649505615, 3.2981839179992676, 3.005441665649414, -0.17209279537200928, 2.820727825164795, 2.9176347255706787, -0.12661759555339813, -0.5051395297050476, 2.7173001766204834, 2.645834445953369, 2.622375249862671, -1.456444263458252, 2.4600131511688232], [0.08710925281047821, -0.04854912683367729, -0.07271776348352432, 0.07514592260122299, -0.08835946768522263, -0.032528914511203766, -0.1136539876461029, 0.13709262013435364, -0.014949893578886986, 0.13619109988212585, -0.18290500342845917, -0.13578324019908905, -0.16536693274974823, -0.2084924280643463, 0.0735974907875061, -0.050129469484090805, 0.10569189488887787, -0.1230795681476593, -0.037384044378995895, -0.012108854949474335, 0.11473634093999863, 0.014076421037316322, -0.036087516695261, -0.17928127944469452, -0.1385989785194397, -0.09736382216215134, -0.13562257587909698, -0.14569251239299774], [2.843733310699463, 2.380858898162842, -0.15968969464302063, 2.391618013381958, 2.215709924697876, 2.199894428253174, -1.480233907699585, -0.10756970196962357, 3.0323784351348877, 3.0579142570495605, 2.2930307388305664, 2.738537311553955, 3.1628968715667725, 2.6600117683410645, 2.466115713119507, 2.3217837810516357, 2.8246285915374756, 3.092710494995117, -0.21643953025341034, 2.554759979248047, 2.9364302158355713, -0.08892586827278137, -0.01607426255941391, 2.3841841220855713, 2.5193068981170654, 2.493307113647461, -1.71897292137146, 2.32857608795166], [-0.2993212342262268, 0.08509205281734467, 0.14570948481559753, 0.15807296335697174, 0.0870853140950203, -0.020178182050585747, 1.4344812631607056, 0.18357685208320618, -0.9566212296485901, -0.6773552894592285, 0.02777036279439926, -0.3486918807029724, -0.8062189221382141, -0.34561285376548767, -0.2266826182603836, 0.21104253828525543, -0.6730554699897766, -0.8442110419273376, 1.0402227640151978, -0.5717928409576416, -0.4123987555503845, -0.15506720542907715, 2.2557425498962402, -0.16918118298053741, 0.2065490186214447, -0.21890367567539215, 1.9907186031341553, 0.0731920376420021], [1.4844259023666382, 1.1349256038665771, -0.0013892942806705832, 1.4498788118362427, 1.482293963432312, 0.8082700967788696, -4.523808479309082, -0.011598586104810238, 1.292256474494934, 1.4794868230819702, 1.834404706954956, 1.3281280994415283, 1.8650569915771484, 1.2473465204238892, 1.1078605651855469, 1.4592084884643555, 1.3584468364715576, 1.7012882232666016, -2.2944371700286865, 1.8097186088562012, 1.663068413734436, 0.0025602856185287237, 2.4994089603424072, 1.6739819049835205, 1.6212931871414185, 1.7159104347229004, -4.356466770172119, 0.9314060807228088], [0.07463040947914124, 0.08140035718679428, -0.11638990789651871, -0.09603694826364517, -0.17129972577095032, -0.008109674789011478, -0.1416233777999878, 0.14648136496543884, -0.024347970262169838, -0.03136517107486725, -0.15391618013381958, -0.04149102792143822, -0.12648537755012512, -0.15660744905471802, 0.07700208574533463, 0.061831798404455185, 0.05713128298521042, -0.10676625370979309, -0.015361849218606949, 0.13162854313850403, -0.1292877495288849, -0.00719821872189641, -0.08626463264226913, -0.11190719902515411, -0.052129048854112625, 0.09887605160474777, 0.17220474779605865, -0.12329179048538208], [0.26687654852867126, 1.3420400619506836, -0.1080348789691925, 0.9540923833847046, 0.7899538278579712, 1.4432759284973145, 2.6291449069976807, 0.17387819290161133, 1.12453293800354, 0.7607050538063049, -0.1704978495836258, 1.1026973724365234, 0.5443398356437683, 1.3047544956207275, 1.1838935613632202, 0.35193493962287903, 0.6370596289634705, 0.4675195515155792, 1.733485221862793, -0.09793020784854889, 0.7023705840110779, 0.18785180151462555, -4.311308860778809, 0.5106898546218872, 0.4937662184238434, 0.4978313148021698, 2.5551629066467285, 1.0119127035140991], [2.6119472980499268, 2.7658421993255615, -0.024626143276691437, 2.2899327278137207, 2.5901079177856445, 2.7026827335357666, 0.36736899614334106, -0.06850510835647583, 3.1487746238708496, 2.949442148208618, 2.2422964572906494, 2.878545045852661, 3.008497953414917, 2.7833189964294434, 2.8183584213256836, 2.442638635635376, 3.2093000411987305, 2.951350688934326, 0.0887569785118103, 2.636643648147583, 3.022026777267456, -0.04600133001804352, -1.6905615329742432, 2.4141411781311035, 2.4898948669433594, 2.7224416732788086, -0.5651505589485168, 2.3720695972442627], [0.033044055104255676, 0.9006929397583008, -0.058433663100004196, 0.5489376187324524, 0.6189978718757629, 1.0946409702301025, 2.624913454055786, -0.028203396126627922, 0.6692292094230652, 0.5788644552230835, -0.2342497706413269, 0.880833089351654, 0.3816870450973511, 0.6022214293479919, 0.6537113785743713, 0.3192434012889862, 0.6038371324539185, 0.046560123562812805, 2.0115156173706055, -0.0031292825005948544, 0.2534960210323334, -0.050358373671770096, -3.840162515640259, 0.26705244183540344, 0.27890506386756897, 0.06970977038145065, 2.4030351638793945, 0.660161018371582], [0.15915091335773468, -0.16880016028881073, -0.05379824712872505, -0.08814918249845505, 0.09155698865652084, -0.022230612114071846, -0.06711368262767792, -0.16495835781097412, -0.08233988285064697, -0.11126130819320679, -0.05866400524973869, -0.17631179094314575, -0.027235575020313263, 0.028001563623547554, 0.14475665986537933, 0.020243940874934196, -0.15797992050647736, -0.08228915184736252, -0.04599212110042572, 0.030607113614678383, -0.043855682015419006, -0.07245251536369324, -0.16743749380111694, -0.0996658056974411, -0.13263952732086182, 0.06589903682470322, -0.14884696900844574, -0.01314333826303482], [2.8083677291870117, 2.5139565467834473, 0.06842601299285889, 2.501034736633301, 2.463768482208252, 2.4570515155792236, -0.4857427477836609, 0.05903026834130287, 3.1872317790985107, 3.0155606269836426, 2.5795164108276367, 2.825317144393921, 3.1520888805389404, 2.8730452060699463, 2.8226301670074463, 2.3071115016937256, 3.0898995399475098, 3.1808106899261475, 0.1629679948091507, 2.7277395725250244, 3.005553722381592, -0.15482190251350403, -1.0719040632247925, 2.606534242630005, 2.581932544708252, 2.859086036682129, -1.0227713584899902, 2.4364471435546875], [2.6542718410491943, 2.4351189136505127, -0.05100994557142258, 2.677504539489746, 2.596712112426758, 2.759417772293091, -0.2623416483402252, -0.07022657990455627, 3.3181264400482178, 3.1681277751922607, 2.179781913757324, 2.7247655391693115, 3.120729446411133, 2.5758113861083984, 2.8670883178710938, 2.2738473415374756, 3.0930025577545166, 2.8344547748565674, 0.27411937713623047, 2.4854965209960938, 2.914031505584717, 0.06634528189897537, -1.4527415037155151, 2.5916292667388916, 2.614835500717163, 2.6369500160217285, -0.8742859959602356, 2.6850156784057617], [2.760373830795288, 2.3622944355010986, -0.1487676352262497, 2.5917575359344482, 2.4804699420928955, 2.5324788093566895, -1.2021902799606323, -0.12462949752807617, 2.9503984451293945, 2.9157023429870605, 2.629446506500244, 2.584491491317749, 3.2885334491729736, 2.4977152347564697, 2.639317035675049, 2.599252223968506, 3.0676324367523193, 3.1274969577789307, -0.266496479511261, 2.6163549423217773, 2.880660057067871, -0.04035607725381851, -0.09928334504365921, 2.445937156677246, 2.361786127090454, 2.934269428253174, -1.7225804328918457, 2.3406763076782227], [2.861274242401123, 2.465615749359131, 0.03576486557722092, 2.5222983360290527, 2.5071942806243896, 2.595329761505127, -0.6082218289375305, -0.1672404557466507, 3.057910442352295, 3.250201463699341, 2.509294033050537, 2.71081805229187, 3.3700928688049316, 2.859955072402954, 2.587660789489746, 2.642817258834839, 3.3030431270599365, 2.9868998527526855, -0.20428338646888733, 2.8438589572906494, 3.0460238456726074, -0.02459428459405899, -0.8742226362228394, 2.492205858230591, 2.4132885932922363, 2.6625607013702393, -1.071427583694458, 2.647756814956665], [-0.05656549707055092, -0.20253139734268188, -0.002568962750956416, 0.07492344081401825, -0.08735341578722, -0.22534005343914032, 0.04158349707722664, -0.1401754468679428, 0.10976877063512802, -0.04121151939034462, 0.06346740573644638, -0.05985693633556366, 0.09375599026679993, -0.11989742517471313, -0.17103102803230286, -0.026935432106256485, 0.0967499315738678, -0.15926165878772736, 0.1464226245880127, 0.05795007199048996, -0.14107251167297363, 0.10650438070297241, -0.156962588429451, -0.19524627923965454, -0.12405358254909515, -0.13945652544498444, -0.19251205027103424, 0.09388258308172226], [2.6587390899658203, 2.5232346057891846, -0.033050116151571274, 2.6238532066345215, 2.453352928161621, 2.6365392208099365, -0.1692463457584381, -0.03053981438279152, 3.15061092376709, 3.041013479232788, 2.4919824600219727, 2.651251792907715, 3.148770809173584, 2.8219563961029053, 2.738105535507202, 2.461031198501587, 3.114488124847412, 3.0038068294525146, 0.08792289346456528, 2.8384180068969727, 3.027588129043579, -0.20579680800437927, -1.3310273885726929, 2.6272194385528564, 2.6487538814544678, 2.807664394378662, -1.0172555446624756, 2.5848453044891357], [2.5837128162384033, 2.7604236602783203, -0.14202909171581268, 2.640749931335449, 2.5879881381988525, 2.4224836826324463, 0.004230256658047438, 0.05348474532365799, 3.0321829319000244, 3.1197850704193115, 2.4484827518463135, 2.865518093109131, 3.1986522674560547, 2.7794439792633057, 2.713395833969116, 2.376340389251709, 3.0245018005371094, 2.8491809368133545, 0.3207937479019165, 2.8320014476776123, 2.907418727874756, 0.0279541052877903, -1.5780935287475586, 2.6023972034454346, 2.3760921955108643, 2.65120792388916, -0.7518342137336731, 2.709704637527466], [-0.289065420627594, 0.22922424972057343, 0.031908221542835236, 0.10971460491418839, -0.18455345928668976, 0.13239482045173645, 0.7699140310287476, 0.029032735154032707, -0.057194244116544724, -0.34004008769989014, -0.5200027227401733, 0.027217252179980278, -0.3441148102283478, -0.12264209985733032, 0.2064877450466156, -0.3186880648136139, -0.1367795169353485, -0.15556898713111877, 0.8412859439849854, -0.23304951190948486, -0.29974982142448425, 0.1329505443572998, -0.21096043288707733, -0.32285791635513306, -0.13549089431762695, -0.44695624709129333, 0.6480745077133179, 0.10745757073163986], [1.3787574768066406, 0.4456949234008789, 0.06054697185754776, 0.9455497860908508, 1.1438415050506592, 0.2589018940925598, -5.28815221786499, 0.04134367033839226, 0.6745219230651855, 0.8176919221878052, 1.6912568807601929, 0.36291754245758057, 0.9476319551467896, 0.7341877818107605, 0.37004759907722473, 1.489654302597046, 0.6468348503112793, 1.1697653532028198, -3.63515305519104, 1.6219910383224487, 0.877293050289154, 0.16966859996318817, 3.3374836444854736, 1.2810637950897217, 1.3487778902053833, 1.1256489753723145, -5.4836530685424805, 0.5751820802688599], [2.579474449157715, 2.3067421913146973, -0.011321417056024075, 2.310610055923462, 2.1573550701141357, 2.138777256011963, -1.4683865308761597, -0.08363110572099686, 2.7746493816375732, 2.783555746078491, 2.257129192352295, 2.6417016983032227, 3.084848403930664, 2.4524710178375244, 2.400209426879883, 2.119842290878296, 2.9247853755950928, 2.655062437057495, -0.46092745661735535, 2.552462339401245, 2.5118138790130615, 0.074940025806427, 0.5111899971961975, 2.307462692260742, 2.3990981578826904, 2.6161723136901855, -1.8744663000106812, 2.233696460723877], [1.2007620334625244, 0.3344922661781311, -0.047335829585790634, 0.9530493021011353, 0.9954030513763428, 0.22525224089622498, -4.806678295135498, -0.12167464941740036, 0.43653377890586853, 0.7357285618782043, 1.5582412481307983, 0.3639878034591675, 0.8553074598312378, 0.6695771813392639, 0.6141201257705688, 1.3924444913864136, 0.8483694791793823, 0.9592897295951843, -3.6207363605499268, 1.4499088525772095, 0.8606151938438416, 0.08517716079950333, 3.274432420730591, 1.4025540351867676, 1.1319674253463745, 1.03975248336792, -5.071638584136963, 0.42284777760505676], [2.7257611751556396, 2.4499077796936035, 0.07357055693864822, 2.4043917655944824, 2.4992995262145996, 2.4232399463653564, -0.9587620496749878, 0.10772688686847687, 3.029813528060913, 3.036102294921875, 2.4614031314849854, 2.7206532955169678, 3.275254726409912, 2.6609013080596924, 2.6657352447509766, 2.604285478591919, 2.9609904289245605, 3.223620653152466, -0.04832780361175537, 2.5744755268096924, 2.8644979000091553, 0.051696307957172394, -0.4973461925983429, 2.627370595932007, 2.3207247257232666, 2.7098662853240967, -1.13094961643219, 2.6516215801239014], [-0.12627577781677246, 0.09487339109182358, 0.059673573821783066, 0.07480651885271072, -0.2043577879667282, -0.09312963485717773, -0.18607564270496368, 0.02695162408053875, 0.0502188615500927, 0.04994957149028778, 0.1122884601354599, -0.11335363239049911, 0.008166871964931488, 0.06892985850572586, -0.07777089625597, -0.06225602328777313, -0.14466975629329681, -0.12267144024372101, 0.042126644402742386, 0.040705349296331406, -0.018497155979275703, -0.09049811214208603, -0.15252012014389038, -0.0420445054769516, -0.02198147587478161, -0.2230100780725479, -0.06995247304439545, -0.0466778390109539]], "SEQL.4.bias": [0.7705645561218262, 1.050819754600525, 1.1049994230270386, 1.0444236993789673, -0.03451289236545563, 1.0349100828170776, 0.09972401708364487, 1.2241880893707275, 1.1104527711868286, 1.0247992277145386, -0.08866354823112488, 0.14582836627960205, 1.0912425518035889, 0.5212932229042053, -0.07748791575431824, 0.9914263486862183, 1.1828131675720215, 1.1345553398132324, 1.061794638633728, 0.06646303832530975, 0.9647773504257202, 1.1379196643829346, 0.4060460329055786, 1.1801726818084717, 0.7781893014907837, 1.351002812385559, 1.2582341432571411, 0.03563692793250084], "SEQL.6.weight": [[-1.1308516263961792, 2.4088172912597656, 2.5952749252319336, 2.5209856033325195, -0.084821417927742, 2.3297505378723145, -0.1231536865234375, 2.5780043601989746, -3.425933837890625, 3.0566444396972656, 0.08330317586660385, -1.9521020650863647, 1.8496564626693726, -2.3104259967803955, 0.03443419933319092, 2.141247272491455, 2.068455696105957, 2.495147943496704, 2.2230591773986816, -0.0698496401309967, 2.1362924575805664, 1.9917889833450317, -1.074056625366211, 2.548560380935669, 2.4755563735961914, 2.3481340408325195, 2.2810401916503906, -0.12869830429553986], [-3.109614372253418, 2.507284641265869, 2.2746756076812744, 2.2559421062469482, -0.09396807849407196, 2.4529247283935547, 0.08854426443576813, 2.2618682384490967, -2.9117324352264404, -0.7981498837471008, -0.10758651793003082, 2.4721155166625977, 2.7634811401367188, 1.7029619216918945, -0.15713299810886383, 2.6060354709625244, 2.754033088684082, 2.3292415142059326, 2.5148983001708984, 0.07061806321144104, 2.681565046310425, 2.687784194946289, -0.8728690147399902, -2.7475008964538574, 2.0074315071105957, -2.5676558017730713, 2.4057655334472656, -0.01508525013923645]], "SEQL.6.bias": [0.9782527685165405, 0.6489572525024414]}