{"SEQL.0.weight": [[0.031137509271502495, 0.5185939073562622, -0.16856250166893005, -0.45682573318481445], [-0.5955990552902222, -0.06593151390552521, 0.09542471915483475, 0.5269021987915039], [0.509499192237854, -0.4643879234790802, -0.6751037836074829, 0.14438436925411224], [-0.0091874273493886, -0.5483682155609131, -0.17705370485782623, -0.005729002878069878], [-0.3188741207122803, 0.0241985060274601, 0.08966076374053955, -0.05519679933786392], [0.2059738039970398, -0.5477800965309143, -0.1398746818304062, -0.5570054054260254], [-0.10102694481611252, -0.5400930047035217, -0.49304497241973877, 0.16395896673202515], [0.07742387056350708, -0.23452183604240417, -0.8098598718643188, -0.309902548789978], [-0.6273327469825745, -0.26423871517181396, 0.5139321684837341, 0.42587146162986755], [0.14595049619674683, -0.24438358843326569, -1.0645976066589355, -0.4333547353744507], [-0.3200738728046417, 0.12050151824951172, 0.85088050365448, 0.49273982644081116], [0.06361781805753708, 0.0864136591553688, -0.28182968497276306, 0.28567323088645935], [0.2441767454147339, 0.5408142805099487, 0.5096166133880615, -0.171865776181221], [0.22497470676898956, 0.2393498420715332, -0.18729491531848907, -0.08657462149858475], [0.08154001832008362, 0.25627657771110535, -0.07679874449968338, -0.3838229179382324], [-0.4725567400455475, -0.12226125597953796, 0.45786502957344055, -0.08659663051366806], [-0.32655903697013855, -0.19763903319835663, 0.010859639383852482, 0.18635180592536926], [-0.08424215018749237, 0.2671477794647217, 0.1382949948310852, 0.39957675337791443], [0.04051317274570465, -0.05320935323834419, 0.08778776228427887, -0.12257426977157593], [0.42228999733924866, -0.23902741074562073, 0.1405147761106491, 0.009023977443575859], [0.058112092316150665, 0.6160428524017334, 0.4281363785266876, -0.029416203498840332], [-0.10894135385751724, -0.32079756259918213, 0.9081581234931946, 0.4093153178691864], [0.30299028754234314, 0.12559084594249725, 0.11451581120491028, -0.11517404019832611], [0.26090705394744873, 0.5846432447433472, 0.7617525458335876, -0.30588600039482117], [0.5716000199317932, -0.4013154208660126, -0.0912991464138031, -0.4597523808479309], [0.5217422246932983, -0.3881077170372009, -0.7535911202430725, 0.4561082422733307], [-0.31623557209968567, 0.450031042098999, 0.31681662797927856, -0.4598931670188904], [-0.37143459916114807, -0.12792202830314636, 0.29889732599258423, 0.2413872927427292], [-0.1487240195274353, -0.38302138447761536, 0.04209032282233238, -0.38712069392204285], [-0.3199006915092468, -0.057310715317726135, 0.8547173142433167, 0.3061910569667816], [0.4256867468357086, -0.3428634703159332, -0.18478065729141235, -0.33897554874420166], [-0.23439109325408936, -0.23704859614372253, 0.29582932591438293, -0.17977842688560486], [0.054479800164699554, 0.5039710402488708, 0.41042688488960266, -0.01863853633403778], [-0.014492545276880264, 0.28417885303497314, -0.06518436223268509, -0.32935354113578796], [-0.2872220277786255, 0.5281385183334351, 0.17038916051387787, -0.22618189454078674], [-0.011250817216932774, 0.18316952884197235, -0.14781737327575684, 0.021401802077889442], [-0.14774607121944427, 0.6076998710632324, 0.4033903181552887, -0.009228617884218693], [0.06851831078529358, 0.29999127984046936, -0.65728360414505, -0.15262101590633392], [0.21615591645240784, 0.22867268323898315, -0.9262428879737854, -0.14680716395378113], [0.48504728078842163, 0.22624552249908447, -0.3820664584636688, 0.4330995976924896], [-0.4713019132614136, 0.13557730615139008, 0.18178601562976837, 0.0011779856868088245], [-0.08875203877687454, -0.15696287155151367, 0.26445385813713074, 0.20990903675556183], [-0.7100666761398315, -0.3767590820789337, 0.6315637230873108, 0.17988458275794983], [0.4578220844268799, -0.29010841250419617, 0.13977199792861938, -0.2760549783706665], [-0.03844507783651352, 0.17038244009017944, 0.40985915064811707, 0.3078095018863678], [-0.627747654914856, 0.4960077702999115, 0.902522623538971, 0.524960458278656], [0.2471276819705963, -0.1342732012271881, -0.2821046710014343, -0.42542967200279236], [-0.5531433820724487, 0.10515261441469193, 0.3958413898944855, 0.4278174042701721], [0.2605699896812439, -0.2058805525302887, -0.5783517956733704, -0.5818353295326233], [-0.25211647152900696, -0.49996140599250793, -0.6347664594650269, 0.024444201961159706], [0.2952943444252014, 0.20363393425941467, 0.36822861433029175, -0.40050625801086426], [0.21663720905780792, 0.40748098492622375, 0.2360222041606903, 0.0066235861741006374], [0.30589789152145386, -0.21523872017860413, -0.12141671776771545, -0.6209884881973267], [-0.002735989401116967, 0.47914642095565796, 1.0678693056106567, 0.6259312629699707], [-0.5977320671081543, 0.07719772309064865, 0.5014061331748962, 0.3859878182411194], [-0.24479010701179504, 0.1835617572069168, 0.1329699158668518, 0.2201949656009674], [0.19396772980690002, 0.31481221318244934, -0.8596805334091187, -0.36477163434028625], [-0.17868763208389282, -0.3359726071357727, -0.11974743753671646, -0.2563338577747345], [-0.3110204339027405, -0.3907671868801117, 0.44522973895072937, -0.2511617839336395], [-0.2155103087425232, 0.20246048271656036, 1.0095300674438477, 0.33942916989326477], [-0.028003761544823647, 0.19088998436927795, 0.4823056161403656, 0.23014229536056519], [-0.443295955657959, 0.4972352087497711, 0.22901947796344757, -0.402713805437088], [-0.1116495430469513, -0.4236615002155304, 0.2996879816055298, -0.400124192237854], [0.14058320224285126, -0.4437284469604492, -0.3722658157348633, -0.19843518733978271], [0.17983613908290863, -0.4388878643512726, 0.07701684534549713, -0.4057369530200958], [0.45147740840911865, -0.12348109483718872, -0.22604720294475555, -0.2787467837333679], [0.3829977810382843, -0.439054012298584, -0.3201429545879364, 0.24243000149726868], [-0.801796019077301, 0.07949604094028473, 1.0661653280258179, 0.34313899278640747], [-0.16826076805591583, -0.34343329071998596, -0.5322051048278809, -0.0036579256411641836], [0.6295456290245056, -0.31072142720222473, -0.2104322463274002, 0.128550186753273], [0.370400607585907, -0.5352835059165955, -0.010773580521345139, 0.2934041917324066], [0.021753067150712013, -0.14708620309829712, -0.9738441705703735, -0.5844859480857849], [0.608788788318634, -0.435564786195755, -0.9889951348304749, -0.4055688977241516], [0.2694011628627777, 0.14930924773216248, 0.507432222366333, 0.29888659715652466], [0.2513691186904907, 0.49516162276268005, 0.16926759481430054, 0.11040743440389633], [-0.10486796498298645, -0.2995881140232086, -0.2679552733898163, 0.41580209136009216], [-0.2869284749031067, -0.4927575886249542, 0.014417880214750767, -0.004985086619853973], [0.08448529243469238, 0.37896206974983215, 0.07570739835500717, -0.09251540154218674], [-0.2780910134315491, 0.36758190393447876, -0.2582305669784546, -0.20145770907402039], [0.24280554056167603, -0.0276198573410511, -0.4027619957923889, -0.32961851358413696], [0.36339712142944336, 0.2108384370803833, -0.7045246362686157, 0.10097377002239227], [0.12150563299655914, -0.1608697474002838, -0.3033553957939148, -0.02070099115371704], [0.39187008142471313, -0.5609394311904907, -0.8360428810119629, 0.21623896062374115], [-0.7831510901451111, -0.0730397030711174, 0.4053480625152588, 0.2043386846780777], [0.46578511595726013, 0.32453539967536926, -0.28404974937438965, -0.4680445194244385], [0.2146230787038803, -0.38117507100105286, 0.05953394994139671, 0.23389983177185059], [0.20564568042755127, -0.2625831067562103, -0.04482519254088402, -0.3261614739894867], [-0.13589048385620117, 0.24852100014686584, -0.3053103983402252, -0.4566090404987335], [0.011296143755316734, -0.32256534695625305, -0.3185400664806366, 0.02655678242444992], [0.15267100930213928, 0.5457600355148315, 0.3755674362182617, -0.18918831646442413], [-0.2822079062461853, 0.16612586379051208, 0.10973727703094482, 0.5464524030685425], [-0.3318038880825043, -0.06478779017925262, 0.25274187326431274, 0.03717121481895447], [-0.28171470761299133, -0.47564807534217834, -0.6375284790992737, 0.13627104461193085], [0.1128334105014801, -0.08007516711950302, -1.0201436281204224, -0.4883427917957306], [-0.017939772456884384, -0.5005393624305725, 0.23336465656757355, -0.33649230003356934], [0.14841164648532867, 0.3074146509170532, -0.427540123462677, 0.3937440514564514], [-0.3558746874332428, 0.175545334815979, 0.19522322714328766, -0.3718823492527008], [-0.21638770401477814, -0.041353240609169006, 0.2633204460144043, 0.5376337766647339], [0.049337927252054214, -0.4631783068180084, -0.8588345646858215, -0.533549427986145], [-0.37320631742477417, 0.3739714026451111, -0.2625161409378052, 0.3895285129547119], [-0.2880750596523285, -0.2387859970331192, 0.9177533984184265, 0.5223790407180786], [-0.1480068415403366, -0.30371734499931335, 0.7729672193527222, -0.012742814607918262], [0.5159485340118408, -0.43112120032310486, -1.088150978088379, -0.46921882033348083], [0.6074743866920471, 0.1409960240125656, -0.9646845459938049, -0.4251094460487366], [-0.4256274402141571, -0.32557249069213867, -0.48973625898361206, -0.19710007309913635], [-0.36642012000083923, 0.4486016631126404, -0.25989410281181335, 0.3669707477092743], [0.5392553806304932, -0.22605842351913452, -0.4487455487251282, -0.19382786750793457], [0.3974970579147339, -0.47259068489074707, -0.1017909049987793, -0.3916158676147461], [0.053000349551439285, -0.38575246930122375, -0.18088042736053467, -0.07127690315246582], [0.6645541787147522, 0.12170395255088806, -0.7904635667800903, -0.5325239300727844], [-0.02091505564749241, 0.35388419032096863, 0.15808001160621643, 0.5310733914375305], [0.6966299414634705, 0.12025024741888046, -0.8238404989242554, -0.5311241149902344], [0.6384924650192261, 0.2820766568183899, -0.5487546920776367, -0.48079556226730347], [-0.07522828131914139, 0.18416011333465576, 0.6492143869400024, -0.17442607879638672], [-0.15592552721500397, -0.24888840317726135, 0.4393840432167053, 0.31655558943748474], [0.247829869389534, -0.26657524704933167, -0.7930752635002136, -0.3445937931537628], [-0.30609583854675293, -0.5235790610313416, -0.545922577381134, 0.16096055507659912], [0.4454513192176819, 0.3949985206127167, 0.5330102443695068, 0.46030718088150024], [-0.32895708084106445, 0.26834556460380554, -0.5471975803375244, -0.13695265352725983], [0.1702720671892166, 0.29823094606399536, -1.013024926185608, -0.13972699642181396], [-0.3400893807411194, -0.4456969201564789, 0.4197152853012085, 0.2723580002784729], [-0.601692259311676, -0.20649832487106323, 0.7489893436431885, 0.41016054153442383], [0.6021050810813904, -0.21010012924671173, -1.0954047441482544, -0.40219956636428833], [0.6313234567642212, -0.40648993849754333, 0.03187711164355278, -0.09429982304573059], [-0.6845001578330994, -0.26257550716400146, 0.7860603332519531, 0.36235740780830383], [-0.4947548806667328, 0.33406808972358704, 0.6225312948226929, -0.2690139710903168], [0.14234262704849243, -0.2663015127182007, -0.00893338955938816, -0.05534863844513893], [-0.3832255005836487, -0.1360093057155609, 0.13099533319473267, 0.5615334510803223]], "SEQL.0.bias": [0.2719442546367645, -0.2016235888004303, 0.11440789699554443, -0.16873034834861755, 0.5882938504219055, -0.053319841623306274, 0.18742787837982178, -0.009980815462768078, -0.3426222503185272, -0.10291748493909836, -0.10925653576850891, 0.4465148150920868, 0.487659215927124, -0.2314174622297287, -0.47988027334213257, -0.014178905636072159, 0.6399995684623718, 0.6210508346557617, 0.27186810970306396, 0.38693419098854065, -0.2714734375476837, -0.1760101169347763, 0.4552363455295563, 0.3120615482330322, -0.05081907659769058, 0.5708870887756348, 0.49264371395111084, -0.30282241106033325, 0.35079899430274963, -0.24660581350326538, 0.3613129258155823, -0.3712368607521057, 0.09756556898355484, -0.4464479982852936, 0.44982773065567017, 0.5329243540763855, 0.26866811513900757, -0.2985464632511139, 0.06510341167449951, 0.6210812330245972, -0.23667693138122559, -0.3990851640701294, -0.16214491426944733, 0.2389727383852005, 0.5061869621276855, -0.07626579701900482, -0.07476917654275894, -0.19646890461444855, -0.2711559236049652, 0.10875163972377777, 0.5956549644470215, 0.5190926790237427, -0.35187822580337524, -0.18366234004497528, 0.014181485399603844, 0.33927810192108154, -0.4663490653038025, 0.49509352445602417, 0.40440675616264343, -0.1309485137462616, 0.4636099338531494, 0.37591731548309326, -0.3579792380332947, 0.4494684636592865, -0.3859676122665405, -0.12455511838197708, -0.3836994469165802, 0.306805282831192, 0.40918514132499695, 0.22409091889858246, 0.05649895966053009, -0.24536529183387756, -0.09102234989404678, 0.08465568721294403, -0.41239023208618164, 0.17667290568351746, -0.3842604160308838, 0.24255749583244324, 0.5236038565635681, -0.2088647335767746, -0.03801339119672775, 0.559600830078125, 0.10279048979282379, -0.15299835801124573, -0.3421314060688019, 0.6212271451950073, 0.3717406690120697, 0.5628077387809753, 0.55914705991745, 0.26309704780578613, -0.32943496108055115, 0.41953572630882263, 0.35012510418891907, -0.25810399651527405, -0.24719880521297455, 0.47373947501182556, 0.29873645305633545, -0.10566706955432892, 0.1565929800271988, 0.45839282870292664, -0.1428026556968689, -0.13598839938640594, -0.08723105490207672, -0.06342332810163498, 0.24657079577445984, 0.6413057446479797, 0.3015449643135071, -0.48929494619369507, 0.4276050329208374, -0.22264933586120605, -0.07043132185935974, -0.287312775850296, -0.3007464110851288, 0.04426485672593117, -0.4250919818878174, 0.1565638780593872, 0.35077306628227234, 0.629192590713501, -0.27037474513053894, -0.0733315572142601, -0.4832332134246826, -0.11515553295612335, -0.18620644509792328, 0.26246073842048645, -0.4361829161643982, -0.28540274500846863, -0.5045435428619385, -0.4867055416107178], "SEQL.2.weight": [[-0.02249988727271557, 0.06101001799106598, 0.02821718156337738, -0.02953360229730606, -0.09147830307483673, 0.04144890978932381, 0.0637291744351387, -0.07511704415082932, 0.029049988836050034, 0.052663322538137436, -0.028022386133670807, -0.044082362204790115, 0.0262531116604805, -0.08136048167943954, 0.04080582037568092, -0.044296745210886, -0.06812922656536102, -0.011464396491646767, -0.05735158920288086, 0.005271543748676777, -0.004520071670413017, -0.06053093448281288, -0.05240855738520622, -0.012989012524485588, 0.01053785439580679, 0.07296938449144363, -0.06573037803173065, -0.04979832470417023, 0.005093991756439209, -0.059407804161310196, 0.020649636164307594, 0.05826114863157272, -0.04716039448976517, -0.021803125739097595, 0.06233682110905647, 0.0561506524682045, -0.02648390829563141, 0.023768339306116104, 0.06389123201370239, 0.06426449120044708, -0.06824152916669846, 0.001187519053928554, -0.040105853229761124, -0.09600001573562622, -0.022075200453400612, 0.06410158425569534, 0.024772921577095985, -0.06801851093769073, -0.09172458946704865, 0.0010784482583403587, -0.050887368619441986, 0.07184792309999466, 0.060162752866744995, -0.04139035567641258, -0.04812343791127205, -0.016956957057118416, -0.04909089207649231, 0.04142672196030617, 0.010371219366788864, -0.06692587584257126, 0.05688769742846489, 0.0707794800400734, -0.052001696079969406, -0.09560835361480713, -0.06868595629930496, -0.0836554691195488, 0.03464232757687569, -0.07024839520454407, -0.002854730002582073, 0.07501620054244995, -0.019733823835849762, 0.06385160982608795, 0.023023178800940514, -0.010202854871749878, 0.04040474817156792, 0.0459192730486393, -0.005573709961026907, -0.04518933221697807, 0.07342379540205002, -0.030327994376420975, 0.03287278115749359, -0.04204602539539337, -0.0968582034111023, 0.01266475860029459, 0.03127329796552658, -0.09103171527385712, 0.0318509116768837, -0.034485042095184326, 0.04624204337596893, 0.00492427172139287, 0.06285785138607025, 0.009960882365703583, -0.010917752981185913, 0.06539496034383774, -0.07403688877820969, 0.07681310921907425, 0.060132842510938644, 0.04744861647486687, -0.0970161035656929, -0.09531598538160324, -0.06737542897462845, -0.015107347629964352, -0.0021979077719151974, -0.05469392612576485, 0.01993231289088726, -0.04058174043893814, -0.09350146353244781, -0.026265336200594902, -0.04693962633609772, 0.0716373473405838, 0.0010469276458024979, 0.0012252209708094597, 0.004185576923191547, -0.004668585490435362, -0.02706400863826275, 0.056388866156339645, -0.08443838357925415, -0.0897432342171669, 0.014706267975270748, -0.10094349086284637, -0.045437559485435486, -0.07938984781503677, -0.09192017465829849, -0.016600413247942924, 0.05437586084008217, 0.028437362983822823, 0.0440564900636673, 0.03347073867917061], [-0.10667260736227036, 0.16026967763900757, -0.21990719437599182, -0.12075857073068619, 0.07089392095804214, -0.3086123466491699, 0.010282791219651699, -0.48243236541748047, 0.3058820366859436, -0.5836986303329468, 0.4629531502723694, 0.09210032224655151, 0.08743534982204437, -0.0639394223690033, 0.002384468913078308, 0.18751201033592224, 0.1064477264881134, 0.2821551263332367, 0.08314143866300583, -0.01999708265066147, 0.15447068214416504, 0.2853338420391083, 0.09128439426422119, 0.07325506210327148, -0.4816868305206299, 0.09394556283950806, 0.12949968874454498, 0.1795031726360321, -0.20154130458831787, 0.49345454573631287, -0.317594438791275, -0.0438537634909153, 0.20782597362995148, -0.13126295804977417, 0.15302374958992004, 0.023279961198568344, 0.3797922730445862, -0.06988223642110825, -0.01640147902071476, 0.070859894156456, 0.07947136461734772, -0.010892962105572224, 0.19954939186573029, -0.2828037738800049, 0.23595872521400452, 0.7968525290489197, -0.4369696080684662, 0.31748154759407043, -0.31208738684654236, -0.15575121343135834, -0.0220536757260561, 0.08659873157739639, -0.19031576812267303, 0.5036125183105469, 0.35807836055755615, 0.21622084081172943, -0.08443348854780197, -0.03018331341445446, 0.10352371633052826, 0.6236594319343567, 0.17151889204978943, -0.01753518171608448, 0.08481208235025406, -0.07189793139696121, -0.02809176966547966, -0.2230607569217682, -0.062395140528678894, 0.3908352851867676, -0.04463338851928711, 0.0031240074895322323, 0.1346517950296402, -0.32600802183151245, -0.536828875541687, 0.10611695796251297, 0.04297798126935959, 0.1725561022758484, 0.05898095294833183, 0.039403192698955536, 0.007131172344088554, -0.33611297607421875, -0.08336859941482544, -0.060928452759981155, -0.1291033923625946, 0.38398125767707825, -0.08322401344776154, 0.048170335590839386, -0.18041667342185974, -0.11034981906414032, -0.04247945919632912, 0.10448503494262695, 0.3856472074985504, 0.16517053544521332, -0.049211252480745316, -0.4438020884990692, 0.0903894454240799, 0.21726635098457336, -0.0671241357922554, 0.28070923686027527, -0.3794462978839874, 0.20855997502803802, 0.29593798518180847, 0.1518665999174118, -0.5694334506988525, -0.2911667823791504, -0.1702031046152115, 0.12661363184452057, -0.3268944323062897, -0.04034879058599472, -0.07070153951644897, -0.1763220727443695, 0.3097566068172455, -0.27387043833732605, -0.217651829123497, 0.25151747465133667, 0.11870776116847992, -0.24489888548851013, 0.1177511215209961, 0.26779428124427795, -0.07737355679273605, -0.09045535326004028, 0.18899117410182953, 0.3448498249053955, -0.5513191223144531, -0.11729784309864044, 0.33443400263786316, -0.011493509635329247, -0.018624667078256607, 0.2372725009918213], [0.08391358703374863, -0.12076636403799057, 0.21163490414619446, 0.11248765885829926, 0.0927235558629036, -0.33269786834716797, 0.18260426819324493, -0.171940416097641, -0.24108535051345825, -0.2702163755893707, -0.21354909241199493, 0.0619584359228611, 0.135749951004982, -0.16890473663806915, -0.07227061688899994, 5.9354963013902307e-05, 0.2015928477048874, 0.1640482246875763, 0.16990894079208374, 0.12785734236240387, 0.02266998216509819, -0.06702285259962082, 0.056095805019140244, 0.1386103630065918, -0.2852068245410919, 0.1839941442012787, 0.18610543012619019, -0.2842801511287689, 0.14706546068191528, -0.32765883207321167, 0.1312243938446045, -0.01997256465256214, 0.18323589861392975, -0.17908041179180145, 0.10843321681022644, 0.17094048857688904, 0.08466348797082901, -0.26603400707244873, -0.006825348827987909, 0.10486210882663727, 0.019861647859215736, -0.04597606882452965, -0.026370001956820488, 0.06365882605314255, 0.09478120505809784, -0.4905760884284973, -0.14095428586006165, -0.23240888118743896, -0.32291510701179504, 0.09769187867641449, 0.05642300471663475, 0.19832748174667358, -0.32483798265457153, -0.4323218762874603, -0.16879627108573914, 0.12784868478775024, -0.1959293782711029, 0.11199182271957397, 0.21830624341964722, -0.37962788343429565, 0.2212539166212082, 0.07810725271701813, -0.05414222180843353, 0.16729240119457245, 0.07280007749795914, -0.2770942151546478, 0.004070614464581013, -0.049937471747398376, 0.13666033744812012, 0.07628056406974792, 0.12828105688095093, -0.225571870803833, -0.4319850206375122, 0.053337980061769485, 0.05672954022884369, -0.026512213051319122, -0.04596010223031044, 0.12602639198303223, 0.12855510413646698, -0.22226865589618683, -0.012891937047243118, 0.20418429374694824, 0.09686542302370071, -0.2236863672733307, -0.1639232337474823, 0.136629119515419, 0.05782288312911987, 0.0526450090110302, 0.12268313020467758, 0.14364376664161682, -0.4115673303604126, 0.21357308328151703, 0.1654379814863205, -0.2947550117969513, -0.023096254095435143, 0.2187703549861908, 0.05715714022517204, -0.02637740969657898, 0.006938602309674025, 0.2226557582616806, -0.18474479019641876, -0.1553245633840561, -0.5311797261238098, -0.1076764389872551, 0.13199026882648468, 0.1778746396303177, 0.2168736457824707, 0.08482258766889572, 0.13520100712776184, -0.0929081067442894, -0.20138977468013763, -0.24252353608608246, -0.07923489063978195, 0.2372531145811081, -0.21723109483718872, -0.10320767760276794, 0.1805679202079773, 0.1636057049036026, -0.03976874053478241, -0.03905931115150452, -0.09442724287509918, -0.16052663326263428, -0.411313533782959, 0.18915748596191406, -0.2902660071849823, 0.13954667747020721, 0.004137832205742598, -0.28352853655815125], [-0.0353848971426487, 0.06343407183885574, -0.03135477751493454, -0.06475849449634552, 0.038025908172130585, -0.1804649829864502, -0.03145182877779007, -0.16517220437526703, 0.032269999384880066, -0.10517887026071548, -0.08744941651821136, -0.02966940775513649, 0.11181297153234482, -0.05330556258559227, -0.07050596177577972, 0.11079397797584534, 0.032569676637649536, 0.09681327641010284, 0.012458842247724533, 0.026675865054130554, 0.08987671881914139, -0.0861971452832222, 0.029041465371847153, -0.009618674404919147, -0.17208491265773773, -0.03433471918106079, 0.1040283590555191, -0.08369892835617065, 0.09183020889759064, -0.07969402521848679, 0.11940240114927292, 0.09736430644989014, 0.07999281585216522, 0.06112780049443245, 0.04236363619565964, 0.09806182235479355, 0.04074922949075699, 0.03735147789120674, 0.05354578420519829, 0.14082062244415283, 0.03893803060054779, -0.11319857835769653, -0.08598136901855469, 0.07313379645347595, 0.015448395162820816, -0.09750128537416458, -0.03318984434008598, -0.006683493498712778, -0.11939314752817154, 0.11312633752822876, 0.02250656485557556, -0.010651612654328346, -0.14962069690227509, -0.12774139642715454, 0.025499418377876282, 0.011864820495247841, -0.1416514366865158, 0.04699702188372612, 0.1218174397945404, -0.16242505609989166, 0.09305349737405777, 0.1341506689786911, 0.09354274719953537, 0.008928410708904266, -0.03287415951490402, -0.01727171614766121, 0.0165138877928257, 0.09671992808580399, 0.022292103618383408, 0.05115194618701935, -0.017641153186559677, -0.15897667407989502, -0.2346329241991043, 0.10419128835201263, 0.009872565977275372, 0.07087867707014084, -0.011101937852799892, 0.05076231062412262, 0.10055090487003326, -0.009310118854045868, -0.04734865576028824, -0.005260851234197617, 0.017616966739296913, -0.052679117769002914, 0.006020566914230585, 0.09254118800163269, 0.12228162586688995, -0.009360449388623238, 0.08969942480325699, 0.14416365325450897, -0.02272977866232395, 0.11734476685523987, 0.12785930931568146, -0.12384779006242752, 0.09895334392786026, -0.027829980477690697, 0.12653304636478424, -0.011138941161334515, -0.06966336071491241, 0.0939144492149353, 0.07016979157924652, -0.1305193454027176, -0.23604033887386322, -0.10461010783910751, 0.049157630652189255, 0.040287233889102936, 0.08191922307014465, -0.0033927580807358027, -0.031928446143865585, -0.13807760179042816, -0.046256598085165024, -0.05084769427776337, -0.09881768375635147, 0.030088210478425026, -0.06019556522369385, -0.1134183332324028, 0.09634161740541458, -0.004185078199952841, -0.07516855001449585, -0.07101089507341385, -0.0882643461227417, 0.06062459200620651, -0.2157331258058548, -0.032023943960666656, -0.1427997201681137, 0.04322800412774086, 0.058810677379369736, -0.06999889016151428], [0.06998766958713531, 0.040415775030851364, 0.09690744429826736, 0.09791319817304611, 0.1534881293773651, -0.29987505078315735, 0.1474284529685974, -0.19686655700206757, -0.0840761810541153, -0.44054070115089417, -0.20243717730045319, 0.10196691006422043, 0.07969115674495697, 0.031477924436330795, -0.04146890342235565, -0.020491011440753937, 0.13962621986865997, 0.16736742854118347, 0.12839289009571075, 0.17811226844787598, 0.1891537457704544, -0.1354810744524002, 0.050609637051820755, 0.12530498206615448, -0.22766222059726715, 0.1680036038160324, 0.07866616547107697, -0.16070964932441711, 0.06446467339992523, -0.3496040105819702, 0.13595767319202423, -0.00011882906255777925, 0.08070389181375504, -0.013513805344700813, 0.18258439004421234, 0.0975109189748764, 0.05415254086256027, -0.23653322458267212, -0.09100643545389175, 0.10441730171442032, -0.0203738734126091, -0.1175072193145752, 0.023536067456007004, 0.07295643538236618, 0.09776941686868668, -0.5436399579048157, -0.18906278908252716, -0.2344631552696228, -0.2993091642856598, 0.19758863747119904, 0.13270892202854156, 0.20170895755290985, -0.20378345251083374, -0.41657814383506775, -0.0256974995136261, 0.19345171749591827, -0.19843541085720062, 0.06450708210468292, 0.2024299055337906, -0.41749414801597595, 0.10882895439863205, 0.05995010584592819, -0.06923031061887741, 0.20185042917728424, 0.04883325845003128, -0.27086928486824036, -0.07042761892080307, -0.030920257791876793, 0.20783236622810364, 0.21368540823459625, 0.08989699184894562, -0.21270303428173065, -0.41868191957473755, -0.00550402607768774, 0.0548127219080925, 0.13364017009735107, -0.0730745792388916, 0.006739521399140358, 0.11161208152770996, -0.15122826397418976, -0.044016312807798386, 0.21532268822193146, 0.12930884957313538, -0.12872962653636932, -0.14877697825431824, 0.13114520907402039, 0.03304949775338173, 0.1537315547466278, 0.11091512441635132, 0.03257199004292488, -0.2882082462310791, 0.23991191387176514, 0.08302236348390579, -0.30588027834892273, 0.010570060461759567, 0.22802875936031342, 0.10318433493375778, -0.012946891598403454, -0.15997910499572754, 0.08262137323617935, -0.0651710256934166, -0.05174172669649124, -0.5390141010284424, -0.14836394786834717, 0.15479768812656403, 0.18890827894210815, 0.07231951504945755, -0.03819476068019867, 0.20085066556930542, -0.09001871943473816, -0.08514121919870377, -0.1697712242603302, -0.05082743987441063, 0.20064815878868103, -0.23733697831630707, -0.09776242077350616, 0.1599215716123581, 0.06809773296117783, -0.09818447381258011, -0.004759741481393576, -0.14930787682533264, -0.003888865699991584, -0.49170124530792236, 0.06600631773471832, -0.2633121609687805, 0.23435695469379425, -0.03100195899605751, -0.22425684332847595], [-0.011190739460289478, 0.017156019806861877, 0.16797031462192535, 0.03643186762928963, 0.1147134080529213, -0.3509305715560913, 0.1630917638540268, -0.18300382792949677, -0.14575940370559692, -0.2710350751876831, -0.30142083764076233, 0.1024538055062294, 0.19349586963653564, -0.05385458096861839, -0.008466120809316635, 0.008517648093402386, 0.08856217563152313, 0.22983945906162262, 0.21207045018672943, 0.22216305136680603, 0.03226584568619728, -0.08076201379299164, 0.0659283995628357, 0.17363619804382324, -0.2273079752922058, 0.12706202268600464, 0.030081097036600113, -0.18177878856658936, 0.03841748088598251, -0.35725727677345276, 0.1905851811170578, -0.01880604587495327, 0.060988008975982666, -0.15415947139263153, 0.045127976685762405, 0.08821623772382736, 0.10115493088960648, -0.2502821683883667, -0.026838604360818863, 0.1622224897146225, 0.07282545417547226, -0.01127528678625822, -0.09523189812898636, 0.014161781407892704, 0.2225646823644638, -0.5301370620727539, -0.07533258199691772, -0.29599088430404663, -0.2613503932952881, 0.11226993054151535, 0.1470140665769577, 0.09397471696138382, -0.24741728603839874, -0.400014191865921, -0.0932689979672432, 0.20581400394439697, -0.20339396595954895, 0.1284416913986206, 0.1244332492351532, -0.389228880405426, 0.19698569178581238, 0.16865801811218262, 0.08638494461774826, 0.20390357077121735, 0.0404164120554924, -0.3332386612892151, 0.06457927823066711, -0.03692362830042839, 0.16263236105442047, 0.22988879680633545, 0.011937852948904037, -0.21781036257743835, -0.47197020053863525, -0.05454164370894432, 0.0402514673769474, 0.0891144871711731, -0.12867116928100586, 0.03695132955908775, 0.13027875125408173, -0.22580590844154358, -0.17199057340621948, 0.2078407108783722, 0.12801380455493927, -0.30546167492866516, -0.037062302231788635, 0.15150682628154755, 0.03540540486574173, 0.15995052456855774, 0.19268718361854553, 0.07271504402160645, -0.35913151502609253, 0.06977514177560806, 0.10691353678703308, -0.23967254161834717, 0.07259614765644073, 0.15363673865795135, 0.14449408650398254, -0.01581750437617302, -0.0394926443696022, 0.22387577593326569, -0.141717329621315, -0.13250777125358582, -0.5692965388298035, -0.14622990787029266, 0.0765077993273735, 0.15188026428222656, 0.10111063718795776, 0.0007397403824143112, 0.18196392059326172, -0.10619617253541946, -0.07504166662693024, -0.2003868967294693, -0.04402991011738777, 0.1956392526626587, -0.3013380169868469, -0.029835017397999763, 0.052484720945358276, 0.12115318328142166, -0.1473078578710556, -0.12313161790370941, -0.06639616936445236, -0.10169609636068344, -0.5035803914070129, 0.22703175246715546, -0.3589714467525482, 0.1419878602027893, -0.023163089528679848, -0.18981775641441345], [-0.0691680982708931, -0.03380705416202545, -0.014734981581568718, 0.05562428757548332, 0.0646519735455513, -0.08295640349388123, -0.025143299251794815, -0.06859642267227173, -0.0543522834777832, -0.0761156976222992, 0.003224202897399664, -0.0029002658557146788, 0.00068637914955616, 0.02150379680097103, -0.06372959166765213, -0.08764278888702393, -0.020834261551499367, 0.06641370803117752, 0.0016962263034656644, 0.05087314173579216, -0.0047078970819711685, 0.05239744484424591, -0.07568780332803726, 0.059692587703466415, 0.07069483399391174, 0.030147070065140724, -0.004508529789745808, -0.0012470596702769399, 0.07160679250955582, 0.0812034085392952, -0.02810666896402836, 0.007577900774776936, -0.05365714803338051, 0.07234105467796326, 0.035665981471538544, 0.06540372967720032, 0.057463496923446655, -0.0341450497508049, 0.07770911604166031, -0.09653778374195099, 0.06282258778810501, -0.057118188589811325, -0.03494703769683838, 0.07247940450906754, -0.08449597656726837, -0.03748560696840286, -0.060982488095760345, 0.014151346869766712, -0.07385358214378357, -0.047545671463012695, 0.05484483018517494, 0.01229376532137394, 0.005743102170526981, 0.02713557332754135, -0.012846390716731548, -0.05244886130094528, 0.017543112859129906, 0.05259711295366287, 0.013948236592113972, -0.015588207170367241, -0.0064125992357730865, 0.026048479601740837, 0.018469251692295074, -0.0803709477186203, 0.08239627629518509, -0.03841371834278107, -0.08921682834625244, 0.0403100848197937, -0.07918547093868256, -0.03987199068069458, 0.07202035188674927, -0.06754607707262039, -0.03435232490301132, -0.022244494408369064, -0.04971756041049957, -0.08304540812969208, 0.08030762523412704, -0.018998606130480766, -0.08400416374206543, -0.01099337823688984, 0.06848721206188202, 0.039147887378931046, 0.012855105102062225, 0.01571284420788288, -0.025151561945676804, -0.07629771530628204, -0.06665331870317459, -0.0871061384677887, -0.06818871945142746, 0.03790956735610962, -0.0680885910987854, 0.06426531076431274, 0.050516046583652496, -0.04931053891777992, -0.08922110497951508, -0.09526567161083221, -0.06049509346485138, 0.001645035925321281, -0.067672498524189, -0.03495160490274429, -0.05203167349100113, 0.03788350895047188, 0.06499740481376648, -0.008315828628838062, -0.08190270513296127, 0.01644212380051613, 0.029888227581977844, 0.04360996559262276, 0.017116041854023933, -0.060208410024642944, -0.05218565836548805, 0.0016463994979858398, -0.04585219547152519, -0.055125053972005844, -0.0062437281012535095, -0.07922213524580002, 0.023059198632836342, 0.006651170086115599, -0.07028070092201233, 0.05002398416399956, -0.01901356689631939, 0.07073059678077698, -0.018324408680200577, 0.03924651816487312, 0.019214684143662453, -0.005356532987207174, -0.03737233579158783, -0.03284507244825363], [0.05611544847488403, -0.013542148284614086, 0.17136383056640625, 0.038153864443302155, 0.21941618621349335, -0.2708386778831482, 0.07435958087444305, -0.1868876814842224, -0.14351308345794678, -0.3448099195957184, -0.30936864018440247, 0.10732078552246094, 0.12231334298849106, -0.13453905284404755, -0.07243110984563828, 0.05930590629577637, 0.18548114597797394, 0.12060327082872391, 0.16901782155036926, 0.07757620513439178, 0.1280387043952942, -0.1565963476896286, 0.09868939965963364, 0.16619370877742767, -0.21596269309520721, 0.09292318671941757, 0.14750303328037262, -0.3001096844673157, 0.11188562959432602, -0.3712595999240875, 0.04126396402716637, -0.036538783460855484, 0.08476364612579346, -0.0655255913734436, 0.13720126450061798, 0.10331564396619797, 0.08830416947603226, -0.2907927334308624, 0.00558818131685257, 0.09437248855829239, 0.07166821509599686, -0.1269829124212265, -0.03830048441886902, 0.1326594203710556, 0.2188180536031723, -0.5073918700218201, -0.155647411942482, -0.29426032304763794, -0.3353387415409088, 0.060162805020809174, 0.15531525015830994, 0.2153746783733368, -0.2951136827468872, -0.4318501055240631, -0.058075062930583954, 0.15308928489685059, -0.2394443154335022, 0.10068250447511673, 0.17488084733486176, -0.4970944821834564, 0.23599979281425476, 0.12287583202123642, -0.0005875722272321582, 0.21680393815040588, -0.08694733679294586, -0.3107965588569641, -0.0689471960067749, 0.06739936769008636, 0.07460413873195648, 0.12331517785787582, 0.034119293093681335, -0.3368304967880249, -0.4009556472301483, -0.059245601296424866, 0.1578190177679062, 0.10236160457134247, -0.07673659920692444, 0.12399686127901077, 0.09417811781167984, -0.17001904547214508, -0.06934115290641785, 0.2354174554347992, 0.15772883594036102, -0.17133936285972595, -0.1060323566198349, 0.12359090149402618, 0.12238990515470505, 0.1108977347612381, 0.07819274812936783, 0.08780629932880402, -0.34590470790863037, 0.13608624041080475, 0.14729909598827362, -0.34024980664253235, -0.057444628328084946, 0.11806201934814453, 0.0661563128232956, -0.11165740340948105, -0.03889317065477371, 0.12010829895734787, -0.10267240554094315, -0.09071607142686844, -0.5027471780776978, -0.16161979734897614, 0.13224844634532928, 0.2111385464668274, 0.12735620141029358, -0.06339242309331894, 0.15451680123806, -0.20099188387393951, -0.219938263297081, -0.2818657457828522, -0.04630259796977043, 0.1434384435415268, -0.2280021756887436, -0.07353146374225616, 0.1045672595500946, 0.20019479095935822, -0.13927467167377472, -0.11894004046916962, -0.14019985496997833, -0.06161577254533768, -0.42720386385917664, 0.0947398841381073, -0.30641812086105347, 0.09331472218036652, -0.06534715741872787, -0.1273607462644577], [4.628300666809082e-05, 0.03200703114271164, 0.0007707271724939346, -0.02753526344895363, -0.09162938594818115, -0.06901738792657852, -0.0522553026676178, -0.05177146941423416, 0.061573371291160583, 0.013702132739126682, 0.03975176811218262, 0.04793237894773483, -0.07329749315977097, -0.10304596275091171, 0.008617819286882877, -0.017157739028334618, -0.1014515832066536, -0.08053214102983475, -0.09507084637880325, 0.06615855544805527, -0.012529583647847176, -0.0013894130242988467, 0.04133117198944092, 0.041128817945718765, 0.06763914972543716, -0.1025388091802597, 0.018205247819423676, -0.03506056219339371, 0.057713549584150314, -0.027687538415193558, 0.058953262865543365, -0.009721697308123112, -0.09770389646291733, -0.013640563003718853, -0.07932768017053604, 0.04124676436185837, 0.03981108218431473, 0.013027793727815151, -0.09274978190660477, -0.0679980143904686, 0.042384639382362366, -0.022805554792284966, -0.028443938121199608, 0.036828674376010895, 0.06513971090316772, -0.05446847900748253, 0.005918106995522976, -0.08603501319885254, 0.048874784260988235, 0.014988601207733154, -0.08850163966417313, 0.008056971244513988, -0.09948452562093735, -0.047917235642671585, 0.03419061005115509, -0.020584654062986374, 0.0248269010335207, -0.0055631790310144424, 0.0749770998954773, 0.00749822985380888, 0.06277789175510406, 0.0010329820215702057, -0.0788540318608284, -0.015114703215658665, 0.0714205950498581, 0.05702946335077286, 0.03734830394387245, 0.06211388111114502, 0.04720226675271988, 0.006001108326017857, -0.038211435079574585, 0.006577185355126858, 0.07049272209405899, -0.01815968193113804, -0.06291554123163223, 0.02377120777964592, 0.053223904222249985, 0.07065954059362411, 0.003975521773099899, -0.005971104837954044, -0.029557038098573685, 0.03750235587358475, 0.02929665520787239, 0.07238072156906128, 0.030181538313627243, -0.029609937220811844, -0.014896503649652004, 0.04446687921881676, -0.08827370405197144, -0.06465636193752289, 0.0525553897023201, 0.017294414341449738, 0.0024410923942923546, -0.05366743728518486, -0.08260942250490189, 0.03337226063013077, 0.04128039628267288, 0.04664311558008194, -0.02496716007590294, -0.04459219425916672, -0.07497868686914444, -0.014446506276726723, 0.007624871097505093, -0.034922949969768524, -0.09740208089351654, 0.04826419800519943, 0.048737745732069016, 0.08818826079368591, 0.05800628662109375, -0.003254310227930546, 0.06715595722198486, 0.07003847509622574, -0.033940885215997696, -0.09663118422031403, -0.0696328729391098, -0.10152952373027802, -0.08501192182302475, 0.019850052893161774, 0.05872922018170357, -0.009233808144927025, -0.05298794433474541, 0.004073155578225851, -0.0565139576792717, 0.00017296522855758667, 0.019222386181354523, -0.03307976573705673, 0.06304103136062622, 0.044705960899591446], [-0.0718446895480156, 0.29254162311553955, -0.15604035556316376, -0.12637631595134735, 0.18475276231765747, -0.34951692819595337, 0.032819341868162155, -0.5205466747283936, 0.3344351649284363, -0.5357978343963623, 0.40534669160842896, 0.14488445222377777, 0.0953841507434845, -0.03227321058511734, 0.019008174538612366, 0.29535189270973206, 0.19774770736694336, 0.2029135823249817, 0.055154379457235336, -0.021048733964562416, 0.06721053272485733, 0.25989413261413574, 0.07255451381206512, 0.17527134716510773, -0.6351378560066223, -0.05315776914358139, 0.09230723232030869, 0.2541850805282593, -0.1308354139328003, 0.4155231714248657, -0.2828647196292877, -0.03516450151801109, 0.15588513016700745, -0.03071039356291294, 0.10681366920471191, 0.14854298532009125, 0.35084813833236694, 0.0430818572640419, -0.1941230297088623, 0.15609483420848846, 0.04493298754096031, -0.048634905368089676, 0.26670119166374207, -0.2641979455947876, 0.2980968952178955, 0.7992154359817505, -0.4184432923793793, 0.4043739438056946, -0.44649314880371094, -0.10137162357568741, -0.0056196399964392185, 0.1643403321504593, -0.18452981114387512, 0.5520391464233398, 0.3216650187969208, 0.24621474742889404, -0.03500976040959358, -0.024756766855716705, 0.13722823560237885, 0.5850445032119751, 0.28179609775543213, -0.021428225561976433, -0.028180822730064392, -0.05209503322839737, 0.039767634123563766, -0.2567131519317627, -0.06518112868070602, 0.26738229393959045, -0.10079999268054962, -0.10660265386104584, 0.05758022889494896, -0.48475101590156555, -0.6891416311264038, 0.16337043046951294, 0.056822240352630615, 0.1988976001739502, 0.03637613728642464, 0.13029751181602478, 0.04489065706729889, -0.19184142351150513, -0.08809124678373337, -0.06554974615573883, -0.21381528675556183, 0.36550551652908325, -0.13612639904022217, 0.17563477158546448, -0.10594717413187027, -0.09793398529291153, 0.07865718007087708, 0.031818706542253494, 0.33161675930023193, 0.2010202258825302, -0.004112617578357458, -0.4077869653701782, 0.06356122344732285, 0.10163077712059021, -0.0488356351852417, 0.2714732885360718, -0.3683234453201294, 0.1286788433790207, 0.22143705189228058, 0.2552536427974701, -0.5909361243247986, -0.3530270457267761, -0.15592986345291138, 0.15510906279087067, -0.36444413661956787, 0.026989955455064774, -0.09741871058940887, -0.35885265469551086, 0.2640199363231659, -0.337329626083374, -0.23029428720474243, 0.34885844588279724, 0.13997337222099304, -0.394614577293396, 0.05981609597802162, 0.2770535349845886, -0.019733933731913567, -0.18770943582057953, 0.169210284948349, 0.3040160834789276, -0.5135642290115356, -0.05567318946123123, 0.3654846251010895, 0.05618365854024887, -0.021501407027244568, 0.22560420632362366], [-0.005077603738754988, -0.08404763787984848, 0.13342632353305817, 0.13506349921226501, 0.07800901681184769, -0.33382973074913025, 0.18404902517795563, -0.1312183290719986, -0.2537457346916199, -0.4138364791870117, -0.3027883470058441, 0.13703946769237518, 0.14792262017726898, -0.08119747042655945, -0.1765090972185135, -0.05890780687332153, 0.1443967968225479, 0.10324310511350632, 0.11070811003446579, 0.13484327495098114, 0.029134118929505348, -0.14123085141181946, 0.0878470316529274, 0.18865515291690826, -0.21555864810943604, 0.21138590574264526, 0.1332961916923523, -0.143705353140831, 0.10850150138139725, -0.3659389615058899, 0.07618118822574615, 0.010394412092864513, 0.18249455094337463, -0.1464185267686844, 0.21079859137535095, 0.18879012763500214, 0.21251045167446136, -0.19618190824985504, -0.019575703889131546, 0.23660814762115479, 0.01399416197091341, 0.03862038627266884, -0.04788161814212799, 0.1700560301542282, 0.12120024859905243, -0.5093389749526978, -0.06405632197856903, -0.3535289764404297, -0.3524863123893738, 0.21085767447948456, 0.15834833681583405, 0.2064971774816513, -0.2870405912399292, -0.523896336555481, -0.14451439678668976, 0.17408186197280884, -0.29367923736572266, 0.10104742646217346, 0.18551498651504517, -0.4996638894081116, 0.08303932100534439, 0.083432637155056, 0.05984862893819809, 0.12110202759504318, 0.028072895482182503, -0.2082740068435669, 0.08471451699733734, -0.035211097449064255, 0.23824237287044525, 0.07301031798124313, 0.06542918086051941, -0.3185761570930481, -0.36114561557769775, 0.06411273777484894, 0.10523416101932526, 0.1190178170800209, -0.006567357107996941, 0.06927402317523956, 0.1677561104297638, -0.19111019372940063, -0.08988092094659805, 0.2226397842168808, 0.14611096680164337, -0.19346550107002258, -0.08022406697273254, 0.10961119085550308, 0.19521671533584595, 0.04310014471411705, 0.24057625234127045, 0.20756001770496368, -0.3709432780742645, 0.10526835173368454, 0.05300053581595421, -0.37021562457084656, 0.0771031379699707, 0.1885155886411667, 0.034014977514743805, 0.01662253402173519, 0.014766603708267212, 0.22345814108848572, -0.17768989503383636, -0.14489243924617767, -0.38136887550354004, -0.1452658623456955, 0.044586703181266785, 0.06233666464686394, 0.15298347175121307, 0.028503648936748505, 0.1498735398054123, -0.10141368210315704, -0.18465594947338104, -0.25731003284454346, -0.034273043274879456, 0.11505819857120514, -0.23623326420783997, -0.018527910113334656, 0.11579655855894089, 0.0993334949016571, -0.1161222830414772, -0.1466696411371231, -0.21123160421848297, -0.1287568211555481, -0.5199105739593506, 0.07875882089138031, -0.22796376049518585, 0.15460003912448883, -0.017365634441375732, -0.2504154443740845], [0.012952410615980625, -0.001712787663564086, 0.14414429664611816, 0.043097034096717834, 0.06818968057632446, -0.2032500058412552, 0.04946094751358032, -0.11011629551649094, -0.10956709086894989, -0.22007697820663452, -0.29005175828933716, 0.20253539085388184, 0.14461585879325867, -0.10649120807647705, -0.15619799494743347, -0.08628973364830017, 0.1454862654209137, 0.06730084121227264, 0.10307056456804276, 0.07569026947021484, 0.1362299621105194, -0.18370023369789124, 0.10429452359676361, 0.1862638294696808, -0.2094537913799286, 0.12300903350114822, 0.21100707352161407, -0.25768324732780457, 0.2120147943496704, -0.31437551975250244, 0.1960742473602295, 0.0825129896402359, 0.10599754005670547, -0.19415518641471863, 0.11606799811124802, 0.07888192683458328, 0.21524867415428162, -0.27121078968048096, 0.03218340128660202, 0.12310544401407242, 0.0075919488444924355, 0.020266449078917503, -0.0627419725060463, 0.15280616283416748, 0.10236607491970062, -0.629751443862915, -0.059561412781476974, -0.24274718761444092, -0.32503655552864075, 0.09775874018669128, 0.2087741494178772, 0.1767050325870514, -0.35254690051078796, -0.421542227268219, -0.17971079051494598, 0.13732588291168213, -0.20505139231681824, 0.11083760857582092, 0.19920805096626282, -0.4502461552619934, 0.14218594133853912, 0.16023799777030945, -0.022920601069927216, 0.1593022495508194, 0.04745420441031456, -0.19100092351436615, 0.03706127405166626, -0.04547005891799927, 0.22422832250595093, 0.07419636100530624, 0.12187301367521286, -0.33386021852493286, -0.47712889313697815, -0.03209719806909561, 0.13755089044570923, 0.01543490681797266, -0.018439283594489098, 0.1291975975036621, 0.053059279918670654, -0.19418872892856598, -0.10596225410699844, 0.23528532683849335, 0.15811440348625183, -0.3126133680343628, 0.007326409686356783, 0.14824886620044708, 0.16472668945789337, 0.1990641951560974, 0.18283513188362122, 0.06959285587072372, -0.24516630172729492, 0.16504260897636414, 0.054776500910520554, -0.256984680891037, 0.04555409401655197, 0.198475643992424, 0.18169401586055756, -0.09214165806770325, 0.01104836817830801, 0.12952688336372375, -0.09434541314840317, -0.12614910304546356, -0.456208199262619, -0.08397331833839417, 0.12673906981945038, 0.19201332330703735, 0.10055986791849136, 0.06341760605573654, 0.12974105775356293, -0.17393328249454498, -0.11350522935390472, -0.21898962557315826, -0.14180001616477966, 0.14188657701015472, -0.19687333703041077, 0.03270765021443367, 0.1624714434146881, 0.07243436574935913, -0.2152443379163742, -0.08020367473363876, -0.0882737934589386, -0.10526196658611298, -0.3858512043952942, 0.15075825154781342, -0.26621103286743164, 0.05763823911547661, 0.07767120748758316, -0.26765912771224976], [0.09221349656581879, -0.10225504636764526, 0.218812957406044, 0.16019175946712494, 0.10155040770769119, -0.20102888345718384, 0.01991964876651764, -0.14387021958827972, -0.158721461892128, -0.36922377347946167, -0.2453836053609848, 0.1350340098142624, 0.07720595598220825, -0.054588597267866135, -0.1151411309838295, 0.021643629297614098, 0.03385058417916298, 0.21283844113349915, 0.07017268985509872, 0.16644062101840973, 0.10115838050842285, -0.17010080814361572, 0.10536544770002365, 0.1892598569393158, -0.15159623324871063, 0.150346577167511, 0.1725437045097351, -0.1980670839548111, 0.06056027114391327, -0.42794376611709595, 0.10553501546382904, 0.0883760079741478, 0.17479218542575836, -0.20033688843250275, 0.15601372718811035, 0.2030661255121231, 0.08428322523832321, -0.2728419899940491, 0.06568695604801178, 0.15981388092041016, 0.07408341765403748, 0.03825939819216728, -0.06560088694095612, 0.16687743365764618, 0.16303609311580658, -0.49693989753723145, -0.18356497585773468, -0.2197558730840683, -0.3721723258495331, 0.08481387794017792, 0.1465764045715332, 0.12705481052398682, -0.3740105926990509, -0.5315923690795898, -0.12171019613742828, 0.10687584429979324, -0.3052058815956116, 0.14849503338336945, 0.2142697274684906, -0.44206157326698303, 0.07955052703619003, 0.11773420870304108, -0.07403949648141861, 0.20223459601402283, 0.048187486827373505, -0.22978663444519043, 0.10395609587430954, -0.11107965558767319, 0.08283793181180954, 0.1258832812309265, 0.01637045294046402, -0.21009644865989685, -0.41347840428352356, -0.040661998093128204, 0.12733407318592072, 0.10048089921474457, 0.002938765101134777, 0.14724907279014587, 0.1347605437040329, -0.1766165941953659, -0.1636781543493271, 0.15913964807987213, 0.23576563596725464, -0.18521127104759216, -0.09958142042160034, 0.1378554105758667, 0.16872772574424744, 0.1779521405696869, 0.18933847546577454, 0.17660504579544067, -0.30527785420417786, 0.09756312519311905, 0.05564478412270546, -0.33713117241859436, 0.015182074159383774, 0.14294184744358063, 0.014738673344254494, -0.09230004251003265, 0.05358321964740753, 0.22286652028560638, -0.19370688498020172, -0.021839292719960213, -0.364879310131073, -0.03303835541009903, 0.1391700953245163, 0.18120546638965607, 0.13638487458229065, -0.08400742709636688, 0.11530359089374542, -0.15862160921096802, -0.2539905607700348, -0.10038992762565613, -0.09660064429044724, 0.2296609729528427, -0.15907886624336243, -0.06355234980583191, 0.160916268825531, 0.07124565541744232, -0.1646983027458191, -0.13185857236385345, -0.036430999636650085, -0.04944084584712982, -0.5303860306739807, 0.08789773285388947, -0.3552466332912445, 0.13933545351028442, -0.04632284492254257, -0.08229345083236694], [0.05720344930887222, -0.055697500705718994, 0.08131477981805801, -0.06213768944144249, 0.04749705642461777, 0.072385773062706, 0.05211997404694557, -0.005568710621446371, -0.026451077312231064, 0.06435896456241608, -0.07722243666648865, -0.09159372001886368, 0.022000133991241455, 0.0007827470544725657, 0.07356956601142883, -0.01665576733648777, -0.05354658141732216, 0.08381624519824982, -0.01432891096919775, -0.0535166934132576, -0.06723538786172867, 0.03429780155420303, -0.09503302723169327, -0.06453561037778854, -0.015260826796293259, -0.027773724868893623, -0.03239339590072632, 0.004277283325791359, 0.03689471632242203, 0.033365920186042786, 0.06727464497089386, 0.06040259078145027, -0.07671591639518738, 0.057412873953580856, -0.03540249913930893, -0.0843353271484375, -0.011209219694137573, -0.05363151803612709, -0.021342014893889427, 0.06942032277584076, 0.0827222391963005, -0.08188354223966599, 0.02595866657793522, -0.09725552797317505, -0.059378307312726974, -0.0033540884032845497, 0.03218414634466171, -0.047905657440423965, -0.08659826219081879, -0.051476068794727325, -0.06660187989473343, 0.04069489613175392, 0.06835772097110748, -0.08018967509269714, -0.06522475928068161, -0.09141634404659271, -0.05185488611459732, 0.02197353169322014, -0.017040178179740906, -0.03727412596344948, 0.00205054203979671, 0.004719702992588282, 0.057687751948833466, -0.054788753390312195, -0.05010859668254852, -0.02103547193109989, -0.032164692878723145, -0.08605470508337021, 0.009483110159635544, 0.06053297966718674, 0.0770278051495552, 0.07040122896432877, 0.08160951733589172, 0.04911268502473831, -0.0019437599694356322, -0.006911135278642178, -0.049528855830430984, 0.07365207374095917, 0.04802802577614784, -0.06310054659843445, 0.08195513486862183, -0.059737641364336014, -0.014754696749150753, -0.08089007437229156, 0.012503362260758877, 0.036661431193351746, -0.019916629418730736, 0.0726359412074089, -0.0068914080038666725, -0.007109724450856447, 0.030937103554606438, -0.05200142040848732, -0.015689479187130928, -0.03299278765916824, -0.024382073432207108, -0.07702487707138062, -0.05189620703458786, 0.003004753962159157, 0.030415350571274757, 0.023921988904476166, -0.08758712559938431, -0.08764205127954483, -0.1009025052189827, -0.0029430794529616833, -0.023699380457401276, 0.039089616388082504, -0.04957769811153412, 0.05082869902253151, -0.01612083986401558, -0.0009722707909531891, -0.009451798163354397, -0.04005051776766777, 0.00527527742087841, -0.047277193516492844, 0.0024047410115599632, -0.040804870426654816, 0.06859348714351654, -0.015760917216539383, -0.03883178532123566, 0.0358995757997036, 0.0005553479422815144, 0.06013551354408264, -0.05121726542711258, 0.03264515846967697, 0.07859053462743759, 0.025179948657751083, 0.0626697689294815, -0.03184739127755165], [-0.11877577006816864, 0.049033474177122116, -0.2048213630914688, -0.13244351744651794, 0.01811469905078411, -0.3361073434352875, -0.09892258048057556, -0.39356982707977295, 0.14471553266048431, -0.3476133346557617, 0.3150017261505127, 0.017026128247380257, 0.1159551590681076, -0.07240219414234161, -0.07321886718273163, 0.214006245136261, 0.01692596822977066, 0.15523816645145416, 0.11684633046388626, -0.013121360912919044, 0.0797044113278389, 0.072230264544487, 0.07704143226146698, 0.1324918121099472, -0.3835507929325104, -0.030973127111792564, -0.037218037992715836, 0.17299777269363403, -0.0989263504743576, 0.3162674903869629, -0.21007020771503448, -0.07787158340215683, 0.17016658186912537, -0.01422310434281826, 0.06416516751050949, 0.07999974489212036, 0.14901654422283173, 0.037746965885162354, -0.031812552362680435, -0.03357352316379547, -0.07912356406450272, -0.02091532200574875, 0.11765491217374802, -0.07642465829849243, 0.1667296141386032, 0.404278963804245, -0.1901535987854004, 0.2567945420742035, -0.3213241994380951, -0.16193126142024994, 0.08065125346183777, 0.05437713861465454, -0.31564781069755554, 0.414141982793808, 0.1872374266386032, 0.14754414558410645, -0.08007535338401794, -0.0015629908302798867, -0.027298297733068466, 0.37773823738098145, 0.07389818131923676, 0.060199376195669174, -0.10609964281320572, -0.17455576360225677, 0.042844656854867935, -0.12356097996234894, -0.07330488413572311, 0.18366451561450958, -0.062337156385183334, -0.08934862911701202, -0.0759570524096489, -0.3915344476699829, -0.5093511939048767, 0.17111174762248993, -0.055343858897686005, 0.062297724187374115, -0.05447196960449219, 0.007529078517109156, 0.043446775525808334, -0.23587732017040253, -0.0987999215722084, -0.024733541533350945, -0.21181969344615936, 0.19395242631435394, -0.1805514395236969, 0.0363151915371418, -0.1535578817129135, -0.015611625276505947, 0.005340801551938057, 0.11409449577331543, 0.3058505058288574, 0.13919027149677277, 0.04032926633954048, -0.3298225998878479, -0.006194633897393942, 0.10921066254377365, -0.04119386896491051, 0.1284112185239792, -0.2345929890871048, 0.19417084753513336, 0.0639253631234169, 0.08571334928274155, -0.46631473302841187, -0.163448765873909, -0.10406329482793808, 0.06350579112768173, -0.24770554900169373, -0.020998170599341393, -0.05761100351810455, -0.1865234375, 0.2758336067199707, -0.11552178859710693, -0.12728062272071838, 0.01477755419909954, 0.02674594335258007, -0.2046697586774826, -0.005339284893125296, 0.06151245906949043, -0.05562346428632736, -0.22239196300506592, 0.1094844713807106, 0.2244551181793213, -0.3740558624267578, -0.15726202726364136, 0.12769636511802673, -0.04899558052420616, 0.025815434753894806, 0.12558922171592712], [-0.0676066130399704, 0.0631600096821785, -0.01976163312792778, 0.06109995022416115, -0.08057639002799988, -0.03411443531513214, -0.06787887215614319, -0.09192213416099548, -0.06209222972393036, -0.0389292947947979, 0.07134601473808289, 0.047506313771009445, -0.0476108193397522, -0.015729224309325218, -0.041276756674051285, -0.07596640288829803, -0.027112625539302826, -0.028781961649656296, 0.025286423042416573, -0.03326015919446945, 0.051468148827552795, 0.06795237213373184, -0.04522914066910744, -0.0523136630654335, -0.05362524837255478, 0.07467640191316605, 0.0011825826950371265, 0.021065345034003258, -0.04934569448232651, -0.02255595102906227, 0.04849039763212204, -0.0077001131139695644, 0.0032205991446971893, -0.07625579833984375, 0.06619614362716675, 0.0462462455034256, -0.04809350520372391, -0.035225123167037964, 0.03539963811635971, -0.08508376032114029, 0.04773794487118721, -0.0452638603746891, -0.0824749544262886, -0.017582153901457787, -0.02392529882490635, 0.000316389836370945, -0.06691082566976547, 0.015839599072933197, 0.05051099509000778, 0.0219547338783741, -0.07214421778917313, 0.0008542891591787338, 0.08701200783252716, -0.0897778794169426, 0.03190336748957634, -0.04916994646191597, 0.038671523332595825, -0.0473080649971962, -0.03703651204705238, -0.03647760674357414, 0.056100115180015564, 0.01646016538143158, 0.053451959043741226, -0.011858913116157055, -0.07173198461532593, 0.06840483844280243, -0.03559873253107071, -0.043637461960315704, -0.012788251042366028, -0.01536351814866066, 0.04188614338636398, -0.014342445880174637, -0.06957582384347916, 0.03853787109255791, -0.03898763656616211, 0.07537295669317245, -0.06335577368736267, -0.030306152999401093, 0.0007088432321324944, 0.012049362063407898, 0.013767469674348831, -0.035627592355012894, -0.07513776421546936, 0.06179220229387283, -0.028946928679943085, -0.0134023018181324, 0.021745529025793076, -0.06537644565105438, -0.015386154875159264, 0.03352691978216171, -0.019994357600808144, 0.04291420802474022, -0.09219447523355484, -0.08360475301742554, -0.039146993309259415, 0.029783044010400772, 0.03169342130422592, -0.07095945626497269, 0.010639239102602005, -0.08712407201528549, 0.0060434164479374886, -0.06776059418916702, -0.08835439383983612, -0.08069881796836853, -0.04473545774817467, -0.043452974408864975, -0.014944472350180149, 0.05706260725855827, -0.08288479596376419, -0.00214781379327178, -0.004859520122408867, -0.07369428873062134, -0.021940384060144424, -0.043369170278310776, 0.04443008825182915, 0.07415462285280228, 0.0764918103814125, 0.07590696960687637, -0.08777236193418503, -0.05912838503718376, 0.000810626894235611, -0.02469213679432869, -0.03078898973762989, 0.07553596794605255, -0.025812041014432907, 0.042911771684885025, 0.054547492414712906, -0.027043569833040237], [0.09976545721292496, 0.019412362948060036, 0.24488632380962372, 0.0011069151805713773, 0.2225501835346222, -0.2705811858177185, 0.14050860702991486, -0.23782910406589508, -0.21300092339515686, -0.34975481033325195, -0.11175158619880676, 0.1534242480993271, 0.06490568816661835, -0.1119636744260788, -0.12979410588741302, 0.04281718656420708, 0.13727514445781708, 0.2536546587944031, 0.19652292132377625, 0.1887647956609726, 0.21863368153572083, -0.06535298377275467, 0.18000151216983795, 0.08185240626335144, -0.28341144323349, 0.23260603845119476, 0.06512214243412018, -0.2521688938140869, 0.18653243780136108, -0.39618033170700073, 0.17986063659191132, -0.009508305229246616, 0.15136854350566864, 0.002134498907253146, 0.07200338691473007, 0.11534804105758667, 0.08169830590486526, -0.14733555912971497, 0.029193799942731857, 0.1499243527650833, 0.03753386810421944, -0.17597204446792603, 0.016135411337018013, 0.14754924178123474, 0.13365595042705536, -0.5277225375175476, -0.14124234020709991, -0.26060155034065247, -0.37026894092559814, 0.12091424316167831, 0.07520917803049088, 0.12341105937957764, -0.24696367979049683, -0.45986589789390564, -0.1281697154045105, 0.2101580649614334, -0.25252997875213623, 0.13791964948177338, 0.1979137659072876, -0.31935521960258484, 0.0829688310623169, 0.13335749506950378, -0.06057722121477127, 0.15697138011455536, 0.054082486778497696, -0.26373887062072754, -0.07652879506349564, 0.012419654987752438, 0.20769387483596802, 0.21680687367916107, 0.08313863724470139, -0.36475062370300293, -0.45939940214157104, 0.0007794704288244247, 0.14281441271305084, 0.04721793904900551, -0.07658378034830093, 0.03669383376836777, 0.13526859879493713, -0.2920360565185547, -0.18261611461639404, 0.07890632748603821, 0.14548951387405396, -0.15194375813007355, -0.08507037162780762, 0.07071095705032349, 0.15412552654743195, 0.054672662168741226, 0.23382115364074707, 0.1435985565185547, -0.38294464349746704, 0.1865277886390686, 0.1906043291091919, -0.2675378620624542, 0.057986438274383545, 0.1381303369998932, 0.12544557452201843, 0.007606504485011101, -0.1898694932460785, 0.1707000583410263, -0.015077031217515469, -0.08013126254081726, -0.4385054111480713, -0.1733911633491516, 0.17318260669708252, 0.15632228553295135, 0.18931728601455688, -0.0526873841881752, 0.10799860954284668, -0.2101053148508072, -0.0782080590724945, -0.2607072591781616, -0.02772366814315319, 0.2664336860179901, -0.2088540941476822, -0.026871206238865852, 0.1267326921224594, 0.17425651848316193, -0.11289487779140472, -0.11136412620544434, -0.19159989058971405, -0.0356249175965786, -0.4762210547924042, 0.23210248351097107, -0.338742733001709, 0.26344308257102966, -0.0061813900247216225, -0.24086685478687286], [-0.01414590235799551, -0.09241726249456406, 0.04393552988767624, 0.03275882825255394, 0.04596291482448578, 0.06900447607040405, 0.1182451918721199, 0.2310974895954132, 0.03866484761238098, 0.16515950858592987, 0.05150947719812393, -0.0800444632768631, 0.010047949850559235, 0.13307103514671326, 0.16816775500774384, -0.1639828085899353, -0.16356909275054932, -0.14823195338249207, 0.03026125580072403, -0.12934750318527222, 0.11497526615858078, -0.07686187326908112, -0.011974582448601723, -0.06081131473183632, 0.21230727434158325, -0.028312841430306435, -0.042512085288763046, 0.07814371585845947, 0.07256267219781876, -0.07123136520385742, 0.03200802206993103, 0.03671462461352348, -0.09797191619873047, 0.06781040132045746, 0.013189182616770267, 0.023796958848834038, 0.02637537010014057, 0.259395956993103, 0.17506839334964752, -0.042526889592409134, 0.047435689717531204, -0.015525950118899345, -0.11247848719358444, 0.014334426261484623, -0.29481029510498047, 0.09903267025947571, 0.1631314903497696, -0.02638435922563076, 0.16711615025997162, 0.1253274530172348, -0.006583466660231352, -0.009132164530456066, 0.16304190456867218, -0.027870777994394302, -0.07552061229944229, -0.13180777430534363, 0.12956690788269043, 0.018991047516465187, -0.11626667529344559, 0.07186761498451233, -0.2666468024253845, 0.043257735669612885, 0.05453886836767197, 0.004047545604407787, 0.03411258012056351, 0.2036435306072235, 0.006541254930198193, -0.1659005880355835, 0.10306822508573532, 0.11655306816101074, 0.07817111909389496, 0.13113933801651, 0.26099950075149536, -0.08181820809841156, 0.1306961476802826, 0.015459686517715454, -0.012972833588719368, 0.013986391015350819, 0.08672356605529785, 0.11320196092128754, 0.18498513102531433, 0.016117461025714874, -0.012178640812635422, 0.09130031615495682, 0.014506463892757893, -0.03624708205461502, -0.015636105090379715, 0.10321427881717682, 0.04588514566421509, -0.07453443855047226, -0.0704917162656784, -0.12271348387002945, 0.13648447394371033, 0.22547701001167297, -0.055082328617572784, -0.020024362951517105, 0.07181313633918762, 0.0054210759699344635, 0.1446666717529297, -0.20506447553634644, 0.03416113182902336, -0.12662792205810547, 0.32083576917648315, 0.14513401687145233, -0.01991531066596508, -0.15585558116436005, 0.11046284437179565, -0.06710943579673767, 0.07840695232152939, 0.11554913967847824, -0.12557509541511536, 0.08548647165298462, 0.2003004252910614, -0.16340816020965576, -0.009534884244203568, 0.1739589422941208, 0.011765799485147, -0.2292802482843399, 0.1641618013381958, 0.18532425165176392, -0.04483328387141228, -0.0235455222427845, 0.3457716703414917, 0.04738164320588112, -0.004230169113725424, -0.024852419272065163, 0.019449379295110703, -0.023735377937555313], [-0.08856825530529022, -0.013431884348392487, 0.07316034287214279, 0.0002492484636604786, 0.018045581877231598, 0.06262847781181335, -0.04620927572250366, -0.06302952766418457, 0.019041918218135834, -0.05789604038000107, -0.06664484739303589, 0.04252864420413971, 0.0009984411299228668, 0.06494195014238358, -0.0018354831263422966, -0.07066266238689423, 0.06158974766731262, -0.06726233661174774, -0.09912523627281189, -0.05682888627052307, -0.013311754912137985, 0.04877495765686035, 0.04757634550333023, -0.036609891802072525, 0.07324691116809845, -0.00971575640141964, 0.0369003489613533, -0.07706242799758911, 0.026414312422275543, 0.007428277283906937, -0.06731804460287094, 0.049519769847393036, 0.06824534386396408, 0.08427019417285919, 0.015312710776925087, 0.05898362398147583, -0.09080971777439117, -0.03510650247335434, 0.016435761004686356, -0.08040546625852585, 0.0890573263168335, -0.07958048582077026, 0.03986390680074692, 0.002481427974998951, -0.03122882731258869, 0.06014196574687958, 0.07274565100669861, 0.07446754723787308, 0.051333483308553696, -0.07137270271778107, 0.028271779417991638, -0.029922164976596832, -0.04080851376056671, -0.019780496135354042, 0.041908472776412964, -0.0631827563047409, -0.06434822082519531, -0.08913573622703552, 0.02447056956589222, -0.04410504177212715, -0.09922750294208527, 0.046282995492219925, -0.07785212993621826, 0.03465576469898224, 0.059124574065208435, 0.047780558466911316, -0.0843440592288971, 0.0506352037191391, -0.03477684035897255, 0.0567130446434021, -0.034471385180950165, 0.0622163787484169, -0.039658065885305405, -0.035288047045469284, 0.014329602010548115, 0.0026006647385656834, 0.05429975688457489, 0.04716929793357849, 0.05285020172595978, -0.06712304055690765, -0.04244987294077873, -0.014245728962123394, -0.010275905020534992, 0.05604778975248337, 0.07025440782308578, -0.031001389026641846, -0.019420474767684937, -0.0804903656244278, -0.055076874792575836, -0.08902966976165771, 0.015431731007993221, -0.07856443524360657, -0.04850143939256668, -0.010504028759896755, 0.023870524019002914, 0.05264215171337128, -0.004835942760109901, -0.04713199660181999, 0.00038377661257982254, 0.04797973483800888, -0.0030991649255156517, -0.004803535062819719, -0.05415267497301102, -0.054775506258010864, 0.01142135076224804, 0.04199104756116867, -0.013928387314081192, -0.06900602579116821, -0.018864555284380913, -0.06190691143274307, -0.023184875026345253, -0.0413549542427063, -0.09144170582294464, -0.005502988584339619, 0.0708065778017044, -0.09223095327615738, -0.08252407610416412, 0.0011943671852350235, 0.011022832244634628, -0.007320918142795563, -0.08584287762641907, -0.031112413853406906, 0.008936464786529541, -0.09085384011268616, 0.020164351910352707, 0.07911074161529541, 0.03158889338374138, 0.06697511672973633], [0.009359496645629406, -0.08452176302671432, 0.0634433850646019, 0.027861353009939194, -0.08086586743593216, 0.06441415846347809, 0.02188507467508316, -0.09579013288021088, -0.08569515496492386, -0.03702514246106148, -0.07469797879457474, 0.0376112163066864, -0.09486565738916397, 0.08006413280963898, -0.086573027074337, 0.0059555708430707455, -0.09978655725717545, 0.052587028592824936, -0.020027846097946167, -0.055561743676662445, 0.03773358836770058, -0.05440519005060196, -0.017902132123708725, -0.006560304202139378, 0.03869811072945595, 0.055059850215911865, 0.06762219220399857, 0.05063864588737488, 0.034214045852422714, 0.06725703179836273, 0.05627886578440666, 0.06239433214068413, -0.09081842750310898, 0.026456471532583237, -0.07991189509630203, -0.10488845407962799, 0.003046078607439995, -0.005424457136541605, -0.021218454465270042, 0.06707915663719177, -0.04897565767168999, 0.05220038816332817, -0.015629839152097702, 0.03320188820362091, 0.03916427120566368, -0.06713394075632095, -0.05002395808696747, -0.05142327398061752, -0.049585841596126556, -0.007074143271893263, -0.04451250657439232, 0.019288551062345505, -0.07790730148553848, 0.03738072142004967, 0.024683857336640358, -0.03658630698919296, 0.03035176731646061, 0.03378646820783615, -0.04719547927379608, -0.05760296806693077, -0.05013396590948105, -0.07919738441705704, 0.02069290168583393, -0.042373646050691605, -0.04985637962818146, 0.035385631024837494, -0.06526452302932739, -0.0724126473069191, -0.0024900538846850395, 0.008218544535338879, -0.0029723155312240124, 0.05560040473937988, -0.03353309631347656, 0.05652583763003349, -0.046503376215696335, 0.05711030215024948, -0.05932978168129921, 0.049428313970565796, -0.07175067812204361, 0.06407413631677628, 0.036991942673921585, -0.10305082052946091, -0.07682064175605774, -0.03226328641176224, -0.05569717660546303, 0.015787415206432343, -0.01684723235666752, 0.035420872271060944, -0.005361365154385567, -0.06022351607680321, -0.0971536785364151, 0.040169522166252136, -0.0989113301038742, -0.04563158005475998, -0.03717472031712532, -0.06430066376924515, -0.007098674774169922, -0.059269968420267105, 0.05357960984110832, -0.0028885677456855774, -0.02430317923426628, 0.06977719813585281, 0.024722034111618996, -0.008769526146352291, -0.08125996589660645, -0.04688349366188049, 0.05304951220750809, -0.07629963010549545, -0.059441134333610535, 0.08166587352752686, -0.00019428972154855728, -0.0334710031747818, 0.024443337693810463, 0.07223501056432724, -0.09028942883014679, -0.06873544305562973, 0.06522327661514282, 0.059293463826179504, 0.02910788729786873, 0.0505012683570385, 0.006760354153811932, 0.0680299773812294, -0.0297241173684597, -0.09250038862228394, -0.07905233651399612, 0.07580524682998657, 0.013925001956522465, -0.0026757861487567425], [0.0021090772934257984, -0.08404865860939026, 0.15109993517398834, 0.07755075395107269, 0.1702824831008911, -0.3349747657775879, 0.160300150513649, -0.22103914618492126, -0.1157354861497879, -0.3647499680519104, -0.32472002506256104, 0.10606653243303299, 0.04294314607977867, -0.12716640532016754, -0.04844309762120247, -0.06999506801366806, 0.07452601194381714, 0.2169550508260727, 0.15113872289657593, 0.14167256653308868, 0.0033763106912374496, -0.1544404774904251, 0.16967923939228058, 0.1520732045173645, -0.3034089505672455, 0.1885877102613449, 0.11464197188615799, -0.18903748691082, 0.11913235485553741, -0.36960074305534363, 0.13400575518608093, 0.003503940301015973, 0.14435218274593353, -0.09181820601224899, 0.1763894110918045, 0.22222252190113068, 0.196352019906044, -0.24502499401569366, 0.045138005167245865, 0.17291656136512756, 0.0758422464132309, 0.005870917346328497, -0.09022451937198639, 0.1304851770401001, 0.20530448853969574, -0.5614877939224243, -0.213697612285614, -0.2847996950149536, -0.29325252771377563, 0.203098326921463, 0.19708314538002014, 0.07205744832754135, -0.2984391152858734, -0.465072363615036, -0.1016392856836319, 0.1339799463748932, -0.2634064853191376, 0.21780595183372498, 0.2348160743713379, -0.41320693492889404, 0.09051311761140823, 0.1219174787402153, -0.04526890441775322, 0.12491356581449509, 0.04273698106408119, -0.26759740710258484, 0.07487425953149796, -0.06140151992440224, 0.20022280514240265, 0.11784827709197998, 0.014606406912207603, -0.24736036360263824, -0.369245320558548, 0.07389932125806808, 0.009179258719086647, -0.012677794322371483, 0.012188359163701534, 0.12502582371234894, 0.16599951684474945, -0.31453970074653625, -0.07614988088607788, 0.18407787382602692, 0.10354937613010406, -0.276448130607605, -0.1662379801273346, 0.039798106998205185, 0.18545281887054443, 0.07978988438844681, 0.0838533490896225, 0.14368940889835358, -0.4067836403846741, 0.07426892220973969, 0.10258308798074722, -0.35785549879074097, -0.0015629505505785346, 0.068971186876297, 0.03254351392388344, 0.028276657685637474, -0.057322289794683456, 0.21499891579151154, -0.15123459696769714, -0.14890995621681213, -0.5717661380767822, -0.10696302354335785, 0.191114142537117, 0.07170218229293823, 0.23642726242542267, -0.03913484513759613, 0.21580979228019714, -0.17790625989437103, -0.19394941627979279, -0.11915670335292816, -0.05694624036550522, 0.12805844843387604, -0.26301833987236023, 0.005165798589587212, 0.19921205937862396, 0.2214740812778473, -0.10461409389972687, -0.07412026077508926, -0.10996222496032715, -0.09022680670022964, -0.4473700225353241, 0.20584110915660858, -0.32080385088920593, 0.21487979590892792, -0.027951426804065704, -0.20814959704875946], [0.08957266062498093, 0.0041272565722465515, -0.03962257131934166, 0.11256203055381775, 0.16863782703876495, -0.14668411016464233, 0.06171862781047821, -0.22023485600948334, -0.10174097865819931, -0.35476261377334595, -0.09912768006324768, 0.046038918197155, 0.0866769328713417, -0.03743510693311691, -0.06439357995986938, 0.11816239356994629, 0.16060051321983337, 0.026399672031402588, 0.010875899344682693, 0.10484877228736877, 0.16031619906425476, -0.06957630068063736, 0.06752032786607742, 0.08975144475698471, -0.1864340454339981, 0.01210078876465559, 0.12661035358905792, -0.13316398859024048, 0.03169281780719757, -0.17536763846874237, 0.024215523153543472, -0.009080427698791027, 0.09735020250082016, -0.0173708014190197, 0.1757880300283432, 0.1580079346895218, 0.1538075953722, -0.028698381036520004, 0.04137664660811424, 0.07829637080430984, 0.09108346700668335, 0.03089659847319126, -0.060112129896879196, 0.05037270858883858, 0.18662554025650024, 0.027889808639883995, -0.07828237116336823, -0.2017175555229187, -0.20215199887752533, 0.02479732036590576, 0.12769362330436707, 0.013713349588215351, -0.20365390181541443, -0.07075871527194977, -0.08596258610486984, 0.18655680119991302, -0.0892074778676033, 0.0921717956662178, 0.09043647348880768, -0.12139777839183807, 0.10576532036066055, 0.16603650152683258, 0.037834446877241135, -0.05226856842637062, 0.051583677530288696, -0.09210481494665146, -0.011859067715704441, 0.1285615861415863, 0.021746432408690453, 0.0277506485581398, 0.020835421979427338, -0.2649109959602356, -0.34588363766670227, -0.030214842408895493, 0.10858586430549622, 0.013482910580933094, -0.05356626585125923, 0.035532183945178986, 0.06572070717811584, -0.13500718772411346, -0.04644196107983589, 0.016387924551963806, 0.10317660868167877, -0.07523835450410843, -0.04425499588251114, 0.07327944785356522, 0.012046030722558498, 0.0048542204312980175, 0.13419967889785767, 0.07562953233718872, -0.17546984553337097, 0.1671326458454132, -0.0032255693804472685, -0.20524972677230835, 0.16268260776996613, 0.026062648743391037, 0.008110403083264828, -0.055163878947496414, -0.13811032474040985, 0.1713321954011917, 0.006730081047862768, -0.021671727299690247, -0.3993717133998871, -0.15383148193359375, 0.05582295358181, 0.08657300472259521, -0.07261308282613754, -0.08556744456291199, 0.0011287732049822807, -0.11909622699022293, -0.07129377126693726, -0.15717245638370514, 0.002384607680141926, 0.2980838716030121, -0.05085640400648117, -0.11057034879922867, 0.009176918305456638, 0.17012064158916473, -0.13813960552215576, -0.09241584688425064, -0.04149625077843666, -0.1183895543217659, -0.3749164044857025, 0.077458955347538, -0.06194852665066719, 0.16534915566444397, -0.052660178393125534, -0.15736202895641327], [0.06661831587553024, -0.06565555185079575, 0.1421075016260147, -0.05752899497747421, 0.23198039829730988, -0.30912551283836365, 0.15210548043251038, -0.27137935161590576, -0.10761503875255585, -0.44262900948524475, -0.13451771438121796, 0.130433589220047, 0.15338002145290375, -0.0053267572075128555, 0.005903300363570452, -0.07638990134000778, 0.23964151740074158, 0.12224753946065903, 0.0963948518037796, 0.22274690866470337, 0.22215265035629272, -0.09174049645662308, 0.06264902651309967, 0.18401911854743958, -0.3042808771133423, 0.2353055626153946, 0.12845580279827118, -0.2891847789287567, 0.08305181562900543, -0.41398292779922485, 0.07031094282865524, -0.03944190964102745, 0.11241139471530914, 0.027069181203842163, 0.09330606460571289, 0.09714652597904205, 0.05674168840050697, -0.14428380131721497, -0.09908227622509003, 0.16203413903713226, 0.050749972462654114, -0.055238816887140274, -0.08729919046163559, 0.08639109879732132, 0.16199065744876862, -0.3563540577888489, -0.22802826762199402, -0.18424800038337708, -0.24058027565479279, 0.09619329124689102, 0.019556507468223572, 0.15273042023181915, -0.22477726638317108, -0.3674231469631195, 0.021890664473176003, 0.09017731994390488, -0.2428971827030182, 0.09575258195400238, 0.14809899032115936, -0.3642887473106384, 0.19917632639408112, 0.14789237082004547, 0.08131928741931915, 0.143058642745018, -0.007196110673248768, -0.3130807876586914, -0.035383712500333786, 0.09176620841026306, 0.08791154623031616, 0.13337090611457825, 0.10171639174222946, -0.3211168348789215, -0.42274829745292664, -0.01713770441710949, 0.10097387433052063, 0.07703468203544617, -0.12552618980407715, 0.07847481220960617, 0.00970605667680502, -0.24262739717960358, -0.0669538751244545, 0.12472458183765411, 0.2234213501214981, -0.19027912616729736, 0.0057349237613379955, 0.09656623005867004, 0.07817701250314713, 0.05525725334882736, 0.06666967272758484, 0.18135152757167816, -0.3722516596317291, 0.21685098111629486, 0.1994895190000534, -0.2862870395183563, -0.08084586262702942, 0.23402729630470276, 0.05416649207472801, -0.06741882860660553, -0.05844380706548691, 0.1881953775882721, 0.0005145451286807656, -0.050863537937402725, -0.5628151297569275, -0.18115831911563873, 0.05487450584769249, 0.21765747666358948, 0.15205524861812592, -0.06913856416940689, 0.20179356634616852, -0.17615631222724915, -0.13489121198654175, -0.14017701148986816, -0.1348692923784256, 0.1622929722070694, -0.31726181507110596, -0.06629858911037445, 0.2306612730026245, 0.1403309851884842, -0.047690920531749725, -0.02471458911895752, -0.0809648409485817, -0.011869753710925579, -0.4756333827972412, 0.12968459725379944, -0.35581713914871216, 0.2374982088804245, 0.0003533237613737583, -0.1800144463777542], [0.022691668942570686, -0.0036765991244465113, 0.23741841316223145, -0.04063669219613075, 0.11170022934675217, -0.2625108063220978, 0.06379944086074829, -0.2556258738040924, -0.13866686820983887, -0.38475722074508667, -0.26940038800239563, 0.21716192364692688, 0.09366156160831451, -0.04722908139228821, -0.09984475374221802, -0.04797426238656044, 0.16650019586086273, 0.2263457328081131, 0.06487321108579636, 0.19551844894886017, 0.1339530646800995, -0.04135527089238167, 0.08393636345863342, 0.19404366612434387, -0.2599731981754303, 0.23461337387561798, 0.025468861684203148, -0.24506942927837372, 0.10799077898263931, -0.33565542101860046, 0.15000012516975403, -0.06120046228170395, 0.06732982397079468, -0.17245037853717804, 0.17887374758720398, 0.23369543254375458, 0.13505318760871887, -0.19318479299545288, -0.09177802503108978, 0.2151159793138504, -0.028437403962016106, -0.0311309564858675, 0.05175738036632538, 0.1575140506029129, 0.12071998417377472, -0.513884961605072, -0.07118067890405655, -0.27370062470436096, -0.21951882541179657, 0.12547697126865387, 0.09914550930261612, 0.1681717485189438, -0.36914074420928955, -0.4135299026966095, -0.02246580459177494, 0.13032850623130798, -0.3100179135799408, 0.17776018381118774, 0.11143661290407181, -0.48006555438041687, 0.13327550888061523, 0.10727094858884811, 0.07464667409658432, 0.187059223651886, -0.023068981245160103, -0.23777933418750763, -0.029673881828784943, -0.06497934460639954, 0.19893503189086914, 0.11187352985143661, 0.1464393138885498, -0.3519234359264374, -0.3797169029712677, 0.06607994437217712, 0.13618405163288116, 0.1032671108841896, -0.11633572727441788, 0.16408859193325043, 0.03931789472699165, -0.22908127307891846, -0.1710936278104782, 0.07564697414636612, 0.17556019127368927, -0.2905865013599396, -0.026877423748373985, 0.09200034290552139, 0.0769258514046669, 0.17110919952392578, 0.2293427735567093, 0.12777486443519592, -0.2655220627784729, 0.18773576617240906, 0.0627281442284584, -0.4019522964954376, -0.06719540059566498, 0.2216012179851532, 0.13665829598903656, 0.04368214309215546, -0.16616153717041016, 0.16941069066524506, -0.14187446236610413, -0.04320055991411209, -0.4188022017478943, -0.013336802832782269, 0.11082428693771362, 0.13483180105686188, 0.0509122833609581, 0.08568216860294342, 0.2074565440416336, -0.07745455950498581, -0.06863388419151306, -0.2736034095287323, -0.0666656494140625, 0.22415855526924133, -0.30222222208976746, -0.09234758466482162, 0.21959272027015686, 0.12703068554401398, 0.014396550133824348, -0.03077140636742115, -0.1472131758928299, -0.09566068649291992, -0.5308420062065125, 0.1596299260854721, -0.3454146683216095, 0.13912729918956757, -0.014083939604461193, -0.1704811006784439], [0.04286676645278931, -0.10717642307281494, 0.11484616994857788, 0.018717098981142044, 0.21403762698173523, -0.21613875031471252, 0.09393134713172913, -0.2784251570701599, -0.19605004787445068, -0.38541513681411743, -0.2664991319179535, 0.0970979779958725, 0.1303185522556305, 0.009954404085874557, -0.008847321383655071, -0.07955032587051392, 0.19376736879348755, 0.19483636319637299, 0.09284307062625885, 0.16104021668434143, 0.12517111003398895, -0.12877768278121948, 0.19623646140098572, 0.11951877921819687, -0.23245076835155487, 0.15496736764907837, 0.1441473513841629, -0.20794811844825745, 0.159074068069458, -0.38293296098709106, 0.11749537289142609, 0.0866277739405632, 0.21662013232707977, -0.09974750131368637, 0.03968537971377373, 0.09018400311470032, 0.05168842896819115, -0.06478270888328552, 0.030864916741847992, 0.11399862170219421, 0.10220801830291748, -0.20235398411750793, -0.08726620674133301, 0.07541866600513458, 0.2054978609085083, -0.5149465203285217, -0.19393834471702576, -0.22421157360076904, -0.31557726860046387, 0.20815807580947876, 0.15196946263313293, 0.06231343001127243, -0.23466414213180542, -0.4916688799858093, -0.0679449662566185, 0.12390802055597305, -0.19232049584388733, 0.21601390838623047, 0.10554003715515137, -0.35041630268096924, 0.1242268830537796, 0.12028274685144424, -0.004537397995591164, 0.060744013637304306, -0.0875282883644104, -0.256839394569397, 0.0822751373052597, 0.04632439464330673, 0.09219600260257721, 0.1507972925901413, 0.1632755547761917, -0.386771023273468, -0.4946274757385254, -0.021493906155228615, 0.15517346560955048, 0.10112013667821884, -0.15333154797554016, 0.15217319130897522, 0.0407724529504776, -0.21239542961120605, -0.15955941379070282, 0.12147796154022217, 0.1907198429107666, -0.15360337495803833, -0.03724748641252518, 0.2000279277563095, 0.053419630974531174, 0.012158777564764023, 0.2179066240787506, 0.022842155769467354, -0.41025713086128235, 0.096951425075531, 0.20431046187877655, -0.31020838022232056, -0.05336432158946991, 0.1877916306257248, 0.07794488966464996, 0.01691380701959133, -0.13945411145687103, 0.10291487723588943, -0.13782349228858948, -0.1397724747657776, -0.5426027178764343, -0.14174823462963104, 0.06753943860530853, 0.1543569266796112, 0.06029423698782921, 0.04239592328667641, 0.14498378336429596, -0.15540152788162231, -0.17344719171524048, -0.11058409512042999, -0.027686387300491333, 0.1623581498861313, -0.18502984941005707, 0.004514479078352451, 0.16446253657341003, 0.1960698962211609, -0.006673205178231001, -0.09085650742053986, -0.0837693065404892, -0.03312144801020622, -0.4065701961517334, 0.23268099129199982, -0.26531028747558594, 0.1846766173839569, 0.014619793742895126, -0.22693465650081635], [0.0017266826471313834, -0.08798365294933319, -0.006498401053249836, 0.04959610477089882, 0.08282645046710968, 0.07426300644874573, -0.06848934292793274, -0.07750816643238068, -0.05813559144735336, -0.041969820857048035, 0.06526343524456024, 0.039496906101703644, -0.059268973767757416, -0.04642336070537567, -0.05157862603664398, 0.031080275774002075, -0.07469760626554489, 0.009924792684614658, -0.024928100407123566, 0.045056506991386414, -0.021086374297738075, 0.023919684812426567, -0.030427737161517143, -0.0498061403632164, 0.0698089748620987, -0.08006048947572708, -0.03082781657576561, 0.04712001606822014, 0.06827620416879654, 0.08281860500574112, -0.054783474653959274, -0.003452427452430129, -0.0707630068063736, 0.05007477477192879, -0.025455748662352562, 0.0399911105632782, 0.00238796672783792, -0.026663603261113167, -0.016464782878756523, 0.06619865447282791, 0.057222362607717514, -0.08278493583202362, 0.0605425126850605, 0.01521292608231306, -0.0031320166308432817, -0.03446773439645767, 0.009830078110098839, -0.019145680591464043, 0.016378307715058327, -0.08387795090675354, -0.07322442531585693, -0.005018467083573341, -0.0023478849325329065, 0.0369383841753006, 0.05763883888721466, 0.015348638407886028, 0.07867153733968735, 0.023579759523272514, -0.04236335679888725, 0.0698268935084343, -0.07403699308633804, -0.02681118994951248, 0.02134334295988083, 0.056604061275720596, 0.04973366856575012, -0.014835669659078121, -0.021989475935697556, -0.0881904885172844, -0.06689707934856415, 0.0475710928440094, -0.08809245377779007, -0.016657540574669838, 0.03741470351815224, 0.0871356874704361, 0.06222028657793999, 0.04067644849419594, -0.019662652164697647, -0.07315041869878769, -0.01314470637589693, -0.08106075972318649, 0.01683664321899414, -0.020667128264904022, -0.07137569785118103, -0.018276222050189972, 0.08632566779851913, -0.010533498600125313, 0.08712521195411682, -0.07680317014455795, 0.0029254548717290163, -0.02967233955860138, 0.006810561753809452, -0.0679587572813034, 0.011191115714609623, 0.0641888901591301, 0.06932968646287918, -0.06424318253993988, -0.02986055612564087, -0.031592920422554016, 0.038802117109298706, -0.023116765543818474, 0.016564754769206047, 0.0859878733754158, -0.03385254740715027, 0.05472361296415329, -0.07649333775043488, 0.041155364364385605, -0.06937763839960098, -0.0021182163618505, -0.06262730062007904, 0.06806721538305283, 0.03484971076250076, 0.037008389830589294, 0.0548478327691555, -0.013954715803265572, -0.022174594923853874, -0.04485441371798515, 0.0755559578537941, -0.04631455987691879, 0.01412168052047491, 0.07733218371868134, 0.02797042950987816, -0.035821426659822464, -0.04054446518421173, -0.04886772111058235, 0.06521199643611908, -0.08397641777992249, -0.08449853211641312, -0.028763653710484505], [0.023804180324077606, -0.08731532096862793, 0.1161477267742157, 0.02832656353712082, 0.23820073902606964, -0.34164801239967346, 0.19884495437145233, -0.25383952260017395, -0.11934950202703476, -0.4341815412044525, -0.2155415415763855, 0.23448750376701355, 0.059365883469581604, -0.06882074475288391, 0.009376825764775276, -0.06628541648387909, 0.11652921885251999, 0.22559817135334015, 0.04650639370083809, 0.22695788741111755, 0.061383333057165146, 0.027382543310523033, 0.09705524146556854, 0.1977282017469406, -0.2812405526638031, 0.2350427657365799, 0.10287553817033768, -0.24207831919193268, 0.1301092654466629, -0.3438675105571747, 0.14695198833942413, 0.007562742102891207, 0.048775408416986465, -0.09812724590301514, 0.033463384956121445, 0.16670992970466614, 0.2055727243423462, -0.12569749355316162, -0.04832326993346214, 0.24283148348331451, 0.10079552978277206, -0.13447599112987518, -0.10994190722703934, 0.09270934760570526, 0.18359997868537903, -0.4530520737171173, -0.22767633199691772, -0.3087790906429291, -0.38000038266181946, 0.17463259398937225, 0.1495337039232254, 0.11274037510156631, -0.2438446581363678, -0.41225793957710266, -0.06600657105445862, 0.12766847014427185, -0.2117648720741272, 0.1514015793800354, 0.2247510850429535, -0.47650349140167236, 0.1258261799812317, 0.022578105330467224, -0.01665150746703148, 0.15581195056438446, -0.08580636233091354, -0.312682569026947, -0.06857524067163467, 0.06942429393529892, 0.2134312242269516, 0.10186558216810226, 0.12841467559337616, -0.30247506499290466, -0.417714387178421, 0.009571444243192673, 0.11268553882837296, 0.10363384336233139, -0.14155401289463043, 0.1142675131559372, 0.07633950561285019, -0.15163373947143555, -0.13306419551372528, 0.22187991440296173, 0.0829509049654007, -0.26013654470443726, -0.015249946154654026, 0.09006384760141373, 0.18773211538791656, 0.03639927878975868, 0.21870890259742737, 0.1318906843662262, -0.3629314601421356, 0.19092948734760284, 0.10473792999982834, -0.2772580087184906, -0.019333522766828537, 0.18434040248394012, 0.12779119610786438, -0.034920066595077515, -0.189629927277565, 0.13077779114246368, 0.013543781824409962, -0.15099294483661652, -0.5889493823051453, -0.11827981472015381, 0.13815106451511383, 0.20378853380680084, 0.19192372262477875, 0.008743648417294025, 0.23956893384456635, -0.1281241774559021, -0.15457594394683838, -0.20588859915733337, -0.10635628551244736, 0.15371593832969666, -0.26483339071273804, -0.0556986965239048, 0.2312386929988861, 0.25321871042251587, -0.13866432011127472, -0.029935689643025398, -0.1134074404835701, -0.12574666738510132, -0.40846824645996094, 0.10776081681251526, -0.3261483907699585, 0.21904446184635162, 0.0747622698545456, -0.10892029851675034], [-0.04671446606516838, 0.16487230360507965, -0.21704469621181488, 0.005853323265910149, 0.07751994580030441, -0.09824744611978531, 0.020188279449939728, -0.2604611814022064, 0.12719976902008057, -0.04098410904407501, 0.11596855521202087, -0.06839260458946228, 0.11158770322799683, 0.021577129140496254, -0.020136555656790733, 0.1132126897573471, -0.0752994641661644, 0.06724441051483154, 0.00671657407656312, 0.059906914830207825, 0.026339517906308174, 0.13638721406459808, -0.01349660474807024, 0.05364976450800896, -0.0913936048746109, -0.10866054147481918, 0.08723387867212296, 0.21298646926879883, -0.1665324717760086, 0.25744664669036865, -0.31155478954315186, 0.05714651942253113, -0.025357306003570557, 0.05563630163669586, 0.05902741104364395, -0.018154960125684738, 0.04513992741703987, -0.06616407632827759, -0.08307988941669464, 0.07558374106884003, -0.10113172978162766, 0.04156089201569557, -0.010726949200034142, -0.25726398825645447, 0.10001672804355621, 0.1968679577112198, 0.029502922669053078, 0.19457396864891052, -0.03838398680090904, -0.0545576810836792, 0.009140891954302788, -0.017775019630789757, -0.0406603179872036, 0.29568344354629517, 0.1854114830493927, 0.08931136876344681, 0.05794825032353401, -0.08487343788146973, -0.07728179544210434, 0.29213109612464905, 0.09019825607538223, -0.008741436526179314, 0.022831425070762634, -0.07629913091659546, -0.07971881330013275, -0.08040774613618851, 0.04418066516518593, 0.016836613416671753, -0.05824606493115425, -0.06673610955476761, 0.04052502661943436, -0.021682992577552795, -0.09401670843362808, 0.09351895749568939, 0.0053469352424144745, 0.04945776239037514, 0.08264927566051483, 0.030959395691752434, -0.03952166810631752, -0.0035787387751042843, -0.13982830941677094, -0.06903056055307388, -0.1360480785369873, 0.17757701873779297, 0.04887530952692032, -0.07005056738853455, -0.21326376497745514, -0.09544957429170609, -0.009793444536626339, -0.021539628505706787, 0.23695139586925507, 0.11252696812152863, -0.07870176434516907, -0.06734085083007812, -0.12150730937719345, -0.039965011179447174, -0.00034525853698141873, 0.12287182360887527, -0.13447315990924835, -0.02467496693134308, 0.1247304230928421, 0.15989717841148376, -0.1371215283870697, -0.12585878372192383, -0.22720319032669067, 0.03911242634057999, -0.4284048080444336, 0.03445948287844658, -0.13683685660362244, -0.0560251846909523, 0.22193364799022675, 0.04780946299433708, -0.05471941828727722, -0.01506359688937664, 0.07459850609302521, -0.20768730342388153, 0.014738446101546288, 0.058108747005462646, 0.007311298977583647, -0.12057413905858994, 0.1640857756137848, 0.16174615919589996, 0.01023719273507595, -0.0157929640263319, 0.1259859949350357, 0.025705143809318542, -0.011095074936747551, 0.1905193030834198], [0.04825935885310173, -0.05922593176364899, 0.04453042149543762, 0.0683322623372078, -0.013722240924835205, -0.09563376009464264, 0.0738319531083107, 0.020151499658823013, -0.07901111245155334, -0.08000883460044861, -0.08205091208219528, -0.037096694111824036, -0.04312724247574806, -0.028411783277988434, 0.04454304277896881, 0.07770898938179016, -0.0017075901851058006, -0.016953328624367714, -0.019698644056916237, -0.048543769866228104, 0.01058445405215025, 0.042292479425668716, -0.026935555040836334, -0.049792297184467316, -0.06526091694831848, 0.0014784112572669983, -0.07258844375610352, 0.05392039939761162, -0.014109100215137005, 0.04418811574578285, -0.03650461509823799, 0.030216487124562263, -0.049551937729120255, -0.04493110626935959, -0.08627442270517349, 0.026217050850391388, 0.02649039588868618, -0.08946411311626434, -0.06107468903064728, -0.02847679890692234, 0.07646159827709198, -0.08006418496370316, 0.05047961696982384, -0.06626926362514496, 0.04553154483437538, -0.04357152804732323, 0.0017846059054136276, -0.07044978439807892, -0.06758168339729309, 0.030576469376683235, 0.05796939879655838, -0.06160494312644005, -0.05365561693906784, 0.08735343813896179, -0.01816059648990631, -0.08282998949289322, 0.0609353631734848, 0.05042792111635208, 0.011147110722959042, 0.05662994831800461, 0.05481167137622833, -0.0328628234565258, -0.051293566823005676, 0.01096793171018362, 0.054507844150066376, 0.060416534543037415, 0.03369839861989021, -0.08158323913812637, -0.09836965799331665, 0.026203831657767296, -0.04090328514575958, -0.0509926974773407, 0.054082561284303665, 0.0043508196249604225, 0.05192575976252556, 0.012776222079992294, 0.04451284557580948, 0.0713253989815712, 0.038394395262002945, 0.05013520270586014, -0.051320385187864304, 0.034721262753009796, -0.07349507510662079, -0.05617663636803627, 0.0003215847536921501, 0.030745843425393105, -0.09487095475196838, 0.010752901434898376, -0.04723966121673584, -0.05235912650823593, 0.017323460429906845, -0.011898048222064972, -0.022514764219522476, 0.001682301051914692, 0.057321999222040176, -0.047996073961257935, -0.026738587766885757, -0.05189934000372887, 0.06474970281124115, 0.06489585340023041, -0.061624426394701004, 0.019800467416644096, 0.014339817687869072, 0.04027661681175232, -0.02722690999507904, 0.01910221576690674, 0.06626962870359421, 0.007501348853111267, -0.048036981374025345, 0.00959721114486456, -0.00333707919344306, 0.06091951206326485, -0.043010078370571136, -0.0883326604962349, -0.06989580392837524, 0.051802366971969604, -0.054612018167972565, 0.024855269119143486, 0.08219625055789948, 0.07088629901409149, -0.06048286706209183, 0.07662548124790192, 0.06513579189777374, -0.0392063669860363, 0.06440931558609009, 0.0193560142070055, -0.07272122800350189, -0.020693005993962288], [0.10603384673595428, -0.02401169389486313, 0.13147316873073578, -0.02717049978673458, 0.10214846581220627, -0.3216017484664917, 0.15654024481773376, -0.24415402114391327, -0.24244330823421478, -0.2930693030357361, -0.24660688638687134, 0.1493193507194519, 0.1406988650560379, -0.09823925048112869, -0.04641890898346901, -0.10320986062288284, 0.1619701087474823, 0.1757798194885254, 0.16978131234645844, 0.09393154829740524, 0.001220779842697084, -0.09304770082235336, 0.1799628883600235, 0.051678892225027084, -0.15230661630630493, 0.0843644067645073, 0.12004715204238892, -0.27330321073532104, 0.2079489827156067, -0.31824788451194763, 0.10566894710063934, -0.039370097219944, 0.0796569287776947, -0.09650490432977676, 0.13152633607387543, 0.18337124586105347, 0.19681623578071594, -0.16423940658569336, -0.015081136487424374, 0.09884345531463623, 0.04211195185780525, -0.1541745513677597, -0.0749158263206482, 0.09400807321071625, 0.1424848884344101, -0.5994266271591187, -0.16329285502433777, -0.27131709456443787, -0.275691419839859, 0.1278010457754135, 0.05709042772650719, 0.08342941105365753, -0.37038281559944153, -0.4712947607040405, -0.07867097854614258, 0.09412547200918198, -0.30621635913848877, 0.1393674612045288, 0.1825369894504547, -0.44971993565559387, 0.22936025261878967, 0.13747121393680573, 0.008453493937849998, 0.15697279572486877, -0.026188718155026436, -0.22457730770111084, -0.007872163318097591, 0.05851620063185692, 0.18740800023078918, 0.1698940247297287, 0.10763431340456009, -0.23581300675868988, -0.47283563017845154, 0.05413394421339035, 0.07657528668642044, 0.05272147059440613, -0.07600734382867813, 0.16255176067352295, 0.0888512134552002, -0.16712234914302826, -0.12996621429920197, 0.20600348711013794, 0.1453956961631775, -0.32109546661376953, -0.04271227866411209, 0.11702438443899155, 0.19301314651966095, 0.1648513823747635, 0.1536870151758194, 0.09999803453683853, -0.3579278886318207, 0.1395355463027954, 0.1305430829524994, -0.30289870500564575, 0.04308078810572624, 0.20954231917858124, 0.03939634561538696, -0.0562308095395565, -0.11850005388259888, 0.17822757363319397, -0.0528833270072937, -0.07326634228229523, -0.46408647298812866, -0.017156479880213737, 0.11699298024177551, 0.18761366605758667, 0.06368760019540787, 0.016332903876900673, 0.19105568528175354, -0.21605701744556427, -0.15272103250026703, -0.18432249128818512, -0.13301877677440643, 0.2108156830072403, -0.3161725401878357, 0.054575227200984955, 0.19635309278964996, 0.10633379220962524, -0.2010004073381424, -0.10557439923286438, -0.15244239568710327, -0.015279133804142475, -0.4968109726905823, 0.07574563473463058, -0.2407761514186859, 0.0941421166062355, -0.032501641660928726, -0.2285405844449997], [-0.006645741872489452, -0.01344219408929348, 0.1318967342376709, -0.03478911146521568, 0.19373328983783722, -0.33865106105804443, 0.13548941910266876, -0.1532067060470581, -0.1445770412683487, -0.37727436423301697, -0.191621795296669, 0.09507595747709274, 0.182917058467865, 0.03268996626138687, -0.029643774032592773, -0.04465097934007645, 0.14901402592658997, 0.08752889186143875, 0.21325919032096863, 0.20904716849327087, 0.14880020916461945, -0.15600049495697021, 0.09577558934688568, 0.07832257449626923, -0.270754337310791, 0.1604943573474884, 0.05289844051003456, -0.20242337882518768, 0.15052175521850586, -0.4405573308467865, 0.06289416551589966, 0.03264208510518074, 0.17988711595535278, -0.07707128673791885, 0.12034478783607483, 0.14478309452533722, 0.06722699105739594, -0.22952121496200562, -0.07710590958595276, 0.17161495983600616, 0.02889225073158741, -0.13597220182418823, 0.04024890065193176, 0.07466614991426468, 0.07271327823400497, -0.4951370060443878, -0.15772223472595215, -0.19961754977703094, -0.3111361563205719, 0.20773647725582123, 0.14222204685211182, 0.08991269767284393, -0.299307256937027, -0.45063742995262146, -0.006406812462955713, 0.07025360316038132, -0.14745807647705078, 0.21366563439369202, 0.23465408384799957, -0.38540908694267273, 0.17538496851921082, 0.08651994913816452, -0.04209890961647034, 0.08003570139408112, -0.09410439431667328, -0.17630934715270996, 0.05811366066336632, -0.02703002095222473, 0.21526998281478882, 0.19965064525604248, 0.020342407748103142, -0.21829552948474884, -0.5111420750617981, 0.018406754359602928, 0.1297270506620407, 0.12207236886024475, -0.12174968421459198, 0.0768098533153534, 0.19346897304058075, -0.1811830699443817, -0.019892023876309395, 0.09638050943613052, 0.15168821811676025, -0.2510548532009125, -0.11920852214097977, 0.21577772498130798, 0.12023372948169708, 0.08959745615720749, 0.20733429491519928, 0.17880219221115112, -0.40455010533332825, 0.08744015544652939, 0.09453422576189041, -0.3146866261959076, 0.010148300789296627, 0.1785023957490921, 0.010447109118103981, 0.0364249050617218, -0.041362788528203964, 0.09087712317705154, -0.09558446705341339, -0.2035498172044754, -0.4539693295955658, -0.17940649390220642, 0.02344086393713951, 0.12089123576879501, 0.12171749025583267, -0.030243735760450363, 0.11501522362232208, -0.10042964667081833, -0.22806517779827118, -0.11566852033138275, -0.14774693548679352, 0.11675248295068741, -0.20803683996200562, -0.05881612375378609, 0.2128889113664627, 0.22244887053966522, -0.033053863793611526, -0.11436226218938828, -0.10700264573097229, -0.10383783280849457, -0.4611736238002777, 0.20425310730934143, -0.32976725697517395, 0.21258443593978882, 0.04873049631714821, -0.14480745792388916], [0.06302568316459656, -0.01812189817428589, 0.17952337861061096, -0.04158015549182892, 0.17310047149658203, -0.2974056899547577, 0.1304774135351181, -0.2724326252937317, -0.12742704153060913, -0.4392780661582947, -0.25511378049850464, 0.21172618865966797, 0.0971706435084343, -0.11910463869571686, 0.03688215836882591, -0.03331005945801735, 0.21331892907619476, 0.10524317622184753, 0.22135557234287262, 0.07038506865501404, 0.17388395965099335, -0.10699859261512756, 0.06547645479440689, 0.12068341672420502, -0.3262573480606079, 0.20912820100784302, 0.050742216408252716, -0.21641546487808228, 0.11107929050922394, -0.44460105895996094, 0.10851969569921494, -0.036478109657764435, 0.12138102948665619, -0.038687027990818024, 0.1764734983444214, 0.10828569531440735, 0.10354583710432053, -0.07613220810890198, -0.007005793042480946, 0.2161693274974823, -0.039296433329582214, -0.06603915244340897, 