{"actor.network.0.weight": [[-0.32882121205329895, -0.07710772752761841, -0.21155595779418945, -0.49059203267097473], [0.19347228109836578, 0.08404457569122314, -0.4564659595489502, -0.17471587657928467], [-0.17342346906661987, -0.10264511406421661, -0.5448204278945923, -0.44557419419288635], [-0.1336623728275299, -0.027085062116384506, 0.1020403504371643, -0.38371193408966064], [0.21103039383888245, 0.44498327374458313, 0.3430502414703369, -0.3334045708179474], [-0.09452813863754272, -0.4178515076637268, -0.17856968939304352, 0.12436825037002563], [-0.2989467680454254, -0.28642234206199646, -0.14931915700435638, 0.8814377188682556], [0.11784995347261429, 0.581263542175293, -0.026733579114079475, 0.4107716977596283], [0.1670234501361847, -0.08049555867910385, 0.25250470638275146, -0.11761205643415451], [0.4946850836277008, 0.47227904200553894, 0.12821941077709198, 0.05918159708380699], [0.3989863097667694, -0.06589103490114212, -0.2345590442419052, -0.2899422347545624], [-0.05735846236348152, 0.22526928782463074, 0.051425736397504807, 0.2276342809200287], [0.1399785280227661, -0.5714089870452881, -0.2110433578491211, -0.04061218351125717], [-0.17713391780853271, -0.11095552891492844, -0.35602036118507385, 0.12093797326087952], [0.16964682936668396, 0.415917307138443, 0.29076844453811646, 0.4908095896244049], [0.0799686387181282, -0.07826906442642212, 0.220218688249588, -0.43743109703063965], [-0.17951998114585876, 0.019127409905195236, -0.1418246328830719, -0.27495530247688293], [-0.30413833260536194, 0.22680917382240295, 0.3771859109401703, 0.5690756440162659], [0.5626182556152344, 0.5909871459007263, 0.4520604610443115, 0.14174889028072357], [0.25959956645965576, -0.2779390811920166, 0.09441228210926056, 0.05091613531112671], [-0.1958456188440323, 0.13211873173713684, 0.30910757184028625, -0.14628005027770996], [0.09562399238348007, -0.4252099394798279, -0.08472464233636856, -0.5833303928375244], [0.37416279315948486, 0.19453275203704834, 0.20473581552505493, 0.39930492639541626], [0.37875276803970337, -0.44693249464035034, 0.22078944742679596, -0.6788638234138489], [0.542930006980896, -0.28955209255218506, 0.09331919252872467, 0.4578706622123718], [0.5256927013397217, -0.20447582006454468, 0.27037930488586426, -0.13409072160720825], [0.22854551672935486, -0.16675738990306854, -0.2940870523452759, -0.4929729104042053], [-0.4802371561527252, -0.3158976137638092, -0.033000826835632324, 0.4228099286556244]], "actor.network.0.bias": [0.18761354684829712, -0.29495278000831604, 0.3297271132469177, -0.4319828152656555, -0.11385858058929443, -0.49650299549102783, 0.4229186773300171, -0.041297294199466705, 0.3648315966129303, 0.23330888152122498, 0.05323902145028114, -0.5239731669425964, -0.308602511882782, -0.5474491119384766, 0.07243175059556961, 0.13010169565677643, 0.3039388060569763, 0.16294831037521362, 0.6722021102905273, -0.24447733163833618, -0.3033636510372162, 0.24751988053321838, -0.44741740822792053, 0.23794923722743988, 0.37743520736694336, -0.356057345867157, 0.26459264755249023, 0.03713531792163849], "actor.network.2.weight": [[-0.03882397711277008, -0.11654927581548691, -0.11840933561325073, 0.02361169457435608, -0.06639455258846283, 0.14101369678974152, -0.09689781069755554, 0.1401623636484146, 0.07865573465824127, 0.1187688559293747, -0.1642247587442398, 0.03956916928291321, -0.17789115011692047, -0.17656980454921722, -0.046410247683525085, 0.02639181911945343, -0.0951785072684288, 0.059127599000930786, -0.14999893307685852, 0.05355960130691528, 0.0779200941324234, -0.10064703226089478, -0.06100960075855255, -0.07910482585430145, 0.09034277498722076, -0.018887057900428772, -0.06660079956054688, -0.08760232478380203], [0.0559518076479435, -0.01878322660923004, 0.01658068597316742, 0.1889142394065857, 0.09354812651872635, 0.05464576557278633, 0.10514078289270401, -0.021261364221572876, -0.11079463362693787, -0.21073418855667114, -0.08500208705663681, -0.03481993079185486, 0.15026572346687317, -0.1762230545282364, -0.047710441052913666, -0.1963062435388565, -0.23742680251598358, -0.11209464818239212, -0.17732515931129456, -0.15938100218772888, -0.03286457061767578, 0.09646297991275787, -0.055128082633018494, 0.1680992692708969, -0.05897579342126846, 0.09271211922168732, -0.05471711605787277, -0.009649576619267464], [-0.05731658264994621, 0.07759200036525726, 0.11779384315013885, 0.10430534929037094, 0.19176310300827026, 0.013116257265210152, 0.06489446759223938, -0.05327130854129791, -0.01131987851113081, -0.062270861119031906, -0.1629224419593811, 0.09660520404577255, -0.027159471064805984, 0.0018326304852962494, 0.04355829581618309, -0.10366473346948624, -0.02036571130156517, 0.20386947691440582, 0.00945368967950344, -0.06289814412593842, -0.02080540731549263, -0.0775814801454544, 0.12321855127811432, -0.059902727603912354, 0.2085184007883072, -0.10469789803028107, 0.18814252316951752, -0.06921368092298508], [0.08218007534742355, 0.20150695741176605, 0.23949168622493744, 0.15571561455726624, 0.11094139516353607, -0.21851268410682678, -0.06958970427513123, -0.034944623708724976, 0.10183170437812805, 0.24357813596725464, 0.01156709622591734, 0.156312957406044, -0.2495802491903305, -0.15278807282447815, 0.021414808928966522, -0.04112500324845314, 0.025024782866239548, 0.2723845839500427, -0.022327518090605736, -0.09206563234329224, -0.14081785082817078, -0.031469058245420456, 0.025089263916015625, -0.05306514725089073, 0.028507502749562263, 0.094032421708107, 0.07956040650606155, 0.084615059196949], [-0.2285853773355484, -0.017798177897930145, -0.12832048535346985, 0.09194207191467285, 0.19181984663009644, -0.266923189163208, 0.17979246377944946, 0.29164063930511475, 0.18790797889232635, 0.1662469506263733, -0.0034908680245280266, -0.07831194996833801, -0.14807841181755066, -0.03326387703418732, 0.21992091834545135, -0.04371373727917671, 0.1406955122947693, 0.08131479471921921, 0.10593441128730774, 0.07123056054115295, -0.15087491273880005, -0.4727839529514313, -0.13660304248332977, -0.3271086812019348, 0.23684658110141754, 0.1416129171848297, -0.19376316666603088, 0.276767373085022], [-0.07738198339939117, 0.0021394891664385796, -0.04776274040341377, -0.1913873851299286, 0.02603542059659958, 0.05031394958496094, -0.12273723632097244, -0.18947546184062958, -0.07056950777769089, 0.08376382291316986, 0.1380641609430313, -0.13728642463684082, 0.0942826122045517, 0.11688120663166046, -0.005991634447127581, -0.040640927851200104, 0.01710561290383339, -0.13332584500312805, 0.05878966301679611, 0.077817901968956, -0.1866372972726822, 0.12647441029548645, -0.1927661895751953, 0.04446343332529068, -0.06881828606128693, 0.10345703363418579, -0.08414292335510254, 0.1547308713197708], [-0.009502201341092587, 0.05025114119052887, 0.11608465760946274, 0.005281446501612663, 0.2515988051891327, -0.16670072078704834, 0.20692789554595947, 0.16805142164230347, 0.013312759809195995, 0.038087960332632065, -0.002776654437184334, 0.1502535045146942, -0.19216123223304749, -0.12380653619766235, -0.04368475452065468, -0.068599633872509, -0.09549174457788467, 0.2385186403989792, -0.05343466252088547, -0.14195957779884338, -0.12902916967868805, -0.17831532657146454, 0.12238647788763046, 0.05077686905860901, 0.14358168840408325, -0.06136447936296463, 0.09143061935901642, -0.05838685855269432], [0.16906419396400452, 0.06137509644031525, -0.1225295215845108, 0.11722151190042496, 0.014853905886411667, 0.16780288517475128, -0.178131103515625, -0.13290566205978394, -0.04888312518596649, -0.16592192649841309, -0.05904184281826019, 0.07333587110042572, -0.012190626934170723, -0.01059095561504364, -0.1304372400045395, -0.14846259355545044, -0.10824355483055115, -0.10062531381845474, -0.008274725638329983, 0.13818113505840302, -0.007500574924051762, 0.17820286750793457, 0.05643831193447113, 0.12776494026184082, -0.07087218761444092, -0.08818162232637405, -0.08400511741638184, -0.12908750772476196], [0.12906181812286377, 0.2022344321012497, 0.15816013514995575, 0.012345082126557827, 0.03729755058884621, -0.05077093467116356, -0.09633070975542068, -0.17203253507614136, 0.012768871150910854, 0.05895251780748367, 0.1277151107788086, -0.06103656440973282, 0.00560686644166708, -0.15015128254890442, -0.25154149532318115, 0.09732238948345184, 0.2417154163122177, -0.048864152282476425, -0.11626610904932022, 0.10150207579135895, 0.11632370203733444, 0.1749189794063568, 0.10259956121444702, 0.23964864015579224, 0.02175608091056347, 0.0519300252199173, 0.22762322425842285, 0.03309527784585953], [0.007895393297076225, 0.09557481110095978, -0.11775320023298264, 0.16003790497779846, 0.06808151304721832, -0.18388046324253082, -0.1784290075302124, 0.11863869428634644, -0.20377612113952637, -0.08918270468711853, -0.013454441912472248, -0.09702090173959732, 0.04787597060203552, -0.050732821226119995, -0.19317302107810974, -0.14577573537826538, -0.0344155877828598, -0.16920825839042664, 0.043259769678115845, -0.03833000361919403, -0.061330948024988174, -0.02419961243867874, -0.21480117738246918, 0.10051846504211426, 0.0650489330291748, -0.06275828182697296, 0.15379878878593445, 0.05622274428606033], [0.009125162847340107, -0.05363292247056961, 0.0003224645624868572, 0.16750073432922363, -0.09929683804512024, 0.1274515986442566, -0.17089343070983887, -0.0583701953291893, -0.054916903376579285, 0.13270330429077148, 0.16160887479782104, -0.02106057107448578, 0.16678203642368317, 0.06696797907352448, -0.18942740559577942, -0.11025769263505936, -0.02692130208015442, -0.18467727303504944, -0.11983945220708847, 0.12004919350147247, 0.050313714891672134, 0.09135615080595016, 0.08062316477298737, -0.019082071259617805, -0.07160604000091553, -0.16901934146881104, 0.09363479912281036, 0.022088777273893356], [0.18230707943439484, 0.06013716012239456, 0.020140130072832108, 0.007839147001504898, 0.05158787965774536, 0.21595045924186707, -0.04724202677607536, -0.08221372961997986, 0.035275787115097046, 0.13872884213924408, 0.00739625096321106, 0.06699535250663757, 0.20411650836467743, 0.1017545759677887, -0.22637426853179932, 0.0973089411854744, 0.06166016310453415, -0.11554858833551407, -0.09324190765619278, 0.17235371470451355, -0.06678574532270432, 0.08240126073360443, 0.13076458871364594, 0.0939115658402443, -0.10477365553379059, -0.07344034314155579, 0.31565311551094055, -0.004046369809657335], [0.16067075729370117, -0.08862720429897308, 0.3763315975666046, 0.03383411467075348, -0.0751587525010109, -0.052597880363464355, -0.11398538202047348, 0.02949576824903488, 0.21874594688415527, 0.022555721923708916, 0.1347327083349228, 0.13027209043502808, -0.024099670350551605, -0.17761704325675964, -0.392672061920166, -0.09834454208612442, 0.10325973480939865, -0.24349966645240784, 0.20604151487350464, -0.08153370022773743, 0.005465700291097164, 0.09211597591638565, 0.07852807641029358, 0.34848111867904663, 0.11854001879692078, -0.04686218500137329, 0.2908511161804199, -0.23334957659244537], [0.0335393100976944, 0.09326842427253723, -0.1442720592021942, 0.0343993604183197, 0.06595651805400848, 0.16371919214725494, -0.1837455928325653, -0.18114130198955536, -0.1025654524564743, -0.14050748944282532, -0.020348090678453445, 0.1778753101825714, 0.08509561419487, -0.046936243772506714, 0.13813239336013794, 0.04809288680553436, 0.14134842157363892, 0.052283696830272675, 0.07231175154447556, -0.11413731426000595, -0.13404437899589539, 0.13044996559619904, 0.06499329209327698, -0.09898458421230316, 0.15328717231750488, 0.13287058472633362, -0.11095809936523438, -0.1873689889907837], [0.3859192132949829, 0.1102825403213501, 0.36272290349006653, 0.028351450338959694, 0.0366211012005806, -0.09265101701021194, -0.2237127274274826, -0.13506078720092773, 0.06441716849803925, 0.09356196224689484, 0.20032741129398346, -0.13117794692516327, 0.2993119955062866, -0.13036617636680603, -0.2877201437950134, 0.09260645508766174, -0.015007620677351952, -0.5235120058059692, 0.16409139335155487, -0.04689676687121391, -0.06142668426036835, 0.33171066641807556, 0.12166330963373184, 0.2684435248374939, -0.04493206739425659, -0.034884266555309296, 0.3618966341018677, 0.024423908442258835], [0.14158669114112854, -0.12283312529325485, -0.1963464617729187, -0.027430400252342224, -0.0909237265586853, 0.13516530394554138, 0.009782519191503525, -0.029822567477822304, -0.15021099150180817, 0.08240662515163422, 0.029073314741253853, 0.08008795976638794, -0.09208010137081146, -0.001109772827476263, 0.10304015129804611, 0.08081258833408356, -0.2006945013999939, -0.09973249584436417, 0.05818138271570206, -0.07280290126800537, -0.13086456060409546, -0.05931154638528824, -0.04018440097570419, -0.004912957549095154, -0.04104100540280342, -0.17540767788887024, -0.17066164314746857, 0.12422074377536774], [0.19367191195487976, -0.07522232085466385, 0.012382463552057743, 0.10677745938301086, -0.008680031634867191, 0.06431854516267776, -0.2738282382488251, 0.04970993101596832, 0.22879676520824432, 0.08701933175325394, -0.0427372045814991, 0.05059611797332764, -0.06905956566333771, -0.10504741966724396, -0.17690491676330566, -0.05357690528035164, 0.14663074910640717, -0.22256067395210266, -0.14338628947734833, -0.05103649944067001, 0.11746709793806076, 0.21542176604270935, -0.1348913162946701, 0.05909387022256851, 0.057653363794088364, -0.15287861227989197, 0.16339336335659027, -0.028912609443068504], [0.11792482435703278, 0.17363449931144714, 0.3268287181854248, -0.05976177752017975, -0.13970056176185608, 0.2233884036540985, -0.05592257156968117, -0.11454566568136215, -0.0050047412514686584, -0.0708484947681427, 0.03792613744735718, -0.004025396890938282, 0.07638206332921982, 0.10441777110099792, 0.030710462480783463, 0.06285034120082855, 0.07149679958820343, -0.0427292138338089, 0.19547422230243683, -0.10527743399143219, 0.02214651368558407, 0.3083435595035553, 0.11259793490171432, 0.12728281319141388, 0.09630612283945084, -0.1064268946647644, 0.26361793279647827, -0.2238437831401825], [-0.05039464682340622, -0.19521959125995636, -0.21279630064964294, -0.12576064467430115, 0.1661309003829956, -0.028959516435861588, 0.20521602034568787, 0.23523621261119843, -0.05330553650856018, 0.24536921083927155, 0.04225073382258415, 0.14019502699375153, -0.10341294854879379, -0.022449009120464325, 0.227528914809227, 0.08363580703735352, -0.11123329401016235, 0.11538901180028915, -0.022698894143104553, 0.1611204445362091, -0.0011626251507550478, -0.36871615052223206, 0.10991926491260529, -0.1983240395784378, 0.20021039247512817, 0.0948510468006134, -0.004880939610302448, 0.06984273344278336], [-0.08960908651351929, -0.12432665377855301, -0.09432404488325119, 0.1221550852060318, -0.06188060715794563, -0.09121991693973541, 0.13767912983894348, -0.09115185588598251, -0.047020770609378815, 0.04285489022731781, 0.023171156644821167, -0.11484657227993011, 0.02457558549940586, 0.08982391655445099, 0.0662774071097374, 0.059090256690979004, 0.02423519268631935, -0.048667412251234055, -0.1685793101787567, -0.09308859705924988, -0.06239911913871765, 0.07725371420383453, 0.14357063174247742, -0.17896908521652222, -0.1797560751438141, -0.0060093700885772705, -0.024543724954128265, -0.0015989261446520686], [0.23887039721012115, -0.17837107181549072, -0.08458711951971054, 0.1367143988609314, 0.05090295150876045, -0.23863914608955383, -0.11017103493213654, -0.062420494854450226, 0.08100414276123047, 0.12946300208568573, 0.20123893022537231, 0.03911711648106575, -0.15823297202587128, -0.06985592097043991, 0.045186132192611694, -0.02575642056763172, -0.0893082469701767, 0.2609134316444397, 0.1424943208694458, -0.17807209491729736, 0.010151793248951435, -0.1473536640405655, 0.19581106305122375, -0.2306683510541916, 0.12087340652942657, 0.14528831839561462, -0.17498651146888733, 0.19199475646018982], [-0.31222084164619446, -0.14923277497291565, -0.14352455735206604, -0.029066605493426323, 0.03199495002627373, -0.18038764595985413, 0.41341346502304077, -0.031174179166555405, 0.20455984771251678, 0.056185413151979446, -0.055028535425662994, 0.008021721616387367, 0.04243963956832886, -0.06886419653892517, 0.15046750009059906, -0.03434842452406883, 0.053664736449718475, 0.37593531608581543, 0.3821782171726227, -0.05950567126274109, -0.10604902356863022, -0.6193307638168335, -0.04380205273628235, -0.5533180236816406, 0.30521151423454285, 0.026229891926050186, -0.32900041341781616, 0.10307452827692032], [0.22649288177490234, -0.0948655754327774, 0.05212525650858879, -0.058250654488801956, -0.13635103404521942, 0.034920599311590195, -0.02440040372312069, -0.32089516520500183, 0.0352221243083477, 0.013130762614309788, 0.18824663758277893, -0.1224934309720993, 0.19147124886512756, 0.14892667531967163, -0.3229268789291382, 0.17651470005512238, 0.20393678545951843, -0.23882314562797546, 0.002961450722068548, 0.1632867008447647, 0.07963157445192337, 0.26292890310287476, -0.19760465621948242, 0.38120198249816895, -0.20333750545978546, 0.08135860413312912, 0.16554345190525055, -0.1074436828494072], [0.08153951913118362, 0.09879901260137558, -0.11387674510478973, -0.13334746658802032, -0.0670250654220581, 0.06790198385715485, -0.13365161418914795, 0.09225445985794067, 0.03731386363506317, 0.0661039799451828, 0.10341836512088776, 0.05154118686914444, -0.15875402092933655, 0.013182178139686584, 0.03516962379217148, -0.11296488344669342, -0.06259415298700333, -0.04898747056722641, -0.10449422150850296, 0.045999303460121155, 0.13153667747974396, -0.1323312520980835, -0.05804199352860451, 0.10389995574951172, 0.13933122158050537, 0.0689476728439331, -0.11436378955841064, 0.09125407040119171], [0.1408146470785141, 0.10337039828300476, 0.10258599370718002, 0.011148680001497269, -0.15659849345684052, -0.0009556747390888631, -0.016536390408873558, -0.231254443526268, 0.14248834550380707, 0.10222944617271423, 0.06350631266832352, 0.18607577681541443, -0.01054666843265295, -0.1083923727273941, -0.3659512996673584, 0.15309026837348938, -0.1456453651189804, -0.2968745231628418, -0.0738021731376648, 0.08408701419830322, -0.0548008531332016, 0.03749515488743782, -0.2111191302537918, 0.09688722342252731, -0.04284297674894333, 0.015700440853834152, 0.3032570779323578, 0.06904476881027222], [0.02613656222820282, 0.0735870748758316, -0.04321750998497009, -0.042517080903053284, 0.13381007313728333, -0.04868119955062866, -0.1281060427427292, 0.07114772498607635, 0.07171230018138885, -0.01837531477212906, 0.08080511540174484, -0.17962461709976196, -0.14048783481121063, -0.11588098853826523, 0.04824730008840561, -0.13276883959770203, -0.008328334428369999, -0.0031564831733703613, -0.06298363208770752, 0.1699758917093277, -0.17404374480247498, 0.15228590369224548, -0.1039494127035141, -0.0855536162853241, -0.18135806918144226, 0.17649461328983307, -0.07667483389377594, -0.030297458171844482], [0.0752490758895874, 0.034732259809970856, 0.30302345752716064, -0.0935564637184143, 0.07938694953918457, 0.04416712000966072, -0.10467784106731415, -0.0966099351644516, 0.046324800699949265, -0.029995635151863098, -0.10322757065296173, 0.025851350277662277, 0.20150808990001678, 0.002125105820596218, -0.03879832476377487, -0.1292504370212555, 0.20026880502700806, -0.22365492582321167, -0.1684872955083847, 0.03144301846623421, 0.1641007363796234, 0.09933383762836456, 0.05972415208816528, 0.3524477779865265, 0.051049672067165375, -0.17904609441757202, 0.28926751017570496, -0.043984122574329376], [0.03990839421749115, 0.08427988737821579, -0.011220380663871765, -0.05785539373755455, 0.18700501322746277, -0.13722427189350128, -0.1302986592054367, -0.15917587280273438, 0.10175248980522156, 0.17043358087539673, 0.11578523367643356, 0.13251125812530518, 0.14915752410888672, -0.14877980947494507, -0.057558972388505936, 0.20840267837047577, 0.026065465062856674, -0.024808287620544434, 0.01024048775434494, 0.11726208031177521, 0.08029328286647797, -0.07150732725858688, 0.15266242623329163, -0.14100514352321625, 0.15618707239627838, 0.1126028299331665, 0.04763442277908325, -0.19489508867263794]], "actor.network.2.bias": [-0.035874128341674805, 0.011892089620232582, 0.020899498835206032, 0.09691914170980453, 0.09220854938030243, -0.2002982497215271, 0.06131512671709061, 0.008198264986276627, 0.16483992338180542, -0.03993207588791847, -0.016057979315519333, 0.11512895673513412, 0.03349955752491951, -0.17026853561401367, 0.14664529263973236, -0.21060626208782196, 0.25170665979385376, 0.1455448567867279, 0.2020263671875, -0.15344636142253876, 0.2285418063402176, 0.13170760869979858, 0.1797146052122116, -0.1573791205883026, 0.17153845727443695, -0.19295015931129456, 0.19233739376068115, -0.09033763408660889], "actor.network.4.weight": [[0.008569076657295227, 0.014847315847873688, 0.04888419434428215, -0.038847822695970535, -0.09735064953565598, 0.11917668581008911, 0.037594474852085114, -0.18475432693958282, -0.041648074984550476, -0.0735696405172348, 0.07012904435396194, 0.18725095689296722, -0.06616765260696411, 0.12138035148382187, 0.25100046396255493, 0.0015739320078864694, -0.04723445326089859, -0.09206996113061905, 0.11026472598314285, 0.018039699643850327, -0.04888992756605148, -0.09867582470178604, 0.21772363781929016, 0.07234197109937668, 0.21563014388084412, -0.18442419171333313, -0.03260509669780731, 0.06804408878087997], [0.09687255322933197, 0.1655775010585785, 0.05981069430708885, -0.02602178044617176, -0.06079305335879326, -0.05113588273525238, 0.003485864493995905, -0.17767037451267242, 0.039291441440582275, 0.07479123771190643, -0.07944716513156891, 0.27310678362846375, 0.3776456415653229, -0.025070609524846077, 0.2950325310230255, 0.16524705290794373, 0.3412382900714874, 0.14757685363292694, -0.15194308757781982, 0.03696715831756592, 0.1343606859445572, -0.2345251590013504, 0.2898557186126709, -0.09420053660869598, 0.16256602108478546, 0.09801982343196869, 0.25983715057373047, 0.032030701637268066], [0.017160028219223022, 1.7733338609104976e-05, 0.0030023057479411364, 0.15441623330116272, 0.42149630188941956, 0.04219383746385574, 0.1808512657880783, -0.051974691450595856, -0.14596065878868103, 0.01848820596933365, -0.09893220663070679, -0.15121810138225555, -0.07866109162569046, 0.12586331367492676, -0.23043282330036163, 0.17084825038909912, -0.09954993426799774, -0.11780308187007904, 0.20459666848182678, 0.14348411560058594, 0.2734220623970032, 0.2069484144449234, -0.1445741206407547, 0.16539713740348816, -0.12641292810440063, 0.10562479496002197, 0.025111597031354904, 0.042499568313360214], [0.0682094544172287, 0.11508133262395859, -0.062478840351104736, 0.21816669404506683, 0.3797557055950165, 0.06331281363964081, 0.19853293895721436, 0.1369127780199051, -0.03432800620794296, 0.050481267273426056, -0.01633228175342083, -0.11011981219053268, -0.17042310535907745, -0.09672249853610992, -0.17133112251758575, -0.18178552389144897, 0.016086731106042862, 0.0767359659075737, 0.08378281444311142, 0.12299506366252899, 0.20035219192504883, 0.36752086877822876, -0.1816965490579605, -0.11112385988235474, -0.16570954024791718, -0.008151363581418991, -0.026098843663930893, 0.10892803966999054], [0.10690711438655853, -0.011930588632822037, 0.14250396192073822, 0.061185989528894424, 0.38962703943252563, 0.1610196828842163, -0.021505920216441154, -0.017380546778440475, -0.06059972941875458, 0.0469159334897995, 0.1304633468389511, 0.11533932387828827, -0.07465348392724991, -0.023965463042259216, -0.3497779369354248, 0.15284624695777893, 0.007911981083452702, 0.016188757494091988, -0.07189097255468369, 0.14313256740570068, 0.17412596940994263, 0.2654972970485687, -0.09879259765148163, 0.06682688742876053, -0.06822323799133301, -0.03333165496587753, 0.0758913978934288, -0.07310523092746735], [0.15035273134708405, -0.12201017141342163, -0.06970469653606415, 0.015333776362240314, 0.10581627488136292, -0.0028937191236764193, -0.09290540218353271, 0.011678462848067284, -0.1090509444475174, 0.13704632222652435, -0.17189688980579376, 0.09130792319774628, 0.13138827681541443, 0.010484003461897373, -0.051050592213869095, -0.08240418136119843, 0.09824225306510925, -0.15403521060943604, 0.02287292294204235, 0.16556420922279358, 0.11032531410455704, -0.2067829966545105, 0.043400924652814865, -0.09761855751276016, 0.10643511265516281, -0.11827843636274338, -0.20276319980621338, -0.1515667736530304], [-0.07797587662935257, 0.2355422079563141, 0.22219936549663544, 0.14996720850467682, -0.04045665264129639, -0.05077524483203888, -0.058288976550102234, 0.027861397713422775, 0.22063270211219788, 0.029555048793554306, 0.18327903747558594, 0.22685249149799347, 0.3404163718223572, 0.11478257179260254, 0.4621107876300812, -0.18788936734199524, 0.2585558295249939, 0.11785928905010223, -0.11258424073457718, 0.015319337137043476, -0.0687718391418457, -0.2409893274307251, 0.3711698651313782, 0.10182979702949524, 0.12517718970775604, -0.058677222579717636, -0.0316740982234478, 0.10033442825078964], [0.12806595861911774, -0.012583142146468163, 0.12873338162899017, 0.05733126774430275, 0.3727874159812927, -0.11474549770355225, -0.07375083118677139, -0.06651492416858673, -0.21839593350887299, -0.11367646604776382, -0.09365786612033844, 0.17912405729293823, -0.0021706230472773314, -0.0032910266891121864, -0.26235565543174744, -0.13595566153526306, 0.017720375210046768, -0.07496865838766098, -0.03054063394665718, -0.05086361616849899, 0.2588753402233124, 0.32140183448791504, -0.028248172253370285, -0.14228655397891998, 0.1394081711769104, 0.03587494418025017, -0.07480163872241974, 0.19959354400634766], [0.08420567214488983, -0.19098256528377533, 0.0830623209476471, -0.09736181795597076, -0.01647782325744629, 0.07201328873634338, -0.01577674224972725, -0.18925297260284424, -0.17794018983840942, -0.057699911296367645, -0.1619565784931183, -0.09585236012935638, -0.0896553248167038, 0.1744978278875351, -0.14716894924640656, 0.0547097772359848, 0.18374529480934143, -0.2509900629520416, -0.040655821561813354, 0.145527184009552, 0.10127944499254227, -0.13645154237747192, 0.1363564133644104, -0.0488346666097641, 0.15478625893592834, 0.06980361044406891, 0.05222219601273537, 0.10339570045471191], [0.18248166143894196, -0.0799669623374939, 0.10925930738449097, -0.16313961148262024, -0.13438640534877777, 0.1757691353559494, 0.05705960839986801, 0.11126743257045746, 0.13628768920898438, -0.03305494785308838, -0.03153752535581589, -0.11793055385351181, 0.052922628819942474, -0.1196347028017044, -0.04311766475439072, -0.0845307782292366, 0.08451668918132782, -0.1878594160079956, 0.1032162606716156, 0.11189737915992737, 0.056428276002407074, -0.17407408356666565, 0.14031988382339478, 0.01264190673828125, -0.09328062832355499, -0.009224176406860352, 0.17439192533493042, -0.11972933262586594], [0.09535078704357147, 0.11213043332099915, -0.05280592292547226, 0.1923300325870514, -0.02932662144303322, 0.19721925258636475, 0.15079133212566376, 0.15141132473945618, 0.12136521935462952, -0.0693931058049202, -0.014010624960064888, 0.12085430324077606, 0.17224180698394775, -0.1745108962059021, 0.27171337604522705, 0.13014835119247437, 0.16742557287216187, 0.04320387914776802, -0.03235200047492981, 0.1830526739358902, 0.05017204210162163, -0.1915859580039978, 0.10364588350057602, 0.14415323734283447, 0.28825902938842773, 0.03423277288675308, 0.05392984300851822, 0.19573958218097687], [-0.00714874267578125, -0.2006080150604248, -0.08950924128293991, -0.014453158713877201, 0.3229999840259552, 0.1091044470667839, -0.024509446695446968, 0.15016725659370422, -0.24866759777069092, -0.0477420948445797, 0.13619527220726013, -0.1672757863998413, 0.13529618084430695, -0.04321696609258652, -0.07348724454641342, -0.12435343861579895, 0.08678413927555084, -0.23635554313659668, 0.06644918024539948, -0.044016946107149124, 0.19648419320583344, 0.18598707020282745, 0.013552658259868622, 0.05344286561012268, 0.057489413768053055, 0.1295628547668457, -0.11751967668533325, -0.08132217079401016], [-0.002180725336074829, 0.08337785303592682, 0.11794186383485794, 0.15359073877334595, 0.3744964301586151, -0.045228034257888794, 0.0431586392223835, 0.17922866344451904, -0.1631062775850296, 0.15441091358661652, -0.009272370487451553, 0.10341829806566238, -0.2469387799501419, -0.05321235582232475, -0.1535397469997406, 0.11219125986099243, -0.13284346461296082, 0.04276053607463837, 0.016367077827453613, -0.004863518290221691, 0.25580209493637085, 0.37158700823783875, -0.006509061902761459, 0.05548925697803497, 0.03172342851758003, 0.163310244679451, -0.31091833114624023, -0.09822863340377808], [0.129012331366539, -0.18312287330627441, -0.0016127228736877441, -0.09418657422065735, 0.0005225539207458496, 0.0291251540184021, -0.012761294841766357, 0.034877508878707886, 0.04075857996940613, -0.05061997473239899, 0.1372150033712387, 0.08030696213245392, -0.06857142597436905, -0.13187840580940247, 0.06182916462421417, -0.06383025646209717, 0.005536749958992004, -0.11834395676851273, -0.12433059513568878, 0.02350589632987976, -0.11776639521121979, -0.054775580763816833, 0.09853266179561615, -0.018678978085517883, -0.18679668009281158, 0.07034514844417572, -0.0442640483379364, 0.03449268639087677], [-0.18112629652023315, 0.01927737146615982, 0.171245276927948, 0.02573457732796669, 0.008737342432141304, 0.10290297865867615, -0.08601287007331848, -0.021927421912550926, -0.14382252097129822, 0.09618233144283295, 0.14050692319869995, -0.02233612723648548, -0.03691454231739044, 0.04623028635978699, -0.05186883360147476, 0.1677137315273285, -0.016281921416521072, 0.013000700622797012, -0.1364864557981491, -0.13843584060668945, 0.12142595648765564, -0.10608051717281342, -0.1415897160768509, -0.11716427654027939, -0.1443999856710434, 0.02866843342781067, 0.00751000689342618, -0.06657519936561584], [-0.10291869193315506, 0.058408163487911224, -0.2007330358028412, 0.035331543534994125, 0.10655124485492706, -0.09525002539157867, 0.09006041288375854, 0.005388773512095213, -0.2702643871307373, -0.07648744434118271, 0.16546714305877686, -0.08220981061458588, 0.0491534024477005, -0.17246629297733307, -0.09572048485279083, -0.13131549954414368, 0.041976481676101685, -0.0006962866173125803, 0.0653316080570221, 0.029373329132795334, -0.13498371839523315, -0.17435649037361145, 0.09453693777322769, -0.15092429518699646, -0.18369276821613312, -0.08600762486457825, -0.1831488311290741, 0.06694011390209198], [0.12189634144306183, 0.10254967957735062, 0.18270717561244965, 0.10757962614297867, 0.3232806921005249, -0.020229797810316086, 0.10526223480701447, 0.04345997795462608, -0.09783460199832916, -0.017797257751226425, -0.04919692128896713, -0.1751319020986557, 0.15218690037727356, -0.019619114696979523, -0.15083865821361542, 0.025726769119501114, -0.037713997066020966, -0.1647290289402008, 0.297277569770813, 0.14061415195465088, 0.07427322864532471, 0.1947411596775055, -0.06772932410240173, -0.10653319954872131, 0.09151746332645416, -0.029484590515494347, -0.21598981320858002, 0.10688677430152893], [-0.09505732357501984, -0.007358417846262455, 0.10108043998479843, -0.008971738629043102, -0.2763717472553253, -0.05752786248922348, 0.18874989449977875, 0.1797904372215271, 0.3293670415878296, -0.14715725183486938, -0.003217487595975399, 0.09794895350933075, 0.17924411594867706, 0.0020738141611218452, 0.30882933735847473, -0.12324361503124237, 0.10795033723115921, -0.010870472528040409, -0.08306467533111572, -0.034823812544345856, 0.17536218464374542, -0.33574196696281433, 0.18650762736797333, -0.0019482788629829884, 0.20769746601581573, 0.037365689873695374, 0.04241561517119408, -0.03860561549663544], [0.10283274948596954, 0.15258775651454926, 0.07974693179130554, -0.14247013628482819, -0.12987807393074036, -0.12655207514762878, -0.01517686527222395, 0.006359577178955078, 0.12168249487876892, 0.16327230632305145, 0.1334911733865738, 0.031103599816560745, -0.0785791203379631, -0.11773765087127686, -0.061363764107227325, -0.02098347619175911, -0.06094357371330261, 0.007806900888681412, -0.061160165816545486, 0.034384213387966156, 0.01767115667462349, -0.14726269245147705, 0.00877106748521328, -0.10967712849378586, 0.1430622637271881, 0.0588039755821228, 0.0043976763263344765, -0.06434851884841919], [-0.17491014301776886, 0.055976640433073044, -0.11299380660057068, 0.17841480672359467, 0.264035701751709, -0.14145492017269135, 0.12152498215436935, -0.016265638172626495, 0.07132268697023392, 0.15847155451774597, -0.127841055393219, 0.014178136363625526, -0.06993067264556885, 0.08965998888015747, -0.3675110340118408, 0.05554548278450966, -0.05129266530275345, -0.00680933753028512, 0.28811371326446533, -0.12194378674030304, 0.27451106905937195, 0.30795517563819885, -0.22591835260391235, -0.16969943046569824, -0.17651011049747467, 0.0033075567334890366, -0.06145204231142998, 0.16257433593273163], [0.09623579680919647, 0.09167125821113586, 0.1686811000108719, 0.21904397010803223, -0.20332828164100647, -0.0461278036236763, 0.15798696875572205, -0.09135870635509491, 0.31168845295906067, 0.08620278537273407, -0.07343946397304535, 0.1002611592411995, 0.084560826420784, -0.11057548969984055, 0.07153602689504623, -0.031673185527324677, 0.24755994975566864, 0.0909993052482605, -0.10750478506088257, 0.1547364592552185, 0.008081476204097271, -0.35456475615501404, 0.13251696527004242, -0.01734236255288124, 0.12611621618270874, -0.12599942088127136, 0.313538521528244, 0.15954387187957764], [-0.05819004774093628, 0.10959941148757935, -0.19127574563026428, 0.16523544490337372, -0.16144385933876038, 0.154278963804245, 0.11328556388616562, -0.06586578488349915, -0.018663981929421425, 0.1842900961637497, 0.1454032063484192, -0.11875616014003754, -0.1616155207157135, -0.05214378982782364, -0.0053665596060454845, 0.18882451951503754, -0.03788003697991371, -0.12857064604759216, -0.18039345741271973, -0.16176500916481018, 0.1309106945991516, 0.050440382212400436, 0.1164897009730339, 0.18847434222698212, -0.10732962191104889, 0.11171305179595947, -0.023971550166606903, 0.08340899646282196], [-0.05152183771133423, 0.15081508457660675, -0.11638735234737396, 0.2542474567890167, -0.3268429934978485, 0.06118109077215195, 0.20052297413349152, 0.08942807465791702, 0.10014308243989944, -0.11861264705657959, 0.14648398756980896, -0.07188507914543152, 0.13033056259155273, 0.10875007510185242, 0.3452003598213196, 0.06451670825481415, 0.08401162922382355, 0.10341227054595947, -0.10887414216995239, 0.09674708545207977, -0.13249999284744263, -0.13445283472537994, 0.3260967433452606, -0.13985788822174072, 0.22187501192092896, -0.027426213026046753, 0.24587006866931915, -0.15620853006839752], [-0.1582949012517929, -0.09861549735069275, 0.14543882012367249, -0.017775535583496094, 0.06397932767868042, 0.025398291647434235, 0.1639394611120224, -0.10285846889019012, 0.08812648057937622, 0.13016510009765625, 0.1577257215976715, 0.06644846498966217, 0.003541934536769986, -0.01489359512925148, -0.33441513776779175, 0.03474056348204613, 0.04080681875348091, -0.0701008215546608, 0.26069405674934387, -0.08517996221780777, 0.10191774368286133, 0.4660133719444275, -0.21212905645370483, -0.0025395099073648453, -0.2429305911064148, 0.15240560472011566, -0.09045229852199554, -0.08869125694036484], [-0.07902529835700989, -0.22344525158405304, -0.049330756068229675, 0.16532281041145325, 0.24300073087215424, 0.045947104692459106, 0.06735323369503021, 0.12429019808769226, -0.12851260602474213, 0.12001290917396545, 0.15094032883644104, -0.12835900485515594, -0.02737387642264366, -0.05782540887594223, -0.06953391432762146, -0.11167114228010178, 0.06103704124689102, 0.01551580149680376, 0.23957353830337524, -0.2029719054698944, 0.18273605406284332, 0.23247331380844116, -0.1312982589006424, 0.13706433773040771, 0.1049811914563179, 0.15247850120067596, -0.20446713268756866, 0.20759762823581696], [0.18717323243618011, 0.15489999949932098, -0.19773803651332855, -0.0445050448179245, 0.013540565967559814, -0.1333167552947998, 0.13160087168216705, 0.08855102956295013, 0.0408363901078701, 0.07284940779209137, 0.0027452409267425537, -0.0017940925899893045, -0.15836477279663086, -0.029110029339790344, -0.10353153944015503, -0.03778758645057678, -0.1597537398338318, 0.1168728917837143, -0.12396880984306335, -0.13704313337802887, -0.1814316064119339, 0.10887168347835541, 0.07461504638195038, -0.023933857679367065, -0.15599635243415833, 0.025100931525230408, -0.12092415988445282, 0.15185295045375824], [0.08610142767429352, 0.19021184742450714, 0.09618139266967773, -0.00880744680762291, -0.22141818702220917, -0.024468589574098587, -0.03944716230034828, -0.16586318612098694, 0.06957771629095078, 0.03844060003757477, -0.06946900486946106, 0.0017270665848627687, 0.33355605602264404, -0.09745778143405914, 0.3994603157043457, -0.14701199531555176, 0.2333115190267563, 0.23473046720027924, -0.20560340583324432, 0.06099098175764084, -0.054098132997751236, -0.318783700466156, 0.07043717801570892, -0.08130991458892822, 0.30390995740890503, -0.06691683828830719, 0.2555316686630249, -0.0295544620603323], [0.04728434979915619, 0.007049046456813812, -0.14146625995635986, -0.033002473413944244, -0.14686298370361328, -0.16925159096717834, 0.12405113875865936, 0.14607015252113342, -0.17536333203315735, 0.05588851124048233, 0.04959560185670853, 0.13974836468696594, 0.1565854698419571, 0.10381224751472473, -0.09345099329948425, 0.17132015526294708, -0.00766151025891304, -0.12756255269050598, 0.09771475195884705, -0.16200712323188782, -0.07544160634279251, -0.062444791197776794, -0.1394163966178894, 0.11313323676586151, 0.14894165098667145, -0.12776502966880798, 0.018560336902737617, 0.17988558113574982]], "actor.network.4.bias": [-0.031915001571178436, 0.12439160794019699, 0.22820055484771729, 0.08695616573095322, 0.1959906667470932, 0.04975132644176483, 0.04495915398001671, 0.12161611020565033, 0.08617439866065979, -0.15947827696800232, 0.11639875918626785, 0.2171247899532318, 0.17657727003097534, -0.09008681029081345, 0.06603442877531052, 0.12215834856033325, 0.04295780137181282, 0.16578339040279388, -0.16178184747695923, 0.23987410962581635, 0.13386915624141693, 0.03457704186439514, 0.14069028198719025, 0.19548778235912323, 0.056002795696258545, -0.09241972863674164, 0.16320960223674774, 0.07930728048086166], "actor.network.6.weight": [[0.1875029057264328, 0.24711565673351288, -0.34701648354530334, -0.41609662771224976, -0.20861996710300446, -0.08097612112760544, 0.23420415818691254, -0.23664718866348267, 0.06749903410673141, 0.027078203856945038, 0.1532941609621048, -0.23581813275814056, -0.06340014189481735, 0.1799878031015396, 0.11581720411777496, -0.11925078928470612, -0.2956215739250183, 0.13081257045269012, -0.17922145128250122, -0.14912867546081543, 0.3232581317424774, -0.15923938155174255, 0.2555750608444214, -0.4147748053073883, -0.16329920291900635, -0.1040370836853981, 0.3541489839553833, -0.020607009530067444], [0.02697981894016266, -0.31469014286994934, 0.21926993131637573, 0.3399984538555145, 0.16788263618946075, 0.08401059359312057, -0.1977313905954361, 0.3065665066242218, 0.13598474860191345, 0.0925203412771225, -0.1474551260471344, 0.05494776368141174, 0.25455549359321594, -0.09107264876365662, 0.10107894241809845, 0.06215313822031021, 0.23799815773963928, -0.3623727262020111, 0.01824982464313507, 0.24672335386276245, -0.04467357322573662, 0.06975200027227402, -0.29154258966445923, 0.20999115705490112, 0.29462406039237976, 0.0965433344244957, -0.09633048623800278, 0.12866666913032532]], "actor.network.6.bias": [-0.08319953083992004, 0.05652836337685585], "critic.network.0.weight": [[-0.7072882652282715, -0.39064860343933105, 0.3234547972679138, -0.04546729475259781], [-0.1534048616886139, -0.39663565158843994, -0.4218258261680603, 0.39926671981811523], [-0.15125346183776855, 0.4513062536716461, 0.052696455270051956, -0.1476055532693863], [-0.058146849274635315, -0.01384913083165884, -0.16956141591072083, -0.10051702708005905], [0.09205842763185501, 0.31240731477737427, -0.41352689266204834, -0.28243082761764526], [-0.20966854691505432, 0.13843120634555817, -0.035537686198949814, -0.28158432245254517], [0.02696238085627556, 0.04008205980062485, 0.06634176522493362, -0.048679742962121964], [-0.33240920305252075, -0.39209556579589844, 0.26774096488952637, 0.4341473877429962], [-0.04220978543162346, -0.05907920002937317, 0.5042678713798523, -0.008745649829506874], [-0.2647777199745178, -0.12104642391204834, -0.3412432372570038, 0.176020547747612], [0.22360144555568695, 0.3953346312046051, -0.33702826499938965, -0.22083866596221924], [-0.20264725387096405, 0.23288218677043915, -0.40046611428260803, -0.19294236600399017], [0.12382632493972778, -0.15755876898765564, -0.46092355251312256, -0.04778183996677399], [0.3583918809890747, -0.26965928077697754, -0.3458552956581116, -0.21789224445819855], [0.014647331088781357, -0.0028959750197827816, -0.1756593883037567, 0.11598718166351318], [0.011981183663010597, -0.1490897685289383, -0.01158982329070568, -0.11334243416786194], [0.2707797884941101, 0.45211535692214966, -0.26384836435317993, 0.5695801377296448], [-0.20045964419841766, -0.2591805160045624, 0.03981022909283638, -0.42524397373199463], [0.3959193825721741, 0.009060310199856758, -0.0700017437338829, -0.4311809837818146], [-0.2051466554403305, -0.01297524943947792, 0.12039318680763245, -0.014539767056703568], [0.07546088099479675, -0.410258412361145, -0.3009662926197052, -0.26447048783302307], [-0.31461796164512634, 0.3433827757835388, -0.25476887822151184, 0.37863534688949585], [-0.5047855377197266, 0.20234397053718567, -0.2816477417945862, 0.22299733757972717], [0.15804417431354523, -0.2119458168745041, -0.476441353559494, -0.5846271514892578], [-0.24786867201328278, -0.10250447690486908, -0.297959566116333, -0.3526374101638794], [0.08774019777774811, -0.23492543399333954, -0.03439021855592728, -0.1474374681711197], [0.0221501886844635, 0.1573629081249237, -0.253278911113739, 0.23787346482276917], [0.05202705040574074, -0.1980145275592804, -0.1508229821920395, -0.012563888914883137]], "critic.network.0.bias": [-0.24873299896717072, -0.1464701145887375, 0.31427451968193054, 0.1948855221271515, 0.6377942562103271, -0.30742692947387695, 0.3631323277950287, -0.6113985776901245, 0.3329000473022461, -0.2307007908821106, -0.182128444314003, -0.463714599609375, -0.39399561285972595, 0.33008861541748047, 0.06897279620170593, 0.33741500973701477, -0.22375430166721344, 0.0900978371500969, 0.3257523775100708, 0.4552403390407562, 0.03298136964440346, 0.5123996138572693, -0.30944347381591797, -0.3051873445510864, -0.22064191102981567, 0.2894074618816376, 0.40918585658073425, 0.4142497777938843], "critic.network.2.weight": [[-0.07994436472654343, 0.1307988464832306, 0.19950756430625916, 0.10451505333185196, 0.08601067960262299, -0.04008450731635094, 0.08942040801048279, -0.016595937311649323, 0.25805264711380005, -0.02794807031750679, -0.1437002420425415, -0.01866055466234684, -0.09994471073150635, 0.05447894707322121, -0.15951058268547058, -0.023439448326826096, -0.3044776916503906, -0.029907280579209328, -0.1491388976573944, 0.16231726109981537, 0.16171924769878387, 0.11927782744169235, -0.10163290798664093, -0.11563938111066818, 0.021825585514307022, 0.1596294641494751, 0.15336623787879944, 0.06794987618923187], [-0.23471654951572418, -0.11466875672340393, -0.10063432157039642, 0.20502899587154388, 0.15693555772304535, 0.07795067131519318, -0.042128052562475204, 0.05554509907960892, 0.08062878251075745, -0.055570341646671295, -0.11490367352962494, 0.028746863827109337, 0.03481511399149895, -0.03530598059296608, -0.028787199407815933, 0.20856697857379913, -0.03255843743681908, 0.10317927598953247, 0.03732578828930855, 0.13893254101276398, -0.07175648212432861, 0.21374481916427612, 0.05440351366996765, -0.28813254833221436, -0.0984947681427002, 0.032778117805719376, 0.07895336300134659, 0.11893483996391296], [-0.02611096203327179, 0.16457203030586243, 0.1148855909705162, 0.23107969760894775, -0.0018682650988921523, 0.06921227276325226, 0.28610774874687195, 0.02090556174516678, 0.0636565312743187, 0.026040950790047646, -0.1527724415063858, 0.09342392534017563, 0.11080595850944519, -0.04977545514702797, 0.084287628531456, 0.19361448287963867, -0.2945989966392517, 0.01866370439529419, -0.06038740277290344, 0.2667436897754669, -0.07924386858940125, 0.08389097452163696, -0.13369029760360718, -0.1488533467054367, -0.22090090811252594, 0.01712702214717865, 0.0392400287091732, 0.0073047117330133915], [-0.08299246430397034, -0.12569674849510193, -0.004622340202331543, 0.15741421282291412, -0.02150176465511322, -0.10312847793102264, -0.1428767740726471, 0.0668514221906662, 0.14595313370227814, -0.05888316035270691, -0.10244689881801605, 0.0794479101896286, -0.18684253096580505, 0.02976912260055542, 0.09389014542102814, -0.0732954815030098, 0.057910189032554626, 0.07418806850910187, -0.01411592960357666, 0.07839135825634003, -0.13924241065979004, -0.1594715416431427, -0.08441466093063354, -0.01939888298511505, 0.08419166505336761, -0.03911556303501129, -0.04071393609046936, 0.07931186258792877], [-0.2670787274837494, 0.08957008272409439, 0.2156275510787964, -0.016674434766173363, 0.2312793731689453, 0.09714189916849136, 0.28200602531433105, -0.243477925658226, 0.25888875126838684, 0.04581854119896889, -0.15314942598342896, -0.18818244338035583, 0.04726667329668999, 0.14814431965351105, 0.09996223449707031, 0.26951971650123596, -0.18207675218582153, 0.10030233860015869, -0.03088621236383915, -0.019285516813397408, -0.023623917251825333, 0.023752577602863312, -0.055046942085027695, -0.3545636534690857, -0.06721138954162598, -0.05020398646593094, 0.3080314099788666, 0.009238666854798794], [-0.1904110610485077, 0.15159708261489868, 0.17605262994766235, -0.014755761250853539, 0.19590061902999878, -0.05250387638807297, -0.041242022067308426, -0.06638380885124207, 0.14617247879505157, -0.18114520609378815, 0.14288419485092163, 0.05280270799994469, 0.16285109519958496, 0.10856417566537857, 0.15980832278728485, 0.07051679491996765, -0.2943108379840851, 0.1496940702199936, 0.05875466391444206, 0.22864393889904022, 0.22843369841575623, 0.12455354630947113, -0.1644291877746582, -0.36099857091903687, -0.20958249270915985, 0.04181450232863426, 0.07042841613292694, 0.24424247443675995], [-0.0927215963602066, 0.10122029483318329, 0.0853227749466896, 0.04090437665581703, -0.04151191934943199, 0.26999613642692566, -0.18846583366394043, -0.19147491455078125, -0.3187272846698761, 0.1386299431324005, 0.25127649307250977, -0.024974728003144264, -0.07921844720840454, 0.2655694782733917, -0.10529305040836334, 0.09841088950634003, 0.2809778153896332, 0.182034432888031, 0.20077744126319885, -0.17134033143520355, 0.25050199031829834, -0.34562331438064575, 0.1792725771665573, 0.2862081825733185, 0.2270762026309967, 0.17087021470069885, -0.2300417125225067, -0.2776845097541809], [-0.12747547030448914, -0.049358054995536804, -0.08134397119283676, -0.16755452752113342, -0.049664050340652466, 0.16491208970546722, -0.014335811138153076, 0.11873103678226471, 0.09774492681026459, 0.02931414544582367, 0.0881301611661911, 0.13014815747737885, 0.12441278994083405, -0.1512576937675476, 0.053733885288238525, -0.14066718518733978, -0.16118596494197845, -0.01591336727142334, -0.16341261565685272, -0.17895804345607758, 0.0006320178508758545, 0.08393217623233795, 0.009624376893043518, 0.16986124217510223, 0.03438590466976166, 0.09904114902019501, 0.03425230085849762, 0.17987610399723053], [-0.08450111746788025, 0.0925007313489914, 0.019320199266076088, 0.17480435967445374, -0.09980402886867523, 0.09995154291391373, 0.049574751406908035, -0.27709853649139404, 0.11736027896404266, 0.12391447275876999, 0.11334161460399628, 0.0326724611222744, 0.13579335808753967, 0.13601242005825043, -0.13469204306602478, 0.3089706301689148, -0.08236455917358398, -0.15210272371768951, 0.016115637496113777, -0.022834787145256996, 0.11801022291183472, 0.16404055058956146, 0.024574097245931625, -0.12475618720054626, -0.12828035652637482, 0.0914880558848381, 0.32454913854599, 0.23158197104930878], [0.2823553681373596, 0.1925286501646042, 0.004219556227326393, -0.07475152611732483, -0.019165143370628357, 0.0098101906478405, 0.17093728482723236, -0.030810698866844177, -0.12759636342525482, 9.322573896497488e-05, -0.12215714156627655, -0.0881362035870552, -0.06348647177219391, -0.6514711380004883, -0.058660879731178284, -0.07342270761728287, 0.24233999848365784, -0.3868776857852936, -0.3101028501987457, 0.17225201427936554, 0.009943302720785141, 0.13453952968120575, 0.03950312361121178, -0.24519136548042297, 0.13261288404464722, -0.2065245807170868, 0.07904932647943497, 0.1559988260269165], [-0.03930767625570297, 0.14563223719596863, -0.1582314670085907, 0.13692688941955566, -0.047337669879198074, 0.055344559252262115, 0.05539429560303688, -0.10627730935811996, 0.2377941757440567, -0.2399301528930664, 0.055517300963401794, -0.2617507874965668, -0.15432438254356384, -0.1436202973127365, -0.07737869769334793, 0.08256205916404724, -0.17483189702033997, -0.1190200224518776, 0.033575184643268585, 0.06600228697061539, -0.08837367594242096, 0.16092558205127716, 0.006279743276536465, -0.09531188756227493, -0.20306622982025146, 0.14274297654628754, 0.2141159623861313, -0.046398863196372986], [-0.25527334213256836, 0.11819133162498474, 0.0037153554148972034, 0.009690112434327602, -0.12893173098564148, 0.027093129232525826, -0.08236216753721237, 0.05247959494590759, 0.11257853358983994, 0.04595247656106949, 0.1264747530221939, 0.0853741243481636, 0.038882143795490265, 0.15205954015254974, -0.03799198195338249, -0.050060249865055084, -0.32067930698394775, -0.07038869708776474, 0.09951332956552505, -0.020793352276086807, 0.13866792619228363, 0.2252797931432724, -0.1946224868297577, -0.0805574506521225, -0.09479394555091858, 0.2271377593278885, -0.052957069128751755, 0.04838338494300842], [-0.004858727566897869, -0.06738726794719696, 0.12599876523017883, -0.02216438390314579, -0.015641266480088234, -0.12287787348031998, 0.18293294310569763, -0.22105224430561066, 0.2543591260910034, 0.05903937667608261, -0.10407622158527374, -0.1406421810388565, 0.06354016065597534, -0.0041108946315944195, 0.08969831466674805, 0.13045762479305267, -0.12383782863616943, -0.1594700962305069, -0.026994768530130386, 0.3204495310783386, 0.15117332339286804, 0.36249586939811707, -0.1568632274866104, -0.33173930644989014, -0.02773696929216385, 0.09384489059448242, 0.029378848150372505, 0.17117339372634888], [-0.16532661020755768, -0.01242640521377325, 0.08512632548809052, -0.07874083518981934, -0.0853288471698761, 0.09125865995883942, -0.06466954946517944, -0.10177662968635559, 0.1312600076198578, 0.02415836602449417, 0.17311476171016693, 0.1628606766462326, 0.09506134688854218, -0.17486265301704407, 0.03354060649871826, 0.16177776455879211, 0.08639539778232574, -0.16539081931114197, -0.09394381195306778, 0.07848714292049408, 0.0279943086206913, -0.15691325068473816, 0.07976934313774109, 0.05149948596954346, 0.0705484002828598, 0.052347615361213684, 0.06355361640453339, 0.043464332818984985], [-0.08881455659866333, -0.09100095927715302, 0.19713953137397766, 0.030645957216620445, 0.2036615014076233, -0.08686750382184982, 0.1422467976808548, -0.17652398347854614, 0.3039661645889282, 0.001935028936713934, -0.11306215077638626, 0.061602164059877396, -0.11776912212371826, -0.061501480638980865, 0.12771575152873993, 0.062336649745702744, -0.3347671329975128, -0.11741992831230164, -0.019349602982401848, 0.27774712443351746, -0.07934466004371643, 0.35222992300987244, -0.022965041920542717, -0.28147631883621216, -0.2675063908100128, 0.11404969543218613, 0.190919890999794, 0.28677234053611755], [0.0625171959400177, -0.032624296844005585, -0.007129825185984373, -0.12970298528671265, -0.20641107857227325, -0.013857439160346985, -0.12485338747501373, -0.1440090537071228, -0.047584615647792816, -0.017451565712690353, -0.07297079265117645, 0.12735016644001007, -0.14591491222381592, -0.054722853004932404, -0.12811873853206635, 0.09724818915128708, -0.13014952838420868, 0.0663052648305893, 0.1503891497850418, 0.026360340416431427, -0.11551114916801453, 0.03142353892326355, -0.08390633016824722, -0.02040669322013855, -0.14780889451503754, 0.019010109826922417, 0.010396448895335197, 0.12830546498298645], [-0.09938742220401764, -0.11751056462526321, 0.014483913779258728, 0.0005051344633102417, 0.18589206039905548, -0.11020639538764954, -0.10892181843519211, 0.16911642253398895, 0.0010382682085037231, 0.04801730811595917, -0.18453241884708405, 0.041100189089775085, -0.1793476939201355, -0.07183972001075745, 0.08609093725681305, -0.17506574094295502, 0.1138799637556076, 0.13174213469028473, -0.1724589318037033, 0.13766102492809296, 0.12687714397907257, -0.10297300666570663, 0.1643265038728714, 0.02039267122745514, -0.07371912896633148, -0.11152186989784241, -0.1369648575782776, -0.08404375612735748], [-0.3267090320587158, -0.13972610235214233, -0.05790144205093384, -0.04137932509183884, -0.012171068228781223, 0.07155857235193253, 0.1144808903336525, -0.024013129994273186, -0.042744703590869904, 0.05425875633955002, -0.023417359218001366, -0.04897509142756462, -0.035355884581804276, 0.028889114037156105, -0.19830825924873352, -0.05194031074643135, -0.061300430446863174, 0.07408488541841507, -0.0930238887667656, 0.17563042044639587, 0.10718398541212082, 0.04112817347049713, -0.03300107270479202, -0.2688944339752197, 0.01085960678756237, 0.1929030418395996, -0.019555378705263138, 0.24927358329296112], [-0.13682758808135986, -0.054113756865262985, 0.21609356999397278, 0.004806553013622761, 0.15221336483955383, 0.10518967360258102, 0.007500979583710432, 0.014182712882757187, 0.160605788230896, -0.18192490935325623, 0.12415923923254013, -0.11502794176340103, -0.013905752450227737, 0.007750633638352156, 0.08529090136289597, 0.08120601624250412, -0.07504920661449432, 0.10621415823698044, 0.11795836687088013, -0.026875728741288185, -0.08862777799367905, 0.21303299069404602, -0.119988813996315, -0.14968550205230713, -0.025589272379875183, -0.06592589616775513, 0.0031588319689035416, 0.054139748215675354], [-0.16613954305648804, 0.12375757098197937, 0.1575421690940857, -0.03224821761250496, -0.1085042655467987, 0.10531169921159744, 0.17459797859191895, -0.09370975196361542, 0.07817953079938889, -0.09660452604293823, 0.12068698555231094, -0.07440025359392166, 0.08739812672138214, 0.07184886932373047, 0.07452762871980667, 0.08359933644533157, -0.11415018141269684, -0.010359304025769234, -0.01724935881793499, 0.015351517125964165, 0.06363263726234436, 0.09643873572349548, -0.11532630026340485, -0.01478172093629837, -0.008242654614150524, 0.0016152834286913276, 0.20744319260120392, 0.12503430247306824], [0.1272934228181839, -0.042871590703725815, -0.16552306711673737, -0.10829335451126099, -0.057742513716220856, -0.13384786248207092, -0.11333030462265015, 0.004693442024290562, -0.06894119828939438, 0.04066881537437439, 0.040051549673080444, -0.09468607604503632, -0.01335105299949646, -0.0328613705933094, -0.19405095279216766, 0.004975925199687481, 0.10456542670726776, 0.08015245199203491, 0.1380946934223175, -0.10436296463012695, 0.11582103371620178, -0.15921908617019653, 0.06982740759849548, -0.11284168064594269, -0.10077577829360962, 0.03533162549138069, -0.12567853927612305, -0.18851560354232788], [-0.04376351833343506, -0.17694208025932312, -0.08871825784444809, 0.20098775625228882, -0.05410650372505188, 0.1022312194108963, 0.2129053920507431, -0.15873916447162628, 0.044093236327171326, 0.06376658380031586, 0.04365784674882889, -0.2002582848072052, 0.07978390157222748, 0.0024879539851099253, -0.1685476452112198, 0.08666975051164627, -0.13650281727313995, -0.01282807532697916, 0.08964730054140091, 0.13445301353931427, -0.12697350978851318, 0.13932815194129944, 0.03637316823005676, -0.20746465027332306, -0.13759124279022217, 0.24441084265708923, 0.12613730132579803, 0.1169203370809555], [-0.19858920574188232, -0.09498481452465057, -0.12719525396823883, -0.11728663742542267, -0.007369690574705601, -0.0929713323712349, 0.023646723479032516, -0.0865166038274765, -0.003977518528699875, 0.09120461344718933, -0.13750384747982025, 0.011846429668366909, -0.024403918534517288, 0.0983831137418747, 0.15363574028015137, 0.20801910758018494, -0.3434782922267914, 0.035794697701931, 0.10799341648817062, 0.2814774215221405, -0.02494513988494873, 0.36145684123039246, -0.014798332005739212, -0.18969987332820892, -0.1978149116039276, -0.021699825301766396, 0.21808886528015137, -0.04520764201879501], [0.007500097155570984, -0.17139649391174316, -0.15300704538822174, 0.16157789528369904, 0.03889395296573639, 0.146087184548378, -0.1467311680316925, -0.17201834917068481, 0.02935081720352173, -0.13162386417388916, 0.03214377164840698, 0.1870213896036148, 0.15281949937343597, 0.08611957728862762, -0.08218637853860855, 0.07348240911960602, -0.017932027578353882, -0.1187923401594162, -0.15014834702014923, 0.006201356649398804, 0.06008155643939972, 0.11156965792179108, -0.15479588508605957, 0.09330891072750092, -0.15878614783287048, -0.09155924618244171, 0.014255404472351074, 0.07803134620189667], [-0.0871485024690628, -0.10922281444072723, 0.007224511820822954, -0.06904838979244232, 0.1774728000164032, 0.041824810206890106, -0.08909276127815247, -0.009499780833721161, 0.06563284993171692, 0.10896578431129456, -0.019897812977433205, 0.1058933436870575, 0.16620630025863647, 0.07990388572216034, -0.19616420567035675, 0.17794927954673767, -0.3625989556312561, 0.09196870028972626, -0.010438229888677597, 0.21222464740276337, -0.12213826924562454, 0.27008891105651855, -0.055026743561029434, -0.31116020679473877, -0.029390064999461174, 0.13932037353515625, 0.0013600052334368229, -0.0030134557746350765], [-0.14425121247768402, 0.11635995656251907, 0.05547409877181053, -0.07959982752799988, 0.1307568997144699, -0.17527054250240326, 0.12054041773080826, -0.2693919539451599, 0.3444511294364929, 0.002061105566099286, 0.11528821289539337, -0.21278996765613556, 0.00514769135043025, 0.09855388104915619, -0.18927453458309174, -0.0660591796040535, -0.30679020285606384, -0.002550317905843258, -0.13375553488731384, 0.01789270155131817, 0.014165805652737617, 0.37281158566474915, -0.07220333814620972, -0.3945549428462982, 0.08277717232704163, -0.05038680508732796, 0.3271045386791229, 0.2511213719844818], [-0.054379917681217194, 0.03251517936587334, 0.2077079564332962, 0.05091550573706627, 0.011715725064277649, 0.09765394032001495, 0.1610107719898224, -0.003364390227943659, 0.16588075459003448, -0.10633306205272675, -0.07740005105733871, -0.21275463700294495, 0.18435028195381165, -0.1642654985189438, 0.06415971368551254, -0.11623513698577881, -0.13445234298706055, 0.1570272445678711, 0.11529894918203354, 0.18400557339191437, -0.0052213650196790695, 0.0626068115234375, -0.25586554408073425, -0.03572062402963638, -0.11314469575881958, -0.09776914864778519, 0.029975371435284615, 0.01872304454445839], [0.10208262503147125, -0.00804733857512474, 0.09528839588165283, -0.07324616611003876, -0.046074748039245605, 0.033438220620155334, 0.1171538233757019, -0.13727042078971863, -0.06825639307498932, 0.1419440060853958, -0.03019881248474121, -0.10194411128759384, -0.09837707132101059, -0.22371238470077515, 0.11282768845558167, 0.04758993536233902, -0.17744827270507812, -0.1578480303287506, -0.13426971435546875, 0.11921034753322601, -0.1578979194164276, -0.18534624576568604, 0.014877520501613617, -0.19167053699493408, -0.0003021867305506021, -0.11419123411178589, -0.1898811310529709, 0.08838936686515808]], "critic.network.2.bias": [0.17471152544021606, 0.0012789813335984945, 0.2951965928077698, -0.16293750703334808, 0.23191501200199127, 0.13314607739448547, 0.05983700230717659, -0.1866881400346756, 0.29766640067100525, -0.19315974414348602, 0.2331533581018448, 0.047758039087057114, 0.041196875274181366, -0.12157437205314636, 0.1979120969772339, 0.007561466656625271, -0.16184799373149872, 0.24708907306194305, 0.31296446919441223, -0.08483293652534485, -0.09387888014316559, 0.2730270028114319, 0.2562618851661682, -0.1331147849559784, 0.08728151023387909, 0.12471252679824829, 0.20714735984802246, 0.03891756385564804], "critic.network.4.weight": [[-0.15434050559997559, 0.0001703381130937487, -0.017398908734321594, 0.04481367766857147, -0.18295913934707642, 0.02603382244706154, 0.004705238156020641, 0.12136505544185638, -0.030566047877073288, -0.14778363704681396, -0.11602038145065308, -0.1686553955078125, -0.13528668880462646, -0.16063842177391052, 0.06148552894592285, 0.05139182507991791, -0.14579400420188904, -0.18241368234157562, 0.10620778799057007, -0.062444478273391724, -0.1389714628458023, -0.04438479244709015, 0.18212531507015228, -0.057840123772621155, 0.10099045932292938, 0.1288948953151703, 0.021252263337373734, -0.033430472016334534], [-0.19779692590236664, 0.10995516180992126, -0.07642572373151779, -0.07434742897748947, 0.0030789952725172043, -0.18566229939460754, -0.04411591961979866, -0.11717725545167923, 0.13745364546775818, 0.07497354596853256, 0.09079170227050781, 0.06480639427900314, -0.13340899348258972, 0.09259335696697235, -0.15245963633060455, -0.07981450855731964, -0.1570667177438736, 0.07242012768983841, -0.16828873753547668, 0.13546237349510193, 0.1323908120393753, -0.09924280643463135, 0.07269412279129028, 0.05326096713542938, -0.03257233649492264, 0.1196170300245285, 0.07863691449165344, 0.1455594301223755], [0.07393466681241989, 0.16673819720745087, -0.008748086169362068, -0.12858477234840393, 0.1677248328924179, -0.046086326241493225, -0.01812027394771576, -0.05398529767990112, 0.17907899618148804, -0.01690475270152092, 0.24336817860603333, 0.13398027420043945, 0.21490350365638733, -0.12553326785564423, 0.29887399077415466, -0.14135493338108063, -0.1081610769033432, -0.004673625808209181, 0.08841735869646072, 0.17206309735774994, 0.03886380046606064, 0.26140064001083374, 0.1602623164653778, -0.18755193054676056, 0.19894087314605713, 0.09653498977422714, -0.020206019282341003, -0.09513859450817108], [-0.09160175919532776, -0.03832348436117172, -0.05548577010631561, 0.042494192719459534, 0.06676237285137177, 0.15056699514389038, 0.20847991108894348, -0.022142186760902405, -0.0024010674096643925, -0.09704969823360443, -0.0921790599822998, 0.21225698292255402, 0.04704201966524124, 0.007672977168112993, -0.2313527762889862, 0.15470702946186066, 0.056744471192359924, 0.09177902340888977, -0.14862266182899475, 0.12033449113368988, 0.15768608450889587, 0.10253448784351349, -0.11264082044363022, -0.17045477032661438, 0.11062854528427124, -0.15886759757995605, 0.08358386158943176, 0.0795431137084961], [-0.2162342071533203, 0.19464363157749176, -0.5095165967941284, 0.1383100301027298, 0.1252909004688263, 0.06802103668451309, -0.02385641075670719, -0.08569317311048508, 0.19714303314685822, -0.07025501132011414, -0.10811859369277954, 0.18951895833015442, -0.215933695435524, 0.022907838225364685, -0.05418398231267929, -0.17782321572303772, -0.029388800263404846, -0.019309332594275475, 0.12409461289644241, -0.13227558135986328, 0.022941455245018005, 0.01641758903861046, -0.3020709156990051, -0.00969591736793518, 0.07642711699008942, 0.08950554579496384, 0.1837942898273468, -0.1469593346118927], [0.21210278570652008, -0.09619330614805222, 0.2124209851026535, 0.031576573848724365, -0.028003426268696785, 0.10960670560598373, 0.05819031596183777, -0.0758037343621254, 0.079315684735775, -0.22553026676177979, 0.11073339730501175, 0.1791016161441803, 0.1505316197872162, 0.1305307298898697, 0.05829160660505295, -0.15501835942268372, 0.05894064903259277, 0.004711686633527279, -0.09735805541276932, -0.14330774545669556, 0.10451121628284454, -0.08746463060379028, 0.19505441188812256, -0.1486850380897522, -0.04059825837612152, 0.20394501090049744, 0.09719246625900269, 0.10724414139986038], [0.261103093624115, -0.0384572371840477, 0.1369921863079071, 0.049617886543273926, -0.07071134448051453, 0.0827680453658104, -0.19924035668373108, -0.007900908589363098, 0.09852839261293411, 0.10200691223144531, 0.19015182554721832, -0.16449619829654694, 0.03088160790503025, -0.12852536141872406, 0.11287708580493927, 0.20171411335468292, -0.0753781720995903, 0.12834101915359497, -0.07640933245420456, -0.13786479830741882, 0.0680161640048027, -0.03370376303792, 0.2768429219722748, -0.12557697296142578, 0.00021463976008817554, 0.08762972801923752, -0.09797745943069458, 0.19534778594970703], [0.15929223597049713, 0.10533837974071503, 0.09757906198501587, -0.04519939422607422, -0.2062217891216278, -0.20262640714645386, -0.14920634031295776, -0.13760563731193542, 0.1234041154384613, -0.04567030072212219, -0.017030851915478706, 0.05970867723226547, -0.1525684893131256, -0.13990497589111328, -0.008499874733388424, -0.04327167570590973, 0.02948915958404541, 0.10478798300027847, 0.08488326519727707, 0.13036058843135834, 0.13098081946372986, 0.09408609569072723, -0.049037691205739975, -0.04709276556968689, -0.15586204826831818, 0.047393932938575745, -0.06770939379930496, -0.011167218908667564], [0.1378275603055954, -0.08816588670015335, 0.2071944922208786, -0.023101970553398132, 0.2111678272485733, 0.01151979248970747, -0.26337164640426636, -0.10703161358833313, 0.1291532814502716, 0.09367203712463379, 0.1329355686903, 0.022480908781290054, 0.2371709793806076, 0.03967590630054474, -0.015075131319463253, -0.12349654734134674, 0.10867656767368317, 0.11913713812828064, 0.04033251479268074, -0.2001650035381317, 0.0538066104054451, 0.16789467632770538, 0.14823707938194275, 0.18097947537899017, 0.01374389324337244, 0.05633075162768364, -0.02328079752624035, -0.14524546265602112], [-0.0382617712020874, -0.03738551586866379, 0.045044153928756714, -0.09393006563186646, 0.24611704051494598, 0.2341466099023819, 0.08588367700576782, 0.13108058273792267, 0.10054357349872589, -0.10593606531620026, -0.07771299034357071, 0.17623397707939148, 0.032738253474235535, -0.08299387246370316, 0.04060200974345207, 0.13486820459365845, -0.08699667453765869, -0.03399578854441643, 0.19079101085662842, -0.12964627146720886, 0.15536990761756897, 0.03478704020380974, 0.29977619647979736, -0.11217260360717773, 0.11863279342651367, 0.03410469740629196, 0.0722440555691719, 0.13971686363220215], [0.2195732444524765, 0.21042533218860626, 0.2661559283733368, 0.11917690932750702, 0.07560645043849945, 0.16595497727394104, -0.23503433167934418, 0.012383610010147095, 0.10124194622039795, -0.24974922835826874, 0.07299503684043884, -0.005524132866412401, 0.014116402715444565, 0.08305621147155762, 0.04778597503900528, -0.07867729663848877, -0.16832156479358673, -0.10606634616851807, 0.14289747178554535, 0.17977407574653625, -0.005113545805215836, 0.04754691570997238, 0.08635004609823227, 0.12085635960102081, 0.1080726608633995, -0.021772589534521103, 0.12648716568946838, -0.1178840920329094], [-0.005636724643409252, 0.02040853351354599, 0.23547708988189697, 0.11523814499378204, 0.12534238398075104, 0.11804438382387161, -0.2516956031322479, -0.012411683797836304, 0.23310549557209015, -0.06278137862682343, 0.06542036682367325, 0.17515182495117188, 0.2757427394390106, -0.013503550551831722, -0.04144050180912018, 0.039703480899333954, -0.08706562966108322, 0.18174231052398682, -0.03895306587219238, 0.09209384024143219, -0.05273483693599701, 0.24371464550495148, 0.3625956177711487, -0.17340856790542603, 0.037279900163412094, 0.17377975583076477, 0.03591576963663101, -0.08229272067546844], [0.07206809520721436, -0.08016084879636765, 0.2328501045703888, 0.08620248734951019, 0.21559211611747742, -0.011953921057283878, 0.0009921706514433026, -0.030223920941352844, 0.096077561378479, -0.23829329013824463, 0.11585073918104172, 0.002552459016442299, 0.017272474244236946, 0.14405928552150726, 0.0265465397387743, -0.165529265999794, 0.07932089269161224, 0.12091604620218277, 0.2183079868555069, 0.037421658635139465, 0.1092602014541626, 0.03497585281729698, -0.02219291403889656, -0.04229849576950073, -0.11694987863302231, -0.08581597357988358, -0.05927164852619171, 0.08971467614173889], [0.00035500526428222656, 0.10978280007839203, -0.0615558922290802, 0.0922299474477768, -0.08146300166845322, -0.1832805722951889, -0.04089662432670593, -0.11784332990646362, 0.14187072217464447, -0.12897741794586182, 0.04606030508875847, 0.022647187113761902, -0.046323105692863464, 0.10915376245975494, -0.12844841182231903, 0.007044357713311911, -0.1434434950351715, -0.1228405013680458, -0.18182362616062164, 0.038347795605659485, -0.0715303122997284, 0.1405942589044571, 0.09377824515104294, 0.12886996567249298, -0.0928194597363472, -0.1442909687757492, 0.0510983020067215, -0.06890904158353806], [0.07427681982517242, -0.13595743477344513, -0.27277645468711853, -0.128016859292984, -0.0941535159945488, -0.13826042413711548, 0.31179606914520264, -0.1640358865261078, 0.07107812911272049, -0.018503878265619278, -0.16009613871574402, 0.16032780706882477, -0.22045055031776428, -0.1802961528301239, 0.15828678011894226, -0.09398230910301208, -0.17513522505760193, -0.12587834894657135, 0.2221405953168869, -0.052568934857845306, 0.12558425962924957, -0.13459883630275726, -0.3243296444416046, -0.16447319090366364, -0.03297356516122818, 0.1525142341852188, 0.20262299478054047, -0.15650339424610138], [-0.06594598293304443, 0.0810791477560997, 0.1679089069366455, -0.03524945676326752, -0.37134265899658203, -0.04907725751399994, -0.17532296478748322, -0.05320991575717926, -0.012870649807155132, 0.10940555483102798, -0.01746337302029133, 0.15044188499450684, -0.14379781484603882, -0.16885237395763397, 0.038313038647174835, 0.01582428812980652, -0.13047587871551514, -0.13068024814128876, -0.2818986177444458, -0.11270429939031601, 0.18401554226875305, -0.017587482929229736, 0.04770394042134285, 0.09031973779201508, 0.18284408748149872, -0.1900966763496399, 0.18435534834861755, 0.09929654002189636], [-0.007360996678471565, 0.061217863112688065, 0.05925077944993973, -0.1684887707233429, -0.1374746561050415, 0.08250698447227478, 0.01998206414282322, 0.05342818796634674, -0.017037466168403625, 0.01102910004556179, 0.17026151716709137, 0.03613371402025223, -0.14704665541648865, 0.06147031486034393, -0.10295303910970688, 0.1143438071012497, -0.04093712568283081, -0.08098900318145752, -0.21582064032554626, 0.04493705928325653, -0.02364620566368103, -0.1164669618010521, -0.14968544244766235, -0.034895554184913635, 0.05549975484609604, -0.07386451959609985, 0.03066868707537651, -0.015269696712493896], [0.08480393886566162, 0.004832653794437647, -0.1138080358505249, 0.15686146914958954, -0.03279653936624527, 0.05514013022184372, -0.04712577164173126, -0.008498653769493103, -0.06874501705169678, 0.02356058359146118, -0.13939768075942993, 0.04683283343911171, -0.16467078030109406, -0.040834441781044006, -0.09409400820732117, -0.05049976706504822, -0.13186430931091309, 0.03584246337413788, 0.04808657243847847, 0.13502196967601776, 0.022547096014022827, -0.16626405715942383, 0.08030028641223907, 0.04439347982406616, -0.020910657942295074, 0.07577787339687347, -0.15878546237945557, -0.0450371652841568], [-0.018352201208472252, 0.08103784173727036, -0.03889511153101921, 0.023929566144943237, 0.0897308811545372, -0.16307102143764496, -0.25796812772750854, -0.16893644630908966, 0.0850938931107521, -0.022287271916866302, -0.10604581981897354, -0.16142761707305908, 0.09854089468717575, 0.04543290287256241, 0.21990284323692322, -0.09277202188968658, 0.16394652426242828, -0.1423821747303009, 0.16937261819839478, -0.1412058025598526, -0.07555525004863739, 0.021701661869883537, 0.16752976179122925, 0.12417377531528473, 0.18049995601177216, 0.059097521007061005, 0.10430876165628433, -0.06891263276338577], [0.0636802464723587, -0.03304086625576019, -0.135929137468338, -0.14428915083408356, -0.08590434491634369, -0.09492932260036469, -0.005498899146914482, 0.015161052346229553, -0.0007000387995503843, 0.010766204446554184, -0.08568267524242401, -0.11175539344549179, -0.15754714608192444, -0.0821283683180809, -0.036755144596099854, -0.16558614373207092, 0.18427859246730804, -0.054678209125995636, -0.03760775923728943, 0.13686564564704895, 0.13163773715496063, -0.11306612193584442, 0.17063486576080322, 0.10199891030788422, 0.049099378287792206, -0.10801967978477478, 0.10368400812149048, 0.15595903992652893], [0.10803231596946716, -0.05084843933582306, -0.051470328122377396, 0.12407045066356659, 0.2583833336830139, 0.2410343736410141, -0.1012425422668457, -0.17577345669269562, 0.20152421295642853, -0.05267989635467529, 0.2290424257516861, -0.05351721867918968, 0.07683943212032318, -0.05882806330919266, 0.10160201042890549, 0.13813292980194092, 0.0903804749250412, 0.11051914095878601, 0.12110257893800735, 0.1957646608352661, 0.11465021967887878, -0.093593068420887, 0.2042490690946579, 0.10337190330028534, 0.19079279899597168, 0.09033652395009995, 0.16264201700687408, 0.07412458956241608], [0.20990417897701263, 0.20392175018787384, 0.23984819650650024, 0.04060721397399902, 0.25468480587005615, 0.12909138202667236, -0.10920993238687515, 0.08421947062015533, -0.05179610103368759, -0.19645686447620392, 0.051335666328668594, -0.13706931471824646, -0.024773718789219856, 0.14144188165664673, 0.23601992428302765, 0.18721972405910492, -0.025831282138824463, 0.09713811427354813, 0.08700913935899734, -0.10658740252256393, -0.02048908919095993, 0.01184563897550106, -0.004249855875968933, -0.03421445190906525, 0.08678486943244934, 0.11750170588493347, 0.16191701591014862, -0.10626082122325897], [0.06432837247848511, 0.20838071405887604, 0.1452043503522873, 0.033556267619132996, 0.017684374004602432, 0.17009598016738892, -0.22520174086093903, -0.16468022763729095, 0.18523366749286652, -0.05284369736909866, -0.0032412423752248287, -0.04022259637713432, 0.17126789689064026, -0.05492117255926132, 0.19874979555606842, -0.14281396567821503, -0.01390889286994934, 0.21928803622722626, 0.20489124953746796, 0.04554456099867821, 0.1661514937877655, 0.04572049900889397, 0.03189318627119064, -0.06212259829044342, 0.17361631989479065, 0.10362214595079422, 0.24514169991016388, -0.08196805417537689], [0.058287158608436584, -0.0653328225016594, 0.2719656825065613, 0.1874292939901352, 0.007290062494575977, -0.052105613052845, -0.07419698685407639, -0.053910866379737854, 0.19964945316314697, 0.013027227483689785, 0.17618897557258606, -0.057380031794309616, 0.06036679819226265, 0.11235983669757843, 0.3149416744709015, -0.010329757817089558, -0.02406972646713257, -0.042563676834106445, -0.059968382120132446, -0.013946741819381714, -0.09149187803268433, 0.2202332764863968, 0.15709511935710907, 0.10381980240345001, 0.0062513756565749645, 0.2653033137321472, -0.08860590308904648, -0.030223771929740906], [0.04413428530097008, 0.17210768163204193, 0.26392662525177, 0.05358819663524628, 0.0854334682226181, 0.015246707014739513, -0.2572683095932007, 0.11213169991970062, 0.15994176268577576, -0.16151422262191772, -0.03798776865005493, 0.12439265847206116, 0.2982802987098694, -0.17811450362205505, 0.17707884311676025, -0.03370768576860428, 0.049375638365745544, 0.08365974575281143, 0.19504207372665405, 0.024761375039815903, -0.1286282241344452, 0.23598569631576538, 0.3573964834213257, 0.06830056011676788, -0.0664742961525917, 0.27813971042633057, -0.022100428119301796, 0.14860916137695312], [0.11685358732938766, 0.16365857422351837, 0.07110437005758286, -0.04316230118274689, -0.07993827015161514, -0.1624916046857834, 0.06793492287397385, -0.14150208234786987, 0.11601489782333374, -0.06654953211545944, -0.009082859382033348, -0.03311518207192421, 0.03618273138999939, -0.1696583479642868, -0.154018834233284, -0.18105672299861908, 0.10997118055820465, -0.09665534645318985, -0.15989616513252258, -0.04376464709639549, -0.051213644444942474, 0.021539704874157906, -0.10232466459274292, 0.17431499063968658, 0.16644339263439178, -0.1290948987007141, -0.2007340043783188, -0.17004095017910004], [0.22937388718128204, -0.03202245384454727, 0.1247834712266922, -0.17690236866474152, 0.1833006888628006, -0.07274722307920456, -0.2606145739555359, 0.1805911809206009, -0.012397422455251217, -0.010337485000491142, 0.15038388967514038, -0.02684125304222107, 0.20550678670406342, -0.10856428742408752, 0.26592501997947693, -0.1299394816160202, -0.13522067666053772, 0.0973627045750618, 0.16601546108722687, 0.0866660550236702, -0.15350285172462463, -0.07765042781829834, 0.12925703823566437, -0.16350245475769043, 0.062406912446022034, 0.17395901679992676, 0.09757358580827713, 0.13060703873634338], [0.05266989767551422, -0.20242896676063538, 0.17335256934165955, -0.034090250730514526, -0.10486871004104614, -0.10284847021102905, 0.052727263420820236, 0.05472329258918762, 0.003603314282372594, 0.13973425328731537, -0.03424004465341568, -0.1924380660057068, 0.0923384577035904, -0.0466800332069397, -0.16124096512794495, 0.1670791059732437, 0.1809186488389969, -0.16284587979316711, 0.013300393708050251, 0.08085718750953674, -0.08754590898752213, 0.0029370165430009365, 0.021013736724853516, -0.09120743721723557, -0.0571412667632103, 0.1255204826593399, -0.02887272834777832, 0.009271396324038506]], "critic.network.4.bias": [-0.0105538759380579, 0.04316265881061554, 0.1260041445493698, -0.12832564115524292, -0.20664608478546143, 0.32966217398643494, 0.14905352890491486, 0.02052859403192997, -0.054148413240909576, 0.20609217882156372, 0.2862926125526428, 0.28910431265830994, 0.029476169496774673, 0.004157508257776499, -0.1535559594631195, -0.04855005443096161, -0.01722124218940735, 0.020493261516094208, 0.016689952462911606, 0.05314071476459503, 0.018412258476018906, 0.06874435395002365, 0.3150859773159027, 0.23879656195640564, 0.11450577527284622, -0.12934671342372894, 0.19684730470180511, -0.1761842668056488], "critic.network.6.weight": [[-0.11708949506282806, -0.11281057447195053, 0.10770366340875626, -0.19875365495681763, -0.1755138635635376, 0.13406459987163544, 0.1342785507440567, -0.001888828701339662, 0.19752666354179382, 0.1606479436159134, 0.2694636881351471, 0.19817566871643066, 0.09835387766361237, -0.09945667535066605, -0.15427832305431366, -0.26064231991767883, -0.021498067304491997, -0.0631408840417862, 0.04969793185591698, -0.1147218719124794, 0.13571465015411377, 0.2309131622314453, 0.2635853886604309, 0.23743993043899536, 0.18458308279514313, -0.0038704087492078543, 0.13630107045173645, -0.0007004557992331684]], "critic.network.6.bias": [0.09939968585968018]}