{"actor.network.0.weight": [[-0.19811198115348816, -0.37325289845466614, 0.14881175756454468, -0.2866433560848236], [-0.3372500240802765, 0.1936548799276352, -0.531049907207489, -0.706829309463501], [-0.2466336190700531, 0.16016818583011627, 0.6589764952659607, 0.22326251864433289], [0.0037715232465416193, -0.21077802777290344, -0.6283823251724243, -0.7950924634933472], [-0.10974384844303131, -0.02735573798418045, -0.8437867760658264, -0.4385432004928589], [0.04979987069964409, -0.4076688289642334, 0.6099259853363037, 0.24018295109272003], [0.13107731938362122, 0.32770565152168274, -0.48164135217666626, -0.5287535190582275], [-0.005678368266671896, 0.24173523485660553, -0.1870204657316208, 0.374728262424469], [0.3691256642341614, -0.2624540627002716, -0.09038747847080231, 0.3408612310886383], [-0.041902124881744385, 0.059086620807647705, -0.30352717638015747, 0.2062445729970932], [-0.4810735881328583, 0.2274017482995987, -0.4756505489349365, -0.5175997018814087], [-0.2900794744491577, -0.4434996545314789, -0.6643404960632324, -0.44949769973754883], [-0.16800500452518463, -0.0988258421421051, 0.5917258262634277, 0.6528230309486389], [0.1535588502883911, 0.04098773002624512, 0.3201383054256439, 0.4015083909034729], [-0.5075660347938538, 0.24305330216884613, 0.08758851885795593, 0.060635387897491455], [0.15899251401424408, -0.3843690752983093, -0.36158376932144165, 0.11826726794242859], [-0.14468850195407867, -0.34008219838142395, -0.21181991696357727, 0.3015258312225342], [-0.3560389280319214, 0.25297772884368896, 0.40257057547569275, 0.19988274574279785], [-0.3937447667121887, -0.23094865679740906, -0.14074844121932983, 0.08528280258178711], [0.2263936847448349, -0.37872493267059326, 0.5547969937324524, 0.23066267371177673], [-0.3433818519115448, 0.4192825257778168, -0.23193201422691345, 0.34388265013694763], [-0.21418394148349762, 0.09436989575624466, -0.037347547709941864, -0.29343050718307495], [-0.012171909213066101, -0.04148778319358826, 0.08780206739902496, -0.09505830705165863], [0.5514891147613525, 0.5232226848602295, 0.04939345642924309, -0.39565256237983704], [0.12334893643856049, 0.12321079522371292, 0.5126454830169678, 0.7597142457962036], [-0.5132170915603638, 0.19590003788471222, -0.5703548192977905, -0.5229657292366028], [0.31185591220855713, 0.002763997530564666, -0.4760807454586029, -0.23717842996120453], [0.3431023359298706, 0.036196477711200714, -0.37407681345939636, -0.31610387563705444]], "actor.network.0.bias": [0.41494494676589966, 0.1376422792673111, 0.1869332492351532, 0.09945692867040634, 0.060413386672735214, -0.004348427522927523, 0.061793915927410126, 0.5397207140922546, -0.3421945571899414, -0.1403041034936905, 0.2162821739912033, 0.2387278825044632, 0.5175653100013733, 0.3833265006542206, 0.34601032733917236, -0.36254721879959106, 0.41170427203178406, -0.4789589047431946, -0.32579585909843445, 0.36790648102760315, -0.3158665597438812, -0.2665384113788605, -0.12585589289665222, -0.1398267149925232, 0.5284304022789001, 0.24097087979316711, -0.026899883523583412, -0.04447750374674797], "actor.network.2.weight": [[0.01193652581423521, 0.11272673308849335, -0.33469632267951965, 0.35661572217941284, 0.21817487478256226, 0.07902740687131882, 0.09087411314249039, -0.03460051864385605, 0.0653698518872261, 0.0629899650812149, 0.03467995300889015, -0.03472291678190231, -0.09607750177383423, -0.25719961524009705, 0.05383042246103287, 0.000529303215444088, 0.08850282430648804, -0.05095812678337097, -0.02291543409228325, -0.09840518236160278, 0.105719193816185, -0.1428457498550415, -0.1288197934627533, 0.10400228947401047, -0.22172430157661438, -0.1710943579673767, -0.10170131176710129, 0.12549278140068054], [0.015734754502773285, 0.17539943754673004, -0.1958693563938141, -0.07863867282867432, -0.08742935955524445, -0.14485087990760803, -0.11099506169557571, 0.025574278086423874, 0.05718284845352173, 0.12718410789966583, -0.006131630390882492, 0.14142796397209167, 0.036946363747119904, -0.03233835846185684, -0.016570646315813065, -0.14413559436798096, -0.15179398655891418, 0.0019082574872300029, 0.09575305879116058, -0.1629839688539505, 0.08587464690208435, -0.11009363830089569, -0.028130970895290375, 0.15402507781982422, -0.055455952882766724, 0.052979208528995514, 0.0402323454618454, -0.03450348228216171], [0.03656107559800148, 0.35328051447868347, -0.2888617217540741, 0.4138139486312866, 0.49795278906822205, 0.17832674086093903, -0.04771335422992706, -0.2836034595966339, 0.029590900987386703, 0.009028543718159199, 0.1442408710718155, 0.03953729569911957, -0.18576543033123016, -0.20773111283779144, 0.035521965473890305, 0.11802542209625244, -0.01114102266728878, 0.2143426537513733, 0.034655507653951645, -0.19302260875701904, 0.10963712632656097, 0.10563331097364426, 0.20115283131599426, 0.1721040904521942, -0.27422502636909485, 0.12685705721378326, 0.16436615586280823, -0.0024997100699692965], [0.15723642706871033, 0.3085603415966034, -0.16288109123706818, 0.5519500970840454, 0.5598762035369873, -0.11050184816122055, 0.10695911943912506, -0.03640854358673096, -0.018733026459813118, -0.14406633377075195, 0.20180881023406982, 0.17213164269924164, -0.4484696388244629, -0.25085362792015076, 0.053184885531663895, 0.1895853877067566, 0.06219680234789848, 0.03921899199485779, -0.021123580634593964, 0.053901638835668564, 0.03025628998875618, 0.18918706476688385, -0.0671733170747757, 0.32354623079299927, -0.4416883587837219, 0.08380917459726334, 0.27444663643836975, -0.03005303256213665], [0.15743741393089294, -0.18485763669013977, -0.09031690657138824, 0.022164613008499146, 0.05824923515319824, -0.06904799491167068, 0.015453827567398548, 0.12041494250297546, -0.0205673910677433, 0.07398445904254913, -0.19263973832130432, 0.0725298598408699, -0.05614878982305527, -0.1388252228498459, -0.08117499947547913, 0.1496431529521942, -0.1952265352010727, 0.047643568366765976, 0.0935097262263298, 0.04696217179298401, -0.09556630998849869, -0.06772549450397491, 0.13736627995967865, 0.11568349599838257, -0.21788260340690613, 0.08195953071117401, 0.026254191994667053, -0.05238708108663559], [0.09892812371253967, 0.12223793566226959, 0.14274302124977112, -0.018921028822660446, 0.15520265698432922, -0.14682748913764954, -0.08693365007638931, -0.012075517326593399, 0.08249872922897339, -0.18316784501075745, 0.06535796821117401, -0.0012611091369763017, -0.01904730126261711, 0.158771812915802, 0.018883991986513138, 0.03588321805000305, -0.17622236907482147, 0.03250701352953911, 0.12744182348251343, 0.08127515763044357, 0.10691419243812561, 0.07919873297214508, -0.17900997400283813, 0.02330833300948143, -0.0156281478703022, -0.15674050152301788, -0.022461507469415665, -0.06288531422615051], [0.18426001071929932, 0.11182951927185059, 0.12696537375450134, -0.2554919719696045, -0.16051441431045532, -0.02669977769255638, -0.05952026695013046, 0.2783605754375458, 0.05647966265678406, 0.06413710117340088, 0.029537752270698547, -0.1276935189962387, 0.055642470717430115, 0.3114534616470337, -0.007165767252445221, 0.1280885636806488, 0.21617156267166138, -0.15868911147117615, 0.19110268354415894, -0.07365703582763672, 0.15941253304481506, 0.05857791379094124, -0.12615111470222473, -0.023240884765982628, 0.2537935674190521, 0.11779256165027618, -0.16184397041797638, 0.13333258032798767], [-0.22059424221515656, -0.20879201591014862, -0.037124160677194595, -0.4241456687450409, -0.11851434409618378, 0.00903888326138258, 0.08755410462617874, -0.0010821152245625854, -0.021279092878103256, 0.0130538959056139, -0.029963959008455276, -0.07440582662820816, 0.19202609360218048, 0.18030515313148499, 0.03326520323753357, 0.0019414203707128763, 0.05771932005882263, -0.06482449173927307, -0.15065519511699677, 0.20127566158771515, 0.10650251060724258, 0.16762924194335938, -0.07602442055940628, -0.149249866604805, 0.3662257790565491, -0.03178507462143898, -0.06707336753606796, 0.04083513841032982], [-0.08311241120100021, -0.138371542096138, 0.15470576286315918, -0.23070932924747467, -0.4361827075481415, 0.1567053645849228, -0.1000748723745346, 0.29548609256744385, 0.12645238637924194, 0.1285780668258667, 0.049351971596479416, -0.16334475576877594, 0.2963307797908783, 0.1635192632675171, 0.05514490231871605, 0.2500268220901489, -0.051075633615255356, -0.1824781596660614, -0.011252208612859249, 0.31063756346702576, -0.05361875519156456, -0.17156453430652618, 0.08879794180393219, 0.006858590058982372, 0.39896661043167114, 0.0539323128759861, 0.0821695625782013, 0.07903274148702621], [0.004718524403870106, -0.06586091220378876, -0.14950311183929443, 0.13855981826782227, 0.15543121099472046, -0.059539780020713806, -0.14539912343025208, -0.12168167531490326, -0.16462509334087372, 0.020020082592964172, 0.10930678248405457, -0.1802680343389511, -0.1377653330564499, 0.01714668609201908, -0.0755598247051239, 0.17909102141857147, -0.06268581002950668, -0.1730799525976181, 0.05556170642375946, -0.020638741552829742, 0.09468652307987213, -0.11872289329767227, 0.12269604206085205, 0.0804450511932373, -0.12728852033615112, 0.11269425600767136, 0.15392407774925232, 0.009730491787195206], [0.06537609547376633, -0.17578548192977905, 0.3612748384475708, -0.24823015928268433, -0.21965739130973816, 0.11507599800825119, -0.014055336825549603, 0.20063333213329315, -0.1097637265920639, 0.11480791866779327, -0.20083455741405487, 0.05656876415014267, 0.28572389483451843, 0.25897106528282166, 0.19400493800640106, -0.0009519647574052215, 0.22698050737380981, -0.07898148894309998, -0.028100140392780304, 0.21589961647987366, 0.008861744776368141, 0.061943069100379944, 0.12544599175453186, -0.0078083244152367115, 0.2652672231197357, 0.012119176797568798, 0.023938054218888283, 0.049164481461048126], [0.2206239551305771, -0.25660890340805054, 0.17672277987003326, -0.3147050440311432, -0.3273257315158844, -0.024461690336465836, 0.004420449025928974, 0.28349030017852783, -0.09833462536334991, -0.13608422875404358, 0.030765455216169357, 0.06391984969377518, 0.39824336767196655, 0.45968863368034363, 0.27595341205596924, -0.1725933700799942, 0.2837357223033905, -0.02066102996468544, -0.0933150053024292, 0.24863378703594208, -0.10841608047485352, 0.15246474742889404, 0.08153412491083145, -0.2866581380367279, 0.22270777821540833, -0.10013055056333542, -0.20502223074436188, -0.20111119747161865], [0.027563894167542458, -0.16927379369735718, -0.2249988317489624, 0.038466691970825195, 0.0873599722981453, 0.011936115100979805, 0.008489441126585007, -0.12662869691848755, -0.1383581906557083, -0.019911348819732666, 0.04146881774067879, -0.03374628722667694, -0.2146027684211731, 0.0329948365688324, -0.047401733696460724, -0.08098115026950836, 0.117963045835495, 0.16411137580871582, -0.13375240564346313, -0.025511901825666428, 0.1468253880739212, 0.030808258801698685, 0.11352703720331192, 0.22295477986335754, 0.13796232640743256, -0.07074202597141266, 0.111608125269413, 0.027790827676653862], [0.13873188197612762, 0.12174525856971741, 0.11557047069072723, -0.16736529767513275, -0.3462335169315338, 0.24659740924835205, 0.21451078355312347, 0.08867066353559494, -0.04687034711241722, 0.12905317544937134, 0.038573332130908966, -0.07725328207015991, 0.3589067757129669, 0.4073428511619568, 0.3406445384025574, 0.06871017813682556, 0.16145750880241394, -0.015126647427678108, 0.07451874017715454, 0.31432491540908813, 0.07920083403587341, 0.18588986992835999, 0.03333592787384987, 0.08705539256334305, 0.3322696089744568, 0.1561719924211502, -0.09706205129623413, 0.006227162666618824], [0.04541267454624176, -0.1489916443824768, 0.16667582094669342, -0.12353930622339249, -0.003667294979095459, 0.13864187896251678, -0.10455049574375153, -0.15185768902301788, -0.12980279326438904, -0.06028297543525696, 0.03072170913219452, -0.1848982721567154, -0.1676974594593048, -0.16537651419639587, -0.011914417147636414, 0.12301240861415863, 0.07329146564006805, -0.11222290992736816, -0.15887077152729034, -0.10477922111749649, -0.1275884509086609, 0.019306376576423645, 0.12711025774478912, 0.08379025757312775, 0.1276647001504898, 0.17132015526294708, 0.05892302095890045, -0.1397431492805481], [-0.1977267563343048, 0.022066280245780945, -0.01954861916601658, 0.04634782671928406, -0.22159475088119507, 0.14740246534347534, 0.04530263692140579, -0.20812219381332397, -0.1824813187122345, 0.06677079200744629, 0.036613937467336655, 0.1134321540594101, -0.11626070737838745, 0.03509572893381119, -0.0005649964441545308, 0.07608573138713837, 0.07999497652053833, 0.11165682971477509, 0.02597474865615368, 0.10151699185371399, 0.10214407742023468, -0.10768115520477295, 0.03157354146242142, 0.11786473542451859, -0.2166481614112854, -0.04606860876083374, 0.11068739742040634, 0.04128178209066391], [0.09489727765321732, 0.03145685791969299, -0.14897577464580536, 0.09700016677379608, 0.04555315151810646, 0.15426155924797058, 0.06849681586027145, 0.15607067942619324, 0.03303050622344017, -0.016697384417057037, 0.052783891558647156, 0.0653451457619667, -0.07366436719894409, 0.06078348681330681, -0.16846436262130737, 0.12533067166805267, -0.16365790367126465, 0.17829057574272156, 0.1318148672580719, -0.17426186800003052, 0.12130507081747055, -0.018465302884578705, 0.16602621972560883, -0.05552329123020172, 0.11425352096557617, -0.11580057442188263, 0.06195508688688278, -0.21556296944618225], [0.08848673850297928, -0.12546749413013458, 0.06849325448274612, -0.03223557025194168, -0.14546900987625122, -0.08592831343412399, 0.09175805002450943, 0.20950321853160858, -0.15007935464382172, 0.1713229864835739, 0.15235459804534912, -0.17918121814727783, 0.0684787705540657, -0.061956875026226044, -0.07605371624231339, -0.1346113234758377, -0.057863395661115646, -0.20771130919456482, 0.08802787214517593, 0.1143200471997261, -0.12197095155715942, -0.0636793002486229, -0.18056254088878632, 0.21199914813041687, 0.05046313628554344, -0.0848122388124466, 0.1400757133960724, 0.17583103477954865], [0.12977935373783112, -0.2827177345752716, 0.09340061247348785, -0.16917333006858826, -0.24227720499038696, 0.14065176248550415, -0.10422525554895401, 0.3414625823497772, -0.14752328395843506, -0.06238892301917076, -0.03984854370355606, 0.058424681425094604, 0.12694165110588074, 0.38963791728019714, 0.14101384580135345, 0.037393368780612946, 0.13882772624492645, -0.18100887537002563, 0.15826374292373657, 0.25734302401542664, -0.08023321628570557, 0.012140870094299316, 0.15587133169174194, -0.05575127527117729, 0.2881046235561371, -0.03300809860229492, 0.14967447519302368, -0.15093928575515747], [0.17288917303085327, -0.09664967656135559, 0.07460679113864899, 0.19610217213630676, -0.16504651308059692, 0.13921940326690674, 0.013018684461712837, -0.13346707820892334, -0.19192302227020264, -0.059015385806560516, -0.19824837148189545, 0.14551255106925964, 0.03374218940734863, -0.14291509985923767, -0.06393270194530487, -0.2538256347179413, -0.030334290117025375, -0.017487578094005585, -0.03831006586551666, 0.12241450697183609, 0.032710961997509, 0.1576208472251892, 0.028941508382558823, -0.009672138839960098, -0.08943479508161545, -0.187220960855484, -0.0459161177277565, -0.17074020206928253], [0.06740051507949829, -0.1286519467830658, -0.047516778111457825, -0.11022209376096725, -0.01700092852115631, -0.021738532930612564, -0.0003091394901275635, -0.0247335284948349, -0.052509061992168427, -0.017895087599754333, -0.0182222630828619, 0.1054980456829071, -0.07201805710792542, 0.017272060737013817, -0.1621735394001007, -0.11427396535873413, 0.018840420991182327, 0.1857738345861435, 0.009395688772201538, 0.030262088403105736, 0.11395473778247833, -0.030132591724395752, 0.028157442808151245, -0.02771437168121338, -0.004437591880559921, -0.11263347417116165, -0.02923499047756195, -0.14199550449848175], [-0.01787639781832695, 0.0934428796172142, -0.18361787497997284, 0.19903188943862915, 0.21468336880207062, -0.1737080216407776, 0.15380512177944183, -0.17223131656646729, -0.12650206685066223, 0.11919566988945007, 0.27945050597190857, 0.19441856443881989, -0.18575164675712585, -0.37780702114105225, 0.03023485653102398, 0.1541176438331604, -0.0676097571849823, -0.09992571175098419, 0.19780293107032776, -0.0823715478181839, -0.04922899603843689, 0.21021023392677307, 0.03481022268533707, 0.13375255465507507, -0.3490601181983948, 0.03925866261124611, -0.021847954019904137, 0.04489197954535484], [0.01735839433968067, 0.15766584873199463, -0.08964963257312775, 0.1941763013601303, 0.07851281017065048, 0.06395827233791351, 0.0012986777583137155, -0.008835431188344955, -0.056286439299583435, -0.15051837265491486, 0.05154765024781227, -0.11472570896148682, -0.14873196184635162, -0.11119498312473297, 0.0579848438501358, 0.18476499617099762, -0.10428528487682343, -0.08125606179237366, -0.1552441418170929, 0.1439279168844223, 0.07935650646686554, -0.12475903332233429, 0.06514960527420044, -0.02379286289215088, -0.028307955712080002, -0.0710282102227211, -0.014294822700321674, 0.21796174347400665], [-0.06295883655548096, 0.27671554684638977, -0.08640914410352707, 0.19272786378860474, 0.46936628222465515, -0.08644097298383713, 0.17998944222927094, -0.07243546098470688, 0.16340047121047974, -0.1721818894147873, 0.2589406669139862, 0.04448249191045761, -0.026761893182992935, -0.19053064286708832, 0.003024357371032238, -0.09794275462627411, -0.16050952672958374, 0.04617398977279663, 0.1786864697933197, -0.2688949406147003, 0.15140077471733093, 0.14674437046051025, 0.11765840649604797, 0.16544272005558014, -0.276239812374115, 0.20095527172088623, 0.06953591853380203, 0.18613533675670624], [0.0942349061369896, 0.04864106327295303, 0.07259812951087952, -0.05276574566960335, 0.09908940643072128, 0.02323458343744278, -0.009192051365971565, -0.2048247754573822, 0.02247033640742302, -0.034516893327236176, -0.031014105305075645, 0.04215606674551964, 0.10292349755764008, -0.10046713799238205, 0.03399984538555145, 0.10855386406183243, -0.06283101439476013, 0.17591699957847595, -0.14971941709518433, -0.26114481687545776, 0.02430739812552929, 0.06556466221809387, -0.06646314263343811, 0.1660851240158081, -0.20142441987991333, 0.09550037980079651, 0.10178497433662415, 0.10084395110607147], [0.14389674365520477, 0.2005007266998291, 0.0026566532906144857, 0.34258347749710083, 0.3988262414932251, -0.09803138673305511, 0.13874471187591553, -0.05446004867553711, 0.1307772696018219, -0.2085852324962616, 0.02168087847530842, 0.04165126383304596, -0.26816487312316895, 0.009317406453192234, 0.11436304450035095, 0.023601293563842773, 0.18824997544288635, -0.06560346484184265, -0.017790067940950394, -0.195242241024971, 0.04200201854109764, -0.05895146727561951, -0.15773379802703857, 0.09555371850728989, -0.03908688202500343, 0.03512127697467804, -0.058199815452098846, 0.11036092787981033], [-0.016977429389953613, 0.18151655793190002, -0.1699417382478714, 0.06246499717235565, 0.15240710973739624, -0.1482415646314621, -0.05312914773821831, -0.05757654085755348, 0.17302697896957397, 0.0406491756439209, -0.05066734552383423, -0.02637852169573307, 0.18263006210327148, -0.11200127005577087, 0.19387692213058472, 0.11460870504379272, -0.057502247393131256, -0.09984022378921509, 0.054143279790878296, 0.009058643132448196, -0.18527400493621826, 0.179062157869339, -0.011134693399071693, 0.1778445541858673, -0.010744686238467693, -0.004539587534964085, 0.06489836424589157, -0.07799109071493149], [0.11525663733482361, -0.10968028008937836, -0.08126542717218399, -0.05196014791727066, 0.029036294668912888, 0.05759553611278534, -0.026426972821354866, -0.17150741815567017, -0.08895737677812576, 0.014062032103538513, -0.005801686085760593, -0.17426416277885437, -0.08969108760356903, -0.02128085121512413, -0.20067310333251953, -0.12914256751537323, -0.17509692907333374, -0.10195460915565491, -0.06548596918582916, -0.056235261261463165, -0.14850112795829773, 0.19205938279628754, -0.013183856382966042, -0.007342490367591381, -0.047268323600292206, 0.15498843789100647, 0.15466620028018951, -0.03642553091049194]], "actor.network.2.bias": [-0.01487025711685419, -0.24377858638763428, 0.08963262289762497, 0.0046199532225728035, -0.09218630194664001, -0.17144078016281128, -0.06404935568571091, 0.22945427894592285, 0.31235095858573914, -0.20777079463005066, 0.018502485007047653, 0.08409886807203293, -0.17785555124282837, 0.3429681062698364, -0.1673303097486496, -0.2506560683250427, -0.16247019171714783, 0.06582702696323395, 0.08421601355075836, -0.0869060605764389, -0.12731894850730896, 0.11210738867521286, 0.048451393842697144, 0.04507703334093094, -0.24989967048168182, 0.14976267516613007, 0.014074110426008701, 0.08589758723974228], "actor.network.4.weight": [[0.08451080322265625, -0.048435330390930176, 0.10219553858041763, -0.12068770080804825, 0.02338472381234169, -0.12927313148975372, -0.04565875232219696, -0.09010770171880722, -0.17657199501991272, 0.06363783776760101, -0.02768617495894432, -0.16635233163833618, -0.0686468780040741, 0.14783114194869995, -0.08383692055940628, -0.1612231284379959, 0.1763594001531601, 0.13119755685329437, 0.03098178654909134, 0.11145710945129395, -0.14289778470993042, -0.02234688773751259, 0.12326137721538544, 0.08009321987628937, 0.05409383773803711, -0.14087194204330444, 0.021707147359848022, -0.1444517821073532], [-0.1755397766828537, 0.08325229585170746, -0.14277024567127228, -0.25339311361312866, 0.015009593218564987, -0.09635461866855621, 0.21449437737464905, 0.3998872637748718, 0.23274260759353638, -0.058279216289520264, 0.16479378938674927, 0.24247118830680847, 0.007886314764618874, 0.3032316267490387, -0.0900799110531807, 0.07466275990009308, 0.08930860459804535, -0.01614316739141941, 0.11997010558843613, 0.18201375007629395, -0.05966077744960785, 0.04828934744000435, -0.10684274882078171, -0.15926529467105865, 0.08894385397434235, 0.17880879342556, 0.05620063096284866, 0.13963568210601807], [0.08586043119430542, 0.08583255857229233, 0.09059271216392517, -0.13873788714408875, -0.11488313972949982, 0.06049151346087456, 0.14334486424922943, -0.15183596312999725, -0.18410244584083557, -0.0796937644481659, 0.1353442221879959, -0.028199203312397003, 0.01816881261765957, -0.16907928884029388, 0.011006742715835571, 0.11935517191886902, 0.10255561769008636, -0.17297744750976562, -0.06296731531620026, -0.008102446794509888, 0.12716083228588104, 0.04551295191049576, -0.08666121959686279, 0.17399096488952637, 0.05603141710162163, -0.13292069733142853, -0.13452966511249542, 0.17878472805023193], [-0.032636504620313644, 0.08405372500419617, 0.06724962592124939, -0.19074207544326782, -0.004426239989697933, 0.004453507252037525, -0.13769027590751648, 0.15025344491004944, 0.13381417095661163, 0.05471033975481987, -0.054230671375989914, 0.058206163346767426, 0.08418814837932587, -0.10476040840148926, -0.02769593894481659, 0.059133380651474, -0.15840372443199158, -0.02707485854625702, -0.028129860758781433, 0.040197767317295074, 0.1475289911031723, -0.18938574194908142, 0.0723876953125, 0.07056771218776703, -0.1197349801659584, 0.014374779537320137, -0.08048780262470245, 0.07270866632461548], [0.054430484771728516, -0.09544792771339417, 0.4077821671962738, 0.2628031373023987, -0.04912787303328514, -0.10487550497055054, 0.1009865254163742, -0.1560370922088623, -0.3827882409095764, 0.08151659369468689, -0.018214354291558266, -0.31449270248413086, -0.011677872389554977, 0.018188275396823883, -0.04471085965633392, -0.05029822885990143, 0.030841583386063576, 0.07084539532661438, -0.0745147317647934, 0.07320864498615265, 0.17779108881950378, 0.23484639823436737, 0.20551957190036774, 0.256903737783432, -0.018800903111696243, -0.03255589306354523, -0.043548110872507095, 0.01849592849612236], [0.17235827445983887, -0.007295898161828518, 0.2674202024936676, 0.17265208065509796, -0.1256006509065628, 0.17845292389392853, 0.07784228771924973, -0.07403338700532913, -0.42828765511512756, -0.10294631123542786, 0.09255606681108475, -0.07412578910589218, 0.14738032221794128, -0.02167864516377449, -0.012869685888290405, -0.1505124866962433, -0.16951531171798706, -0.1247849389910698, 0.16338640451431274, 0.16931027173995972, 0.08527986705303192, 0.2827553153038025, 0.09386549144983292, 0.03581250458955765, -0.11573588848114014, -0.0888303890824318, 0.10312384366989136, 0.13313516974449158], [0.12636110186576843, -0.1083250418305397, 0.13236664235591888, -0.1096268743276596, -0.10166867822408676, -0.1775185763835907, 0.11248935759067535, 0.1403818428516388, 0.013769390061497688, -0.16536709666252136, 0.08378815650939941, -0.12782613933086395, -0.12625855207443237, -0.1187334656715393, 0.023023054003715515, -0.1258736550807953, -0.13280700147151947, 0.13326823711395264, 0.018799494951963425, 0.11850506067276001, -0.021934568881988525, -0.06420227885246277, -0.17153188586235046, -0.11296339333057404, -0.1513725370168686, 0.03629477322101593, 0.12168820202350616, -0.09746182709932327], [0.03332413733005524, -0.032835498452186584, 0.07496103644371033, -0.03135596960783005, 0.04234357178211212, 0.18587850034236908, 0.14341317117214203, -0.06731680780649185, -0.09289601445198059, 0.010431542992591858, 0.14573481678962708, 0.1243789941072464, 0.10261382162570953, 0.03751673549413681, -0.05991794168949127, -0.0047740936279296875, 0.0772237628698349, 0.04238158464431763, -0.1892419457435608, -0.08490962535142899, 0.16128213703632355, 0.015423625707626343, -0.18623177707195282, -0.12234345078468323, 0.06518428027629852, -0.18773111701011658, 0.06514857709407806, -0.06490612030029297], [-0.2096293568611145, 0.07715395092964172, -0.31833717226982117, -0.19006969034671783, 0.09210403263568878, 0.13887850940227509, 0.026298049837350845, 0.3969397246837616, 0.5273746848106384, 0.11046578735113144, 0.14951050281524658, 0.24778535962104797, -0.13189122080802917, 0.1000780388712883, -0.04910704493522644, -0.022411076352000237, -0.17991483211517334, 0.03944522887468338, 0.3529888093471527, -0.06435433775186539, -0.07633346319198608, -0.15661847591400146, 0.010095782577991486, 0.020267175510525703, -0.20186713337898254, 0.08902528882026672, 0.00913070049136877, 0.028426120057702065], [0.033628322184085846, -0.10434694588184357, -0.12919388711452484, -0.14652641117572784, 0.1469356119632721, 0.004064539913088083, 0.08907337486743927, 0.029526885598897934, -0.15278877317905426, -0.15744099020957947, -0.02937321737408638, -0.13194479048252106, -0.033260688185691833, -0.17389264702796936, -0.15205514430999756, 0.1455170214176178, 0.12272465229034424, -0.052168697118759155, 0.04546330124139786, -0.07314136624336243, -0.1531486213207245, -0.13480132818222046, 0.10587699711322784, 0.06272920966148376, 0.18181797862052917, -0.1692846417427063, 0.08072416484355927, -0.06690619885921478], [-0.02134128287434578, -0.061262406408786774, 0.21264715492725372, 0.20971886813640594, -0.14147180318832397, -0.048886485397815704, -0.04624395817518234, -0.10823623090982437, -0.019531628116965294, -0.016589267179369926, -0.11691468209028244, -0.11252771317958832, 0.11057065427303314, -0.0031021779868751764, -0.1528645157814026, 0.04979927837848663, -0.15110474824905396, -0.2184538096189499, -0.3038725256919861, -0.07346248626708984, 0.1708594560623169, 0.19115903973579407, -0.17075200378894806, 0.14022192358970642, -0.0664239376783371, -0.006612392608076334, -0.01327415183186531, 0.12782958149909973], [-0.09285139292478561, 0.04306463152170181, 0.3281251788139343, 0.050897713750600815, -0.03572303056716919, -0.05661551654338837, -0.07954307645559311, -0.09880362451076508, -0.37880805134773254, 0.16525569558143616, 0.01231774315237999, -0.09160821884870529, -0.0758625715970993, -0.10378967225551605, -0.005268976092338562, 0.07156810909509659, -0.16975995898246765, 0.040540661662817, -0.27498579025268555, -0.17153224349021912, -0.0017584615852683783, 0.28218257427215576, -0.05600076541304588, -0.01980043575167656, -0.056396838277578354, 0.15548181533813477, -0.16015774011611938, 0.12204814702272415], [0.11732884496450424, 0.03900036960840225, 0.14438553154468536, 0.15723414719104767, -0.020112846046686172, -0.05568882077932358, -0.003035038709640503, -0.19325383007526398, -0.41225215792655945, 0.04709484055638313, -0.23280887305736542, -0.23012088239192963, 0.035096071660518646, 0.11322422325611115, -0.13930624723434448, -0.1377554088830948, -0.014667026698589325, -0.15102346241474152, -0.3154059052467346, 0.053691960871219635, 0.1083546131849289, 0.4806130528450012, -0.1420344114303589, 0.28958645462989807, -0.05477114021778107, 0.2192768007516861, 0.15979160368442535, -0.08470955491065979], [0.11911428719758987, -0.0034939302131533623, 0.34286361932754517, 0.4190908968448639, 0.12627580761909485, -0.0017332622082903981, -0.08711536228656769, -0.23310396075248718, -0.3744778037071228, 0.10352034121751785, -0.0626910999417305, -0.16527968645095825, -0.09258706867694855, 0.09831762313842773, 0.013545826077461243, 0.08246387541294098, -0.15075889229774475, -0.1091557964682579, -0.325418084859848, 0.008775313384830952, 0.12005795538425446, 0.12869152426719666, -0.020045587792992592, 0.12500765919685364, -0.008671654388308525, 0.05798783898353577, -0.022976987063884735, 0.07257689535617828], [0.14787693321704865, -0.18294337391853333, -0.09662579745054245, -0.18109074234962463, -0.12445671111345291, -0.06824519485235214, -0.16994693875312805, 0.06992332637310028, -0.09385403245687485, -0.12195584923028946, 0.10566355288028717, -0.1363605260848999, 0.1850554496049881, -0.13017217814922333, -0.0013006627559661865, 0.07787178456783295, -0.08456936478614807, -0.03519245982170105, -0.031295761466026306, -0.09055265039205551, 0.03192968666553497, 0.01913335919380188, 0.016038715839385986, 0.1815907210111618, -0.08526714146137238, -0.006147250533103943, -0.11627954244613647, -0.05016796290874481], [-0.0977688655257225, 0.06886286288499832, -0.017441140487790108, -0.10250364243984222, -0.052644096314907074, 0.030578305944800377, 0.08277814835309982, 0.37289857864379883, 0.31899604201316833, -0.014954933896660805, 0.15602079033851624, 0.08628258854150772, 0.15619206428527832, 0.14563308656215668, -0.09751492738723755, 0.12061762809753418, 0.01999414898455143, -0.05076694115996361, 0.26336878538131714, 0.1606447696685791, -0.11694429814815521, -0.0011087949387729168, -0.048373956233263016, -0.12528754770755768, 0.05552264302968979, 0.000971804081927985, 0.013372412882745266, 0.15070778131484985], [0.05194774270057678, 0.06455814093351364, -0.09103620052337646, -0.140138640999794, -0.07993300259113312, -0.17441043257713318, -0.00223411968909204, 0.3038416802883148, 0.3318673074245453, 0.16704314947128296, 0.33911556005477905, 0.3921036422252655, -0.031087223440408707, 0.26687490940093994, 0.17954321205615997, 0.16412225365638733, -0.13946828246116638, 0.16573743522167206, 0.2667587101459503, -0.012345923110842705, 0.13293308019638062, -0.22722575068473816, -0.18358074128627777, -0.02929604798555374, 0.15955400466918945, -0.056754112243652344, 0.0199726689606905, 0.07608666270971298], [0.10458677262067795, 0.20705287158489227, 0.3083614408969879, 0.3498876392841339, -0.19367337226867676, -0.004394848830997944, -0.06329087913036346, -0.21818159520626068, -0.5327638983726501, -0.11618716269731522, -0.17882297933101654, -0.049636516720056534, 0.016388271003961563, -0.14683306217193604, 0.03217984735965729, -0.06947663426399231, -0.19968634843826294, -0.24725842475891113, 0.01891077309846878, 0.11560787260532379, 0.13017110526561737, 0.070463627576828, -0.08567482978105545, 0.24899978935718536, 0.07741250097751617, 0.12811627984046936, 0.060470160096883774, 0.07847188413143158], [0.18328462541103363, -0.17283660173416138, 0.18346108496189117, 0.20604656636714935, 0.13505759835243225, -0.12386855483055115, -0.1779252141714096, -0.11205732822418213, -0.3323754370212555, 0.09558054804801941, -0.047295887023210526, -0.02907070517539978, 0.04454577714204788, -0.12387199699878693, 0.08299331367015839, -0.05165901035070419, 0.1567075550556183, -0.05829248204827309, -0.19959646463394165, -0.03482522815465927, -0.15733212232589722, -0.0485408641397953, 0.13976702094078064, 0.23528547585010529, -0.073683962225914, 0.039085570722818375, 0.03139312192797661, -0.1782427728176117], [-0.08683504909276962, 0.00386207178235054, 0.053080003708601, 0.2374376356601715, -0.015788614749908447, -0.11489807814359665, -0.11163131892681122, -0.04925752058625221, -0.3235005736351013, 0.16553576290607452, -0.26482558250427246, -0.12142924219369888, 0.003180435858666897, -0.024121876806020737, 0.1388353854417801, -0.07828527688980103, 0.11970223486423492, -0.10536586493253708, -0.024640319868922234, 0.05952409654855728, 0.1444036364555359, 0.3496299088001251, 0.13932660222053528, 0.16858498752117157, -0.039809003472328186, -0.03269968554377556, -0.07120618224143982, 0.06164512038230896], [0.03321553021669388, -0.13442331552505493, -0.3267006576061249, -0.3475421369075775, -0.10009278357028961, -0.11013786494731903, 0.26986199617385864, 0.2717323303222656, 0.21433494985103607, 0.0919438898563385, 0.24264149367809296, 0.41286492347717285, 0.071531280875206, 0.31591445207595825, -0.17942224442958832, 0.006891853176057339, 0.013538525439798832, 0.09628646820783615, 0.290712833404541, 0.1666475236415863, 0.1669481098651886, 0.007987233810126781, -0.05490519851446152, 0.16038763523101807, 0.07128290832042694, 0.15127256512641907, -0.0346536822617054, -0.04654295742511749], [0.11856329441070557, 0.042947880923748016, 0.1678825169801712, 0.3826052248477936, 0.02879682183265686, 0.0926193967461586, -0.18643426895141602, -0.3606272339820862, -0.3783256411552429, -0.07542948424816132, -0.16522441804409027, -0.11528445780277252, -0.16435910761356354, 0.03551482781767845, -0.10663489252328873, 0.09083175659179688, 0.07388009130954742, -0.21971634030342102, -0.08024592697620392, 0.11737123131752014, -0.019029654562473297, 0.097672238945961, -0.12219443917274475, 0.19729763269424438, 0.0028795660473406315, -0.05809561535716057, 0.17510566115379333, -0.1375386267900467], [0.1530466079711914, 0.15194031596183777, 0.11088171601295471, 0.3413182199001312, 0.047436103224754333, -0.02706773206591606, 0.09351810812950134, -0.2393212914466858, -0.4129587411880493, 0.013384351506829262, -0.19251912832260132, 0.06314437836408615, -0.1260218620300293, -0.1497928947210312, 0.12081114947795868, -0.007166502997279167, 0.0791146382689476, -0.14733821153640747, -0.06995583325624466, 0.1356591284275055, -0.17624938488006592, 0.05678163096308708, 0.20359846949577332, 0.07427268475294113, -0.05282206833362579, 0.16607777774333954, -0.15384767949581146, -0.15098653733730316], [-0.2834545969963074, 0.009193324483931065, 0.005455009173601866, -0.38472363352775574, 0.014435630291700363, -0.05663865804672241, 0.18232522904872894, 0.10915231704711914, 0.408501535654068, 0.0733623057603836, 0.26971185207366943, 0.3487430810928345, 0.15621709823608398, 0.4045596122741699, 0.08616463840007782, -0.013571607880294323, -0.15631842613220215, 0.07064035534858704, 0.1980457305908203, 0.11027640104293823, 0.1212235689163208, -0.26517173647880554, -0.07574724406003952, -0.2160450518131256, -0.209018275141716, 0.18174760043621063, -0.1714818775653839, -0.28612619638442993], [-0.06382199376821518, -0.13231192529201508, -0.1568567305803299, -0.13371655344963074, -0.05195622891187668, -0.0933680534362793, 0.048382315784692764, 0.24495401978492737, 0.25029388070106506, 0.10529855638742447, 0.13778749108314514, 0.21583883464336395, 0.1448056697845459, 0.1992568075656891, -0.15919211506843567, 0.10860889405012131, -0.15951508283615112, -0.02226175181567669, 0.37949636578559875, 0.16168493032455444, 0.12185347080230713, -0.32661232352256775, -0.022155506536364555, -0.14046095311641693, -0.19355443120002747, 0.03685186803340912, -0.11938193440437317, 0.1224391907453537], [-0.0983557254076004, -0.007008213549852371, -0.1670449823141098, -0.050888050347566605, 0.05758509784936905, -0.16043461859226227, 0.09865832328796387, -0.18544432520866394, -0.16384384036064148, 0.03280075639486313, 0.07245073467493057, 0.09439483284950256, -0.06316907703876495, -0.1512678563594818, 0.12322984635829926, -0.0019435831345617771, 0.1357230544090271, 0.1545143872499466, 0.09942484647035599, -0.05702086538076401, 0.17924635112285614, -0.12219282984733582, -0.10176845639944077, 0.07679449021816254, 0.12330986559391022, 0.00898648053407669, -0.011517493054270744, -0.11454902589321136], [0.21785084903240204, -0.05889973044395447, 0.06148932874202728, 0.11434394866228104, -0.04837454482913017, 0.07477785646915436, 0.09752523899078369, 0.22349870204925537, 0.26081350445747375, 0.11667187511920929, 0.04369756206870079, -0.012013998813927174, 0.10117784142494202, 0.13758985698223114, -0.14404577016830444, -0.1224702000617981, -0.04287084564566612, 0.23456083238124847, 0.13538482785224915, 0.01087103970348835, -0.16251316666603088, -0.148508682847023, 0.0881064236164093, 0.1571722775697708, 0.12484331429004669, 0.021560383960604668, 0.16461609303951263, 0.13316768407821655], [0.10410265624523163, 0.14557918906211853, 0.1419004201889038, 0.006896370090544224, -0.16177691519260406, -0.1406501680612564, -0.1552153378725052, 0.05986225605010986, -0.09793391823768616, -0.1673945188522339, -0.021409451961517334, -0.17133969068527222, 0.15700393915176392, 0.07027538120746613, 0.10137151181697845, -0.15307112038135529, 0.11782337725162506, 0.009852387011051178, -0.13968926668167114, -0.06630371510982513, -0.01324489712715149, 0.15952882170677185, 0.08326375484466553, 0.013324664905667305, -0.07273873686790466, -0.17472884058952332, -0.11853446066379547, -0.09329550713300705]], "actor.network.4.bias": [-0.149685800075531, 0.0760745108127594, -0.08278633654117584, -0.048842184245586395, 0.021996695548295975, -0.15867842733860016, -0.0672912448644638, -0.17977973818778992, 0.31571850180625916, 0.04532891511917114, -0.01064104400575161, 0.08162236213684082, 0.024667182937264442, 0.028929315507411957, -0.16647900640964508, 0.15197616815567017, 0.18981187045574188, 0.05531247705221176, 0.04741282016038895, -0.008068080060184002, 0.021522095426917076, 0.06804869323968887, -0.007226858288049698, 0.16453249752521515, 0.3087508976459503, 0.06386791169643402, 0.0066436282359063625, -0.15847112238407135], "actor.network.6.weight": [[0.05661746487021446, -0.29511407017707825, -0.04913001507520676, 0.010743362829089165, 0.32298529148101807, 0.09353591501712799, 0.16548827290534973, 0.023698974400758743, -0.37827208638191223, 0.022548247128725052, -0.05012877658009529, 0.12757202982902527, 0.37661924958229065, 0.26688840985298157, 0.1658039540052414, -0.16499724984169006, -0.2353316694498062, 0.3946707546710968, 0.15376079082489014, 0.22005175054073334, -0.3147412836551666, 0.2680000364780426, 0.33682960271835327, -0.48314884305000305, -0.20299109816551208, 0.10105182230472565, -0.22768667340278625, -0.07283962517976761], [-0.08022253960371017, 0.13255035877227783, 0.10398831963539124, -0.05513094365596771, -0.2262994945049286, -0.2318909615278244, -0.04964376986026764, -0.06979776918888092, 0.23835773766040802, -0.06140463054180145, -0.16184251010417938, -0.12679894268512726, -0.31796279549598694, -0.3142320513725281, -0.17100653052330017, 0.3154853880405426, 0.2350241094827652, -0.3080386221408844, -0.14505133032798767, -0.07148145139217377, 0.4041057527065277, -0.2002411186695099, -0.3016397953033447, 0.5046425461769104, 0.3551294505596161, -0.010667129419744015, 0.1335325837135315, 0.08485408872365952]], "actor.network.6.bias": [-0.1354975402355194, 0.12769350409507751], "critic.network.0.weight": [[0.7091315984725952, 0.49907952547073364, -0.20142590999603271, 0.11307957768440247], [-0.0512969084084034, -0.11220859736204147, 0.12316473573446274, -0.4129078984260559], [-0.04661056399345398, 0.18139208853244781, -0.07579980045557022, 0.12923550605773926], [-0.14241695404052734, 0.05288022384047508, -0.43156129121780396, 0.08942306041717529], [0.21982444822788239, 0.33010613918304443, 0.29376092553138733, 0.15987104177474976], [-0.31165969371795654, -0.17495954036712646, 0.09277547895908356, -0.22444258630275726], [0.042115382850170135, 0.30682650208473206, -0.08504031598567963, 0.09486836940050125], [-0.03176386281847954, -0.014416651800274849, -0.5953730344772339, -0.17195966839790344], [-0.20985323190689087, 0.35466837882995605, -0.1183122768998146, 0.0609351322054863], [-0.15245434641838074, 0.31508690118789673, -0.28891807794570923, 0.5220599174499512], [-0.27789753675460815, 0.18533079326152802, -0.5580718517303467, -0.2371497005224228], [-0.25835347175598145, -0.3708352744579315, 0.6356114149093628, -0.37865114212036133], [0.21221332252025604, -0.09006285667419434, 0.9016783833503723, 0.5780115723609924], [-0.29938122630119324, -0.16206340491771698, -0.6040662527084351, -0.20640568435192108], [0.39918190240859985, -0.4371509552001953, -0.49608534574508667, 0.20729918777942657], [-0.3626924157142639, 0.17989730834960938, 0.4216911792755127, 0.010394674725830555], [0.004171791020780802, 0.2943420112133026, 0.1311454027891159, 0.04612380638718605], [0.08155722916126251, 0.285086989402771, -0.5085934400558472, 0.34721678495407104], [-0.6140984892845154, -0.005410707555711269, 0.5814852714538574, 0.013169513083994389], [0.05248292535543442, -0.055097103118896484, -0.9949396252632141, 0.20231986045837402], [0.3410893380641937, -0.445974200963974, -0.6911051869392395, -0.3862636685371399], [0.29110783338546753, -0.41407814621925354, 0.20494164526462555, -0.3473532199859619], [-0.18130744993686676, 0.2535477876663208, -0.3600555956363678, -0.19499976933002472], [-0.21357177197933197, 0.3898095488548279, 0.3736841380596161, 0.10126914083957672], [0.36852747201919556, 0.19670486450195312, 0.03468402475118637, -0.2561699151992798], [-0.45567193627357483, 0.2401905506849289, 0.5789387226104736, -0.14603184163570404], [0.21989959478378296, -0.23769453167915344, -0.7110597491264343, -0.3600318133831024], [0.14510227739810944, -0.2777612507343292, -0.15129698812961578, -0.07033933699131012]], "critic.network.0.bias": [-0.3504113554954529, 0.4639849364757538, 0.5458723306655884, 0.5692983865737915, 0.30968406796455383, -0.5622082948684692, 0.17611002922058105, 0.07497087866067886, 0.5540539026260376, -0.33492666482925415, 0.5345902442932129, -0.6442500352859497, 0.16195270419120789, -0.14127710461616516, 0.4711296558380127, -0.2557528614997864, 0.55954509973526, -0.5033015012741089, 0.1882590353488922, 0.08784695714712143, -0.11515586078166962, 0.41018351912498474, -0.22025559842586517, -0.30847668647766113, -0.46497684717178345, -0.12398498505353928, -0.19737085700035095, 0.34557822346687317], "critic.network.2.weight": [[-0.27204564213752747, -0.02840186469256878, 0.003180168801918626, 0.1973782330751419, 0.15115438401699066, 0.016230126842856407, 0.01719418168067932, -0.1471065878868103, 0.18760225176811218, -0.07957135140895844, 0.014474148862063885, -0.14230158925056458, -0.1245361790060997, -0.2609379291534424, 0.06208808347582817, -0.02583112195134163, 0.2518242299556732, -0.10082527995109558, 0.08845040947198868, -0.14371389150619507, -0.5227218270301819, 0.06512102484703064, 0.09879570454359055, 0.1344282627105713, 0.1444723755121231, 0.08919346332550049, -0.5369242429733276, 0.14799131453037262], [0.08957771211862564, -0.09986183047294617, -0.030342429876327515, 0.04218156263232231, 0.14574342966079712, -0.19645465910434723, -0.11151863634586334, -0.13978677988052368, 0.14201880991458893, 0.32631638646125793, -0.22349826991558075, -0.052440300583839417, 0.23215723037719727, -0.1576133370399475, 0.05693824589252472, 0.09924671053886414, -0.1384212076663971, 0.07150957733392715, -0.11774687469005585, 0.19680674374103546, -0.1323636770248413, -0.920332133769989, -0.0921688973903656, 0.12719306349754333, -0.1382860541343689, -0.032708220183849335, -0.07805463671684265, 0.02428775653243065], [-0.31284379959106445, 0.02429724670946598, 0.2573324739933014, 0.29907336831092834, 0.11803863942623138, 0.017221447080373764, 0.23748630285263062, -0.15949660539627075, 0.15687616169452667, -0.16070735454559326, 0.2431231439113617, -0.0098404660820961, -0.06841660290956497, -0.2635301947593689, 0.2059846669435501, -0.23667770624160767, 0.28391069173812866, 0.02396361157298088, -0.044793181121349335, -0.011320719495415688, -0.38951575756073, -0.04376282915472984, -0.027083421126008034, -0.14707250893115997, -0.008143957704305649, -0.08193954825401306, -0.4862686097621918, 0.04539453238248825], [-0.12777990102767944, 0.07990749925374985, 0.19151033461093903, 0.2671138346195221, 0.20971128344535828, 0.03623438626527786, -0.033259402960538864, 0.07110224664211273, 0.1524546593427658, -0.1268278956413269, 0.06205412745475769, 0.11200608313083649, -0.10197874158620834, -0.014224440790712833, 0.25760653614997864, -0.20650911331176758, 0.1605016440153122, -0.01294051855802536, -0.12686458230018616, 0.0914197638630867, -0.4704628884792328, -0.04348442703485489, 0.2424909919500351, -0.016803016886115074, -0.03838205337524414, -0.17849117517471313, -0.5156290531158447, 0.20534838736057281], [-0.1900692582130432, -0.2541067600250244, 0.05573711171746254, 0.15483713150024414, 0.09720484912395477, 0.09450555592775345, -0.05566137656569481, -0.18503126502037048, -0.013730637729167938, 0.040995195508003235, -0.1599005162715912, 0.26388806104660034, 0.23493900895118713, 0.06705553829669952, -0.25551342964172363, 0.09131604433059692, -0.15221261978149414, 0.014745193533599377, 0.18776817619800568, -0.06540299952030182, -0.17296360433101654, -0.3476217985153198, -0.011475058272480965, 0.12458926439285278, 0.1469668745994568, 0.22093254327774048, -0.31625479459762573, -0.15185585618019104], [0.0821591168642044, -0.14988748729228973, -0.1745559722185135, -0.029560059309005737, -0.08188332617282867, -0.06220535933971405, -0.05545221269130707, -0.18776367604732513, -0.07464538514614105, 0.1647348254919052, 0.12282787263393402, 0.18897710740566254, 0.033046990633010864, 0.09741200506687164, 0.024822086095809937, -0.026184335350990295, 0.15148068964481354, 0.11437024176120758, -0.09599655866622925, -0.1821819394826889, -0.15406015515327454, -0.16756974160671234, 0.0094929039478302, -0.1874402016401291, 0.18518446385860443, -0.026229187846183777, -0.09858683496713638, -0.14216868579387665], [0.17305678129196167, -0.003358054207637906, 0.10630466043949127, 0.04645860195159912, 0.13635416328907013, -0.1017133966088295, 0.06939984112977982, 0.027066955342888832, -0.12301018834114075, 0.07781641185283661, 0.12560805678367615, -0.029240243136882782, -0.19183367490768433, 0.4910903871059418, 0.07191469520330429, 0.037435900419950485, 0.02922293357551098, -0.19224441051483154, -0.4954708516597748, 0.3730188012123108, 0.45000654458999634, 0.24640300869941711, 0.10156276822090149, 0.03327115252614021, 0.21577668190002441, -0.2723099887371063, 0.6603134274482727, -0.008539009839296341], [-0.10206776857376099, -0.12897145748138428, 0.06704077124595642, -0.18617823719978333, -0.02910538949072361, 0.10208972543478012, 0.186599001288414, -0.16241928935050964, -0.1865653097629547, 0.042675334960222244, -0.1401596963405609, -0.04640175774693489, 0.08393488824367523, -0.03221072256565094, 0.13209322094917297, 0.025757938623428345, -0.18581023812294006, -0.1826329380273819, -0.1041397973895073, -0.0585392490029335, 0.17185603082180023, 0.06679046154022217, -0.09650660306215286, -0.061276838183403015, 0.11483027040958405, 0.036947816610336304, 0.1405632644891739, 0.032657451927661896], [-0.15127691626548767, -0.1280670166015625, -0.14854685962200165, -0.03912641853094101, -0.1579684019088745, -0.1763785481452942, -0.0029938239604234695, 0.08219870179891586, 0.11187837272882462, 0.10925884544849396, 0.15321654081344604, -0.2266860157251358, -0.09671837836503983, -0.19276189804077148, 0.10708767175674438, -0.05998123437166214, -0.2082892656326294, 0.1056535467505455, 0.002868369920179248, -0.04288320243358612, -0.19686487317085266, 0.046813711524009705, 0.07076388597488403, 0.06932462751865387, -0.021918252110481262, 0.01743294857442379, -0.12123081088066101, 0.11361531913280487], [-0.046434640884399414, 0.010412558913230896, 0.0576285719871521, -0.13120071589946747, -0.062318816781044006, 0.15122751891613007, 0.05342257022857666, -0.011657074093818665, -0.1765018105506897, 0.03680455684661865, 0.0996115654706955, 0.08969606459140778, 0.03357771039009094, 0.057378754019737244, -0.05629347264766693, -0.001688838005065918, 0.03568759560585022, 0.09889928996562958, -0.1855183243751526, -0.04079553484916687, 0.012963026762008667, 0.0067453533411026, -0.01900017261505127, -0.05771380662918091, -0.02929629385471344, -0.04939182102680206, 0.1657579392194748, -0.08322995901107788], [-0.1232742965221405, -0.11057198792695999, -0.10656774789094925, 0.014872388914227486, 0.01366410031914711, -0.08036556094884872, -0.13882789015769958, 0.013571815565228462, -0.01691155508160591, 0.013866400346159935, -0.10022129118442535, -0.039188265800476074, 0.13727957010269165, 0.07810824364423752, 0.039525702595710754, -0.10860610008239746, 0.13667351007461548, 0.049190130084753036, -0.04928954318165779, -0.06999483704566956, 0.09481003880500793, 0.01656450517475605, -0.08380801230669022, -0.012158045545220375, 0.14410454034805298, -0.2136150598526001, -0.19894802570343018, -0.08096957206726074], [-0.2673898935317993, -0.038844745606184006, 0.06003165245056152, 0.16151896119117737, 0.2450980693101883, 0.06101279705762863, 0.05488945543766022, -0.11603797227144241, 0.15030990540981293, -0.1214909553527832, -0.08930142223834991, -0.08422207832336426, -0.11417193710803986, -0.14355391263961792, 0.1986636519432068, -0.3356398344039917, 0.07821632921695709, -0.04676789045333862, -0.08107804507017136, -0.1877332627773285, -0.5859903693199158, 0.20750680565834045, 0.03138231858611107, -0.09072297811508179, 0.056265346705913544, 0.09188596159219742, -0.5520902872085571, 0.19520902633666992], [0.14726467430591583, -0.07302659004926682, 0.13047075271606445, 0.11774814128875732, -0.044033125042915344, -0.06466693431138992, -0.1380525529384613, -0.034746866673231125, -0.011936753056943417, 0.14961448311805725, -0.04080205410718918, -0.08112920820713043, -0.16962887346744537, 0.1020020917057991, 0.12159071117639542, -0.02076619863510132, -0.1408233940601349, -0.11185918748378754, 0.003149639815092087, -0.03909720107913017, 0.1595902442932129, -0.06691893935203552, 0.0910721868276596, -0.12779739499092102, -0.028667066246271133, -0.13857868313789368, -0.07967334240674973, -0.16180920600891113], [-0.05421556532382965, 0.14169281721115112, 0.02010684832930565, 0.10478129982948303, 0.15663789212703705, 0.011832034215331078, -0.1669067144393921, -0.06838611513376236, -0.038542501628398895, -0.3573653995990753, -0.009851668030023575, -0.09199072420597076, -0.16555561125278473, -0.09520631283521652, 0.049178652465343475, -0.059352003037929535, 0.11523253470659256, -0.010611508972942829, -0.08750678598880768, -0.09359653294086456, -0.6618075966835022, 0.1293574869632721, -0.07950005680322647, -0.13036438822746277, 0.07002139836549759, -0.05098436772823334, -0.6338135004043579, -0.09399847686290741], [-0.24550200998783112, 0.24368643760681152, 0.00017984390433412045, 0.030885424464941025, 0.002975321840494871, 0.03704501688480377, -0.07004106789827347, -0.18516948819160461, -0.000994885922409594, -0.1076636016368866, 0.125589981675148, -0.14749707281589508, -0.004008188843727112, -0.2660366892814636, -0.008869522251188755, -0.3242000639438629, 0.10314420610666275, -0.1887892484664917, 0.12735389173030853, -0.02403932996094227, -0.27520325779914856, 0.2703448235988617, 0.2409922480583191, -0.08403992652893066, -0.04766157269477844, -0.20090650022029877, -0.41827285289764404, 0.1880384087562561], [0.12985311448574066, 0.006416294723749161, -0.10123126953840256, -0.16722248494625092, -0.1752254217863083, 0.09811566025018692, -0.16042716801166534, 0.10231898725032806, 0.04836827516555786, -0.06194351613521576, 0.019247250631451607, -0.19295990467071533, -0.001300811767578125, 0.04881058633327484, -0.16576401889324188, 0.16035260260105133, -0.037235602736473083, 0.13754047453403473, 0.04012272134423256, 0.13502202928066254, -0.1819821298122406, -0.17498186230659485, -0.07741976529359818, 0.07688756287097931, -0.16392317414283752, -0.0012546946527436376, -0.1408853679895401, 0.046225689351558685], [0.03511324152350426, 0.10937784612178802, 0.06796592473983765, -0.13649313151836395, 0.045686252415180206, -0.02510811761021614, 0.04034554958343506, 0.045212700963020325, -0.07220490276813507, -0.10655468702316284, -0.022540215402841568, -0.06589911878108978, 0.1375664472579956, -0.27204713225364685, -0.16162791848182678, -0.08653643727302551, -0.18760693073272705, 0.08644087612628937, -0.14560402929782867, -0.04509098082780838, -0.3100445866584778, 0.12455091625452042, -0.15885183215141296, -0.248703271150589, 0.046480730175971985, -0.09845844656229019, 0.018745943903923035, -0.1920032799243927], [-0.11524990200996399, 0.15647347271442413, -0.16295312345027924, -0.12487578392028809, 0.014626458287239075, -0.026351168751716614, -0.12601780891418457, 0.09965591132640839, 0.09860344231128693, -0.15330663323402405, -0.0726853460073471, 0.031051933765411377, 0.1317588835954666, 0.08184124529361725, -0.03645049035549164, -0.059734195470809937, 0.017700254917144775, -0.009720772504806519, -0.17950673401355743, -0.056265026330947876, -0.019608139991760254, -0.15438959002494812, -0.18418243527412415, -0.040378034114837646, -0.10365431010723114, 0.12712936103343964, 0.10852603614330292, 0.023825421929359436], [-0.007932573556900024, -0.009163305163383484, -0.07326214015483856, 0.03842081129550934, -0.14017254114151, 0.13122053444385529, -0.03634101152420044, -0.1192769929766655, -0.12575575709342957, -0.0631222277879715, -0.013269513845443726, -4.363059997558594e-05, 0.016315028071403503, -0.15800248086452484, -0.04346553981304169, -0.051179513335227966, 0.06609432399272919, 0.15739788115024567, 0.17754925787448883, -0.04103352129459381, -0.18553543090820312, -0.1596437692642212, -0.009764879941940308, -0.029680296778678894, 0.081087127327919, -0.17199181020259857, -0.17794169485569, -0.1089959368109703], [-0.044021353125572205, 0.13213863968849182, -0.03414684534072876, 0.08522014319896698, -0.066796213388443, 0.0071425605565309525, -0.16282996535301208, -0.1929546296596527, -0.14282160997390747, 0.06147502362728119, -0.019746769219636917, -0.14372384548187256, -0.19932936131954193, 0.12107837200164795, 0.08010672777891159, 0.01828913390636444, -0.19817295670509338, -0.1302623152732849, -0.203525573015213, -0.11405976861715317, -0.13553209602832794, -0.121944859623909, -0.13875821232795715, -0.043011948466300964, 0.007010892033576965, 0.13756778836250305, 0.1002078652381897, 0.09788350760936737], [0.032865412533283234, 0.2909683287143707, 0.21113158762454987, -0.08709805458784103, -0.09486683458089828, -0.20236168801784515, -0.06861027330160141, 0.08780036121606827, 0.21370868384838104, -0.08096002042293549, 0.15179197490215302, 0.12639965116977692, -0.08190903067588806, -0.23961026966571808, -0.09719155728816986, 0.04721426963806152, 0.06391729414463043, 0.09355949610471725, 0.14658492803573608, -0.10805486887693405, -0.2994825839996338, 0.21682226657867432, -0.09567549079656601, -0.1270052194595337, 0.14109613001346588, -0.15988309681415558, -0.455565869808197, 0.11392275989055634], [-0.30343422293663025, 0.18408145010471344, 0.151052787899971, 0.23937860131263733, 0.10088738799095154, -0.14704595506191254, 0.053692206740379333, 0.07004916667938232, 0.18912526965141296, -0.04301922768354416, -0.11790461093187332, -0.09192623198032379, -0.009612556546926498, -0.18958088755607605, -0.021539056673645973, -0.19678351283073425, 0.1100015640258789, -0.05595038831233978, -0.015523314476013184, -0.1888573169708252, -0.2984830141067505, 0.11708946526050568, 0.1743408739566803, 0.12004536390304565, -0.00449733342975378, -0.04885673150420189, -0.5296639204025269, 0.21649456024169922], [0.1548677682876587, -0.04080753028392792, -0.015470359474420547, 0.25688061118125916, 0.15347176790237427, 0.15267667174339294, -0.08321335911750793, -0.22103789448738098, 0.21137934923171997, 0.022771235555410385, -0.2973329424858093, 0.0747804194688797, 0.27987784147262573, -0.12251388281583786, -0.03501719981431961, 0.21414510905742645, -0.21440541744232178, 0.11877225339412689, 0.43452244997024536, -0.05429888516664505, -0.04642552137374878, -0.8775106072425842, -0.17242537438869476, 0.011276108212769032, -0.004111361689865589, 0.08271415531635284, -0.1738751232624054, -0.07501639425754547], [-0.31758925318717957, 0.2511540353298187, 0.07389974594116211, 0.04679857939481735, -0.06048677861690521, 0.05003499239683151, 0.00341441435739398, 0.004978209733963013, 0.06080081686377525, -0.29976552724838257, 0.19033773243427277, -0.235844686627388, -0.028601625934243202, -0.2077089548110962, -0.07317143678665161, -0.339669406414032, 0.14034979045391083, -0.1634775996208191, -0.053548991680145264, 0.06616077572107315, -0.3300650715827942, -0.037150781601667404, 0.125083327293396, -0.13740360736846924, -0.17258329689502716, -0.11680713295936584, -0.2802983224391937, 0.06017116457223892], [0.016256317496299744, -0.1677037924528122, -0.08197261393070221, -0.01793726533651352, -0.05825717747211456, -0.0051987506449222565, -0.04834595322608948, -0.13098067045211792, -0.0667249858379364, -0.04157150164246559, -0.15818147361278534, -0.08920188248157501, 0.05236835032701492, -0.07654214650392532, -0.044751621782779694, -0.15469619631767273, -0.07959328591823578, -0.011164799332618713, 0.030862340703606606, 0.008300385437905788, 0.1810319572687149, -0.09353750944137573, 0.030558660626411438, -0.11314529180526733, 0.1880761831998825, 0.04582086205482483, 0.09035547077655792, 0.14509327709674835], [-0.18347439169883728, 0.02281074784696102, 0.08581741154193878, 0.03900446742773056, 0.04172932356595993, 0.10121752321720123, 0.0907672867178917, -0.06514109671115875, 0.1967383176088333, 0.04060443118214607, 0.19554954767227173, -0.0881340429186821, 0.019054947420954704, -0.04659224674105644, 0.17646248638629913, -0.25306668877601624, 0.2541819214820862, -0.016691479831933975, -0.029666397720575333, -0.1578371226787567, -0.3935631513595581, 0.07344367355108261, 0.014157598838210106, -0.178779736161232, -0.055837228894233704, -0.12454565614461899, -0.5649508237838745, 0.08099102973937988], [-0.20205092430114746, -0.05366888642311096, 0.17619699239730835, -0.06455136090517044, 0.029757529497146606, -0.16870662569999695, 0.06694484502077103, -0.10667549073696136, 0.1189458817243576, -0.03764108195900917, -0.09800568222999573, 0.050508979707956314, 0.17941567301750183, -0.04418949410319328, 0.14904029667377472, -0.1189364343881607, 0.09571859240531921, 0.0005126065225340426, -0.003821286838501692, -0.15654240548610687, -0.25448867678642273, -0.10521899908781052, 0.07662992179393768, -0.15259616076946259, -0.10023697465658188, -0.17658159136772156, -0.28874343633651733, 0.0922728106379509], [0.13982053101062775, -0.019778255373239517, -0.07564584165811539, -0.2809672951698303, 0.008585050702095032, 0.1745789796113968, 0.08830320835113525, 0.13755416870117188, 0.04477439075708389, -0.08972853422164917, -0.09968685358762741, -0.13058552145957947, 0.15951880812644958, -0.03625436872243881, -0.1268499493598938, 0.06360326707363129, -0.024948563426733017, -0.0049429722130298615, -0.499899685382843, -0.045173924416303635, 0.1910611093044281, 0.0265085157006979, 0.12556441128253937, -0.05807054787874222, 0.04358960688114166, -0.07161673903465271, 0.014386812224984169, -0.14923381805419922]], "critic.network.2.bias": [0.19697463512420654, -0.14316341280937195, 0.3470646142959595, -0.018467111513018608, 0.1554439216852188, -0.03784455358982086, 0.03337307274341583, -0.19643789529800415, -0.07652729749679565, -0.06453647464513779, -0.053350552916526794, 0.261645644903183, -0.08345168828964233, 0.12162195891141891, 0.30819910764694214, -0.03698747977614403, 0.010249042883515358, -0.05881743133068085, -0.14161436259746552, -0.05322704464197159, 0.18914207816123962, 0.20971328020095825, -0.1303209513425827, 0.20629078149795532, -0.18807336688041687, 0.24290332198143005, 0.1178627610206604, -0.06198124587535858], "critic.network.4.weight": [[-0.10243421047925949, 0.0374954417347908, -0.04812375828623772, -0.10513225942850113, -0.1864381581544876, 0.15105746686458588, -0.08024870604276657, -0.08672583103179932, 0.03803606331348419, -0.04011668264865875, -0.15067704021930695, -0.16828885674476624, 0.09400176256895065, 0.06657484173774719, -0.08982488512992859, -0.04180018603801727, 0.04735863208770752, 0.07452110946178436, -0.1485106647014618, 0.034552738070487976, -0.02809455804526806, -0.15049247443675995, 0.08024351298809052, 0.04135517030954361, 0.1693439930677414, 0.038690198212862015, 0.11732490360736847, 0.17032289505004883], [-0.15726689994335175, -0.1189536452293396, -0.10764441639184952, -0.07685718685388565, 0.06862287223339081, 0.1076676994562149, -0.10614830255508423, -0.07189133018255234, -0.06493378430604935, 0.1183030754327774, -0.13143625855445862, -0.07450402528047562, -0.12568071484565735, -0.11805287003517151, 0.13119341433048248, 0.16189520061016083, -0.1720888763666153, -0.007062166929244995, -0.05533696711063385, -0.10931834578514099, -0.1645331084728241, -0.038859620690345764, -0.14339379966259003, -0.15943899750709534, -0.010031774640083313, -0.003913566470146179, -0.027218639850616455, -0.12237997353076935], [0.04056091606616974, -0.22289760410785675, 0.17503148317337036, -0.034610163420438766, -0.257590651512146, -0.12283313274383545, -0.32132261991500854, 0.08811300992965698, -0.22015589475631714, 0.08404640853404999, 0.07972174137830734, 0.1436208337545395, -0.15798357129096985, 0.03695239871740341, 0.15106208622455597, -0.1435166746377945, 0.15179884433746338, -0.027873963117599487, 0.15726272761821747, 0.07098516076803207, 0.19945773482322693, 0.18086887896060944, -0.17408864200115204, 0.10924088209867477, 0.0536733940243721, -0.051602691411972046, 0.19294171035289764, 0.07704097032546997], [0.1028861477971077, -0.24707679450511932, 0.1497970074415207, 0.1500171571969986, -0.2894597351551056, 0.026290997862815857, -0.31619468331336975, -0.0732746496796608, 0.008990798145532608, 0.1125524491071701, -0.02296638861298561, 0.28275689482688904, 0.22126002609729767, 0.07273256778717041, 0.15919874608516693, 0.07233690470457077, -0.11722877621650696, -0.10288920253515244, 0.15015234053134918, 0.06244898587465286, 0.1414918303489685, 0.11197860538959503, -0.228622168302536, -0.05618641525506973, -0.0534835085272789, 0.17428195476531982, -0.11284706741571426, -0.12921328842639923], [-0.11070629954338074, -0.15288230776786804, -0.03131042420864105, -0.08428721874952316, 0.18077509105205536, 0.17738960683345795, -0.1271338313817978, 0.16363666951656342, 0.00388374924659729, 0.15480126440525055, -0.18017280101776123, 0.09496720135211945, 0.06984399259090424, -0.18040800094604492, -0.0032880306243896484, 0.015078127384185791, 0.14456747472286224, -0.08939847350120544, -0.0024544894695281982, -0.1084962785243988, -0.17918959259986877, -0.15068210661411285, 0.13935495913028717, -0.14433613419532776, 0.18662862479686737, -0.153963103890419, -0.04744186997413635, 0.12941376864910126], [-0.09054940938949585, -0.005698188673704863, -0.039004579186439514, -0.13050095736980438, 0.010576488450169563, 0.10442028939723969, -0.04307331144809723, 0.0489940270781517, -0.05368785560131073, 0.039240434765815735, 0.009496793150901794, 0.13911598920822144, 0.10144511610269547, -0.01886894181370735, -0.10997531563043594, -0.06048743426799774, 0.028128623962402344, 0.09705518186092377, 0.07775603234767914, -0.1381988823413849, 0.09000584483146667, 0.1635751724243164, -0.1924026608467102, -0.04198995977640152, 0.05715666711330414, 0.03179977834224701, 0.01738819107413292, -0.10529253631830215], [-0.25506293773651123, 0.11212902516126633, 0.004365794360637665, -0.014893071725964546, 0.007193374447524548, -0.004288867115974426, -0.10826131701469421, 0.025233112275600433, -0.1550115942955017, 0.021222278475761414, -0.08846268057823181, -0.07587820291519165, 0.009696079418063164, -0.1019347682595253, -0.1215730682015419, -0.04266984760761261, 0.03357976675033569, 0.18706990778446198, 0.1397368162870407, 0.02123582363128662, 0.09030834585428238, -0.17783308029174805, 0.10238461941480637, 0.08686631172895432, -0.10465776920318604, -0.006562600843608379, -0.18383532762527466, -0.2270946502685547], [0.11539299786090851, -0.02916719764471054, 0.10934756696224213, -0.04355625435709953, -0.2504310607910156, -0.1434849053621292, -0.274100661277771, 0.09486857801675797, 0.007442350499331951, 0.025046512484550476, -0.17017227411270142, 0.07898855209350586, -0.09540339559316635, 0.15519700944423676, 0.25751397013664246, -0.04400148242712021, -0.04300861060619354, 0.15402965247631073, -0.030577868223190308, 0.012336342595517635, -0.01769048161804676, 0.21733103692531586, -0.24627862870693207, 0.06942098587751389, 0.15092696249485016, -0.13770174980163574, 0.07173559814691544, -0.12848202884197235], [0.2736077308654785, -0.12830610573291779, 0.2951032221317291, 0.27120593190193176, -0.3445718586444855, -0.14286747574806213, 0.005017322953790426, -0.08745647221803665, 0.021799061447381973, -0.14827744662761688, -0.035569123923778534, 0.1633659154176712, 0.04023781418800354, 0.22725272178649902, 0.1727791279554367, -0.0005343105876818299, 0.10875800997018814, 0.1437709778547287, -0.0656246617436409, 0.046941183507442474, 0.08023511618375778, -0.04050708934664726, -0.20328617095947266, 0.3177494704723358, 0.1378379464149475, 0.032996829599142075, 0.1281663179397583, -0.13479536771774292], [-0.18622806668281555, -0.14581051468849182, -0.12481540441513062, -0.08762748539447784, 0.038274411112070084, 0.06782297790050507, 0.008858324028551579, -0.14213423430919647, -0.02115591987967491, 0.023625105619430542, 0.04268159717321396, -0.15225133299827576, 0.04677174240350723, -0.1760740876197815, -0.09313468635082245, 0.09289287030696869, 0.061855122447013855, 0.15227119624614716, -0.12748034298419952, -0.010561943054199219, 0.10665757954120636, -0.0036052404902875423, 0.1377980262041092, -0.01870817504823208, 0.013223469257354736, 0.10002993047237396, -0.14414756000041962, 0.14172503352165222], [-0.16995933651924133, -0.14010432362556458, 0.1348310261964798, 0.11240150034427643, -0.11873072385787964, 0.13287051022052765, 0.06337971985340118, 0.13947956264019012, 0.15869198739528656, -0.09494524449110031, -0.020494729280471802, 0.04811622202396393, 0.00256173312664032, 0.1553262621164322, -0.045844629406929016, 0.0028832852840423584, -0.1825798600912094, -0.1306048333644867, -0.0741385668516159, -0.14591830968856812, -0.18105992674827576, -0.1003030464053154, 0.1010415107011795, 0.1226479560136795, -0.06272026896476746, -0.163743257522583, 0.14738528430461884, -0.02247488498687744], [0.09013748914003372, 0.03652656823396683, -0.14412762224674225, 0.023189963772892952, -0.07144657522439957, 0.1798849254846573, -0.17673487961292267, -0.10204636305570602, -0.01530030369758606, -0.09556344896554947, -0.06618388742208481, -0.12933266162872314, -0.15115848183631897, -0.13987070322036743, 0.0295872762799263, 0.10029067099094391, 0.010949119925498962, 0.18722890317440033, -0.17697541415691376, -0.09897170960903168, -0.14574788510799408, 0.16757339239120483, -0.1816149204969406, 0.1563132107257843, -0.10653696209192276, -0.06338876485824585, -0.06205369532108307, 0.012712288647890091], [0.09198317676782608, -0.18749645352363586, 0.29793044924736023, -0.004369615111500025, -0.1987316906452179, 0.07746236026287079, -0.2382061630487442, -0.05827847123146057, -0.15004196763038635, 0.005813717842102051, 0.12220615148544312, 0.14358864724636078, 0.00984936859458685, 0.023676646873354912, 0.050958797335624695, 0.13863150775432587, 0.1069498211145401, 0.09513373672962189, -0.1320972740650177, -0.15476495027542114, -0.026456661522388458, 0.24226847290992737, -0.5207730531692505, 0.11370423436164856, -0.11684637516736984, 0.12535327672958374, 0.2402438223361969, -0.00918913260102272], [-0.03898480534553528, -0.031380340456962585, -0.1282290816307068, -0.08859900385141373, -0.1370399445295334, 0.13036061823368073, -0.09440219402313232, -0.03654780983924866, 0.15935374796390533, -0.06794473528862, -0.00918133556842804, 0.0169382244348526, -0.1292712390422821, -0.10177140682935715, -0.004245579242706299, 0.12342293560504913, 0.14311374723911285, 0.08615289628505707, 0.18474556505680084, -0.145658940076828, -0.17836733162403107, 0.039288267493247986, 0.07536251842975616, 0.04884253442287445, 0.028700143098831177, -0.08511928468942642, -0.0331193208694458, 0.14788641035556793], [0.13726237416267395, -0.045206233859062195, 0.145329087972641, 0.1468515694141388, -0.3314038813114166, 0.1411014050245285, -0.09277985990047455, -0.16946545243263245, -0.027653871104121208, 0.06889788806438446, 0.09097781777381897, 0.05973334610462189, 0.08942492306232452, 0.16798101365566254, 0.09253028780221939, 0.009692924097180367, -0.076575368642807, 0.18442384898662567, 0.04439264535903931, -0.061600130051374435, 0.011480764485895634, -0.03724554926156998, -0.48687541484832764, -0.05371849611401558, 0.1090407744050026, -0.021328551694750786, 0.061050545424222946, 0.10520879179239273], [-0.22500090301036835, -0.24764932692050934, -0.0193853210657835, 0.03368280455470085, 0.085375115275383, -0.11789917945861816, 0.3186304569244385, 0.020252272486686707, -0.010329021140933037, -0.0011372119188308716, 0.12014149129390717, -0.19931261241436005, 0.1251092553138733, -0.4639526605606079, 0.10607737302780151, -0.07301119714975357, -0.14287671446800232, 0.18342925608158112, -0.11253099143505096, 0.12865808606147766, 0.11409051716327667, 0.050959937274456024, -0.14497409760951996, 0.008395003154873848, -0.040359627455472946, 0.04987131059169769, -0.04847897216677666, -0.07949189841747284], [-0.18628235161304474, 0.07571689784526825, 0.039687380194664, 0.07446877658367157, 0.004648521542549133, 0.07342271506786346, 0.14454208314418793, -0.1841382384300232, -0.05735613405704498, 0.17037545144557953, -0.057951703667640686, -0.16113530099391937, 0.07264350354671478, -0.07078336179256439, 0.0791187733411789, -0.021126553416252136, -0.1027844175696373, 0.0866461843252182, 0.01432277262210846, -0.004186481237411499, -0.09452098608016968, 0.03256046772003174, 0.06642197072505951, -0.1503112018108368, 0.029208078980445862, -0.015369847416877747, -0.03874136507511139, -0.11300138384103775], [-0.05006127059459686, -0.258944571018219, 0.27812686562538147, 0.2728215456008911, -0.1783760040998459, -0.048321813344955444, 0.03740746155381203, 0.14076945185661316, 0.16922995448112488, 0.030006051063537598, -0.05066939443349838, 0.342925101518631, -0.14739954471588135, 0.07893911749124527, 0.043154362589120865, 0.009307303465902805, -0.028283674269914627, 0.18524132668972015, -0.10792399197816849, -0.08781783282756805, -0.017461031675338745, 0.27251577377319336, -0.394307017326355, 0.315787672996521, 0.1411304473876953, 0.2966506779193878, 0.0581316314637661, -0.14388668537139893], [0.05607786029577255, 0.08436781167984009, 0.10421117395162582, -0.05197092145681381, -0.15622907876968384, -0.11609356850385666, 0.11176308989524841, 0.008244365453720093, -0.15909719467163086, 0.13614897429943085, 0.021906666457653046, -0.04274590685963631, 0.0787951797246933, -0.049597710371017456, -0.21713101863861084, 0.05185127258300781, -0.014871746301651001, -0.17960898578166962, 0.012860849499702454, 0.05578604340553284, -0.05217751860618591, 0.08977814763784409, 0.13604967296123505, 0.12925277650356293, -0.13460347056388855, -0.21036019921302795, -0.1587093025445938, 0.13562539219856262], [-0.06816530227661133, 0.09363438189029694, 0.10927997529506683, 0.11431628465652466, 0.02542908489704132, -0.017680570483207703, -0.09485084563493729, 0.11283357441425323, 0.18630346655845642, -0.07281035929918289, -0.09776781499385834, 0.09870544821023941, 0.034210845828056335, 0.08102905005216599, -0.24008506536483765, -0.0586513876914978, -0.10275150835514069, -0.18807654082775116, -0.1359361708164215, 0.060660041868686676, -0.021371953189373016, 0.10168123990297318, -0.0650201290845871, -0.12122810631990433, 0.18567636609077454, 0.12472215294837952, -0.13993699848651886, -0.18098601698875427], [0.0363825187087059, 0.11761239171028137, -0.05787080526351929, 0.1535489559173584, 0.003368675708770752, 0.13615982234477997, -0.16490131616592407, -0.008742542937397957, -0.03491175174713135, -0.03948123753070831, -0.03190240263938904, -0.007449938915669918, 0.0750277191400528, -0.16022731363773346, 0.006551964208483696, 0.027521252632141113, 0.1691993921995163, 0.15856118500232697, -0.040969476103782654, -0.10741953551769257, -0.17721614241600037, -0.19089633226394653, -0.07358729839324951, -0.048215992748737335, 0.13165074586868286, 0.14913037419319153, 0.032035935670137405, -0.0025997310876846313], [0.2351972907781601, -0.1457805633544922, 0.24744543433189392, 0.09752531349658966, -0.14264386892318726, -0.14354068040847778, -0.18521296977996826, -0.17202234268188477, -0.021477438509464264, 0.06836222112178802, -0.08595424890518188, 0.0906042531132698, 0.07368776202201843, 0.13021573424339294, 0.3263636827468872, -0.1356412023305893, 0.0315273180603981, 0.1860813945531845, -0.08030717074871063, -0.17501142621040344, 0.23150785267353058, -0.01374684739857912, -0.4014451503753662, 0.05555162951350212, 0.15479733049869537, 0.18525125086307526, -0.1194748654961586, -0.04829889535903931], [-0.05126667767763138, 0.07520326972007751, 0.027623290196061134, -0.06295084953308105, -0.04878050088882446, -0.013773530721664429, -0.16385719180107117, -0.054935600608587265, 0.09019766747951508, 0.047344982624053955, 0.0012128651142120361, -0.04574385657906532, -0.007769377436488867, -0.006536978296935558, 0.10499806702136993, -0.04998387396335602, -0.0013164281845092773, 0.1535165160894394, 0.01578153669834137, -0.005102604627609253, 0.04951208829879761, 0.10023559629917145, 0.05729040503501892, -0.1034281998872757, 0.14612258970737457, -0.2001175433397293, 0.04272209107875824, -0.061859045177698135], [-0.005917594768106937, -0.1190645843744278, 0.2509826421737671, 0.13988709449768066, -0.17781054973602295, 0.13764075934886932, -0.2930249869823456, 0.0015566075453534722, -0.021690618246793747, -0.1530253291130066, -0.020947258919477463, 0.056950509548187256, -0.1269141137599945, 0.15176928043365479, 0.16046132147312164, -0.07456403970718384, -0.08381342887878418, -0.09297455102205276, -0.07055147737264633, -0.1103338748216629, 0.1940883994102478, 0.2936922609806061, -0.34593093395233154, 0.11534303426742554, 0.08091820031404495, 0.15316708385944366, 0.07723495364189148, 0.126691073179245], [-0.08257219195365906, 0.2074016034603119, -0.08446017652750015, -0.03997563198208809, -0.05446859449148178, -0.13851720094680786, 0.014791548252105713, 0.04959772527217865, -0.047704655677080154, -0.13611121475696564, -0.06800706684589386, -0.040476128458976746, 0.035230692476034164, -0.01917598396539688, 0.007952667772769928, 0.025348663330078125, -0.018088091164827347, 0.06970520317554474, 0.014748722314834595, 0.053001075983047485, 0.0871681496500969, 0.09890095144510269, 0.387909859418869, -0.2586691379547119, -0.06783762574195862, -0.038054220378398895, -0.013369394466280937, 0.017407577484846115], [0.2687850892543793, -0.017961446195840836, 0.18124344944953918, -0.01957068219780922, -0.321500688791275, 0.15173445641994476, -0.23427385091781616, 0.13042455911636353, -0.15127220749855042, -0.1525118052959442, -0.1543167233467102, 0.15357404947280884, -0.10419942438602448, 0.107490673661232, 0.22358106076717377, -0.15796615183353424, 0.041099339723587036, -0.07241475582122803, 0.07212613523006439, 0.11813559383153915, 0.24916855990886688, 0.2274049073457718, -0.45423680543899536, 0.27213090658187866, -0.028741028159856796, 0.14865024387836456, 0.12752243876457214, -0.01980835571885109], [0.20044903457164764, -0.2864204943180084, 0.2723917067050934, 0.08783002197742462, -0.2926652729511261, -0.14875657856464386, -0.20980443060398102, 0.09665758162736893, 0.0879838764667511, -0.09012492746114731, 0.13365742564201355, 0.14842049777507782, -0.1118982583284378, 0.35858532786369324, 0.11943340301513672, -0.017008429393172264, -0.1446066051721573, -0.11574762314558029, 0.13630302250385284, 0.09095408022403717, 0.13386857509613037, 0.20428413152694702, -0.5132336020469666, 0.0631050392985344, 0.024150460958480835, 0.16670545935630798, 0.09076286107301712, -0.0052110664546489716], [0.060763709247112274, -0.07807044684886932, -0.10863041877746582, 0.02005462720990181, 0.08367697894573212, 0.15075697004795074, -0.05511432886123657, -0.10717269033193588, 0.03157678246498108, 0.14523430168628693, 0.0655650645494461, 0.02600191906094551, -0.18136031925678253, -0.0031285746954381466, -0.09611821174621582, 0.1224006861448288, 0.07293276488780975, -0.14409089088439941, -0.17981457710266113, 0.03313642740249634, -0.1847800314426422, -0.09070068597793579, 0.13187074661254883, 0.05841315910220146, 0.10208620131015778, 0.11197096109390259, 0.11383922398090363, 0.08247901499271393]], "critic.network.4.bias": [-0.006075190845876932, -0.07760098576545715, 0.017032602801918983, 0.2643738090991974, -0.08812183141708374, -0.03433140367269516, 0.11064954847097397, 0.2523745000362396, 0.24284785985946655, 0.05519232153892517, -0.15957599878311157, 0.03165438771247864, 0.2435985803604126, -0.121869295835495, 0.049276165664196014, 0.005957342218607664, -0.027936294674873352, 0.2950136065483093, -0.2105470895767212, -0.24500662088394165, -0.08880478888750076, 0.25191813707351685, 0.0010542196687310934, 0.21359819173812866, -0.13731256127357483, 0.09609343111515045, 0.065009705722332, -0.2073926031589508], "critic.network.6.weight": [[-0.13542605936527252, -0.019139647483825684, 0.09568480402231216, 0.2935642898082733, -0.14026585221290588, -0.021543119102716446, -0.11841976642608643, 0.09758610278367996, 0.31403934955596924, -0.11055514961481094, 0.06815974414348602, -0.16381165385246277, 0.22442035377025604, -0.14773330092430115, 0.14674565196037292, -0.14899779856204987, 0.05414348840713501, 0.2617470920085907, -0.141640305519104, -0.07589505612850189, -0.02602943405508995, 0.2859187424182892, -0.014456653967499733, 0.2300502210855484, -0.2241213321685791, 0.27716922760009766, 0.30123212933540344, -0.1208072304725647]], "critic.network.6.bias": [0.03230339661240578]}