{"actor.network.0.weight": [[-0.08458252996206284, -0.23512111604213715, -0.01614495739340782, -0.46354928612709045], [0.15341277420520782, 0.2886926531791687, -0.5926854610443115, -0.30488964915275574], [0.04127877950668335, -0.011618362739682198, -0.389760822057724, 0.46413445472717285], [0.44354280829429626, -0.03611171245574951, 0.3388560712337494, 0.32105985283851624], [-0.39177992939949036, 0.19803069531917572, 0.6515005230903625, 0.6495965719223022], [0.33709678053855896, -0.315792053937912, 0.019059132784605026, -0.5694549679756165], [-0.12371697276830673, 0.19462430477142334, -0.2235988825559616, -0.2456822693347931], [-0.14045171439647675, 0.05344846472144127, -0.38258096575737, -0.2310863882303238], [-0.4074537456035614, -0.303136944770813, -0.18902449309825897, 0.22650982439517975], [0.4272961914539337, 0.479587197303772, -0.0005539956036955118, -0.166897714138031], [0.41174012422561646, -0.042152632027864456, 0.23950490355491638, -0.5169124007225037], [0.06169738993048668, 0.15457496047019958, 0.30781933665275574, 0.6573290228843689], [-0.4761272668838501, -0.0553094744682312, -0.004578073509037495, -0.004115250892937183], [-0.17144452035427094, 0.09646034240722656, -0.08053401857614517, -0.423662394285202], [0.09068945050239563, -0.34946465492248535, 0.6057128310203552, 0.07743081450462341], [-0.19350974261760712, 0.2762729823589325, 0.318704217672348, 0.6357645392417908], [-0.08106595277786255, -0.10316091030836105, -0.2746850252151489, -0.4596799314022064], [0.4526158571243286, -0.03125756233930588, -0.38623201847076416, -0.40795382857322693], [-0.430522084236145, -0.43004411458969116, 0.3776150643825531, -0.48374143242836], [0.1614503264427185, 0.0786350890994072, -0.2992793023586273, -0.2713615894317627], [-0.3548539876937866, -0.3511441648006439, -0.35207614302635193, 0.207925483584404], [0.04903058335185051, 0.2580338418483734, 0.48085007071495056, 0.5767884254455566], [0.39160314202308655, -0.2500465214252472, -0.31839632987976074, -0.5638232827186584], [0.00016462861094623804, 0.08765164762735367, -0.28753599524497986, -0.43576011061668396], [0.13569217920303345, 0.2529246509075165, -0.209640234708786, 0.36378082633018494], [0.37847664952278137, 0.23377232253551483, -0.11301863938570023, -0.2773989140987396], [0.019306164234876633, -0.04937220364809036, -0.003937446977943182, 0.6191436648368835], [0.04400347173213959, -0.18464459478855133, -0.38498321175575256, -0.444196492433548]], "actor.network.0.bias": [0.2040485143661499, 0.060249362140893936, -0.20688381791114807, -0.5107991695404053, 0.4090607762336731, 0.1505090445280075, 0.3473534882068634, 0.10552690923213959, -0.3966289460659027, 0.5333415865898132, 0.18099798262119293, 0.49417248368263245, -0.3864663541316986, 0.17170284688472748, 0.5536382794380188, 0.12774674594402313, 0.10356148332357407, -0.4351175129413605, 0.2761858403682709, 0.3582010865211487, 0.10344169288873672, 0.14057882130146027, 0.32896754145622253, -0.276275098323822, -0.4680819511413574, -0.10405737161636353, 0.15354153513908386, 0.17586639523506165], "actor.network.2.weight": [[-0.0317191518843174, 0.12206722050905228, -0.021659158170223236, 0.10719817131757736, 0.19579221308231354, -0.24749702215194702, -0.03347501903772354, -0.25072625279426575, 0.14200112223625183, 0.07924611121416092, -0.2004697322845459, 0.24847398698329926, -0.028787657618522644, -0.17780281603336334, 0.23384550213813782, 0.1656845510005951, 0.1023891270160675, 0.12999886274337769, 0.004797920119017363, 0.028558237478137016, 0.03557232767343521, 0.0947909876704216, 0.10856564342975616, -0.19222240149974823, -0.15095266699790955, -0.16792507469654083, 0.12620796263217926, -0.07277607917785645], [-0.08140864968299866, -0.17376573383808136, -0.1462186574935913, 0.036160752177238464, -0.09725190699100494, 0.007959723472595215, 0.15232975780963898, 0.17214266955852509, 0.009508058428764343, 0.08939076960086823, -0.02560882270336151, -0.09984146058559418, -0.1739288717508316, 0.12060700356960297, -0.015930920839309692, 0.1044863611459732, -0.14841005206108093, 0.0836130827665329, -0.0997498631477356, -0.17905667424201965, -0.04960040748119354, 0.11209897696971893, 0.10224021971225739, 0.06586818397045135, 0.14256568253040314, -0.13136032223701477, 0.0017535388469696045, -0.08015900105237961], [0.028484389185905457, -0.12163657695055008, 0.03300219774246216, -0.12028858810663223, -0.07567509263753891, -0.05882558226585388, -0.014164194464683533, -0.03734143078327179, 0.040946558117866516, -0.10609857738018036, -0.16984876990318298, -0.0357951819896698, -0.1762000471353531, -0.13486477732658386, -0.13826504349708557, 0.18286611139774323, 0.08339907228946686, 0.05979806184768677, -0.12145999819040298, -0.0022489726543426514, -0.15324106812477112, -0.05366981029510498, -0.08359282463788986, -0.0985298827290535, 0.018916726112365723, -0.043349042534828186, -0.10192257165908813, -0.04160664975643158], [0.10933079570531845, 0.1226259097456932, -0.13257484138011932, 0.07888656854629517, -0.25798895955085754, -0.004568974953144789, -0.09219550341367722, 0.17110373079776764, -0.12166188657283783, -0.04977115988731384, 0.20715278387069702, -0.06925225257873535, 0.2042936086654663, 0.2204013466835022, -0.04017775133252144, -0.28373801708221436, 0.15371587872505188, 0.1354452669620514, 0.11544274538755417, 0.047822292894124985, -0.06009936332702637, -0.1551835685968399, 0.09849158674478531, 0.11922056972980499, 0.1554827094078064, 0.062468521296978, 0.012700751423835754, 0.1972532570362091], [-0.055297985672950745, -0.06272804737091064, 0.06590168178081512, 0.047113701701164246, 0.05597145855426788, -0.15783625841140747, -0.024716168642044067, -0.030218809843063354, 0.0251905620098114, -0.05798250436782837, -0.050846368074417114, 0.1719207912683487, 0.08122338354587555, 0.12857948243618011, -0.07007310539484024, -0.09577014297246933, 0.0034753233194351196, 0.07777921855449677, -0.0005702674388885498, 0.10136239230632782, 0.03323769569396973, 0.03288199007511139, 0.05054923892021179, -0.07076903432607651, -0.11159849166870117, -0.11678160727024078, -0.1541958749294281, -0.07269329577684402], [-0.0892757698893547, 0.14057627320289612, -0.04495047405362129, 0.0025837032590061426, 0.02049572393298149, -0.13206997513771057, 0.1799754798412323, 0.21157841384410858, -0.17967228591442108, 0.03880193084478378, 0.12344998121261597, -0.16826558113098145, -0.11261310428380966, 0.08602949231863022, -0.021356860175728798, 0.02579125389456749, -0.03973579406738281, -0.14228880405426025, 0.04639546200633049, -0.15205071866512299, -0.19375093281269073, -0.21270538866519928, 0.09468147158622742, 0.017641732469201088, -0.009138189256191254, 0.11525468528270721, -0.036846451461315155, 0.023821646347641945], [-0.1545936018228531, -0.009374633431434631, 0.012830398976802826, -0.08213554322719574, 0.1029147356748581, 0.0840456411242485, 0.08109168708324432, -0.19129134714603424, 0.1361577808856964, 0.02808673493564129, 0.016620934009552002, -0.04522954672574997, -0.11697956919670105, 0.03743138164281845, 0.024541908875107765, -0.11567530035972595, 0.004424582235515118, -0.04743994399905205, 0.06088017672300339, 0.13834595680236816, -0.07433511316776276, 0.16689181327819824, -0.04806274175643921, 0.025071874260902405, -0.08940286934375763, -0.13864657282829285, -0.042577069252729416, 0.0463697612285614], [0.09299074113368988, 0.10809735953807831, -0.04273565113544464, 0.016452061012387276, -0.14443273842334747, 0.1788899451494217, 0.033921461552381516, 0.29505273699760437, 0.061524879187345505, 0.09254693984985352, 0.20598401129245758, -0.03237204626202583, -0.01615905947983265, 0.19905981421470642, 0.07091726362705231, -0.26820164918899536, 0.028578422963619232, -0.006410384550690651, -0.026498153805732727, -0.1254257708787918, 0.029902586713433266, -0.008876311592757702, 0.26649415493011475, -0.0323820635676384, 0.16784599423408508, -0.13985028862953186, -0.18692871928215027, 0.25773885846138], [0.10040996968746185, 0.02940117008984089, -0.023850925266742706, -0.04530496522784233, -0.21998120844364166, 0.07603907585144043, -0.09376301616430283, -0.027420511469244957, -0.03326551988720894, -0.051203008741140366, 0.16504372656345367, 0.04568358138203621, -0.07057486474514008, 0.08919905871152878, 0.20017719268798828, -0.14462906122207642, 0.11562220752239227, 0.16607877612113953, 0.1475115418434143, 0.13606007397174835, 0.12895290553569794, -0.11677276343107224, 0.20619431138038635, -0.146128311753273, -0.10054996609687805, -0.09130578488111496, 0.08578035235404968, 0.2399703860282898], [-0.11514019221067429, -0.0556938610970974, -0.13208912312984467, -0.04933096840977669, 0.02828081324696541, -0.11679930239915848, -0.016268499195575714, -0.15158508718013763, -0.15101049840450287, 0.1649024784564972, 0.02064526453614235, 0.30135253071784973, -0.08737801760435104, -0.05463230982422829, 0.2543927729129791, 0.18540991842746735, 0.08776205778121948, -0.11122756451368332, 0.06546370685100555, 0.13546617329120636, 0.23438307642936707, 0.2838638722896576, -0.04592130333185196, -0.0251340139657259, 0.024141328409314156, -0.050181739032268524, 0.031773392111063004, 0.030888890847563744], [0.07986171543598175, -0.19517557322978973, 0.035084281116724014, -0.07880928367376328, 0.1367015838623047, -0.2126496285200119, -0.17493119835853577, -0.07210356742143631, -0.0168090108782053, 0.08376572281122208, -0.06408656388521194, -0.027575507760047913, -0.1969892829656601, 0.06992372870445251, -0.047507449984550476, 0.03588978946208954, -0.1068047434091568, -0.05972006916999817, 0.16638915240764618, 0.040642376989126205, 0.08838485926389694, 0.061068709939718246, -0.14076370000839233, -0.07132674753665924, 0.013272596523165703, -0.10384590178728104, 0.041805755347013474, -0.09615424275398254], [-0.024519935250282288, 0.02156594581902027, -0.1426696926355362, 0.12025899440050125, -0.20782335102558136, 0.3254848122596741, 0.04354231432080269, 0.20880557596683502, -0.0717216357588768, 0.258695513010025, 0.1412711888551712, -0.2276519238948822, -0.16543631255626678, -0.01602736860513687, 0.05499403551220894, -0.32347434759140015, 0.08297282457351685, 0.20309603214263916, 0.25098782777786255, 0.10068245977163315, 0.04141012579202652, -0.12424425780773163, -0.04091761261224747, 0.139460489153862, -0.1314380019903183, 0.18403635919094086, 0.007196457125246525, 0.0940292701125145], [-0.10794509947299957, -0.1843588948249817, 0.009548112750053406, 0.14387907087802887, -0.17995664477348328, -0.10402107238769531, 0.10233666002750397, 0.04500648379325867, 0.07411931455135345, -0.09304364025592804, 0.056934431195259094, -0.06225058436393738, -0.03588663041591644, -0.0652511864900589, 0.09570114314556122, -0.17412588000297546, -0.15811312198638916, 0.14033405482769012, 0.022920727729797363, 0.039618462324142456, -0.07656127214431763, 0.0895681232213974, -0.09283903986215591, 0.15395726263523102, -0.026334956288337708, 0.07744942605495453, -0.0972752720117569, 0.042373284697532654], [0.05476883053779602, 0.1355176717042923, 0.05730421096086502, -0.03114389069378376, -0.02925381436944008, -0.005086017306894064, 0.2891276478767395, 0.148617222905159, -0.01931062340736389, -0.08010704815387726, 0.058051515370607376, -0.02977144904434681, 0.06250067055225372, 0.1350487470626831, 0.2770395874977112, 0.021479468792676926, -0.0942561998963356, 0.12276968359947205, 0.05894037336111069, 0.02291959710419178, 0.17142517864704132, 0.06336599588394165, 0.21306653320789337, -0.0960245132446289, 0.1566280722618103, 0.1367185413837433, 0.11906895041465759, -0.06423240900039673], [-0.1674460470676422, -0.15690501034259796, 0.14204737544059753, 0.010741209611296654, 0.13175976276397705, 0.10901319980621338, 0.10392923653125763, 0.033446453511714935, 0.07514018565416336, -0.07672534137964249, -0.15588170289993286, -0.16957852244377136, -0.06519397348165512, 0.024310074746608734, -0.0434596873819828, -0.1646893322467804, 0.031236305832862854, 0.18013359606266022, 0.04084278270602226, 0.038929153233766556, 0.07976828515529633, -0.042464323341846466, 0.09546349942684174, 0.1324068009853363, 0.057752206921577454, 0.03724254295229912, 0.09071768820285797, -0.10809732973575592], [-0.049404386430978775, 0.16001412272453308, -0.0027780532836914062, -0.07551611214876175, 0.21102185547351837, -0.26972895860671997, -0.029153045266866684, 0.0449087955057621, 0.11908988654613495, 0.05105394124984741, 0.19664643704891205, 0.10828335583209991, -0.034861668944358826, -0.21398860216140747, -0.07883819192647934, 0.0007408366072922945, 0.06601244956254959, -0.14106571674346924, 0.07682191580533981, -0.006557823158800602, 0.10758862644433975, 0.15769347548484802, -0.04158185049891472, -0.03883572295308113, -0.04256508871912956, 0.18960681557655334, 0.20739653706550598, -0.16321252286434174], [0.031426411122083664, 0.18215033411979675, 0.04397109895944595, 0.14852000772953033, -0.08532113581895828, 0.3456519544124603, 0.27785882353782654, 0.12756820023059845, 0.08405724912881851, -0.051135655492544174, 0.222581148147583, 0.06701591610908508, 0.10685810446739197, 0.22066724300384521, -0.15338435769081116, -0.03680506348609924, 0.06539861112833023, -0.052686404436826706, 0.2674708962440491, 0.07071182131767273, 0.11481835693120956, -0.18756212294101715, 0.25956806540489197, -0.08095161616802216, -0.09195064753293991, 0.2113548368215561, -0.146102175116539, 0.24486090242862701], [0.03765179589390755, 0.019288986921310425, 0.07128740847110748, 0.1106332391500473, -0.0009445626055821776, -0.03292951360344887, 0.013169373385608196, 0.08324776589870453, 0.08668462187051773, 0.10447750985622406, -0.06175188720226288, -0.1846066415309906, -0.014821011573076248, -0.010279396548867226, 0.057731688022613525, -0.15835139155387878, -0.0072242096066474915, -0.10155337303876877, 0.23815485835075378, 0.11201296746730804, 0.13929632306098938, 0.03307894617319107, 0.2536301910877228, 0.13165906071662903, -0.04316806048154831, 0.09048546105623245, -0.15753896534442902, 0.20148822665214539], [-0.18922358751296997, -0.16640928387641907, -0.1001981794834137, -0.10009506344795227, -0.13788217306137085, 0.11194541305303574, 0.016075892373919487, 0.08862447738647461, -0.09271032363176346, -0.1734956055879593, 0.14243048429489136, 0.1394043117761612, 0.06039724126458168, 0.10002359002828598, 0.05469942092895508, -0.18253093957901, 0.11568505316972733, 0.17620202898979187, 0.1641729176044464, -0.13865888118743896, -0.1460021585226059, 0.15590418875217438, 0.06586173921823502, 0.11765790730714798, -0.04218187928199768, -0.06888981908559799, -0.12846095860004425, -0.14639997482299805], [0.22048890590667725, 0.06501425057649612, -0.17230825126171112, -0.08862819522619247, -0.26359739899635315, 0.2766492962837219, 0.1443627029657364, 0.27335846424102783, 0.03176763281226158, 0.06013163551688194, -0.14182960987091064, -0.06530940532684326, 0.17186474800109863, 0.056090570986270905, -0.09309042245149612, -0.28112542629241943, 0.15160241723060608, -0.00697561539709568, 0.09868787229061127, 0.11369255185127258, 0.04073067009449005, -0.14072546362876892, 0.24724315106868744, 0.06350023299455643, 0.13271762430667877, -0.0899423286318779, 0.005785009823739529, 0.028890572488307953], [0.15578842163085938, -0.019929563626646996, 0.19357213377952576, 0.15383610129356384, 0.07919342070817947, -0.025877954438328743, -0.1425296813249588, -0.030221519991755486, 0.06257694214582443, 0.18414147198200226, 0.032029829919338226, -0.009546121582388878, 0.15882788598537445, -0.03233087807893753, -0.0036001091357320547, 0.21019192039966583, 0.10589107125997543, -0.18851707875728607, -0.012426341883838177, -0.1670732945203781, 0.05781279504299164, 0.15169797837734222, 0.03253868967294693, 0.02990056201815605, 0.09307824820280075, 0.035029083490371704, 0.12470465153455734, 0.16318781673908234], [0.186415895819664, 0.003908946178853512, 0.1426818072795868, 0.1855996698141098, -0.19476771354675293, -0.0018927189521491528, 0.1379547417163849, -0.1438969224691391, -0.12350204586982727, -0.14440080523490906, 0.10915858298540115, -0.1419115513563156, -0.0012126315850764513, -0.12393338978290558, 0.0430971123278141, 0.014809003099799156, -0.15239299833774567, -0.12457254528999329, 0.05565394461154938, -0.1581503450870514, -0.009965747594833374, -0.10185734927654266, 0.11247427016496658, 0.07103343307971954, 0.10865069925785065, -0.054625704884529114, 0.011135379783809185, -0.06539256870746613], [0.26267868280410767, 0.0905824527144432, -0.1374773234128952, -0.10169067978858948, -0.14527398347854614, 0.021057309582829475, 0.031167427077889442, 0.0199452955275774, -0.04691536724567413, -0.08739019185304642, 0.18436767160892487, -0.011866588145494461, 0.07842282205820084, 0.14072638750076294, -0.05831623822450638, -0.04785429313778877, -0.023299196735024452, 0.1533847153186798, 0.1786145716905594, 0.06315592676401138, -0.1595717817544937, -0.1552555114030838, 0.2036105841398239, 0.14010849595069885, 0.045663751661777496, 0.195381298661232, -0.2773965299129486, -0.008521122857928276], [-0.1956934779882431, -0.14087709784507751, -0.10293690860271454, 0.0696713998913765, 0.11588794738054276, -0.08505308628082275, 0.051820721477270126, -0.11721757054328918, 0.06743562966585159, 0.02907790057361126, 0.20555663108825684, 0.27188900113105774, 0.16205503046512604, 0.13314853608608246, 0.1825650930404663, 0.27641335129737854, -0.2935430705547333, -0.00939099583774805, -0.004541704431176186, 0.07736389338970184, 0.20068825781345367, 0.23257672786712646, -0.14550484716892242, -0.15677981078624725, -0.0688520297408104, -0.020429391413927078, -0.03011065348982811, -0.3421759605407715], [-0.05296687036752701, 0.014825462363660336, 0.14849600195884705, -0.09737095981836319, 0.3121815621852875, -0.34522128105163574, -0.0401926152408123, 0.031346969306468964, 0.04791555553674698, 0.13235275447368622, -0.003703680820763111, 0.19436408579349518, 0.026516489684581757, -0.25800758600234985, 0.10229352116584778, 0.08385321497917175, -0.05230862274765968, 0.009260900318622589, -0.10716047883033752, 0.03560999035835266, 0.02198849432170391, 0.32263216376304626, -0.21847400069236755, -0.1328168362379074, 0.1726967841386795, 0.007809708826243877, 0.2583392262458801, -0.1906730681657791], [-0.13919754326343536, -0.11369125545024872, -0.02819502167403698, -0.13516750931739807, 0.391329288482666, -0.43322065472602844, -0.017713438719511032, -0.2449055165052414, 0.13678020238876343, 0.2327595353126526, -0.1461157202720642, 0.26338788866996765, 0.10891984403133392, -0.29434895515441895, 0.2648415267467499, 0.2617108225822449, -0.37514013051986694, -0.07282020896673203, 0.0776345357298851, -0.1022154912352562, -0.0395779088139534, 0.2695203125476837, -0.13027766346931458, -0.14433084428310394, -0.18130603432655334, -0.08503398299217224, 0.29085907340049744, -0.33322951197624207], [0.015735752880573273, 0.13858157396316528, -0.08554471284151077, 0.09962304681539536, -0.0855599045753479, 0.2547750174999237, 0.1311126947402954, 0.003992017358541489, -0.149603933095932, 0.17624236643314362, 0.16697341203689575, -0.024272441864013672, -0.06964778900146484, 0.005005036946386099, -0.050944309681653976, -0.2493298053741455, 0.07361869513988495, -0.1584368348121643, 0.13057143986225128, 0.023874765262007713, 0.16257785260677338, -0.08251886814832687, -0.096730075776577, 0.18076801300048828, -0.07216886430978775, 0.029721351340413094, -0.22395655512809753, 0.24516288936138153], [-0.13708312809467316, 0.12582124769687653, 0.009082093834877014, 0.16172648966312408, 0.09480513632297516, -0.1478361338376999, -0.16717088222503662, 0.11711682379245758, 0.06305326521396637, -0.01728251576423645, 0.1872992366552353, -0.07651912420988083, 0.013953477144241333, -0.08491633087396622, -0.03002452850341797, -0.12229055911302567, -0.0023254305124282837, -0.09065418690443039, -0.0803392231464386, -0.17928871512413025, 0.09561513364315033, -0.14784154295921326, 0.17581935226917267, -0.02602207660675049, -0.1630949229001999, -0.12181738764047623, 0.09849272668361664, 0.08317972719669342]], "actor.network.2.bias": [0.04817924648523331, -0.039365917444229126, -0.14684434235095978, 0.17930270731449127, -0.1738024801015854, 0.07433485984802246, -0.16606369614601135, 0.06448199599981308, -0.09352920204401016, 0.08077508211135864, -0.039929330348968506, 0.19416143000125885, 0.006080508232116699, 0.32020559906959534, -0.1295863538980484, -0.03345494344830513, 0.004371273331344128, 0.1783781349658966, -0.051789697259664536, 0.09682543575763702, 0.0771511122584343, 0.03790488839149475, 0.14009100198745728, -0.06252191215753555, 0.10390380769968033, 0.17472298443317413, -0.01955600455403328, -0.18507863581180573], "actor.network.4.weight": [[-0.06800688803195953, -0.1302305907011032, 0.10861758887767792, 0.16643787920475006, -0.18748939037322998, -0.15040315687656403, -0.05808132514357567, -0.05493214353919029, -0.07939386367797852, -0.1211930438876152, -0.13019514083862305, 0.20541833341121674, -0.0406661331653595, 0.08169470727443695, 0.07586276531219482, -0.11970587074756622, 0.10765288770198822, 0.1267719566822052, 0.07732368260622025, 0.2267932891845703, 0.16783347725868225, 0.15305793285369873, 0.04357694834470749, -0.08654879033565521, -0.12436215579509735, -0.14529244601726532, 0.18460224568843842, 0.17261837422847748], [-0.1518145203590393, -0.13610276579856873, -0.11855261772871017, 0.03743306174874306, 0.012029007077217102, 0.248116135597229, -0.050842128694057465, 0.12827296555042267, -0.03180719539523125, -0.0011358020128682256, 0.02403148077428341, 0.3234921991825104, 0.14309684932231903, 0.2228737473487854, 0.14643944799900055, -0.21358811855316162, 0.1631515771150589, 0.18635804951190948, -0.09818193316459656, 0.024094203487038612, 0.09798263758420944, 0.1443958580493927, 0.3039843738079071, -0.05117471143603325, -0.2696327269077301, -0.1640029102563858, -0.06821951270103455, 0.13538791239261627], [0.1508154273033142, 0.05554577708244324, 0.06598882377147675, -0.23687155544757843, -0.054203376173973083, -0.09151480346918106, 0.04228997975587845, 0.0587800033390522, -0.2282429188489914, 0.009676666930317879, 0.19187630712985992, 0.12315347790718079, 0.07184873521327972, 0.13160449266433716, 0.08219530433416367, -0.040057238191366196, -0.031191889196634293, -0.033107172697782516, 0.14040721952915192, -0.3375120162963867, -0.0660608783364296, -0.04366472736001015, 0.10161308944225311, 0.10522772371768951, 0.27584296464920044, 0.20691446959972382, -0.0851573571562767, -0.11245650798082352], [-0.009072409942746162, 0.005641281604766846, -0.12217183411121368, -0.023118972778320312, 0.1426795870065689, 0.1589251607656479, -0.15431369841098785, 0.10342348366975784, 0.051434699445962906, -0.15107393264770508, -0.06978467106819153, -0.0049687218852341175, 0.1648409217596054, -0.06979311257600784, 0.06918183714151382, -0.016303107142448425, 0.12282425165176392, 0.13786929845809937, -0.0556742399930954, -0.17028917372226715, 0.03435559570789337, 0.03613768517971039, -0.15623438358306885, 0.16232995688915253, -0.06947033852338791, -0.18739013373851776, -0.041216880083084106, -0.1463976800441742], [0.03620292991399765, 0.18157751858234406, 0.020421922206878662, 0.1567094326019287, -0.011620759963989258, 0.1116037517786026, -0.06949935108423233, -0.18351788818836212, -0.16635695099830627, 0.010605935007333755, 0.1287393718957901, 0.10905922949314117, 0.11425308883190155, 0.0896233394742012, 0.0589638352394104, -0.14650627970695496, -0.08256909996271133, -0.09420907497406006, 0.18691526353359222, -0.0775551125407219, -0.11344987899065018, -0.13116005063056946, 0.08144987374544144, -0.0363314151763916, 0.14395199716091156, -0.0516623891890049, 0.11659657955169678, 0.15180708467960358], [0.28067731857299805, 0.10485528409481049, -0.008284851908683777, -0.2211436927318573, -0.03401532769203186, 0.1041085496544838, -0.14316049218177795, -0.053246721625328064, -0.1611960381269455, 0.20637960731983185, -0.07956232130527496, 0.0818462073802948, -0.12912942469120026, 0.134184792637825, -0.07491134852170944, 0.19688457250595093, -0.10050273686647415, 0.13277170062065125, 0.0025409164372831583, -0.2664659023284912, 0.07049711793661118, -0.14246349036693573, -0.1032329648733139, 0.2851227819919586, 0.27028515934944153, 0.30848997831344604, -0.19184817373752594, 0.030231863260269165], [0.09679986536502838, 0.07223056256771088, -0.14748463034629822, 0.11786073446273804, 0.11761541664600372, 0.20527438819408417, -0.049906253814697266, -0.08017776161432266, 0.1592961698770523, 0.02540830336511135, -0.06090252101421356, 0.2021968960762024, 0.08389206230640411, 0.16690321266651154, 0.09496267884969711, -0.22307510673999786, 0.3047771453857422, -0.07976071536540985, 0.015208334662020206, 0.28423255681991577, -0.019828617572784424, -0.08086077123880386, 0.27904653549194336, -0.08985738456249237, -0.28447434306144714, -0.0971122682094574, 0.1925358772277832, 0.15517981350421906], [-0.12775593996047974, 0.11225952208042145, -0.11549591273069382, 0.23932354152202606, -0.17975959181785583, -0.07048846036195755, 0.050439588725566864, 0.06347402185201645, 0.10444696992635727, 0.09171432256698608, -0.16864527761936188, 0.2541613280773163, 0.11241693794727325, 0.2657356560230255, -0.17686733603477478, -0.013553247787058353, 0.16654428839683533, 0.08609651774168015, 0.04351859167218208, 0.07093536108732224, -0.06051735579967499, 0.06204685941338539, 0.2114555835723877, -0.07108481228351593, -0.22398023307323456, -0.3005646765232086, 0.24103963375091553, 0.17421717941761017], [-0.01407327875494957, -0.18802984058856964, 0.06749914586544037, -0.08391550183296204, -0.18276900053024292, -0.1831960678100586, 0.025792747735977173, -0.039204325526952744, 0.06575752049684525, -0.15613478422164917, 0.03234519436955452, 0.13022597134113312, 0.1310993880033493, -0.12756723165512085, -0.040345076471567154, 0.002784124808385968, 0.0466354601085186, 0.028927365317940712, 0.024104589596390724, 0.1772819459438324, -0.011323257349431515, -0.1645531803369522, 0.16059966385364532, -0.047921597957611084, -0.1452384740114212, 0.12954135239124298, -0.06673846393823624, 0.042769402265548706], [0.2982301712036133, 0.1305004507303238, 0.007148116827011108, -0.2474004626274109, 0.03292080760002136, -0.08464932441711426, 0.0421007014811039, -0.20872101187705994, -0.20644591748714447, 0.09674156457185745, 0.18526554107666016, 0.004278301261365414, -0.09804700314998627, 0.19807687401771545, 0.17570383846759796, 0.2130947709083557, -0.178632915019989, 0.11958865821361542, 0.06086461618542671, -0.07896723598241806, 0.07498809695243835, 0.13907621800899506, -0.25263866782188416, 0.308748334646225, 0.12239715456962585, 0.13114720582962036, -0.19828857481479645, 0.07902459800243378], [-0.2464006543159485, 0.17808638513088226, -0.18445786833763123, 0.3144213855266571, -0.02815970778465271, -0.08993219584226608, -0.17482270300388336, 0.13845975697040558, 0.043817188590765, 0.021979721263051033, 0.04575396329164505, 0.12861157953739166, -0.17671529948711395, 0.1406080424785614, -0.16838783025741577, -0.002728883409872651, 0.1921057552099228, 0.11739122122526169, 0.04957393556833267, 0.18943002820014954, 0.024736087769269943, -0.04476623609662056, 0.11961112171411514, -0.11375190317630768, -0.13201804459095, -0.15927700698375702, 0.022274762392044067, 0.05511893332004547], [-0.15415848791599274, -0.1482754945755005, -0.062368035316467285, 0.09957030415534973, 0.04800669848918915, 0.17659176886081696, 0.048421770334243774, -0.009675011970102787, 0.07628509402275085, -0.07639148086309433, 0.18273557722568512, -0.15161797404289246, 0.027327895164489746, 0.08404162526130676, -0.11631988734006882, -0.07857825607061386, 0.16699761152267456, -0.0019568479619920254, 0.03397573530673981, -0.03195657953619957, 0.06699445098638535, -0.10704148560762405, -0.05138440430164337, 0.05754298344254494, 0.1286722868680954, -0.16376927495002747, -0.13780546188354492, -0.01738765835762024], [0.004760025069117546, -0.007670462131500244, 0.03307978808879852, 0.012065435759723186, -0.06676219403743744, -0.07984379678964615, 0.10172616690397263, -0.036634933203458786, -0.10998386144638062, 0.09427842497825623, 0.07587865740060806, -0.07462339103221893, -0.11318111419677734, -0.10066390037536621, 0.06642615795135498, 0.045233629643917084, -0.15836359560489655, -0.07540759444236755, 0.13466458022594452, 0.1356038898229599, -0.19030079245567322, 0.12412931025028229, -0.1807742565870285, 0.15124952793121338, 0.08111365884542465, -0.10768290609121323, 0.1230604499578476, 0.03493352234363556], [-0.21717338263988495, -0.1188986524939537, -0.033873021602630615, 0.06837446987628937, -0.13422590494155884, -0.09300817549228668, 0.03411845490336418, 0.013774067163467407, 0.20407895743846893, 0.047294966876506805, 0.08088910579681396, 0.18602469563484192, -0.17444628477096558, 0.024589810520410538, 0.19143152236938477, -0.09169279783964157, 0.24878659844398499, 0.08270139247179031, -0.027729777619242668, 0.2932451665401459, 0.10250569134950638, 0.03328564390540123, 0.2970190644264221, 0.06846538931131363, -0.1250365972518921, -0.2508109211921692, -0.020761996507644653, 0.060503438115119934], [-0.14812065660953522, 0.13040052354335785, -0.06806960701942444, -0.1312941163778305, 0.1164531260728836, -0.1537795066833496, 0.06281834840774536, -0.1336948275566101, -0.13683223724365234, 0.058264411985874176, -0.11279518157243729, -0.15486125648021698, 0.16530413925647736, -0.12671472132205963, -0.1870134472846985, -0.11844611912965775, -0.09199642390012741, 0.08452223986387253, -0.16528378427028656, 0.052446506917476654, -0.13047602772712708, -0.1621742695569992, -0.05063174292445183, 0.10510092228651047, -0.1549079716205597, 0.12194880843162537, -0.1871732473373413, 0.14640991389751434], [0.10948425531387329, 0.08595825731754303, 0.04775203764438629, 0.03495316207408905, 0.020331650972366333, 0.0720973014831543, 0.174419105052948, 0.23140129446983337, 0.0427112840116024, 0.09639100730419159, 0.02342827431857586, 0.011770008131861687, -0.032358989119529724, 0.03977217897772789, -0.10189955681562424, -0.06079764664173126, 0.28394198417663574, 0.10098298639059067, -0.1158486008644104, 0.09981019794940948, 0.15307751297950745, 0.16602014005184174, -0.001816291711293161, 0.03227897360920906, -0.020389007404446602, -0.2641771137714386, -0.021949807181954384, -0.11674617230892181], [0.06560315936803818, 0.007147058844566345, -0.1322087198495865, -0.0601545050740242, -0.11119482666254044, 0.014123305678367615, 0.1546269953250885, -0.07416387647390366, -0.1130366399884224, 0.284995973110199, -0.06774341315031052, -0.1231655478477478, 0.17054305970668793, 0.05078086629509926, -0.1565171778202057, 0.03326374292373657, 0.02171977423131466, 0.038151856511831284, 0.09423696994781494, -0.08502578735351562, -0.04833764210343361, 0.17282924056053162, -0.08026021718978882, 0.20516224205493927, 0.2597120404243469, 0.31118109822273254, -0.13536910712718964, -0.02726346254348755], [0.15134462714195251, 0.08543600142002106, 0.13373719155788422, -0.03396143391728401, -0.15796521306037903, -0.09330610185861588, -0.07788558304309845, -0.17038774490356445, -0.09295334666967392, -0.1698976457118988, 0.13946358859539032, 0.04979979246854782, 0.15187601745128632, -0.07142581045627594, 0.17349383234977722, 0.06092362850904465, 0.20156033337116241, 0.13813573122024536, -0.11092007905244827, 0.08945906907320023, -0.0017636065604165196, 0.01957104355096817, -0.03964145481586456, 0.08944447338581085, 0.019349291920661926, 0.07210831344127655, -0.11082615703344345, 0.16540469229221344], [-0.09659688919782639, 0.03237201273441315, 0.012783780694007874, -0.05628190189599991, -0.17090043425559998, 0.006609687581658363, 0.07609321922063828, -0.10839276760816574, 0.15168066322803497, -0.029850123450160027, 0.10789486020803452, 0.1595318615436554, -0.11222009360790253, -0.13478437066078186, 0.009323573671281338, 0.18963384628295898, -0.06595572829246521, 0.008432543836534023, 0.09487178176641464, 0.017958473414182663, -0.08501432836055756, 0.02481892704963684, -0.04674524813890457, 0.16603125631809235, -0.00234230631031096, 0.09096230566501617, 0.06866395473480225, -0.007881104946136475], [-0.02519839070737362, -0.05943262577056885, -0.039137616753578186, -0.21989138424396515, -0.01886308193206787, 0.14202763140201569, -0.1822524070739746, -0.16374748945236206, 0.030130507424473763, 0.12131689488887787, 0.09240797162055969, -0.1476864218711853, 0.13437260687351227, 0.24050259590148926, 0.08829605579376221, 0.18150466680526733, 0.15373297035694122, -0.11876661330461502, 0.08851084113121033, -0.14994575083255768, 0.2212590128183365, 0.16778838634490967, -0.2076404094696045, 0.08950461447238922, 0.005043732468038797, 0.37024834752082825, 0.011774765327572823, 0.03845192492008209], [-0.07445061951875687, -0.11405453830957413, -0.13452568650245667, -0.18372265994548798, -0.05565774440765381, 0.045464348047971725, -0.08152089267969131, -0.13913486897945404, -0.10028167068958282, -0.07103173434734344, -0.11709930747747421, 0.03596724569797516, -0.09161565452814102, 0.003165861824527383, 0.1030295118689537, -0.08388470858335495, -0.16269934177398682, 0.16436414420604706, -0.11787360906600952, 0.009107640944421291, 0.16849742829799652, -0.1537426859140396, -0.14270591735839844, 0.05444882810115814, 0.04327432066202164, -0.10443546622991562, 0.013520362786948681, -0.10273661464452744], [0.312590628862381, 0.17574773728847504, -0.15740907192230225, -0.2137322872877121, -0.05841274559497833, 0.1206069216132164, 0.09178326278924942, 0.00268314266577363, -0.24673473834991455, 0.003871563356369734, -0.002484932541847229, -0.113967165350914, 0.05677454173564911, 0.1940750777721405, -0.07290393114089966, 0.16721849143505096, 0.06476934254169464, -0.00813587848097086, -0.07856889069080353, -0.34452685713768005, 0.0043193078599870205, 0.11823428422212601, -0.14424923062324524, 0.03910091519355774, 0.2687016427516937, 0.36734700202941895, -0.19162380695343018, 0.009002521634101868], [0.017733341082930565, 0.017213240265846252, -0.027782991528511047, 0.2750948667526245, -0.018823251128196716, 0.13253143429756165, -0.09404849261045456, 0.06092187762260437, 0.13111892342567444, -0.06375247985124588, 0.12346353381872177, 0.1589343547821045, 0.09847904741764069, 0.153830423951149, -0.17695747315883636, -0.11192861199378967, 0.3013118505477905, 0.1293598860502243, 0.0941314548254013, 0.16182711720466614, 0.10004617273807526, 0.16056978702545166, -0.011711575090885162, -0.2721824049949646, -0.10903993993997574, -0.10748354345560074, 0.1724722534418106, 0.11017511785030365], [-0.1399868130683899, -0.03811933100223541, -0.022289201617240906, 0.08691690117120743, 0.14126913249492645, -0.02560102753341198, 0.0943707525730133, -0.11346101015806198, 0.1444888859987259, 0.08018352836370468, -0.029688000679016113, 0.11181215941905975, 0.047678038477897644, -0.10108450055122375, 0.08970099687576294, -0.14477446675300598, -0.18135948479175568, 0.053133126348257065, -0.06915115565061569, -0.19020876288414001, -0.05790620297193527, 0.07370041310787201, 0.009188740514218807, 0.12299329787492752, 0.07773438096046448, -0.03427107632160187, 0.15293490886688232, 0.02061198651790619], [0.13595643639564514, 0.14551801979541779, 0.06891204416751862, 0.11078788340091705, 0.05760832130908966, -0.039810895919799805, 0.08504943549633026, 0.03194531798362732, 0.08915140479803085, -0.06916961073875427, 0.03342296928167343, 0.09258273243904114, 0.1611318737268448, 0.15053820610046387, -0.17591728270053864, -0.1480197310447693, 0.24638469517230988, 0.21081839501857758, -0.041659172624349594, 0.02472129836678505, 0.06503641605377197, 0.037209752947092056, 0.03048708662390709, -0.17090964317321777, -0.17346133291721344, -0.28835025429725647, 0.1972987800836563, 0.0924757868051529], [0.12709228694438934, -0.07681775838136673, 0.014385223388671875, -0.06488563120365143, -0.027447789907455444, -0.17599087953567505, 0.05463883653283119, -0.09710298478603363, -0.13677473366260529, 0.2438478320837021, 0.008770624175667763, 0.03579092398285866, 0.036691442131996155, 0.09536483883857727, -0.15441249310970306, 0.23720204830169678, -0.0819929912686348, -0.1468334048986435, -0.1943022459745407, -0.04123940318822861, 0.18853121995925903, 0.07174418121576309, -0.2641628384590149, 0.12023349851369858, 0.14342816174030304, 0.11937706917524338, -0.19766591489315033, 0.08862410485744476], [0.07979018241167068, -0.04406028985977173, -0.10322915762662888, 0.09546718001365662, -0.08467502892017365, -0.0913071557879448, 0.18245795369148254, 0.13063840568065643, -0.09847013652324677, -0.0758652612566948, -0.03883622586727142, -0.07031507790088654, -0.07399850338697433, 0.05340337008237839, 0.04167644679546356, 0.14573891460895538, 0.05978547781705856, 0.04315895587205887, -0.17712347209453583, -0.045196086168289185, 0.05384131520986557, -0.09393516927957535, -0.09544651955366135, -0.05318208038806915, 0.10786652565002441, -0.16030064225196838, -0.07481911778450012, 0.0473308265209198], [-0.1275412142276764, -0.0074485838413238525, 0.13534395396709442, 0.20025698840618134, 0.1469571441411972, 0.19872206449508667, -0.0240196380764246, 0.24770256876945496, 0.02560092881321907, 0.0891486331820488, 0.004228923935443163, 0.0848936215043068, -0.05126716196537018, 0.04134589061141014, 0.15198813378810883, 0.16137376427650452, 0.07755009829998016, -0.10568834096193314, -0.16668008267879486, 0.2772473990917206, -0.12028992176055908, -0.05417391285300255, 0.25478309392929077, -0.021240996196866035, 0.005525342188775539, -0.24731718003749847, 0.17114849388599396, 0.05167679488658905]], "actor.network.4.bias": [0.11743483692407608, 0.022359389811754227, 0.034937940537929535, -0.14735178649425507, -0.16949762403964996, 0.07243195921182632, -0.027311930432915688, 0.05017029121518135, -0.13507524132728577, 0.1972973793745041, 0.0824199840426445, -0.1555534452199936, 0.01659681275486946, 0.11901941150426865, 0.044627320021390915, -0.1082611009478569, -0.00684222299605608, -0.1271096020936966, 0.0027724846731871367, -0.05357706919312477, -0.038820233196020126, 0.08292196691036224, -0.032438136637210846, -0.041161686182022095, 0.0663946196436882, 0.14782162010669708, -0.1241445243358612, 0.09612256288528442], "actor.network.6.weight": [[0.24041500687599182, 0.32163265347480774, -0.20984099805355072, -0.09715310484170914, -0.14909523725509644, -0.19072814285755157, 0.22292229533195496, 0.2938850522041321, 0.1602444052696228, -0.23913167417049408, 0.03869333863258362, 0.14105089008808136, 0.0966469794511795, 0.13900776207447052, 0.07195407897233963, 0.01788349077105522, -0.17447741329669952, 0.06562072038650513, 0.0882517620921135, -0.2681216597557068, 0.07713352143764496, -0.21077874302864075, 0.15299159288406372, 0.00470723444595933, 0.130899116396904, -0.23541076481342316, 0.18280231952667236, 0.1120099425315857], [-0.14058656990528107, -0.2577073276042938, 0.35104817152023315, 0.019162358716130257, 0.0012006763136014342, 0.29073983430862427, -0.32523447275161743, -0.16967371106147766, -0.07706830650568008, 0.14701557159423828, -0.2717568576335907, 0.15479712188243866, -0.1243380531668663, -0.20863330364227295, -0.02118760719895363, -0.18177121877670288, 0.3016238510608673, 0.034421879798173904, 0.1135675460100174, 0.28356581926345825, -0.1431109607219696, 0.2550886273384094, -0.1303383857011795, -0.06008332595229149, -0.2827107608318329, 0.25937363505363464, 0.18361254036426544, -0.07430993020534515]], "actor.network.6.bias": [0.12712517380714417, -0.007091331761330366], "critic.network.0.weight": [[0.15325042605400085, 0.336285263299942, -0.3656567633152008, 0.16891998052597046], [-0.6412050724029541, 0.0472705215215683, 0.4475584924221039, 0.5782427787780762], [-0.5125896334648132, 0.3388514816761017, 0.010622361674904823, -0.4624181389808655], [-0.3420615792274475, 0.0857318863272667, 0.11667470633983612, -0.26836687326431274], [-0.20012784004211426, 0.0007904898375272751, 0.034234896302223206, 0.07806465029716492], [-0.0817132517695427, 0.30434176325798035, -0.2872934341430664, 0.09323703497648239], [0.15001197159290314, -0.4126052260398865, -0.1877201348543167, -0.4358188807964325], [0.4597475826740265, -0.22633208334445953, -0.1377096325159073, -0.47000688314437866], [0.37113064527511597, 0.3370695412158966, -0.13980472087860107, -0.36513832211494446], [-0.16071391105651855, 0.31737902760505676, 0.6472621560096741, 0.5269961357116699], [-0.3301902711391449, 0.04509271681308746, 0.028165176510810852, -0.4293926954269409], [0.3974243402481079, 0.34705641865730286, 0.2339094579219818, -0.4855211079120636], [-0.017025932669639587, 0.3461012840270996, 0.1360148787498474, 0.00079661252675578], [0.316390722990036, -0.3208589255809784, -0.27392157912254333, 0.01562747173011303], [-0.31904831528663635, 0.32065972685813904, -0.21223805844783783, 0.36401477456092834], [-0.1706223338842392, 0.2998100221157074, -0.13006208837032318, 0.2527187764644623], [-0.3604898154735565, -0.3005388081073761, 0.30903714895248413, -0.40802401304244995], [-0.07451386749744415, 0.09968552738428116, -0.3661653697490692, -0.1999979019165039], [-0.535035252571106, -0.12749247252941132, -0.5562392473220825, -0.056623511016368866], [0.4888644516468048, -0.4902479946613312, 0.3801756501197815, -0.19907063245773315], [-0.08446937054395676, 0.00907095242291689, -0.5153871178627014, -0.47078096866607666], [-0.007749467622488737, 0.17675301432609558, -0.15381507575511932, 0.34728842973709106], [0.10294262319803238, -0.3366878032684326, -0.3426315188407898, -0.33126744627952576], [0.4450959265232086, 0.05738188698887825, -0.4375360906124115, 0.04713825136423111], [0.37433794140815735, 0.3499378561973572, -0.354325532913208, 0.5149503350257874], [-0.07363671064376831, -0.01894225738942623, 0.34863045811653137, -0.02903991937637329], [-0.11412060260772705, -0.3690604269504547, 0.5127319693565369, -0.34194764494895935], [-0.03512727841734886, 0.08988398313522339, -0.3204406499862671, 0.21157006919384003]], "critic.network.0.bias": [0.31076937913894653, -0.34531763195991516, -0.35687196254730225, 0.45275941491127014, 0.2924654483795166, -0.5042576789855957, 0.5826905965805054, -0.22772355377674103, -0.08403382450342178, -0.08005643635988235, -0.18199753761291504, -0.33087602257728577, 0.2084854245185852, 0.4725918471813202, 0.4688163995742798, 0.2142595499753952, -0.10543780773878098, 0.6009838581085205, -0.07227286696434021, 0.4130932092666626, -0.3809505105018616, 0.5736345052719116, 0.3620871305465698, 0.17997679114341736, -0.43865853548049927, 0.1693490594625473, 0.11411300301551819, 0.3921142518520355], "critic.network.2.weight": [[-0.13546620309352875, -0.013969779014587402, -0.14827632904052734, -0.1626776158809662, -0.03342078626155853, 0.09291686117649078, -0.16561616957187653, 0.034707874059677124, -0.0087909996509552, -0.15021978318691254, -0.08800889551639557, -0.04334592819213867, -0.08090917021036148, -0.07789374142885208, 0.05400896072387695, 0.14046980440616608, -0.055859267711639404, 0.03345899283885956, -0.051020488142967224, -0.12754780054092407, -0.14018629491329193, -0.18613281846046448, 0.07909341156482697, -0.18161359429359436, -0.11893489956855774, -0.015345543622970581, 0.02014864981174469, -0.15114817023277283], [0.0698389858007431, 0.0390051007270813, -0.15088412165641785, 6.020069122314453e-06, 0.03670990467071533, -0.04817672073841095, 0.015799015760421753, -0.14387665688991547, -0.003210499882698059, -0.15794773399829865, 0.02865515649318695, -0.021210864186286926, 0.05868092179298401, -0.17082247138023376, 0.06506212055683136, -0.09475976973772049, 0.07522417604923248, -0.01145586371421814, -0.008136257529258728, -0.11103933304548264, -0.05135807394981384, 0.021195590496063232, 0.05899904668331146, -0.17502063512802124, 0.16865186393260956, -0.06685902178287506, -0.1784670352935791, -0.0973866730928421], [0.16959337890148163, 0.016839653253555298, -0.17572832107543945, 0.05407609045505524, 0.062212809920310974, -0.07123244553804398, -0.03705441951751709, -0.1811818778514862, -0.1781083345413208, -0.16461554169654846, 0.11155997216701508, 0.0578383207321167, 0.05181364715099335, -0.13017122447490692, -0.14507971704006195, -0.18010595440864563, 0.1719052940607071, -0.1599016636610031, -0.17624832689762115, 0.17275463044643402, -0.08609557896852493, -0.10922946780920029, -0.0603625625371933, -0.029393106698989868, -0.08847919851541519, -0.13958187401294708, -0.12255767732858658, 0.17504198849201202], [0.08051417768001556, -0.3123243749141693, -0.17300184071063995, -0.09615839272737503, -0.044802114367485046, -0.03475746512413025, 0.04832315072417259, 0.006814373191446066, 0.10353602468967438, -0.1965966373682022, -0.0980304628610611, 0.04048578068614006, 0.0674172043800354, -0.051280029118061066, 0.1646410971879959, 0.08940758556127548, -0.02433144487440586, 0.23113855719566345, -0.10819386690855026, 0.05614098533987999, -0.10252400487661362, 0.23824042081832886, 0.21097372472286224, -0.05650104582309723, -0.16378478705883026, 0.3127995729446411, -0.05978981778025627, 0.11646497249603271], [-0.07369919866323471, -0.07403894513845444, 0.10444580763578415, -0.02156088687479496, 0.27970007061958313, 0.03887801617383957, 0.2584778070449829, -0.28457674384117126, 0.12782259285449982, -0.023780476301908493, -0.09001051634550095, -0.11519856005907059, -0.04431390017271042, 0.17530450224876404, 0.08251206576824188, 0.15980874001979828, -0.06240665540099144, -0.03238142281770706, 0.0806589126586914, 0.1409931182861328, -0.053708963096141815, 0.1055637076497078, 0.15588702261447906, 0.02577020600438118, -0.11492597311735153, 0.164916530251503, 0.08835386484861374, 0.09756140410900116], [0.1604793518781662, -0.1120617464184761, 0.06979454308748245, 0.18059076368808746, -0.06716663390398026, -0.13194486498832703, 0.16843032836914062, -0.29057836532592773, -0.11397874355316162, -0.057809144258499146, -0.10575373470783234, -0.0038615225348621607, 0.17063620686531067, 0.07611562311649323, 0.10302728414535522, -0.0747276321053505, -0.08119910955429077, 0.01972685009241104, -0.2188800871372223, 0.026464425027370453, 0.06875452399253845, 0.11265569180250168, -0.06664404273033142, -0.18696007132530212, -0.18560396134853363, 0.16277162730693817, 0.014417799189686775, 0.07195019721984863], [0.08886301517486572, -0.10425257682800293, 0.058051176369190216, -0.11197969317436218, 0.24629561603069305, 0.0008490018080919981, -0.13694477081298828, 0.023364096879959106, 0.06355088204145432, -0.05296263098716736, -0.13482718169689178, -0.08327725529670715, -0.11483392119407654, 0.019063010811805725, 0.23356857895851135, 0.09961570054292679, 0.008047745563089848, 0.14353366196155548, 0.07972689718008041, 0.12158820778131485, -0.08760543167591095, 0.14400917291641235, -0.13049538433551788, 0.11277589946985245, -0.061349380761384964, -0.04827667027711868, -0.1397095024585724, 0.1949683427810669], [0.0977173000574112, 0.10539760440587997, -0.07977697253227234, -0.3392132520675659, 0.14057578146457672, -0.1592375934123993, -0.23239067196846008, -0.042738378047943115, -0.13810089230537415, 0.2415836751461029, -0.008276600390672684, -0.23332302272319794, -0.016672756522893906, -0.040272489190101624, 0.011574164032936096, -0.05089320242404938, 0.1699979156255722, -0.05671779811382294, -0.12139923870563507, -0.024835223332047462, 0.08581115305423737, 0.055104319006204605, -0.43362104892730713, -0.2723323404788971, -0.1177763119339943, 0.02641676738858223, -0.1872025728225708, 0.11716672778129578], [0.03486877679824829, -0.1797504872083664, 0.03874083608388901, 0.22604157030582428, 0.09817984700202942, 0.1267978399991989, 0.1135011836886406, -0.17076872289180756, -0.04217177629470825, -0.03420441597700119, 0.07382944971323013, 0.01732938550412655, -0.01669701375067234, 0.06908921152353287, 0.2295026332139969, 0.07207734882831573, 0.06000331789255142, 0.2183508723974228, -0.28329896926879883, 0.17074891924858093, 0.01174909807741642, 0.0046874480322003365, 0.22703947126865387, 0.1009669378399849, 0.00015540381718892604, 0.23324565589427948, -0.08154875040054321, 0.0738929882645607], [-0.06918726861476898, -0.045990943908691406, -0.1444704532623291, -0.06965398788452148, 0.11454249918460846, 0.10885070264339447, -0.05253086984157562, -0.06952723860740662, 0.11613766849040985, -0.135959193110466, -0.10597298294305801, 0.010883942246437073, -0.1831803023815155, 0.18243150413036346, -0.1460043042898178, 0.06325472891330719, 0.061272457242012024, -0.15147490799427032, 0.017289534211158752, 0.06557793915271759, -0.13028503954410553, -0.04654139280319214, -0.12083179503679276, -0.06932072341442108, 0.12401629984378815, 0.10697667300701141, 0.12421561777591705, 0.04449091851711273], [-0.09052146971225739, 0.10288654267787933, 0.09257778525352478, 0.1567944437265396, 0.04785102605819702, -0.1685711294412613, 0.04693494737148285, 0.14936241507530212, -0.012950130738317966, 0.056011468172073364, 0.05149572342634201, -0.0753595381975174, -0.17279715836048126, 0.06891589611768723, -0.10039684176445007, 0.07428275048732758, -0.13641320168972015, 0.027703039348125458, -0.13656741380691528, -0.027077844366431236, 0.1446513831615448, -0.02647298388183117, -0.12028984725475311, -0.006072113756090403, 0.04516485333442688, 0.08851058781147003, -0.1734146773815155, -0.11008914560079575], [0.15208928287029266, -0.06500643491744995, -0.11653178930282593, 0.15862464904785156, 0.008382045663893223, -0.19082589447498322, 0.08481036126613617, -0.12070298194885254, 0.03910147771239281, -0.2315913885831833, -0.02316710166633129, -0.18092185258865356, -0.07067368179559708, 0.0037648677825927734, 0.19293828308582306, 0.11491617560386658, -0.1573932021856308, 0.05667402595281601, -0.16801510751247406, 0.25231480598449707, -0.2742331922054291, 0.11882730573415756, 0.06247546151280403, 0.08608344942331314, -0.15420781075954437, -0.04253199324011803, -0.028536135330796242, 0.2515241503715515], [-0.16071516275405884, -0.10607436299324036, 0.07580346614122391, 0.10704004764556885, -0.15488936007022858, 0.12958644330501556, -0.20845593512058258, 0.06236980855464935, -0.010373838245868683, 0.011900648474693298, -0.04322001338005066, -0.11681535840034485, -0.15156994760036469, -0.06189604848623276, 0.07729402184486389, -0.043128691613674164, -0.002084182808175683, 0.148174449801445, 0.08047962188720703, -0.07823141664266586, 0.1532343178987503, -0.10165751725435257, 0.15981264412403107, 0.022312311455607414, 0.04621404409408569, -0.08425857126712799, -0.0389522910118103, -0.06703797727823257], [-0.06082596257328987, 0.10387793183326721, 0.09755730628967285, 0.08997494727373123, -0.16305549442768097, -0.10325920581817627, 0.17718835175037384, 0.03664184361696243, 0.1927398294210434, -0.19509735703468323, 0.13987837731838226, 0.08468672633171082, -0.08073808997869492, -0.1295623779296875, -0.08982816338539124, -0.45127829909324646, 0.14669573307037354, -0.022468632087111473, -0.03661670163273811, 0.1706133484840393, 0.112950399518013, -0.15604250133037567, 0.09364306181669235, 0.0016129524447023869, -0.07691920548677444, 0.05442865565419197, 0.23665660619735718, -0.09569396823644638], [-0.007121328264474869, 0.09483715891838074, 0.10612817108631134, -0.22664576768875122, 0.03601507470011711, 0.19370657205581665, -0.2993869185447693, -0.20794682204723358, 0.13176880776882172, 0.1980678290128708, -0.16068203747272491, -0.006677466444671154, 0.21034911274909973, 0.15173645317554474, -0.07162261754274368, -0.11823777854442596, 0.11541355401277542, -0.06925943493843079, -0.06981507688760757, -0.14258719980716705, 0.12642692029476166, 0.13390032947063446, -0.19553300738334656, 0.10718510299921036, 0.17600718140602112, -0.05120225250720978, 0.07344058901071548, 0.08488941192626953], [-0.10982368141412735, 0.2264655977487564, 0.12311261147260666, -0.07857546955347061, 0.11940114200115204, -0.02687140554189682, -0.07663853466510773, -0.007597126066684723, 0.1308656632900238, 0.24245479702949524, 0.1477646678686142, 0.15753552317619324, 0.11712315678596497, -0.14186371862888336, -0.007254830561578274, -0.05485733225941658, 0.13654232025146484, 0.08056950569152832, 0.15415996313095093, 0.03241058439016342, 0.2343863844871521, 0.16811150312423706, -0.16572614014148712, 0.18003705143928528, 0.20807601511478424, -0.08423715084791183, -0.01966826617717743, -0.14793166518211365], [0.07762017846107483, -0.13194073736667633, -0.12440291047096252, 0.1655745655298233, 0.18014486134052277, 0.08070088177919388, 0.10258854925632477, 0.009335555136203766, -0.14244453608989716, 0.05142225697636604, -0.04398982599377632, 0.06273898482322693, 0.011800570413470268, -0.037095267325639725, 0.18570369482040405, 0.050882987678050995, -0.23833028972148895, 0.0047395420260727406, -0.20152132213115692, 0.13348639011383057, -0.019948013126850128, 0.0833415687084198, 0.04233813285827637, -0.09949073940515518, -0.10489722341299057, 0.1069016382098198, 0.12500597536563873, -0.08519834280014038], [0.17883947491645813, -0.23963358998298645, 0.05606804043054581, 0.23000890016555786, 0.0718616396188736, 0.11911702156066895, 0.2651406228542328, 0.005054307635873556, 0.06453035026788712, -0.1447991281747818, -0.2020639181137085, -0.03168646991252899, 0.219600647687912, 0.07300737500190735, 0.11505530029535294, -0.027502676472067833, 0.060264263302087784, 0.15132226049900055, -0.25979432463645935, 0.1270618885755539, -0.1565367430448532, 0.09229464083909988, -0.07135017216205597, 0.11239270865917206, -0.09416426718235016, 0.03153206780552864, 0.04480695724487305, -0.03462358936667442], [-0.045193858444690704, -0.1381654441356659, 0.026467103511095047, 0.1605827510356903, 0.026243319734930992, -0.03684980794787407, 0.18955110013484955, -0.30493080615997314, -0.20234014093875885, -0.07151513546705246, 0.04477245360612869, 0.03832989186048508, 0.22774823009967804, -0.052349381148815155, 0.02629034034907818, 0.1816735714673996, 0.07590772956609726, 0.05284661054611206, -0.04261025786399841, 0.2928662896156311, -0.09819332510232925, 0.258036345243454, 0.24934706091880798, 0.1349770426750183, -0.15012481808662415, -0.028976095840334892, -0.051070380955934525, 0.20833346247673035], [-0.1784369796514511, 0.08807725459337234, 0.17464008927345276, 0.09136097878217697, -0.09107481688261032, 0.12458784878253937, -0.18134631216526031, 0.06948600709438324, -0.08011429011821747, -0.06141006946563721, -0.02296335995197296, 0.10393662750720978, -0.021355975419282913, -0.1352522075176239, -0.014219897799193859, -0.17898593842983246, 0.11492796987295151, -0.08611693978309631, 0.009632712230086327, -0.1473659873008728, -0.08778300136327744, -0.06475766748189926, -0.07725309580564499, -0.15892136096954346, 0.0501285046339035, 0.13663390278816223, 0.03609119728207588, 0.010344292968511581], [-0.09023767709732056, -0.2877558171749115, -0.1881473958492279, 0.18421536684036255, -0.05003378912806511, 0.03563416376709938, -0.036537617444992065, -0.1391291469335556, -0.05640200525522232, -0.06680313497781754, 0.02792901173233986, -0.09795135259628296, -0.07513362914323807, 0.2693045437335968, 0.21953526139259338, -0.11438074707984924, -0.07410810887813568, 0.20959481596946716, -0.22620141506195068, 0.07252907752990723, 0.04937641695141792, 0.2637874484062195, 0.07604555785655975, -0.07307838648557663, -0.08116491883993149, 0.2180822193622589, -0.009630056098103523, 0.25277554988861084], [0.27019837498664856, -0.019859230145812035, -0.10072295367717743, 0.020876841619610786, 0.27884605526924133, 0.13562949001789093, 0.05521686002612114, 0.03607345372438431, 0.10952726006507874, -0.1275160312652588, 0.04232387617230415, 0.04184456169605255, -0.06697023659944534, 0.2526496946811676, -0.04424986243247986, -0.06079632416367531, 0.042276155203580856, 0.2737857699394226, -0.21339857578277588, 0.20362217724323273, -0.15554645657539368, 0.07065307348966599, 0.08114725351333618, -0.08697652816772461, -0.22365272045135498, 0.2833126187324524, 0.00040840840665623546, 0.2213028073310852], [-0.03189989551901817, -0.0010518953204154968, -0.030409352853894234, 0.017657406628131866, 0.16025875508785248, 0.05997396633028984, 0.06860190629959106, -0.22303347289562225, 0.13988272845745087, -0.10715647786855698, -0.09632723033428192, -0.13134966790676117, -0.024606844410300255, 0.0815165564417839, 0.09629759937524796, 0.019507842138409615, -0.01555527001619339, 0.2736293077468872, 0.05950469151139259, -0.03029004856944084, -0.11003201454877853, 0.18690332770347595, 0.07677128911018372, 0.10117021203041077, -0.10985372215509415, -0.03237433359026909, 0.09697475284337997, 0.010692636482417583], [0.04260880500078201, -0.2360929250717163, -0.07632617652416229, 0.20446717739105225, -0.02335084229707718, -0.00796633493155241, 0.08336866647005081, 0.02041599527001381, -0.08187992125749588, -0.26168179512023926, -0.018747730180621147, 0.03347107768058777, 0.03532111272215843, -0.01793774403631687, -0.06484883278608322, 0.10192634165287018, -0.1449650079011917, 0.23746393620967865, -0.17105112969875336, 0.2724701166152954, -0.2781657874584198, 0.1517128199338913, -0.025280404835939407, 0.0980047732591629, -0.045204970985651016, 0.24186083674430847, -0.06233799457550049, 0.1595873087644577], [-0.069025918841362, -0.19384382665157318, 0.14349769055843353, 0.2684849798679352, 0.05593825876712799, -0.015176160261034966, 0.20814213156700134, -0.29664698243141174, -0.00913941115140915, -0.204447403550148, -0.21420656144618988, 0.07777751237154007, 0.2405320405960083, -0.018171673640608788, 0.29795265197753906, -0.0727907046675682, -0.01738625392317772, 0.17674395442008972, -0.039841387420892715, -0.018152397125959396, -0.0812864601612091, 0.03007359430193901, 0.014740564860403538, 0.10330548137426376, -0.057525672018527985, -0.06142517924308777, 0.09888114035129547, 0.2792782783508301], [-0.07156777381896973, -0.10907386988401413, 0.10444001108407974, 0.19003237783908844, 0.20253491401672363, 0.02715500444173813, 0.09342266619205475, -0.20426829159259796, -0.179152712225914, -0.2737392485141754, -0.0624098926782608, 0.09818894416093826, -0.026841340586543083, 0.19883374869823456, 0.12545427680015564, -0.13942188024520874, -0.2414112538099289, 0.21379439532756805, 0.06411267817020416, 0.08970199525356293, -0.05580907315015793, 0.10340459644794464, 0.037417203187942505, 0.18399719893932343, -0.14925868809223175, -0.030035901814699173, -0.0827021449804306, 0.19593335688114166], [-0.06792107969522476, 0.01571078598499298, -0.00273267924785614, -0.056242771446704865, 0.10202135890722275, 0.07776577770709991, 0.062122322618961334, -0.10612604022026062, -0.10098817199468613, 0.11086096614599228, 0.09758301079273224, -0.11057921499013901, -0.04156794399023056, 0.13497880101203918, -0.11616498976945877, -0.12055055052042007, -0.04124519228935242, 0.00911687407642603, -0.004524592310190201, -0.18110670149326324, -0.16182640194892883, 0.03360503911972046, -0.033335454761981964, -0.20199763774871826, -0.05365404486656189, 0.007277593947947025, -0.1933143138885498, -0.13477294147014618], [-0.15784303843975067, -0.19774489104747772, 0.08161676675081253, -0.13263587653636932, -0.012955625541508198, -0.007934940047562122, 0.09255524724721909, 0.017997512593865395, 0.03193006291985512, -0.1182154044508934, 0.06435899436473846, -0.2410321682691574, 0.16969221830368042, -0.04794209077954292, 0.08549878746271133, -0.06261026859283447, 0.031924162060022354, 0.16630832850933075, -0.1150081530213356, 0.190211221575737, -0.25628915429115295, 0.1513642966747284, -0.005803059786558151, 0.15185929834842682, -0.15373371541500092, 0.06809376180171967, -0.11650869995355606, 0.0014579764101654291]], "critic.network.2.bias": [0.08463941514492035, 0.014533236622810364, -0.018532365560531616, 0.28634074330329895, 0.2573651969432831, -0.031165068969130516, 0.13287554681301117, 0.13170914351940155, 0.11104133725166321, -0.18250404298305511, -0.1517428159713745, 0.13580955564975739, -0.07382850348949432, -0.026229780167341232, -0.05266561731696129, 0.022516267374157906, 0.2538456320762634, 0.09065840393304825, 0.27467912435531616, -0.10607156157493591, 0.1054435670375824, 0.2712317705154419, 0.2888498902320862, 0.3128756582736969, 0.11301687359809875, 0.06803470104932785, 0.019345251843333244, 0.16211365163326263], "critic.network.4.weight": [[0.09368936717510223, -0.0016384422779083252, 0.13809101283550262, 0.04416640102863312, 0.14578668773174286, -0.030350476503372192, 0.027801528573036194, -0.18124812841415405, -0.14398780465126038, 0.18837331235408783, 0.10513032972812653, 0.1784530133008957, -0.1518823355436325, -0.12492921948432922, -0.02159544825553894, -0.11758904904127121, -0.12068092077970505, 0.011107578873634338, 0.07905988395214081, -0.1806510090827942, 0.014402121305465698, -0.1569063514471054, -0.023298457264900208, 0.13821308314800262, -0.09419723600149155, 0.0943908542394638, -0.04269981384277344, -0.07984957098960876], [-0.18401552736759186, -0.015770941972732544, -0.11698585003614426, 0.15745873749256134, -0.03900608420372009, 0.042290493845939636, -0.022463755682110786, -0.0831763818860054, 0.24945193529129028, 0.18100012838840485, -0.0153444092720747, 0.0904693454504013, 0.06044721230864525, -0.2634115219116211, 0.0864974781870842, -0.2900645136833191, 0.016792794689536095, 0.11395565420389175, 0.10757825523614883, 0.01646099053323269, 0.03331460803747177, 0.21783259510993958, -0.013857283629477024, 0.1318913847208023, 0.16075031459331512, 0.019750425592064857, -0.15772554278373718, 0.20424164831638336], [-0.011694595217704773, 0.14078842103481293, 0.029899388551712036, -0.05771500989794731, 0.02851833775639534, 0.21503818035125732, 0.10493697971105576, -0.2860559821128845, -0.017939114943146706, 0.02481214702129364, 0.08004702627658844, -0.04626429080963135, 0.15972408652305603, -0.015401297248899937, -0.19959600269794464, -0.32743921875953674, -0.024421943351626396, 0.1673683375120163, 0.04943554475903511, 0.08115854114294052, 0.26246893405914307, 0.17161822319030762, 0.1950758397579193, 0.07350330054759979, 0.21429453790187836, 0.19013139605522156, -0.13332918286323547, 0.07482050359249115], [-0.09019456058740616, -0.15797710418701172, -0.12481729686260223, -0.12464209645986557, -0.08395832777023315, 0.029221922159194946, -0.17990311980247498, -0.1451130360364914, -0.033517852425575256, -0.08715437352657318, -0.008100166916847229, 0.17269589006900787, -0.11853891611099243, -0.11108628660440445, -0.079269640147686, 0.11113958060741425, 0.10577298700809479, -0.06585098057985306, -0.154014453291893, -0.1416437178850174, 0.06834377348423004, 0.08026371896266937, -0.0008617192506790161, -0.12156327068805695, 0.021952301263809204, 0.09027449786663055, -0.011078208684921265, -0.05728626251220703], [0.1651763767004013, -0.06716285645961761, -0.013889700174331665, -0.15684130787849426, 0.08122862875461578, 0.021911680698394775, -0.030426815152168274, -0.01906360685825348, -0.17578111588954926, -0.08524689078330994, -0.15236710011959076, -0.1462862491607666, 0.14585499465465546, 0.027189046144485474, 0.03599913418292999, 0.020110532641410828, -0.14913788437843323, 0.15348388254642487, -0.12255260348320007, 0.18054081499576569, 0.13956381380558014, 0.02032698690891266, 0.14564566314220428, -0.16463415324687958, -0.16967153549194336, 0.18780745565891266, -0.1607927829027176, 0.11027257144451141], [0.10864387452602386, -0.008154571056365967, -0.03850632905960083, -0.1641361117362976, -0.08173774182796478, -0.08577252179384232, -0.18136300146579742, 0.10321182012557983, 0.1269557625055313, -0.09498370438814163, 0.07755716145038605, -0.059433046728372574, 0.06397362053394318, 0.13965961337089539, -0.05727127194404602, -0.1521797478199005, -0.1891568899154663, 0.08298461139202118, -0.12643137574195862, -0.18481749296188354, -0.035685550421476364, -0.10752817988395691, 0.08921724557876587, 0.0034388480708003044, -0.09943501651287079, 0.08989133685827255, 0.05798251926898956, -0.12445451319217682], [0.16579391062259674, -0.11240093410015106, -0.03023231029510498, 0.0428769588470459, -0.05993594229221344, -0.02331852912902832, -0.03236667811870575, 0.15040011703968048, 0.1339847296476364, -0.18351735174655914, -0.12740235030651093, 0.15850023925304413, -0.03485667705535889, 0.1507451981306076, -0.03355392813682556, 0.004121154546737671, -0.1614467203617096, 0.1481940597295761, 0.04368826746940613, 0.1612067073583603, -0.10037051886320114, -0.15617120265960693, 0.01681588590145111, -0.041195958852767944, -0.06922200322151184, -0.14993488788604736, 0.006610453128814697, -0.09544751793146133], [0.04678606986999512, 0.11396290361881256, 0.08641524612903595, 0.04743177816271782, -0.01568198762834072, 0.018948994576931, 0.05068332329392433, -0.2176976203918457, -0.0897272452712059, 0.04844571650028229, 0.11417989432811737, 0.022497987374663353, 0.01664857193827629, -0.1955675631761551, -0.11123182624578476, -0.19251394271850586, 0.27049607038497925, 0.1573590785264969, -0.021716441959142685, 0.1280573308467865, 0.072666235268116, 0.2200685441493988, 0.028210636228322983, 0.2902739942073822, 0.16704680025577545, 0.08039449155330658, -0.11564460396766663, 0.12947872281074524], [-0.14248204231262207, 0.09009356796741486, -0.07876437157392502, 0.2737863063812256, 0.08865635097026825, 0.05665998533368111, 0.22835829854011536, -0.16255173087120056, 0.2484496682882309, 0.17907173931598663, 0.17232926189899445, 0.2409897893667221, -0.16737915575504303, -0.28842148184776306, -0.017631040886044502, -0.2597370445728302, 0.17629677057266235, 0.2661355435848236, 0.005945135373622179, -0.07638626545667648, 0.2558403015136719, 0.22241277992725372, 0.020947355777025223, 0.19118466973304749, 0.1448458433151245, 0.27344292402267456, -0.058461301028728485, 0.04489504173398018], [-0.06688305735588074, 0.14706267416477203, -0.11880838125944138, -0.19194704294204712, -0.10375414788722992, 0.053647615015506744, 0.10217216610908508, 0.11289435625076294, -0.071883425116539, 0.054719775915145874, 0.1258249431848526, 0.10202286392450333, 0.07590126991271973, -0.17173878848552704, 0.13897930085659027, -0.1651824414730072, 0.11748777329921722, 0.1157735288143158, -0.06023116037249565, 0.13294367492198944, -0.08967207372188568, -0.02686009556055069, -0.20658081769943237, 0.07337319850921631, 0.07521918416023254, -0.16673554480075836, 0.04548101872205734, 0.08239811658859253], [0.11939023435115814, 0.07458119094371796, 0.07793013751506805, -0.1282239556312561, -0.006583019159734249, 0.08664515614509583, 0.16591906547546387, 0.04907459393143654, -0.08639205992221832, -0.08532490581274033, 0.17960168421268463, -0.12685289978981018, 0.04840498045086861, 0.15901772677898407, -0.1693999022245407, 0.09270255267620087, -0.06803534924983978, -0.040085211396217346, -0.08551094681024551, 0.06793640553951263, -0.13941195607185364, 0.1425323784351349, -0.16976624727249146, -0.00374044431373477, 0.07871727645397186, 0.0617135614156723, 0.11388334631919861, -0.16052532196044922], [-0.14069892466068268, -0.003975778818130493, 0.14843304455280304, 0.2706395983695984, 0.2547222077846527, 0.16344742476940155, 0.0012544995406642556, -0.2287062555551529, 0.17211098968982697, 0.04085029661655426, 0.016524262726306915, 0.24873630702495575, -0.11095049977302551, -0.182514488697052, 0.07080784440040588, -0.3141225576400757, 0.22116707265377045, 0.13139280676841736, 0.0795917958021164, 0.06421277672052383, 0.23070399463176727, 0.057844940572977066, 0.26106587052345276, 0.2357553243637085, -0.0020467161666601896, 0.19537818431854248, 0.0331965796649456, 0.13904926180839539], [0.13694526255130768, 0.15294329822063446, -0.01070067286491394, -0.1886122226715088, 0.1573294848203659, -0.030620470643043518, -0.13135680556297302, -0.1266300082206726, -0.15244656801223755, -0.1193200945854187, -0.15860235691070557, 0.18190301954746246, -0.128146693110466, -0.08624566346406937, -0.0502566397190094, 0.14578019082546234, -0.13714724779129028, -0.1679525077342987, 0.052255839109420776, 0.09299071133136749, 0.06686590611934662, -0.12599313259124756, -0.1213604211807251, 0.04205822944641113, -0.07363469153642654, -0.15026727318763733, -0.08793869614601135, 0.12670601904392242], [0.1301908642053604, 0.12983690202236176, 0.061505213379859924, 0.04365551099181175, 0.056631673127412796, 0.09488131105899811, -0.17163684964179993, -0.01796640455722809, -0.13763673603534698, -0.15127819776535034, 0.14570194482803345, -0.09035118669271469, 0.15866048634052277, 0.06328845769166946, -0.12931250035762787, -0.00022900832118466496, 0.06650884449481964, 0.11090012639760971, -0.1982439011335373, -0.16885967552661896, -0.0409366711974144, 0.05030754953622818, 0.05550232529640198, -0.0752721056342125, 0.15203611552715302, -0.1701878309249878, 0.16260285675525665, 0.15675382316112518], [-0.027868956327438354, -0.06657399237155914, -0.14940163493156433, 0.12400226294994354, 0.21758335828781128, 0.12320569157600403, -0.019647162407636642, -0.03281870111823082, 0.042431898415088654, -0.019941136240959167, -0.1272711157798767, 0.19279539585113525, -0.1111067533493042, -0.21167239546775818, -0.23236441612243652, -0.2714497447013855, -0.06231934204697609, 0.230826735496521, -0.07267066836357117, -0.04709140956401825, 0.1632232815027237, -0.049203790724277496, 0.2758983373641968, 0.014834488742053509, 0.2296776920557022, 0.02095383033156395, 0.07260571420192719, -0.04987542703747749], [-0.06936003267765045, -0.02233615517616272, -0.16385924816131592, -0.14154930412769318, -0.08270953595638275, 0.0820019394159317, -0.010018736124038696, -0.008696556091308594, 0.0021369606256484985, -0.14856916666030884, 0.11118347942829132, -0.0294407457113266, 0.05130116641521454, 0.08362998068332672, -0.15662986040115356, -0.060228630900382996, -0.15915656089782715, -0.08983088284730911, -0.16588738560676575, -0.050739288330078125, 0.015008404850959778, 0.0458986759185791, 0.007671266794204712, 0.014204353094100952, -0.07784836739301682, -0.10761233419179916, -0.1126217320561409, 0.1709751933813095], [0.08915497362613678, 0.17160095274448395, -0.019756272435188293, 0.07614918053150177, -0.11561369150876999, -0.18559172749519348, -0.03522908687591553, 0.1351877599954605, -0.004004761576652527, -0.06967421621084213, -0.04341006278991699, -0.15258756279945374, 0.13915030658245087, 0.03005164861679077, -0.057591721415519714, 0.1335611194372177, -0.16756568849086761, -0.13950257003307343, 0.07572509348392487, -0.11178702861070633, -0.0647953674197197, -0.12122710049152374, -0.015992149710655212, 0.18036295473575592, 0.04546858370304108, 0.059010401368141174, 0.18520130217075348, 0.167471781373024], [0.0943085104227066, -0.07514052093029022, 0.14061881601810455, 0.15986168384552002, 0.1153814047574997, -0.09019649028778076, -0.08574516326189041, -0.32687869668006897, 0.026845920830965042, 0.04615813493728638, -0.10331420600414276, -0.033278658986091614, -0.1474645435810089, -0.018535947427153587, -0.09998070448637009, -0.25652286410331726, 0.20619000494480133, 0.16065570712089539, -0.03587714955210686, 0.15210065245628357, 0.12752202153205872, 0.16381056606769562, 0.059839822351932526, 0.0035014303866773844, 0.07124481350183487, -0.0967879593372345, 0.0029017797205597162, 0.0823788121342659], [-0.03768320381641388, 0.17228101193904877, 0.04494835436344147, 0.14849884808063507, 0.1103617399930954, -0.11532627046108246, -0.13284540176391602, -0.18066370487213135, 0.0012552589178085327, -0.06611857563257217, -0.08316327631473541, -0.16852720081806183, -0.06768666952848434, -0.008849918842315674, 0.10617832839488983, -0.01062580943107605, -0.18430861830711365, -0.16611774265766144, -0.05618956685066223, 0.11904649436473846, -0.09337807446718216, 0.10839609801769257, 0.1057673841714859, -0.17923712730407715, -0.1824217289686203, -0.176573246717453, 0.094265416264534, -0.1418972611427307], [-0.05554868280887604, 0.17938406765460968, 0.1716463416814804, 0.01582750305533409, 0.10510079562664032, 0.02274698205292225, -0.19928310811519623, -0.0747702568769455, -0.22821101546287537, 0.04783204197883606, 0.10091002285480499, -0.05866235867142677, 0.023646458983421326, 0.06554944813251495, -0.12085508555173874, -0.1835593283176422, 0.09329485148191452, -0.017882585525512695, -0.010013059712946415, -0.03729729354381561, 0.13894686102867126, -0.14678388833999634, 0.020304227247834206, 0.11881251633167267, -0.07146159559488297, 0.12573111057281494, 0.10592509806156158, 0.1406191885471344], [0.08402650058269501, 0.11928419768810272, -0.09437324851751328, 0.12772896885871887, -0.06532780826091766, -0.071998730301857, 0.055929865688085556, -0.1388222873210907, 0.11602494865655899, 0.03122556209564209, -0.07862825691699982, -0.24300019443035126, 0.07941454648971558, -0.02824016846716404, -0.08023648709058762, 0.20801588892936707, 0.13506031036376953, 0.11630746722221375, -0.04804778844118118, 0.10486277937889099, -0.004186907783150673, -0.06248430535197258, 0.06298400461673737, 0.15396825969219208, 0.0983489379286766, -0.20264479517936707, 0.11999966204166412, -0.2047823965549469], [-0.046616628766059875, 0.09297944605350494, 0.008053287863731384, 0.12654496729373932, 0.0965927317738533, 0.15131434798240662, 0.17600026726722717, 0.09904374182224274, 0.046064622700214386, -0.09059655666351318, -0.1456528604030609, 0.15996572375297546, 0.1835719794034958, 0.09102758765220642, 0.011787984520196915, 0.1636761575937271, 0.0181772131472826, -0.17816027998924255, -0.04263864457607269, -0.18788930773735046, 0.08503146469593048, 0.0850834771990776, -0.03871523588895798, -0.1578647792339325, -0.2335035800933838, -0.2010297179222107, 0.028649162501096725, 0.10004181414842606], [0.1368217021226883, -0.14097009599208832, 0.11487896740436554, 0.058029450476169586, 0.02514088898897171, 0.07912526279687881, 0.10172867774963379, -0.20757567882537842, 0.012243261560797691, -0.08238571137189865, 0.05121896043419838, -0.039783939719200134, 0.03784705698490143, -0.10521744936704636, -0.1971006691455841, -0.15133240818977356, 0.09454958140850067, 0.0449661985039711, 0.16274696588516235, 0.03254782408475876, 0.2882707118988037, 0.05951733514666557, 0.22037459909915924, 0.03784934803843498, -0.034471601247787476, 0.02295166812837124, -0.09015817195177078, -0.06333959102630615], [-0.024600714445114136, -0.1272733509540558, -0.10035339742898941, -0.07326006889343262, -0.13452810049057007, 0.13491123914718628, -0.3389531672000885, 0.08490544557571411, 0.1347569078207016, 0.16255857050418854, 0.03607761487364769, -0.16058386862277985, -0.0032589128240942955, 0.13350574672222137, -0.12144574522972107, 0.02140611968934536, 0.09480587393045425, 0.11412031203508377, -0.13586591184139252, 0.04200390353798866, -0.13309039175510406, 0.17085349559783936, 0.18542802333831787, 0.14086586236953735, -0.13186544179916382, -0.08174964785575867, -0.025295361876487732, 0.16026538610458374], [0.05264177918434143, -0.044812142848968506, 0.03021654486656189, -0.09655091166496277, 0.11518888175487518, 0.139094740152359, -0.04969451576471329, -0.10809054970741272, -0.20456193387508392, -0.1847950518131256, 0.08838774263858795, 0.04843641072511673, -0.17751239240169525, -0.10389140248298645, -0.0388195663690567, -0.17399482429027557, -0.11690382659435272, -0.07115785032510757, -0.02528417482972145, -0.1164943054318428, 0.14654651284217834, -0.12823694944381714, 0.1250455528497696, -0.19349484145641327, 0.022753728553652763, -0.008347488939762115, -0.1363973617553711, -0.00937127135694027], [-0.14470069110393524, -0.08913705497980118, 0.14048214256763458, -0.0038121582474559546, -0.06463196873664856, -0.20236416161060333, -0.042036641389131546, 0.056566428393125534, 0.09979141503572464, -0.1739041805267334, 0.15629012882709503, 0.1727052628993988, 0.1478116363286972, -0.12478423118591309, 0.08779474347829819, 0.07178497314453125, -0.05903386324644089, 0.15986000001430511, -0.06130228936672211, -0.052256762981414795, 0.16456232964992523, -0.11337558925151825, -0.19050967693328857, -0.19695518910884857, -0.07646754384040833, -0.02837904915213585, 0.010030239820480347, 0.1260046362876892], [0.10674001276493073, -0.12138932943344116, -0.05413283407688141, 0.14978298544883728, 0.17382025718688965, 0.012558466754853725, 0.21259208023548126, -0.2964108884334564, 0.12900269031524658, -0.08230609446763992, -0.06822196394205093, 0.3079271614551544, 0.018912438303232193, -0.022821703925728798, -0.11835137754678726, -0.3124861717224121, 0.03517312556505203, 0.15069645643234253, 0.17137427628040314, 0.06501657515764236, 0.13707056641578674, -0.01475899200886488, 0.08374287188053131, 0.1704004406929016, 0.19455458223819733, 0.19626423716545105, -0.025247592478990555, 0.28830763697624207], [0.09233860671520233, 0.04840917885303497, -0.03721867501735687, 0.29002559185028076, 0.2684924304485321, -0.010987067595124245, -0.09286913275718689, -0.25098302960395813, 0.25680607557296753, 0.01531451940536499, -0.13371533155441284, 0.1943056732416153, 0.19536840915679932, -0.04602164030075073, -0.22243952751159668, -0.03871307149529457, 0.1542641967535019, -0.05867992714047432, 0.28314223885536194, 0.02994525618851185, 0.02857138216495514, -0.00024275410396512598, 0.1298246532678604, 0.24227073788642883, 0.08687584102153778, 0.07559256255626678, 0.08031726628541946, 0.03958761692047119]], "critic.network.4.bias": [-0.1779109090566635, 0.1246364489197731, -0.017643794417381287, -0.13378944993019104, -0.15839868783950806, 0.08621177077293396, -0.1159341111779213, 0.17749182879924774, 0.029155926778912544, 0.08633924275636673, 0.039164382964372635, 0.13386301696300507, 0.07145164906978607, -0.12193464487791061, 0.2602156698703766, -0.0528092235326767, -0.016955584287643433, 0.24231383204460144, -0.13272331655025482, -0.09260313212871552, -0.1644274890422821, -0.13216066360473633, 0.27028796076774597, -0.1070127859711647, 0.041943974792957306, -0.013045976869761944, 0.18963143229484558, 0.23695501685142517], "critic.network.6.weight": [[0.13690458238124847, 0.2756767272949219, 0.0969308465719223, -0.11736613512039185, 0.07927833497524261, -0.08516161143779755, -0.08838342875242233, 0.26293736696243286, 0.24293383955955505, -0.13623389601707458, -0.06428234279155731, 0.22013512253761292, -0.155521959066391, 0.15518857538700104, 0.22939197719097137, -0.12601861357688904, -0.145039364695549, 0.08111897110939026, 0.003457501530647278, -0.03343760222196579, -0.13424895703792572, -0.21081237494945526, 0.2636488974094391, -0.1688815951347351, -0.05775779113173485, 0.10467781871557236, 0.2262580543756485, 0.17331165075302124]], "critic.network.6.bias": [0.18216176331043243]}