{"actor.network.0.weight": [[-0.1686772108078003, 0.34232163429260254, -0.05886911600828171, 0.5540424585342407], [-0.30014532804489136, -0.41054847836494446, -0.3892664611339569, -0.09822266548871994], [0.29879894852638245, 0.3468371629714966, 0.3078788220882416, -0.05649014934897423], [0.4873535633087158, 0.4560178220272064, -0.2352190911769867, 0.16390711069107056], [-0.10951103270053864, 0.2234213650226593, 0.377582848072052, 0.678920328617096], [-0.30932801961898804, -0.07661270350217819, -0.27896472811698914, -0.41501736640930176], [0.3697718381881714, -0.20990712940692902, 0.10320565849542618, 0.42333927750587463], [-0.33586686849594116, 0.3031972348690033, -0.5508977770805359, -0.39490967988967896], [-0.033852458000183105, 0.251735657453537, -0.5830838084220886, -0.23034879565238953], [-0.1519014835357666, -0.07928357273340225, 0.37337300181388855, 0.07422727346420288], [-0.11985552310943604, -0.15345565974712372, -0.027092810720205307, -0.30700546503067017], [-0.3701637089252472, 0.3499842882156372, 0.24089042842388153, 0.2924010157585144], [0.004647628869861364, -0.1872938573360443, -0.0011117230169475079, 0.37647953629493713], [0.11494911462068558, 0.1677445024251938, -0.3508914113044739, -0.711232602596283], [-0.05880671739578247, -0.44458630681037903, -0.4372742474079132, -0.24236924946308136], [0.1414022147655487, 0.4172603487968445, 0.2951957583427429, 0.3795429766178131], [-0.19485355913639069, -0.18462644517421722, 0.5789247751235962, 0.5595581531524658], [0.4258134961128235, 0.4807276427745819, -0.28339478373527527, 0.4342241883277893], [0.1134541854262352, 0.4879690706729889, 0.547117292881012, 0.6994315981864929], [0.08108733594417572, -0.523872435092926, 0.1292712539434433, 0.2100403755903244], [0.1921241581439972, 0.037967100739479065, -0.0011106786550953984, 0.34233683347702026], [-0.06956431269645691, 0.17413845658302307, 0.4125185012817383, 0.40213826298713684], [-0.1934724599123001, 0.41688892245292664, -0.06621958315372467, -0.067743219435215], [0.33597543835639954, 0.11204269528388977, -0.37658002972602844, -0.6775389909744263], [0.0152836162596941, -0.3832516670227051, 0.5351347923278809, 0.19061771035194397], [0.44588401913642883, 0.34328493475914, -0.2717474102973938, -0.6103594899177551], [0.5578891634941101, -0.08824719488620758, 0.08846243470907211, -0.4429481625556946], [0.42989790439605713, -0.22496308386325836, -0.436273992061615, -0.28193798661231995]], "actor.network.0.bias": [0.2049945592880249, -0.4776470363140106, -0.005084387958049774, -0.41021600365638733, 0.3579455018043518, 0.04220513626933098, 0.11182066053152084, 0.14335672557353973, 0.48301026225090027, -0.3110148310661316, 0.466220498085022, -0.09048216044902802, 0.5063050389289856, 0.3607011139392853, 0.12384752184152603, -0.4617024064064026, 0.20225808024406433, 0.2833731770515442, 0.3323881924152374, 0.41499418020248413, 0.26770535111427307, -0.48268240690231323, -0.4519160985946655, 0.43395593762397766, 0.16903254389762878, 0.13116374611854553, -0.1697874665260315, -0.007094157859683037], "actor.network.2.weight": [[-0.21212783455848694, 0.19151262938976288, -0.019785890355706215, -0.0037320153787732124, -0.24703292548656464, 0.1689317226409912, -0.005248905159533024, 0.20731759071350098, 0.2567984163761139, -0.005686366464942694, 0.08242162317037582, -0.07662170380353928, 0.06252942979335785, 0.22278131544589996, 0.05490567162632942, -0.05269758403301239, -0.08203372359275818, -0.0472383052110672, -0.2075853794813156, 0.04878406971693039, -0.11472681164741516, 0.07118639349937439, -0.17048752307891846, 0.15007781982421875, 0.23292052745819092, 0.08748747408390045, -0.006658283527940512, 0.25544148683547974], [-0.07852861285209656, 0.09153132140636444, 0.0205598846077919, -0.07457733154296875, 0.013863697648048401, -0.1566130816936493, 0.03237883746623993, 0.006291690282523632, 0.07121597230434418, -0.10437177121639252, 0.08867745101451874, -0.12747541069984436, -0.13479766249656677, 0.10056500136852264, -0.1835080087184906, -0.12169235944747925, -0.055205490440130234, 0.1694856882095337, -0.09968878328800201, 0.17982962727546692, -0.18720005452632904, 0.18564100563526154, 0.08641000092029572, -0.06999460607767105, 0.013911381363868713, -0.08373908698558807, 0.03903048858046532, -0.07989305257797241], [0.2328571379184723, -0.22347107529640198, 0.17029546201229095, 0.06077643483877182, 0.3368992805480957, -0.19244875013828278, 0.1228887289762497, -0.08036878705024719, 0.1626257598400116, 0.0987747311592102, -0.04351881146430969, 0.1591763198375702, 0.11842424422502518, -0.1250046342611313, 0.04531677067279816, 0.02762370929121971, 0.20422793924808502, 0.13930727541446686, 0.16670992970466614, 0.13464511930942535, 0.013065549544990063, -0.16083034873008728, 0.19868820905685425, -0.08030971884727478, -0.011474011465907097, -0.14457495510578156, -0.07422946393489838, -0.2959490418434143], [-0.23453103005886078, 0.09159761667251587, 0.09707418084144592, 0.10350733250379562, -0.07842928171157837, 0.24521176517009735, -0.08527054637670517, 0.23304519057273865, 0.09864888340234756, 0.10972562432289124, 0.19116586446762085, -0.03906407952308655, 0.0635656788945198, 0.2142408788204193, 0.31729042530059814, -0.17240487039089203, -0.10791580379009247, -0.0121748186647892, -0.1619364470243454, 0.02232413925230503, -0.13864149153232574, 0.08891783654689789, -0.17360590398311615, 0.29800286889076233, 0.13114286959171295, 0.1514224261045456, -0.08614247292280197, 0.2658494710922241], [0.3298298716545105, 0.034056585282087326, -0.003834625007584691, 0.14173832535743713, 0.3172714114189148, 0.0642058402299881, 0.2920752763748169, 0.04651379585266113, -0.09391997754573822, -0.03645022213459015, 0.05994676426053047, 0.10162696242332458, 0.046981122344732285, -0.19068238139152527, -0.10844755917787552, -0.1622941642999649, -0.04369165375828743, -0.03757515177130699, 0.1763565093278885, 0.2241445928812027, 0.10904144495725632, 0.1285090148448944, -0.12334644794464111, -0.19592002034187317, 0.25688639283180237, -0.017552044242620468, -0.11185359954833984, -0.24937281012535095], [-0.08114193379878998, 0.027458295226097107, 0.061269551515579224, 0.05612849444150925, -0.14388632774353027, 0.07002753764390945, -0.07602022588253021, 0.011121081188321114, -0.17775268852710724, -0.14086000621318817, -0.07955388724803925, 0.04476769268512726, -0.17182748019695282, 0.15539243817329407, 0.12220291793346405, 0.07828576862812042, -0.022493109107017517, 0.10728916525840759, -0.142061248421669, -0.13488328456878662, 0.10393361747264862, -0.014643773436546326, -0.023305991664528847, 0.08892189711332321, 0.02511170506477356, -0.06565164029598236, -0.11854194104671478, 0.10684699565172195], [-0.10952410101890564, 0.023299112915992737, 0.12856724858283997, -0.0026349166873842478, -0.16237035393714905, -0.03578178584575653, -0.07234290987253189, -0.14563758671283722, -0.11348844319581985, -0.12403734028339386, -0.07239764928817749, -0.016281984746456146, 0.0006465563783422112, -0.0341675728559494, 0.06839434802532196, 0.12847593426704407, -0.07602576911449432, -0.08638640493154526, -0.08350899815559387, 0.1475115567445755, 0.048850417137145996, -0.1867726445198059, -0.019409624859690666, 0.13707855343818665, -0.1751103401184082, 0.14514750242233276, -0.19194567203521729, -0.05238772928714752], [0.21992671489715576, 0.11884268373250961, 0.026621097698807716, -0.06806875765323639, 0.2672858238220215, -0.021939147263765335, 0.007555320393294096, -0.1614646464586258, 0.16359438002109528, 0.09889040887355804, -0.007915453054010868, -0.05437757819890976, 0.17881366610527039, -0.21811360120773315, -0.046411897987127304, -0.014773131348192692, 0.11719491332769394, 0.1073559895157814, 0.23229007422924042, 0.11497431993484497, -0.026705127209424973, -0.11907033622264862, -0.05293379724025726, 0.03337948024272919, 0.23140227794647217, -0.11173787713050842, -0.08505798131227493, -0.288268506526947], [-0.1198442131280899, -0.08748670667409897, 0.08952556550502777, 0.15954621136188507, 0.11075152456760406, -0.017742648720741272, -0.15827135741710663, -0.13441096246242523, -0.12374379485845566, -0.12460426986217499, 0.04405190050601959, 0.17523424327373505, -0.0885336771607399, 0.046778470277786255, 0.10590626299381256, 0.18576066195964813, -0.08026627451181412, -0.06652393192052841, -0.04842190444469452, -0.18712913990020752, -0.10015782713890076, 0.06821723282337189, 0.14667479693889618, -0.10782597213983536, -0.03939297795295715, -0.04877190291881561, -0.17023181915283203, -0.18020352721214294], [-0.07474549859762192, 0.22690005600452423, -0.10179971158504486, -0.1467088907957077, -0.09685147553682327, -0.19564837217330933, 0.11294634640216827, -0.2600099742412567, 0.06996168196201324, 0.18411828577518463, -0.07695813477039337, -0.13673041760921478, 0.18390963971614838, 0.004878626670688391, -0.020026057958602905, 0.11739478260278702, -0.05058089643716812, 0.2182856798171997, -0.056772630661726, 0.14886178076267242, 0.020209554582834244, -0.1243918389081955, -0.18059800565242767, -0.20061130821704865, -0.03281485661864281, -0.14342312514781952, -0.12541192770004272, -0.0986509844660759], [-0.3380785584449768, -0.0974237397313118, -0.0020148386247456074, 0.028021812438964844, -0.2813839912414551, 0.188675194978714, -0.053774867206811905, 0.13658791780471802, 0.1902657449245453, -0.10161013156175613, 0.20470456779003143, 0.05410625413060188, 0.07233144342899323, 0.25316479802131653, 0.21948039531707764, -0.09746349602937698, 0.04205470159649849, -0.016525616869330406, -0.2874901294708252, 0.18287687003612518, 0.017911873757839203, -0.01804107427597046, -0.12948735058307648, 0.2865537405014038, 0.12240243703126907, 0.12460504472255707, -0.004527744837105274, 0.06188620626926422], [0.22799938917160034, 0.047312624752521515, 0.1520320028066635, 0.030338488519191742, 0.013810910284519196, -0.13125182688236237, -0.026080165058374405, -0.1624927967786789, -0.0988611951470375, -0.0718754306435585, 0.1508062332868576, 0.0307833943516016, 0.04093582183122635, -0.08055084943771362, -0.2780545651912689, 0.15264278650283813, 0.15472379326820374, 0.07752858847379684, 0.2173725962638855, -0.14878788590431213, 0.14673534035682678, -0.005531337112188339, 0.19788330793380737, -0.22517822682857513, 0.0654667317867279, -0.159011572599411, -0.1925334930419922, -0.13958640396595], [0.14152313768863678, -0.013820476830005646, -0.07565376162528992, -0.165792316198349, 0.07329397648572922, -0.09814873337745667, -0.09837621450424194, -0.16520024836063385, 0.032850537449121475, -0.18602296710014343, 0.03349477797746658, -0.131337508559227, 0.05599365010857582, -0.10690207034349442, 0.17141708731651306, -0.1847471296787262, -0.1364133507013321, -0.11309392750263214, 0.011136665940284729, -0.06832167506217957, -0.06868015229701996, -0.030432268977165222, 0.024014070630073547, 0.17642977833747864, 0.14810296893119812, -0.038103364408016205, -0.16905130445957184, 0.11281569302082062], [-0.33235061168670654, -0.023345109075307846, 0.0037333436775952578, -0.10778159648180008, -0.21631217002868652, -0.010031729005277157, -0.22340840101242065, 0.3323096036911011, 0.1877385824918747, 0.1130230650305748, 0.23883375525474548, 0.05944420397281647, 0.004370531067252159, 0.400775283575058, 0.3372584581375122, 0.07158565521240234, -0.02004878781735897, 0.07097566872835159, -0.03403743356466293, 0.0041058361530303955, -0.115284763276577, 0.12491405010223389, 0.10509646683931351, 0.25203877687454224, -0.08646752685308456, 0.17426495254039764, 0.21174748241901398, 0.09784818440675735], [-0.2494778037071228, -0.13362783193588257, 0.03374036028981209, 0.2028922438621521, -0.14085406064987183, 0.2751808166503906, -0.25062909722328186, 0.13903512060642242, 0.22778409719467163, 0.14649148285388947, 0.252820760011673, -0.17336046695709229, 0.12966662645339966, 0.14429549872875214, 0.20356981456279755, 0.13169236481189728, -0.22614233195781708, 0.007723870687186718, -0.01209342759102583, -0.017147349193692207, 0.17684459686279297, 0.08936357498168945, 0.13128723204135895, 0.36152660846710205, 0.010944484733045101, 0.07468974590301514, 0.0941946730017662, 0.13863512873649597], [-0.05100085958838463, 0.029378805309534073, 0.10786833614110947, 0.0004950800794176757, -0.056321751326322556, -0.19844216108322144, 0.15479694306850433, -0.17804019153118134, 0.03645806387066841, 0.051049210131168365, 0.1610494703054428, 0.14911913871765137, 0.16006818413734436, -0.05333799496293068, 0.13939771056175232, 0.02741345949470997, 0.10879598557949066, -0.03995175287127495, -0.06727675348520279, 0.1661704182624817, -0.1179509311914444, 0.06058157980442047, 0.041142538189888, -0.07545462250709534, 0.1913064420223236, -0.07068425416946411, -0.08541850745677948, 0.1432240903377533], [0.11609716713428497, 0.017314523458480835, -0.1366802155971527, 0.05583168566226959, -0.17470936477184296, 0.12630246579647064, 0.1342020183801651, 0.07565946877002716, -0.1367032378911972, -0.14475120604038239, -0.08963517844676971, -0.06418076902627945, -0.16572117805480957, -0.09409484267234802, -0.1148567795753479, -0.059630751609802246, 0.0356534868478775, 0.09959067404270172, 0.11513547599315643, -0.16652438044548035, -0.02037021517753601, -0.1803382784128189, -0.05876101553440094, 0.10369648039340973, -0.013044804334640503, -0.14786580204963684, 0.13067780435085297, -0.05694001913070679], [-0.16343724727630615, 0.13031458854675293, -0.14651669561862946, -0.07296422868967056, 0.050805456936359406, 0.12304351478815079, -0.06124972179532051, 0.15756100416183472, -0.12202528119087219, -0.1342640519142151, 0.0410894900560379, -0.07757127285003662, 0.16381657123565674, -0.07270841300487518, -0.050574786961078644, -0.17187875509262085, 0.13727962970733643, -0.19449454545974731, 0.058563534170389175, -0.1910921335220337, -0.09021374583244324, -0.06452992558479309, 0.10881125181913376, 0.05138478800654411, -0.004774701315909624, 0.06406478583812714, -0.1652180254459381, -0.04290094971656799], [0.18613550066947937, 0.07669246196746826, 0.13558894395828247, 0.203464075922966, 0.2680523097515106, -0.011717010289430618, 0.27178630232810974, 0.17461642622947693, 0.2553551197052002, 0.04911591112613678, -0.0570271834731102, 0.016978763043880463, 0.12501630187034607, 0.0015110496897250414, -0.07610129565000534, -0.0728752613067627, -0.009223144501447678, 0.0788583755493164, 0.33911076188087463, 0.15428075194358826, 0.05364011973142624, 0.16940101981163025, -0.11960213631391525, 0.1847350150346756, 0.254893958568573, -0.12310006469488144, 0.060534898191690445, 0.024671077728271484], [0.11140081286430359, -0.1011822447180748, -0.007577816024422646, 0.1019304096698761, 0.055702921003103256, -0.08991043269634247, -0.04149418696761131, 0.13038012385368347, -0.11246579140424728, 0.0045010242611169815, -0.1594044268131256, 0.06534051150083542, 0.15660342574119568, -0.08339008688926697, -0.09664066135883331, -0.08589876443147659, -0.09030062705278397, -0.14636650681495667, 0.17316359281539917, -0.1490315943956375, -0.1636301875114441, 0.14564794301986694, 0.029980719089508057, -0.17764230072498322, -0.11104048043489456, 0.06873161345720291, -0.04800642654299736, -0.15638673305511475], [0.2985859811306, 0.07487314194440842, -0.11045948415994644, -0.002589513547718525, 0.3215789794921875, -0.1656573861837387, 0.017883405089378357, 0.07921198010444641, -0.01165065448731184, -0.1848132610321045, 0.08232684433460236, -0.07750831544399261, -0.014439296908676624, 0.07514868676662445, -0.33686181902885437, -0.154579758644104, 0.09022536873817444, 0.1670050024986267, 0.38563475012779236, 0.12677843868732452, 0.1698853075504303, -0.04189667850732803, -0.13710559904575348, -0.16359439492225647, -0.02980906330049038, 0.1017245426774025, 0.030079614371061325, -0.00015583565982524306], [0.2554827630519867, 0.11701655387878418, 0.09005121886730194, -0.13835501670837402, 0.2509092688560486, -0.016042308881878853, 0.07354789972305298, -0.12305768579244614, -0.008033227175474167, -0.09053506702184677, 0.14385081827640533, -0.02683187462389469, 0.16721491515636444, -0.013149893842637539, -0.1894044429063797, 0.08098854869604111, 0.08004987239837646, 0.17554964125156403, 0.14633183181285858, 0.11691699922084808, -0.08505629003047943, 0.08238735795021057, -0.06505756825208664, -0.17847013473510742, -0.16948026418685913, 0.009917406365275383, 0.04405035823583603, -0.08761239051818848], [0.17902469635009766, -0.07726557552814484, 0.1305818408727646, -0.0533682256937027, -0.07619518786668777, 0.06707032769918442, -0.07138903439044952, -0.034516505897045135, 0.11555466055870056, 0.04735996574163437, -0.14708375930786133, 0.015231788158416748, 0.08548171073198318, -0.0016248330939561129, 0.02548064850270748, 0.10599693655967712, 0.11028779298067093, -0.05070359259843826, -0.1487407386302948, -0.12933160364627838, -0.03694608062505722, 0.05261528491973877, 0.13356679677963257, -0.08931518346071243, -0.14506211876869202, -0.2114957571029663, 0.09615182876586914, 0.01379972230643034], [0.016578031703829765, -0.16150881350040436, -0.11583548039197922, 0.16388146579265594, -0.18925048410892487, 0.08850733190774918, 0.042488858103752136, 0.038042206317186356, 0.07952675968408585, 0.182346373796463, -0.0233443733304739, 0.05631959065794945, -0.045743100345134735, 0.132552370429039, -0.06117203086614609, -0.018056660890579224, -0.00840169470757246, -0.037028804421424866, -0.04946503788232803, 0.12346404045820236, 0.17568616569042206, -0.10697635263204575, -0.08027835190296173, -0.168046236038208, 0.018052004277706146, 0.07289297878742218, -0.1868394911289215, -0.18628525733947754], [0.13840514421463013, 0.09214679896831512, -0.15917448699474335, 0.07841341197490692, -0.13888658583164215, 0.1666082739830017, 0.14170502126216888, -0.12880335748195648, -0.06228801980614662, 0.18242505192756653, 0.0490596666932106, -0.15014483034610748, -0.1833699643611908, 0.09494996070861816, 0.149128258228302, -0.02506619691848755, -0.014558766037225723, -0.04998055845499039, -0.1114950031042099, -0.04800974950194359, -0.17698357999324799, 0.10921360552310944, 0.07144707441329956, -0.1716834455728531, -0.1361110806465149, -0.12806493043899536, 0.02962651476264, 0.1445242464542389], [-0.12013424932956696, -0.0738256648182869, 0.16997234523296356, -0.011168569326400757, -0.0463908314704895, -0.18089082837104797, -0.14478057622909546, 0.06210087239742279, 0.09685198962688446, 0.008557289838790894, -0.16420556604862213, 0.08927838504314423, -0.05804550647735596, -0.11629544198513031, -0.07484893500804901, -0.1498536467552185, 0.14758868515491486, 0.16559423506259918, -0.12752535939216614, -0.12699638307094574, 0.05590003728866577, -0.13636347651481628, 0.16344307363033295, -0.18743108212947845, -0.1795910894870758, -0.10772628337144852, -0.08130846917629242, 0.09837619960308075], [-0.185510516166687, -0.06752563267946243, -0.1302046775817871, 0.07048855721950531, 0.0226668119430542, -0.07158539444208145, 0.03865739703178406, 0.10720978677272797, -0.04831543564796448, 0.00910252332687378, 0.020099669694900513, 0.039168938994407654, -0.0167790949344635, -0.07992569357156754, 0.01799963414669037, -0.07477299124002457, -0.0501406192779541, -0.03980085253715515, 0.1877077966928482, 0.04354240000247955, -0.160930335521698, -0.026448547840118408, -0.1133895218372345, 0.09207217395305634, -0.07755766063928604, 0.07382704317569733, -0.11189775913953781, 0.1031508594751358], [0.2860438823699951, 0.06981265544891357, -0.18064232170581818, -0.1310928463935852, 0.2886289060115814, -0.048940714448690414, 0.0883064717054367, 0.031328845769166946, 0.06778430938720703, -0.12185856699943542, 0.08115249127149582, 0.2179672122001648, 0.12618103623390198, -0.30131831765174866, -0.28065234422683716, -0.030371462926268578, 0.03378932178020477, 0.11989428848028183, 0.3392389416694641, -0.05652838572859764, -0.09447025507688522, -0.15883100032806396, 0.06875022500753403, -0.0599876269698143, 0.07378258556127548, 0.03464258462190628, 0.06509391218423843, -0.04817168787121773]], "actor.network.2.bias": [0.22207768261432648, -0.12418492883443832, -0.07489844411611557, 0.08530890941619873, 0.150064617395401, -0.16262692213058472, -0.17430061101913452, 0.02583165466785431, -0.08892422914505005, 0.08194385468959808, 0.03622249513864517, 0.2561744153499603, -0.1808161437511444, 0.18349596858024597, 0.015364021994173527, 0.06247607246041298, -0.12599223852157593, -0.1458967924118042, 0.16785085201263428, 0.07426287978887558, 0.024554602801799774, -0.04182939603924751, 0.06696359813213348, -0.13312554359436035, 0.08547107875347137, -0.10543732345104218, -0.14724579453468323, 0.13909615576267242], "actor.network.4.weight": [[0.3107035756111145, -0.1340835839509964, -0.21101468801498413, 0.22984102368354797, -0.004183253273367882, 0.10649137943983078, 0.04421297833323479, 0.09930377453565598, -0.1771596223115921, 0.06955158710479736, 0.1555538922548294, -0.3112444579601288, 0.12770916521549225, 0.343103289604187, 0.3865513801574707, 0.011064854450523853, -0.05460503697395325, -0.08857604116201401, 0.16197580099105835, 0.11648966372013092, -0.2847260534763336, -0.052751898765563965, 0.0325746014714241, -0.10448318719863892, -0.14901557564735413, -0.026890039443969727, 0.07858149707317352, -0.15046529471874237], [-0.12857718765735626, -0.1826886534690857, 0.12571057677268982, 0.036346908658742905, -0.16009964048862457, 0.0660734474658966, 0.14201267063617706, -0.12555237114429474, 0.124447301030159, -0.15656134486198425, 0.16639819741249084, -0.12256449460983276, -0.1612032949924469, 0.12428911030292511, -0.13065044581890106, -0.07325327396392822, 0.04360713064670563, -0.017807045951485634, 0.07577499002218246, -0.01211484707891941, 0.15048816800117493, -0.12600049376487732, -0.08511390537023544, 0.13635042309761047, 0.00892559066414833, -0.11158713698387146, -0.010752484202384949, -0.055317580699920654], [-0.03800422325730324, 0.11897297948598862, 0.002771902596578002, -0.09574653208255768, -0.0701664537191391, 0.11323796212673187, 0.18351614475250244, -0.06377043575048447, 0.1546436995267868, 0.14645607769489288, -0.0005368329002521932, 0.15872184932231903, -0.004852622747421265, -0.19337478280067444, -0.12808384001255035, -0.10356571525335312, -0.0311288982629776, 0.17880487442016602, -0.08347520232200623, 0.07009481638669968, -0.09920063614845276, -0.1491987705230713, 0.07517736405134201, 0.03397931158542633, -0.10011308640241623, 0.1330934315919876, -0.011276930570602417, 0.0948704183101654], [-0.018690215423703194, -0.08913349360227585, 0.02442585490643978, -0.08663088083267212, -0.018251677975058556, -0.04728919267654419, -0.0440991073846817, -0.11332967877388, -0.0014637857675552368, -0.10468924790620804, -0.020884059369564056, 0.05847461521625519, 0.11599786579608917, 0.0373455286026001, 0.1780211180448532, 0.04310180991888046, 0.062152519822120667, 0.13924016058444977, -0.17627502977848053, 0.17755569517612457, 0.02012292668223381, 0.054033033549785614, -0.018102269619703293, 0.10964156687259674, 0.18773742020130157, -0.17326204478740692, -0.07121099531650543, 0.07691815495491028], [0.0925925225019455, 0.06688562035560608, 0.24110350012779236, 0.04636595398187637, 0.28842660784721375, 0.18257904052734375, 0.06589233875274658, 0.16802875697612762, -0.09910527616739273, -0.08479821681976318, -0.23024198412895203, 0.12047446519136429, 0.04151912033557892, 0.023800211027264595, -0.18163034319877625, 0.1293143332004547, 0.1364053338766098, 0.07869207859039307, 0.0728037878870964, -0.15667840838432312, 0.282353013753891, 0.10104148834943771, 0.06522037833929062, -0.002327375113964081, 0.02874631993472576, 0.04764828085899353, 0.06608019769191742, -0.00995252002030611], [-0.0524042584002018, 0.13340230286121368, -0.09936167299747467, -0.211417555809021, 0.009390046820044518, 0.0009024739265441895, -0.05191812664270401, 0.012373799458146095, 0.0013461858034133911, 0.028279852122068405, 0.09983359277248383, 0.0024103091564029455, -0.1408262848854065, 0.06888295710086823, 0.07046517729759216, 0.029703086242079735, 0.12743507325649261, 0.16792625188827515, -0.06730389595031738, 0.04503433778882027, 0.10852598398923874, -0.01016024686396122, -0.1364843249320984, 0.038371577858924866, 0.17040109634399414, 0.06705157458782196, 0.035071954131126404, 0.11930955201387405], [-0.031465817242860794, -0.05434785038232803, 0.08276554197072983, -0.027829699218273163, 0.11003400385379791, 0.12418274581432343, 0.05602791905403137, 0.08378990739583969, 0.025326058268547058, -0.042189355939626694, -0.2541562616825104, 0.18233200907707214, -0.005035044625401497, -0.18666955828666687, -0.12489635497331619, -0.03284383565187454, -0.062424346804618835, -0.03904208540916443, 0.19385671615600586, 0.1289501041173935, 0.08885309845209122, 0.15598197281360626, 0.19361579418182373, -0.18875375390052795, -0.004534097854048014, -0.11775997281074524, -0.040068626403808594, 0.16988439857959747], [0.08888835459947586, 0.12614884972572327, 0.052385151386260986, -0.21742379665374756, 0.14576680958271027, 0.10977421700954437, 0.041185587644577026, -0.0469774529337883, -0.08473848551511765, 0.0819782018661499, -0.08845250308513641, 0.12333075702190399, 0.06155650317668915, 0.04880773648619652, -0.057004839181900024, -0.03465338051319122, -0.042186275124549866, 0.061785776168107986, -0.2139771580696106, 0.014923198148608208, -0.05067569017410278, -0.040234193205833435, 0.06551320105791092, -0.06460412591695786, -0.024070467799901962, 0.06878606975078583, 0.05888926982879639, 0.03349551931023598], [-0.01142860110849142, -0.06899936497211456, -0.19442665576934814, 0.2666003406047821, -0.14613677561283112, -0.07529566437005997, 0.11917877197265625, -0.1535201072692871, 0.0519770085811615, -0.03536893054842949, 0.39763203263282776, -0.06474709510803223, 0.058107730001211166, 0.3032256066799164, 0.3321896493434906, -0.08090449124574661, -0.17818818986415863, 0.048204440623521805, -0.009423368610441685, -0.19236531853675842, 0.0021960167214274406, 0.04037337377667427, -0.16986770927906036, 0.013018623925745487, -0.021255575120449066, 0.07864908874034882, -0.09005112200975418, 0.008840985596179962], [-0.006245829630643129, 0.13204286992549896, 0.16849489510059357, -0.16938768327236176, 0.19241952896118164, 0.13229699432849884, 0.00020151544595137239, 0.22296471893787384, -0.025551870465278625, -0.047135498374700546, -0.1400846689939499, 0.26824620366096497, 0.13878609240055084, -0.1645619422197342, 0.06079275161027908, -0.04348642751574516, -0.10551977902650833, -0.02115670219063759, 0.01233187597244978, 0.19050158560276031, 0.26043352484703064, 0.34162697196006775, -0.1631142944097519, 0.026360221207141876, -0.1398584246635437, -0.15297852456569672, -0.06529786437749863, 0.22452746331691742], [0.07194920629262924, 0.08550375699996948, 0.20063742995262146, -0.2769649922847748, 0.1615094095468521, 0.10756728798151016, -0.02524937130510807, 0.32321473956108093, 0.16691924631595612, -0.019588528200984, -0.11522089689970016, 0.3988399803638458, 0.00012312590843066573, -0.22261667251586914, -0.03597430884838104, 0.02283347211778164, -0.010154783725738525, -0.15100568532943726, 0.03545726463198662, 0.10499367117881775, 0.31814613938331604, 0.3169991075992584, -0.10284557193517685, -0.006155500654131174, 0.04671735689043999, 0.026911675930023193, -0.026763111352920532, 0.34927597641944885], [0.06008480489253998, -0.015542307868599892, 0.0517612099647522, -0.2707664370536804, -0.0629110038280487, 0.13242626190185547, -0.15978609025478363, 0.13587971031665802, 0.08087189495563507, 0.14084576070308685, 0.037583041936159134, 0.25305303931236267, 0.15501832962036133, 0.029093146324157715, -0.2105518877506256, -0.04543367028236389, -0.1292823851108551, 0.036579348146915436, 0.12366848438978195, -0.02137135900557041, 0.2791105806827545, 0.2386402189731598, -0.16267770528793335, -0.11175253987312317, -0.1373024582862854, -0.0331224650144577, 0.027361571788787842, 0.11232835799455643], [-0.02369292639195919, -0.13197097182273865, 0.17766503989696503, -0.18342679738998413, 0.2416851967573166, -0.17767877876758575, 0.013683876022696495, 0.13019883632659912, 0.09296919405460358, 0.06547945737838745, 0.00514996238052845, 0.1857241839170456, -0.07996422052383423, -0.1437615007162094, -0.17104338109493256, -0.09005094319581985, 0.05221407115459442, -0.06975965201854706, 0.22401049733161926, 0.06396067887544632, 0.33837220072746277, 0.20945224165916443, 0.07161952555179596, 0.039108756929636, 0.18522600829601288, -0.07586516439914703, 0.020843371748924255, 0.2546839416027069], [-0.007345755584537983, -0.06494583934545517, 0.1809411495923996, -0.21976348757743835, -0.04777038097381592, -0.027518682181835175, 0.028478719294071198, 0.1775629222393036, -0.16279087960720062, -0.13790269196033478, -0.0947255790233612, 0.2539650797843933, 0.0616796612739563, -0.01812458410859108, 0.06123583763837814, 0.012370341457426548, -0.003824383020401001, -0.0990685522556305, 0.14381182193756104, -0.05831226333975792, -0.002669818000867963, 0.12900003790855408, 0.09428206086158752, -0.14550809562206268, 0.0490320585668087, 0.030904576182365417, 0.07651613652706146, 0.1457129716873169], [-0.148733451962471, 0.18881165981292725, 0.15719109773635864, 0.030182799324393272, -0.04488321766257286, -0.03704848885536194, -0.02188468910753727, -0.06356693059206009, 0.1103084534406662, 0.19372732937335968, -0.09713546931743622, 0.2167792022228241, 0.01772010512650013, 0.07719971239566803, 0.057992517948150635, 0.09689929336309433, 0.004153028130531311, -0.14837607741355896, -0.11337045580148697, -0.14167529344558716, 0.05057813227176666, 0.2193489670753479, 0.07959602773189545, 0.16685710847377777, 0.1710028350353241, -0.01217643916606903, -0.013954028487205505, -0.015589757822453976], [0.070697121322155, -0.08100241422653198, 0.05396682024002075, -0.09159678965806961, 0.01532143447548151, -0.14858876168727875, -0.07375936955213547, -0.14933431148529053, -0.15517164766788483, -0.034606434404850006, 0.12003277242183685, 0.1208307072520256, 0.031429558992385864, -0.19531899690628052, 0.11770470440387726, 0.09246735274791718, 0.1700924187898636, -0.16459253430366516, -0.17439252138137817, 0.14329805970191956, 0.1373990774154663, 0.17489831149578094, 0.05540375038981438, -0.06850920617580414, 0.0661637932062149, 0.16480861604213715, -0.03426255285739899, -0.003981871996074915], [-0.10346415638923645, -0.1395924687385559, -0.14280973374843597, -0.13351477682590485, 0.09259145706892014, 0.06938940286636353, -0.02863391488790512, -0.1839185506105423, 0.05849117040634155, -0.021670332178473473, 0.1542411595582962, 0.039260972291231155, 0.1344078928232193, 0.04284203052520752, -0.00027796707581728697, 0.017217392101883888, 0.042536839842796326, 0.13946959376335144, 0.07029370963573456, -0.01960039511322975, 0.09033665060997009, -0.04967682436108589, 0.12996511161327362, -0.14448094367980957, -0.050237782299518585, 0.03135961294174194, -0.02821841835975647, 0.003728314070031047], [0.041389573365449905, 0.09378032386302948, -0.1427849680185318, 0.33861562609672546, 0.02097611501812935, 0.06713692843914032, 0.1669357270002365, -0.050893597304821014, 0.07251055538654327, 0.14075596630573273, 0.3984307050704956, -0.017931722104549408, -0.16231447458267212, 0.35505399107933044, 0.07542437314987183, 0.23038262128829956, -0.04558825492858887, -0.12908907234668732, 0.03442370146512985, 0.04540720582008362, -0.2363993376493454, -0.031257033348083496, -0.01944921724498272, -0.043805163353681564, -0.0817442387342453, 0.013920292258262634, -0.1779288798570633, -0.23596563935279846], [-0.01297035813331604, 0.17094238102436066, -0.004795148968696594, -0.15668438374996185, -0.13906072080135345, 0.10893167555332184, -0.18480095267295837, -0.1551549732685089, -0.096546970307827, 0.10234133899211884, -0.07423095405101776, -0.08633314073085785, 0.17371486127376556, 0.07941092550754547, 0.005127519369125366, 0.02644750475883484, -0.16631101071834564, -0.11376719176769257, 0.04397799074649811, 0.03224898874759674, -0.09169502556324005, -0.17146776616573334, -0.03228667378425598, 0.11819164454936981, 0.1582331508398056, -0.019564896821975708, 0.08724994957447052, 0.05938991904258728], [-0.13649815320968628, -0.1568116694688797, 0.30875736474990845, -0.08583153784275055, 0.13867159187793732, -0.15442721545696259, 0.1411312371492386, 0.18273808062076569, -0.027182266116142273, 0.1744670867919922, -0.007771038915961981, 0.23368099331855774, -0.034285932779312134, -0.21116916835308075, 0.021944519132375717, -0.04003005847334862, -0.030426159501075745, 0.06539744138717651, 0.17207075655460358, -0.10511476546525955, 0.08132658153772354, 0.020704129710793495, 0.13341471552848816, -0.16084632277488708, -0.13909578323364258, -0.04037117958068848, -0.057881325483322144, 0.1775931417942047], [0.03640523552894592, -0.074177086353302, -0.08232095837593079, -0.08859310299158096, -0.07841061055660248, -0.06035053730010986, 0.10267530381679535, -0.18024568259716034, -0.1092994213104248, -0.019793957471847534, -0.03920482099056244, -0.07204270362854004, -0.017619475722312927, 0.10518328845500946, 0.010674983263015747, -0.03444206714630127, -0.15108302235603333, -0.05433599650859833, -0.12780964374542236, -0.102999746799469, -0.1389366090297699, -0.12612304091453552, -0.0945349782705307, -0.038238123059272766, 0.18278999626636505, 0.10515229403972626, -0.058056533336639404, 0.16873066127300262], [-0.12999461591243744, -0.026604726910591125, -0.17620259523391724, -0.12904614210128784, -0.14041490852832794, -0.06309494376182556, -0.1253703087568283, 0.06696245074272156, -0.03961709141731262, 0.13626542687416077, -0.018270015716552734, 0.15100078284740448, -0.1566968560218811, -0.1714087426662445, -0.07675900310277939, 0.011953447945415974, 0.028740063309669495, 0.07178711891174316, 0.04302264750003815, -0.21203479170799255, 0.008315149694681168, -0.015294278040528297, -0.06017672270536423, -0.028777584433555603, -0.07275396585464478, 0.12739308178424835, 0.0504927784204483, 0.1312798708677292], [-0.05581225827336311, 0.07532693445682526, 0.15107063949108124, 0.04517369717359543, -0.17980347573757172, 0.02632017433643341, 0.04158744215965271, 0.11405190825462341, 0.06278039515018463, -0.0019079233752563596, -0.10559353232383728, 0.0345064252614975, -0.1584845781326294, 0.05611695349216461, 0.06915747374296188, 0.02555437758564949, -0.019823268055915833, 0.12585601210594177, -0.19489452242851257, -0.10895052552223206, -0.15633229911327362, 0.007085150107741356, -0.1157073825597763, -0.16482314467430115, 0.07981942594051361, 0.16887961328029633, 0.16764472424983978, 0.12695622444152832], [0.12726247310638428, -0.1529044359922409, -0.13942556083202362, 0.03713121637701988, -0.13764896988868713, 0.04875090718269348, 0.07510754466056824, 0.13006970286369324, 0.0721634179353714, -0.04424023628234863, -0.11575900763273239, -0.059488896280527115, -0.14681848883628845, -0.11707605421543121, -0.0680132657289505, -0.12020742148160934, 0.06211061775684357, -0.1513397991657257, -0.1437583714723587, 0.033539313822984695, 0.02867680974304676, 0.11098994314670563, -0.14120185375213623, 0.11737428605556488, -0.06531471759080887, -0.11879110336303711, -0.16616514325141907, 0.07086852937936783], [0.2778472304344177, -0.11451762169599533, -0.17675115168094635, 0.2491557002067566, 0.0952179953455925, -0.11387133598327637, 0.16510730981826782, 0.14144690334796906, 0.06634621322154999, -0.01801132597029209, 0.10089004784822464, -0.24588987231254578, 0.15057341754436493, 0.18685664236545563, 0.25608012080192566, -0.02837431989610195, 0.10867516696453094, -0.09088780730962753, 0.1037650853395462, -0.05649517849087715, -0.29639047384262085, -0.17566511034965515, 0.1333649903535843, -0.058796368539333344, 0.020980972796678543, 0.053488701581954956, 0.0028037577867507935, -0.08910335600376129], [0.31782546639442444, -0.17118331789970398, -0.2519681453704834, -0.050953321158885956, -0.2053317129611969, -0.1433093547821045, -0.16549555957317352, -0.1269427388906479, -0.1208806112408638, 0.11171163618564606, 0.34020349383354187, -0.3146611452102661, -0.10633827745914459, 0.181875541806221, 0.3001531660556793, 0.18902631103992462, -0.10406684875488281, 0.027143999934196472, 0.13997085392475128, -0.05697178468108177, -0.03390239551663399, 0.0013790903612971306, 0.11613021045923233, -0.10561604797840118, -0.1702025979757309, 0.16699333488941193, -0.025077059864997864, 0.016047021374106407], [-0.08640539646148682, -0.01140183862298727, 0.09116369485855103, -0.16605427861213684, 0.18415910005569458, -0.015446499921381474, -0.049654364585876465, 0.06934109330177307, -0.06972294300794601, 0.12236565351486206, -0.35757431387901306, 0.06526479125022888, 0.16258984804153442, -0.1096009910106659, -0.13539819419384003, 0.1535027176141739, -0.013965487480163574, 0.006095133256167173, 0.19198162853717804, -0.05845954641699791, 0.1015566885471344, 0.1475135236978531, 0.14968807995319366, -0.14990028738975525, 0.04050201177597046, -0.1626218855381012, 0.07751981914043427, 0.0016503359656780958], [-0.19579219818115234, -0.06294834613800049, 0.2652725875377655, -0.16180439293384552, 0.08376111090183258, 0.04108342528343201, 0.07169552892446518, 0.21457526087760925, 0.10619764029979706, -0.06547503918409348, -0.16239649057388306, 0.20522379875183105, 0.10578962415456772, -0.08042225241661072, 0.05637998878955841, 0.10914373397827148, 0.016674920916557312, -0.10916082561016083, 0.2546129524707794, -0.11733900010585785, 0.2688842713832855, 0.12329073250293732, 0.16640761494636536, -0.051749907433986664, -0.06325173377990723, 0.026638418436050415, -0.18180228769779205, 0.124275803565979]], "actor.network.4.bias": [0.03906593099236488, 0.03633023798465729, 0.08643080294132233, -0.11673012375831604, -0.029000282287597656, -0.05485051870346069, 0.1415751725435257, -0.003047409700229764, 0.17819446325302124, 0.037198249250650406, 0.09841065853834152, 0.028487151488661766, 0.018571719527244568, -0.014871844090521336, 0.08748237043619156, -0.04210086539387703, -0.034374821931123734, 0.09323351830244064, 0.008384674787521362, 0.04060422629117966, -0.09531453251838684, -0.06794679164886475, -0.0016319032292813063, 0.12363697588443756, 0.012570289894938469, 0.16168706119060516, 0.2607448697090149, -0.018983501940965652], "actor.network.6.weight": [[0.23000377416610718, 0.09238552302122116, 0.0017336730379611254, 0.10714875161647797, -0.052800390869379044, 0.04218149557709694, -0.32611754536628723, 0.05028480663895607, 0.3655830919742584, -0.15241047739982605, -0.3278856575489044, 0.08838539570569992, -0.29255592823028564, 0.02419278211891651, -0.0632397010922432, 0.1888168603181839, -0.004516704473644495, 0.10810771584510803, 0.07586328685283661, -0.22191491723060608, -0.012483954429626465, 0.04888513684272766, -0.04912009462714195, -0.09805388003587723, 0.14986906945705414, 0.16952866315841675, -0.27465885877609253, -0.25611409544944763], [-0.3870284855365753, -0.09410542249679565, -0.09431513398885727, 0.08444713056087494, 0.12388791143894196, -0.16373702883720398, 0.023314647376537323, 0.019042372703552246, -0.16286921501159668, 0.2673256993293762, 0.08183139562606812, 0.2248983532190323, 0.33221399784088135, 0.25072652101516724, -0.015671204775571823, -0.011520992033183575, 0.018730729818344116, -0.43022632598876953, 0.10710875689983368, 0.16839247941970825, -0.010626643896102905, -0.03496783971786499, -0.11259554326534271, -0.07606963068246841, -0.08578719943761826, -0.31216028332710266, 0.11243098974227905, 0.2174757719039917]], "actor.network.6.bias": [-0.0019686915911734104, -0.11503086984157562], "critic.network.0.weight": [[-0.0709013119339943, -0.3886624276638031, -0.0783403292298317, -0.13874265551567078], [-0.43934914469718933, 0.3916375935077667, -0.3190164566040039, 0.18065328896045685], [0.2551251947879791, 0.38108691573143005, 0.2949747145175934, -0.4447769820690155], [-0.3814002573490143, -0.14779610931873322, -0.36127856373786926, -0.007939319126307964], [0.5932103395462036, 0.03775972127914429, 0.42163360118865967, -0.08888132125139236], [-0.2799258232116699, 0.25922518968582153, -0.2665078639984131, 0.4038017690181732], [-0.5043205618858337, 0.3598654866218567, 0.4010849595069885, 0.07533719390630722], [0.13876166939735413, 0.38048386573791504, 0.49970465898513794, 0.37995949387550354], [-0.12362155318260193, 0.01846049353480339, 0.37279316782951355, -0.4809968173503876], [0.08670838177204132, 0.22362308204174042, -0.4557593762874603, 0.13599348068237305], [-0.19574058055877686, -0.3087022006511688, 0.07630432397127151, -0.12759332358837128], [0.10266893357038498, -0.5200439691543579, -0.6631070375442505, -0.4825606644153595], [-0.2548713982105255, -0.15090696513652802, 0.11389384418725967, -0.1502387523651123], [-0.3987482488155365, 0.26902520656585693, -0.7085475921630859, -0.30561092495918274], [0.3626854121685028, 0.25944018363952637, 0.22477583587169647, -0.4286421537399292], [0.21775195002555847, -0.40317362546920776, -0.41187047958374023, -0.32588788866996765], [0.11240477859973907, 0.31735819578170776, -0.38529670238494873, -0.15742942690849304], [0.17216035723686218, -0.14423289895057678, -0.4404567778110504, 0.33329495787620544], [-0.043772369623184204, 0.30080533027648926, 0.1141166239976883, 0.5499712228775024], [-0.1697940081357956, -0.42670729756355286, -0.018243130296468735, 0.2905397415161133], [-0.23189190030097961, 0.1634049415588379, -0.514259397983551, 0.4211592674255371], [-0.15941886603832245, 0.23583939671516418, 0.09562554955482483, 0.24682486057281494], [0.36724257469177246, -0.13268224895000458, -0.4293578565120697, 0.37515974044799805], [-0.23781564831733704, 0.28543633222579956, 0.18227556347846985, 0.5462682843208313], [0.2847413718700409, -0.22273921966552734, -0.01977303810417652, -0.17074072360992432], [-0.25900188088417053, 0.0891183465719223, 0.2010253667831421, -0.23117807507514954], [-0.07978709042072296, 0.21748729050159454, -0.40447095036506653, -0.28003618121147156], [0.17485517263412476, 0.2055380940437317, 0.16891664266586304, 0.10457638651132584]], "critic.network.0.bias": [0.23123377561569214, 0.35349738597869873, 0.14388743042945862, 0.5807063579559326, -0.062452398240566254, 0.46003231406211853, 0.2913656532764435, -0.3456805646419525, -0.4334312379360199, 0.49461600184440613, 0.3601832985877991, -0.11872891336679459, 0.018998458981513977, -0.13915832340717316, -0.30402636528015137, 0.4273824393749237, 0.30427220463752747, 0.383199006319046, -0.3487679660320282, 0.12239362299442291, 0.13669337332248688, 0.44066473841667175, 0.15627849102020264, -0.3403438329696655, 0.323016494512558, -0.24808038771152496, 0.45904603600502014, 0.5745655298233032], "critic.network.2.weight": [[0.01662648655474186, 0.22158807516098022, 0.0354880690574646, -0.024966657161712646, 0.25631770491600037, 0.022105548530817032, 0.2262505739927292, 0.2239212989807129, -0.004245654679834843, 0.12463195621967316, 0.14890599250793457, -0.08495734632015228, -0.16421851515769958, 0.17829039692878723, 0.114594966173172, -0.6408149003982544, -0.15644438564777374, 0.17882658541202545, 0.26129835844039917, -0.04894323647022247, 0.020739231258630753, -0.07418348640203476, 0.21915829181671143, 0.2291364073753357, -0.29218825697898865, -0.11125203222036362, 0.06356148421764374, 0.2415299266576767], [0.05819805711507797, 0.004462150856852531, 0.18956196308135986, 0.09482669830322266, -0.11944180727005005, 0.18928983807563782, 0.1356864869594574, -0.25970619916915894, -0.11366922408342361, 0.18858857452869415, 0.23553012311458588, -0.10906777530908585, -0.027564210817217827, -0.11397289484739304, -0.0967564508318901, 0.25954729318618774, -0.13344047963619232, -0.07919058203697205, 0.05940151587128639, 0.17768652737140656, 0.13451319932937622, 0.1408318728208542, 0.08901965618133545, -0.20762299001216888, 0.23190030455589294, -0.011040885001420975, 0.13550886511802673, 0.10366544872522354], [-0.07324998825788498, -0.13771799206733704, -0.11722680926322937, -0.09327524900436401, 0.025513142347335815, -0.09446428716182709, 0.18214477598667145, 0.06762674450874329, 0.10739697515964508, -0.05739817023277283, 0.11017826199531555, -0.031224295496940613, -0.08802365511655807, -0.11847031861543655, -0.15242841839790344, 0.016632694751024246, 0.10197379440069199, 0.09348444640636444, -0.06976576149463654, -0.14420071244239807, -0.12845072150230408, -0.055352985858917236, -0.06423325836658478, 0.0018958747386932373, -0.09252133965492249, -0.1514718383550644, -0.11697366833686829, -0.006036242935806513], [0.15564146637916565, 0.1917559951543808, -0.11684621125459671, 0.27513810992240906, -0.07472794502973557, 0.04491310939192772, -0.11047324538230896, -0.035763733088970184, -0.20950014889240265, 0.2819276452064514, 0.15042825043201447, -0.22584180533885956, 0.06908480823040009, 0.12143440544605255, -0.10668442398309708, 0.03394204378128052, 0.1265612095594406, 0.07079289108514786, -0.0009350404143333435, -0.03360845521092415, 0.02839057706296444, 0.175497904419899, -0.027453627437353134, -0.2511167526245117, 0.23539996147155762, 0.07481251657009125, 0.10461921244859695, 0.13711200654506683], [0.13610592484474182, 0.016932647675275803, -0.15565943717956543, 0.23414333164691925, -0.18331432342529297, -0.056262630969285965, -0.018951674923300743, -0.16345354914665222, 0.11289477348327637, -0.05340100824832916, 0.06613961607217789, -0.16695448756217957, 0.02145148627460003, -0.23692981898784637, -0.015916677191853523, 0.19818630814552307, 0.19123031198978424, 0.17598392069339752, -0.13881555199623108, -0.06844241917133331, -0.1760580837726593, -0.0008932554628700018, 0.18910884857177734, -0.08302435278892517, 0.07240492105484009, -0.07211866229772568, 0.09725286066532135, 0.21815261244773865], [0.006818270310759544, 0.28578266501426697, 0.010638464242219925, 0.2882840633392334, -0.013224607333540916, -0.0051901573315262794, 0.0641709417104721, -0.08334367722272873, 0.09772703796625137, 0.2304380238056183, 0.15442916750907898, 0.06906180828809738, -0.07989687472581863, -0.12174150347709656, 0.09864409267902374, 0.0827917605638504, -0.017709383741021156, 0.08906423300504684, -0.2576878070831299, 0.06666246801614761, -0.05121240392327309, 0.2517799139022827, -0.05950828641653061, -0.30339038372039795, 0.09222815930843353, -0.1961466521024704, 0.21446554362773895, 0.25676459074020386], [0.04107142612338066, 0.1139819398522377, -0.12366290390491486, -0.012113036587834358, -0.009821009822189808, 0.13928216695785522, -0.0650528222322464, -0.045046061277389526, 0.07391249388456345, -0.1157209575176239, 0.05590425431728363, -0.15017583966255188, -0.0764131024479866, -0.18238821625709534, 0.17120587825775146, -0.0731075331568718, 0.06885437667369843, -0.1524907797574997, -0.05664543807506561, -0.18122342228889465, 0.14053648710250854, -0.17609405517578125, 0.16732676327228546, -0.12297944724559784, 0.08213643729686737, 0.14905831217765808, 0.11956441402435303, -0.17783516645431519], [0.008525178767740726, -0.20989282429218292, -0.02828729711472988, 0.16578683257102966, -0.061934567987918854, -0.39970168471336365, -0.595194935798645, -0.0948352962732315, 0.20337453484535217, -0.07716981321573257, 0.03012775257229805, 0.2256913185119629, -0.16237591207027435, -0.06951567530632019, 0.21057260036468506, 0.07831063866615295, -0.011176246218383312, 0.06722121685743332, 0.06400920450687408, -0.19896124303340912, -0.32768329977989197, -0.2392282634973526, -0.10505499690771103, 0.18449456989765167, 0.013507666997611523, -0.07034698128700256, 0.2104235291481018, -0.02260703220963478], [0.0008044739370234311, -0.1549532264471054, 0.028977904468774796, -0.0872664675116539, -0.059817057102918625, 0.014276377856731415, 0.15115496516227722, 0.16852867603302002, -0.19458512961864471, -0.010093588382005692, 0.1956254243850708, -0.016652172431349754, -0.0231759212911129, -0.08362171798944473, -0.10424663126468658, -0.2890486717224121, -0.20254015922546387, -0.03695717453956604, 0.19671067595481873, 0.22878968715667725, -0.06658878177404404, 0.13929225504398346, 0.20412957668304443, 0.2455788254737854, -0.5103743076324463, -0.1576259434223175, -0.34920400381088257, -0.2024492770433426], [0.06636355817317963, 0.089110367000103, 0.17323452234268188, 0.12775759398937225, -0.07786350697278976, 0.028778688982129097, 0.02448945865035057, -0.1389126181602478, -0.13589859008789062, 0.24691127240657806, 0.04744817316532135, 0.038213882595300674, -0.1492912322282791, -0.08227062225341797, 0.057709719985723495, 0.2853447198867798, 0.06807566434144974, -0.04468126595020294, -0.1427386999130249, -0.011153536848723888, 0.09187503159046173, -0.040235769003629684, 0.1592491865158081, -0.058994777500629425, -0.001814023358747363, -0.2082156538963318, -0.11056292802095413, -0.08373401314020157], [-0.20674222707748413, 0.07954369485378265, 0.08608993887901306, 0.08472231775522232, 0.13020697236061096, -0.35129714012145996, -0.35516828298568726, -0.18754197657108307, 0.005154821556061506, -0.05053827911615372, -0.2253250777721405, 0.13659057021141052, -0.0075669982470571995, -0.045572757720947266, 0.10385069251060486, -0.10621917247772217, 0.14485710859298706, -0.2492222934961319, -0.17701229453086853, 0.0039341626688838005, -0.08393490314483643, 0.09706113487482071, -0.12499946355819702, 0.06982441246509552, -0.15023894608020782, 0.1487393081188202, 0.15548118948936462, -0.17832736670970917], [0.08533136546611786, 0.15199632942676544, -0.05966414883732796, 0.04018409922719002, -0.03984285891056061, 0.04702690243721008, -0.053179554641246796, -0.2445303499698639, 0.034325357526540756, -0.1138097271323204, 0.05594702064990997, -0.0931226909160614, -0.05723809078335762, 0.09390032291412354, -0.07558716833591461, 0.14285710453987122, 0.11704660952091217, 0.14152421057224274, -0.1960858702659607, 0.1519187092781067, 0.08418110758066177, 0.01913566328585148, -0.10303322225809097, 0.018118714913725853, 0.09168814867734909, 0.0006906676571816206, 0.09325241297483444, 0.2161928117275238], [0.1559520959854126, -0.05297539010643959, -0.03500911220908165, 0.17158947885036469, -0.1074964702129364, -0.07019707560539246, 0.30116069316864014, 0.02509954757988453, -0.08539184182882309, -0.22310367226600647, 0.15567849576473236, 0.1653498113155365, 0.2624526917934418, -0.047342319041490555, -0.1045033410191536, -0.2829955816268921, -0.0830058604478836, 0.009319178760051727, 0.3092036843299866, 0.10798776149749756, 0.1380714774131775, 0.1435496211051941, 0.018604105338454247, 0.28482404351234436, -0.441584050655365, -0.10603689402341843, -0.19249500334262848, -0.20761638879776], [0.04036499559879303, -0.15552064776420593, -0.13154955208301544, 0.026813548058271408, 0.03781105577945709, -0.07146269083023071, -0.06362813711166382, -0.062350038439035416, 0.04186151921749115, 0.008205585181713104, -0.15435077250003815, 0.0023917718790471554, 0.01724797487258911, 0.03884236514568329, -0.17660623788833618, 0.026852592825889587, 0.16139103472232819, -0.08260153234004974, -0.055677659809589386, -0.08290177583694458, -0.14594590663909912, -0.0041151572950184345, 0.018703807145357132, -0.18668383359909058, 0.06659181416034698, -0.033464133739471436, 0.005188261158764362, 0.028834490105509758], [0.1442766785621643, -0.22067256271839142, 0.09373350441455841, -0.028900250792503357, 0.07782139629125595, -0.14831295609474182, -0.8164244294166565, 0.05877832695841789, 0.05266406387090683, 0.028904996812343597, 0.00200972193852067, 0.31491491198539734, 0.07960326969623566, 0.15835809707641602, 0.26697587966918945, -0.022982241585850716, 0.11146442592144012, -0.027743903920054436, 0.06732239574193954, -0.028436720371246338, -0.2790261209011078, -0.23082689940929413, -0.07898849993944168, -0.13850609958171844, 0.01024642214179039, 0.21955887973308563, 0.129555344581604, 0.07554180920124054], [0.15987402200698853, 0.12904998660087585, 0.0163261815905571, -0.03125052899122238, 0.07612361758947372, 0.06604275852441788, 0.037253525108098984, -0.14308176934719086, -0.029006492346525192, -0.010845305398106575, 0.04765505716204643, -0.10720870643854141, 0.08718223869800568, -0.1889081746339798, 0.0721125528216362, 0.2739662230014801, -0.1593041568994522, -0.15213069319725037, -0.18094982206821442, -0.15618106722831726, 0.11243725568056107, -0.017825623974204063, -0.16183845698833466, 0.008342637680470943, 0.3381946086883545, -0.03190021216869354, -0.09252917766571045, 0.19594581425189972], [0.12310262769460678, 0.08212500065565109, -0.17183233797550201, 0.10947445034980774, 0.024038761854171753, 0.1491626650094986, -0.23576730489730835, -0.23626258969306946, -0.21910718083381653, 0.15435753762722015, -0.10861160606145859, -0.21553391218185425, -0.10733618587255478, 0.028137005865573883, -0.21649323403835297, 0.017791906371712685, 0.175174742937088, -0.11608873307704926, -0.14038240909576416, 0.09677919745445251, -0.23035520315170288, 0.1995595395565033, -0.09141160547733307, -0.16413183510303497, 0.23922832310199738, -0.09237734228372574, 0.12179736793041229, -0.0804668739438057], [-0.012098030187189579, 0.14877860248088837, 0.12305102497339249, 0.1383805274963379, -0.18243277072906494, 0.16857025027275085, -0.18776020407676697, -0.21145102381706238, -0.20485875010490417, -0.02539602853357792, 0.15514962375164032, -0.12023947387933731, -0.09216304123401642, 0.10681331902742386, -0.01414026040583849, -0.06897193938493729, -0.06806091219186783, -0.16244789958000183, -0.15184757113456726, -0.11675521731376648, 0.10131476074457169, 0.013005382381379604, 0.0014535477384924889, -0.09032858163118362, 0.26039138436317444, -0.033036574721336365, 0.22347833216190338, 0.021069621667265892], [0.09626572579145432, 0.10833930969238281, 0.07575394213199615, 0.03871748596429825, 0.14220336079597473, -0.2288723886013031, -0.8967547416687012, 0.2173033356666565, 0.2258388102054596, -0.1902044117450714, -0.07041832059621811, 0.2791879177093506, -0.03458695858716965, 0.05946248024702072, 0.22258713841438293, 0.1433873176574707, -0.035974711179733276, -0.034900203347206116, -0.10265688598155975, 0.004370418842881918, -0.2958114743232727, -0.22289171814918518, -0.15204566717147827, -0.10747481882572174, 0.1350046694278717, 0.07635819911956787, 0.03125873953104019, -0.08312679827213287], [-0.1326182335615158, 0.08609490096569061, -0.031879302114248276, 0.2738282382488251, -0.022487513720989227, 0.13860419392585754, -0.1897331327199936, -0.13842332363128662, -0.16556762158870697, -0.03158649802207947, 0.15312905609607697, -0.19738976657390594, 0.027883971109986305, -0.1578318178653717, -0.02540379948914051, 0.1765984296798706, 0.11056636273860931, 0.15050750970840454, -0.2174607366323471, -0.1706685721874237, 0.15607880055904388, 0.11543605476617813, 0.16593970358371735, -0.2442321628332138, 0.1056206226348877, -0.032922837883234024, 0.08778709918260574, -0.07826440036296844], [-0.00012768585293088108, 0.03942214697599411, 0.18607684969902039, 0.10559405386447906, -0.10158158838748932, 0.18114283680915833, 0.027012519538402557, -0.06892149150371552, -0.098270483314991, 0.15828830003738403, 0.13323310017585754, -0.2756916582584381, 0.09186824411153793, -0.1678391993045807, -0.0965360477566719, 0.0010068300180137157, 0.17582283914089203, 0.20042791962623596, -0.03698818013072014, -0.1481519192457199, -0.03467269241809845, 0.1477872133255005, 0.1115594208240509, -0.08283137530088425, 0.03632748872041702, -0.013146767392754555, 0.07217182964086533, 0.20285214483737946], [0.1644383817911148, -0.05733304098248482, 0.1661502569913864, 0.03762758895754814, 0.08618633449077606, -0.03348911553621292, -0.1444859802722931, 0.013448148965835571, -0.06620030850172043, 0.03966542333364487, 0.0075986976735293865, 0.07874255627393723, -0.07454662024974823, -0.12350287288427353, 0.11269164830446243, 0.2531948387622833, 0.09904388338327408, -0.06077725812792778, 0.014010831713676453, -0.08186891674995422, 0.16880637407302856, -0.003209012094885111, -0.06652561575174332, -0.22090362012386322, 0.18779130280017853, -0.20855548977851868, 0.2137264609336853, 0.019138352945446968], [0.13953900337219238, 0.0074915834702551365, 0.16425739228725433, 0.09519670158624649, -0.10700532048940659, 0.2413605898618698, 0.02678861655294895, 0.007356369402259588, 0.058896858245134354, 0.2183171659708023, 0.2188989669084549, -0.21753840148448944, -0.19150713086128235, 0.13509942591190338, 0.041794221848249435, 0.2111140340566635, 0.01554821152240038, 0.1981314867734909, 0.010166175663471222, -0.17261122167110443, -0.013311697170138359, -0.015560016967356205, -0.1290348321199417, -0.24676920473575592, 0.30546483397483826, -0.23303458094596863, 0.1743626594543457, 0.18707919120788574], [0.18836241960525513, 0.2774536907672882, -0.028539907187223434, 0.27993786334991455, -0.20860739052295685, -0.10943913459777832, 0.03236791864037514, -0.0617842860519886, -0.20570802688598633, 0.24431036412715912, 0.17482227087020874, -0.054167021065950394, -0.10868636518716812, -0.14377300441265106, -0.07270774245262146, 0.208796888589859, 0.0960296168923378, 0.21615618467330933, 0.0002103415463352576, 0.03203094005584717, 0.023778187111020088, -0.0012049332726746798, 0.08930929750204086, -0.25751253962516785, 0.04354040324687958, -0.008040769025683403, -0.020876644179224968, 0.029467305168509483], [0.20915426313877106, 0.09007152915000916, 0.07636529952287674, 0.264254093170166, -0.08183416724205017, -0.0042083910666406155, 0.15162666141986847, -0.11525317281484604, -0.1379479467868805, 0.13177211582660675, 0.021648021414875984, -0.22013035416603088, 0.10317318886518478, -0.16041767597198486, -0.09574654698371887, 0.2332601249217987, -0.10986611992120743, 0.16752126812934875, -0.19964425265789032, 0.15804986655712128, 0.062376607209444046, 0.23705081641674042, 0.16955241560935974, -0.009901483543217182, 0.2169758379459381, -0.06401245296001434, -0.10458248853683472, 0.028035515919327736], [-0.033744558691978455, 0.07538088411092758, -0.03806494176387787, 0.044671639800071716, -0.10734658688306808, 0.11580276489257812, 0.31558680534362793, 0.1590747833251953, -0.18056271970272064, -0.2935832440853119, 0.0781375840306282, -0.06847038865089417, 0.21371598541736603, 0.13870400190353394, 0.12010813504457474, -0.3373021185398102, -0.18861013650894165, 0.0692315474152565, 0.0058091143146157265, 0.14018501341342926, 0.12028681486845016, 0.11497484147548676, 0.06079244986176491, 0.029245568439364433, -0.6444330811500549, -0.08242572098970413, -0.1014086902141571, -0.0685957670211792], [-0.04307382553815842, -0.02448992244899273, 0.10743754357099533, 0.016901785507798195, -0.23036006093025208, 0.017595840618014336, 0.0938640683889389, -0.11497373878955841, -0.11221186816692352, 0.007720346096903086, -0.13194510340690613, -0.25367245078086853, 0.15225821733474731, -0.22444435954093933, 0.07116467505693436, 0.12252002209424973, 0.17445681989192963, 0.00216302159242332, -0.0013780476292595267, 0.13794788718223572, 0.11380215734243393, 0.21418876945972443, 0.07733835279941559, -0.13321496546268463, 0.20544496178627014, -0.07312995940446854, -0.11533044278621674, 0.03017295151948929], [-0.07317762821912766, 0.004202110692858696, -0.15172627568244934, 0.1689302623271942, 0.011262773536145687, 0.026031576097011566, 0.0677197277545929, -0.01862126775085926, -0.06738443672657013, 0.20311331748962402, 0.2119273990392685, -0.1620042324066162, 0.038707390427589417, 0.08620518445968628, -0.1402917355298996, 0.05772479996085167, -0.0969478189945221, 0.08642685413360596, -0.07888025045394897, -0.06315352022647858, 0.005977092310786247, 0.1064428985118866, -0.06466742604970932, -0.34693050384521484, 0.3227734863758087, -0.03206299617886543, 0.25757864117622375, 0.25901108980178833]], "critic.network.2.bias": [-0.08576842397451401, 0.3186982274055481, 0.12362092733383179, 0.23233644664287567, 0.13808953762054443, 0.28054797649383545, -0.0901111513376236, 0.02902430295944214, -0.08171272277832031, 0.18809346854686737, 0.03376647084951401, -0.0919058546423912, -0.1390603631734848, -0.0872335359454155, 0.0021531039383262396, 0.24908077716827393, 0.22199876606464386, -0.07251511514186859, 0.019626200199127197, 0.20650018751621246, 0.19973567128181458, 0.056908782571554184, 0.1406475454568863, 0.14002065360546112, -0.0008273294079117477, -0.12743738293647766, 0.28567641973495483, 0.10410554707050323], "critic.network.4.weight": [[-0.08109456300735474, 0.20592066645622253, -0.0054733906872570515, 0.12709671258926392, 0.1774243712425232, 0.2624514698982239, 0.09695595502853394, -0.03454229608178139, -0.26921606063842773, 0.2251538336277008, -0.1928153783082962, 0.03623710200190544, -0.28775739669799805, -0.1047629863023758, -0.29459547996520996, 0.0982828140258789, 0.14543543756008148, -0.13649098575115204, -0.038206104189157486, 0.00044760387390851974, 0.1626385748386383, 0.005455518141388893, 0.21352268755435944, 0.07517215609550476, 0.22806453704833984, -0.2258562296628952, 0.015244381502270699, 0.21586169302463531], [-0.0522259846329689, 0.11414884775876999, 0.007608932908624411, 0.15809667110443115, 0.12616701424121857, 0.23790834844112396, 0.019314264878630638, -0.03159812092781067, -0.02077743411064148, -0.08485742658376694, -0.20868271589279175, 0.13907720148563385, -0.2116011679172516, 0.19004157185554504, -0.12212296575307846, 0.15440258383750916, 0.056238897144794464, -0.16371242702007294, -0.256905198097229, -0.07708997279405594, -0.1291869729757309, 0.08755771815776825, 0.2599219083786011, 0.07621650397777557, 0.1603933870792389, -0.05977446213364601, 0.20452609658241272, 0.0793839767575264], [-0.2836275100708008, 0.06435589492321014, 0.20495563745498657, 0.04080834984779358, 0.008437003940343857, 0.22154001891613007, 0.016606517136096954, -0.24621661007404327, -0.12361197918653488, -0.03492625802755356, -0.22151587903499603, 0.05276203528046608, -0.21073445677757263, -0.05349855124950409, -0.05388012155890465, 0.2531503438949585, 0.09373010694980621, -0.08460395783185959, -0.21893025934696198, 0.17865055799484253, -0.07200321555137634, -0.06765162199735641, 0.08449678868055344, 0.18275131285190582, 0.15009808540344238, -0.17866778373718262, 0.21930275857448578, 0.24769911170005798], [0.0405685156583786, -0.14041560888290405, -0.0651860311627388, -0.19192132353782654, 0.07045857608318329, -0.14596891403198242, -0.07000484317541122, 0.06755286455154419, 0.0720442682504654, -0.03940543904900551, 0.16294747591018677, 0.07693260908126831, 0.06402803957462311, 0.17009876668453217, 0.10958333313465118, 0.1219550371170044, -0.15585094690322876, 0.03004533424973488, 0.021916184574365616, -0.143987238407135, 0.09798084199428558, 0.012961280532181263, 0.13377737998962402, -0.030848585069179535, -0.05491321533918381, -0.03546792268753052, -0.16706249117851257, 0.09169840812683105], [-0.20140354335308075, 0.2415819764137268, -0.13353478908538818, -0.09172944724559784, 0.13911761343479156, 0.1675400286912918, -0.09684087336063385, 0.011054974049329758, 0.05149230733513832, -0.09445800632238388, -0.20868588984012604, 0.14460213482379913, -0.2418942153453827, -0.03126513957977295, 0.009964053519070148, 0.08377177268266678, 0.03046111762523651, -0.08745680004358292, 0.053443390876054764, 0.2620546519756317, -0.036212947219610214, -0.14148958027362823, 0.0027519273571670055, 0.09293406456708908, 0.15698154270648956, -0.10911725461483002, 0.23408502340316772, -0.08692550659179688], [-0.014163807034492493, 0.17932745814323425, -0.10747745633125305, -0.050983279943466187, 0.09797327220439911, -0.11125798523426056, -0.18101701140403748, 0.005262851715087891, -0.1899297535419464, 0.02783326990902424, 0.08315734565258026, -0.025889890268445015, 0.07091964781284332, -0.09569895267486572, 0.054554834961891174, -0.0138482004404068, 0.027239801362156868, 0.006987360306084156, -0.07240612804889679, -0.08656689524650574, 0.17253804206848145, -0.01327313669025898, -0.10020746290683746, -0.05291660130023956, 0.019654808565974236, 0.14667746424674988, -0.09631846845149994, -0.006268802098929882], [-0.15232416987419128, 6.350321200443432e-05, 0.09181465953588486, 0.17116063833236694, 0.24244184792041779, -0.014522657729685307, -0.07634364813566208, -0.07934936136007309, -0.24890302121639252, 0.10949055850505829, -0.19296471774578094, 0.11568251252174377, -0.270633339881897, -0.04162226617336273, -0.12724266946315765, 0.028861278668045998, 0.2885378897190094, 0.12106114625930786, -0.17775152623653412, -0.0010535004548728466, 0.14636866748332977, 0.2135682851076126, 0.26316872239112854, -0.07701656967401505, -0.0750945508480072, 0.03083757311105728, 0.14957693219184875, 0.27001526951789856], [0.13217726349830627, -0.09263122081756592, 0.06783365458250046, 0.012032496742904186, 0.08248361200094223, -0.16717758774757385, -0.05840061604976654, 0.1662319302558899, 0.13359245657920837, -0.06538219749927521, 0.033738140016794205, 0.025606557726860046, 0.2043081820011139, 0.13132107257843018, 0.05930529534816742, -0.1844964623451233, -0.06489287316799164, 0.06718641519546509, 0.24886198341846466, 0.0792093425989151, 0.10453879833221436, 0.20753681659698486, 0.11336331069469452, 0.016811169683933258, -0.09418695420026779, -0.04210831597447395, 0.06926591694355011, -0.13187453150749207], [-0.041331782937049866, -0.16944701969623566, 0.16694475710391998, -0.1134723424911499, 0.07463894784450531, -0.0408010333776474, -0.18463779985904694, 0.16824765503406525, -0.07313086837530136, -0.08514397591352463, -0.009029194712638855, 0.10698987543582916, -0.15985627472400665, -0.15894171595573425, 0.04695643484592438, -0.12334813177585602, 0.0957341343164444, 0.06949155032634735, -0.12039902061223984, 0.15181048214435577, -0.1611369550228119, -0.16438186168670654, -0.06443183124065399, -0.0015087127685546875, -0.12395135313272476, -0.040772005915641785, -0.01119735836982727, -0.024018675088882446], [0.048886142671108246, -0.10091780126094818, -0.02843138575553894, 0.025560282170772552, -0.0575738325715065, 0.04746061563491821, 0.07520421594381332, 0.11205244064331055, 0.20981289446353912, -0.041656844317913055, 0.17991726100444794, 0.14488685131072998, 0.06643372029066086, 0.09680146723985672, 0.2667296826839447, -0.026598704978823662, -0.22011733055114746, 0.14934416115283966, -0.028555195778608322, -0.09957251697778702, 0.06995649635791779, -0.0569462776184082, 0.11383218318223953, -0.14677758514881134, -0.1471688151359558, 0.10021405667066574, 0.027148356661200523, 0.004249936901032925], [0.06745396554470062, -0.15441006422042847, -0.16255657374858856, -0.11209841817617416, 0.11947916448116302, 0.00037313997745513916, 0.021030277013778687, 0.12353028357028961, -0.1495741903781891, 0.14863146841526031, 0.13618294894695282, 0.15001936256885529, 0.15085051953792572, 0.15687872469425201, -0.09352140128612518, -0.04594683647155762, -0.08924104273319244, -0.01975482702255249, 0.018685564398765564, 0.02882474660873413, -0.023323222994804382, 0.04373270273208618, -0.12505656480789185, -0.05932547152042389, -0.00844663381576538, -0.1121855154633522, 0.08433027565479279, -0.07763252407312393], [-0.32917967438697815, -0.002871063305065036, -0.038023076951503754, 0.28317394852638245, 0.006509799510240555, -0.005396654829382896, -0.09954742342233658, -0.11027282476425171, -0.2462300807237625, 0.23086795210838318, -0.14490437507629395, 0.06968776136636734, -0.02627812698483467, -0.08407200127840042, -0.18419872224330902, 0.12268726527690887, 0.16088609397411346, 0.070405013859272, -0.18841351568698883, 0.249261274933815, 0.21325181424617767, 0.03890626132488251, -0.002021969296038151, 0.25926098227500916, 0.22545644640922546, -0.16879825294017792, 0.08643260598182678, 0.1733253449201584], [-0.25266847014427185, -0.053105514496564865, 0.045011796057224274, -0.0494689904153347, 0.000691052176989615, 0.16854748129844666, 0.05052034184336662, -0.22250190377235413, -0.2673080861568451, 0.07018899917602539, -0.08591187000274658, 0.0344209223985672, -0.06071853265166283, 0.0413050577044487, -0.2716760039329529, 0.06686882674694061, -0.04409012570977211, -0.09905935078859329, 0.006422125268727541, -0.10336821526288986, -0.09446747601032257, -0.06277304142713547, 0.07829152792692184, 0.1780645251274109, 0.08647220581769943, -0.004538479261100292, -2.4842796847224236e-05, 0.16073216497898102], [-0.18254664540290833, 0.08941995352506638, -0.13899622857570648, -0.15621227025985718, -0.040025822818279266, 0.0016325769247487187, 0.1705773025751114, 0.13140743970870972, 0.0622452050447464, 0.10731879621744156, 0.13618841767311096, 0.16291823983192444, -0.027095556259155273, -0.09917144477367401, -0.12858471274375916, -0.14546126127243042, 0.039976269006729126, -0.19229739904403687, -0.005739105865359306, -0.16013425588607788, -0.11347164958715439, 0.09009770303964615, 0.08035970479249954, -0.01489650271832943, -0.15931852161884308, -0.09414422512054443, -0.14703038334846497, -0.15918844938278198], [-0.19967585802078247, 0.2529993951320648, -0.15766361355781555, 0.2137850672006607, 0.2633534073829651, 0.06255464255809784, 0.04545371234416962, -0.1788509488105774, -0.28431081771850586, -0.04548616334795952, 0.06610912084579468, -0.16446754336357117, -0.20029135048389435, 0.06296376883983612, -0.2801646292209625, -0.01849050633609295, 0.22267408668994904, 0.07179763913154602, -0.19900885224342346, -0.018656723201274872, 0.18371810019016266, 0.044459760189056396, 0.07751048356294632, 0.04106709733605385, 0.23707717657089233, -0.2140512317419052, 0.047662973403930664, -0.025711381807923317], [0.12909604609012604, 0.07656919211149216, 0.05155316740274429, -0.20204780995845795, 0.14853544533252716, -0.21793803572654724, -0.11716339737176895, 0.048733796924352646, 0.20235544443130493, -0.1531820148229599, -0.10311651229858398, 0.16165296733379364, 0.3091915547847748, -0.1425776183605194, 0.0658283531665802, -0.10863390564918518, -0.14704474806785583, -0.06946644186973572, -0.012742023915052414, 0.15646222233772278, 0.07811126112937927, -0.2374364137649536, -0.15689414739608765, 0.13935592770576477, -0.12065435945987701, 0.0468154102563858, 0.0770857036113739, 0.09615877270698547], [0.07211187481880188, -0.04942699521780014, -0.027728401124477386, 0.1184852197766304, 0.08948644995689392, -0.15088777244091034, 0.01802794821560383, -0.01818307489156723, -0.04698587954044342, -0.17458827793598175, -0.032901518046855927, 0.17468143999576569, -0.17236655950546265, 0.053593218326568604, 0.27681764960289, 0.15417739748954773, 0.09363565593957901, -0.019537292420864105, 0.002244350966066122, 0.01013851072639227, 0.04230848327279091, 0.06447973847389221, 0.15600714087486267, -0.05945150926709175, -0.05884997546672821, -0.13536778092384338, -0.12568584084510803, -0.06621173024177551], [0.04922372102737427, 0.015932755544781685, -0.019425660371780396, -0.10197583585977554, 0.042421065270900726, -0.06872299313545227, -0.10594214498996735, -0.14332176744937897, 0.0181483943015337, -0.1246476024389267, -0.025800257921218872, -0.0009750276221893728, -0.16866230964660645, -0.08730853348970413, -0.10639951378107071, -0.14447224140167236, 0.14620479941368103, -0.1570083200931549, 0.045790895819664, -0.06011366844177246, 0.03561456501483917, -0.08201561123132706, 0.09076863527297974, 0.157957062125206, -0.10799511522054672, -0.06905589252710342, 0.06670697033405304, 0.10484926402568817], [-0.09759095311164856, 0.2502135634422302, -0.04553798958659172, 0.24508538842201233, 0.11997909843921661, -0.04907051473855972, 0.08444744348526001, -0.18369290232658386, -0.2291126400232315, 0.23468679189682007, -0.1410624235868454, -0.0058852690272033215, 0.06750436127185822, -0.04349447786808014, -0.2371460199356079, -0.03257586807012558, -0.053649287670850754, -0.1269119530916214, 0.03555518016219139, 0.11554963886737823, 0.012155908159911633, -0.017909180372953415, 0.24198143184185028, 0.09402914345264435, 0.1590312272310257, -0.049615927040576935, 0.19921277463436127, 0.24977558851242065], [0.1387929916381836, 0.1072743833065033, 0.1729540377855301, 0.1297595351934433, 0.018513068556785583, -0.19701628386974335, -0.004196398891508579, 0.010796851478517056, 0.19995489716529846, -0.05753112956881523, -0.029500912874937057, 0.15018141269683838, 0.23168811202049255, -0.18531659245491028, -0.17114019393920898, -0.18550097942352295, 0.04007735475897789, -0.012510046362876892, -0.06753171235322952, -0.019345952197909355, -0.14877921342849731, -0.1778334230184555, -0.1441619098186493, 0.013534602709114552, 0.06225089356303215, -0.022643111646175385, -0.13984616100788116, -0.19122742116451263], [-0.21812871098518372, 0.10632424056529999, 0.05519399419426918, -0.07908862829208374, 0.17981751263141632, -0.021942375227808952, 0.05568315088748932, 0.0088236965239048, -0.1048736721277237, -0.1319722682237625, 0.10495547950267792, -0.07425196468830109, -0.18744681775569916, -0.1695915162563324, -0.006929296068847179, -0.04560568928718567, 0.011378699913620949, 0.02877669408917427, 0.033042117953300476, 0.2461913526058197, 0.2111981362104416, -0.053765587508678436, 0.15828940272331238, 0.2477172315120697, -0.004657434299588203, 0.07129019498825073, 0.2491612732410431, 0.22084154188632965], [-0.05010209232568741, -0.13273271918296814, 0.15713278949260712, -0.06462551653385162, -0.0715937539935112, 0.09933607280254364, -0.10172313451766968, 0.18083305656909943, 0.12945005297660828, 0.15089577436447144, -0.15752311050891876, 0.051826104521751404, 0.04851885885000229, -0.008093535900115967, 0.01652223989367485, -0.033155374228954315, -0.2029053419828415, -0.022570466622710228, -0.005921633448451757, -0.2186792939901352, 0.01390940323472023, 0.047892648726701736, -0.05081221088767052, -0.10842116922140121, 0.12095774710178375, 0.0836392194032669, -0.1273583024740219, -0.188389390707016], [-0.014137768186628819, 0.19888097047805786, -0.1514398157596588, 0.03128712251782417, 0.20907479524612427, 0.11264382302761078, 0.15292909741401672, -0.16786408424377441, -0.1160237267613411, 0.02945459820330143, -0.03929919749498367, 0.19567421078681946, -0.04181921109557152, -0.05946173891425133, -0.018254943192005157, 0.2457900047302246, 0.035878922790288925, 0.1446167230606079, -0.2336156666278839, 0.18155495822429657, 0.2706620395183563, 0.026133915409445763, 0.07394210994243622, 0.009766505099833012, 0.21685905754566193, -0.001415868173353374, -0.11168350279331207, -0.02820080891251564], [-0.14562305808067322, 0.028010699898004532, 0.027572451159358025, 0.11088569462299347, 0.24937988817691803, 0.07931036502122879, -0.17193284630775452, -0.1597447544336319, -0.06753931194543839, 0.027206452563405037, -0.1778869777917862, -0.07279790937900543, 0.012233301997184753, 0.026684386655688286, -0.07341521233320236, 0.2816905677318573, 0.20666001737117767, -0.08890683948993683, -0.17198827862739563, -0.051986731588840485, 0.08565803617238998, 0.011709410697221756, 0.13991406559944153, 0.08016763627529144, 0.04078646004199982, -0.2079671025276184, 0.0877867266535759, 0.14821279048919678], [-0.16429728269577026, 0.16168905794620514, 0.0025721911806613207, 0.23836354911327362, 0.21994517743587494, -0.11506970226764679, 0.13886815309524536, -0.021192658692598343, -0.1119828000664711, 0.1581629365682602, 0.06245626509189606, -0.13066226243972778, 0.051634564995765686, -0.14136917889118195, -0.20570313930511475, -0.061716631054878235, 0.19299538433551788, 0.034868210554122925, -0.24508222937583923, -0.07127247005701065, 0.13751478493213654, -0.1370173841714859, 0.10584595054388046, -0.09256023913621902, 0.19271211326122284, -0.1808476448059082, -0.09341923892498016, -0.09655196219682693], [-0.13334423303604126, 0.1724393516778946, -0.15824434161186218, 0.060974232852458954, 0.12319242209196091, 0.06333079934120178, 0.10662248730659485, -0.28284141421318054, -0.04564706236124039, -0.11754846572875977, -0.11367474496364594, 0.17358793318271637, -0.23137061297893524, 0.0003564539074432105, -0.09405326843261719, 0.01780235767364502, 0.060623399913311005, 0.08658045530319214, -0.14650745689868927, 0.10807456076145172, -0.12129635363817215, 0.11206754297018051, 0.0060459403321146965, 0.15650516748428345, -0.03327047452330589, -0.10760298371315002, 0.21096618473529816, 0.17205917835235596], [-0.18381232023239136, 0.25697851181030273, -0.07204354554414749, 0.08373250812292099, 0.18817313015460968, 0.24515879154205322, 0.10867790877819061, -0.018247993662953377, -0.22973515093326569, 0.18256008625030518, -0.21515920758247375, 0.07873262465000153, -0.305360347032547, 0.16255591809749603, -0.15219776332378387, 0.2158861607313156, 0.2265932708978653, 0.12060975283384323, -0.2699486017227173, 0.1673581898212433, 0.12907768785953522, -0.022475099191069603, -0.01284195389598608, 0.21312075853347778, -0.05452323704957962, -0.19894899427890778, -0.010173083283007145, 0.02044982649385929], [-0.33571070432662964, 0.17706073820590973, -0.08390367776155472, -0.004683275241404772, -0.04786793142557144, 0.21791215240955353, -0.20624950528144836, -0.2861630916595459, -0.18034569919109344, 0.12781190872192383, -0.04056060314178467, 0.09228330105543137, -0.19597795605659485, 0.0866331085562706, -0.2784726917743683, 0.004730108194053173, 0.03860623762011528, 0.11648497730493546, -0.19120308756828308, -0.09111656993627548, 0.2571951150894165, 0.1232316792011261, 0.2422361820936203, 0.014431819319725037, -0.056254688650369644, -0.24199846386909485, -0.047205109149217606, 0.07593076676130295]], "critic.network.4.bias": [0.3213111162185669, -0.025588080286979675, 0.14823339879512787, -0.12780830264091492, 0.19174988567829132, -0.18677493929862976, 0.327608197927475, 0.06304831057786942, 0.0004616975784301758, -0.0509503073990345, -0.03319866955280304, 0.2769910395145416, 0.11481337249279022, 0.042505573481321335, 0.2101414054632187, -0.10019703209400177, -0.20729121565818787, -0.05254332721233368, 0.308115690946579, 0.02756546065211296, 0.11453744769096375, 0.06235422194004059, 0.1876525729894638, 0.038747288286685944, 0.021488817408680916, 0.12016631662845612, 0.22606754302978516, 0.1978016048669815], "critic.network.6.weight": [[0.1592957079410553, 0.1660766899585724, 0.22430700063705444, -0.06360121071338654, 0.11026149988174438, 0.12135204672813416, 0.16918319463729858, -0.12972697615623474, -0.0054806917905807495, -0.08417309820652008, -0.11539413034915924, 0.22616101801395416, 0.14813731610774994, -0.12035363912582397, 0.23715747892856598, -0.19364719092845917, -0.12421724200248718, -0.037856921553611755, 0.1673242598772049, -0.13922631740570068, 0.18670283257961273, 0.0002242523623863235, 0.24091222882270813, 0.1915317177772522, 0.17820584774017334, 0.12022006511688232, 0.15198150277137756, 0.2896629571914673]], "critic.network.6.bias": [-0.04082399606704712]}