{"actor.network.0.weight": [[0.037553317844867706, -0.04776470363140106, -0.448836088180542, 0.33064383268356323], [-0.26754823327064514, 0.30776453018188477, -0.09631912410259247, -0.21291399002075195], [0.1769229620695114, -0.03291357308626175, 0.2515076696872711, 0.7673381567001343], [0.061155132949352264, -0.1601467728614807, -0.5154544115066528, -0.5704432129859924], [0.09598861634731293, -0.15565037727355957, 0.6567143797874451, 0.7003335356712341], [0.19102051854133606, -0.20034557580947876, 0.0012004505842924118, 0.12013211846351624], [-0.0841786190867424, -0.46302783489227295, -0.40387845039367676, -0.01983369141817093], [-0.41494840383529663, 0.23214377462863922, -0.03786824643611908, -0.4326370358467102], [0.26904046535491943, -0.4458802342414856, 0.5106279850006104, -0.23007361590862274], [-0.013665158301591873, -0.03879342973232269, 0.3690761923789978, -0.3567732274532318], [-0.48854535818099976, 0.13261236250400543, -0.420613557100296, 0.2458925098180771], [-0.31684592366218567, -0.25128912925720215, 0.5212019085884094, -0.19087465107440948], [0.44661736488342285, -0.326287180185318, -0.40503963828086853, -0.661889374256134], [0.06081343814730644, -0.39503276348114014, 0.19989868998527527, -0.32017356157302856], [0.4668019711971283, -0.5539454221725464, -0.3122405707836151, 0.0939168855547905], [0.4076695442199707, 0.03186040371656418, 0.09678984433412552, -0.349087119102478], [-0.3028799891471863, 0.4666210412979126, -0.19310908019542694, -0.09947919845581055], [0.12621428072452545, 0.1698533445596695, 0.5869158506393433, 0.1491761952638626], [0.41888880729675293, 0.35313451290130615, -0.6957597136497498, -0.10952384769916534], [-0.4066104292869568, -0.17388483881950378, -0.05420205742120743, -0.7932467460632324], [-0.09441598504781723, 0.0840819776058197, -0.618842601776123, -0.5199795365333557], [-0.03355233371257782, 0.09975410997867584, -0.1168326810002327, 0.1826711744070053], [-0.022083014249801636, 0.056503307074308395, 0.7112206816673279, 0.42254436016082764], [0.04737214371562004, -0.054176878184080124, 0.11940962821245193, 0.5754371285438538], [0.44825053215026855, 0.015827320516109467, 0.5011860728263855, 0.629263699054718], [0.2616599202156067, 0.15075677633285522, -0.5313364267349243, 0.07477319240570068], [-0.09657410532236099, 0.06536760926246643, 0.7482038140296936, 0.38640645146369934], [-0.2076205313205719, 0.1845100224018097, 0.4102114140987396, 0.72992342710495]], "actor.network.0.bias": [-0.19059133529663086, -0.4329424202442169, 0.5139759182929993, 0.16607703268527985, 0.1276342272758484, -0.33169394731521606, 0.3864845037460327, -0.4572886526584625, -0.47033262252807617, -0.3751065731048584, -0.23947474360466003, -0.25629958510398865, 0.1921919286251068, -0.26066097617149353, 0.062252357602119446, 0.1615169197320938, 0.2887551188468933, 0.044959403574466705, -0.11492732167243958, 0.41850927472114563, 0.23252464830875397, 0.26355695724487305, 0.14319394528865814, 0.07066861540079117, 0.23615087568759918, -0.31579238176345825, 0.21760763227939606, 0.31101125478744507], "actor.network.2.weight": [[-0.0167858749628067, 0.17166532576084137, -0.013814403675496578, 0.10085046291351318, -0.012269732542335987, -0.16763758659362793, 0.17348088324069977, -0.08444668352603912, -0.09342522919178009, 0.13287191092967987, 0.10400022566318512, -0.15932339429855347, 0.281240850687027, -0.11757584661245346, 0.1252109706401825, -0.09674002230167389, 0.07693736255168915, 0.011963854543864727, 0.15043938159942627, 0.2800413966178894, 0.224966362118721, 0.19196723401546478, -0.4099535048007965, 0.030155900865793228, -0.24718952178955078, 0.12136915326118469, 0.03259097784757614, -0.1854584962129593], [0.17002691328525543, 0.09849676489830017, 0.05642486363649368, -0.16641530394554138, 0.021936656907200813, -0.11874476075172424, 0.022892385721206665, -0.08816207200288773, 0.15027281641960144, 0.12649701535701752, -0.07744390517473221, -0.08183041214942932, -0.33402734994888306, 0.10762578994035721, -0.24816426634788513, -0.031205439940094948, 0.10795139521360397, 0.07867779582738876, 0.12014538049697876, -0.014849890023469925, -0.22634769976139069, 0.08431629836559296, 0.20999570190906525, 0.27002570033073425, 0.3467892110347748, 0.02403314784169197, 0.1779106706380844, 0.4512433111667633], [0.1722707748413086, 0.12417645007371902, -0.15460608899593353, -0.04993683844804764, -0.08402761816978455, -0.013445153832435608, -0.05025048926472664, 0.15719571709632874, 0.0689675360918045, -0.1298992782831192, 0.14618776738643646, 0.0666075199842453, -0.17823877930641174, 0.09680115431547165, -0.045518212020397186, -0.02297099307179451, -0.007475289516150951, -0.17523424327373505, 0.11392533779144287, -0.13553652167320251, 0.17071959376335144, -0.05658794939517975, 0.09440749883651733, 0.12059435993432999, 0.1344618946313858, -0.04525093734264374, 0.1220151036977768, -0.021041851490736008], [4.620850086212158e-05, -0.17303387820720673, -0.1856500506401062, 0.016465574502944946, -0.09608198702335358, 0.015659883618354797, -0.057630009949207306, 0.11872252821922302, 0.14015363156795502, 0.10051357746124268, 0.09966914355754852, -0.13069918751716614, -0.1965450942516327, 0.020354777574539185, 0.06213246285915375, 0.13097551465034485, 0.1250644028186798, -0.10741270333528519, 0.07453038543462753, 0.01752765290439129, 0.060482773929834366, -0.03027212806046009, 0.15062031149864197, -0.04223662614822388, -0.045041050761938095, 0.031177256256341934, 0.015263943001627922, 0.07937848567962646], [-0.12185047566890717, -0.033660970628261566, -0.2450370192527771, -0.003752344287931919, -0.06821127235889435, -0.16821883618831635, -0.06906209141016006, 0.06869174540042877, -0.0667014792561531, -0.18943387269973755, 0.16370229423046112, -0.06369069218635559, -0.14694343507289886, -0.008629311807453632, -0.0016923252260312438, -0.019585508853197098, 0.10628081858158112, -0.010967044159770012, 0.03212156146764755, -0.12611576914787292, -0.0769495964050293, 0.00958552397787571, -0.07549107074737549, -0.15456770360469818, 0.13292638957500458, 0.06731759011745453, -0.11080657690763474, -0.011341200210154057], [0.15747815370559692, -0.07696117460727692, 0.036857135593891144, -0.14563828706741333, 0.20522256195545197, -0.07023347914218903, 0.08295498788356781, 0.15992969274520874, -0.04491471126675606, -0.11404857039451599, 0.09481494873762131, -0.04348491132259369, -0.1264442354440689, -0.18542815744876862, -0.04490113630890846, -0.09759426862001419, 0.06665059924125671, 0.0020883814431726933, 0.01804380677640438, 0.14669333398342133, 0.1345251500606537, -0.004484390374273062, 0.1832743138074875, 0.05342031642794609, 0.1321364939212799, 0.07794223725795746, 0.08348511159420013, 0.29077017307281494], [0.10486474633216858, -0.12300419807434082, 0.29013732075691223, -0.34884414076805115, 0.31359434127807617, 0.04275085777044296, -0.0944393053650856, -0.09874611347913742, -0.07820925116539001, -0.07248169183731079, 0.004082468803972006, -0.08737443387508392, -0.19420553743839264, 0.10148262977600098, 0.05400880426168442, 0.01716402731835842, 0.18458479642868042, 0.17113865911960602, -0.1565624475479126, 0.004159374162554741, -0.22107364237308502, 0.008622433990240097, 0.2062191516160965, -0.028013253584504128, 0.2854924499988556, 0.1880030333995819, 0.16566583514213562, 0.4116548001766205], [0.10436815768480301, 0.12774430215358734, 0.0413869209587574, 0.13534757494926453, 0.02835422195494175, 0.12168650329113007, 0.11899102479219437, 0.11947740614414215, -0.01890726387500763, -0.14639513194561005, -0.0029862895607948303, -0.11703529208898544, 0.1773010641336441, 0.08669179677963257, -0.0054504768922924995, -0.0038887765258550644, -0.21366409957408905, 0.026449859142303467, 0.11666812002658844, -0.1077190563082695, 0.13897095620632172, 0.18077200651168823, -0.0068470174446702, -0.06260611861944199, 0.15137779712677002, 0.15117722749710083, -0.12013862282037735, -0.07907898724079132], [-0.017891867086291313, 0.013179073110222816, -0.21536244451999664, 0.006553175859153271, -0.10582615435123444, 0.16785979270935059, -0.1299823522567749, 0.014285184442996979, 0.1498851776123047, -0.10983870178461075, 0.167963445186615, 0.13923150300979614, -0.1762886643409729, 0.15259262919425964, -0.09312964230775833, -0.08523721992969513, -0.19176682829856873, -0.1198306605219841, 0.09769617021083832, 0.012815507128834724, -0.2392294555902481, 0.0942516177892685, 0.024629563093185425, 0.056049853563308716, 0.12883105874061584, 0.04271650314331055, -0.006098547950387001, -0.21431992948055267], [0.064621701836586, -0.2027864158153534, -0.1155979260802269, 0.17425943911075592, 0.07261590659618378, -0.15632471442222595, -0.02924402616918087, 0.16967011988162994, -0.07702867686748505, -0.12194307893514633, -0.020303400233387947, 0.07840237021446228, 0.16963739693164825, -0.05194870010018349, 0.2221388965845108, -0.11922308802604675, 0.07377513498067856, -0.18082547187805176, 0.07687316834926605, 0.10915910452604294, 0.06846211105585098, -0.08275975286960602, -0.0597103051841259, 0.1493210792541504, -0.06342699378728867, -0.03043963760137558, -0.24232858419418335, -0.08964310586452484], [0.17666226625442505, 0.16375143826007843, -0.008314123377203941, -0.13021138310432434, -0.025308974087238312, -0.04110407084226608, -0.16686594486236572, -0.11103609204292297, 0.000330314040184021, 0.12449364364147186, 0.14050517976284027, 0.11193899810314178, -0.18057525157928467, 0.0413404256105423, 0.019247785210609436, -0.006261167116463184, -0.06250870227813721, -0.014089268632233143, -0.11622782051563263, -0.14853206276893616, -0.006427153013646603, -0.10970234870910645, 0.11112739145755768, -0.1109422892332077, 0.15548786520957947, -0.1535797268152237, -0.17456045746803284, -0.019978806376457214], [0.036423951387405396, -0.14973998069763184, -0.1041175127029419, 0.23702247440814972, 0.11734744906425476, -0.15517780184745789, -0.05481340363621712, -0.1541195511817932, -0.09540663659572601, 0.10560236871242523, -0.17527732253074646, 0.09834463894367218, 0.30437254905700684, -0.016924424096941948, 0.22903665900230408, 0.13706567883491516, 0.023080961778759956, -0.08458703756332397, -0.01189358625560999, 0.2339348942041397, 0.17401961982250214, 0.2000276744365692, -0.09936727583408356, -0.07630056142807007, 0.08937295526266098, -0.17978011071681976, 0.010480234399437904, -0.3299829065799713], [0.050923436880111694, -0.009352067485451698, 0.2492693066596985, -0.11676444858312607, 0.2263319343328476, -0.1194295585155487, -0.08592057228088379, -0.13890093564987183, -0.08923404663801193, -0.031168637797236443, 0.15729163587093353, -0.13794167339801788, -0.08154807239770889, -0.007238374091684818, -0.20792482793331146, -0.12502700090408325, 0.010851498693227768, 0.23938106000423431, -0.08638413995504379, -0.10007783770561218, -0.10134104639291763, 0.008030131459236145, 0.31021061539649963, 0.20663732290267944, 0.18789687752723694, 0.004690617322921753, 0.11578145623207092, 0.28979551792144775], [-0.16690683364868164, -0.05341872572898865, -0.22180230915546417, 0.3224748969078064, -0.4268968403339386, 0.014626124873757362, 0.0360407792031765, 0.19960933923721313, 0.029400963336229324, -0.12252594530582428, -0.09722661226987839, -0.07691306620836258, 0.4787793755531311, 0.05597977340221405, 0.29658612608909607, -0.055346813052892685, -0.1165323331952095, -0.04037720710039139, 0.147843599319458, 0.20420566201210022, 0.32397666573524475, 0.030381465330719948, -0.3617318868637085, -0.28293678164482117, -0.1537577360868454, -0.03468005359172821, -0.1561884880065918, -0.16430427134037018], [-0.14029136300086975, -0.07337523251771927, -0.04475836083292961, 0.32845577597618103, -0.09831332415342331, -0.09801386296749115, -0.02818969078361988, 0.20000535249710083, 0.04990898445248604, -0.15119569003582, -0.03673374652862549, 0.19793961942195892, 0.27075788378715515, 0.12929990887641907, 0.24362823367118835, 0.18768659234046936, 0.030873291194438934, -0.11923635005950928, -0.16564181447029114, 0.20983105897903442, 0.11361295729875565, -0.08824999630451202, -0.339560329914093, 0.1124538779258728, -0.1823359727859497, -0.11622893810272217, 0.05032190680503845, -0.2530391216278076], [0.06155392527580261, 0.11045221984386444, -0.14941462874412537, 0.07585805654525757, -0.09962865710258484, 0.054769597947597504, -0.1398182511329651, -0.10434305667877197, -0.01645037531852722, -0.17166440188884735, 0.037192970514297485, -0.08373324573040009, 0.012641407549381256, 0.13324986398220062, -0.05955226346850395, 0.042708151042461395, -0.10236009955406189, 0.17753633856773376, 0.09031873941421509, -0.14725446701049805, 0.018823493272066116, -0.17275755107402802, 0.002020768355578184, 0.03552361577749252, -0.1873101145029068, 0.098326176404953, -0.012210008688271046, -0.1234799176454544], [-0.09690356254577637, -0.06411977112293243, 0.2263018786907196, -0.3711262047290802, 0.20281940698623657, 0.004933910444378853, -0.04324652627110481, 0.08269289135932922, -0.09323862195014954, -0.16653859615325928, -0.040473610162734985, 0.14232882857322693, -0.2574983537197113, -0.23290470242500305, -0.16607460379600525, -0.14335627853870392, 0.05183344706892967, 0.2344582974910736, -0.07889005541801453, -0.025409527122974396, -0.07716941088438034, 0.2483479082584381, 0.2965596616268158, 0.13369102776050568, 0.19633322954177856, -0.1004774197936058, 0.09735503047704697, 0.41797885298728943], [0.004792928695678711, -0.16360825300216675, -0.18400448560714722, 0.05935497581958771, -0.16510535776615143, 0.047544464468955994, -0.14195945858955383, 0.006216004490852356, 0.05182899534702301, 0.1859026700258255, 0.04098612070083618, 0.021317988634109497, 0.04266020655632019, -0.0500306636095047, 0.0010305792093276978, 0.007113605737686157, -0.08768248558044434, -0.15960893034934998, -0.0038236230611801147, -0.18457938730716705, 0.00989764928817749, 0.11330683529376984, -0.04495874047279358, 0.16127221286296844, -0.1223970502614975, -0.11183749884366989, 0.1815788596868515, -0.15728318691253662], [0.06356815248727798, 0.06851283460855484, -0.10191840678453445, -0.02645411714911461, -0.013122787699103355, 0.1383592039346695, -0.04312336444854736, 0.028249256312847137, -0.08840494602918625, -0.005521928425878286, 0.018144570291042328, 0.024513788521289825, 0.11477267742156982, -0.1176927238702774, 0.1490495800971985, -0.15029774606227875, 0.0584167055785656, 0.18328605592250824, 0.17919859290122986, 0.07566934078931808, -0.09695877879858017, -0.15631034970283508, -0.06573536992073059, 0.02121608331799507, -0.16564328968524933, -0.0918746218085289, 0.11659909784793854, 0.11656635254621506], [0.11853736639022827, -0.11953109502792358, -0.11759528517723083, -0.06277957558631897, 0.1100812554359436, 0.09708720445632935, -0.16565313935279846, -0.030052870512008667, -0.08914247155189514, 0.050232429057359695, 0.1078464686870575, 0.14957621693611145, 0.13454470038414001, 0.12056836485862732, -0.01215405948460102, -0.007893899455666542, -0.196302592754364, -0.1381896436214447, 0.05763932317495346, 0.016327090561389923, -0.05540948361158371, -0.18691205978393555, -0.05186804383993149, -0.06559887528419495, 0.04407761991024017, -0.1824977695941925, -0.19398783147335052, 0.07393533736467361], [-0.1420753002166748, 0.014799615368247032, -0.0349409319460392, 0.130976602435112, -0.061201225966215134, -0.16426004469394684, 0.184122696518898, 0.12310624122619629, 0.0325234979391098, -0.0035222014412283897, 0.06155385449528694, -0.06907998025417328, 0.2783571481704712, -0.09231097996234894, 0.1274092197418213, 0.111908458173275, -0.10787772387266159, -0.12693746387958527, 0.10073776543140411, 0.23931536078453064, -0.0659240335226059, 0.03590618818998337, -0.06754414737224579, -0.20502333343029022, -0.2567712962627411, 0.11595529317855835, -0.07708979398012161, -0.11839896440505981], [-0.16194742918014526, 0.043236084282398224, -0.07845017313957214, -0.004734402988106012, -0.14829804003238678, 0.15439598262310028, 0.1663895547389984, -0.12898147106170654, -0.013043850660324097, -0.08759886026382446, -0.16273225843906403, 0.1470351368188858, 0.01297079585492611, 0.16047008335590363, -0.01525088120251894, 0.11184991896152496, -0.231920525431633, 0.1769605576992035, 0.09094318747520447, -0.1747569441795349, 0.1878829002380371, -0.12275351583957672, 0.08697671443223953, -0.0566498264670372, 0.09838168323040009, 0.13350127637386322, -0.21190500259399414, -0.1496889293193817], [0.0967935100197792, -0.013750527054071426, 0.1399146318435669, 0.15208442509174347, -0.019884705543518066, -0.14136555790901184, -0.015899060294032097, 0.17380446195602417, 0.1301637440919876, 0.16957306861877441, -0.06408824026584625, 0.12959830462932587, -0.025097493082284927, 0.009228281676769257, 0.1330869048833847, -0.07659611105918884, 0.15424878895282745, 0.03604360669851303, -0.10547784715890884, -0.13316702842712402, -0.04057483375072479, 0.08333848416805267, -0.1421937644481659, -0.12491825222969055, -0.10660608112812042, -0.1835746318101883, -0.18295028805732727, -0.00032167870085686445], [0.2253393828868866, 0.08036438375711441, 0.08183303475379944, -0.37732917070388794, 0.08576733618974686, 0.11798183619976044, 0.23420336842536926, -0.2096712291240692, 0.1055058091878891, 0.06484924256801605, 0.047074101865291595, 0.12079479545354843, -0.41485756635665894, 0.032345011830329895, 0.06105000525712967, -0.037891585379838943, 0.20799700915813446, 0.09405328333377838, -0.010131926275789738, -0.1565476804971695, -0.14493721723556519, 0.17829729616641998, 0.06618770956993103, 0.12707117199897766, 0.2330959439277649, -0.0997965931892395, 0.1417209506034851, 0.2225056141614914], [0.0938759297132492, 0.13207828998565674, 0.025258108973503113, 0.18997232615947723, -0.24092374742031097, 0.10364361107349396, 0.14996908605098724, -0.08160549402236938, 0.0219634547829628, 0.1091058999300003, -0.10284137725830078, 0.06578774750232697, 0.15616030991077423, -0.0817703902721405, 0.25251907110214233, 0.23601099848747253, -0.0959099754691124, -0.12129537761211395, 0.14666596055030823, 0.2695274353027344, 0.17892588675022125, -0.06486102938652039, -0.3925718069076538, -0.1799362450838089, -0.0732329860329628, 0.0798497349023819, -0.1542365998029709, -0.4255077838897705], [-0.09136148542165756, -0.10330469161272049, 0.15261611342430115, -0.1681864857673645, 0.08757925778627396, 0.14223217964172363, -0.03274289891123772, 0.05198202282190323, 0.1670556664466858, -0.04228600859642029, -0.10071199387311935, 0.07116596400737762, -0.2078418731689453, 0.06599441915750504, -0.25900956988334656, 0.023086607456207275, 0.08915118873119354, 0.1959904432296753, 0.11886230856180191, 0.012347407639026642, 0.14419953525066376, 0.060707930475473404, 0.2613798677921295, 0.09894677251577377, 0.09651045501232147, -0.16650766134262085, 0.16155482828617096, 0.20623277127742767], [0.16956479847431183, -0.1429000347852707, 0.26027509570121765, -0.18219561874866486, 0.1660490781068802, -0.15668544173240662, 0.1940097212791443, -0.18540483713150024, -0.1673310250043869, -0.10244863480329514, 0.19116055965423584, 0.11155308783054352, -0.1688125729560852, -0.0035164684522897005, 0.005579136777669191, -0.02197101339697838, 0.13988955318927765, 0.11932232230901718, -0.1794150024652481, -0.22353637218475342, -0.29471883177757263, 0.05765366554260254, 0.27247780561447144, -0.08069595694541931, 0.24221545457839966, -0.02857309952378273, 0.2909378409385681, 0.4081065356731415], [0.08084937930107117, 0.06594344228506088, 0.29522454738616943, -0.020690392702817917, 0.3053617775440216, 0.07180075347423553, -0.104424849152565, -0.03380446881055832, -0.0046464307233691216, -0.07045883685350418, -0.12069115042686462, 0.15386545658111572, -0.3109630048274994, 0.06470736116170883, -0.040185198187828064, 0.08200211822986603, 0.22216014564037323, -0.06799689680337906, 0.0397331528365612, 0.006720795761793852, -0.16086439788341522, 0.0020865630358457565, 0.36103886365890503, 0.32221630215644836, 0.15789686143398285, -0.044002220034599304, 0.15905360877513885, 0.38521692156791687]], "actor.network.2.bias": [-0.04420679435133934, 0.13847355544567108, -0.08795171231031418, -0.17536082863807678, -0.040349870920181274, 0.09388387948274612, 0.12380970269441605, 0.07844763994216919, 0.0710262581706047, 0.28392305970191956, 0.06239607557654381, 0.02934679388999939, 0.22115148603916168, 0.27761310338974, 0.1422298699617386, -0.012810161337256432, 0.16123011708259583, 0.03801921010017395, -0.15033210813999176, 0.02043023332953453, -0.013124166987836361, -0.14410611987113953, -0.07375523447990417, 0.2514593005180359, 0.09940516948699951, -0.029375318437814713, 0.13302481174468994, 0.016860997304320335], "actor.network.4.weight": [[-0.006703143008053303, 0.12628979980945587, -0.06845639646053314, 0.05854950100183487, -0.16137583553791046, 0.23143328726291656, 0.2804047167301178, 0.07100633531808853, -0.11261634528636932, 0.018620848655700684, -0.08295899629592896, 0.13078901171684265, 0.08351238816976547, -0.15836971998214722, -0.24516552686691284, 0.09307868778705597, 0.22995679080486298, -0.0391855388879776, -0.004572540521621704, -0.09239669144153595, -0.10896949470043182, 0.0674593448638916, 0.03362884372472763, 0.19566556811332703, -0.010287090204656124, 0.27213090658187866, 0.05041426420211792, -0.04419935867190361], [-0.028622915968298912, 0.24523933231830597, 0.14287744462490082, -0.18359705805778503, -0.032080963253974915, 0.22079823911190033, 0.1678658127784729, -0.09235803037881851, 0.08583546429872513, 0.1322399526834488, -0.09611156582832336, 0.12328878790140152, 0.26256367564201355, -0.3503466844558716, -0.25576457381248474, 0.019201532006263733, 0.19973015785217285, 0.021154627203941345, 0.14181512594223022, -0.14332959055900574, -0.07418294250965118, -0.1094135046005249, 0.09643466770648956, 0.057069409638643265, -0.1630951315164566, 0.1442466676235199, 0.2439129650592804, 0.10252882540225983], [-0.001374375424347818, -0.2524104714393616, -0.05571555346250534, -0.16999423503875732, 0.03468488156795502, -0.02919762209057808, -0.14176230132579803, 0.06817445904016495, -0.13576088845729828, 0.2716602087020874, 0.06545169651508331, 0.25333672761917114, 0.012413972988724709, 0.3558335304260254, 0.27816781401634216, -0.02540826052427292, 0.005961497314274311, -0.05148403346538544, 0.021944863721728325, -0.0022378582507371902, 0.23141586780548096, 0.22210893034934998, -0.1509791612625122, -0.15120217204093933, 0.4076443016529083, -0.21907998621463776, -0.14038720726966858, -0.23420371115207672], [-0.19462227821350098, -0.1626494824886322, -0.10962969064712524, 0.12500855326652527, 0.015191672369837761, -0.10975136607885361, -0.07544373720884323, -0.14545994997024536, 0.10590919852256775, 0.17342045903205872, 0.09032644331455231, 0.00974993221461773, 0.13207218050956726, 0.1649639904499054, -0.1710793823003769, -0.1657634973526001, 0.017156563699245453, 0.11177708208560944, 0.08018343150615692, 0.08918941020965576, -0.08638976514339447, -0.040756091475486755, -0.17847996950149536, -0.18159642815589905, 0.16444514691829681, 0.0025932472199201584, 0.01366182416677475, 0.17667534947395325], [-0.12457874417304993, 0.09944240748882294, -0.11167332530021667, 0.049521490931510925, -0.06478166580200195, -0.12425738573074341, 0.004751344211399555, 0.12827886641025543, 0.16790884733200073, 0.08751530200242996, 0.12216553837060928, -0.02297622337937355, 0.019265417009592056, -0.2072611004114151, 0.12285132706165314, -0.08173321187496185, 0.03179630637168884, -0.07159542292356491, -0.04249385744333267, 0.04975567385554314, 0.10956467688083649, -0.11604426801204681, -0.1020965427160263, 0.06019267439842224, 0.019114693626761436, -0.016965631395578384, -0.14300638437271118, 0.0650700181722641], [-0.03824836015701294, -0.13814489543437958, 0.16348882019519806, -0.08306343108415604, 0.16446031630039215, -0.019866585731506348, -0.1432146281003952, 0.08833809196949005, -0.1788804531097412, -0.01350124180316925, -0.038840293884277344, -0.07323400676250458, 0.12430338561534882, 0.01962420344352722, 0.1411597579717636, 0.06416802108287811, -0.06416822224855423, -0.04381297528743744, 0.15383733808994293, 0.14107249677181244, 0.1826852411031723, -0.1870894432067871, 0.1005110889673233, -0.10071586072444916, -0.14435777068138123, -0.004960983991622925, -0.02012433111667633, -0.18011602759361267], [-0.1077042669057846, 0.2970105707645416, 0.08009845018386841, 0.13490626215934753, 0.14987225830554962, -0.03169708698987961, 0.2938440144062042, -0.2273443192243576, -0.13491304218769073, 0.11027967929840088, -0.05949071794748306, 0.0782955065369606, 0.25837430357933044, -0.18700376152992249, -0.10612967610359192, -0.18545906245708466, 0.2453782558441162, 0.01950448751449585, 0.08863663673400879, -0.18955078721046448, -0.02666304260492325, -0.014111112803220749, 0.04051722586154938, 0.3852570354938507, -0.31528404355049133, 0.09372139722108841, 0.3219203054904938, 0.12654949724674225], [0.09206981956958771, -0.07005947828292847, 0.17857970297336578, -0.13373082876205444, 0.11773757636547089, -0.0450056828558445, 0.03251556307077408, 0.11415399610996246, 0.03007693588733673, -0.16133667528629303, -0.18646502494812012, 0.015635713934898376, -0.029617000371217728, -0.034533657133579254, -0.06904806196689606, -0.18807224929332733, -0.08919963240623474, 0.09878058731555939, 0.018568456172943115, -0.011812135577201843, -0.09198606014251709, 0.15398231148719788, -0.13750535249710083, -0.16532990336418152, 0.16246779263019562, -0.020405244082212448, -0.06230075657367706, -0.14919668436050415], [-0.09321381151676178, -0.09450027346611023, -0.09888141602277756, 0.023342609405517578, 0.0637938529253006, -0.15131190419197083, 0.04788180813193321, 0.07813017070293427, 0.17418892681598663, 0.1564868986606598, 0.12248580157756805, 0.09905676543712616, -0.021058542653918266, -0.03832284361124039, -0.13969850540161133, -0.1494823396205902, -0.06507989764213562, -0.052811190485954285, 0.17527145147323608, 0.08846394717693329, 0.09651854634284973, -0.033701907843351364, 0.11076249182224274, -0.07122547924518585, -0.021699216216802597, -0.1844410002231598, 0.1620737910270691, -0.017476724460721016], [0.2945890724658966, 0.012632263824343681, -0.15604883432388306, -0.1612510085105896, 0.1612561047077179, 0.13259568810462952, 0.029925372451543808, 0.11894592642784119, -0.07405395805835724, -0.006055543664842844, -0.01674327254295349, 0.13990004360675812, -0.21876397728919983, 0.36487504839897156, 0.03775981068611145, 0.027284707874059677, -0.267138808965683, 0.1848524659872055, 0.05789469555020332, 0.00238220626488328, 0.001688772696070373, 0.05701165646314621, -0.005414038430899382, 0.07584404945373535, 0.3965623080730438, -0.16854539513587952, -0.11159050464630127, -0.13372504711151123], [0.27560240030288696, -0.26884010434150696, -0.10425335168838501, 0.07027190923690796, -0.1505296528339386, 0.04386044293642044, -0.2433951050043106, 0.11945211887359619, -0.10727216303348541, 0.15701179206371307, -0.09429796040058136, 0.2685900628566742, -0.03479263558983803, 0.27997326850891113, 0.22089934349060059, -0.06598196923732758, -0.2964085042476654, -0.09938088804483414, -0.007751092314720154, -0.058648474514484406, 0.32248038053512573, 0.08167906105518341, 0.0774616003036499, -0.0733390673995018, 0.3865518867969513, 0.01545590441673994, -0.14011067152023315, -0.07479947805404663], [-0.16072288155555725, 0.1226281002163887, -0.03201707452535629, -0.10481476038694382, -0.0708451047539711, -0.008505243808031082, 0.3035242259502411, 0.0840923935174942, 0.15133532881736755, 0.1645444631576538, -0.08213858306407928, 0.0700540691614151, 0.13343770802021027, -0.3123254179954529, 0.11285939812660217, -0.19575272500514984, 0.35737863183021545, 0.028267472982406616, 0.006746871862560511, 0.18107494711875916, -0.037348099052906036, -0.2323143184185028, 0.008447544649243355, 0.24555650353431702, -0.25854915380477905, 0.18373335897922516, 0.09154146164655685, 0.13615064322948456], [-0.15946239233016968, -0.11439871042966843, -0.04618552327156067, -0.09927428513765335, 0.1788381189107895, 0.07471438497304916, 0.09362557530403137, -0.06047137826681137, -0.1737242043018341, -0.12254716455936432, -0.18233631551265717, -0.14424490928649902, -0.1177193820476532, 0.14617586135864258, -0.14132119715213776, 0.02587181329727173, 0.08878716826438904, -0.09384813159704208, -0.144644632935524, 0.05363127589225769, 0.1769329309463501, -0.16159747540950775, -0.052688345313072205, 0.027746383100748062, -0.1270969659090042, -0.05299103260040283, -0.05844760313630104, -0.0684947669506073], [-0.09628944844007492, 0.03709688037633896, 0.11807991564273834, -0.05403181165456772, -0.10275812447071075, 0.049482472240924835, 0.17155277729034424, 0.015805797651410103, -0.1692925989627838, 0.14004851877689362, 0.04571087285876274, -0.18687085807323456, 0.07159970700740814, 0.00365025014616549, -0.01958932727575302, 0.11693521589040756, 0.15114858746528625, -0.014088496565818787, -0.010111280716955662, 0.15705978870391846, -0.05009011924266815, -0.05891098827123642, -0.18307387828826904, 0.24941112101078033, -0.28300052881240845, -0.004734457470476627, 0.1516241580247879, 0.31705236434936523], [-0.15740683674812317, 0.31800130009651184, -0.06289918720722198, -0.02838580682873726, 0.126871719956398, 0.1871587485074997, 0.2877686023712158, 0.07004464417695999, -0.10481805354356766, 0.21025359630584717, -0.04473711550235748, 0.10067419707775116, 0.015955761075019836, -0.14760465919971466, -0.12771597504615784, 0.059277020394802094, 0.29553622007369995, 0.09372712671756744, 0.06907573342323303, 0.14029820263385773, -0.14274878799915314, 0.12784381210803986, 0.011734776198863983, 0.25830039381980896, -0.036529965698719025, 0.226625457406044, 0.01270284503698349, 0.11042550951242447], [-0.0760369747877121, -0.11436046659946442, 0.18508045375347137, 0.11182139813899994, -0.012694470584392548, -0.14917732775211334, 0.067100390791893, -0.12955890595912933, 0.18361376225948334, 0.17140619456768036, 0.11531729996204376, -0.12088830769062042, -0.14111259579658508, 0.05283418670296669, -0.06378082931041718, -0.04918863624334335, -0.17641346156597137, 0.1545213907957077, 0.16402216255664825, -0.00024153172853402793, -0.08087243139743805, 0.042632460594177246, -0.14038436114788055, -0.1766820251941681, 0.1356622874736786, -0.14274632930755615, 0.13289375603199005, 0.02867499738931656], [0.09266411513090134, 0.04654858633875847, 0.1455390602350235, 0.11920373141765594, -0.12494798004627228, 0.06683296710252762, -0.02221604809165001, -0.040927477180957794, 0.07132625579833984, 0.19882330298423767, -0.011813534423708916, 0.26486432552337646, -0.16286782920360565, 0.30973660945892334, 0.19797611236572266, 0.042069487273693085, -0.07769820839166641, -0.1367862969636917, -0.1648915410041809, -0.09339360892772675, 0.28963708877563477, 0.11123616248369217, 0.13071458041667938, 0.01880405656993389, 0.04637455567717552, -0.1542140245437622, 0.005153643433004618, -0.10733726620674133], [-0.17076490819454193, 0.04626786336302757, -0.1392451524734497, 0.06911860406398773, 0.12331387400627136, 0.03244088217616081, 0.19351357221603394, -0.1729765236377716, -0.11322496831417084, -0.13675498962402344, -0.1609485149383545, -0.1265743225812912, 0.11886147409677505, -0.09967190772294998, 0.06655982881784439, 0.17100012302398682, 0.37575575709342957, -0.17709985375404358, -0.06894166022539139, 0.015507183969020844, -0.15459118783473969, -0.023280732333660126, -0.046238645911216736, 0.1922808736562729, -0.18780840933322906, 0.12936736643314362, 0.0890955924987793, 0.25598496198654175], [0.2652152180671692, -0.20299088954925537, 0.1663801372051239, -0.05101313441991806, -0.19190281629562378, -0.04662773385643959, -0.07415620982646942, 0.2408977746963501, 0.12273447960615158, 0.15903419256210327, -0.1307910680770874, 0.009872163645923138, -0.05792822688817978, 0.13194216787815094, 0.07020685076713562, 0.1513526886701584, -0.19773392379283905, 0.1317984014749527, -0.15127459168434143, -0.0008766134269535542, 0.24441954493522644, -0.1049879938364029, -0.0855603963136673, -0.15706132352352142, 0.35183778405189514, -0.08561129122972488, -0.19624458253383636, 0.02326345257461071], [-0.050570979714393616, 0.049247726798057556, -0.1567399799823761, 0.0154198557138443, 0.0253104567527771, -0.10762190818786621, -0.16014224290847778, -0.04220278561115265, 0.0764618068933487, -0.18344120681285858, -0.0348985493183136, -0.17595449090003967, 0.1244916170835495, -0.09874372184276581, 0.1407259851694107, 0.030243486166000366, 0.046337008476257324, -0.1510666012763977, -0.1062619537115097, 0.06277169287204742, 0.002476707100868225, -0.11987674981355667, -0.18332937359809875, 0.0774882584810257, -0.11842262744903564, 0.0902368575334549, -0.034724995493888855, -0.06257584691047668], [-0.1778494417667389, 0.19084221124649048, 0.08094189316034317, 0.11482743918895721, -0.14095047116279602, 0.20641107857227325, 0.16415250301361084, -0.033617954701185226, 0.1269458532333374, 0.19119328260421753, 0.0499158576130867, -0.017125194892287254, 0.35624438524246216, -0.37716352939605713, -0.24709552526474, -0.14869628846645355, 0.2830478250980377, 0.009046882390975952, 0.15600109100341797, -0.12693065404891968, -0.16354867815971375, -0.12934187054634094, 0.061913978308439255, 0.3921346068382263, -0.07417552918195724, 0.08293517678976059, 0.02381710708141327, 0.1907753348350525], [-0.1501057744026184, 0.3595597445964813, -0.17543324828147888, 0.07153297960758209, -0.09895842522382736, -0.06749940663576126, 0.27214571833610535, -0.14304979145526886, 0.015835659578442574, -0.16151997447013855, -0.026417966932058334, 0.002409604610875249, 0.12677691876888275, -0.2040560096502304, 0.05387111380696297, -0.1866077482700348, 0.30682697892189026, -0.09977822750806808, -0.0486563965678215, -0.1539965122938156, -0.009691102430224419, -0.22544586658477783, 0.12888221442699432, 0.26568731665611267, -0.15311408042907715, 0.08639566600322723, 0.270374059677124, 0.04906168207526207], [0.004445586819201708, 0.035348571836948395, 0.062455758452415466, 0.12025916576385498, 0.19276797771453857, 0.055694710463285446, -0.16687613725662231, 0.06377378851175308, 0.027170725166797638, -0.021396581083536148, 0.11259238421916962, -0.1498006284236908, 0.0217718705534935, -0.0575067363679409, 0.1727946400642395, -0.17464905977249146, -0.15082713961601257, -0.16714422404766083, 0.014299610629677773, 0.029735414311289787, -0.10772515088319778, 0.042142391204833984, -0.12830808758735657, 0.09954833984375, -0.1379600167274475, 0.11539945751428604, 0.0882025808095932, -0.02667483687400818], [-0.22824731469154358, 0.14027270674705505, -0.06288322806358337, -0.19817647337913513, 0.04042099788784981, 0.2389187216758728, 0.23935407400131226, -0.20704513788223267, -0.19436457753181458, 0.11387546360492706, 0.11683168262243271, 0.11831221729516983, -0.005682878661900759, -0.2834261655807495, -0.14083531498908997, -0.08221231400966644, 0.06641006469726562, 0.0608011931180954, -0.00579857686534524, 0.05577531456947327, -0.11635229736566544, -0.0414268784224987, -0.020489994436502457, 0.10122735053300858, -0.12935100495815277, 0.18398378789424896, 0.20233988761901855, 0.2922447621822357], [0.18354985117912292, -0.17253141105175018, -0.016678040847182274, 0.10994051396846771, 0.043785758316516876, 0.04865199699997902, 0.06347502768039703, 0.12889592349529266, 0.12672556936740875, 0.05310382321476936, -0.15704411268234253, -0.019621847197413445, -0.24822166562080383, 0.06931509077548981, 0.17354732751846313, -0.11008188128471375, -0.08225119113922119, 0.1357978731393814, 0.17014694213867188, 0.17134666442871094, 0.060223791748285294, 0.047859206795692444, -0.014110874384641647, -0.25577765703201294, 0.39719071984291077, -0.18639357388019562, -0.12918053567409515, 0.003245264058932662], [0.3013387620449066, -0.06395836919546127, 0.10036338865756989, 0.0246850848197937, 0.05630854517221451, -0.20267660915851593, -0.04162897169589996, 0.11598484963178635, -0.026919197291135788, 0.27653440833091736, 0.0744028091430664, 0.2900036573410034, -0.1994195133447647, 0.3776623010635376, 0.15847952663898468, 0.005242623388767242, -0.10758992284536362, -0.018466249108314514, -0.12163832783699036, -0.0021076719276607037, 0.16914285719394684, 0.02163216471672058, -0.022039763629436493, -0.07695161551237106, 0.42431721091270447, 0.07113619893789291, -0.3086947500705719, -0.20587067306041718], [0.01790737546980381, 0.2115653157234192, 0.01448910403996706, 0.19329015910625458, 0.00429877731949091, 0.24133089184761047, 0.19173556566238403, -0.13133689761161804, 0.08055869489908218, -0.05067039281129837, 0.1682157814502716, 0.01083778403699398, 0.32824698090553284, -0.3573612868785858, -0.21520239114761353, -0.10500623285770416, 0.04921524226665497, -0.14723822474479675, -0.044106848537921906, 0.11666019260883331, 0.08350902795791626, -0.10451427847146988, -0.04896233603358269, 0.3241758346557617, -0.2552310526371002, 0.20385192334651947, 0.1317710280418396, 0.24147062003612518], [0.2857985198497772, -0.1571522206068039, 0.1168595626950264, -0.13004517555236816, 0.059003278613090515, 0.14199307560920715, 0.03917774558067322, 0.01705489493906498, -0.10316579788923264, 0.07219938933849335, 0.09877240657806396, 0.11696954816579819, 0.05340880900621414, 0.2267785668373108, 0.26205015182495117, 0.09173315763473511, -0.04966644197702408, -0.04152897000312805, 0.09117431193590164, 0.14858850836753845, 0.24836713075637817, -0.13333004713058472, 0.07135199755430222, -0.15571008622646332, 0.09433680772781372, -0.0713610053062439, 0.08643881976604462, -0.1451098769903183]], "actor.network.4.bias": [0.014872658997774124, 0.1516920030117035, 0.16680341958999634, -0.19863829016685486, -0.1019299253821373, -0.1784217357635498, 0.07912732660770416, -0.0769580528140068, -0.14904651045799255, 0.0489206537604332, 0.23756010830402374, 0.12655967473983765, -0.04595472663640976, 0.1279294341802597, -0.05300963297486305, -0.07733099162578583, -0.1013779267668724, 0.19219328463077545, 0.18010245263576508, -0.07845233380794525, 0.2056410163640976, 0.12291587889194489, -0.0632549300789833, 0.159903421998024, 0.16758739948272705, 0.2313305288553238, 0.1595458984375, -0.1204998642206192], "actor.network.6.weight": [[-0.12437723577022552, -0.2873300015926361, 0.33961138129234314, -0.013411675579845905, -0.021526940166950226, 0.10042063891887665, -0.4173600375652313, 0.11399653553962708, -0.07177096605300903, 0.3730523884296417, 0.2862316966056824, -0.33965030312538147, -0.1364624798297882, -0.05392874777317047, -0.31214720010757446, -0.08827195316553116, 0.26280686259269714, -0.2956131398677826, 0.19311973452568054, -0.08516772091388702, -0.4089416265487671, -0.06301383674144745, -0.06881257891654968, -0.06625588983297348, 0.23251260817050934, 0.06900429725646973, -0.33477526903152466, 0.16181428730487823], [0.21810311079025269, 0.18880188465118408, -0.2397560477256775, 0.08519122004508972, -0.06812811642885208, -0.07355647534132004, 0.25346803665161133, 0.08296853303909302, 0.15533456206321716, -0.3580467998981476, -0.30395662784576416, 0.101877860724926, -0.13748881220817566, 0.21516114473342896, 0.26161080598831177, 0.06608247011899948, -0.04877382144331932, 0.2912110984325409, -0.14991801977157593, 0.11408723890781403, 0.34867429733276367, 0.3447376489639282, -0.13176146149635315, 0.39217981696128845, -0.34809982776641846, -0.3567088842391968, 0.1794072687625885, -0.10795466601848602]], "actor.network.6.bias": [0.10791690647602081, -0.036073919385671616], "critic.network.0.weight": [[0.19396963715553284, 0.005138990469276905, -0.18557706475257874, 0.27234748005867004], [0.4812755286693573, -0.2598434388637543, 0.07422858476638794, 0.35705649852752686], [0.009528758935630322, -0.08028095215559006, 0.02697560377418995, -0.345264196395874], [-0.3955521583557129, -0.40273594856262207, 0.06890484690666199, 0.1498754322528839], [0.2051822990179062, -0.39682066440582275, -0.3504580557346344, 0.4308142066001892], [-0.17374759912490845, 0.20728695392608643, -0.5197520852088928, 0.33599308133125305], [-0.11137288808822632, 0.2967997193336487, 0.02156810089945793, 0.24957767128944397], [-0.2679256200790405, 0.23637902736663818, 0.04764840006828308, 0.3191806972026825], [-0.08591121435165405, 0.053043752908706665, 0.00434772577136755, 0.4452255368232727], [0.036884605884552, -0.34766918420791626, 0.2928454875946045, 0.09047308564186096], [0.26670631766319275, 0.4545259177684784, -0.2891262173652649, 0.43599268794059753], [-0.10376545041799545, -0.34274792671203613, 0.5680229663848877, -0.09653402864933014], [0.023878831416368484, -0.03138899803161621, 0.3635947108268738, -0.19657932221889496], [-0.38924795389175415, 0.15582136809825897, -0.47073477506637573, 0.2783651053905487], [0.059018824249506, -0.3980178236961365, 0.5330485701560974, 0.4385778605937958], [0.5218031406402588, -0.050781525671482086, 0.4134264588356018, -0.31857529282569885], [0.3540119528770447, 0.3975084722042084, 0.08978114277124405, -0.23940055072307587], [-0.17622193694114685, 0.15139895677566528, 0.6957158446311951, 0.2686757445335388], [0.5807234048843384, -0.37658923864364624, 0.16620147228240967, -0.49990421533584595], [0.21056118607521057, 0.028274985030293465, -0.1423238217830658, -0.1350417286157608], [-0.22208747267723083, 0.1531006395816803, 0.2800005078315735, 0.009653925895690918], [0.400173544883728, -0.22013378143310547, -0.34558355808258057, 0.10281523317098618], [-0.3079576790332794, 0.28032469749450684, 0.14595574140548706, 0.2919670343399048], [-0.03743181750178337, -0.06864331662654877, -0.4189792275428772, -0.19928303360939026], [0.5190766453742981, -0.4162144362926483, -0.24780207872390747, -0.4110390841960907], [0.31410378217697144, -0.44843581318855286, 0.2555534541606903, -0.2751035690307617], [0.194037526845932, -0.028455838561058044, -0.5565601587295532, 0.3367975056171417], [-0.2230919748544693, -0.17181146144866943, -0.2345028817653656, -0.34083613753318787]], "critic.network.0.bias": [0.577892541885376, -0.18706996738910675, 0.4069876968860626, -0.5873276591300964, -0.46581631898880005, -0.48538416624069214, 0.5654257535934448, -0.16500890254974365, -0.3830662965774536, -0.4960191249847412, -0.3679066300392151, -0.5450891256332397, 0.008666811510920525, -0.22087058424949646, -0.2087935507297516, -0.2670973241329193, -0.012001032941043377, -0.2340889722108841, -0.23556435108184814, 0.5806268453598022, 0.28847354650497437, -0.3605853319168091, -0.1677354872226715, 0.5515668392181396, -0.25638824701309204, 0.29546332359313965, 0.5442654490470886, -0.4057384431362152], "critic.network.2.weight": [[0.32118043303489685, -0.07644443213939667, 0.1380833238363266, 0.09903174638748169, 0.167779341340065, -0.06589357554912567, 0.11342902481555939, 0.07253840565681458, -0.1758142113685608, 0.023861967027187347, -0.20099499821662903, 0.02897912636399269, 0.14609959721565247, 0.013427517376840115, 0.16239804029464722, -0.13431158661842346, -0.004795502405613661, -0.20763319730758667, -0.36029714345932007, 0.22229136526584625, 0.01743859425187111, -0.22070758044719696, -0.1841880977153778, 0.17128396034240723, -0.036883339285850525, 0.028394727036356926, -0.03815663978457451, -0.05402689427137375], [0.17226772010326385, -0.28285327553749084, 0.1974540799856186, 0.13514645397663116, -0.07783273607492447, 0.016855061054229736, 0.06566057354211807, -0.019555917009711266, 0.0732782632112503, 0.04798628389835358, -0.18637940287590027, -0.2051740288734436, -0.049321189522743225, -0.15465205907821655, -0.08726640790700912, -0.1379801332950592, 0.0316898338496685, -0.2179294228553772, -0.35886943340301514, 0.23931242525577545, -0.08268037438392639, 0.13399460911750793, -0.15227830410003662, 0.02610711380839348, 0.019027555361390114, 0.04535312578082085, 0.26047050952911377, -0.2634366750717163], [0.028309063985943794, 0.04790329933166504, 0.0063492897897958755, 0.08510080724954605, -0.08874522894620895, -0.01587216928601265, 0.25221002101898193, -0.09888526797294617, 0.08929099142551422, 0.022033702582120895, -0.2858346402645111, -0.04125359654426575, -0.012350574135780334, 0.013276224955916405, 0.11919008940458298, 0.03844872862100601, -0.102935291826725, -0.28448522090911865, -0.06656080484390259, 0.20790250599384308, 0.145554319024086, -0.15894287824630737, -0.030506659299135208, 0.25534337759017944, -0.05138395354151726, 0.31262919306755066, 0.020376596599817276, -0.0533096119761467], [-0.008426675572991371, -0.008096372708678246, 0.02409779094159603, -0.17483223974704742, 0.3590259850025177, 0.026856109499931335, 0.006798295304179192, 0.12470681965351105, 0.12355667352676392, 0.0008177455165423453, -0.22635063529014587, 0.20818644762039185, 0.16711865365505219, 0.15765400230884552, 0.3551942706108093, 0.04072539508342743, -0.13100570440292358, 0.13461440801620483, 0.11034560948610306, 0.13471393287181854, 0.08204007148742676, -0.16395285725593567, 0.15859901905059814, -0.1177050918340683, -0.07744081318378448, 0.17767933011054993, -0.09578359127044678, -0.11362317949533463], [0.2844923734664917, -0.21425722539424896, 0.2619911730289459, -0.11842731386423111, 0.049972906708717346, 0.06775552779436111, 0.03466270864009857, -0.06157371401786804, 0.11278974264860153, 0.07051007449626923, -0.006290894467383623, 0.04442382603883743, -0.027521153911948204, -0.122111476957798, -0.0911073237657547, -0.011483551003038883, -0.03681531548500061, -0.19013763964176178, -0.05477013438940048, -0.031036190688610077, 0.1166684627532959, 0.13160493969917297, 0.0041577862575650215, 0.10113374888896942, 0.03239158168435097, 0.12181438505649567, 0.20413552224636078, -0.028219053521752357], [-0.06758639961481094, -0.09895535558462143, 0.03202401101589203, -0.1668224334716797, 0.09202320873737335, 0.13498996198177338, -0.1793672889471054, 0.1365862935781479, 0.15891699492931366, 0.06080269068479538, -0.02388894557952881, -0.03998144716024399, -0.04885539412498474, 0.05591244995594025, -0.018337227404117584, 0.16213037073612213, 0.044305216521024704, 0.041941672563552856, -0.04391929507255554, -0.19599640369415283, 0.15357807278633118, 0.08861593902111053, -0.17772988975048065, -0.07167837023735046, -0.11819207668304443, 0.16108734905719757, -0.04984830692410469, -0.041610173881053925], [-0.13179460167884827, -0.0018318712245672941, -0.026684148237109184, -0.24731014668941498, 0.14494387805461884, 0.07351379841566086, -0.08660133183002472, -0.05453261360526085, 0.04226195067167282, -0.21589693427085876, -0.307996928691864, -0.03314252942800522, -0.07989758998155594, 0.08571173995733261, 0.14652489125728607, 0.07748845219612122, -0.16398383677005768, -0.21417400240898132, -0.19119694828987122, 0.1577347368001938, 0.0854361280798912, 0.10685469210147858, -0.1995999813079834, -0.0465938039124012, -0.18919353187084198, 0.18306227028369904, 0.21229124069213867, -0.03614458069205284], [-0.2476537823677063, -0.0014904886484146118, 0.05736640840768814, 0.15993626415729523, 0.05181155353784561, 0.11916045844554901, -0.01609322801232338, -0.21917755901813507, -0.1079704761505127, -0.057447440922260284, 0.10619433224201202, 0.12858495116233826, -0.14903777837753296, 0.06535310298204422, 0.16354036331176758, 0.00906379520893097, -0.018676847219467163, -0.2530784606933594, 0.08681400120258331, -0.15834040939807892, 0.09259527176618576, -0.09480022639036179, -0.08555509150028229, 0.07475420832633972, -0.17411795258522034, 0.03866007924079895, -0.18277260661125183, 0.019955534487962723], [0.14120055735111237, -0.052429888397455215, 0.06674150377511978, -0.19781441986560822, 0.07964430749416351, -0.14016254246234894, -0.06831473112106323, 0.10790720582008362, -0.19266954064369202, -0.16221138834953308, -0.23943425714969635, -0.08290316164493561, -0.03979939594864845, 0.14474833011627197, 0.13764268159866333, -0.08584315329790115, -0.10634805262088776, -0.21456438302993774, -0.306479811668396, 0.14459048211574554, -0.006566526833921671, -0.22335141897201538, -0.10498759895563126, 0.16903448104858398, -0.12196947634220123, 0.18832238018512726, -0.009154978208243847, -0.11356571316719055], [-0.028916792944073677, -0.02998311072587967, 0.16400185227394104, 0.15893343091011047, -0.0196954645216465, -0.045072223991155624, -0.0404491201043129, -0.09584078937768936, 0.15585912764072418, -0.07612183690071106, 0.03566634654998779, -0.04390261694788933, -0.1780490130186081, -0.054410845041275024, -0.03261112421751022, -0.022136177867650986, -0.12252721190452576, 0.1414763331413269, 0.002148814732208848, 0.0886886939406395, 0.09301619231700897, 0.14217671751976013, -0.16676431894302368, 0.005605131387710571, 0.14062745869159698, -0.08186891674995422, 0.008822851814329624, -0.13680347800254822], [-0.10160486400127411, 0.10580037534236908, 0.20892181992530823, -0.057230547070503235, -0.20002150535583496, 0.12291594594717026, -0.14645174145698547, 0.028948117047548294, 0.04745031148195267, 0.02974950149655342, -0.013318976387381554, 0.07475052773952484, -0.16215741634368896, -0.08534450829029083, 0.07596848905086517, -0.1501738578081131, -0.10589457303285599, -0.0739278644323349, -0.046279795467853546, 0.06476572155952454, 0.07110831141471863, -0.053302742540836334, 0.03616836667060852, -0.1793013960123062, -0.23348617553710938, 0.09510095417499542, 0.04894141107797623, 0.06594379246234894], [0.014725076034665108, 0.13379912078380585, -0.2391466498374939, 0.15433451533317566, -0.020518656820058823, -0.19756342470645905, -0.03980954363942146, 0.1478544920682907, -0.0377228781580925, 0.011451812461018562, 0.09499014914035797, -0.16697414219379425, 0.14671896398067474, -0.024907737970352173, 0.14542549848556519, -0.13306626677513123, 0.0006891561206430197, 0.28672629594802856, -0.1904207319021225, 0.0018591643311083317, -0.3707064986228943, -0.1398445963859558, 0.25541362166404724, -0.12766169011592865, -0.09513083100318909, -0.3587343692779541, -0.10999439656734467, 0.08177018165588379], [-0.035548318177461624, 0.08955831825733185, 0.1831299066543579, -0.12191399931907654, -0.00548335537314415, 0.18271131813526154, 0.22574695944786072, -0.23258870840072632, 0.008153196424245834, -0.1399899274110794, -0.28567036986351013, -0.20914298295974731, 0.05212879553437233, 0.01460306067019701, 0.2008984386920929, -0.2170816957950592, -0.06985796242952347, -0.27503490447998047, -0.16629254817962646, 0.3291294276714325, 0.11479742079973221, -0.214294895529747, -0.09948380291461945, 0.09442107379436493, -0.11599940061569214, 0.1811765879392624, 0.06163240596652031, -0.27195972204208374], [-0.13287757337093353, 0.25448521971702576, 0.11198904365301132, 0.22228723764419556, -0.029991604387760162, -0.1295478194952011, -0.024058302864432335, 0.05382218211889267, 0.17461594939231873, -0.1114799827337265, 0.11222176253795624, 0.14979884028434753, -0.05209256708621979, 0.020706769078969955, 0.14581528306007385, 0.10353368520736694, 0.2237817347049713, 0.23205474019050598, 0.34072345495224, -0.062272898852825165, 0.024442564696073532, 0.03033798187971115, 0.35908594727516174, 0.07465006411075592, 0.10693415999412537, 0.038305871188640594, -0.0191997978836298, 0.043352968990802765], [0.12078064680099487, 0.08154894411563873, -0.11799892038106918, -0.06976653635501862, -0.13250230252742767, -0.1773769110441208, -0.09874588251113892, 0.07061517238616943, -0.012665435671806335, -0.03472217172384262, -0.07540497928857803, 0.1787378042936325, 0.0061912634409964085, 0.03957220911979675, -0.08135628700256348, 0.005898906849324703, 0.08957681804895401, -0.16795463860034943, 0.09512732923030853, 0.0075091347098350525, -0.08175728470087051, 0.17427586019039154, 0.07699592411518097, -0.13496902585029602, -0.12333253026008606, -0.09585220366716385, -0.23203924298286438, 0.1524265855550766], [-0.2333517074584961, 0.0019208570010960102, 0.04240728169679642, 0.27224576473236084, -0.05416366457939148, 0.1372106820344925, -0.09116446226835251, -0.137144535779953, -0.02175159379839897, 0.08228468894958496, -0.21618515253067017, 0.14443430304527283, -0.20278555154800415, -0.10065138339996338, 0.14046186208724976, 0.025184180587530136, 0.22189392149448395, -0.060139939188957214, 0.35140955448150635, -0.19099406898021698, 0.07346757501363754, 0.022290289402008057, 0.06184462457895279, 0.05066702142357826, 0.2305644154548645, -0.04214365407824516, -0.4832095503807068, 0.005044798366725445], [0.2046450674533844, 0.014996375888586044, -0.335328072309494, -0.06933236122131348, 0.17109817266464233, -0.07848142832517624, -0.08526860177516937, -0.05918370187282562, 0.0376955047249794, 0.1755024790763855, 0.2701132297515869, -0.1236216127872467, 0.07867522537708282, 0.18208225071430206, 0.13036441802978516, 0.11797796934843063, 0.15783560276031494, 0.239985853433609, -0.1186685860157013, 0.0638585239648819, -0.5518206357955933, 0.09725502133369446, 0.23855814337730408, -0.37734222412109375, -0.054324813187122345, -0.2342962622642517, 0.1598062813282013, -0.051318228244781494], [0.21074599027633667, 0.002454142551869154, 0.13901352882385254, -0.03044581227004528, -0.13374722003936768, 0.17186062037944794, 0.1520387828350067, -0.1178882047533989, 0.020064089447259903, -0.18237048387527466, -0.26782330870628357, -0.27344173192977905, 0.05772614851593971, 0.18207037448883057, 0.12504199147224426, 0.009921330958604813, -0.08356738835573196, -0.20221251249313354, -0.09042699635028839, 0.1389850378036499, 0.14258985221385956, -0.16829732060432434, -0.3328055441379547, 0.06235998123884201, -0.14164060354232788, 0.026281623169779778, -0.1592732071876526, -0.2010185271501541], [-0.1621653139591217, 0.06476421654224396, 0.10596978664398193, 0.09237663447856903, -0.06506232917308807, 0.13617606461048126, -0.20658500492572784, 0.08573556691408157, -0.026780396699905396, -0.025178663432598114, -0.0430120974779129, -0.13329316675662994, -0.0036849924363195896, 0.12727224826812744, -0.02308402583003044, -0.047095950692892075, -0.11104507744312286, 0.02036318928003311, 0.024576537311077118, -0.07273922860622406, -0.025645561516284943, 0.1776207536458969, -0.18118949234485626, -0.22205181419849396, 0.05581497400999069, -0.23257985711097717, 0.06454922258853912, -0.2409798502922058], [-0.04738548398017883, -0.12509995698928833, -0.08931665867567062, -0.19089153409004211, 0.1827293336391449, -0.13538463413715363, 0.19876641035079956, -0.05949792265892029, -0.049113597720861435, 0.02906842902302742, -0.290439248085022, -0.0016757857520133257, -0.0924416035413742, 0.12764692306518555, 0.0039014965295791626, -0.11157749593257904, 0.08692950755357742, -0.10829439759254456, -0.30264541506767273, 0.24382920563220978, 0.10482561588287354, -0.18908005952835083, -0.014669605530798435, 0.24258331954479218, -0.26322701573371887, 0.030329104512929916, -0.0892953872680664, -0.27852681279182434], [-0.3038245439529419, 0.01278841495513916, 0.22662237286567688, 0.16945531964302063, -0.23134461045265198, 0.13923873007297516, -0.2046966850757599, -0.19735997915267944, 0.14994089305400848, -0.013590263202786446, -0.1714213788509369, -0.07164683938026428, -0.10101597011089325, -0.20513272285461426, 0.01904185302555561, -0.07276975363492966, -0.097426638007164, -0.20905902981758118, 0.16655468940734863, -0.23686760663986206, 0.10042507201433182, 0.01935817301273346, -0.2164658159017563, -0.12000097334384918, -0.07472788542509079, -0.11549670249223709, -0.3296734094619751, 0.2650434374809265], [0.2917901277542114, 0.00044807750964537263, 0.11249491572380066, 0.06610465794801712, -0.12144158780574799, 0.18644170463085175, 0.16738270223140717, -0.06766088306903839, -0.0801454707980156, 0.15273305773735046, -0.1448458731174469, -0.07515715807676315, -0.01819358766078949, 0.0067390683107078075, 0.055083729326725006, -0.17160476744174957, 0.16139976680278778, -0.18004173040390015, -0.37460869550704956, 0.11059831827878952, 0.1081291139125824, -0.08745589107275009, -0.302926242351532, 0.18283158540725708, -0.32023006677627563, 0.19266240298748016, 0.02292487770318985, -0.1646375060081482], [0.22224237024784088, -0.09936074167490005, 0.13947957754135132, -0.05655547231435776, -0.08042587339878082, -0.16612154245376587, 0.21800273656845093, -0.12691056728363037, -0.10567398369312286, -0.028583694249391556, -0.07815076410770416, -0.07679387927055359, -0.12087421864271164, -0.07656508684158325, -0.06369232386350632, -0.24018646776676178, 0.022816384211182594, -0.2728210687637329, -0.03577135130763054, -0.03308771923184395, 0.007597295567393303, -0.1677655428647995, -0.02419207990169525, -0.060776710510253906, -0.26157402992248535, -0.0021406880114227533, 0.0967794880270958, -0.09839317202568054], [0.23841829597949982, -0.2338564246892929, 0.0891515463590622, 0.0994933545589447, -0.14048968255519867, -0.08378875255584717, 0.24785637855529785, -0.16880075633525848, -0.03450047969818115, -0.11386501789093018, -0.1263236701488495, -0.20375597476959229, 0.10449723154306412, 0.08139736950397491, -0.022874729707837105, -0.15931013226509094, 0.10457835346460342, -0.1474989652633667, -0.21391385793685913, 0.19896888732910156, 0.13940981030464172, 0.050974711775779724, -0.33224689960479736, 0.28576332330703735, -0.30378860235214233, -0.06756090372800827, 0.243763729929924, -0.13110235333442688], [-0.012054658494889736, -0.24596303701400757, 0.17649918794631958, -0.1798713654279709, 0.13630960881710052, 0.1870887130498886, 0.28869083523750305, -0.10784479975700378, -0.13675685226917267, -0.052104316651821136, -0.16245922446250916, 0.1403917670249939, -0.0260624960064888, 0.07853703945875168, 0.048394445329904556, -0.14575782418251038, 0.05869521200656891, -0.18664658069610596, -0.0846610963344574, 0.013524661771953106, 0.25323060154914856, 0.1618880331516266, -0.2722768783569336, 0.052653588354587555, -0.33030974864959717, -0.1258133500814438, 0.07680057734251022, -0.001270411186851561], [-0.05222737416625023, -0.00858222134411335, 0.008300146088004112, -0.03798644617199898, -0.1358385682106018, 0.024991784244775772, 0.24822676181793213, -0.19112549722194672, -0.16502568125724792, 0.017538877204060555, -0.1342875063419342, -0.06509935855865479, -0.03585712984204292, -0.10572027415037155, 0.030916865915060043, -0.07733729481697083, -0.16383551061153412, -0.24281054735183716, -0.14371924102306366, 0.01136683113873005, -0.097080297768116, -0.03289291262626648, -0.3193695545196533, 0.26874491572380066, -0.0024354797787964344, 0.07454479485750198, 0.2741042971611023, -0.10725431144237518], [-0.21731217205524445, 0.013505700044333935, -0.10506075620651245, -0.146255224943161, -0.100030817091465, 0.015388473868370056, 0.06304408609867096, -0.12103781849145889, 0.16958780586719513, 0.17645429074764252, -0.12170299142599106, -0.05276234447956085, 0.12377746403217316, -0.16886478662490845, 0.0002636659482959658, -0.04406328126788139, -0.16962723433971405, 0.1118810623884201, -0.06050292029976845, 0.11691971123218536, 0.07338419556617737, 0.024215564131736755, 0.019965603947639465, -0.11413609981536865, 0.1709667295217514, -0.1449795663356781, -0.1124492734670639, -7.322776582441293e-06], [-0.18937541544437408, -0.06672492623329163, -0.10913030803203583, 0.09435658156871796, -0.18536418676376343, -0.13483965396881104, 0.06277671456336975, 0.04634407162666321, -0.010286033153533936, 0.09889902174472809, -0.01903168112039566, -0.10274643450975418, 0.026610400527715683, -0.10946135222911835, -0.02889411151409149, 0.08118009567260742, 0.009063143283128738, -0.16564719378948212, -0.08662357926368713, -0.18407846987247467, -0.047417521476745605, 0.08387671411037445, 0.04962935298681259, -0.05829363316297531, -0.16219410300254822, -0.11651217192411423, 0.05543788522481918, 0.07957638800144196]], "critic.network.2.bias": [0.1972532421350479, 0.24987751245498657, 0.14433136582374573, -0.02976919896900654, 0.21510788798332214, 0.0192769393324852, 0.09500468522310257, -0.171525776386261, 0.2853130102157593, -0.21340955793857574, -0.08295400440692902, 0.05481806397438049, 0.20911453664302826, -0.22533991932868958, 0.088405080139637, -0.03545545041561127, -0.19649673998355865, 0.10991272330284119, 0.13116320967674255, 0.25884100794792175, 0.10625925660133362, 0.2991859018802643, 0.14348019659519196, -0.005995997227728367, 0.21343795955181122, 0.2801196277141571, 0.04971173033118248, 0.0938335657119751], "critic.network.4.weight": [[0.08439160138368607, 0.08716022223234177, 0.21770931780338287, -0.013912634924054146, 0.07867205888032913, 0.15223148465156555, -0.18960049748420715, -0.04197902977466583, 0.03846058249473572, -0.08172248303890228, -0.15897902846336365, -0.05361645668745041, 0.09193652123212814, -0.2691406011581421, -0.009134223684668541, -0.29703378677368164, -0.025735078379511833, 0.20446869730949402, -0.027143366634845734, 0.16439802944660187, 0.04260590672492981, 0.23041009902954102, 0.03334353491663933, 0.08302516490221024, 0.2758442461490631, -0.01670559123158455, 0.03952621668577194, -0.1431533545255661], [0.21171851456165314, 0.23822885751724243, 0.20216403901576996, 0.0017184079624712467, 0.2789461016654968, -0.04258070886135101, -0.013866942375898361, -0.013816136866807938, 0.32141777873039246, -0.06319880485534668, 0.07571732997894287, -0.15655368566513062, 0.34125542640686035, -0.207508847117424, -0.014796115458011627, -0.29400962591171265, -0.29092299938201904, -0.04442756250500679, -0.1252671480178833, 0.20899733901023865, -0.04790164530277252, 0.11604944616556168, 0.09161480516195297, 0.0723612904548645, 0.25612565875053406, 0.20639260113239288, 0.04382055252790451, 0.20296509563922882], [-0.2453598976135254, 0.039227213710546494, 0.02040283940732479, 0.06708762794733047, -0.04982218146324158, 0.03153717517852783, -0.057916514575481415, 0.08139769732952118, -0.060226425528526306, -0.1479225605726242, 0.03337094187736511, -0.009822038933634758, -0.09744617342948914, -0.16402456164360046, -0.1620626151561737, -0.20339463651180267, 0.07096649706363678, -0.1531243771314621, 0.16972532868385315, -0.009738285094499588, -0.02692560851573944, 0.11257012188434601, 0.033433981239795685, -0.0025002039037644863, -0.07315084338188171, -0.10915940999984741, -0.17017009854316711, 0.05164162814617157], [0.07658188045024872, -0.17660856246948242, -0.008625785820186138, -0.11934378743171692, -0.15301930904388428, 0.11526618897914886, 0.0721869245171547, -0.03044167160987854, -0.17854732275009155, 0.02429872751235962, -0.008047892712056637, 0.1251603066921234, -0.12768705189228058, -0.027435945346951485, 0.09373851120471954, -0.15097440779209137, 0.10725172609090805, 0.17114479839801788, 0.11785389482975006, -0.14776213467121124, 0.06578291952610016, 0.10665318369865417, 0.16627755761146545, 0.024491682648658752, -0.1668892204761505, -0.10171353816986084, -0.1646084040403366, 0.07795460522174835], [0.1584147959947586, -0.16024675965309143, -0.14058250188827515, -0.03245265781879425, 0.03583391010761261, 0.17001591622829437, 0.020888835191726685, 0.014961227774620056, 0.061610832810401917, -0.12877652049064636, 0.18038122355937958, -0.03408706188201904, -0.18819575011730194, -0.13101732730865479, 0.1511816829442978, 0.16801570355892181, -0.10899877548217773, 0.09709210693836212, -0.164605051279068, -0.09961327165365219, -0.06914229691028595, -0.1853814721107483, -0.01054815948009491, -0.18340831995010376, 0.03290584683418274, -0.16921381652355194, 0.16061483323574066, -0.15827180445194244], [-0.1364516317844391, 0.1719973236322403, -0.13052871823310852, -0.04819853603839874, -0.06690198183059692, -0.04698735475540161, 0.1571420282125473, 0.16297300159931183, 0.12767921388149261, 0.18580012023448944, -0.11301685869693756, -0.03223086893558502, 0.004629567265510559, -0.01631036400794983, -0.020617276430130005, 0.039745181798934937, -0.03397548198699951, 0.12279824912548065, 0.07024051249027252, 0.11034168303012848, 0.11580224335193634, -0.07422304898500443, 0.15892796218395233, -0.17388756573200226, -0.02621503174304962, 0.008885666728019714, 0.03584587574005127, -0.09105762839317322], [0.007498413324356079, 0.1716671735048294, 0.1077290028333664, 0.035881444811820984, -0.09912688285112381, -0.1871650218963623, 0.02813534438610077, -0.03175687789916992, 0.18666474521160126, 0.0916198343038559, 0.14091859757900238, 0.0745658427476883, -0.17480237782001495, -0.12019052356481552, -0.09004943072795868, -0.12974140048027039, 0.10338078439235687, 0.05203959345817566, 0.06471855938434601, -0.14202798902988434, -0.15815702080726624, -0.038319796323776245, -0.04915472865104675, -0.1626032590866089, 0.053227439522743225, 0.030051112174987793, 0.0811910480260849, 0.1630813032388687], [-0.10933535546064377, 0.1183011382818222, -0.04415956139564514, 0.16759027540683746, -0.13324090838432312, -0.05243271589279175, 0.12477047741413116, -0.056993111968040466, 0.06277342140674591, -0.15922489762306213, -0.010968402028083801, -0.141078919172287, -0.09519170969724655, -0.17289848625659943, -0.10286755114793777, 0.15783850848674774, -0.03913016617298126, 0.1267099529504776, 0.13854877650737762, 0.1233799010515213, 0.018311604857444763, -0.011045902967453003, 0.14156080782413483, -0.12441390752792358, 0.009965717792510986, 0.016555652022361755, -0.05071048438549042, 0.0519733726978302], [-0.04846426844596863, 0.011503812856972218, -0.08010435849428177, 0.09277775883674622, 0.015027947723865509, 0.04406321048736572, 0.07198914885520935, -0.04192565381526947, -0.09159033000469208, 0.16198810935020447, -0.0786234438419342, -0.04811777174472809, -0.14836496114730835, -0.09913285076618195, 0.15355873107910156, -0.23767903447151184, -0.35803017020225525, -0.22484004497528076, -0.10252203047275543, 0.07509006559848785, 0.0008014976046979427, -0.09555171430110931, -0.0065423245541751385, 0.09718095511198044, 0.1065765768289566, 0.11128851771354675, 0.10948757827281952, 0.02595437690615654], [-0.16914914548397064, -0.07662110775709152, 0.06793360412120819, -0.0372006893157959, -0.08539334684610367, -0.10679689049720764, -0.011758401989936829, -0.08624676614999771, 0.007556945085525513, -0.143538698554039, 0.0702614039182663, -0.11809740215539932, 0.043982669711112976, -0.022396579384803772, 0.009254679083824158, -0.08914703130722046, -0.17848114669322968, 0.0901627391576767, -0.03135380148887634, -0.037290602922439575, -0.18241456151008606, 0.139762744307518, -0.14440883696079254, -0.06819161772727966, 0.012956887483596802, -0.12855549156665802, -0.08484076708555222, 0.031384050846099854], [0.1266510784626007, -0.086417056620121, 0.1139255091547966, 0.02065196819603443, 0.018851634114980698, 0.03988013043999672, -0.08659113943576813, -0.037300340831279755, 0.07055002450942993, -0.043534524738788605, 0.035932160913944244, 0.029287446290254593, -0.18872034549713135, -0.06080133467912674, -0.02477806620299816, 0.12163163721561432, -0.18656828999519348, 0.03145771473646164, 0.1292620748281479, -0.0805194228887558, -0.023609984666109085, -0.004303618799895048, -0.14230191707611084, -0.027422863990068436, 0.027431001886725426, 0.07110638916492462, -0.1465681493282318, -0.09797129034996033], [0.10417108237743378, -0.1625227928161621, -0.12394184619188309, 0.054167985916137695, -0.12844863533973694, 0.05021451413631439, 0.15068529546260834, 0.15916360914707184, -0.15506932139396667, -0.06450344622135162, -0.11760950833559036, -0.08939710259437561, 0.042610958218574524, -0.12805356085300446, 0.03116428852081299, -0.1403447389602661, -0.08031095564365387, 0.004724219441413879, -0.0995163545012474, -0.08147860318422318, -0.15485930442810059, -0.055975839495658875, 0.14766381680965424, -0.021592989563941956, -0.0957115963101387, -0.09565716981887817, 0.0729304701089859, 0.08317659795284271], [0.26892492175102234, 0.27725324034690857, 0.07563673704862595, 0.09782001376152039, 0.020985424518585205, -0.03563830628991127, -0.12963898479938507, -0.11322037875652313, 0.3045942187309265, 0.016409672796726227, -0.012170132249593735, -0.006769342347979546, 0.18582846224308014, -0.23752982914447784, -0.06086764484643936, -0.10163301229476929, 0.018984327092766762, 0.16266418993473053, -0.011444175615906715, -0.006425950210541487, -0.27416279911994934, 0.29239901900291443, 0.2899305522441864, 0.1202373132109642, 0.19700834155082703, 0.044592246413230896, 0.1410309374332428, 0.02080564945936203], [0.2849676012992859, 0.2811022996902466, -0.028955690562725067, -0.11138759553432465, 0.13531267642974854, -0.004118192009627819, 0.1718704104423523, -0.06031378358602524, 0.02304549142718315, -0.019590526819229126, -0.04738325625658035, -0.08203968405723572, 0.34110286831855774, -0.29691702127456665, 0.025637086480855942, -0.17375227808952332, -0.23784977197647095, -0.008535796776413918, 0.11467400193214417, 0.07808432728052139, -0.18901842832565308, 0.2836478650569916, -0.014670072123408318, 0.20598436892032623, -0.04362722858786583, 0.2585838735103607, 0.1863599270582199, -0.1040322482585907], [0.16962222754955292, 0.28966188430786133, 0.02006732113659382, 0.14356930553913116, 0.11606554687023163, 0.04340273141860962, -0.03241236135363579, 0.08800606429576874, -0.02342955768108368, 0.002724636811763048, -0.122629314661026, -0.05454917252063751, 0.23316842317581177, -0.18974263966083527, 0.1714126467704773, 0.06010681390762329, -0.03756112977862358, 0.2753041088581085, -0.17696183919906616, 0.33383703231811523, -0.0801205113530159, 0.11946725100278854, 0.24170228838920593, 0.33672991394996643, 0.24210089445114136, 0.13303238153457642, -0.09658108651638031, -0.15547668933868408], [-0.22170256078243256, -0.1955520659685135, -0.2115423083305359, 0.15224942564964294, 0.10711201280355453, 0.09749113023281097, 0.12276580184698105, -0.11656510829925537, -0.08342832326889038, 0.13364700973033905, 0.019193129613995552, -0.0013676531380042434, -0.1670432984828949, 0.10339334607124329, -0.1840992420911789, 0.08437992632389069, 0.08170443028211594, 0.08623196184635162, 0.08412470668554306, -0.08138424903154373, 0.12912966310977936, 0.013806836679577827, 0.02962685003876686, 0.034628160297870636, -0.1144866794347763, -0.20983119308948517, 0.12206891924142838, -0.1644182652235031], [0.0380183607339859, -0.17962363362312317, 0.06435327231884003, -0.15292653441429138, -0.18696308135986328, -0.00998525321483612, 0.11593149602413177, 0.039705634117126465, -0.1666281819343567, -0.030777916312217712, -0.11541886627674103, 0.12287281453609467, -0.15408377349376678, 0.02622927725315094, -0.05577707290649414, -0.011793449521064758, -0.03984569013118744, -0.07280179858207703, 0.04526449739933014, 0.1071673184633255, -0.09771379083395004, -0.10096797347068787, -0.011763334274291992, -0.12914025783538818, -0.14137083292007446, -0.15125788748264313, -0.1706787645816803, 0.052727699279785156], [0.10418061912059784, -0.16916599869728088, 0.07250800728797913, 0.11652249842882156, -0.2191900908946991, 0.04740951955318451, -0.0022319124545902014, 0.023478660732507706, 0.14437943696975708, -0.028588082641363144, -0.046285275369882584, -0.03361785039305687, 0.05691942945122719, -0.08057253062725067, 0.1084355041384697, 0.11445310711860657, -0.19650621712207794, -0.19166889786720276, 0.03523009642958641, -0.19467514753341675, 0.054046377539634705, 0.0664329081773758, -0.17191869020462036, -0.05730738490819931, 0.11396008729934692, -0.15280377864837646, 0.05620398744940758, 0.185444638133049], [-0.17274542152881622, -0.14922282099723816, -0.15072320401668549, 0.0608895868062973, -0.014544159173965454, -0.021749496459960938, -0.04865331947803497, -0.09846346825361252, -0.06189174950122833, -0.09415866434574127, 0.10052205622196198, 0.17727692425251007, 0.08829914033412933, 0.063076451420784, 0.0618845671415329, 0.053673118352890015, -0.002889290452003479, -0.0655764490365982, 0.1124834269285202, 0.1579383760690689, 0.06157539784908295, 0.10466094315052032, 0.11284865438938141, 0.01607072353363037, -0.14750075340270996, -0.14157791435718536, -0.16408519446849823, -0.1534583866596222], [0.1889103800058365, 0.2469891756772995, 0.22625793516635895, -0.14077144861221313, 0.2341122031211853, 0.0739412009716034, -0.11875948309898376, 0.05083387345075607, 0.18534350395202637, 0.0008638884173706174, 0.041679371148347855, -0.10758310556411743, 0.2888871133327484, -0.23991945385932922, -0.09536738693714142, -0.30999308824539185, -0.34374159574508667, 0.14413435757160187, 0.06259390711784363, 0.30470889806747437, 0.010721557773649693, -0.0010271271457895637, 0.20841282606124878, -0.06015567108988762, 0.23483635485172272, 0.2558801472187042, -0.14406810700893402, -0.10219492018222809], [-0.06551871448755264, -0.15301144123077393, 0.18427278101444244, -0.025425121188163757, -0.15106093883514404, 0.07871381938457489, -0.009188428521156311, 0.005061164498329163, -0.1794981062412262, -0.0033162832260131836, 0.15878431499004364, 0.01710471510887146, -0.15140360593795776, -0.13785146176815033, 0.01866339147090912, -0.06191794574260712, -0.041337206959724426, 0.07031024992465973, -0.003825560212135315, 0.032169073820114136, -0.14268434047698975, -0.14346782863140106, -0.130507230758667, -0.1799941509962082, -0.17691807448863983, -0.14673997461795807, -0.09900646656751633, 0.02099442481994629], [-0.02443724311888218, 0.08490821719169617, -0.03163263574242592, -0.05273883789777756, 0.07883991301059723, 0.12387107312679291, -0.17958803474903107, 0.08606989681720734, 0.07716535031795502, -0.01332112867385149, 0.16208210587501526, -0.07245077937841415, -0.04813079535961151, 0.26178503036499023, -0.0007790274685248733, -0.06716002523899078, 0.16940590739250183, 0.12975504994392395, 0.03782273456454277, -0.1363511085510254, 0.16202932596206665, -0.027696114033460617, 0.03747343271970749, -0.09683604538440704, -0.05033854395151138, 0.03064446523785591, -0.1787659078836441, -1.5175914995779749e-05], [-0.06419752538204193, 0.21544548869132996, 0.04225262999534607, 0.05236435309052467, 0.23186098039150238, -0.13681896030902863, -0.06915391236543655, -0.16142642498016357, 0.1534036248922348, -0.09083423018455505, -0.10372769832611084, -0.2140713930130005, 0.29120779037475586, -0.42095112800598145, 0.08025187999010086, -0.2736780345439911, -0.13824450969696045, 0.11843451857566833, 0.042842522263526917, 0.31861865520477295, -0.20791807770729065, 0.04518664628267288, -0.0879327580332756, 0.3114684224128723, 0.1884523183107376, 0.08711326867341995, -0.07255500555038452, 0.1191219836473465], [0.0038227273616939783, 0.08325544744729996, 0.013921860605478287, -0.03741086646914482, 0.20621679723262787, -0.1278250813484192, 0.09746550768613815, -0.11640381067991257, 0.0458376407623291, 0.1723913997411728, 0.17783397436141968, -0.24630209803581238, 0.04893574118614197, -0.1694767326116562, 0.052412860095500946, -0.28714242577552795, -0.17029283940792084, -0.11138483136892319, -0.21670809388160706, 0.21196089684963226, -0.19297072291374207, 0.16101785004138947, 0.21966105699539185, -0.045485660433769226, 0.3041595220565796, 0.22621916234493256, -0.16085170209407806, 0.012058818712830544], [0.2720910906791687, 0.2613227069377899, 0.16500279307365417, 0.031393975019454956, 0.3049110770225525, 0.019004346802830696, 0.013648439198732376, -0.1663874238729477, 0.2883743643760681, 0.05246590077877045, 0.06832599639892578, -0.19525042176246643, 0.15355034172534943, -0.19096259772777557, -0.1330001950263977, -0.0764458179473877, -0.3144940137863159, -0.026865113526582718, 0.08513494580984116, 0.12708687782287598, 0.03392860293388367, 0.22752416133880615, 0.11444621533155441, 0.0559430792927742, -0.03146785497665405, 0.04255363345146179, -0.12635992467403412, -0.026260294020175934], [-0.06458020210266113, -0.17384174466133118, -0.08095771819353104, -0.11726822704076767, 0.037119388580322266, -0.07426731288433075, -0.07462342083454132, 0.1680900901556015, -0.06684412807226181, 0.06419728696346283, -0.13415402173995972, 0.06469260156154633, 0.07509191334247589, 0.027795717120170593, 0.03743106126785278, 0.015417829155921936, 0.09056057035923004, -0.10509383678436279, -0.0039254724979400635, 0.1124030202627182, 0.11770112812519073, -0.10941363871097565, -0.05728580057621002, -0.1831309050321579, -0.14228466153144836, -0.07371032238006592, 0.05597931146621704, 0.02524755895137787], [0.1923460066318512, -0.14913704991340637, -0.10640984028577805, -0.06262105703353882, 0.12658962607383728, 0.13463376462459564, -0.030825842171907425, 0.053012385964393616, -0.07924261689186096, -0.04290509223937988, 0.10180608928203583, 0.17647315561771393, -0.16880829632282257, 0.1747467815876007, 0.12201480567455292, -0.027540605515241623, 0.14473187923431396, -0.16489282250404358, -0.07555548846721649, 0.06340067088603973, -0.13483285903930664, -0.1769208461046219, -0.013198892585933208, -0.14399975538253784, 0.010618463158607483, -0.14508208632469177, -0.05762116611003876, 0.04180866479873657], [-0.18284353613853455, 0.175139918923378, -0.2071056216955185, 0.007049717474728823, 0.13234740495681763, -0.12001575529575348, -0.2134220004081726, -0.16824273765087128, 0.1806713491678238, 0.050303325057029724, 0.1648014485836029, -0.22139474749565125, 0.15899169445037842, -0.2592035233974457, -0.005813403055071831, -0.2403494119644165, 0.026475101709365845, -0.033617742359638214, 0.1822413057088852, 0.08917462080717087, -0.06805969029664993, 0.04214230552315712, 0.05710400268435478, 0.0019460300682112575, -0.0027609493117779493, -0.08901369571685791, -0.09762722253799438, -0.009022410959005356]], "critic.network.4.bias": [0.29820334911346436, 0.22760812938213348, 0.03597831726074219, -0.08883798122406006, -0.07626248151063919, -0.10104076564311981, -0.16071373224258423, -0.15857966244220734, 0.1297968327999115, -0.05074518918991089, -0.1546698361635208, -0.13739807903766632, 0.2599166929721832, 0.2270774394273758, 0.18660695850849152, 0.13686765730381012, 0.027177810668945312, -0.0662073940038681, -0.07563943415880203, 0.041256118565797806, -0.12359137088060379, -0.16410088539123535, 0.24232928454875946, 0.3173151910305023, 0.20242884755134583, -0.06091511249542236, -0.06306134909391403, -0.13573221862316132], "critic.network.6.weight": [[0.2000296711921692, 0.22985689342021942, 0.007769474759697914, -0.16828003525733948, -0.023244723677635193, 0.09787352383136749, 0.15450234711170197, 0.11199362576007843, 0.005527574568986893, 0.18282876908779144, -0.014239750802516937, -0.038934946060180664, 0.14663873612880707, 0.31711578369140625, 0.21868717670440674, -0.06690080463886261, -0.14209769666194916, -0.16150838136672974, 0.0376993864774704, 0.19687172770500183, 0.1866743415594101, -0.029917413368821144, 0.20649026334285736, 0.1276824176311493, 0.3052130341529846, -0.05239073932170868, 0.08032812178134918, 0.0013071427820250392]], "critic.network.6.bias": [0.38006800413131714]}